-0.008424871,-0.015749844,-0.0106007885,0.019431682,-0.037773997,-0.0009875224,0.046987947,0.018496241,0.008117866,0.06666252,-0.051594917,0.0021799735,0.0451478,0.009348075,0.052373603,-0.030771894,0.011217206,0.007581098,0.048078828,-0.03392841,-0.01802573,0.012153545,0.038930308,-0.023834886,0.046068244,0.0040286244,0.011623492,0.037475694,-0.013294061,0.035887137,0.09608734,-0.004356801,0.005886768,0.05536506,-0.03392114,0.0018560456,0.031554073,0.030159678,0.0070248106,0.005230751,0.029858472,0.010173643,0.009861048,-0.03698052,0.030895196,-0.047657244,-0.025423143,0.06837955,-0.020185968,0.055910286,0.0077585913,0.008672341,-0.03802232,0.038259536,-0.008978215,0.040183112,-0.031457722,0.028745256,-0.010989244,-0.021868344,0.011898748,0.0021112326,0.026346862,0.04859845,-0.013535015,0.06016921,0.0019888429,-0.03174979,0.017015187,0.04965078,-0.024121225,-0.03210471,-0.013190243,0.0027921337,0.008613491,-0.013134161,0.028849281,0.069411695,0.009143738,-0.043245938,0.009772914,0.03823617,0.06488942,0.05391242,0.001691915,-0.016797295,0.031837244,0.08063977,0.051415868,0.043816335,-0.0031548028,0.033718288,0.022342991,0.0061493227,-0.031073678,0.022063509,-0.008960538,-0.008712446,-0.008061272,0.042688075,0.026241284,0.0016857645,-0.0044844323,-0.013602959,-0.03939096,-0.01245275,-0.025208345,0.043008205,0.015802931,0.020597717,0.029987957,-0.0030153133,0.036814347,-0.0155057125,-0.023830678,0.04443143,-0.0022494437,0.01938037,0.007139854,-0.0069234963,0.012317705,-0.01171617,-0.007977853,-0.0005299267,-0.003062237,-0.05828761,-0.025304558,0.02452567,-0.005843602,-0.03548557,0.00022849604,-0.0013667634,0.050109323,0.07744356,0.011475547,-0.020896973,-0.0094493935,0.03232064,0.01696072,0.04467782,0.01679267,0.045205824,0.051273238,0.020680474,0.023363518,-0.014922926,0.011062024,-0.029007051,0.10352422,0.005554125,0.045127377,0.019650366,-0.012964695,0.023684578,0.031013057,-0.030700378,0.01647184,0.07091957,0.015339139,-0.011312718,0.034258492,-0.0018926858,-0.07984844,0.04642303,0.0013536201,0.02687267,0.034677636,-0.010209283,-0.006760721,-0.0012311508,0.056670476,-0.033796266,0.07824442,0.021388374,0.036503196,-0.035698783,0.051877316,0.013356027,0.012942141,0.03189918,-0.040522955,-0.030500095,0.039765343,0.026834281,0.023209449,0.03507127,0.0053388877,0.020273462,0.046903573,0.018706046,-0.015287191,0.01477174,0.06803992,-0.009267644,-0.027765583,0.09909625,-0.010984698,0.011945663,-0.0076675685,-0.031392388,0.030850625,0.005084375,-0.02793689,-0.0065143323,0.035773315,0.0091993455,0.030367179,-0.0076984745,0.0098214485,0.030389974,-0.022383898,0.005291668,-0.029344162,-0.033170935,-0.0045918743,0.05237409,0.033803616,0.009661028,-0.04410961,0.008066188,-0.021543887,-0.047257666,0.027362727,0.060784236,0.004374499,-0.03533223,-0.011891683,0.03496582,0.04964806,0.040029626,-0.010564554,0.0006907373,-0.01329018,0.014154492,-0.017339787,0.0033795505,-0.008626891,0.011641113,0.00615043,0.058182225,0.03268707,-0.053307775,0.020729305,-0.02914245,0.080546476,0.003480245,0.036961485,-0.021078927,-0.012863842,-0.03423225,0.0064342683,-0.03312007,0.019403432,0.07727932,-0.009093521,0.009175147,0.0006464786,0.025804391,0.027289769,-0.042417165,0.010189418,0.036049526,0.00020810326,0.043920252,-0.017158005,0.057870086,-0.008902492,0.019263096,-0.02801943,0.027124472,0.05492045,-0.022192122,0.050672468,-0.009029038,0.07263656,0.02819296,0.038583443,0.0073875347,-0.039419524,-0.0041183583,-0.02423123,-0.0719735,-0.025256492,0.054030858,0.036932684,0.013483106,0.008651573,-0.03008054,0.049043752,-0.0029484949,0.050551277,0.007350472,0.006193642,0.015578366,-0.026170922,-0.0363619,0.048757866,-0.017859062,0.094749,-0.010464924,0.028403528,0.033531357,0.00835478,0.06252362,0.054875888,0.020492598,0.025759362,-0.011767669,0.018302891,0.023098571,-0.0032840276,0.028956706,0.009623325,0.06157254,-0.039237607,0.04054634,0.01253874,-0.038406935,0.08802894,-0.012722466,-0.0408764,-0.038747914,-0.019339021,0.032018054,0.02074991,-0.040741142,0.009691115,0.024477819,-0.024792131,0.015172998,0.025929434,0.012339835,-0.027620316,0.019343475,-0.03310116,-0.030870367,0.042228535,-0.014515605,0.04302368,0.022760782,0.031822897,-0.012712864,-0.009989775,-0.0033690226,0.043307036,0.00045646887,-0.018553536,0.021844605,-0.0151399905,-0.008716537,0.024931012,0.065579504,0.04501885,-0.021414755,0.039130434,0.104990356,0.07203824,-0.028366035,0.040764697,0.0051439586,-0.012989212,0.017796922,-0.031632446,-0.019692894,-0.00013096919,0.0134696625,-0.022738736,0.006263947,0.017545545,0.006547169,0.02274651,0.018288387,-0.020395754,0.045162737,-0.026138807,0.022128679,-0.017087916,0.04287509,0.010844718,0.030748118,0.052156676,-0.020374438,0.00023246203,0.016529702,-0.051003627,0.030312221,0.07262848,-0.009665921,0.048496645,-0.0031492687,-0.09006377,-0.0283777,-0.0065910593,0.040122375,-0.024283247,-0.022416601,0.05800909,-0.0009682423,-0.011171698,9.099377e-06,-0.011531233,0.018392626,0.024964953,-0.05355208,0.024690723,-0.02016078,-0.010340397,-0.033933755,0.007894881,0.019199606,-0.01586058,0.048897386,0.05478124,-0.029309563,0.014568101,-0.02055686,0.002740162,-0.021682674,0.011825345,-0.04925315,0.053373706,0.02779115,-0.058026485,-0.03093205,0.014428656,-0.02439023,-0.032003704,0.022620406,0.0313636,0.010208151,0.014890362,0.003814226,0.026071504,0.01556754,0.047605034,0.025385186,0.01340261,0.030590596,0.012801795,-0.032265555,-0.0003709446,-0.031629447,0.07897279,-0.016856434,0.07074835,0.019811224,-0.025533112,-0.0042628828,-0.0013829786,0.047513276,0.03661598,0.011908429,-0.014643482,-0.019477576,0.05952676,0.002446973,0.020355573,0.02978223,-0.03817966,0.016623395,0.007795582,-0.03853312,-0.017659757,-0.025782017,0.02000306,0.002755782,-0.008217977,0.024051283,0.022657959,-0.0032419676,-0.0021247414,-0.040320735,0.061665695,-0.011422178,0.03036214,0.016557826,0.0458332,-0.0038942024,0.012177992,0.04454349,0.057395924,-0.013644925,0.02236668,-0.027912261,0.05340146,-0.015081013,0.009422442,0.045309577,0.0353934,0.01499016,0.049623456,0.05604168,-0.013556533,-0.02141003,0.0006118056,0.008724283,0.0057103876,-0.0027747562,0.046372432,-0.04247857,0.01823434,-0.005751926,-0.008659289,-0.006201979,0.005776592,-0.010770909,0.052671496,-0.017139925,-0.005515604,-0.0045026448,0.006080813,-0.022190759
