0.03055035,-0.029909203,-0.021762522,-0.013219515,0.041849397,0.0361197,0.008293651,-0.009909964,-0.000104012484,0.0042130197,0.038295146,0.07100329,-0.0016860276,-0.025759477,0.05854542,-0.016231744,-0.037500184,-0.031038996,-0.025233394,-0.00028587415,-0.024905173,0.057740856,0.039145187,0.0008591434,-0.028839301,0.052931886,0.009529136,-0.038558364,0.024554718,0.037487064,-0.01428339,-0.0045629735,0.029506292,-0.0005125639,0.041939598,0.075647645,0.018162664,0.012014013,0.008175668,-0.029663714,0.014957844,0.012808978,0.0062108757,-0.030651351,0.03818844,0.06592122,0.0035705,0.016523594,0.032153916,0.0507478,0.011185596,-0.018526271,0.021377329,0.05731013,-0.007490955,0.020139862,0.02961112,-0.0177245,0.08561676,-0.004800779,0.008902757,0.022947505,0.00716409,0.067016914,0.009250486,0.020583654,-0.020720463,0.020347381,0.004859421,0.023931181,-0.003147039,0.017357694,-0.013386834,0.06777035,0.03251025,0.05255131,0.0754835,0.026916178,0.020668028,-0.010673598,-0.0029276307,0.021097068,-0.018904077,-0.028593611,0.010396334,0.030871129,-0.041038647,-0.020872625,-0.011721696,0.052845106,-0.010472357,-0.012077028,-0.03954333,-0.034689747,-0.04228808,0.048706487,0.05886888,0.06720165,0.042480968,0.044085555,0.0129862875,0.0066201184,0.024136357,9.909898e-05,-0.039584015,0.022959404,-0.007467272,0.024165189,0.0069275545,0.02423091,-0.028014023,-0.011498846,0.05493515,0.06451227,0.07182918,0.04722615,0.06065208,0.0060358616,-0.0016576983,0.0149688,0.03826131,-0.0071572545,0.052533768,-0.020156914,-0.03606064,0.04164999,-0.032689948,-0.014449394,0.041985042,0.060392465,-0.0018679175,-0.048160713,0.03605569,0.0209914,-0.016032627,-0.019357797,-0.019522648,-0.014318013,0.032211028,-0.004503031,-0.0053607603,-0.030622985,-0.017718721,0.07809704,0.07222724,0.015459487,0.0108092595,0.022976864,0.04728152,0.057637982,-0.022795873,0.070637345,0.031528417,-0.0141261425,-0.008580231,0.032207645,0.0073527526,0.053356152,-0.010192196,-0.029793907,0.075151026,-0.018524025,-0.005009306,-0.002736564,0.031709503,0.018177059,0.043455258,-0.008993315,0.013704084,0.0042988746,-0.013743631,0.03312516,-0.003471909,-0.03381254,0.011325503,-0.01842277,-0.031883895,-0.014456434,0.019297244,0.035278752,0.01853896,0.015298759,0.06380523,0.0060331095,-0.015442928,0.0026397384,-0.003131855,0.04891171,0.07483026,-0.032167856,0.047310866,-0.047986038,0.020302594,0.003281074,-0.02957913,0.0315796,0.037893914,0.025213633,-0.001389144,0.0066950163,-0.016387604,0.003618522,0.005436144,0.026348501,0.039610635,-0.0026173086,0.020036455,0.0041070795,0.01588911,-0.010733253,-0.034217473,0.060901433,0.05196602,0.02895868,-0.038062308,-0.023492765,0.0066239145,0.07888003,-0.002890817,-0.0044964976,-0.029737711,0.03179957,-0.040733047,-0.019242851,-0.046448447,0.09682036,-0.036023226,0.028320279,0.050565857,0.03992216,0.032443285,0.079560176,0.06526619,0.071282946,-0.024298722,0.020722274,-0.022963068,0.06706869,0.025857206,0.040815525,0.018308762,-0.043433696,0.045338217,0.06494229,0.017087867,0.00076573814,0.010099437,0.0031501416,0.007968963,0.008542658,0.014039365,-0.012912259,-0.021730943,-0.005071623,0.033354778,0.003118001,0.02092425,-0.0005620312,-0.008933946,-0.013315941,0.03992655,0.046199493,-0.023352785,0.04386318,-0.007002315,-0.030944956,0.07787601,-0.018296676,-0.0072228555,-0.034670535,0.05350569,-0.004833891,0.05395457,0.019528067,-0.014657177,0.026487235,0.058648396,0.06036174,0.0049212314,0.048846085,0.019176092,0.039752375,0.021543058,0.02247474,0.013903896,0.030447144,0.0565971,0.054647528,0.019668058,0.02093505,0.06545317,0.04831106,0.012686619,0.045749735,0.060694534,-0.014446107,0.0441014,-0.0018541784,0.07712622,-0.0042774575,-0.015863154,0.03682485,-0.031392083,-0.048974738,0.018077536,0.02441739,-0.0038926671,0.004683079,-0.020884985,0.06695439,0.05954041,-0.021974543,-0.033850048,0.061623294,0.051299058,0.036073122,-0.03482783,0.058084518,-0.0070104813,0.055580147,0.00090888765,-0.017816106,0.009554303,-0.017906705,-0.020458002,0.039885696,0.026457993,0.041826442,0.05483558,0.013041997,-0.00095069787,0.013833129,-0.019233307,0.04084265,0.04811156,0.008186593,-0.027094545,-0.005604013,-0.038223047,0.024092501,0.043607425,-0.025005192,-0.0063804947,0.025530262,0.04730233,0.02063011,0.0023613714,-0.00028159074,-0.005632046,0.004446031,0.043748677,0.009811804,0.010265505,0.032892022,0.044571072,-0.029487466,0.038405124,-0.01780265,-0.0018972695,0.05609456,0.0062182387,0.056277975,0.0021677131,-0.0029427179,-0.0024441893,-0.0032309406,-0.01192693,-0.016047563,0.046753008,0.044123687,0.0546445,0.041240577,0.068542115,-0.0022108085,0.022694424,0.040793583,-0.007760247,0.06209867,0.03223491,-0.032768745,0.096724935,0.0128175095,0.031781334,-0.008768645,-0.033960853,-0.030691195,0.016549531,0.032299273,0.054854468,-0.013520457,-0.027316716,-0.0005818901,-0.025748469,0.04716967,0.0119440425,0.03667272,-0.010087792,0.016362086,0.022355735,0.047693297,0.048348423,-0.010101482,0.034591015,0.051024992,-0.017190352,-0.016390815,0.026242487,-0.015391498,-0.01702719,-0.0032436878,0.049110275,0.011634735,0.045806404,-0.02621277,0.04442769,0.024198802,-0.0047395616,-0.0074977516,0.030655725,0.017719138,0.0061748596,-0.04134815,-0.036698885,-0.048882175,0.025346164,-0.019684259,0.00056685845,0.07164984,0.05306131,-0.010936963,0.038357124,0.007883944,-0.024987508,0.064547025,0.022331523,0.018755922,0.009598695,0.008006106,0.026362797,-0.008263891,0.049159635,-0.029813947,-0.02444338,-0.02286385,0.014496244,-0.037484445,0.044523995,0.030365149,-0.008014818,0.05296016,-0.0079090735,0.026557297,0.014898751,0.01702097,0.039192375,-0.006534368,0.030777963,-0.021298265,0.008097099,0.08240187,-0.023634195,-0.013529889,0.0013537708,0.0002772524,-0.0011328083,0.009479938,-0.024444468,0.042692058,0.052475054,-0.023013938,0.03785504,0.03353385,0.06786763,0.0060901707,-0.0014143426,0.0037352068,0.04226255,-0.021398231,-0.010259835,0.079187565,0.0041026548,0.018681953,0.013960762,0.019847529,-0.016252372,-0.017216304,0.0061129835,0.037415445,-0.024491368,0.0080610495,0.025157943,0.05546803,0.02521281,0.041180737,0.05656158,-0.0008537305,-0.0020119806,0.028914694,-0.03228851,0.020812279,0.0090914,0.00059981487,0.027530879,0.044677235,0.020109855,0.034861434,0.01464129,-0.016485564,0.03749272,-0.014920886,0.051188115,0.06170154
