-0.011167246,-0.030948842,0.046557695,-0.026717769,-0.020453947,-0.067874104,0.006431815,0.03369236,0.004174558,0.0101362895,0.036407348,-0.027597114,-0.03469943,0.05949029,0.04727622,0.030119047,0.016447576,0.014124932,-0.038539156,0.008395709,-0.015889307,0.0233973,0.0077318368,0.035203993,0.042983145,-0.034509663,-0.009704109,-0.0034411424,-0.0134899,-0.0028754266,0.04679145,0.0073531624,0.008291921,-0.030608667,-0.0028351534,0.03468975,-0.050619595,0.03051385,0.037909273,0.043535184,0.0059838328,0.006843782,0.0007707896,0.053131856,-0.0007598674,0.0069797486,0.018778449,0.09430498,-0.05986794,-0.00366305,0.030490851,0.016114833,0.0107937,-0.06760677,0.025802396,0.047828805,0.027264038,-0.0020906772,0.01584294,-0.0009234711,0.011073724,0.03057759,0.017445477,-0.012042873,0.0024060472,0.0055344887,0.008946816,-0.056172173,0.012474028,0.03162303,0.0019470279,-0.03002089,0.036101222,-0.011851441,0.048737317,-0.034336325,0.065068945,0.05673588,-0.033611245,-0.029272417,-0.0048503405,0.0049728574,-0.05891738,-0.005930939,0.03731079,-0.035897065,0.016752435,-0.016854294,0.0097259795,0.038629502,-0.0137336515,-0.003814421,0.039805222,0.051722266,0.031619225,0.032591995,-0.04523436,-0.020633271,-0.0129093975,0.0012555968,-0.0010875359,-0.00987857,-0.035070773,-0.016229032,0.011007615,-0.02424023,0.04086059,0.061586387,0.047089666,0.044971786,-0.0029867103,-0.036404025,-0.04441026,-0.016242467,0.018904172,0.008302998,-0.029171951,-0.04246088,0.035651144,0.02512616,0.026516123,0.0037124734,-0.031521175,0.0366154,0.018506002,0.015010353,-0.012861668,0.02388719,0.023784375,0.018378692,0.011294817,-0.024299359,0.050338894,0.040154625,-0.03369282,0.03561424,-0.021895302,-0.039442267,0.0075117815,-0.02939834,-0.051700745,0.03607793,0.054002874,-0.055040676,0.03590498,0.025306113,-0.04237146,0.033606254,0.029562542,-0.07599281,-0.054900434,0.008204217,0.03214002,0.008323144,-0.008150645,-0.016722713,-0.018231723,-0.031032192,-0.0023304187,-0.03366449,-0.0468505,0.017434012,0.014044555,0.026754528,-0.027956856,0.04958968,0.059248388,-0.015903275,-0.019170994,-0.016667733,0.011799233,-0.024506325,-0.03564955,-0.007333334,0.021638956,-0.019056696,-0.0048753223,-0.056108493,0.012273666,0.018468032,-0.004774892,-0.03218635,-0.0163223,-0.021960365,-0.044623457,-0.0026342792,0.042309657,0.038802266,-0.039609153,0.011857195,0.04666562,-0.03747721,0.085014336,-0.00897449,0.036808565,-0.01915885,-0.0041440697,0.07575397,-0.033099536,-0.02588935,0.039898068,0.036493253,0.0076681604,0.028740257,-0.015675997,-0.026080811,-0.014904344,0.020888064,0.046233878,0.026885323,-0.0039212583,-0.0031551216,0.008170793,0.01056386,0.04051764,0.0076151155,0.046399105,-0.03464425,-0.034573194,0.01527479,0.0029634912,0.015290484,-0.019124096,0.028129809,-0.049224447,-0.031891,0.001436955,-0.004451191,0.072980195,0.001455531,0.0047308397,-0.041423444,-0.04239826,-0.0039537246,-0.017449893,-0.036914494,-0.030295081,-0.046180714,-0.032558728,-0.036764447,-0.015943708,0.03495397,0.02385085,0.029696539,0.019792948,0.021604529,-0.049543004,-0.011339176,-0.0021605587,-0.030841315,-0.036179453,-0.027099025,-0.06632092,-0.039286368,-0.016435418,0.029155668,0.010107736,-0.0026750313,0.00533383,-0.012122484,0.050053723,0.047849037,0.024819728,0.0028302786,0.0055713076,-0.06742382,0.041317124,-0.03794384,-0.06065579,0.008140591,-0.05795227,-0.01259101,-0.032519016,0.069376074,-0.019974064,0.015225959,-0.024601454,-0.00037104322,-0.0052930126,-0.0059268423,-0.011532399,-0.015015778,-0.020850407,0.0094652325,0.0010702331,-0.002731867,0.047454312,0.026837697,0.034294665,-0.010199099,-0.012892477,0.05886325,-0.026947131,0.015758822,0.0031276734,0.026359012,0.034237135,0.011781347,-0.00080151117,0.035150446,0.025955252,-0.011307804,-0.0027494659,0.043382388,-0.011402266,-0.029225938,0.03661981,-0.0105838375,0.0061346875,-0.039704386,0.024281036,0.032708347,-0.0006466991,0.005838604,0.023089578,-0.04503376,0.02906489,0.030813556,-0.026632996,-0.037376117,0.03498315,0.057727437,0.042050354,0.008173517,0.015811639,-0.06345721,0.037110165,-0.065310605,0.019918123,0.053880766,0.00037983854,-0.049354073,-0.01449449,-0.04026747,0.043340567,0.011146311,0.021708958,0.030489823,-0.04289686,0.018125812,-0.0031972453,0.040408656,-0.0002567105,-0.047824476,0.02063604,-0.015518256,0.032032825,-0.015329092,-0.024519365,0.029623484,-0.012065627,0.002225155,-0.0028188082,-0.017418122,0.015341149,0.06448078,0.039872978,-0.033256013,0.03162507,0.017956601,-0.041258976,-0.023085954,-0.02615769,0.025498241,-0.007183037,-0.031896517,0.0136558255,0.020134604,-0.031713825,0.07463554,0.06567977,-0.018407417,-0.0047898325,0.029958777,0.023001814,0.038868904,-0.010010589,-0.022083944,-0.00784529,-0.0034592082,0.04001976,-0.034078266,-0.062896535,-0.008719593,-0.009304698,0.01689412,0.07366952,-0.013987611,0.03914103,-0.022545993,0.017279489,-0.020262813,0.040832892,-0.02258803,-0.018686216,0.029398924,0.0330364,-0.0007568742,0.009203304,0.014746977,0.031045945,-0.04474156,0.030712165,-0.018128594,-0.025574803,-0.007877654,0.0137834,-0.009033877,0.04865489,0.053329147,-0.017075881,0.0120476615,0.04491457,0.005748315,0.023646882,-0.015429257,-0.043877386,0.018586911,-0.0014048115,-0.02467698,0.038632713,-0.0038284445,0.009643545,0.013551071,-0.04113035,-0.012021755,-0.04355632,0.03217401,0.01594694,-0.0026426143,0.04340806,0.0045603774,0.012003289,-0.017294673,0.057985008,0.035803825,-0.018643606,0.04642442,-0.0010235249,-0.017190848,-0.015607755,-0.083900146,-0.01591411,0.0032703606,0.020331722,-0.015302184,0.009008466,0.014553845,-0.005774609,-0.018704427,-0.050761536,0.034191616,0.03239513,-0.019118488,0.030463522,0.02265211,-0.0020711354,0.024905046,0.0078738695,-0.060587984,-0.04288628,0.028067794,0.015491973,0.02402483,0.0036706794,0.03293719,0.033785272,-0.030688908,0.047151778,0.04148132,-0.021378903,-0.05727822,-0.08002235,0.003338132,0.028491862,0.025702596,-0.009963241,0.042225298,0.02834305,0.027513452,-0.02112583,-0.0326216,0.012479099,-0.042662617,0.039774958,-0.03130526,-0.009168619,0.05335719,0.02370814,-0.0016891041,-0.011420986,0.03989862,0.020786356,-0.014588743,-0.059432026,0.0011148313,-0.011641909,-0.04400767,0.03666426,-0.055366065,-0.0017404672,0.008976631,0.0034327947,0.04737382,-0.015875028,0.044346545,-0.027927205,-0.008292849,0.047819905,-0.009731702,-0.053938035,-0.0031240932,0.033232924,-0.021179654,0.035086785,0.037584253,0.03554592,0.009315331,0.030137789,0.013086216,-0.030361496,-0.024864458,-0.024069572,0.008286235,-0.018729188,0.03517011,-0.03324248,-0.0107966475,0.01775909,-0.012176506,-0.012011194,-0.018215528,0.02886902,-0.028929392,-0.021635694,0.033148605,-0.032836016,-0.021295743,0.026293568,-0.037313838,-0.043774247,-0.014446507,0.02129503,-0.007815458,-0.0061188703,0.028781341,0.04431474,-0.03891459,-0.005866142,-0.002129671,0.0009382268,-0.020837996,0.013759219,-0.025224429,-0.019386703,-0.023519723,0.016118746,-0.03825296,-0.0122762695,-0.03525293,0.032552443,0.028824426,-4.4779397e-05,0.03982459,0.0007836139,0.02799871,0.009404927,0.02203192,0.01135286,-0.031228356,0.012457896,0.018036455,-0.03193668,0.03783415,-0.028767351,0.010762809,-0.029387372,-0.012065732,-0.025694167,0.01807869,0.013351057,-0.034868598,-0.03313758,-0.01297066,-0.032175742,0.042497266,-0.012655588,0.0053975224,0.0041743433,-0.023974594,0.007488201,-0.024299705,0.040539324,-0.005135139,0.027824095,-0.03347034,0.03461564,-0.00049705314,0.024868993,-0.013209964,-0.007857449,0.0061094896,-0.041601878,0.015269512,-0.03513048,0.026501002,-0.027616434,0.015424996,-0.013132542,0.008837506,0.027796468,-0.0028780268,-0.017996874,-0.03417352,0.027911471,-0.02138235,0.030896109,-0.036846224,-0.006926345,0.008557651,-0.040124603,0.025124762,-0.018344086,0.013351197,0.020606436,-0.028298065,0.040981248,-0.030607482,0.041901883,0.023340233,0.0037521967,0.04015743,0.012221144,0.0019182297,-0.034562472,0.03438454,-0.042194065,-0.03017815,-0.023919277,0.03940944,0.04288073,0.037839852,0.01677856,0.03429929,-0.024665397,0.008975577,0.012594259,-4.4124674e-05,-0.010464165,0.012093776,-0.003271009,0.030320728,0.0129682515,0.04108162,0.0062196646,-0.040576622,-0.013457329,-0.021828804,0.03925803,-0.008602231,-0.024270175,-0.0053016874,-0.028269503,0.011132989,0.0116612995,-0.018328194,-0.03708722,0.008550759,-0.014541633,0.02580902,-0.0013562158,-0.026270412,-0.04530639,-0.030059885,0.015687251,-0.022232333,0.018884033,-0.027920417,-0.030596325,-0.0009973072,0.037134517,0.035702772,0.027422387,0.006058389,-0.039397333,0.00070733135,-0.041954014,0.031934764,-0.015576383,0.04234115,-0.030277621,-0.0041906545,0.00044453726,-0.0067359507,0.042799614,0.006770677,-0.031691942,-0.028253997,0.034373425,-0.011480131,-0.026806504,0.025803875,0.0063464977,-0.03614943,-0.044609718,-0.038881626,-0.03775873,-0.0012607292,0.0134688495,-0.03340815,0.0025466844,-0.025250612,-0.011191381,-0.015671236,-0.027889077,-0.017999709,0.02316029,0.043743934,-0.039835464,-0.022799652,0.028347652,-0.0063438877,-0.02295816,0.03743034,0.026278106,-0.014971609,0.04334528,0.005122138,0.02750077,-0.034960184,-0.03797191,0.0062764715,0.026055953,-0.03889219,-0.01813986,0.03079139,-0.021628812,-0.001043063,-0.03280881,0.023123235,-0.022880437,-0.009467821,-0.02743936,0.024275059,-0.00959919,0.03157712,0.029308194,0.015299336,0.017014634,-0.030481342,0.017474182,0.0401919,-0.0363033,0.0034971891,-0.037317183,-0.0035435958,0.023797112,0.035539683,0.033076137,0.0038324457,-0.012076825,-0.033824928,-0.039739326,-0.032146726,0.0065613454,-0.044926777,-0.01669395,-0.030187642,0.029616311,0.015016099,-0.0039393087,-0.04232263,-0.006640182,-0.03766884,-0.041328464,-0.038591832,-0.019341214,-0.029891275,0.03499686,0.018580321,0.015972072,0.04462342,-0.0018604569,0.0018079611,-0.018155485,-0.0010114352,-0.004927532,0.034289025,-0.0058449525,0.019404154,-0.019751396,-0.018758949,0.010001276,0.010167546,-0.017013606,-0.009879316,0.005364616,-0.028390618,0.032913424,0.04196634,-0.042511985,-0.03007467,-0.0038884077,0.041737612,-0.0061563137,-0.038076993,0.011932892,0.03079535,0.004746831,0.005860113,-0.021735135,0.02534172,0.022699568,-0.018594958,-0.010197008,0.02717431,-0.024789922,0.040230267,-0.033728313,0.037365288,-0.016120657,-0.018323494,0.0060817352,0.043887354,0.01661947,0.019003307,-0.022431727,0.02729636,-0.006057394,0.029595485,-0.032927033,-0.0159757,-0.02545467,-0.03775951,0.012936843,-0.0063959323,-0.00072682457,-0.0140269585,-0.008159953,-0.010740758,-0.015490209,0.016572881,0.00872761,-0.007519391,-0.0052264235,-0.010372683,0.029271241,0.005835857,0.0042997412,0.03798788,0.017000977,-0.009572043,0.023598224,0.015444616,-0.007665294,-0.011871977,0.03701399,-0.029364195,0.0076185255,0.0054386714,-0.01734769,0.007210482,-0.034555793,-0.027467504,-0.04137515,-0.012729958,-0.020883113,0.010586491,0.0047934586,0.014470754,-0.0063599497,-0.018091522,0.04089755,-0.030576566,-0.030073415,0.043242197,-0.019222515,0.01736813,0.009608685,-0.017408531,-0.03698083,0.02220007,0.0308307,0.010802234,0.01577788,0.0062292637,-0.0037012303,-0.013917987,0.04051333,0.0065961755,0.03008495,0.039308168,-0.020968754,-0.009821166,0.03293022,0.011201432,-0.017164877,-0.03259692,0.031022837,0.030203715,-0.018287152,0.0113963,0.020444766,-0.02214056,0.032515123,-0.0138798915,-0.043090172,0.03562157,-0.019690474,-0.03372587,-0.00716333,0.012306384,0.01956038,0.03214928,-0.00020043994,-0.022456994,-0.0073514283,-0.009886069,0.013266992,0.002600785,-0.043165978,-0.025204767,0.01696872,0.041172985,-0.028361987,-0.015370908,-0.025696015,0.0026806493,-0.015088472,-0.0134238815,-0.0029401511,-0.00973204,-0.0017939713,0.041195024,0.013568201,-0.019190006,0.032565273,0.039787084,-0.02593217,0.005580124,0.018198665,-0.008626938,0.023828797,0.0071104285,0.041461803,-0.033650562,0.020303335,-0.009329704,-0.0062318384,-0.006649594,0.018310197,0.030834768,-0.031623796,-0.016855039,-0.015455136,-0.004800901,0.00115034,0.0120920325,-0.0059224525,0.011751756,0.009326194,0.00093536155,-0.010021898,-0.0010754804,0.03466872,0.042503167,0.0029130667,-0.039908327,0.009579188,-0.026795318,-0.0015709572,0.016878862,-0.022090422,0.0044366326,-0.033302248,0.02996356,-0.004577293,-0.03407958,-0.035986338,-0.025664115,0.02843537,-0.021208901,0.016037308,0.034127038,0.016505195,0.033889648,-0.00017400779,0.00124481,-0.019525945,-0.00042067742,-0.0236588,-0.04494289,-0.01390716,0.04023175,-0.043799024,0.0053129485,-0.012340091,0.0035511854,0.035256878,-0.034161676,0.012361087,0.028609505,0.037158214,0.0155118685,0.02397364,-0.026509712,-0.029970752,0.0348231,0.0024219865,-0.006979481,0.0051568137,0.016171409,0.017536733,-0.018425906,0.026976239,0.010911818,-0.02861804,-0.040583875,-0.021357886,0.012729633,-0.021125894,0.010855317,-0.0065615503,0.017945567,-0.0071661957,0.01815967,-0.05848015,0.010821321,-0.03550083,-0.06509823,0.031393796,-0.0101291705,-0.011443638,-0.041405827,-0.021475105,0.010468092,-0.05457737,0.0174294,0.020517873,0.010583454,0.005054904,0.061311036,-0.0038786205,0.06920356,-0.049405117,0.049490284,-0.0044192695,0.02493471,-0.01731077,-0.044791494,0.01066374,0.009133629,0.05867154,-0.040423267,-0.032968078,-0.009043502,-0.041339993,0.027923828,-0.030131517,0.0052352096,-0.011172024,-0.02977995,0.06363042,0.019508917,-0.024247302,-0.028986182,0.05584273,0.023577528,-0.02225404,-0.0067481752,0.05215834,0.05458348,0.01692214,-0.018353194,0.05723824,-0.023900144,-0.033979557,0.023702266,0.026966006,0.036936983,-0.009517717,-0.04408862,-0.0319059,0.021926405,-0.009744664,0.028693333,0.019448502,-0.034237918,0.039546147,0.039046016,-0.003930334,0.037338726,-0.018588763,-0.008051074,-0.02552418,0.03745443,0.010281595,0.04628933,0.025028827,0.034484494,0.0024011692,0.038853403,-0.01344738,-0.0116683645,-0.0331289,0.045449425,0.016762512,-0.033988178,0.039252907,-0.007359379,0.004836159,-0.04382251,0.040229313,-0.024363797,-0.0016512409,-0.026724717,-0.013485188,-0.011831181,-0.027822755,-0.0077658854,0.009772498,0.033906158,-0.026360784,0.03186662,0.015349857,-0.024387373,0.0093919365,-0.038362294,0.015367247,0.018768184,0.014957051,0.027814528,-0.026821723,0.0070633367,0.02950323,-0.016818527,0.027531657,0.02329505,-0.026754478,-0.035818495,0.043516368,0.04289358,-0.030136026,-0.013841182,-0.016034126,0.038442217,-0.0019929123,0.010639648,0.04924685,-0.043528043,-0.00052599004,0.04858702,0.007874979,-0.021511422,-0.019550897,0.023469279,0.04118835,0.046447434,0.0029462306,-0.021199018,0.014259429,0.0003299951,0.0064437077,-0.012908409,0.038203675,0.012828169,-0.025224991,0.023582436,0.026663182,0.024360674,-0.0012589063,-0.003314163,-0.06530789,-0.04940676,-0.031757098,0.015596575,-0.010963155,-0.06845267,-0.019504245,0.0037436027,0.009653641,0.002259627,0.048112713,0.038575497,-0.030322434,-0.01664349,-0.00248916,-0.055501435,0.047546074,0.042153742,-0.02678722,0.015608433,-0.037043888,0.007200727,-0.029630857,0.043991007,-0.06083059,0.051515974,0.029819544,0.006777401,0.0029412848,-0.03870683,-0.0034027568,-0.052738804,0.031638645,0.034155443,0.032416973,0.03684249,0.03599025,-0.00109528,0.030123468,0.050049078,-0.018869812,-0.00037285395,0.04015824,0.009948556,0.03268389,0.0028181118,-0.039521597,0.009449047,0.012651233,0.04956627,0.011671236,-0.015771475,0.037437275,-0.031636577,-0.016560767,0.03416485,-0.028332148,-0.019090066,-0.017584661,0.035546016,0.05443624,-0.0060072867,-0.024734965,0.06453298,-0.010337512,-0.029734619,0.009941238,-0.01635674,0.04578967,-0.047799435,0.03435039,-0.0030656094,0.060612205,-0.039985944,-0.0052547925,0.019259868,-0.05120058,0.036268506,0.05601441,-0.010268746,0.018833226,0.040470988,0.037702877,0.0075489185,0.015536476,0.03320036,-0.020948863,0.028097654,-0.0032378428,-0.054801997,0.025710052,0.05132681,-0.054566022,-0.015640227,-0.02891634,-0.0013456825,-0.0041607018,0.032517117,0.00607727,0.004409542,0.057718452,0.04504406,-0.014404336,-0.0023911558,-0.00222401,-0.010429802,-0.00634996,-0.031936154,0.022615772,-0.0016320439,-0.036090214,0.003546739,0.047927584,-0.033779655,-0.044400778,0.07188339,0.010672913,-0.063385524,-0.055417385,0.039723206,0.008171849,-0.038675845,-0.027322652,0.025004353,0.029961508,0.022079695,0.017579475,0.0076290816,0.0021438578,0.019427191,-0.024511918,-0.03288481,-0.043736547,-0.03396447,-0.041614335,-0.0009877656,-0.030327588,0.027926138,0.0114558935,0.04417561,0.025210932,-0.03226197,-0.03659815,0.023323255,-0.012349394,0.007990084,-0.029090347,-0.01455787,-0.029022293,-0.054810595,0.02550727,0.023136303,-0.0035948684,-0.040697575,-0.03581849,0.057315167,0.02858151,-0.06798765,-0.037928045,0.05600435,0.0087117115,0.025657604,0.014347978,0.014062297,-0.00086868246,0.025457622,-0.013906157,-0.017960915,-0.038321838,-0.043632485,-0.023239782,0.021308359,0.0065716445,0.039996956,0.03540171,-0.00079319865,-0.0072959396,0.020931728,0.055942547,-0.037585177,-0.0068235015,-0.01645339,-0.015594027,0.025119884,0.02879141,-0.070124984,0.018231785,0.04025798,-0.034315396,0.005525952,0.01899321,-0.051904693,-0.002476882,0.009735269,-0.024860445,-0.013381079,-0.01067393,0.016893338,-0.010543071,-0.012758833,0.01419035,-0.050615396,0.05654789,0.025975777,0.0244591,0.053574078,-0.026892398,0.026065757,0.0034121817,-0.027312437,0.0077655944,0.01652959,0.0049785846,0.0041391426,-0.006477422,-0.0070399772,-0.019606384,-0.033307448,-0.00047775786,-0.040532235,-0.038940724,0.038632635,0.042532288,-0.0627327,0.0019468386,-0.033402104,0.03513915,0.04111785,-0.040791903,-0.06742361,0.0018666239,0.002224383,0.011551773,-0.0009907784,0.043573193,0.0066013597,0.0057031177,-0.0072655906,0.020968828,0.0011138053,-0.03021905,0.004161656,0.049097136,-0.030992983,0.011395284,0.018565442,0.00094611297,0.021603346,-0.013473433,0.0047725528,-0.0068575023,-0.03349014,0.039967395,-0.04795772,0.024061676,-0.010364065,-0.060619656,0.04809869,0.026775217,-0.0064285984,0.047308307,0.023699446,-0.028633026,0.00581681,-0.017376894,0.019602107,0.04538842,0.039392114,-0.033417918,-0.04699411,-0.014747753,0.034896165,0.012310758,-0.036205653,0.051646516,0.03198955,-0.025402822,-0.034686428,0.029654711,-0.035068177,-0.02865366,0.017697066,0.015208728,-0.00034154416,-0.043427274,-0.011991986,-0.030620474,-0.035947822,-0.0052039507,0.037001267,-0.01881024,0.0036997523,0.0018156162,-0.039043237,0.02074679,0.023596648,-0.034270927,0.018208858,-0.04035683,0.013893817,0.012091191,0.0047350083,0.007958306,-0.012932194,0.0032878306,0.02122087,0.028862704,0.005900505,-0.033112716,0.049208988,0.027407069,-0.04772379,0.064430125,-0.033351183,0.022398451,0.004249837,-0.025243048,0.03952811,0.038592324,-0.038988847,-0.017744739,0.051582254,-0.026830433,0.008174947,0.005633319,0.059048112,0.00082499353,0.06321951,-0.03841427,-0.004360027,-0.026288874,0.0038609605,-0.03904105,0.07779074,-0.009944557,0.019370131,0.038592946,0.018474294,0.020854803,-0.0063958406,-0.013461821,-0.0042992034,-0.0267613,-0.01648467,0.010131,-0.034681875,-0.045082755,-0.04441534,0.03525478,-0.0060627065,0.038032025,0.002140502,0.043223456,0.032768954,-0.015508859,0.0052058743,-0.015065833,0.039692074,-0.027171334,-0.025980031,0.022633504,-0.0004172365,0.038741644,0.0061320467,-0.012463151,-0.03278446,0.0025175742,0.040585402,0.03400417,-0.027887812,0.04196622,-0.017959306,0.059213825,-0.056685854,0.015415453,0.027516913,-0.01756605,-0.019612512,0.016935717,0.029101044,0.06719758,-0.0074099903,-0.045486283,-0.008767066,-0.014509199,0.015266147,-0.053618036,0.027922414,0.05146326,-0.05468554,0.00090362335,0.010761697,0.05243918,0.04581436,0.031622697,0.012980636,-0.014488687,-0.038390774,-0.010437781,0.0058485987,-0.007926496,-0.04384261,-0.010431181,-0.021922737,-0.008740427,0.030917067,0.0044058114,0.037502766,0.025078049,0.031635188,0.023215353,0.0063419496,0.030736413,0.058126338,0.04478458,0.04320802,0.028013086,0.011221008,-0.03101162,0.0096777715,0.036846817,-0.004331662,-0.014164315,-0.043754876,0.05083699,-0.027392019,0.06644461,0.037371885,-0.038384475,-0.015104667,0.034850158,-0.035398368,-0.037339177,0.026469056,-0.057059195,-0.0024415362,0.0064780675,0.010985518,-0.048258804,-0.023447152,-0.034257,0.015762918,0.042104587,-0.042422857,-0.044665754,-0.05304489,-0.027595261,0.029311532,0.042515133,-0.028162323,-0.027642326,0.0035916397,-0.025801295,0.025408734,0.0035145155,-0.05944064,-0.0016709772,0.015773121,0.030272717,0.055672687,-0.0119843725,-0.01874717,-0.042454142,0.04595942,0.047098782,0.034327693,-0.036105964,0.017262297,-0.032914493,0.024291685,0.017761014,0.043335963,-0.002960517,0.0042617843,-0.053006068,-0.0018463602,-0.020132529,0.026597457,-0.01602264,-0.043428056,0.03094297,-0.018510846,0.030588206,-0.0040911552,0.01270877,-0.0522761,0.0037480646,-0.037111126,-0.013974141,0.012866363,0.017814968,0.040365018,-0.019676868,0.017083209,0.033509757,-0.046570916,-0.028785108,0.021840803,-0.056315158,-0.038922336,-0.006578216,0.04583567,-0.0037079023,0.029787403,0.0332229,0.0055248546,0.0028108524,-0.010576576,0.038695447,0.009639744,0.019018814,0.036798626,-0.03366038,-0.041234087,-0.017748535,0.006706954,0.010753388,0.028240066,-0.027671698,0.036203206,0.009621843,-0.0010715469,0.027540844,-0.024888208,0.012367547,0.025882099,0.014511028,-0.0036028645,-0.019220755,0.0068066637,-0.013526233,0.022678139,-0.05134838,-0.00075167103,-0.00051807787,-0.038021076,0.0148213655,-0.03193918,0.03749952,0.027662108,0.06287224,0.02095744,-0.009432712,-0.004100908,0.04664257,-0.0032235496,-0.04475138,-0.013288903,0.0037059088,0.0024150535,0.06502121,0.04782669,0.031830035,0.01855387,-0.024959544,-0.026045104,0.034893133,0.0021689145,-0.010675421,0.010045628,0.023557128,0.07448667,0.011747596,0.031766355,-0.0036344288,-0.0027127808,0.05579062,-0.038765576,-0.033765096,0.004394527,-0.02687785,-0.0025854707,-0.028660052,-0.0023360269,-0.009055476,-0.0050437036,-0.010221949,0.034621738,0.025781045,-0.028145429,0.037693355,-0.026323874,-0.018792113,-0.049357112,0.033783503,0.003983585,-0.0069281394,0.065476395,0.0046039307,0.011219763,-0.013244874,0.017885655,0.033994112,0.020988923,0.051610224,-0.021876173,0.011478163,0.013918076,0.039045032,-0.02365585,0.00077302416,0.016997948,0.017639706,0.010566105,-0.03251022,0.045709003,-0.011345703,0.015695417,-0.06793449,-0.007043163,-0.05260992,0.030334616,0.033927508,0.010391647,-0.03895399,0.0041975565,-0.052697964,-0.025501339,0.03765923,-0.030054871,-0.0002091892,0.039294958,0.04084516,0.020130802,0.037889995,0.026171803,0.015549803,0.03524941,0.015666537,-0.044857703,0.0281714,0.027363392,-0.022563603,0.036067747,-0.024601867,-0.004072005,0.037755437,-0.015028264,-0.02468207,-0.032430418,0.033830874,0.049328662,0.02097251,-0.011630336,-0.02101609,-0.049718276,0.021954535,0.010645967,-0.04309383,0.039076522,-0.035233185,-0.024155332,-0.007317051,0.012654293,0.028691925,0.028536139,-0.024222175,0.058915135,-0.018344311,0.026515022,0.04460775,-0.019558558,-0.0028545274,-0.01626942,-0.035282724,-0.050088078,0.014773877,0.005303558,6.0824368e-05,-0.008415184,-0.0013359168,0.037194606,0.009150691,-0.00025763054,0.011392207,0.0029065853,-0.01624012,0.022716437,-0.026623892,0.0081277,0.036834437,0.026032643,-0.014202137,0.007898326,-0.036688294,-0.015140674,0.028135667,-0.020570042,-0.016463095,0.014688152,0.050621394,0.0272719,0.026915697,0.024446858,-0.029684957,0.02881692,-0.0162153,-0.034427363,0.018835956,0.018499143,0.021636577,0.032233547,0.0015945106,-0.032212783,0.007913217,0.044461448,-0.03136391,-0.03945822,0.0044187326,-0.051900636,0.0436751,0.032379583,0.040289205,0.00028465438,0.025910243,-0.011940535,-0.0068064914,0.026743215,-0.0010294167,0.022221899,0.016186945,-0.0017012433,-0.024042217,0.049305066,-0.020394454,0.024083622,-0.017385466,-0.04290634,-0.02488658,-0.039428025,0.011447588,-0.023049576,0.019668335,-0.007110318,0.049814627,-0.044044837,0.05864306,0.008125637,0.041276675,0.029837694,-0.02908982,-0.049120385,0.0056379945,0.0012862888,0.01436951,-0.03803174,-0.012315261,0.037805784,0.020495843,-0.011736574,0.002570073,0.037799608,-0.011737977,-0.031924523,0.00023135381,0.009375433,-0.025856243,-0.028146025,0.03711613,-0.03864006,0.02872772,0.0008740016,-0.028951986,-0.0044069067,0.011423606,-0.010810616,-0.042098604,0.032848444,-0.04879221,0.03140887,-0.0389277,-0.007256882,0.076604314,0.0321641,0.009270384,0.0048923236,-0.01833911,0.0029404291,-0.034718726,0.026000323,-0.013864373,0.024187664,0.002457688,-0.021483434,0.012529177,-0.007910733,-0.004680273,-0.016986957,-0.012415404,-0.03619877,0.010895375,0.03830023,0.036773734,0.035507075,-0.019996233,0.04190393,0.038861804,-0.040110335,0.038824074,0.07166395,-0.010995506,0.03136242,-0.035363182,0.013683179,0.006594672,-0.037495952,0.018690845,0.008437047,0.031122245,0.033735298,0.012505422,0.018807147,-0.0075095324,0.03844134,0.020672705,-0.051595796,-0.016249273,0.03193696,0.058055036,0.027636882,0.043462195,0.022017429,-0.02478979,-0.044425905,0.03376183,0.005668981,0.023989936,0.05008087,0.043522313,0.014272742,0.001537106,0.02418696,0.033671707,0.023165943,-0.030614147,-0.008765816,-0.004843265,0.017634781,-0.023212338,0.0008294366,0.022940094,0.0389285,0.022811156,0.013727266,0.042070497,-0.014685924,-0.03616008,0.0018122437,-0.0034021456,0.032820664,0.018204339,-0.018550092,-0.019085623,0.017029233,0.05984271,0.023625918,0.017306823,0.026567645,-0.052839827,0.023226988,0.016768834,0.013712528,0.026722742,-0.05203122,-0.01386251,0.006406917,0.026639536,0.045147397,-0.02912998,0.048893653,0.010740991,0.026443142,-0.013514461,-0.027590504,0.01674383,-0.0029772546,-0.0075723026,0.041863408,-0.0575994,0.023612212,-0.024760278,0.038022477,-0.014070185,0.004052542,0.03668072,0.014121641,-0.022761824,0.03581718,-0.058237184,0.039122116,0.027658693,-0.030467443,-0.018621996,0.03303811,0.0021387178,-0.04831518,-0.004894149,-0.033872645,0.010794715,0.002502119,-0.012721546,0.019100336,0.022024931,-0.03617352,-0.024480527,0.0073591047,0.02792441,-0.03531958,0.022604281,-0.04868917,-0.0015111159,-0.019768866,0.050391007,0.050479576,0.0034264799,-0.044663843,-0.034462202,-0.00038761809,0.0056816167,-0.036427688,-0.009464778,0.05640556,0.0531563,0.037053347,0.014672044,0.013757283,0.048256252,0.024030566,-0.005943007,0.032785248,0.032529775,-0.03759994,-0.042989768,0.0071723247,0.0023283497,0.023222,-0.051470578,-0.016400924,0.055212535,0.001480943,-0.0063778446,-0.0137519045,-0.0146341,-0.00825926,0.001752853,0.08253475,-0.015672473,-0.035063833,-0.007896016,-0.022866245,-0.01123505,0.018631125,-0.0380648,0.023495018,-0.041988134,0.03628943,0.015554669,-0.0006129274,0.013136781,0.045089398,-0.051183533,-0.026310187,-0.027850071,0.0054675904,-0.029477071,0.001250452,0.005182699,0.023924628,0.041436117,-0.009686454,-0.00923663,-0.029908272,0.03089015,-0.024949117,0.0023462684,0.030495666,0.013785558,-0.0017175128,0.0037247054,0.016772773,0.015201356,-0.013044461,0.02637737,0.022173641,0.037864324,0.04556814,-0.004839323,-0.0215858,-0.004418101,0.021826435,0.017470984,0.023389896,-0.040247057,0.023491004,0.02915508,-0.0031473832,-0.03332581,-0.018366382,-0.0029635427,0.07298124,0.003928668,0.03915305,0.021802805,-0.028829725,0.004990452,-0.0028516226,-0.029927846,0.0057399767,-0.015475101,0.008572851,-0.019118909,-0.032434676,-0.036020912,0.015350387,0.006090258,-0.062557496,0.025946807,0.025751706,-0.008514893,0.005361155,0.04908672,0.040777497,-0.028290417,-0.0020666348,-0.016628273,0.07965206,-0.02660651,0.03510299,-0.000581092,-0.061323017,-0.025554745,-0.032402918,-0.016575674,-0.019458462,-0.038013343,-0.0026116369,-0.021482978,-0.015734501,0.00906624,-0.04416887,0.05327218,-0.046784572,-0.04633792,-0.04961828,-0.003701537,-0.023528498,-0.026816463,0.0032664686,-0.0057433066,0.002250712,-0.020470714,0.010809708,-0.015162381,0.05894514,-0.0003070628,-0.025022276,-0.02207866,0.007474629,0.013524009,0.04660776,0.020324929,0.03382801,-0.0113861365,0.012179254,0.021126222,0.03905165,0.03759955,-0.010941125,-0.020868847,-0.02537653,0.03748461,0.002927698,-0.03876761,-0.04061083,0.042197563,0.021382304,0.035416286,-0.00850311,0.029910566,0.012984873,-0.04079632,-0.0044224313,-0.027487246,-0.0029240206,0.04149064,0.037279487,-0.017227812,0.006784485,-0.016321896,0.016148794,-0.028335009,0.012657424,-0.036646053,-0.036175452,0.02265084,-0.015918978,-0.04055541,0.030152712,-0.015393067,-0.021153783,-0.014433728,0.058215465,0.0281599,0.00990554,0.067636564,-0.046512704,-0.02578814,-0.014152328,-0.018070119,-0.023406766,0.039888654,0.008606152,0.019740658,-0.018434,-0.04418629,0.033826027,-0.040861677,0.016783834,0.002185762,0.030268246,0.010350949,-0.02357776,-0.045740098,0.041154794,-0.015198707,0.01920877,-0.0462787,-0.03521308,-0.015179848,-0.019014686,-0.011127622,0.025405532,-0.017017039,0.020711113,0.010966738,0.002816631,0.04226315,-0.00256701,-0.062105224,-0.019994773,0.037183322,0.005687586,-0.007475977,0.050388303,0.0044363607,0.0025829414,0.0019208147,0.029518362,-0.031035557,0.031332873,-0.009556911,-0.025455993,-0.02050979,0.005248751,-0.008076606,-0.03135616,-0.008525558,-0.048425067,-0.029516904,-0.009991647,0.017239312,-0.029898314,0.024666343,0.045633845,-0.0023405415,0.02381451,-0.035721116,0.020033782,-0.04222356,0.033143736,-0.0051148008,-0.034416184,-0.037244413,0.0064359903,0.04366868,0.007840487,0.002362095,0.019824829,-0.046624947,0.0017850472,-0.013597185,0.03317646,0.011201288,0.063812636,-0.03374234,-0.03909865,0.006252514,-0.042885095,0.0403014,-0.022389771,0.0013694635,-0.03310958,0.01953386,0.01724004,-0.024677822,-0.020859914,-0.007363937,-0.036053203,-0.006070254,0.010394521,0.0497127,0.051900525,0.03747688,0.0052425573,-0.00247102,-0.0007494819,6.1329505e-05,0.012262382,-0.00075505796,-0.0025427327,-0.037423767,0.05163948,0.02931001,0.030224198,-0.035285115,-0.04723542,0.0064475723,0.017041428,-0.026734449,0.010698103,0.023769287,-0.032979198,0.03779327,-0.0406407,0.0039214115,0.0029559075,-0.032999206,-0.008041378,-0.022790011,-0.010705109,0.010524729,0.08043829,-0.049270537,0.039759725,-0.03342956,0.029447207,-0.0023281875,-0.030399928,0.0143310735,0.0062776036,-0.019238666,-0.0036668146,-0.0059666615,-0.0010000654,0.027165053,0.006399119,0.041873038,-0.023530206,-0.016573966,-0.03892837,-0.035524435,0.0060672755,0.024852779,0.032388207,0.02669929,0.045048412,0.02411918,-0.044126302,-0.026394183,0.0048558977,0.027101563,-0.009139749,-0.0058713253,0.0053681354,0.031305708,0.05763887,0.049564283,0.01837013,-0.012241342,0.035347797,-0.045071356,-0.024908213,-0.03072335,0.020405022,-0.008028163,0.020456167,0.02203463,-0.055778876,0.044878475,-0.02284066,-0.038817074,-0.031010022,0.009527362,0.03502574,0.03666055,0.032583226,-0.0037539704,-0.0004230396,0.006542255,-0.0069792974,0.041058164,0.022220712,-0.028313795,-0.062436033,0.0067451126,-0.014187288,0.017566515,0.011372186,-0.01575661,0.03041265,0.014376626,0.025193242,0.030915178,0.016803354,0.003362221,0.024694124,-0.04036505,0.017292263,-0.025772054,0.044782743,-0.05108871,-0.031930286,0.046979994,0.033712782,0.040679812,0.019701015,0.028031638,-0.023402555,-0.00043520393,-0.038265098,-0.0012086942,-0.044943564,0.03263037,0.0025981143,0.055855714,-0.010782976,0.052158225,-0.03318115,-0.04087026,-0.015967295,0.032441434,-0.028023522,0.017751891,-0.021926165,-0.008009075,0.025067154,0.049106102,-0.021218702,0.030191856,0.036541697,0.03568294,-0.019873148,0.017671455,-0.046594955,-0.008359852,-0.043233357,0.0735576,-0.026899202,0.002719211,0.014786671,0.00094485946,0.026923597,0.016189573,0.035655674,-0.05135014,0.038769756,-0.02345528,-0.013103282,-0.0045218607,0.033099037,0.0078102984,-0.037344873,-0.02160633,-0.02900101,0.0143199675,0.022381796,0.040950306,0.011707002,0.02742392,-0.034559924,0.06296903,-0.014766182,0.0059222714,0.032992337,-0.026025057,0.034418035,0.036158893,0.0060795243,-0.046889096,0.03533472,0.025213003,0.030333111,0.02785711,0.018620377,-0.0095452145,0.005670491,-0.043274872,0.029601134,0.046167515,0.0004161734,0.039690852,0.004631537,0.036305364,0.029266866,-0.0484261,0.017811095,0.015973942,0.033773627,-0.028282855,-0.043703113,0.065648444,-0.034387037,-0.03181407,-0.022334753,-0.010861265,-0.03486983,-0.024291392,0.0092465915,0.030375995,-0.009109493,0.0062513007,0.014623328,-0.03385759,0.036603842,0.030662248,0.039005037,-0.02482929,0.020331822,0.022219963,0.020876344,-0.020479513,0.062212832,0.054724146,0.031214371,-0.009869587,0.030230328,0.008084848,0.0006783007,0.0011091073,0.014204488,-0.030335521,-0.05508974,0.0008129523,0.0019830435,-0.032291327,-0.02360385,0.021446217,0.017186048,-0.021759188,0.023002759,0.016668474,0.0511509,0.026162125,0.024639081,-0.01343732,0.0047719404,-0.00080623693,0.009537016,-0.023965685,0.027809577,-0.0021303254,0.046628136,-0.03635492,0.066770755,-0.047611877,0.00803876,0.05120998,-0.0021470524,-0.026916226,-0.014036475,0.0029959572,-0.020862207,0.045496896,0.02834355,0.037954755,-0.012304563,-0.047478348,0.012608122,0.030125799,-0.037394125,0.026176324,-0.022113204,-0.017393783,-0.009619173,-0.035799038,0.04612063,0.008339006,0.03397593,0.039580032,0.034237325,-0.047330968,0.006854121,0.028877582,0.046818465,-0.02299191,-0.0454729,0.014860678,0.038247414,0.015207044,-0.025453944,0.036443356,-0.012653814,0.018808624,0.023418713,0.04325659,-0.028684229,-0.04423626,0.015292266,0.022814069,0.030572532,0.05250934,0.029557304,0.04459715,0.030804316,-0.008959006,0.015959308,-0.002214321,0.02413229,0.017327666,0.052586846,0.022125492,-0.064589225,-0.049091294,0.035011142,0.031892594,-0.056193147,-0.020123787,-0.01479205,-0.036662508,0.0006196462,-0.0012070606,-0.035379957,0.05714243,0.047061253,-0.016715098,-0.016588558,-0.046360664,0.014226474,0.008613456,-0.02420656,0.029084792,0.033587385,-0.019966632,-0.0054433867,0.03861299,-0.02218486,-0.0462809,-0.0044374303,0.022650624,-0.036443435,0.02346381,-0.027702315,-0.005392331,0.039415162,0.054342147,-0.05687297,-0.018179573,-0.030006653,0.014457017,0.014505892,-0.04998436,0.0081763165,0.039757457,-0.013546607,-0.020008096,-0.04424981,-0.031225976,-0.039111815,-0.058612324,-0.012063675,0.00281995,0.0048156455,0.023899386,-0.0409542,0.03747668,-0.057563744,-0.025408506,0.03983597,0.027050948,-0.038570125,0.050341584,0.028033437,-0.012176798,0.019222276,-0.04633355,0.018292211,0.034854505,0.028644357,-0.0068063373,-0.023601754,0.0017108964,-0.040535245,0.006780736,-0.009689302,-0.030226557,-0.039060112,-0.0007675285,0.0020915826,-0.016099688,-0.005204609,-0.0056240736,-0.04195487,0.057704784,-0.0037849715,0.00570122,-0.02280612,-0.005418509,0.002630784,-0.020261835,-0.043021277,0.013157484,-0.022158101,-0.028923366,-0.030905867,-0.026809845,0.033373404,0.019275093,-0.027286656,-0.030296968,0.02707725,0.02137824,0.04129395,0.022878608,-0.039992306,-0.012504931,0.027241105,0.032169804,-0.022278322,0.036096398,0.048963204,-0.019553024,-0.035041306,0.049884703,-0.04168432,0.01681526,-0.032563895,-0.021549795,-0.038134713,-0.033815507,0.014421569,-0.018552572,0.016341317,0.0036775637,-0.030227812,-0.015899785,-0.033493385,0.017859668,-0.016461942,-0.036208622,-0.04099408,-0.024199555,0.017093213,0.051648743,0.019939901,0.016453736,0.00035166193,0.02855493,0.026602954,-0.029713178,0.048324432,0.0072890874,-0.02624487,-0.038282588,0.06624128,0.011159243,-0.00901495,-0.045932274,0.031200625,0.05416057,-0.005534756,0.0508564,-0.03218824,0.046443097,0.033212394,-0.025086531,-0.01759634,0.013599834,-0.028585399,0.007818865,-0.014214681,0.020772422,0.027510764,0.042081967,0.016116867,-0.047163203,-0.01887587,-0.03833368,-0.040460195,0.026620684,-0.007952523,-0.021107469,-0.012640849,-0.043650545,0.05135234,0.02937736,-0.032638934,-0.019229269,0.0022234628,-0.02292193,-0.023849465,-0.007572774,-0.041124087,0.014747333,0.00465825,-0.029035395,-0.028610561,-0.0026052746,0.048393562,-0.050959565,-0.01694086,0.014937173,-0.003980225,-0.042859256,0.029564498,0.022532796,0.03887341,-0.030651687,0.012091819,0.032755245,-0.024419215,-0.011052888,0.026170492,-0.00712839,0.024214206,0.049136423,0.048906833,-0.026258681,-0.020852327,-0.0025769076,0.052688636,-0.051416464,-0.03962899,0.018016031,-0.016593918,-0.0025934281,-0.035744164,0.050029323,0.066557504,0.03927394,-0.010742061,-0.022494743,0.033133574,0.01684191,-0.011342234,0.027754582,-0.0015002623,-0.0029334356,-0.0362835,0.0011460637,0.025956636,0.017879337,0.037882328,-0.014120877,-0.011730294,-0.001234949,-0.005157808,-0.0060161008,0.051898807,0.061833058,0.004670945,0.015774157,0.05598772,0.016604107,-0.016384086,-0.006199703,-0.020451797,0.017897662,-0.015000504,0.03452348,0.03653487,0.006541162,0.031088559,-0.033343192,0.015107922,0.00935286,-0.0036931173,0.006570107,0.023407353,-0.02377466,0.045091923,0.045456514,-0.03365538,-0.052293867,0.04458233,0.0033645425,0.029414667,0.051127587,0.008958783,-0.038938537,-0.031277936,0.0100964485,-0.0451526,0.043060936,-0.009281951,0.035015263,0.034085233,0.0129395,0.061947573,-0.037208505,0.043251827,0.026759086,-0.026601015,-0.02671107,-0.026137542,-0.025778286,-0.016324837,0.022712482,-0.043967903,0.044776324,0.04194125,0.008760638,-0.056117304,0.015628114,0.004900515,-0.040593125,0.07115129,0.019134104,0.037917808,-0.00082382374,-0.053802345,5.510377e-05,-0.032212466,0.048584674,0.003200448,0.013461599,-0.03296273,-0.053480666,-0.039623376,0.04138702,-0.035468634,0.059189927,-0.03943173,0.030109264,0.03108705,0.007636673,-0.019127656,0.012513143,-0.03288793,0.026628101,-0.018625034,0.043349925,0.015522536,0.033195153,-0.024273947,0.0109889,-0.0030320145,-0.01997856,-0.03051057,-0.013966306,-0.032478515,0.012386675,-0.029556697,-0.018337417,-0.0106015615,0.0099938745,0.01399655,-0.04445906,0.04262902,0.0033130024,0.010773803,0.039741106,-0.037843905,0.018434053,-0.015729332,-0.025996825,-0.04013253,0.03314369,-0.00896354,-0.009859452,0.03972816,0.015440781,-0.034507494,0.03584592,0.026784854,-0.023250239,-0.03876692,0.053586334,0.025083551,0.036002327,-0.030897852,0.024790535,0.02835142,-0.0056612147,0.012087817,-0.0070899785,-0.03946185,0.0015326561,0.0042593163,-0.050072554,0.023893675,0.016526872,-0.007918937,0.026557023,-0.017886883,0.025579242,0.005326998,-0.05083814,0.059231084,-0.013055963,0.0018582472,-0.027100014,-0.0347361,-0.042482678,-0.034537975,0.05003,-0.006601747,0.005614132,-0.038539268,-0.016585246,0.05056803,-0.00930976,-0.032434586,0.012580546,-0.08030189,-0.051518757,-0.022366313,-0.009521025,-0.031715855,0.026716301,0.073049046,-0.0010930701,-0.019219097,-0.033206616,-0.018177595,0.014669208,0.036151756,-0.003277721,0.0036748727,-0.011003812,0.06901624,-0.07168163,-0.044493727,-0.033282872,-0.005675817,0.024708083,0.007099771,0.0018581405,-0.032231715,0.039487176,-0.037672237,-0.054415368,-0.03051379,0.04075814,-0.04447117,0.028947461,-0.01710739,-0.028374048,-0.025939709,0.008327787,-0.028220754,0.02995614,0.021622127,0.0077300007,0.05697474,-0.022458453,0.043508366,0.049428925,-0.029472435,-0.050977666,-0.036648422,0.020694388,0.028057745,0.01850122,0.019614702,0.012555202,-0.037281543,0.01765719,0.03118963,-0.010081722,-0.03968262,-0.0170262,0.047549136,0.028398326,-0.020417059,-0.0049904343,-0.02542831,0.03324905,0.03259135,-0.040862016,-0.05346056,-0.044115636,0.011563322,0.03306687,0.048479617,0.0053077242,0.02692966,-0.005494579,-0.03422072,0.057813212,0.0025032088,-0.025188655,0.040467482,0.027499167,-0.025462916,-0.012640721,-0.02036442,0.03430413,-0.009360774,0.024222087,-0.044039,-0.04374993,-0.042549837,0.005008942,-0.0050888397,-0.011630064,-0.015974745,0.024871262,-0.03392902,-0.032727323,0.037030444,-0.0366519,-0.044027846,-0.013526533,-0.03333806,0.005191026,0.05072281,0.0136228455,0.042150173,-0.047098506,0.0016211858,0.00912733,-0.015327369,0.045926027,0.012275293,0.011288317,-0.011417084,0.007931399,0.017596815,0.035630926,0.030544406,-0.007792422,0.05662374,0.0334504,0.026865343,0.054558598,0.03947773,0.01190818,0.06608723,-0.031084187,-0.046430286,0.0037259983,-0.012237013,0.021293648,-0.014543269,0.0019396037,0.03839495,-0.038371902,-0.021120336,0.042116165,0.0043257214,0.04211259,0.0021611785,-0.019929081,-0.041621692,-0.024545504,0.0635279,-0.081890725,0.035379384,-0.008165511,0.013571837,0.04654844,-0.04910491,-0.041138668,0.0064812917,0.04661368,0.022772165,0.0039208285,0.008899033,0.011887954,0.030872948,-0.029569617,0.010681759,0.06338567,0.062128823,-0.0015869363,-0.034502078,-0.031221118,-0.015213981,0.052086487,0.013267362,0.058958508,0.015312884,0.022445923,0.03308441,-0.041603602,-0.029929467,-0.009221783,-0.0038605384,-0.029595127,-0.0010027953,0.056750007,0.038635787,-0.027672302,0.029472178,0.023695057,0.031704903,-0.0240985,0.019655174,0.0076543237,-0.011848483,-0.030835703,0.025795346,0.0031736053,-0.008222101,-0.0159818,-0.023693765,0.021789124,0.028718127,0.028298272,0.013090047,-0.017826287,-0.00777263,-0.0031994984,-0.003700271,-0.008419764,0.023043755,0.05359156,-0.003248201,0.05461644,-0.010951129,0.014232685,0.014111471,-0.018546611,0.01791128,-0.027041709,0.024478173,0.07241235,-0.00041710696,-0.027220566,0.020743638,-0.004516316,-0.036384292,0.013258834,-0.02945032,0.024244603,-0.006685919,0.00070283003,-0.07267098,-0.028740115,0.015238554,0.05264142,0.0172315,0.050635636,0.028370285,-0.023256086,0.021095151,-0.038285967,0.017188948,0.030902784,0.016047651,0.031095484,0.05690107,0.0020518703,-0.015196797,-0.02693371,0.029231163,0.028805371,0.017415984,0.02117761,0.038104616,0.0737388,0.039810814,0.06129974,0.0404185,0.02231854,0.007906334,-0.024598578,-0.042121578,-0.017960308,-0.0024680123,-0.008960265,0.0078941295,0.037241913,0.007015918,0.04946829,0.017275898,0.0015529323,-0.020913439,-0.0022491904,-0.021112723,0.031226765,0.005122151,-0.028128935,-0.0496155,0.015059811,0.032483883,-0.025928928,-0.0072323256,0.002157004,0.027437344,0.044577602,-0.037494678,0.018373523,0.02533152,-0.053370003,-0.033515956,0.028892472,0.0020310555,-0.016478619,0.03779639,0.009928579,0.022142611,0.025357094,-0.016878542,0.036452517,-0.04659757,0.022764616,-0.012635479,-0.024740193,0.016709762,0.01614889,-0.0013145842,0.039046396,-0.0045208274,-0.038244065,0.05342939,0.007184994,0.0021702726,-0.008543098,0.011530553,0.034436073,0.027797017,0.012672921,0.03648337,0.027724532,-0.029056001,-0.014668158,-0.04035654,-0.0061046183,-0.020636773,-0.016343832,0.0069022407,0.037258636,-0.019297935,0.013527966,0.015515193,-0.044712856,-0.012239404,-0.036528468,-0.067068554,0.029517816,0.041417383,0.044617623,-0.008357209,-0.0066144457,0.040939588,0.048929863,0.06692725,0.038909484,0.020427613,0.039484188,0.03814943,0.045766205,0.03172197,0.042310104,0.022951521,0.04455955,-0.040106732,0.015444197,-0.04035179,0.0009678923,-0.008969252,0.019700764,0.04008475,0.009376386,-0.0054988256,-0.04272207,0.02732949,0.043650992,-0.050835248,-0.010955309,-0.042091254,-0.038640615,-0.0440689,0.010457121,-0.021223223,-0.03517727,0.013578986,-0.014474099,0.032996356,-0.049602006,-0.018689474,-0.014789104,0.0035779173,0.07430518,0.033238906,0.0015485915,0.0011440533,0.0035853654,0.03189514,0.051221102,0.0030510102,-0.021168591,-0.017564464,0.025787938,0.00017213331,0.028679414,-0.006656792,-0.005001078,-0.03597403,0.0707726,-0.012596748,0.0054014935,-0.018275015,0.014017521,0.033078086,-0.02282479,-0.023291254,-0.011875296,-0.03352656,-0.051160324,0.0060236077,-0.029344432,0.03229384,0.034282662,0.022506641,-0.03186069,0.042087883,0.045645397,0.03127633,-0.004706057,-0.0014425521,0.029386945,0.010541082,-0.029566154,0.04046344,0.02114437,-0.01309401,0.008769311,0.021372756,-0.004637834,-0.009051014,-0.02285493,0.014267843,-0.01199132,0.032888398,0.04394006,-0.011176914,0.046485156,0.022306133,-0.037434187,-0.032419894,-0.010961912,0.035116464,0.012343643,-0.019221937,-0.040255874,-0.04833232,-0.024691895,0.02532028,-0.017041998,0.015808461,-0.00807703,0.024812954,0.013943731,0.043618914,-0.0033639374,-0.044910956,0.0051988247,0.01425734,0.021590821,-0.03862769,-0.022428213,0.050232932,-0.04415581,0.026336173,0.016848866,0.0016541363,0.04132244,0.038577702,-0.008922841,0.015630722,-0.0046252934,0.006840148,-0.04104954,-0.012278624,-0.01517274,-0.02895182,-0.0119458595,0.011231141,-0.016699975,0.041766062,0.050731685,0.014302285,0.01603451,-0.04372835,-0.025433082,0.0108757885,-0.04263783,-0.019570792,-0.074904434,0.026561154,0.0076264804,0.02073239,-0.022046678,0.00737246,0.016134018,-0.023440018,0.025559478,-0.011059415,-0.03197672,-0.008416264,0.027675143,0.054415405,0.011763279,0.047206055,-0.043406915,0.009348025,-0.011774006,0.04050079,-0.013099888,-0.011765438,-0.034307756,0.067026034,0.025416832,0.057298034,-0.024215136,0.06681169,-0.025415309,-0.002874381,0.030471658,-0.027079523,0.057905376,0.018846273,0.03930598,0.008429929,0.031909663,0.008331997,0.0074693374,0.048558492,-0.06176197,0.04477686,-0.001432944,0.008764248,0.054752663,0.035467945,0.044433717,0.006556803,0.05434143,-0.017529782,-0.029114198,0.028875127,0.013856116,0.0020407976,0.032896686,0.03981304,-0.06247688,0.043311484,0.016135288,0.01233096,0.017998032,-0.008152853,-0.014659429,0.007379271,0.030489082,-0.023430364,0.03139108,0.018662842,0.06406058,-0.039218947,0.0022916985,-0.0015031474,0.04932925,0.028812392,-0.02009771,-0.040805787,0.037905615,-0.027825681,-0.04067676,0.0044743633,0.052651443,0.0027152847,-0.011223923,-0.032826252,-0.024324961,0.009865111,-0.0030778437,-0.03828613,-0.02270694,-0.027670536,0.026979264,-0.020829026,0.0252844,-0.011903654,-0.025819864,0.054898232,-0.04626285,-0.014361156,-0.02797448,0.044504307,0.02594296,0.012467414,-0.0117663,-0.01607301,-0.01224158,-0.037417363,-0.019554837,-0.033159703,-0.02568534,0.0033709523,-0.016220795,-0.025635015,0.0025398072,0.0084627345,0.0483575,-0.024229836,0.021903612,0.03995761,0.03832553,0.025334649,0.05459988,-0.054059412,-0.04262218,0.048741832,-0.075032115,0.031109624,0.00037015043,0.027672308,0.021831892,0.039950594,0.015118629,0.029166525,0.033572353,0.04162766,-0.036889605,-0.046220455,-0.020682769,0.009061783,-0.02620132,-0.029273367,-0.032809034,-0.046807237,0.050036546,-0.010149754,0.061800107,0.0065767816,0.019965403,0.034271292,0.043940566,0.01925386,-0.034285475,0.028709758,-0.013134842,0.037843138,0.046688918,-0.04802135,0.041405268,0.043520592,-0.0052374583,0.02814395,0.029575745,-0.03318515,-0.026435655,0.042130567,0.017511697,0.0012343948,0.0726637,0.0007724524,-0.054032777,0.04009888,0.019931007,0.009685798,0.014414761,0.023701368,-0.02041761,0.011448824,-0.026280807,0.014180109,0.048785962,0.025638415,0.0086745685,0.018227765,-0.010038723,-0.046313938,-0.0335969,0.056363855,0.0011833021,0.017708756,-0.0027834948,0.017118994,0.012374536,0.025047874,0.036201783,0.009341152,0.0076493765,0.019449143,0.045325402,-0.009894447,0.0031620574,-0.008546836,0.0021237826,-0.03442823,0.0498955,0.015523861,0.043044437,0.05403618,0.030083524,-0.007821448,0.0083227,0.022521058,-0.02183958,0.023590228,-0.06937763,-0.009653974,-0.007329614,-0.010881202,0.034138527,-0.037941027,0.009717275,-0.022842685,0.013083288,-0.0052140197,0.007813412,-0.008509569,-0.04615263,-0.010542852,-0.0014962062,-0.028213007,0.02981083,0.02737438,0.036472127,-0.014010003,-0.038995687,-0.032610234,-0.044014644,-0.010605555,0.06712934,0.04121963,0.057498757,0.04150912,0.028855402,0.0489972,0.02264359,0.0030086471,0.016275572,-0.032537863,-0.0068802973,0.017428206,0.044367414,0.035658035,-0.0013408918,0.030801231,-0.035328176,-0.029997757,0.010083682,-0.017435886,0.025042847,-0.032598995,0.017534563,0.010799372,0.011593191,0.0072770305,-0.044290185,0.003854293,0.03975073,-0.00887263,0.080909535,0.043905243,0.03429561,0.050848413,-0.00858163,0.036147885,-0.0002900456,0.03201397,0.013759787,-0.042941768,-0.0039259233,0.006676731,0.054249756,0.010209714,-0.0322533,-0.015111549,0.04469937,-0.025448628,0.06161666,-0.008820009,0.0017504323,-0.038069237,-0.037444066,0.046402305,-0.05159185,0.024715442,-0.023127513,0.034782726,0.0057684155,-0.004483406,0.041430037,0.01875269,-0.019719785,-0.047648262,0.03494316,-0.0038382122,0.07114223,-0.010019657,0.06711084,-0.038260695,0.06467174,0.032294616,-0.014799546,-0.047270477,-0.04188762,0.0006325419,0.028509619,0.009022924,0.03723339,0.017982898,0.0591019,-0.009237769,-0.017317303,0.014087214,0.025584828,-0.019884259,-0.018037546,-0.012662804,0.055013463,-0.04353571,-0.013446041,0.013203281,-0.018776648,0.021017669,-0.067930296,-0.036213826,-0.005809066,0.028212119,-0.022971712,-0.006210097,0.04282178,0.006143977,0.0133452965,-0.046552807,-0.024238365,0.042043213,-0.0018102044,0.034600407,0.04614983,0.054661278,0.02911968,-0.016191766,0.010271901,-0.019978948,-0.0070792814,-0.00034132306,0.0076533305,0.009484023,-0.021071875,-0.044782117,-0.0672159,-0.009982499,-0.048884165,0.008213632,0.03671027,-0.0631551,-0.02308736,-0.014278664,-0.045847412,0.028399557,-0.02605801,-0.002185144,0.03350963,-0.03313726,0.013299306,0.051811755,0.045549817,-0.029754978,-0.015027142,-0.012190873,0.039662216,0.05283596,-0.05746298,0.022437371,0.01746988,-0.050779488,0.008969484,-0.028891435,-0.0029782883,-0.032093998,-0.030638263,-0.035709422,-0.00059960014,0.044556595,-0.030741138,0.0037028792,0.054213237,0.0074643604,0.010398956,0.027590051,0.022657204,-0.0043491237,0.043169092,-0.03858584,-0.012048108,-0.00878228,-0.045544304,0.060506113,-0.0020803267,-0.028153714,0.018101024,0.02873823,0.025936093,0.07879086,0.0084087225,-0.04624599,-0.00031742695,0.02392345,0.03568227,-0.035001032,0.017981512,-0.025691725,0.0061082323,-0.030578876,0.06429373,-0.018964011,-0.023248704,0.031464342,-0.011493143,0.0077189417,0.0643934,-0.019937884,0.054458275,0.038713347,0.027533943,-0.014442968,-0.02111335,0.0369389,0.016233174,0.0056154975,0.013519774,-0.0020449937,0.02481668,0.020565024,-0.02283638,0.022572292,0.024393145,0.03274137,-0.035521984,-0.011385678,-0.0059867133,-0.03833888,-0.052911542,0.046616077,0.0049354443,0.0015583354,-0.014745105,0.03442666,-0.035568353,-0.011371274,0.02741722,-0.0051724464,0.011902863,0.013704597,-0.012113655,-0.03686779,0.00039530036,0.035567306,-0.010375295,-0.033347864,-0.02252995,0.0048725894,0.02514526,-0.031042516,-0.039971776,-0.000300776,0.035052467,-0.0005268415,0.05939761,-0.025869442,-0.076731876,-0.057660412,0.016273415,-0.02070544,0.009319782,0.023707943,0.035398856,0.021146879,0.04075546,0.00081410067,0.0014871358,-0.010721352,-0.014033468,-0.018641591,-0.0056752968,0.018082062,0.013692262,0.04356102,-0.045202672,0.034696467,0.021796176,0.005560481,0.00095569383,-0.013139421,0.01107364,0.031913716,-0.026409816,0.037958566,0.04835116,0.03696309,-0.011375513,-0.053211153,-0.031205202,0.03157789,-0.0030197334,-0.028644353,-0.039941784,0.01383549,-0.011820398,0.018109204,0.032834165,0.044908054,0.022842117,-0.0069458378,-0.022997685,-0.01760845,-0.061767742,0.0022590784,-0.042564232,-0.03408188,0.01027872,-0.05075972,-0.0047280868,0.020488959,-0.038737193,0.03533602,-0.029503128,0.033900917,0.0021013557,0.049718462,0.039594296,0.00254999,0.027749244,0.024904372,-0.06301264,0.04649235,-0.029782427,0.010640455,0.032130044,-0.036843732,-0.0060510086,-0.03438777,-0.0044185403,-0.03348893,-0.0007414542,0.038224034,0.04735297,-0.031530343,-0.05693179,-0.031026782,0.02966316,0.03540256,-0.0063398383,0.027850414,0.06996026,0.012090033,-0.042146247,0.040389743,-0.0021506662,0.0058917794,0.0023421047,-0.024937961,-0.024401892,0.041019443,0.040722813,-0.023812745,-0.010587804,-0.022779508,0.041881524,0.046426095,0.037902687,-0.032032155,-0.026269892,-0.02532942,0.024889907,-0.04216624,-0.0055596703,0.043075196,-0.0636965,0.013833539,0.0058409073,0.024674928,0.0013630682,-0.035472304,0.007291462,0.05923182,0.032428127,0.04336517,0.06643193,0.04635559,0.015414101,-0.05897716,-0.014768907,0.026725007,0.002431375,0.04692862,-0.035173018,0.019557387,-0.023857575,0.014605803,-0.005314928,0.03431806,-0.031721953,-0.0076984186,0.012936952,0.015206905,0.03264248,-0.020988554,0.014448229,-0.043244217,0.008684208,0.026190294,-0.03533007,0.019182805,0.036896586,0.066549875,0.020764256,-0.0139599005,-0.007932987,0.027504755,-0.013170754,0.0041379556,-0.014311431,0.031769566,0.028881516,-0.0090921065,0.01272321,0.025280656,0.01110061,0.003118178,0.05132119,0.01915884,-0.04077855,0.032020364,0.028504048,-0.025385745,4.9282353e-05,0.01728954,-0.030521441,-0.00477055,-0.015580135,0.03463316,-0.005165822,0.030219287,-0.0011534407,0.016143315,0.055540953,0.031219687,0.009485411,-0.003224077,-0.008693862,0.02377725,-0.023977038,-0.020507842,0.015749196,0.014496739,0.054963592,-0.021255266,0.024510033,-0.028088685,0.01719018,0.031409964,-0.018887881,-0.033688102,0.009028281,0.019509105,0.028080765,-0.020738613,-0.023664536,8.214142e-05,0.0292514,-0.023819728,-0.012640589,-0.021014517,-0.023768997,-0.0077294535,0.014427783,0.008508663,-0.032434158,0.0048649507,0.055777926,-0.048311435,-0.049484,-0.034492176,0.044554833,0.025199708,-0.0327958,-0.049898308,0.0034996662,0.009333226,0.03857826,-0.021036781,-0.01815719,-0.012595686,-0.016398044,-0.026848001,-0.015884543,-0.010566266,-0.050991878,0.03219758,0.044659104,-0.037159428,0.02398743,0.032830045,0.0039820326,0.040197838,-0.01869675,-0.00024346738,-0.00658253,-0.01161029,-0.021364192,0.060242817,0.0071716327,-0.0055043204,0.02537182,0.03571678,0.018118752,0.0026694546,-0.003386079,-0.025238995,0.024599941,0.022252828,0.0004336035,-0.010549105,-0.015514335,0.031464696,0.0027479401,-0.036968544,0.013806222,0.0060462113,0.043793663,-0.029526265,-0.012077063,0.038459413,0.01066171,0.0713141,0.010624381,0.047724463,-0.00021913584,0.043528996,0.026340414,-0.033223398,-0.0012988085,-0.03525838,-0.019169958,-0.029787423,0.0387748,0.041892305,0.0044017443,0.03576951,-0.015492962,0.029080898,-0.025765868,-0.027015898,0.05854775,0.02232968,0.037754983,-0.017934926,0.042976644,-0.018561032,0.04378104,0.021814467,-0.03663213,-0.027908273,0.026414543,0.03909341,0.03291114,-0.024835598,-0.028037367,-0.0115747275,0.02142689,0.004856968,0.014216952,-0.0057826266,-0.0068252576,0.01934517,0.00064573716,0.036312547,-0.03767106,0.03620374,-0.044414856,-0.022935854,-0.0015640226,0.010781896,0.0066620214,-0.0018121498,-0.0005385636,-0.0048079905,0.01296638,-0.04412334,-0.0063034054,-0.043700468,-0.0009248789,-0.015049678,-0.016566563,0.0062400526,-0.015883029,0.03404351,0.023945993,-0.026233857,0.037756074,-0.0011358537,-0.02521641,0.0055575436,-0.005709578,0.040803686,0.010267479,0.030563427,-0.045802988,0.0014779667,0.010066464,0.06298693,0.008764699,0.020696413,-0.019127144,-0.02216564,-0.010090626,0.0049856673,0.009130891,-0.06436395,0.042182636,-0.008775817,-0.005239926,0.01549989,-0.02028205,-0.0029552092,0.038017206,0.019884735,-0.010606524,0.025987018,0.025066894,-0.010674493,0.0039875465,0.051149655,0.0074481056,0.030082986,0.030809429,0.03145815,0.04060944,0.024190174,0.030672397,0.043272797,-0.02630862,0.00031436948,-0.028502312,0.035184305,-0.023654375,-0.012976024,-0.012198453,-0.043200713,-0.022564763,-0.025470592,0.0063704187,0.029236985,-0.016324492,-0.05320255,0.03800127,0.01023041,-0.009653708,0.044305302,-0.033843257,0.012866456,-0.030763933,-0.05294226,-0.013454559,0.011771993,0.002497922,0.04602078,-0.021326942,-0.021396799,-0.034754496,-0.0045266687,0.023518527,-0.015001607,0.010061361,-0.020131323,-0.044106316,-0.028235637,-0.007736563,-0.002734442,0.0039546257,-0.023445807,-0.048599336,0.037050694,-0.0039592967,0.023419045,0.028685927,0.030230233,0.028599089,0.010812931,0.046003357,0.037321936,-0.044427734,0.04663859,0.007246213,-0.044434104,0.03203827,-0.0046448642,-0.005954024,-0.027435469,-0.023325123,-0.020815093,0.023248063,0.032612108,-0.03160354,0.0117456615,-0.047661696,0.049560748,0.04561742,-0.006080453,0.025181187,0.034180913,0.0036848069,-0.0049316357,-0.0010686226,-0.027837968,-0.014890805,0.006475704,0.045595918,-0.017519968,-0.0765837,-0.007764114,-0.016573638,-0.021898385,-0.017041704,-0.025605116,-0.005281274,-0.028551253,-0.027235383,-0.040605742,-0.008951131,0.012022867,0.008666448,0.0057139522,-0.009371336,0.028677078,-0.02929362,0.025090523,0.023266556,0.016609076,0.024407089,-0.01935497,-0.03425526,-0.010613021,-0.0023333011,-0.011559591,0.02823959,-0.019563768,-0.02267752,-0.013414783,0.045035712,-0.031682216,-0.006322824,0.03699771,-0.02867754,-0.041731104,0.012324737,-0.05101098,0.020023225,0.008616805,0.046044905,-0.044424493,-0.07736172,-0.020802744,0.029880065,0.017254867,0.057925854,-0.014234149,0.023798054,-0.0050762156,0.015215649,-0.025953252,0.06055044,0.0594026,0.013769248,0.037911773,0.008645236,-0.034900427,-0.044139523,0.011222182,-0.029729454,0.0014276038,0.03515935,0.036720127,-0.05653908,-0.030122258,0.0019316477,0.0013335211,-0.044315726,-0.024137426,-0.04356871,-0.03610556,0.02324188,-0.023369819,0.03945604,-0.013089901,-0.015818525,0.02688469,-0.01632393,0.013691998,0.024818247,0.011533646,0.008373667,0.004905992,0.008249052,0.032956447,-0.024580795,-0.03923228,-0.029072294,-0.02313348,-0.0007014047,0.033183265,-0.012745463,0.041354503,0.038566977,-0.018711414,0.045865417,0.014736828,-0.025482893,0.016966492,0.025851073,0.024131648,0.028202185,0.0062945182,0.018242173,0.007445108,-0.03416803,0.04814165,-0.0003109262,0.04349352,-0.018625591,-0.022649808,-0.04201696,-0.03296308,-0.020545484,-0.047565404,-0.024662638,-0.05718933,0.042979155,-0.030624252,0.03410985,0.0075111617,0.049121577,0.013478391,-0.03208471,0.007140416,-0.025243161,-0.0077463477,-0.028004795,-0.034396417,-0.017037503,0.036353003,0.0071270294,-0.054824207,-0.04623673,-0.020729175,0.010520551,0.006238308,0.031048002,-0.06252376,0.009127873,-0.01110895,-0.04181343,0.017244495,0.016148362,0.0075157788,-0.033849005,-0.03896095,-0.02997932,0.052228197,-0.0017523092,0.006505162,-0.046969566,0.041123096,0.0378317,-0.00782402,0.003540828,-0.042339187,0.0459861,-0.0044917837,0.059102993,-0.038261153,-0.013627369,0.010684577,0.009061316,-0.0036645948,-0.027589723,-0.041479,-0.027583838,0.017650627,0.06076917,0.00046720135,0.034420248,0.042428676,0.019870566,-0.008634063,-0.027776232,-0.013558003,-0.04253221,0.03926298,-0.03800745,0.016204279,0.002241098,-0.017742785,-0.011022716,-0.027696716,0.033347476,-0.022114735,0.0366299,0.001835625,0.03208463,0.03685076,0.025432846,-0.016018298,-0.02713953,0.01959137,-0.017557913,0.011524327,-0.029146241,-0.02361555,-0.059745315,0.047642313,0.016160842,-0.013072243,0.038567893,-0.026205657,-0.020264884,-0.037064686,-0.010485514,0.01457456,-0.01823883,-0.042994257,-0.0034573132,0.03163446,-0.04372974,0.033355273,0.04445606,-0.0021791416,0.0323419,0.039172836,-0.04345402,0.004750085,0.04021595,-0.012030715,0.038531065,0.033012744,0.010289496,-0.0009649243,-0.027936764,-0.002339391,-0.039378434,-0.031366654,-0.0118965,-0.0069828383,-0.0021329534,0.024410568,-0.000552614,0.012662073,-0.008659144,0.016287135,0.01345638,0.022933472,-0.0025408666,-0.024579916,0.012911102,4.9397437e-05,-0.03706481,0.034876563,0.03363703,0.01852758,0.022931993,0.03595782,-0.015740015,-0.0044713747,0.0064643575,-0.005151687,0.009297689,-0.0147841,0.0323624,0.050428808,0.0058881105,-0.028674638,0.015714012,-0.04428102,-0.023944447,-0.017500112,0.029828234,0.03769539,-0.015349767,-0.0022319038,0.008669664,-0.0018357282,-0.003851725,0.042553052,0.00531892,0.01389657,0.003978419,-0.033807963,-0.04551989,0.02423458,-0.019935701,-0.036181077,0.01832305,-0.009788952,0.046915114,-0.010060096,-0.033777546,-0.04732129,0.04930203,0.02628677,0.010862669,0.0065332907,0.030986529,-0.020230237,0.053027008,0.007064065,-0.0451921,0.029439965,-0.026748514,0.009115599,0.056635793,0.014682893,-0.05135419,0.021769343,0.013772904,0.04450623,-0.011457604,0.008657817,-0.0034512645,0.03248794,0.060282215,-0.028887484,0.003997996,0.0056104707,-0.00088421284,-0.031828497,0.045470268,-0.019716267,0.025610832,0.02225029,0.0053067273,-0.06440019,0.028667275,-0.015168038,-0.019643262,-0.04704844,-0.044513006,-0.00980228,-0.012417817,0.01084787,0.03478722,-0.037964154,0.004932745,0.0051474394,-0.05327118,0.023078633,-0.0030867718,0.055375353,-0.005010375,0.04390826,0.020506553,0.008438686,0.02150025,-0.00035437784,-0.01162853,0.022423483,0.018880263,-0.03346283,-0.029641803,0.013462661,-0.007819773,-0.0047721285,0.05065128,-0.045823745,-0.051053047,-0.002231413,0.03613761,-0.018217195,-0.030291576,0.013816373,0.064332634,-0.016977742,0.0012392579,0.024394007,0.038613155,-0.007529381,0.051921826,-0.0054788007,-0.031908445,-0.007933954,-0.05296446,0.051389627,-0.03087617,0.039699607,-0.050636776,-0.009785479,-0.06843113,0.0012745117,-0.02709638,0.051024746,0.019334653,0.0016988049,-0.03594833,0.044763114,-0.0052480567,-0.010207101,0.031492364,0.0020398358,-0.020538975,-0.0005613139,0.050228674,-0.01376749,0.023373902,0.04295706,-0.018979378,-0.038118724,-0.016140196,-0.036987778,-0.041438296,-0.008533217,0.0034104614,-0.012603437,-0.03466583,0.0013446148,-0.048448615,-0.034518056,-0.00475737,0.048009746,0.049936935,0.03504141,0.03870312,0.016086668,-0.034449965,-0.06146461,-0.062990114,-0.03503127,-0.05967595,0.024228413,-0.0041954117,-0.020422304,0.001598883,0.0603749,0.031108595,-0.022860624,0.018251093,-0.053567093,-0.0015307863,-0.008939952,0.045307286,-0.02973404,-0.00057064113,-0.020013027,0.008560052,0.0017440742,-0.030387964,0.03437424,-0.021772576,0.044635803,-0.035630677,0.03811749,0.038371444,-0.056371994,-0.012522461,0.062001493,0.027933944,-0.048577223,-0.0048512085,0.020772267,-0.054924253,0.030983584,0.024522249,-0.014525818,0.025992997,0.0030998178,-0.019135984,0.019792689,0.014618029,-0.027731277,0.0017795103,0.018902209,0.003466886,-0.008480428,0.06305885,0.008584394,-0.009937049,-0.0005365606,-0.030433502,-0.02955835,0.035146844,-0.022816963,-0.024719186,-0.023024088,0.032163113,-0.005932906,0.0007025524,-0.0065276246,0.042628586,-0.012866937,0.017444527,-0.0026987533,0.007133875,-0.008298696,0.0059701,0.05484403,0.054011576,0.010858087,-0.015225989,0.051664017,0.008115115,-0.02063291,-0.020746082,0.003261403,0.006772778,-0.011033238,0.00652983,-0.01467994,0.04897851,0.030316973,-0.04012505,0.020009719,-0.013630949,-0.04647487,-0.006475747,0.035224684,0.035522178,0.026326792,-0.008271233,-0.0338315,0.027061665,0.00049547653,0.03338197,0.00924687,-0.02511927,0.0675526,0.052485414,-0.047323663,0.019939737,0.043358058,-0.025311263,-0.036235448,0.00942568,-0.05647027,0.016381565,-0.025202619,0.03319706,0.0096630985,-0.03004327,0.0037317544,-0.044379894,0.027355358,0.022335721,0.0029802145,-0.0493087,0.045483977,0.009028242,0.0045695864,-0.049500477,0.03433286,0.0035060178,0.007704193,0.0074848034,0.01932836,0.016178265,0.055895664,0.035947807,-0.012160859,0.017258089,-0.026219498,0.05599221,0.056561828,-0.0052710343,0.040367983,-0.009930577,0.016219776,-0.0033007688,0.045009844,-0.022049807,-0.019010508,0.018032053,0.0394505,0.017735036,0.024666844,-0.005743541,0.020271795,-0.019169834,0.027250687,0.022864621,0.0021652225,0.010751611,0.03325981,-0.011870321,-0.005152687,-0.040974792,-0.02263512,0.027299542,-0.024247935,0.0008144677,-0.01649129,-0.047109205,-0.0024492661,-0.048889585,0.025814543,0.0073327026,0.019598855,0.009634483,0.013198348,-0.033322588,0.044397376,-0.0064042737,0.027866405,-0.013164807,0.02750625,-0.00047488807,-0.018970644,0.05075043,0.016287832,0.0073602996,0.002433712,-0.02944239,-0.042687792,-0.046797376,-0.040562022,-0.035112537,0.0049806535,-0.041886784,0.013896879,-0.042466003,-0.040672645,0.03995179,-0.026836045,-0.03828885,-0.0047393506,0.022078095,0.044130586,-0.0303942,0.011839101,-0.023636514,-0.024638012,-0.020666314,0.020610232,-0.04953637,-0.025594449,0.00714691,0.011550299,0.0010323405,0.013084225,-0.028836697,-0.03926273,-0.03147367,-0.0023878755,0.016523968,-0.0046374258,-0.042131465,0.042987205,0.040836964,0.05621673,-0.0032056563,0.058014426,0.050923347,0.035074167,-0.045186058,0.027500391,0.014238302,-0.012180474,0.008954246,0.03170389,-0.001680176,0.022008663,-0.01338728,0.04271759,-0.0032701811,0.019723011,-0.040325686,0.044910002,0.052250378,-0.02776676,-0.009424577,-0.033617288,0.025523288,0.035255812,-0.039801154,-0.011825891,0.011112777,0.027951045,0.027631594,0.006201536,-0.024790816,0.025947774,-0.01197913,0.0010112495,0.005877712,0.026615808,-0.039354045,-0.030257396,0.035674315,-0.0070171976,-0.01908451,-0.03807443,-0.032515634,-0.020716082,0.01666769,-0.027397709,0.023155952,-0.008210174,0.012052158,-0.0465769,-0.042137742,0.03366262,-0.0071326806,0.014532572,0.028649459,-0.010135593,0.0037096043,-0.038723186,0.0337084,-0.028948829,0.007420393,0.053663913,-0.038677763,0.042700846,0.001449279,-0.03269035,-0.02127668,-0.014626313,-0.0387776,0.01635696,-0.010186448,0.030832974,0.036521006,-0.016610553,-0.021908661,-0.06924284,0.00034833356,-0.036818117,-0.022584148,-0.007730191,-0.0028103383,-0.0030142209,0.02984738,0.025874149,0.030605085,0.029556148,-0.0020036998,-0.028229836,0.0148344925,-0.042998984,-0.023004504,0.038708895,0.0140071465,0.016108537,0.05152901,0.014409165,-0.04133099,0.009672357,-0.022537423,-0.032864835,-0.021069286,-0.0031205611,-0.035380032,-0.007825376,0.0028310553,0.022495428,0.036093462,0.0058611436,0.0450865,-0.022911245,-0.049144458,0.021267192,-0.018576106,-0.009816212,-0.0067198803,-0.054325934,0.049254566,-0.01913204,0.031243829,0.027303472,0.018651761,0.018879179,-0.024826558,-0.028437022,-0.031032732,0.030705743,0.0069552762,0.03561775,0.045813538,-0.069402695,-0.0021452275,0.015060878,-0.03720832,0.02899477,-0.023641985,-0.047669914,0.019238988,0.00928596,-0.002632522,-0.0038122195,-0.021613827,-0.037418794,-0.00053864194,-0.008694094,0.021696026,0.068086766,0.0117562935,-0.02975252,0.017292729,-0.01934091,0.0021421313,-0.030663025,0.01513461,0.028286975,-0.0064267465,-0.05008876,0.05233002,-0.0375371,-0.055428505,-0.007976896,0.024811912,-0.02831932,-0.039317466,0.03064551,0.018764203,-0.030512981,-0.010546474,-0.014593117,0.045459446,0.010107552,-0.040904257,-0.0069617135,-0.03115877,-0.0328369,0.032417644,0.0017236419,0.00080286304,-0.022594063,0.009869374,-0.05020522,0.0020638392,0.008273315,0.0068963678,-0.016481465,0.0094349235,0.015025572,0.014052825,0.016826143,0.025042111,-0.040906623,0.0024689669,-0.0032736291,0.011275425,-0.030740049,-0.013404377,0.027261952,-0.006535149,0.012900001,-0.020581767,-0.02113055,-0.03819814,0.04941511,0.016693382,0.035126653,-0.026583135,-0.022862641,0.01904663,-0.012750842,-0.008034089,-0.032731213,0.049165614,-0.020638017,-0.020408444,-0.0073986067,-0.019706761,0.01107322,-0.018416042,-0.011087791,-0.029893288,0.021353565,-0.01394682,-0.0062561887,0.01159355,0.0348108,0.03595197,0.03290558,-0.006565903,-0.045112956,0.025845924,0.0007138369,0.011397125,0.0033799997,-0.034445938,0.038372885,-0.017804543,0.014926295,0.046561614,0.046905283,0.026761904,-0.03867185,0.0026457764,0.004438488,0.015706295,0.0046193623,-0.013940401,0.0332967,-0.026151953,-0.030611971,0.0067918533,0.039470233,-0.030017646,-0.029073972,-0.020916903,0.0006986739,-0.012183929,0.04318709,0.040376805,-0.013695728,-0.033916328,0.0036177605,0.010009218,-0.039931778,0.0366124,-0.037412796,0.00074975984,-0.02907617,-0.022521237,0.011965414,0.017517276,-0.036819566,-0.049034953,-0.028887175,-0.009986388,-0.005938282,0.051851716,0.030266369,-0.0067609595,0.03378982,-0.030592231,-0.034586318,0.03277233,0.034812335,-0.026873704,-0.033528786,-0.02149821,-0.043612834,0.031887326,-0.018442411,0.0020532634,-0.018431261,0.026924007,0.029868284,0.017222032,0.0027341016,0.016836694,-0.0039828112,0.02829116,0.037502673,0.06053028,0.022449696,-0.006432994,-0.04218854,0.054327477,0.02449611,-0.0056891674,0.034830287,0.0342105,0.036409628,-0.036632776,-0.020005014,-0.035069626,0.042689666,-0.035997897,0.018944098,0.013773919,0.038895972,0.02244886,0.041100867,0.049334947,0.047460247,0.03097223,0.026316598,-0.02514196,0.0368791,-0.020422949,-0.011726895,-0.027857717,0.042011008,0.035711594,-0.0062613953,-0.0073041636,-0.033022206,-0.022176525,-0.015263721,-0.01001392,-0.0354805,0.013311388,0.039553113,-0.0010139771,-0.014550375,0.011313585,-0.0021285561,-0.02887333,0.015040882,0.055025578,-0.012951939,-0.0113506215,0.015069432,0.015913652,-0.025974942,-0.034784272,-0.011946362,0.002424208,0.040570766,0.020938326,-0.039670516,0.0011061835,-0.021406949,-0.010024539,-0.033160627,-0.021767082,-0.063799284,0.03787682,0.0018268367,-3.656072e-05,-0.040755615,-0.005765776,0.017256217,-0.036711182,-0.02856793,0.03450731,0.020212604,0.034574576,0.00833895,-0.018380905,-0.029741053,-0.026613506,-0.014370158,-0.032737978,0.04737997,0.017389113,-0.011086844,0.040799025,-0.025758678,-0.004208306,0.012431718,0.029509218,0.024494698,0.023894994,-0.03446649,0.029237505,0.04661866,-0.036547024,-0.033777773,-0.03883763,0.014504442,0.020584904,-0.012827696,-0.037532326,-0.040695943,-0.019814597,0.058225106,0.036527414,-0.010683197,0.0025661848,0.0048204428,-0.027286384,0.03047058,-0.0323436,-0.037023872,0.04169771,-0.022148402,0.032658316,0.03678616,0.029766308,0.030642824,0.002829016,-0.006087808,0.008407212,0.03490322,0.020046704,0.026947482,0.0045052175,0.042164743,0.034922898,0.0051325248,-0.018811606,0.037676618,-0.03337122,0.026362346,0.05088457,0.027051475,0.016466357,0.03468409,-0.04245501,-0.010186932,-0.005310079,-0.043196693,0.034934275,0.028607607,-0.0011976971,0.046738088,0.031595822,-0.041351926,0.038919106,-0.019755661,-0.04530897,-0.0030415414,0.016661528,0.031391934,-0.03905316,0.012835654,0.028721321,0.035824414,0.024345305,0.021082694,0.01629067,0.03488772,0.00458288,0.027285831,-0.041130435,-0.014031017,0.0075116837,-0.03478012,0.026993591,-0.04358524,0.04484633,0.038443312,0.014075392,0.05587999,-0.01823538,-0.036229808,-0.012140469,-0.013789453,0.004197188,0.007314862,-0.0057520485,0.017136702,0.0055987686,-0.02934288,0.02085262,0.00010620726,-0.031626202,0.017900415,-0.018371899,0.045601334,-0.023641486,0.028272629,0.046851605,0.03771383,0.036701545,0.0069777244,-0.03338527,0.020028831,-0.006734715,0.022394614,-0.011295716,-0.019977992,-0.0061469167,-0.01134398,-0.00887341,-0.0064952313,0.03801653,0.046071462,-0.03476707,0.03933941,0.04388596,-0.018904045,0.033615213,-0.017811522,-0.03274855,-0.03594757,-0.006622686,0.031322163,0.024419168,0.026869517,0.037155014,-0.043905783,0.022231158,0.028147724,-0.053633247,0.022857798,0.059813946,-0.011676346,0.0049771457,-0.0153208105,-0.031534456,-0.050772354,-0.03333022,-0.01355682,0.06296832,0.015723571,-0.019241158,0.04325161,0.055502065,0.04341166,-0.003535912,-0.0519765,-0.020336207,0.04436444,0.024791839,-0.044216543,0.0043213707,0.007704491,-0.0038822382,-0.010917239,0.006458452,0.03256164,0.00041210986,0.007955848,-0.05335003,0.046569645,0.0037731242,0.04362955,0.029880114,0.022907417,0.005866784,0.024922432,0.00089704903,0.04183532,-0.054226518,-0.037738122,0.0344843,-0.016459437,-0.04476538,-0.010800854,0.060006224,0.037415132,-0.038408425,0.008974028,0.03911884,-0.01873558,0.02601246,0.00016153994,-0.035006594,-0.072266325,-0.033112362,0.02542955,0.03369163,-0.047587465,0.03764321,-0.024911445,-0.037829008,-0.007948124,0.018327773,-0.047429625,0.029755102,0.036280137,0.031648975,0.06181758,0.02011619,-0.062125098,0.02695267,0.02819517,0.021944111,-0.013436792,0.008208854,0.023127861,0.0054408447,-0.038379718,0.03689037,0.0034341533,0.037006043,0.014935184,0.02635605,0.001916807,0.05887485,0.033270624,0.051313702,-0.04686305,0.043592375,0.04899879,0.042611133,0.03520779,0.0059980457,-0.008261454,-0.0006694961,-0.0062639317,0.022194264,0.007083814,-0.037687432,-0.04127613,-0.0016496988,-0.04157252,-0.039433464,-0.050788164,0.039025795,-0.0048161256,-0.018618854,-0.007981412,-0.020722374,0.07282012,0.0368951,-0.04314323,-0.042870305,-0.015328339,-0.024652828,-0.015782714,0.021766618,0.020113833,0.007814009,-0.02419563,-0.02547631,-0.06113686,0.015856616,-0.028287351,0.059031367,0.008174032,0.03788104,0.044995822,0.0065923147,-0.024619473,0.038259484,0.03111464,-0.008494916,-0.020833742,0.037939582,-0.009999672,0.039217524,0.04453569,0.013480474,0.040165003,-0.025526468,-0.037150323,0.070668906,-0.042059325,0.016741414,-0.028774263,-0.0076103653,0.031719636,0.015194238,-0.05553137,-0.06250106,-0.029393975,-0.013831873,-0.040622253,-0.045327816,0.00416395,-0.01235389,0.007603931,-0.04099095,-0.027596999,-0.018092612,-0.03430691,-0.0144504,-0.013876198,-0.016174164,0.032697413,-0.06322965,0.07675374,0.032764405,-0.049818568,0.026376989,0.020535616,0.0217979,-0.010029176,0.032433126,0.014950085,-0.040188313,0.027934162,0.006371871,0.038530488,0.011280134,0.028680105,-0.033872344,0.048359767,-0.03243313,-0.045080785,-0.043287452,0.030080771,-0.01195179,-0.042888567,0.011330425,0.029242078,-0.07161701,0.063074976,0.022004567,0.072496586,-0.03195756,-0.0031460284,-0.009384546,-0.035570815,0.014196619,0.015606428,-0.023734238,0.017456925,-0.044339582,-0.049226347,-0.02575683,0.0010638417,-0.05860296,-0.01878295,-0.023219382,-0.048230454,-0.056150787,0.024588935,0.053210244,0.041260447,-0.053648543,0.04045964,0.054983493,0.026346004,0.026480546,-0.019826328,0.042130716,0.07727254,0.05766859,0.023438,0.027493713,0.003460624,0.0035885053,0.011323088,-0.05318094,-0.040670503,0.040520012,0.0055293897,-0.012203461,0.0019646103,-0.044229098,-0.052632757,0.040557586,-0.030014921,-0.02785706,0.01116245,-0.03624387,0.018239262,-0.026853189,-0.0035823255,0.013309088,0.009652316,-0.02728935,0.0093605565,0.027517522,-0.018776434,0.009567748,0.042468946,-0.021384573,-0.039344937,0.029725078,0.053908776,-0.02322004,-0.028490433,-0.03549851,-0.050031357,-0.042470407,-0.00064449455,-0.039210144,0.031738937,0.0072299675,0.038455613,0.027005859,0.03709127,-0.015461066,0.050964244,0.04717808,-0.060840275,0.026589496,-0.04131227,-0.031115163,-0.03597494,-0.020277554,-0.021680519,0.004984317,0.018819718,-0.02287311,0.018924672,-0.017985253,-0.011239753,-0.00580621,0.030233242,-0.04684995,0.033679567,-0.044246156,0.019577386,-0.08436583,0.036608078,0.027956815,0.040007584,-0.06117079,-0.044801306,0.016546521,0.0515699,0.03078313,-0.022893414,-0.0160218,-0.031407174,0.021518627,0.029359957,-0.0009016059,0.014569565,-0.025064379,-0.026171824,-0.040843662,-0.016023204,-0.010416063,0.006734302,-0.03784468,0.046144407,-0.013583882,0.010990124,-0.038284063,-0.019941414,-0.051189914,-0.059918363,-0.01423994,-0.01567719,0.0092352405,0.05219126,-0.018769084,0.042152908,-0.06011186,0.0070313164,-0.012415615,-0.024033897,-0.04816838,0.01135691,0.038184293,0.029476088,-0.023167768,0.039561685,0.006102168,0.026841382,-0.027659187,-0.01464441,0.027141716,-0.033806738,-0.0471349,-0.038567506,0.022738112,0.046977825,0.046820495,-0.047686815,0.036346037,-0.0145656215,0.039620724,-0.017135795,-0.023452252,0.056565627,-0.0067004426,-0.042395942,0.032057162,0.07165926,0.012868798,0.04427349,0.014712053,0.031546433,0.02742159,-0.06942751,0.002087661,0.01186288,0.0018965839,0.054222275,-0.06793507,-0.010656772,-0.0023583665,-0.06357224,0.0013484174,-0.015067965,0.017806636,0.048176628,0.012936928,0.017766368,-0.0105587,0.008446495,0.055886045,0.02173922,0.00061988627,0.00022590208,-0.053942677,0.043945506,0.0411612,0.033271715,-0.0014203512,-0.033881333,0.022348942,0.0073209535,0.035268996,0.033987705,0.028006712,0.012922327,-0.0016472739,0.008469511,0.017725931,0.0021270895,0.003419504,-0.02271804,0.041390345,0.016843025,0.018319778,0.0016451264,0.0053858217,0.010854289,-0.03230892,-0.019227125,-0.013075526,-0.042990755,-0.028433241,-0.04270195,0.014899747,0.0034440265,-0.003904834,0.027759505,0.02306531,-0.051806405,-0.0445192,0.008487849,-0.040015507,-0.0028794,0.02429357,-0.02430743,0.033322826,0.015069243,0.046653714,0.010740673,-0.011998493,-0.0010368897,0.05420859,-0.029399585,-0.012395778,-0.069481075,0.020519722,-0.04289871,0.055443816,0.020132193,0.017783636,0.02815496,0.059937425,-0.0032102559,-0.04012033,-0.00321295,-0.0070810765,-0.01911699,0.033722106,0.020171143,-0.014702093,-0.015052602,-0.03097777,0.040567085,0.048817113,-0.05709926,-0.054369986,-0.013333505,0.047986764,-0.004020265,0.0229127,0.01939196,-0.002439859,-0.035769176,-0.03147136,0.0029003331,-0.01400841,0.027491096,0.0018588419,0.01801737,0.016206529,0.026864465,0.0041843625,0.03376365,0.0155983735,0.004384504,0.01947426,-0.020738866,-0.0016542305,-0.05872485,0.020032566,-0.0067396313,-0.024016926,-0.05324543,0.012110392,0.049285278,-0.0575498,-0.011355891,-0.00021000605,-0.06448138,0.0291154,0.0023687226,0.014815883,-0.060568493,-0.0065117716,0.03018535,0.010308381,-0.047476303,-0.015089599,-0.053314846,0.040605996,-0.056065623,-0.02292867,0.0054082605,-0.009437858,-0.04213939,0.0028027482,0.021051982,-0.048589066,-0.024060287,0.003930693,-0.007338664,0.011622562,-0.024255717,-0.017741138,-0.07550281,-0.021573551,-0.024953313,-0.045393288,0.01363329,-0.040734693,0.058384508,-0.024781493,0.02758504,-0.0073177484,0.014551778,0.0024471998,-0.025080096,-0.037148938,-0.0039953324,0.03848923,-0.0020878082,-0.024529345,-0.01779887,-0.000753544,-0.013365263,0.0011331567,0.013950684,0.025185589,0.017322958,-0.010360091,0.013436346,0.0024383282,-0.002886278,0.03970587,0.0070825787,-0.009253415,0.0012035844,0.0025331345,0.005952309,-0.015956528,0.0329201,0.012709588,0.05721733,0.016691936,0.02950688,-0.0108026,0.029775297,-0.04223939,0.0014707021,0.010466416,0.008576653,-0.011005313,-0.008439649,0.011980533,-0.03073712,-0.02964664,0.026898602,0.024343964,-0.053890824,0.0051820134,-0.039255813,0.036159944,0.018057058,-0.021014111,0.04580318,-0.012795295,-0.0009991976,0.020270552,0.019565012,-0.04820468,0.029508427,0.02401117,0.045297697,0.0005390288,0.030130902,0.0014093282,-0.051032934,0.040117513,-0.04522405,-0.01746851,-0.012137481,-0.014660273,-0.046200693,0.01008824,-0.003249541,-0.024799641,-0.039278485,0.03220019,-0.011421972,-0.011578498,-6.1796845e-06,-0.0028895559,0.04452135,-0.0132491505,0.0011601384,0.014724032,0.017750641,-0.040490102,0.047274917,-0.028836168,0.029857049,0.021415545,-0.017764864,0.06219414,0.04657191,0.027627768,0.0014932201,-0.015647084,-0.027761789,0.016229829,-0.017003886,-0.034955535,0.021847725,0.025027893,0.029737445,0.027317658,-0.007998034,0.038460266,0.058967,0.039602995,-0.022134075,0.05841836,-0.021044962,0.00031527027,0.054937083,-0.02077474,0.022496725,0.043624617,-0.026652882,-0.014640013,0.010805646,0.04960448,0.024656998,-0.025217984,-0.022983167,-0.0408247,-0.01199614,0.01557608,0.03671133,-0.014367382,-0.028575461,0.0033406755,0.02082246,-0.05340237,-0.033869725,-0.06252821,-0.020165877,-0.047559794,0.034121517,-0.0030167159,-0.01245158,-0.019885736,-0.030381357,0.0013455602,-0.04465995,-0.004480193,-0.03088891,-0.02813523,-0.043874152,-0.005955865,-0.031154573,-0.03474918,-0.033613253,-0.008469864,0.03974825,-0.01658258,-0.012925598,0.027510311,0.026730303,0.0192245,-0.042178944,-0.0077918563,0.011574946,0.04457736,0.034437895,0.03794756,0.004544561,-0.018217372,0.030386338,-0.02500962,0.022434236,-0.027912194,0.019645115,0.027063215,-0.022913823,-0.0115479035,-0.054674625,0.02513884,-0.01089816,-0.01732316,-0.045635317,-0.059596863,0.02089475,0.024592344,-0.009569998,0.0014495826,0.03702454,-0.028651277,0.036177766,0.0004424555,-0.008911203,0.031203419,-0.009049019,0.012621562,0.044961747,0.017890463,0.0049976134,0.03889233,-0.028514815,0.018485669,0.047225047,0.015666205,-0.012054682,0.04197896,-0.045147862,0.045739174,0.023923026,0.0068644457,-0.020947417,-0.025840404,0.0190764,0.044912882,0.030889355,0.045004785,-0.020422347,0.04972643,-0.04389471,0.0074336813,0.045662407,-0.021084236,-0.04486546,-0.020122748,-0.032803863,-0.046089765,-0.037677463,-0.045442156,-0.00030696602,-0.009180509,-0.015260607,-0.069463685,0.0182349,-0.048742846,-0.022055922,-0.01745948,0.016390765,-0.014357095,0.035530817,-0.025337782,-0.057912823,0.036450256,0.0034893458,-0.02396418,0.060574234,0.047659278,-0.035134472,0.047326535,-0.022802303,-0.0052989144,0.043954473,0.0023722625,-0.029470362,0.0064093755,0.01182042,-0.048481904,-0.029530954,-0.017151102,0.029401666,0.0071985326,0.030937666,-0.0067864894,0.03214771,-0.043118566,0.02141148,0.05004787,-0.01208312,-0.011122278,-0.015305557,0.008524109,-0.0142310215,-0.051274102,0.04140706,0.024384232,0.010157437,0.016615871,-0.031802118,-0.025493145,0.044840973,0.018979691,0.047639184,-0.015384792,0.030761147,-0.041652083,0.026310775,0.04754531,-0.040247273,0.042122368,0.031034905,-0.041830625,0.028731704,0.033228483,-0.0046177646,-0.021078678,0.07079335,0.0062500513,-0.03283084,0.028989192,-0.057735827,-0.032060646,0.029259786,0.014824621,0.019719498,-0.03754207,0.03487249,0.03329366,0.026664685,0.027235618,0.050822765,0.028397897,0.015145642,-0.030147122,0.0044189817,0.06762965,0.011275762,0.045449167,0.010426876,-0.03062339,0.04157246,-0.03087779,0.016552808,0.0014538557,0.05866139,0.031713687,0.021125749,0.026191259,-0.036511622,0.024248833,0.048844628,-0.014704833,-0.031945143,-0.042462442,0.0023098695,-0.0055004284,0.043055266,0.026808191,0.015288792,0.020276455,0.017205989,0.005071762,0.029553633,0.0013581809,0.011781574,0.031944707,0.0011561713,-0.008198174,0.048284546,-0.04633703,-0.04930393,-0.03216379,0.03146596,-0.018613597,0.004422461,0.042097088,0.011462677,-0.047947742,0.03648834,0.064318225,-0.04084831,0.013210012,0.025079735,-0.04384012,0.005921837,-0.016183956,-0.02129229,0.024006506,-0.0016700736,0.034600373,-0.030183334,0.022606287,0.010726369,0.025764046,-0.026886376,0.0018161937,0.014667486,-0.055354368,0.02112721,-0.034694504,0.005777719,0.026734937,-0.0017130269,0.021487527,-0.026129927,0.031255737,0.023471236,-0.042228725,-0.03597473,-0.021037454,-0.009443655,-0.02055517,0.059641737,0.0053955796,0.039929155,-0.028537247,-0.0029453363,-0.007634641,-0.00700463,-0.01829292,0.006608685,0.04405687,0.04253907,-0.021437187,-0.038994014,-0.008827916,-0.025019038,0.009745406,0.026400508,0.012610469,0.0067747664,-0.02501757,-0.0052415384,0.027665954,0.028332205,-0.01612995,-0.00103113,-0.004101641,0.014925888,-0.026638344,0.044365518,-0.0019437681,-0.019215137,0.00010187922,-0.01648946,-0.024395932,0.018849468,0.00583164,-0.049631797,0.029799495,-0.029053956,-0.04147377,-0.040621355,0.01518836,0.027006673,-0.015464356,0.025790824,0.049579494,-0.036175072,-0.027746765,-0.022438046,0.019910159,-0.047339574,-0.018005598,-0.0008454583,-0.011979873,0.010372729,-0.029234912,-0.0025734876,0.01093119,0.010499267,-0.0009817543,-0.026943004,-0.030386332,-0.016047277,-0.021537881,-0.022409298,0.036001623,-0.007961908,0.018005613,-0.022162227,-0.013265656,0.02256685,-0.0039772275,0.0045133047,0.04187097,0.025577087,0.047009837,0.03564377,-0.010466707,0.011038287,0.029182686,0.025193725,0.02053217,0.0045700585,0.0011036419,0.005146242,-0.047310483,0.02343393,-9.0146954e-05,0.01792029,-0.03155714,0.0001495794,0.012872478,0.00990947,-0.02385349,0.019140247,0.047252517,-0.0020128037,0.025634633,0.03109416,0.004609076,0.061432578,0.0078115915,-0.040537603,-0.0049291356,0.030088056,0.048317723,-0.04849029,-0.0072717154,0.0061000874,-0.016458424,-0.029259888,0.012188681,0.027680334,-0.00039815967,0.0064912722,-0.020760003,-0.009292546,-0.007999185,-0.020391662,-0.0048799864,-0.017821418,-0.034010172,0.038844563,0.027673291,-0.017643943,-0.008581626,0.013819774,0.02386482,-0.006976147,0.014152076,0.0123208985,0.009280002,-0.001980159,0.017649474,-0.013415212,0.0338719,0.017797686,-0.0012829066,-0.053436916,0.0030067002,0.004896262,0.033777483,0.047442846,0.049359415,0.00010615501,-0.040933926,0.015024519,-0.010267378,0.0022690622,0.0076782336,0.005197458,-0.008198566,0.011736975,0.035393458,-0.03593366,0.0049924976,-0.0037419018,-0.0026662578,-0.03484514,-0.013302339,0.01808948,0.008894309,0.0001563596,-0.04062729,-0.011984625,0.021115938,-0.022453442,0.0014697077,0.03405721,-0.035089545,-0.009453811,-0.010090194,0.0064817243,0.008654377,-0.030624717,0.034146473,-0.031762823,0.01016539,0.027139336,0.036769807,0.034754194,-0.027224796,-0.042870518,-0.022431351,-0.00976043,-0.006101205,0.041331664,0.00084106374,-0.023727592,-0.029704612,0.040095557,-0.011460324,-0.036215365,0.0034247588,0.015116343,-0.0077929744,-0.02505627,-0.041344143,-0.041241344,0.010682091,-0.035734404,0.044283386,0.010843303,0.04152623,0.04852422,0.03937312,0.017252265,0.03531894,-0.033462778,-0.01602632,0.0040193615,-0.015657628,-0.029065343,0.047414523,0.01802798,-0.034716368,-0.043324817,-0.00048731672,-0.011795016,0.045800608,0.02783041,0.0015879108,-0.005734212,0.03308004,0.021187337,-0.04109104,-0.01844609,0.027052738,0.0041907243,0.042985573,0.034503855,-0.0012225647,0.034259945,-0.019003604,-0.01305685,0.00897088,0.009646992,0.024679435,0.0266718,0.009930093,0.023604803,0.03420982,-0.0036050645,0.023708709,0.03036997,0.035569765,-0.042912573,0.038442835,-0.04357107,-0.0027553996,-0.0068173422,-0.012154919,0.017277518,0.033881962,-0.039015353,-0.03420878,0.033304892,0.017473873,-0.005740667,0.03988944,0.035356227,0.021872707,0.0065308907,-0.019461673,-0.026090575,-0.020562481,0.015956566,-0.017654218,-0.041404195,0.012747322,-0.029865878,0.010048548,0.040711783,0.027387634,-0.007702661,-0.031247001,0.018482298,0.015061702,-0.010146876,-0.005386978,0.030607011,-0.014403619,-0.0008492252,0.034913816,0.02603308,-0.03393837,-0.03178594,-0.025095657,0.02074844,0.010402394,-0.015390546,-0.023397462,0.039832257,-0.027399877,0.03406625,-0.021144114,-0.032461558,0.019655103,0.030726446,0.017889164,0.037350807,0.005227397,0.009194403,0.020387867,-0.039442938,-0.03302011,-0.017788146,-0.010103297,0.032468967,-0.036064763,0.033108804,-0.014514916,-0.008057067,-0.031588785,0.028452007,0.04303769,0.039831977,-0.04373815,-0.0060630855,0.023856275,-0.035124462,-0.016744655,0.034197845,0.031809893,0.021425873,-0.03294254,0.0046858606,-0.035082504,0.011360439,0.041088097,0.029610617,0.021672107,-0.03252124,-0.032707956,0.000775601,0.004777695,-0.019982867,-0.0105769625,-0.043496553,0.05242131,-0.015320467,0.0061036116,0.025067542,0.004312089,0.010378251,0.009027101,0.0167415,-0.011240179,-0.021613093,-0.0119032,0.020801224,0.038244855,-0.029785255,-0.042803183,0.010646081,-0.03882347,0.04222969,0.011549,-0.0120301405,-0.03033535,0.0009915543,-0.011351424,0.02494143,-0.04332183,-0.007246811,0.040980622,-0.037313845,0.029082559,-0.035957534,0.025066203,-0.034985706,0.0043529407,-0.016577655,0.023748228,-0.0077116494,0.037301607,-0.0048755626,-0.0015364244,-0.03287692,-0.016315889,-0.027142184,0.00055423955,0.02054843,-0.025196292,-0.028481241,0.027794736,-0.02065339,0.042147662,0.03618836,-0.037478074,-0.0047801305,-0.016992718,-0.03682111,0.016395673,0.015433349,-0.03707492,-0.02789225,0.027817015,-0.030916668,-0.0052058618,-0.028377011,-0.014221279,-0.0059277257,-0.030446034,-0.030649498,0.0008232711,0.01239558,0.021380424,0.0038694313,-0.005949165,0.013607589,0.0028508853,-0.014816817,-0.002485975,-0.031585217,0.03484579,0.042310543,0.0074104653,0.02780793,-0.0074484786,-0.037474226,0.010050766,-0.018089175,-0.0011310754,0.027471721,0.037705757,-0.037018117,0.011093754,-0.024476686,0.0055034454,-0.01881171,0.025918216,0.03724316,0.03613708,-0.012000407,0.013044204,0.01931952,0.01791834,0.03753794,-0.022030247,0.0030973111,0.0040539303,-0.038418725,0.0065623755,-0.020427002,-0.020731298,0.011191078,-0.043261018,0.048108853,-0.025043236,-0.017245676,-0.01013878,0.03329374,0.02919464,0.008166504,-0.03837534,-0.012649646,-0.046253256,0.014713911,0.016724892,-0.014689686,0.005518072,-0.02441242,0.019952878,0.020271806,-0.0022542132,0.01692143,0.028762938,0.026775116,0.023943493,-0.009615485,0.027873235,0.042532142,-0.036885362,0.034769397,-0.005905818,-0.023936141,-0.03295504,0.025192352,0.040906135,0.0358238,-0.029738002,-0.017999146,0.03681877,0.030516477,0.023402596,-0.0049325926,-0.0006284986,0.017677631,0.013777091,0.033996582,0.03506234,0.051635034,0.012234966,-0.010784431,0.0172131,0.026845904,0.011433159,0.02958955,-0.014339959,-0.0040169787,0.031926375,0.0073767127,-0.02428782,0.0010679797,0.012246779,0.0036613217,-0.035925243,0.030958977,0.026244441,0.037651613,0.013129342,0.057536043,-0.03159985,0.01928977,-0.012383519,-0.02261213,-0.0047995364,0.02577917,0.037101604,0.038732845,0.037375927,0.013492464,0.01705694,-0.007472905,0.02973324,-0.00063618855,-0.0069913813,-0.0033462078,0.02143882,0.027926048,-0.0027097824,0.017733974,0.024338512,0.00036661196,-0.0127673065,-0.031454857,-0.0012469718,0.03645104,0.013041711,0.03288304,-0.044592526,0.041617896,-0.0033659623,-0.0001597137,0.024152834,-0.019150833,0.041421987,0.0002687757,0.04447783,-0.011532803,0.04062461,0.0054218583,0.01657703,0.030513547,-0.0036816827,-0.009085162,-0.049436126,-0.0055328375,0.010863522,-0.006603597,-0.03169466,-0.026373696,-0.0126080755,0.0033685577,-0.018490326,-0.025117932,0.035077527,-0.010267247,0.013209202,-0.013704263,0.027459592,0.010488089,0.015087647,-0.000971978,0.04028867,0.022289794,-0.044895727,-0.039956164,0.044976536,-0.03450954,-0.006875667,-0.020261176,-0.015520738,0.022828458,-0.01765448,-0.04039518,0.03498068,0.009802123,-0.0420023,-0.024930231,-0.031012177,0.006635222,0.0063788444,0.029751968,0.013992307,-0.02238848,-0.014489654,-0.010695835,-0.019172966,-0.010193997,-0.021103948,-0.021250602,0.03970299,0.0263528,0.012000729,0.026800575,0.027559225,0.049038514,-0.036813367,0.008425982,-0.027171157,0.032740127,0.015395245,-0.036121342,0.038233776,0.019365165,0.02194567,0.015412708,0.03516315,0.0067426194,-0.014857537,0.0074546747,-0.031797003,0.05298988,-0.02555053,0.04189777,-0.0006085858,0.050345518,0.014987783,0.0051418073,0.015158299,-0.029970966,0.00828492,0.016111417,0.048945736,0.00042475597,0.022045719,0.032738466,0.026370121,0.02353075,0.0074266014,0.022754759,0.00076479005,-0.010746682,0.020469934,0.040886667,-0.030943664,-0.0037704806,-0.029399818,0.016510565,0.07084118,0.003466874,0.02246596,0.014076284,-0.0074170623,-0.022211641,0.0167563,0.03717882,0.015474218,-0.041308627,0.030078806,-0.023655683,-0.031604566,-0.05096179,0.038893897,-0.010063341,0.021669086,0.025800735,0.04519592,0.008567389,-0.0012216982,-0.028813368,0.006651898,0.018910311,0.007498462,-0.050011426,-0.02725728,0.0020783856,0.01202393,0.012224345,0.011032796,-0.03134066,0.0032131574,0.060139637,-0.040219903,0.030713676,-0.04597901,0.04297352,0.03883851,0.048076965,0.03633647,-0.031038197,0.0029023425,-0.04888708,-0.0048908787,-0.019023972,0.06998804,0.03692789,0.013659019,0.05496618,-0.014455104,0.00029619446,-0.009408357,0.024407448,0.029330384,0.015367749,-0.034684338,0.06662211,0.039705407,0.03768916,-0.0100920955,-0.020826729,-0.03964918,0.017256618,0.019403301,0.024140336,0.00069939485,0.035995528,0.0098055415,-0.032881197,0.03440107,-0.0301749,0.014457332,-0.015635973,0.05544905,-0.018464493,0.038568765,0.025045471,0.009870038,-0.033865366,-0.005707985,0.005534422,0.046514608,0.0053924145,-0.00549674,0.02674651,-0.022875994,-0.026968535,0.02656933,0.0082400525,-0.0013360018,-0.007169365,-0.032239735,0.043245863,0.017770974,-0.023582488,-0.0059602833,0.00029688686,-0.023910698,-0.019200403,0.007762,-0.01992754,-0.022592587,-0.042516947,-0.016601386,-0.009372128,-0.0029591003,-0.034540884,-0.021759953,-0.028367454,0.0036390724,0.03294503,-0.01895238,0.03639375,-0.012219351,-0.029952176,0.0018812852,-0.035187848,0.016773045,0.025222037,0.0107447,0.004885307,0.047195688,-0.04730909,-0.013622927,-0.027459389,-0.032181494,0.03906353,-0.006944033,-0.009776829,0.045131933,0.017718298,0.016089508,0.03117184,0.016935384,0.05117627,0.053510588,0.032470636,0.00021994642,-0.008520206,-0.013712508,-0.01379916,-0.02234781,0.021802248,0.00910614,0.009184009,-0.025498195,-0.026111294,-0.011718819,0.016463289,0.00013571301,-0.045939825,0.040826846,-0.018776746,-0.009264477,0.026120936,0.005762427,0.032676045,0.017197536,-0.0058486885,0.041913286,0.017860238,0.038556788,0.014840113,0.034483492,0.0025103646,0.0114288945,0.0003624563,-0.0024462233,0.0040259943,-0.014267858,0.014590293,-0.000612635,-0.013033965,-0.038928617,0.027186917,0.023867086,0.018493494,0.0073737297,-0.01215629,0.025895594,-0.015821332,-0.026179625,-0.012653661,-0.03931942,-0.04105797,0.017399736,0.0071020727,-0.03565774,-0.017735168,-0.0258068,0.068075396,-0.029667942,0.041631408,0.030783784,-0.01121653,-0.029793577,0.046568934,0.0021940814,-0.018419327,-0.031566102,-0.024462083,-0.03449329,0.020171512,0.034632105,-0.010032072,-0.036325395,-0.0047599403,0.0016906735,-0.035769235,0.02408826,-0.047562495,0.023467835,-0.022688936,0.00077999895,-0.0123750195,-0.02271596,0.038574804,-0.044530097,-0.034530856,-0.007107799,6.2614404e-06,-0.0028713625,0.046757184,0.0061810142,0.050835494,0.036626656,-0.02162538,0.034933187,-0.036815267,-0.0052917046,0.003592174,0.041382935,0.03993082,-0.031480134,0.033716664,-0.037248716,-0.03046963,-0.025494974,0.06888956,0.043089166,-0.003552211,0.011903601,-0.009133331,-0.026591096,0.040218208,0.020824868,0.009553539,-0.019484274,0.022093099,-0.023798374,-0.016656945,0.006435542,0.014103092,0.01671454,0.0034013165,0.03707687,0.008382307,0.024462426,0.0009135034,0.03158556,0.012057593,-0.024452277,-0.025373278,0.037703767,0.027499326,-0.030435538,0.013298494,0.0034534342,0.026187966,0.03334373,-0.029784659,0.036485754,0.05046213,-0.036712416,0.04067732,0.050188594,-0.014476342,-0.007916034,0.043814644,0.02055301,-0.005015569,-0.01510418,-0.033677366,-0.024534855,0.0038807092,-0.0010041012,0.018666409,0.028086105,-0.035995558,-0.032110985,0.023765942,-0.0240106,0.03405049,0.048498176,-0.01730666,0.028191328,0.018616809,-0.040188923,-0.0037796714,-0.010953461,-0.016091125,-0.0013845352,-0.03066238,-0.031118516,-0.002736255,0.017435377,-0.051293645,0.042902555,0.06722441,0.019209577,-0.021583779,-0.01472677,-0.0155596305,0.01013667,0.017647287,0.018833002,-0.046919264,-0.012958164,-0.040976975,-0.026184086,0.044605482,0.007866492,-0.047824323,0.007052091,0.046191983,-0.005644544,-0.010087846,0.014170512,0.02720037,0.0028505963,-0.009380059,-0.023740128,0.05865447,0.019067613,0.012790023,-0.011389309,-0.009144233,0.011053579,-0.009319237,-0.015264765,0.04316048,-0.048295036,0.004269821,-0.03392683,-0.03682181,0.030463321,0.0020553118,-0.009080531,0.022313494,-0.0383598,0.01334228,0.046784032,-0.0058382684,-0.04826959,-0.012327956,0.04724491,0.01753168,0.0043602227,0.030936431,-0.044916566,0.07709275,0.009803355,0.025122175,0.058470815,0.031106843,0.040372193,-0.0018926461,0.011699017,0.033528447,-0.010503634,0.031044435,0.064981505,-0.061152402,0.04521559,0.01891511,-0.02751064,0.028968547,-0.034480754,-0.021887891,0.018940616,0.02023723,-0.029577535,0.02700464,0.025762528,-0.01277809,0.0007073518,-0.023375787,-0.034399092,-0.0008610457,-0.0066251876,-0.044124786,-0.04536549,-0.036949266,-0.0065612257,-0.032365933,0.0059130234,-0.020186136,-0.057329085,0.009057339,-0.0012106712,-0.020068293,-0.020699644,-0.014079066,0.015088854,-0.044604216,-0.0016508345,0.010891154,-0.019316327,-0.04788864,0.036745213,-0.021883354,-0.012479245,0.03260739,-0.009004198,0.045482147,-0.030058121,-0.0020850014,0.040739365,0.033509456,-0.0062934007,-0.01248965,0.052766606,-0.038332034,-0.035127297,0.0134684965,0.039734125,0.031853233,-0.018719193,0.010806175,-0.032914992,-0.023966195,-0.047362115,-0.0027455029,-0.008522031,-0.025074132,0.0020960353,0.008367305,0.00064850674,0.039699577,-0.007066827,-0.030454306,0.042336762,0.0144731635,-0.03451844,-0.0026967716,-0.04446994,0.036799062,-0.042046063,-0.004339019,-0.032746464,-0.028290663,0.0350628,0.027141912,-0.047336772,0.014014165,0.00885894,0.03751838,0.0031373065,0.03102164,0.015285129,0.033026375,-0.021703599,-0.046398185,-0.0008385329,-0.0019986907,0.030058093,-0.009854473,-0.021442585,0.036182072,-0.020024737,-0.029059162,0.004066452,-0.001709775,-0.050883584,-0.03217453,0.03313432,0.00028777972,0.01576635,-0.034537677,-0.028329963,0.05010363,0.027706841,-0.037261043,-0.0119926715,0.00016970128,0.015489,0.030543668,-0.0075158686,0.028560182,0.0011089161,0.020375982,0.018512521,0.02347847,0.043044325,-0.0146143455,0.008107727,0.010718261,-0.03470522,0.016626604,-0.04030755,0.010843415,0.020647518,-0.03967981,-0.01723204,-0.01886754,0.03643172,-0.03291309,-0.0062352144,-0.008943211,0.009060036,-0.019656943,0.00446832,-0.013928354,0.016898401,0.013431095,-0.042623576,0.044186644,0.01862298,-0.025006678,-0.0099793235,0.002471094,-0.0055004563,-0.028928358,-0.009023018,0.010773548,-0.010593981,-0.024874158,-0.01936102,-0.021833934,0.001980832,-0.020703698,0.00209879,-0.020664567,0.034448117,0.03874157,0.035019964,-0.031027896,-0.025587006,-0.016058598,-0.023111247,-0.030249696,0.026656134,-0.033620793,0.030965982,-0.013382706,-0.041957658,0.011341009,-0.016447766,0.037727103,-0.034482613,0.02269407,-0.0068861186,-0.0039028055,0.0045012785,-0.04128448,-0.016700601,0.025063226,0.043289542,-0.02560868,0.017414624,-0.033125278,0.02982102,-0.012701259,0.03129358,0.026252989,-0.007134041,-0.032541297,-0.0105062835,-0.0021758843,-0.032607492,0.009062876,0.024440976,-0.033094507,0.008782409,0.015928965,0.024816424,0.042982437,-0.02622722,0.0127301,-0.015165679,0.026250897,0.037917476,0.005504126,0.008882252,0.02207168,0.024735598,0.039612588,0.028370041,-0.01901559,-0.016493661,-0.031416845,0.036483265,-0.00013587173,-0.021721536,-0.039561737,0.02021094,0.017028721,-0.03417985,0.03545283,0.028679062,-0.00029384074,-0.0013036048,-0.020476216,0.015998123,0.0400534,-0.0031742419,-0.002645886,-0.039984718,0.013836892,0.02935983,0.038906585,0.021088328,0.039897576,-0.014414608,0.0029980557,-0.024979668,0.011821452,-0.0151216015,-0.03067122,0.0027243223,0.011104937,-0.01310943,0.02196404,0.008008563,0.023812165,0.012935702,0.02215246,0.01047906,0.03980617,0.030683545,-0.028491136,0.022111569,0.0031215376,0.0151864495,0.032211415,0.0320077,-0.03821838,0.012053154,0.036259845,0.023958927,0.035374645,0.0069917673,-0.0028742983,0.02948522,0.041002896,0.037115283,-0.031949505,-0.042145185,0.014727373,-0.023824925,-0.018764442,-0.020838032,0.011137727,0.024397057,0.040094413,0.040843606,0.02898719,-0.0022046424,-0.022217775,0.013221433,0.043656018,-0.035466615,0.02513744,0.024956016,-0.031019406,-0.039073378,-0.04094815,0.03719953,-0.020837892,-0.040492915,0.008381324,0.02933685,-0.014394634,0.011201562,-0.0006682883,0.015175434,0.032647196,0.0067313765,0.010653449,-0.014574441,-0.027377086,-0.036082663,0.0044568814,-0.022228472,0.010111087,0.03574922,-0.036382325,0.006702025,-0.029390221,-0.03266418,-0.016383223,0.002218777,-0.031675108,0.021735672,-0.022959406,-0.010683344,-0.023027804,0.018016431,0.014468417,-0.029437035,-0.02484297,0.015443223,0.009165702,-0.014054281,0.017791387,-0.04268761,0.015797263,-0.00827278,0.013969128,-0.04040027,0.043407127,-0.020511996,-0.009392093,-0.039924543,0.005498443,-0.025342472,0.024263375,0.036280878,-0.0183912,-0.021092907,-0.03198938,-0.03123696,-0.007865901,0.03157977,0.01887785,0.03858953,-0.025034705,-0.036743976,0.031052776,-0.036214642,0.040523604,-0.02529471,-0.03772935,-0.026048843,-0.011442559,-0.020056488,0.0010003488,0.018062733,0.034156654,0.021941356,0.030314576,0.022424856,-0.042234883,0.022678977,-0.045186304,-0.008475125,-0.023650415,0.013666927,-0.007192328,0.03388428,0.0008847024,-0.037278377,0.04068075,-0.012577241,0.028952723,-0.03019949,0.019699547,-0.008569287,-0.017107464,-0.0031213376,0.011928533,-0.028622797,0.044991706,-0.039878536,0.004983295,-0.017334156,-0.011542936,0.04263486,-0.011677833,0.03627158,-0.040188562,-0.0024557211,0.0117552485,0.0401354,-0.031704787,0.010202083,0.025879534,-0.032713123,-0.006139983,0.013701982,-0.03731055,0.0010073317,0.0058971345,-0.01520878,0.03686406,0.005230443,-0.0017232618,0.016788889,0.025409607,-0.014411076,-0.031466816,-0.012418486,-0.015402166,-0.025269417,-0.012883726,-0.03856118,0.027822848,-0.005497578,0.007833168,0.02200733,0.016906995,0.028745081,-0.014985176,-0.016406959,-0.031530075,-0.02481194,-0.038592268,0.038297296,-0.034080565,0.033854477,0.0054605384,0.0065788394,0.006234149,0.04250076,0.03600701,0.037007615,-0.022528365,-0.043474823,-0.04316138,0.04208791,-0.025165185,-0.007438276,-0.01544518,0.007954902,0.005651922,-0.015084891,-0.019303143,0.02288921,0.038135868,0.027760727,-0.0059799626,-0.032746732,-0.010406922,-0.00819526,-0.009733422,-0.015860613,0.036483794,0.026715195,-0.012996475,-0.025329832,-0.031562533,-0.030584287,0.036736395,0.011538092,0.015864031,-0.024365082,-0.03336587,-0.0048866523,0.029390195,0.03573179,-0.0067713573,-0.02358481,0.031801436,0.009887027,0.020202408,0.03491904,-0.037557635,-0.0055509633,-0.03843885,-0.017901335,-0.0437139,0.008301079,-0.02329246,-0.031561088,-0.043130837,-0.014394851,-0.005703889,-0.007362927,-0.04176806,0.013000084,-0.005024588,-0.008699164,-0.031591423,-0.035177242,0.006521002,-0.0022471945,-0.04161268,0.027019953,-0.00880584,