-0.13910665,-0.014510777,0.056827534,0.00877944,-0.03516589,-0.122792326,0.21258104,-0.09247058,-0.07336305,0.080683425,0.07660125,-0.16836242,-0.114678934,0.031922065,-0.027440341,0.0014010977,-0.068853945,-0.12087155,0.007189199,-0.034996655,-0.054157197,0.2675222,0.007368392,-0.065657616,0.04292419,-0.11876351,0.024714507,0.013636711,-0.08065278,-0.054547396,-0.011759466,-0.036012262,0.18029822,0.088029996,-0.032077335,0.1402328,-0.18219352,0.015972868,-0.030227711,0.07041982,-0.003171999,0.039274685,-0.0928028,-0.0070437933,0.013846981,-0.07895646,-0.064920224,-0.007407146,0.03663164,-0.08934609,-0.04425437,0.18155837,-0.09132431,-0.05756389,-0.0756077,-0.070206426,0.18602262,-0.0010466536,-0.08695254,0.09115478,-0.13013576,0.11173772,-0.04825242,0.07112353,-0.04825681,-0.052696835,-0.03966394,-0.042394824,0.22892962,-0.012803261,0.008908898,-0.09141705,0.058216978,-0.101042345,-0.075777575,0.08930188,0.059877273,0.1079147,-0.018995583,-0.029966448,-0.104375415,-0.12198298,0.17849903,-0.039278157,-0.034170527,-0.042614587,-0.08185689,-0.0028754342,0.14102443,-0.04680908,-0.017883295,0.09165189,-0.059699222,-0.0761507,0.1809106,-0.10796357,0.11058325,0.114836976,0.0776396,0.010826065,0.034410726,-0.1212716,-0.10707271,-0.08576065,-0.004499933,0.09476163,0.095756546,-0.0872629,0.073572606,-0.2121985,-0.029136583,0.14373215,-0.10982331,0.17341204,0.119864956,0.07182414,0.22132087,-0.080534875,0.06670349,-0.06191105,0.026235605,-0.054944687,-0.018745085,0.021209123,-0.027297812,-0.07264467,-0.028766861,-0.04873283,-0.00014246597,0.088260904,-0.004183976,-0.11917888,0.022677775,-0.091625996,0.13361537,0.09448832,-0.07049497,0.20975609,-0.08534588,-0.0418343,-0.021247795,0.011475217,0.021542912,-0.28373545,-0.107666224,0.012818696,-0.028205074,0.119784564,-0.08240998,0.22609939,-0.004348382,0.127886,-0.0654197,-0.1155222,-0.06427167,0.13860758,-0.023677463,-0.102040365,-0.041820012,-0.003381973,0.09000099,0.0878134,0.016018372,-0.12922019,-0.08114082,-0.069563664,-0.077720195,0.055421636,-0.099203095,-0.057990726,0.034907438,-0.16110253,0.04278447,0.0049582543,0.06305745,0.20141932,0.03888108,-0.0002600312,-0.036862966,-0.13510716,0.06204262,-0.10997281,0.09742186,0.064726606,0.032726552,0.17032342,-0.14715366,-0.008052247,-0.19838704,-0.07678124,-0.10285797,0.1065734,-0.10687451,0.063104354,-0.08909974,-0.14394991,-0.19087449,-0.0862781,-0.011198005,-0.00092806935,-0.13732146,-0.0019483471,-0.09912849,0.035298105,-0.026459893,0.014659943,-0.073653005,0.0047229542,0.03998292,0.011927946,0.010943496,0.013268581,-0.054117955,0.006926282,0.005162951,0.14212239,0.13643688,-0.11508479,0.050906427,-0.049955558,0.027707716,-0.09458916,-0.06341359,0.09377125,-0.010231113,-0.021973936,-0.02753338,0.013416963,-0.010463029,0.0041887173,0.053457644,-0.10430445,-0.1423152,-0.13045092,0.024903856,0.28388056,0.14154595,-0.2894798,0.007999494,-0.021246579,-0.115387775,0.03788989,-0.054305635,-0.100736454,0.0010037775,-0.036178254,0.11622137,-0.081095815,0.009926135,-0.14626661,0.16734982,-0.042241726,-0.011203427,0.002415624,-0.09422268,0.010389986,-0.040014453,-0.22975093,0.023995915,-0.02756644,-0.10155623,0.041135676,0.14383112,-0.03092312,-0.06824695,0.10608661,-0.06763804,0.17568983,0.005423468,0.027856942,0.012623681,0.11707636,-0.013195762,0.096044615,0.005591489,-0.1761032,-0.1647462,0.030314686,0.06828083,-0.04424593,-0.017313838,-0.10129787,0.09192241,0.1771097,0.010487259,0.14609468,0.05885518,0.1738935,-0.08614609,0.038782716,0.16943872,0.032254666,-0.02828922,-0.03952775,-0.10749166,0.10155335,-0.0022640203,0.028648721,0.0062119155,0.12898757,0.06543277,-0.07354285,0.031435747,0.05564925,-0.07001109,-0.021143422,0.07892553,0.02207853,0.12557825,-0.023300104,-0.07092022,0.020200599,0.025690168,-0.034199946,-0.20927373,-0.087676995,-0.050749764,0.1275784,-0.074719824,-0.14676222,-0.03919196,0.05526177,0.032965925,-0.04917763,0.06950055,-0.014770543,-0.12535314,0.19630855,0.013488585,-0.04573281,0.008578298,0.0007361978,0.070953965,-0.093527615,0.025421252,0.014148074,0.024369666,-0.028437098,-0.03216954,-0.14246248,-0.1122676,0.03332167,0.25665078,0.13109925,-0.07125118,0.019337477,-0.059488293,-0.20649868,-0.088170685,-0.04287087,-0.0697173,-0.047219887,-0.08081872,-0.1154725,-0.027041556,0.10747907,-0.07047914,0.0045950133,0.033622794,0.034919582,0.019147897,-0.26196644,-0.02941036,-0.01280156,0.11413883,-0.15161467,-0.029917507,-0.0042366665,-0.22310288,0.10082894,0.09015323,0.1700636,-0.12308877,-0.042408064,-0.09664965,-0.06009158,0.17049544,-0.19469075,-0.10510533,0.08761405,-0.141774,0.024428226,-0.046329394,-0.018326433,0.1884016,0.017982868,0.09007922,-0.15980442,0.035165377,-0.0076809423,0.016800417,-0.0007058506,-0.030138554,-0.0042145657,-0.112099744,-0.03786772,0.18761441,0.025811566,0.19792537,0.15833698,0.06677702,0.025899755,-0.10096138,0.0941099,-0.013255522,-0.07184082,-0.026512174,-0.092645444,-0.072706036,0.13030007,-0.14052352,-0.102097616,-0.048352994,0.023760278,-0.10729433,-0.05669565,-0.014859001,-0.013254182,-0.027242376,-0.0028474622,-0.04039218,0.029456967,-0.011545537,-0.012524683,0.08988276,-0.07233439,-0.0063127307,-0.22185798,-0.016527053,-0.045712575,0.21133609,-0.09902333,-0.07261429,0.014702959,-0.020302719,-0.027169535,0.023494318,0.14413516,-0.07547519,0.106128186,0.062011514,-0.010790525,-0.07424206,-0.04161932,-0.012715489,-0.007571888,-0.16353348,0.19253671,0.0022004154,-0.085392274,-0.06989343,-0.119698845,0.124904364,0.0045521646,0.07628406,-0.024071379,-0.007399681,-0.009423593,0.0878988,-0.013993897,-0.014679359,0.044381678,-0.08253489,-0.10105784,0.048371326,-0.047718022,0.0047222567,0.0056215352,-0.06389219,0.14582667,0.17314084,-0.031222606,-0.20162724,-0.010909106,-0.025217758,-0.09818082,-0.044800945,0.100894324,-0.036227558,-0.018895835,-0.1325942,0.118584454,0.0067660557,0.12243632,-0.014218302,0.21575736,0.11467739,0.072028294,0.011944059,0.10277474,0.0058496133,-0.017863719,0.08184483,0.093030185,-0.1515479,-0.077216655,0.08613856,-0.013503284,0.10172429,0.21481627,-0.034120314,-0.07409796,-0.078010336,-0.13779753,-0.030145995,-0.10277956,0.032449152,0.0065058554,-0.037344713,-0.014460792,-0.2665155,-0.0700372,-0.10334158,0.023944909,-0.16559228,-0.18850401,-0.08550017,0.12476668,-0.048185043,0.21001387,-0.17669094,0.04641417,-0.060087692,0.036856305,-0.095502965,0.07651611,0.17115708,0.014904006,-0.0725992,-0.1139806,0.018710848,-0.014037426,-0.023573084,-0.016771223,0.114534244,0.052808363,-0.042307068,-0.033344988,-0.015702661,-0.004823802,0.006539266,-0.090460815,0.0700135,-0.16975234,-0.06922633,-0.16395074,0.07386713,0.020176996,0.11722345,0.04367828,0.0664146,0.040276848,0.051818226,-0.041698817,-0.10860489,-0.010184896,0.036565393,0.16492058,0.10525423,-0.12999593,-0.0019430682,-0.0015246604,0.19700134,-0.102809675,0.08990991,0.19541667,0.002018359,-0.07951655,-0.15350965,0.028815802,0.11863952,-0.21037123,-0.045588445,-0.17456147,-0.012676917,0.023859538,0.08904795,0.22600617,-0.0406637,0.02552121,-0.14595577,-0.043500397,-0.020409457,0.061653282,-0.07412606,-0.0037409605,-0.06844071,0.014580032,-0.20322749,-0.11959894,-0.10290002,0.05091182,0.12723766,0.1745583,-0.048584662,-0.042230107,0.0044533545,0.12293571,-0.006212128,-0.05759908,-0.007211368,-0.18053167,0.006902454,-0.06540945,-0.097392984,-0.12318358,-0.041939855,0.10658625,-0.012158937,-0.16625315,-0.035859253,-0.01694747,-0.14153539,-0.057512563,0.22409338,0.19292934,0.025575565,-0.029530853,-0.1305568,0.10833409,-0.11161834,0.1517618,0.036340658,-0.088283755,0.018081373,-0.15695763,-0.21466863,0.14975147,-0.05810571,-0.041183658,0.012513727,0.038280874,0.043861084,0.15412375,0.16103135,0.04457998,-0.03671598,0.025857668,0.077105954,-0.0670345,-0.023649536,0.10513802,-0.028887497,-0.0154268015,-0.15197065,0.08797076,-0.02662675,-0.07807067,0.012621805,-0.072699115,-0.011727526,0.018371979,0.002186354,0.004590814,-0.030545993,0.14796121,0.15753615,-0.10381579,-0.07694673,-0.11396954,-0.03607787,-0.028892944,-0.039436135,-0.084232256,0.05740513,0.2622187,0.07809799,-0.016880201,0.051942293,-0.061466053,-0.0007693612,-0.03166305,-0.10950529,-0.10666906,0.03997316,0.013883167,-0.057267394,-0.059536025,0.26024243,0.021944486,0.046815246,0.046479423,0.022947326,0.12200068,0.043525454,-0.0046460168,0.022086218,-0.12773424,0.041061405,-0.035901587,0.047608733,0.048454657,-0.14425112,0.17217296,-0.09794938,0.006384322,-0.028325139,-0.14000262,-0.18074559,-0.055295356,0.18130046,-0.022798343,0.12825152,-0.02539102,0.19773602,0.00929301,0.12343184,0.19208679,-0.021517841,0.16176891,-0.004618528,0.031450715,-0.093988284,0.12969938,-0.2377825,0.08241792,0.061764896,0.11323118,0.17274056,-0.034159377,0.023204409,-0.06264776,-0.0066735446,0.07486868,0.15296088,-0.08550665,0.013937657,-0.16176012,-0.11019963,-0.12679583,0.07101845,0.1582457,-0.022134272,-0.068895526,0.0024804075,-0.11661317,-0.009396664,-0.053021032,-0.015148939,-0.18574953,-0.08693409,0.0070812292,-0.08627756,0.22167243,-0.07682755,0.20094208,-0.011619934,-0.020707462,-0.1430355,0.15992229,0.039366677,-0.07252793,-0.011550919,-0.035468046,0.034558047,0.0015541792,0.011020973,0.052810572,-0.031224709,-0.056045145,-0.02044074,0.09789139,-0.14772728,0.06889832,-0.12399693,0.08521785,0.18514192,0.026796255,-0.03136264,0.2052806,0.017593503,0.02707797,-0.11070419,-0.13464037,0.030565843,-0.088773794,0.035349123,-0.07596341,0.09243708,-0.018474717,-0.0019564903,-0.0039650477,0.21113592,-0.06468127,0.04827356,-0.16375306,0.033219837,0.021044057,-0.06823124,-0.0517036,-0.023972403,0.21101335,-0.06043762,0.094469786,-0.07750928,0.09772994,0.051881365,-0.23284686,0.047966987,-0.12056311,0.13960731,-0.07727158,-0.09023393,-0.24959825,0.057932768,-0.03580733,-0.041784823,0.0469985,0.052571304,-0.01266056,0.15407547,-0.09462646,0.034303267,-0.054174922,0.017243773,0.03769273,0.011311584,0.060818285,-0.034452807,-0.043295722,0.0064107375,0.13907936,0.12860474,0.048197243,-0.024508901,0.11844503,0.07395855,0.12253564,0.0022532353,-0.18573834,-0.12226973,0.18665987,0.017455159,0.0009611808,-0.002851815,-0.052786328,0.10641145,0.01931795,0.06034984,-0.13210957,-0.14863893,-0.012624443,0.003008016,-0.007608707,0.041803658,0.15652992,0.06739858,-0.016656756,-0.08727175,0.05733796,0.038401388,0.096908346,0.13884005,-0.0398326,-0.10018429,-0.11849054,0.15311089,-0.026267298,0.1995929,-0.0353841,0.0058081425,0.019341419,0.09077731,-0.04401203,-0.07875411,-0.15165736,0.071787216,-0.05947914,-0.1361754,-0.018790979,-0.032642715,0.06722313,-0.040686034,0.16343346,0.15490347,-0.131618,-0.049188573,-0.0392935,-0.033698857,0.0067854775,0.26381868,0.09037061,-0.06796693,-0.08890924,0.04292161,-0.01074487,-0.18028842,0.017487414,-0.07017699,0.10420713,0.07326948,0.024156159,-0.14742666,-0.0063116224,-0.06001778,-0.034427848,-0.1638734,-0.09863178,0.035631582,0.12331558,-0.034188233,0.04210815,-0.0020217248,0.028835367,0.0037033674,-0.052473143,0.10920669,0.14421898,0.09385844,-0.0606633,-0.12039083,0.015660964,0.02178164,0.032126505,-0.18027309,-0.10348302,-0.039394394,-0.047415577,0.039460786,-0.06306002,0.058221526,-0.10189463,0.08604903,0.15800798,0.11932851,0.025741456,0.11308945,-0.039718956,0.04250828,-0.037955746,-0.03976259,-0.02150484,-0.016984966,-0.04493809,0.042753913,-0.037263155,-0.14960666,-0.0064266366,0.06389582,0.06324795,-0.0556587,-0.028802829,-0.11282747,-0.062591895,0.12366873,-0.003557692,-0.061125044,0.03143534,0.085684404,-0.041489385,0.20300442,-0.035796344,-0.058203917,0.057115387,0.010021484,0.0044948356,0.022872074,0.019041542,-0.07516386,-0.16108596,0.009962218,0.011177288,-0.1402419,-0.037832137,0.012721573,0.038818683,-0.10729522,-0.17226394,-0.08418097,0.0025361504,-0.030762395,-0.12282649,0.010469748,-0.015345765,0.15586033,0.12978163,-0.022958823,0.09908506,0.04477162,-0.04444809,-0.07386708,-0.045407712,-0.10728456,0.015145605,0.09754709,-0.075943686,-0.0073037767,0.10873266,-0.070783846,0.05330177,-0.027986735,-0.162937,-0.024707654,-0.010089547,0.1784165,-0.11826072,0.12923981,0.018087069,-0.09036875,-0.08097664,-0.057367943,-0.051809296,-0.05696706,-0.1349255,0.020715378,-0.081631444,0.08659665,0.06533435,0.0036592407,0.12943955,-0.019614266,-0.17249648,0.17511044,-0.031918965,0.07805643,0.13068429,-0.055468816,0.04521522,0.07646068,-0.16978686,-0.008961506,0.01653403,0.27490813,-0.094097406,-0.023785504,0.029530983,0.016251987,-0.06704523,-0.023998639,0.0017511763,0.15330566,0.23141782,0.04036916,-0.10273788,0.18258901,-0.16788775,-0.14338163,-0.019553836,-0.04396237,-0.031583637,0.02318705,0.1743256,0.008994344,-0.031380687,0.077037685,-0.07512968,-0.045181446,0.002381134,0.04682643,-0.09439766,0.085213944,0.007948078,-0.14761482,0.049193244,-0.029641282,-0.011744635,0.042272527,0.14440003,-0.076206155,0.19807407,0.03673456,-0.04297325,0.02974992,0.00012665884,0.0056692865,0.07696043,0.1767509,-0.050971016,-0.19198243,0.029100362,0.23077758,0.19660376,-0.03722764,0.13150942,0.10216092,0.060789287,0.082845375,-0.12755847,0.022366045,-0.016303305,0.052755263,-0.032861937,-0.23921934,0.073999986,-0.16540381,0.11164069,0.0841181,0.11486265,-0.050966233,-0.065698564,0.01646426,0.09127066,0.12509044,-0.18743253,0.013487041,-0.028370943,0.27988592,0.0025402638,-0.035548847,-0.19682367,0.10928188,0.0905726,-0.12120751,-0.064590864,-0.086524755,0.17229618,-0.0039292346,-0.07798613,-0.022766484,-0.1227759,-0.0092420345,0.022197202,-0.035421938,0.045383744,-0.0011427206,0.15116984,0.036777865,0.18581295,-0.028739955,-0.0029774539,0.0999185,-0.1644127,-0.0638005,-0.0076612206,0.19089903,0.1606201,-0.10595694,-0.14027295,0.026370635,-0.059129022,-0.22596058,-0.08419859,-0.07857796,0.24841903,0.034850907,-0.0039586057,-0.09394921,-0.05757914,-0.20860398,-0.12070366,-0.15807208,-0.053664714,-0.04210357,0.046145737,0.11515989,0.035632096,-0.1053342,-0.020260438,-0.012291105,0.1590322,-0.0757801,-0.102684796,-0.089093566,0.068884045,0.015207042,-0.06325361,-0.1889495,-0.13034432,0.14417894,0.02515422,0.057889387,0.20192425,0.22314724,-0.028084764,0.02966032,-0.004903737,0.022228776,0.1578442,0.044192243,0.09573344,0.12624824,-0.060943477,0.3153645,0.029188156,-0.062233746,-0.11910762,0.12784849,0.11173165,0.122499965,-0.19483964,0.06612204,-0.20226255,0.004324841,0.039981693,0.12260913,0.18766548,-0.029684238,0.020627547,-0.023905534,0.066396885,0.12072006,0.14075707,-0.0011995031,-0.17622167,0.0032472902,0.10311101,-0.024957472,-0.037478,0.10826243,0.27606767,0.011063149,-0.04926559,-0.08507849,-0.124772586,0.04148459,-0.10177121,-0.04009809,0.10684459,-0.0011555741,-0.06938464,-0.05895313,-0.027981158,0.20515043,0.11666839,-0.1712032,0.15884276,-0.08518651,0.13785475,0.23293942,-0.15463123,-0.0669793,0.07865326,-0.08621633,-0.027966712,-0.07749551,-0.016353099,-0.01179136,-0.038873386,-0.18833064,-0.10511918,-0.06714569,-0.0024087648,0.13775092,0.08639942,-0.021804502,-0.197392,-0.0630948,-0.085828625,0.006516898,-0.18796508,0.1750445,-0.11911144,-0.028740488,0.083651505,-0.03614796,-0.12393604,0.11796175,0.10322373,0.019726353,-0.05333126,-0.020153064,-0.050445337,0.012842642,-0.010001213,-0.077576146,0.024958426,-0.065290615,-0.12367335,0.038877178,-0.06604063,-0.004614775,0.1652143,0.08637768,-0.07990097,-0.10548655,-0.022343483,0.05086135,-0.15616027,0.023920896,-0.0877074,-0.047889765,0.1337845,0.013329768,0.033583242,-0.07418703,-0.060728487,-0.01726197,0.15760486,-0.105410546,0.03823386,-0.014469163,0.1722997,0.02779079,-0.0066613406,0.13636068,-0.08267345,0.038862076,0.00815766,0.002442371,0.105895355,-0.043650955,-0.08135933,0.03347127,-0.01653816,-0.10496673,-0.047007117,-0.19051519,0.124869026,0.068104215,0.0524012,-0.013967892,-0.0028481297,-0.00064703514,0.07891674,0.017660536,0.012682608,-0.011361956,-0.008966656,0.10361255,-0.19082224,0.06889115,0.022872543,0.18535826,-0.09026201,-0.016471712,-0.18197353,0.09590153,-0.039306175,-0.031417064,-0.043960996,0.049074266,0.006676082,0.01531643,-0.0013767051,0.038600028,0.15858255,-0.042179562,0.019651916,0.012057722,0.03480218,-0.080702275,-0.021119334,-0.05272555,-0.10803353,0.00046460735,0.02353807,0.04785884,-0.008149977,-0.054002713,-0.015516785,0.11668062,-0.116415225,-0.12523258,-0.0554883,-0.026159605,-0.06441422,-0.02293716,-0.0645815,0.06711248,-0.038777906,0.045329783,-0.060027406,-0.0697574,0.012437014,-0.021501493,-0.14189926,-0.081113406,-0.033890955,0.10552526,-0.057542317,-0.045905903,0.052084804,-0.027693061,-0.22213112,0.13123553,0.004885671,-0.11089807,0.098412804,0.11439709,0.14333026,0.029397663,-0.20327742,-0.0625238,0.10680368,0.07134654,-0.02766899,-0.03793327,0.10481462,0.1495485,-0.109299,-0.10780875,0.029799689,-0.008570896,0.2217663,-0.032683786,0.073845685,-0.09676842,-0.050140478,0.15561461,0.05639158,0.06921323,-0.0146144405,0.089213304,0.18646792,0.21286911,-0.07232561,0.04179617,-0.044438746,0.04054671,-0.06850595,-0.12444769,-0.17992404,0.07789897,-0.0344141,-0.11367309,0.025649214,0.010686027,-0.009063344,0.08279871,0.13211037,0.10248695,-0.008586107,0.18327501,-0.02950173,0.043560445,-0.015645925,0.035158496,-0.009340206,0.08211734,0.13102716,0.18684821,-0.023965584,0.063561626,-0.029314773,-0.047103267,-0.03725774,-0.13819875,0.034986343,-0.024584997,0.0063459924,0.046811208,0.054150514,-0.11148897,0.19311137,-0.064734705,-0.028535176,-0.08667935,-0.014061078,0.026311724,0.09772726,0.022545937,0.0075426027,0.039277013,0.019070994,0.17639427,-0.0059225135,0.016319765,0.04937865,0.111601196,-0.056473605,0.019254971,-0.05673463,-0.064507954,-0.106117226,-0.01925193,-0.15073617,-0.11495858,0.17703666,0.05699024,0.053866755,-0.026039397,0.16721329,-0.125233,0.051544696,-0.020102898,0.114988804,0.042345885,-0.05175059,-0.029920548,0.054334167,-0.1330594,0.045455538,0.022978222,0.09955061,0.13934682,-0.08365708,-0.22435169,-0.013685703,0.10120014,-0.054954648,0.15960538,-0.03487256,0.018310208,-0.0634572,0.011703484,0.016910477,0.018008063,-0.15441841,0.00034642857,-0.203094,-0.009140056,0.104766466,-0.017686572,-0.00218753,0.05366659,0.13638693,0.022969274,0.18242584,0.08645274,-0.02718439,0.12330844,0.008458517,0.04189046,-0.094566524,-0.14471719,0.2000256,-0.09236039,0.06962944,0.09903944,0.03191379,0.035352726,-0.006285232,0.054586194,-0.05747682,-0.087040514,0.12020561,0.08294135,-0.016799653,-0.017148415,-0.0044705006,0.13012984,0.0797557,0.013032237,0.121619545,-0.042165123,0.03489106,-0.13329683,-0.07474982,-0.061829884,-0.097705215,0.011759505,-0.054614954,-0.083884336,0.028000321,0.20071237,0.023536013,-0.12790707,-0.009983555,-0.01904672,-0.12990531,0.19762152,-0.13771203,0.110140175,-0.03645678,-0.14558615,0.015003506,-0.080618635,-0.15471388,0.06534426,0.042981762,-0.10174707,0.0021609464,0.20867744,0.111434735,0.028597875,0.011749811,-0.025325635,-0.20284785,0.0086575495,0.072050296,-0.03207831,0.14000328,-0.122962624,0.041965436,0.20502917,-0.03279949,-0.032802057,-0.08962277,-0.17173189,0.08495291,0.004011406,-0.11916891,0.12273631,0.03347949,-0.073591,-0.016312344,0.00084626226,-0.064106,0.10722249,-0.029732011,0.13404423,-0.07544575,0.19357689,0.23959602,-0.054329533,0.035503823,0.05947419,-0.11658775,0.01285722,-0.13523266,-0.06474504,-0.016026981,0.029840168,0.0034458188,-0.17154863,-0.036906842,0.118451916,0.114432,-0.016914055,0.00514758,-0.088733695,0.21817628,0.010842762,0.14872286,0.10311163,-0.09704994,0.0070512914,0.09745719,-0.056898974,0.023152458,0.077842385,0.044523325,-0.120939024,-0.06589153,0.03175302,-0.06386647,-0.14075938,-0.16601595,0.0021753912,0.05301154,0.0587679,0.0059738536,0.016294431,-0.019654745,0.03183438,-0.109835,0.01300005,0.08895019,0.04499755,0.19136924,0.044978503,-0.08285865,-0.1363621,-0.05286123,-0.0531161,0.018077595,-0.17128585,-0.002764082,-0.017610883,0.019829718,-0.0064276084,-0.047338564,0.067656174,0.21704346,0.09455891,0.16838734,-0.025421401,0.029541204,0.08194583,0.102346435,0.10546949,-0.050386596,0.009981286,-0.079849325,-0.08265597,-0.12984832,0.10123661,0.11617562,-0.004499603,-0.00824157,-0.021851603,-0.071932405,0.10252227,0.017238816,-0.05788437,0.037269022,0.021758609,0.29838496,-0.14479618,-0.06314142,0.19738093,-0.062713355,0.015061812,-0.07363656,-0.022875106,0.056405574,0.016267808,-0.06504718,0.002294965,0.16691245,0.12054233,-0.034699686,-0.014625403,0.14272685,-0.08141153,-0.095616534,0.020815384,-0.06346322,-0.025749277,0.13931647,0.154355,-0.10843843,-0.060353287,-0.14769648,0.02078665,0.0353711,-0.1607816,0.0781268,-0.034146722,0.036546037,-0.07339501,-0.08672428,-0.11282007,0.16142204,-0.13047795,0.06884938,-0.037008487,0.01304612,-0.07184599,-0.018500706,0.16020311,-0.0019703011,-0.027776223,-0.057497464,0.11974142,0.07521258,0.13691513,-0.083615065,-0.15169309,-0.019491913,0.03618614,-0.16985616,0.12410764,0.11962771,-0.19675589,-0.055492394,0.11230592,-0.085071035,0.10694508,0.15317132,-0.018472785,-0.026382262,0.17841817,0.14242093,0.13593711,0.030398808,0.14353444,-0.08017491,0.15846886,-0.042340614,-0.23862681,0.03624472,-0.012747224,-0.0057032607,0.10998469,-0.04536598,0.009377531,-0.019517757,0.09877002,0.03889533,-0.0050352886,0.0009855275,-0.10362923,-0.19165231,0.004556868,-0.1826057,-0.009818216,0.1733846,0.074306265,0.08720097,-0.02864217,-0.12239097,0.02533125,-0.20176078,0.006191335,-0.022313997,0.035368178,-0.180492,-0.123916894,-0.22827432,0.00291174,-0.17073354,0.01207822,0.086966515,0.061096057,-0.026813176,0.13025688,-0.038449857,0.12415121,-0.15534993,-0.041991588,-0.14123751,-0.082533866,0.10216781,-0.0018800885,0.19217356,-0.11324822,-0.019583868,0.16216244,0.06324461,0.12474289,-0.017993253,-0.0053447345,0.11084193,-0.02321024,-0.004003184,-0.07556209,0.044837717,-0.07292571,0.05756008,0.077228725,-0.08637792,-0.023932328,0.05747301,-0.058759335,-0.018974578,-0.092831224,0.1371067,0.08719476,-0.0041304016,-0.045061417,-0.10423027,-0.09145504,-0.10694906,0.011272671,-0.12673084,0.09893764,-0.055966403,0.11849442,-0.08781615,0.096655644,0.113484584,0.02304885,0.059529636,0.06369,-0.21816498,-0.14612623,-0.23420054,0.017900368,0.037579235,-0.04398174,-0.10897689,-0.030738777,-0.045731712,-0.052281413,0.21120813,-0.03889204,0.13287152,0.008211531,0.023795223,0.012288803,0.12914436,0.020115616,-0.11398229,-0.037386257,-0.084765665,0.034267653,-0.049451005,-0.034458037,-0.10961408,0.06534889,-0.21087593,0.06013034,-0.28098428,-0.050703682,-0.15781483,-0.059370015,-0.08165011,0.022556143,0.16941467,0.17046976,-0.056893148,-0.022508608,-0.14116037,-0.13276026,0.038514566,0.041794132,0.108526304,-0.0440805,0.06092925,-0.0038717133,0.011298697,0.15623067,0.01798588,-0.011845412,0.0048422785,-0.066983104,0.08473278,-0.16586615,0.08136648,-0.08420797,-0.052668177,-0.14987282,0.2646756,-0.08546165,-0.05987749,-0.08319836,-0.06531541,-0.057273343,0.14129493,-0.026283702,0.03126572,-0.030080892,-0.039724294,0.009059717,-0.029409524,-0.040694322,0.093952805,-0.16669455,0.15101251,-0.059253767,0.08096488,-0.016334476,0.0419819,0.08138995,-0.096285455,0.018780444,0.038745522,-0.1984461,0.21468587,0.066940084,0.03955362,0.009076102,0.22358331,-0.10964132,0.055129036,0.034631558,0.03805404,0.004771387,0.014360634,0.1024074,0.1673186,-0.04424629,-0.0070772455,0.005481855,-0.010043996,-0.0022525126,-0.08460969,-0.036260452,0.057561405,-0.15732336,-0.16779436,-0.12795295,-0.08602867,0.0008470821,-0.03955448,-0.026781905,0.003653849,0.13256326,-0.16635592,0.017258551,0.23932783,-0.033486377,0.072028846,0.14740695,-0.059388302,0.12835172,0.07029903,-0.060994618,0.029607642,-0.03574241,-0.0038576834,-0.04369929,-0.02713834,-0.037378814,-0.06076781,-0.018781269,-0.0339331,-0.0072097373,0.03744628,0.10727719,-0.050516672,0.033676013,0.024414917,-0.050058473,-0.013380028,-0.08236424,0.17641208,-0.022868263,-0.0057543237,0.010917722,-0.024489148,-0.037285,0.0715646,0.076342896,-0.115401186,-0.11283574,-0.04215151,0.0026067344,-0.018887576,0.17531586,-0.05270129,6.5545886e-05,-0.13028108,0.15787405,-0.0038777227,0.0861623,0.038344663,-0.10037582,-0.011354545,0.09104548,0.21263845,0.27121127,0.03706011,0.09755287,-0.078383036,-0.007345873,-0.03756362,-0.14395532,0.094962575,0.044375576,0.1615807,-0.0690621,-0.19291534,-0.108797535,0.05975291,0.041592028,-0.043792702,0.053641308,-0.11601672,-0.054679435,0.15803222,0.08184698,-0.007557977,-0.01576421,-0.17596315,0.062299136,0.08110799,-0.049258582,0.08479793,0.040609054,-0.15012328,0.04679151,-0.09528291,0.1603925,-0.04073663,0.11246629,-0.12251979,0.12263903,-0.064695686,-0.15189978,0.04720356,-0.07863013,0.21098974,-0.084618844,-0.14448296,-0.08670062,0.1464351,0.12653553,0.23114434,-0.043163214,-0.21560659,-0.0037454427,0.026613878,-0.11479457,0.041208025,0.19100006,0.059260253,0.18670754,0.020362265,0.19826622,0.14826345,0.07585046,-0.069437645,-0.19673325,-0.15398902,0.1601186,-0.058626197,-0.03617093,0.2578545,0.18941808,-0.036210135,-0.0023939728,-0.0122100925,0.00013678266,-0.04729154,-0.15946347,-0.038994193,-0.136677,-0.038616933,-0.012527257,0.039469026,-0.0033895366,-0.09578394,0.122076884,-0.038572975,-0.0852874,-0.09188105,0.06288766,0.12306117,-0.08900908,-0.09384225,-0.0020593319,-0.033232052,-0.03764403,0.009710855,0.032300726,-0.06927508,-0.0015588365,-0.09229314,-0.077898875,-0.0074691144,-0.17262857,-0.021964885,-0.15258582,-0.14502615,-0.02914897,0.074607864,-0.0016867343,0.018708516,0.13406257,0.23799583,0.01693243,0.0493485,-0.0063915467,0.051303115,0.2573126,0.07661941,-0.108876444,-0.2708776,0.009671831,0.020631496,0.062374152,-0.013038989,0.02995719,-0.15604465,-0.21807413,0.18240124,-0.016111843,0.017133355,0.049948175,-0.08350317,0.09448575,0.13113901,0.1961221,-0.14487198,0.14020729,-0.036023643,0.14395942,0.10218979,-0.017671717,-0.1808472,0.10012661,0.00954865,0.015254616,-0.021715587,-0.18145318,0.14590326,0.037972774,-0.046996783,-0.031774815,-0.12509184,-0.09630969,-0.0959627,-0.1831863,0.10013051,0.03588883,-0.025147943,0.015158155,0.12157297,0.11863691,0.029310903,-0.022901952,-0.013915822,0.07301701,0.11879952,-0.12887505,-0.10447629,-0.01164941,-0.18585485,-0.10845243,-0.18179761,0.014348041,-0.087710984,-0.18675634,0.22663273,-0.005307634,-0.013824474,-0.25826406,0.045259874,0.027849339,0.06328369,0.023331992,0.124907546,0.02524897,-0.04981712,0.003345233,-0.15428187,-0.022879733,-0.09002976,0.09896093,0.06762666,-0.066880755,0.17562254,-0.12038167,-0.055066336,0.07353166,-0.027429152,-0.004050068,-0.024061922,-0.023127886,-0.16364773,-0.09172813,0.052019548,-0.008731924,-0.030658424,-0.109122366,-0.05074812,0.12883405,0.13148504,0.03110463,0.10267024,-0.09630395,0.101278804,0.013508153,-0.03846649,-0.02060549,-0.015487922,0.029857535,-0.12999527,0.041084934,-0.012450896,0.033126403,0.21191204,0.04425789,-0.09802858,0.18281057,0.013965577,-0.02625054,-0.13839962,-0.029178873,0.01534439,-0.06118061,-0.08898567,-0.027424503,-0.011442102,-0.010106881,0.08844453,-0.30026796,-0.08135398,0.06059768,0.12955156,0.02150809,0.13684675,0.01393287,0.11270123,-0.04098194,0.021455387,0.081177406,-0.008773089,0.016845684,-0.121683165,-0.1564946,-0.097062856,-0.090392195,0.104507,-0.111923665,0.018262535,0.0359167,0.022861935,0.0731704,-0.0568722,0.14250681,-0.002298466,0.11025724,-0.03316967,-0.13321355,-0.1521143,0.040229846,0.1727276,0.1374129,0.06536235,0.075151056,-0.17422579,0.088926114,0.11952179,-0.11082923,0.0077948296,-0.0108418055,-0.069687225,-0.085855916,-0.13095808,0.002797234,0.18435726,-0.03488841,0.25343055,-0.10045599,0.004765908,0.11146091,-0.036903534,0.2750516,0.001372312,-0.0031254815,-0.1039027,-0.18399076,-0.117457576,0.059723627,-0.09796345,0.27068892,0.00080355786,-0.06225963,0.049636904,0.036168985,0.23361364,-0.18538332,0.052839983,-0.02103103,0.013666703,-0.0915481,-0.110506736,-0.10957899,-0.1609075,-0.042401306,0.031662744,-0.03163762,-0.11838771,-0.012732644,0.013966096,0.1736223,-0.0717139,-0.024573715,0.055259805,-0.053641506,0.00893789,-0.0024599973,0.0093206065,-0.0041167825,0.055060282,0.23025158,-0.11900071,-0.1242545,-0.18271326,-0.029958265,0.16192432,0.049702737,-0.024792826,-0.056434628,-0.067841545,-0.10280584,-0.15522774,-0.18417309,-0.04828578,-0.16505127,-0.017735906,-0.19264588,-0.058936823,-0.045771766,-0.04612382,0.096373916,0.18243729,-0.04829318,-0.025592245,0.12272331,-0.03750318,-0.006715958,0.025369689,-0.08717168,-0.028314054,-0.0069532488,0.06581774,-0.004359164,0.046698593,0.0132052675,-0.07396527,-0.09166457,0.039849002,0.10402899,0.015662663,-0.025540913,-0.03535735,-0.038670022,0.16761552,-0.12317617,-0.044882204,0.08360415,0.23153016,0.08101818,0.18299346,-0.010593547,-0.046285387,-0.016015073,-0.002972987,-0.09962602,0.12190365,0.08736242,-0.14974725,0.105567984,-0.034733973,0.028612114,0.019655108,0.007247555,-0.08868306,-0.19619192,0.0011409018,0.11217029,0.06988533,-0.03978777,0.061519105,0.04247196,0.0032034896,-0.1015145,-0.12745409,-0.15395077,-0.048447218,0.053747036,0.058876935,0.14208035,-0.018251771,0.07685591,0.14430413,-0.051819995,-0.019915985,-0.024188915,0.026664536,0.25331888,0.0106103765,-0.06580205,0.14919256,-0.0132095525,-0.12666203,0.045429755,0.24656935,0.001319929,0.026706556,0.055569112,0.09406979,-0.17626157,-0.029392831,-0.030331207,-0.25390053,0.10065046,-0.078784496,0.10027344,0.03337313,-0.023683002,-0.14992693,-0.10184009,-0.05134623,0.16027023,-0.011601932,0.12212832,0.0041775303,-0.036779024,-0.09755761,-0.12261169,0.0962371,-0.06005474,0.03352371,0.020823065,0.14849728,-0.014023673,-0.0525271,-0.05778923,0.061382517,-0.008694381,-0.16382253,-0.1262867,-0.18521912,0.048181657,0.010882074,0.17027624,-0.040579785,-0.036581937,-0.06000498,0.026071906,-0.007639461,-0.027743222,-0.04278441,-0.083919756,0.09754236,0.10760123,0.0066156634,-0.060544886,-0.104199976,0.02991133,0.07012242,0.036702596,0.17222953,0.12929109,0.038781576,0.02851668,-0.02343475,-0.10897778,0.079472855,-0.044646762,0.07058873,0.053409424,0.00770518,0.06223259,-0.05174904,0.10986926,0.18458687,-0.05897514,-0.08056658,-0.0010594194,-0.1103124,0.041951526,-0.02136132,0.02986735,0.18338023,0.11125514,0.118654214,0.10394255,0.044099975,0.21230993,-0.09351194,-0.15843211,0.142827,0.051366128,0.016209517,-0.035540156,-0.0017266537,-0.07413036,-0.123593144,-0.041667856,0.011497475,-0.12353713,0.2128441,-0.035007797,0.056321286,0.050826244,0.18031405,-0.03554369,-0.08999053,0.12758183,0.05456371,-0.010679407,-0.07063619,-0.13316841,-0.06759816,-0.060402013,0.1306056,0.152711,-0.06364146,0.08270377,-0.05558124,0.033331845,0.012531356,0.23359494,-0.06358258,0.041213546,-0.26936492,0.11562373,0.14199997,-0.04763701,0.12561274,-0.16877235,-0.2707263,0.03721889,0.146274,-0.0013022033,0.029075159,0.16470075,0.036242343,-0.10409242,-0.117558375,0.09018379,-0.04527349,0.102364205,-0.0456806,0.03392266,-0.044085197,0.1860391,-0.015068952,-0.0041409056,-0.104981184,0.028241629,0.014852235,-0.15563354,-0.01800344,-0.055950496,0.037909027,-0.12825112,-0.14746638,0.091650344,0.124277025,-0.17561069,0.01561597,-0.032234915,-0.22382057,-0.041072804,0.19188602,-0.09771794,0.007720646,0.16798435,0.040389124,-0.12237141,-0.25375855,-0.030152265,-0.020561075,-0.017337654,-0.006844362,-0.07795994,-0.041012045,-0.030085595,0.26859745,-0.09025399,0.024652677,0.28312123,-0.034716908,-0.06156513,-0.08870437,0.014989735,0.15436193,0.101024784,0.15338458,0.04898747,0.016047245,-0.07670241,0.03189356,0.004096829,0.059510875,-0.10102362,0.04907837,0.08727294,0.07602545,0.035130255,-0.09632,0.046136323,-0.06695417,-0.101982646,-0.06463306,0.07631931,-0.1827792,0.13033779,0.09568524,0.045378186,0.013029941,0.02705311,-0.10224512,0.18222935,0.16215837,-0.061682925,0.12641905,0.005678333,-0.32808387,-0.05406754,0.042115267,-0.035125248,0.013304873,-0.0072054225,0.08594129,-0.055724,0.14249367,-0.047771953,0.10392113,-0.08575738,0.09223414,-0.14469847,-0.12750699,-0.07796611,-0.10874265,0.030216206,0.20085973,-0.07831876,-0.21849358,0.03760714,0.025064373,0.13058348,0.034647044,-0.03923633,-0.08684124,-0.12706482,-0.108206116,-0.077580154,0.17684695,-0.08138425,0.049491815,-0.031614017,-0.029220937,0.1132562,-0.10611086,-0.06808829,-0.03170169,-0.047129545,0.01351888,0.14455129,-0.2685159,0.0130791925,-0.2515009,-0.01576702,0.16751374,-0.012873973,0.18491192,0.30372098,-0.0049403813,0.23523176,0.046216276,-0.0803023,-0.039758332,-0.07501807,-0.23165034,0.06247639,-0.033861265,0.03360348,0.024947219,-0.1363689,0.2834412,0.16848946,0.0557852,0.01959887,0.1297117,0.18151149,0.10929721,0.091861285,-0.016540455,-0.021887444,-0.03471547,-0.020976821,0.008739201,-0.03403662,0.04807425,0.030834809,0.05492177,0.055582445,0.061122462,-0.002094397,0.08170323,0.0053620567,-0.030746626,-0.090359904,0.14904693,0.021824803,-0.16209678,-0.19174072,-0.031269375,0.049658023,0.18126558,0.010000464,-0.009843977,0.07827116,-0.14907402,0.030443992,0.16005097,-0.09648871,-0.054366775,-0.17761476,-0.16032271,-0.11526136,0.18765211,-0.016054768,0.12860855,0.00020345494,0.0045720586,-0.049633127,-0.18200582,0.008337106,-0.05649652,-0.048438244,0.04173152,0.16553673,-0.023640092,0.14534026,-0.08042321,-0.033895887,-0.010337849,0.014191236,-0.0070349746,0.08297687,-0.10027669,0.095697194,-0.1432803,0.13429236,-0.2131434,-0.085706666,0.021229576,0.075385265,-0.14445172,0.1011453,-0.033841155,-0.012833258,-0.031965967,0.015853815,-0.035086382,-0.06389252,0.02676827,0.011261457,0.015883157,0.02352547,-0.003889723,0.022350995,0.03996727,-0.055466924,-0.06258794,0.004499939,0.08191644,-0.20674872,0.1420818,-0.013187359,-0.080186754,0.0022933509,0.12339558,-0.07684592,-0.1406733,0.005860065,0.18723966,0.02159668,0.04020817,-0.12366465,0.030531075,0.022852466,-0.11574499,0.050192337,-0.19548401,-0.007857406,0.120166026,-0.10673205,0.05479422,-0.16075161,-0.002781017,-0.043867733,0.005923494,0.12878296,0.05271772,-0.032407742,-0.18215719,0.1588126,-0.09571513,0.028188596,0.1645846,0.13349737,0.06924175,0.09517613,-0.19263467,0.020840682,0.008592113,0.009692719,-0.057284795,0.02681954,-0.044663392,-0.29003334,-0.12680183,-0.17726992,-0.20509551,0.13215767,-0.08619996,0.17154701,-0.0599016,0.008847149,-0.04477928,0.05253291,0.09172102,0.21679221,0.059313204,0.05573592,0.035514385,0.07484822,0.08439017,-0.1641897,-0.07053907,-0.056100916,0.14241084,0.2170768,0.00153636,-0.21365221,0.10909668,0.14829634,0.04328183,-0.09647765,0.11831333,0.0016954117,-0.06071013,0.0031537523,0.055249523,0.21292287,-0.064521246,0.031380467,-0.011966917,0.20661357,-0.0009956311,-0.047590386,-0.07667944,0.014656813,-0.05547852,0.022396771,0.05974035,0.20834637,0.23172067,-0.104974374,0.014736417,0.018895475,-0.004778637,-0.06739004,0.037532844,0.17372456,-0.033605326,-0.21054938,0.062821336,0.10961038,-0.13040936,0.12418782,0.02699097,0.023368875,0.10859435,-0.0685204,-0.059559837,0.06752558,0.08778744,0.12402213,-0.016849484,0.005481005,0.1693568,-0.08075313,0.12582263,-0.195813,-0.023241742,-0.089045115,0.043890756,-0.03591508,0.09001028,0.06872762,0.14379896,0.08787436,-0.017129624,-0.0074261925,-0.10860595,-0.1685424,0.16645406,0.06960655,0.07339107,-0.17602806,0.13623805,0.12243758,-0.09937887,0.092266425,-0.014697793,-0.13399859,-0.008117841,0.047581233,-0.0153706325,0.04990199,0.06920744,-0.04356002,-0.08645032,-0.10727859,0.13598597,-0.014444359,-0.08257322,0.1618057,-0.11947431,-0.11146053,0.17754392,0.1125424,-0.09188198,-0.0314273,-0.031205362,-0.017599806,0.14323571,0.04168815,-0.09289165,0.18689205,0.016266542,0.07394551,-0.005709785,-0.19049375,0.025920205,0.19701988,0.041066214,0.051548984,-0.0104740625,-0.016406693,-0.108285844,0.02839792,-0.09604157,-0.03665641,-0.121886745,-0.13617983,0.08763167,-0.09881616,0.17958169,0.026088076,-0.0031480177,0.0931895,0.007062747,0.037314307,0.09726421,0.012570208,-0.08085317,-0.15311873,-0.15925393,0.00016179204,0.0820296,-0.123332426,-0.039441492,0.03894334,-0.051924814,-0.003319009,-0.0028980374,0.038451657,-0.0029104254,-0.15923417,-0.008803061,0.03810542,0.026040986,-0.16047741,0.07035896,-0.008992007,0.21697557,0.13798365,-0.016436689,0.1647856,-0.013995907,-0.10276851,0.0055347173,0.07513829,0.06854353,-0.059190672,0.0477039,0.13641311,0.039703246,-0.1399154,-0.07798288,-0.010252672,-0.04183005,0.061280303,-0.03513019,-0.051192544,0.16419472,0.19724287,-0.049775105,-0.14895308,-0.11631306,0.21528825,0.03323469,0.0013256086,0.068717904,-0.005112257,0.03393188,-0.06156641,0.28246802,0.040621962,-0.05051391,-0.047516562,-0.11140694,-0.1724257,0.16738455,0.039339557,0.030063657,0.0799035,0.10510631,0.13574943,-0.13579878,0.07417163,-0.12375774,-0.044525772,0.017873945,-0.12676428,-0.1726167,0.008494549,0.24752797,-0.08710539,-0.18790069,-0.019273233,0.21985528,-0.05390024,-0.22858933,-0.13925695,-0.13729255,0.1065303,0.082944006,0.040888958,0.058150116,-0.15588564,-0.009102392,0.10122609,0.0063367505,-0.08512051,0.05369031,-0.105499595,-0.22886987,-0.021015277,0.013033045,0.32031056,0.088018365,-0.14021136,-0.05982199,-0.006099026,-0.061855126,-0.16594021,0.03441525,-0.034509577,0.13679208,-0.17104892,-0.012191288,-0.08987406,0.015159016,-0.13388103,0.12209199,-0.054377593,0.09287627,-0.040459868,-0.009071067,0.023392793,0.0010776998,0.07107057,0.04584928,0.00055879424,0.008476135,-0.14609374,-0.10472593,-0.017899863,-0.049336787,-0.01094748,0.029747002,-0.023146834,-0.079827115,-0.041040692,-0.082462765,0.11670196,-0.019883184,-0.14023899,0.14340866,-0.063856,-0.02861991,0.075881824,0.022163194,-0.14428025,-0.0028867435,0.08755994,-0.021439802,0.08367274,0.058168814,-0.011902732,-0.03191499,-0.14735608,0.05077891,-0.06345421,-0.12055281,-0.14814039,-0.09623592,-0.010939784,-0.17035931,-0.002276459,0.122680955,-0.2301735,-0.13606514,0.00808886,-0.057712663,0.07834856,0.023551464,-0.15947118,0.069310166,-0.07841857,-0.10133805,-0.032612335,0.243681,-0.0071504056,-0.127822,0.00093820324,-0.19511154,0.02181347,0.11163654,-0.029240657,-0.038550843,-0.027929397,-0.0568015,-0.13526638,0.121340945,0.15857054,-0.06734993,-0.038766503,0.022489732,0.17639112,0.20140097,-0.0049225506,0.13506374,-0.07540096,-0.10787052,0.049553003,-0.04310175,0.0018122889,0.093291536,-0.00097474613,-0.16483033,-0.111886926,-0.13248625,0.1713324,0.094232045,-0.00406316,-0.095863715,0.06959205,-0.019382223,0.050367113,-0.13011837,-0.014750784,-0.0648802,0.023654332,0.0096185785,0.008047611,-0.051583998,-0.11195197,-0.018617246,0.038292557,0.13316867,0.025760492,-0.11106174,-0.15111707,0.19217123,0.15844412,-0.11513386,-0.020701658,0.19596657,-0.23790324,-0.15601341,0.07850297,-0.004150933,-0.041375715,-0.13799053,-0.09595982,0.01143582,-0.031303797,-0.011281465,0.03205791,-0.14767614,0.090514876,0.21006773,-0.16679987,0.16393441,0.2002769,0.14639269,-0.09625669,-0.0030621937,-0.005399234,0.0014365803,-0.0011324773,-0.23572035,0.16932715,-0.0014815002,-0.057643965,0.15026882,0.11670709,-0.010804106,0.07737344,0.20154332,-0.004094527,-0.12500799,-0.021749796,-0.09331663,0.005995522,0.16639914,0.014075902,-0.0021157712,0.049165107,-0.101154365,-0.01074364,-0.04551241,0.16602948,-0.010091689,-0.05839616,-0.14951338,0.1491358,-0.08241208,-0.037041184,0.091802046,0.004578269,-0.04237267,-0.19130656,0.035808153,0.033400517,0.16689529,0.0025083914,-0.045536187,-0.22705029,0.06698094,0.0139227435,-0.029492443,-0.023304606,0.092766985,-0.05839634,-0.15031189,-0.021959359,0.13180168,-0.11453532,-0.07948795,-0.016821073,-0.21185136,0.026488863,-0.006350045,-0.12190231,-0.029569771,-0.17808808,-0.013634729,-0.1744244,-0.015830914,-0.17742704,0.0073392736,0.23453626,-0.02610657,-0.046786558,-0.007767559,-0.1935788,0.1553499,0.003347942,0.037013773,-0.06163634,0.19904791,-0.0023166423,0.17105299,0.1754506,-0.021213299,-0.018264657,0.04606837,-0.038982853,-0.1782001,-0.05886165,-0.13386159,0.029337676,0.20983955,-0.035007812,0.120312154,-0.04733139,-0.03302541,0.14764227,0.112644695,-0.14157481,0.10639004,-0.038144853,-0.09152288,-0.08870676,-0.13878362,-0.15334141,0.05894082,-0.15368591,0.02509078,-0.05674605,0.1541037,0.007442126,0.04625399,-0.17600447,-0.039158862,-0.026184836,-0.11752879,0.24637553,0.032503963,-0.13215268,-0.057092104,0.11542865,0.008145817,-0.004661097,0.11768581,-0.012712766,-0.031027015,0.13236399,-0.2180369,-0.0043278774,-0.12101989,-0.030278495,0.14092651,-0.08054531,-0.039632846,0.0074412404,0.017750567,0.0011328111,-0.07159342,0.047339644,-0.028751062,0.045381915,-0.15234496,0.08247337,0.120854266,0.0072600706,-0.023697095,0.014019881,0.097546645,-0.10175947,-0.00067897205,0.103680804,-0.18980134,0.0516809,0.18111776,-0.03584836,0.16465212,0.13668306,0.032750003,-0.038171247,0.16148372,0.09418509,-0.012959967,0.046612546,-0.020227786,-0.11093605,-0.073096044,0.047523282,-0.078502126,0.03760822,-0.001153005,0.032322656,-0.03575941,0.073189236,-0.014994487,-0.032015473,-0.1395024,-0.0078118574,-0.0037463475,0.105028465,0.11075803,0.08187284,0.024239697,0.056538373,0.041375928,0.17030436,-0.059603684,-0.15133321,-0.09945447,0.059680972,-0.23424312,-0.0017699476,-0.027937854,-0.09086432,-0.009990356,-0.1674978,0.033627626,0.049057115,-0.119265415,0.1137406,-0.05708442,0.03398979,-0.07043745,-0.116634294,-0.02956245,-0.03530119,0.10920313,0.029388437,-0.025616506,0.20696537,0.019298669,0.074581474,-0.07376731,-0.0641775,-0.062255003,-0.053466823,-0.02940859,-0.08683694,-0.12593289,-0.14813751,0.13257438,0.0060859886,0.036606267,-0.18357149,0.03583386,-0.009377878,0.02949402,0.036624983,-0.026348943,0.0654393,-0.0024152275,0.029514866,-0.022582185,0.0113955205,-0.07241441,-0.0058254017,-0.09142476,0.06903517,0.02520081,-0.0119023295,-0.07516165,-0.0045197685,-0.06537263,0.13548972,-0.1414021,-0.031478863,-0.031640515,-0.20726386,0.0036733402,0.13802083,-0.008033044,0.16164671,-0.101926565,0.08105896,0.010512554,0.071998805,-0.06882347,-0.0004372426,-0.018289827,0.031914376,-0.058604784,-0.013551531,0.13999954,0.19257824,0.024480678,-0.12351492,-0.014749419,0.024578715,0.039767798,-0.35884336,-0.060228813,-0.00066451466,-0.15038039,0.016565274,-0.0081283515,0.08471148,0.023341399,-0.0990985,0.12331457,-0.01717655,0.016801689,0.08865505,-0.012391169,0.0072974185,-0.042911842,0.0072141,0.08351676,-0.03949435,-0.0133348415,0.026706176,-0.027994476,-0.010881103,0.024511764,0.032884803,0.056675617,0.20421258,0.24025682,0.18104108,-0.052255075,-0.022731869,0.0004453917,-0.08026974,0.06935358,-0.01782108,0.10506942,-0.07401836,0.15223573,-0.03089791,-0.024611397,-0.117429994,-0.06525171,0.20450988,-0.024221817,0.0371826,0.17636386,-0.15881574,0.02532413,-0.16080889,-0.14198473,0.20417427,-0.03398818,0.0018626312,-0.0968155,-0.11011885,0.000387671,0.11800886,0.22319128,-0.010987899,-0.055149302,-0.04228425,-0.13824081,-0.031493552,0.06471673,0.15335366,0.19723229,0.049869947,-0.020057414,-0.048071366,0.1050961,0.0023875632,-0.013502394,0.10245416,-0.10469779,0.0656604,-0.001416769,-0.03571226,0.11840539,-0.14207079,-0.09186554,0.01897667,-0.07842972,-0.09905637,-0.000108713444,-0.06633736,-0.007924149,-0.09773199,-0.09773455,0.014609635,0.21417552,0.004145976,-0.12355611,-0.11903881,-0.0319301,0.24186201,-0.06682099,0.043986794,-0.0066660624,-0.075882114,-0.07759867,-0.09653001,-0.06712526,-0.07302298,-0.019157533,0.002417724,0.07123281,-0.07291236,-0.071359254,0.00061299436,-0.079938516,0.20486657,-0.03953983,-0.11525641,0.08771184,-0.09883455,-0.13543276,0.07280512,-0.0031059906,0.08237571,0.010551143,0.0007677107,-0.08125406,-0.021791903,-0.056683544,-0.06156796,0.007285051,-0.04657783,0.12405906,-0.047287773,0.014898342,0.2080064,0.23280922,-0.07470922,-0.17499049,-0.021250242,-0.2360955,-0.1936878,-0.024186265,0.04071525,0.113536224,-0.006942835,0.01872575,-0.09219224,-0.1383218,-0.10570661,-0.042645946,-0.18567328,-0.024593059,-0.060405612,0.014715428,-0.012960022,-0.14194402,0.19964461,-0.017513676,-0.118653044,0.17429931,-0.11749352,0.11011707,0.27321738,0.00420947,0.062871784,-0.24841239,0.12015253,-0.08102162,-0.08902478,-0.0012493583,0.14482966,0.018147755,0.218044,-0.06971486,-0.06508258,-0.1360048,0.07694007,-0.13445906,-0.06597479,0.06320612,0.01192129,0.11844393,0.0056676534,-0.13039769,0.038411852,0.102258585,-0.08727812,-0.17055513,0.11776859,-0.10810903,-0.14840764,-0.04794131,0.141666,-0.13714588,0.0035038101,-0.01012369,-0.033234496,-0.071848296,0.0044493517,0.04956434,-0.05237405,-0.022201631,-0.17693876,-0.17806637,-0.01794203,0.24662973,0.0053122356,0.03253698,-0.05192371,-0.08169264,0.11503774,0.048800606,-0.0012892927,-0.04034728,0.0071877274,0.14335604,-0.13806222,-0.008360812,0.022136685,-0.08848126,-0.04653687,0.16650438,0.035375357,0.15626916,0.008314202,-0.19075863,-0.12651353,0.070005484,0.16120425,-0.058924805,-0.115894035,0.0857843,-0.05496086,-0.031258985,0.10968977,0.06800583,0.075683996,0.01488655,-0.037937388,0.002600259,0.007408648,-0.10542671,0.083239645,-0.19040568,-0.014948133,-0.051010262,-0.029960062,-0.14015268,-0.07124629,0.07734158,0.015591789,-0.071847245,-0.08346763,0.028667193,0.014244436,-0.022098728,0.016782746,-0.026606627,-0.11806203,-0.084083624,0.096170925,-0.07459415,0.0341229,0.09972208,-0.055672374,-0.033940736,0.027945088,0.16506557,0.105418764,-0.09563357,0.09420501,-0.15810403,-0.010324658,0.030516276,0.045195956,-0.083718576,0.03858687,-0.12496989,0.06538028,-0.104788765,0.15217954,0.07462577,-0.06270551,-0.022338575,-0.01238464,-0.0939426,0.03577291,-0.012397227,0.19150823,0.05025778,-0.035715617,0.047413312,0.10813867,0.028772052,0.072399676,0.24462372,-0.08128332,-0.090525344,0.0075471294,0.023554685,0.05347512,-0.0033115095,0.0905281,0.07432146,-0.13471656,0.021852441,-0.09382019,0.10818742,0.10387847,-0.12658788,-0.0979276,-0.015859317,0.113634445,0.021505743,-0.012785617,-0.014564628,0.1543889,-0.067307346,-0.14047985,-0.0716367,-0.04000404,0.0043106684,0.029749323,-0.13872622,0.013630802,-0.064033575,-0.046200182,-0.12446769,0.01853349,-0.13036433,-0.080487035,0.09554369,-0.06063357,0.042182703,0.026216738,-0.11593668,0.13994741,0.15302232,0.011343072,0.1516561,0.017561637,-0.21554676,0.013740339,0.041948088,0.12463495,0.25343412,0.19595435,0.06939314,-0.024117094,0.2765504,0.15856451,-0.1377035,-0.047837127,0.07449714,-0.16923527,-0.016205613,0.096432,0.06014564,-0.03568308,-0.04895372,0.10075411,0.078778915,0.01994777,-0.060207296,-0.21194209,0.14880013,0.023058718,0.09952136,-0.096064426,0.034252264,-0.026156593,0.055823725,-0.0048923013,-0.033872254,-0.14855886,0.22348067,-0.0034892217,0.15739366,0.023043448,-0.060922664,0.14650449,-0.07753391,-0.049037732,-0.0420618,0.10289016,0.011396874,-0.26505905,-0.15248032,-0.07702588,0.24396263,-0.14267248,-0.11520791,0.09875396,0.19311866,-0.041196164,0.04937752,-0.029132538,0.0038420155,0.21164674,0.06923978,-0.06902841,-0.2190281,0.10603506,-0.111958526,-0.09469738,0.1729024,0.038006056,-0.01996243,-0.09313128,0.11668413,0.007283298,-0.009803981,0.03703648,-0.097917676,-0.042933136,0.11332838,0.0073645245,0.008026417,0.060851112,0.060104556,0.041690476,0.10752314,0.046144605,0.05800255,-0.053255253,0.030742295,-0.07505544,0.020298755,-0.19289002,0.0831855,0.12301882,-0.105338566,-0.067425005,-0.11535861,0.12901843,0.03971762,0.046252955,0.046866424,0.029365243,0.023728011,0.2643099,0.13210419,0.11604369,-0.028198943,0.015404904,0.13313039,0.038437966,0.023139521,0.08338766,-0.09366377,-0.1298498,0.015530656,-0.03063962,-0.16756523,0.15946606,-0.04887,-0.14383349,0.10972209,0.29339078,-0.017946932,0.093617536,-0.021178352,-0.046507984,0.07143117,0.24182919,-0.08199658,0.12502408,-0.15562938,0.019485345,-0.06204312,-0.014751442,-0.013650779,0.04548038,-0.091298915,0.027021296,-0.08288909,-0.043670755,0.17205589,-0.069804944,-0.17463319,0.057152744,0.071041465,-0.01299779,-0.038520854,0.13654551,-0.235949,-0.1345813,0.07719278,-0.19399163,0.00799943,-0.055452116,0.19026834,0.058805503,0.04614472,0.1920104,-0.009551014,0.059296247,-0.012118696,-0.035712026,-0.0139596285,-0.20128664,-0.12579423,0.068653785,0.0075050597,0.009536506,-0.00032920003,0.026593558,0.18837854,0.021045987,-0.05394817,-0.10857848,0.014630774,-0.07640729,0.19560544,0.029434893,-0.02325759,0.11741898,0.191609,0.007238257,-0.1377322,-0.029417269,0.17180316,0.06428306,0.0804107,-0.119097516,0.06589698,-0.011580403,-0.012201276,0.11302519,0.32008088,-0.017739123,0.027264837,0.029962339,-0.009644227,0.045293253,0.026668299,0.030927828,0.017621532,-0.07350584,0.007403441,-0.03291227,-0.163785,-0.02876369,0.03955975,-0.12075318,-0.026071103,0.10482787,-0.09586659,-0.086057365,0.03315112,0.03782459,-0.009707745,-0.118845694,-0.09887669,0.033540394,-0.081752524,-0.001577393,0.08389403,-0.062165763,-0.037810642,0.0014644393,-0.1530944,0.021071546,-0.07703341,0.096456364,0.21002446,0.13114385,-0.010739506,-0.03319445,-0.09446407,-0.04044768,0.037407234,-0.104360074,0.0792918,0.03934117,-0.019226795,0.18129067,0.07031555,-0.0063883113,-0.21281977,-0.0026506349,-0.08681409,0.11366603,-0.18899453,0.0016142004,0.0024512864,-0.14086747,0.18306018,-0.09458108,0.014112841,-0.12518848,0.037737742,-0.011486265,-0.086334325,-0.01856931,0.058029164,-0.028749999,-0.08345358,0.11393506,-0.034219652,0.07570237,0.16509138,0.18899137,0.15387687,-0.258276,-0.01604218,0.010897359,0.09525922,-0.074240156,0.030997328,-0.10414548,-0.056879327,-0.06484284,0.09100678,0.044798344,0.14450718,-0.08557839,0.11686297,0.27608937,0.121529184,0.013975545,-0.11898869,0.14015795,0.14029716,0.15604617,-0.07694579,-0.06337309,-0.008646251,0.018427929,0.09645861,-0.06791745,0.109028,-0.087314926,-0.07924159,-0.032375455,0.16650887,0.054932788,0.13856624,0.03915774,0.021662656,-0.13998158,0.04185711,-0.02914054,0.18945444,0.09197799,0.025423039,-0.116868295,-0.18336421,0.012652544,0.17527041,0.016248591,0.080126375,-0.034886844,0.021691147,-0.13040511,-0.045526534,-0.07725451,0.08815759,0.048533402,0.045585144,0.17574441,-0.12293468,0.017690908,-0.0407374,-0.078363985,-0.09945231,-0.0054666414,0.19387966,0.102528,-0.0009743746,0.13791348,-0.18448193,0.21590586,0.19403335,-0.07973532,-0.09803916,-0.051322646,0.095433556,-0.06742735,0.0018789718,0.06636917,0.12553565,-0.19826692,0.018698411,-0.13465445,0.06488877,0.09741857,-0.0052495548,0.048609745,-0.123666294,0.07474968,-0.07469076,-0.030438682,0.056942105,-0.02302138,0.18951415,0.013122621,-0.06341796,0.13848303,0.07496352,-0.10539211,0.0341113,-0.14262827,0.10183125,0.031048503,0.17304316,0.07357005,-0.07344515,-0.1423857,0.07659268,-0.16700973,0.14045227,-0.03830589,0.068981245,0.040344533,0.060186874,0.009267871,0.0075354977,0.13420157,0.11285032,-0.061816175,-0.051519405,-0.04675773,0.035146404,0.057861645,0.044495214,0.028667975,0.041544966,0.07917305,-0.0589175,-0.04431584,0.039516505,0.048830625,-0.22062656,0.16531895,0.12913564,-0.03714013,0.16650422,0.16617578,-0.15695482,-0.18759264,0.000790297,-0.07430687,0.053729445,0.04486699,-0.037175175,0.122780755,-0.018137462,-0.08279381,-0.12525614,0.034647148,0.010286576,-0.14099455,0.04077887,0.0040618675,0.11512563,-0.04862404,-0.05144842,0.11833998,-0.034513324,-0.0036883128,-0.06965822,-0.018665068,-0.17731328,-0.06953869,-0.017243559,-0.02956715,0.0023875362,0.018672638,0.10768752,-0.027999418,0.069821194,-0.02145255,0.034023635,-0.10024374,-0.10475854,-0.079322755,-0.11013818,-0.09831669,-0.24165173,0.088616475,0.13670081,-0.034848265,0.15718845,0.016894478,-0.018508583,-0.07831174,0.027203366,-0.018674446,0.022136629,-0.11802304,0.026272485,0.03131725,-0.08460414,0.10473986,-0.08621626,0.00049232517,-0.029821,0.003623132,0.04160516,0.05039664,-0.11736521,0.03538602,-0.0645604,-0.08507206,0.15259497,0.14671953,-0.106086604,-0.0067991223,-0.090409346,0.015715504,-0.050834063,0.07138554,0.00038599808,0.1622573,0.031614404,-0.093453705,-0.12302393,-0.042498622,0.078593954,0.16221954,0.13913642,0.08434737,-0.081413954,0.0006384241,0.01591783,0.22119609,-0.06968847,0.0669116,-0.057961438,0.098865345,0.037004214,0.109242186,-0.00216316,-0.045813594,0.16541383,-0.009386831,0.025137499,-0.14089304,0.0050036157,-0.040257808,0.15503328,-0.16236275,0.19409676,0.053981625,0.12114835,-0.030807668,0.19102864,0.0075464575,-0.013047432,0.029562019,-0.25790977,-0.01742026,0.09943456,0.10030421,-0.004862962,-0.1689732,-0.0042525074,-0.21063717,0.06358764,0.029263703,-0.05837898,0.098822966,0.1598399,0.0916426,-0.073734656,0.00928245,-0.040734973,-0.18611823,0.116798274,0.024252918,0.0547649,0.11157372,0.06918375,0.019100405,-0.089272775,0.14310336,0.013973302,0.15465559,0.12611568,-0.05890005,-0.00726793,0.017049061,0.07485278,-0.012828649,-0.008004859,0.16061582,0.08606925,0.025706617,-0.06364683,-0.11144897,-0.018777793,-0.107781455,-0.013605398,-0.041949306,0.016940063,-0.18299104,-0.13895065,0.106463425,0.18308227,-0.08144171,-0.24571213,-0.0025634966,-0.037337173,0.04756933,-0.13609351,-0.016628994,-0.09342026,0.10129806,-0.09615006,-0.26112857,0.09025573,0.15118113,0.031007592,-0.13851538,0.10939776,-0.08519499,0.18140134,-0.07461964,-0.058994494,-0.22521044,-0.09808416,-0.034825195,0.0067271776,0.0056485655,-0.093147986,0.022326741,-0.10527177,-0.03624409,-0.053894404,-0.06303549,-0.12914789,-0.1010664,-0.044772062,0.011993315,0.19121392,-0.033311017,-0.025981957,-0.090419404,0.064299546,0.14105925,0.19797587,0.026771095,0.060457148,0.15951172,0.078005515,0.009376631,-0.06488274,0.002061063,-0.032365322,-0.10203038,-0.052263178,-0.031023376,-0.03928689,-0.012935685,-0.041408796,-0.028369784,-0.08189918,-0.020159312,-0.022290513,0.14659087,0.120946266,-0.04288707,-0.12019777,-0.028083498,0.0549416,-0.004066119,0.008705386,0.031287923,-0.13543318,-0.16295671,-0.08720438,0.09360499,0.018497176,0.2583348,-0.060617376,-0.16803406,0.112521626,-0.0048461575,0.15569264,-0.18582794,0.10355861,0.16982366,0.0003834843,0.01975086,-0.011340764,-0.019205837,0.14997411,0.014669406,-0.15432662,0.04007686,-0.07704883,0.020732803,0.06598439,0.034899544,-0.08756033,-0.20919886,0.1402728,0.1926084,-0.10825146,0.19021489,-0.035593446,-0.05498673,-0.02014084,-0.013652651,-0.028455107,-0.21088043,-0.020627875,-0.05705427,0.013111893,-0.10283532,0.051069226,-0.15879719,0.16105807,0.12341575,-0.07097938,-0.04496712,0.19908772,-0.014379706,-0.142118,0.13991316,0.1345347,-0.19243895,0.074678496,0.028146686,-0.14230087,-0.026488971,-0.0112781655,0.050778218,0.06256769,-0.004131911,0.12261598,0.037689734,-0.08753465,-0.104343206,-0.035067454,0.093607485,-0.20143224,0.046080213,0.031689256,-0.09723311,-0.045574993,0.021488877,0.054484397,-0.036922913,-0.0735385,0.06189708,-0.00011871052,-0.009762987,0.021709803,0.13199706,-0.03343401,-0.07364514,0.0209492,0.07287854,-0.07526053,-0.052983284,0.25880703,0.060257293,-0.09328319,0.090942934,-0.07563957,-0.027462909,-0.19373667,-0.0047495416,0.00985225,0.12591504,0.021164661,-0.0798285,-0.10456275,-0.1779595,-0.008124306,-0.13624932,0.09320941,0.0322382,0.0076386426,0.10875885,0.04048848,-0.1463649,-0.04221742,0.07390424,0.11129675,-0.13062431,0.017288921,0.08114521,-0.22495607,0.012857539,-0.046340045,-0.09934794,-0.10187108,0.08006678,0.08147482,-0.047653988,-0.055774596,-0.06057355,0.15216514,-0.018122816,0.07984648,0.13076063,-0.057237983,0.010213689,-0.13824716,0.08950646,0.085562736,0.03906502,-0.02709868,-0.010219909,-0.06514339,-0.092062145,0.14162126,-0.12442154,-0.09147474,0.084045745,-0.2061174,-0.18159527,0.075926565,0.12564367,-0.055257317,0.070841976,0.079716936,0.12416981,-0.07053913,-0.009079772,0.0017384937,-0.058141235,0.14664139,-0.14887573,-0.09924359,-0.19784206,-0.19612217,-0.19346859,0.17736366,-0.058275785,0.2684694,0.028932348,-0.17016318,-0.13395663,-0.10265905,0.23320884,0.016511846,0.19827926,0.111802734,0.08964452,-0.1632406,0.06813069,-0.20156729,0.06366982,0.18610533,-0.11920704,-0.13029386,0.13969636,0.09471808,0.060864385,-0.0006381201,0.16226044,-0.05198806,0.14838342,-0.03651136,0.009654779,-0.107349835,0.012876822,0.04715472,-0.021895004,-0.006340422,0.10352551,0.032433104,0.039652985,0.007455351,-0.057684287,0.08041208,0.020243786,-0.096960984,-0.055484314,-0.12281763,0.071081504,-0.0065580634,0.022922415,0.09124331,-0.024402868,-0.08206719,-0.043188795,0.02227968,0.09398095,0.10699417,-0.27710703,-0.1967525,-0.09573832,0.108013436,-0.063407905,-0.072095565,0.009721692,0.20639569,-0.012458064,0.038316622,-0.173086,-0.0107073765,0.17560798,0.13463928,0.11952782,0.16513431,-0.06129995,-0.08286367,-0.027706629,0.15666664,0.015779806,0.090151034,-0.08238982,0.008817904,0.013731511,-0.07798415,-0.17992073,0.21151753,0.20028561,-0.101125434,0.12040387,-0.029180577,0.20197278,0.2025708,-0.18675873,-0.18030156,-0.050180957,0.084506966,0.12422483,0.14878115,-0.009001384,0.027317801,-0.034595937,0.09574709,0.014996519,-0.14416267,0.14100976,0.018519057,0.02701114,0.012209508,0.1472629,0.15971427,0.024119498,0.021702345,-0.090163544,0.035131328,0.051504605,0.010863306,-0.044184767,0.1101239,0.017173339,0.02713757,-0.0006444361,-0.2556886,-0.039557107,-0.07842034,0.0028124026,0.1432381,0.058478925,-0.07391032,-0.041408986,-0.07537108,0.058765918,0.100497626,-0.019947324,0.024704266,-0.16401494,0.021331916,0.016473578,-0.16349469,0.11637746,-0.031880047,-0.1430509,-0.17789719,-0.026825992,-0.031680796,0.007749006,0.017656075,-0.18666516,-0.13053636,-0.06236215,-0.016328512,0.03972328,0.0051345844,-0.0011718743,-0.021572432,-0.017540557,0.030168954,-0.122223385,-0.06790043,-0.04824301,-0.1865421,-0.12566014,-0.070982784,0.07879409,-0.18227677,-0.004002025,-0.20420262,-0.10671425,0.18834981,-0.048585866,0.115073584,-0.0064063976,0.007187178,-0.05483909,0.11892752,0.025208378,-0.03612931,-0.02527783,0.06665166,-0.20442581,-0.036980562,-0.11566771,-0.02296338,-0.0056001716,-0.062439125,-0.0597136,-0.019477183,-0.16374788,-0.122249864,0.0019465565,0.020739784,-0.019974917,-0.05953356,0.16842835,-0.015092458,0.08955064,0.04311375,0.0151126245,-0.020452036,0.20429872,0.10362233,-0.19198444,-0.10299766,0.10439857,0.07875868,0.023520442,-0.09335458,-0.24936853,0.12003449,0.23394345,-0.12047379,0.15162969,0.038711376,0.14241657,-0.032272343,0.11900129,0.020540705,0.13855626,-0.024025956,-0.08131074,0.00095184316,-0.0030590117,0.10530853,0.017077781,0.07466943,-0.12887995,-0.14795284,-0.042613573,-0.01868329,0.107314155,0.00084873755,0.08441892,-0.09449537,0.0037416848,0.16218635,-0.12469756,0.15193984,-0.011732209,-0.13627909,0.006177949,0.05502965,0.17933722,0.036153693,-0.07679802,-0.17440751,0.2079159,0.2150011,0.015425537,-0.2014874,0.04170486,0.05650797,0.043079805,0.0816851,0.12587036,0.041415315,0.022031678,-0.14563397,0.045341086,0.024467366,0.05375492,-0.03533207,0.04295847,-0.10390897,-0.1028513,0.026693707,0.08028727,-0.10760212,-0.013070407,0.04371891,-0.047196683,-0.23277259,0.001938346,0.028460428,0.13815638,0.20340198,0.031863723,0.13514505,-0.0053463834,-0.041231252,-0.033738513,0.043785777,0.0042552063,0.01783376,-0.2066822,0.1101388,0.016897315,0.16398634,0.014616102,0.16296683,0.13737679,0.068274654,0.015648201,-0.014725303,0.0138820205,0.022756092,-0.011735234,-0.0626316,0.10276134,0.1491395,-0.23137075,-0.21463665,-0.18498039,0.04291174,0.045883898,0.18346421,-0.008164035,-0.10626635,0.046861563,0.02581476,-0.015406221,-0.021681705,-0.1533703,0.0029568463,0.0037944808,-0.044023454,0.026977895,0.043180086,0.01608696,-0.011670727,-0.05167657,-0.120955795,0.0036288025,0.08437612,-0.061025765,-0.017882723,0.00058742915,-0.21622947,-0.045025207,-0.08492074,-0.16399717,0.11657776,-0.10000338,0.20511742,-0.035717454,0.18009742,0.027383449,0.18419938,-0.12882558,0.042558804,-0.07842883,0.06807259,0.039653588,0.07426996,-0.0037384853,-0.1145924,0.08281063,-0.097007215,-0.026127612,-0.002091231,0.10102574,0.033081885,-0.026993837,0.054745078,-0.28508425,0.019222418,-0.06262794,-0.01488168,-0.07466875,0.039967738,-0.119919226,0.08044572,-0.14600305,-0.0714587,0.22378431,-0.025419598,0.11594091,-0.1412932,-0.04680035,0.0417777,0.20037316,0.0017578378,-0.015791057,-0.1975718,-0.0071357936,-0.04622247,0.038474593,-0.12690558,-0.12827389,0.16151246,-0.0833811,0.055022758,-0.19570263,-0.03913255,-0.13785745,0.12512112,0.0629206,0.1115645,0.12665437,0.09090574,-0.07107692,0.15604085,0.045210622,0.011223937,0.20084627,-0.03159589,-0.070917524,0.00014561706,-0.010252094,-0.17912403,-0.069306396,-0.10037762,-0.32045066,0.056003973,0.009382711,-0.15143488,0.044203218,0.12141484,0.023744095,-0.2097554,-0.09342145,0.13645175,0.19219893,-0.2058553,0.02475491,0.014680275,0.19444543,-0.04886474,0.022903308,-0.07046487,0.02105156,-0.103034675,0.036047176,-0.032154374,0.16948518,-0.21557935,0.02327716,-0.022956643,-0.06697294,-0.049488243,0.049351964,0.0030091752,0.016672872,-0.10641819,-0.030714065,-0.0009261965,-0.026171515,0.021809235,0.08523785,-0.08544742,-0.05219231,0.022791076,-0.20652746,-0.16612126,-0.03865584,-0.05558322,-0.056887243,-0.17404108,0.14720903,0.020840414,0.04767737,-0.14754373,0.051595196,0.0030782672,0.19998972,-0.09719067,0.14900605,-0.02411718,-0.11862447,0.032724064,0.14523876,-0.17685783,-0.010672798,-0.110046014,0.057659764,0.06618421,-0.13477723,-0.02806491,0.10895137,0.08731564,-0.024740245,-0.0070838653,-0.07740137,-0.2813415,0.020409254,0.034547336,-0.03375695,0.03891725,0.10532664,0.1176042,-0.17393439,0.010036151,0.028267944,-0.0850003,-0.12265419,-0.12461843,0.061687127,-0.04811396,-0.22142476,0.05669092,-0.057409763,0.019085713,0.03866932,0.08255245,0.22616033,0.09183727,0.076370254,-0.02176202,-0.19494283,0.0372631,0.050186526,0.19007923,-0.02204251,0.1867171,0.15628898,-0.11091444,-0.11200205,0.04874961,0.0727075,-0.02212736,-0.13573688,-0.22266082,0.08834891,0.0763877,0.05863708,-0.06802892,0.10193267,-0.007764913,0.13676304,0.22835529,0.013241266,0.15912586,0.0040154927,-0.11051476,-0.2679882,0.17773312
