-123040,72153,-145695,-177640,-71587,-182347,-147782,-51308,-109541,-148442,-111836,-29011,-198816,-93849,47973,205701,-197582,-187782,-53417,108164,-159757,44623,-116614,119117,76294,-45559,-100367,119596,-171172,136126,49112,53068,-23935,31316,-170256,86640,-47972,-150318,-63487,142375,-130258,93792,-20420,-48681,169667,209536,-198160,61949,129718,123201,40777,51692,-8174,93278,132457,109486,85290,57151,155752,70351,-43500,-24236,-184136,-17104,-111415,74063,-68264,-13894,-124003,108420,-205207,74032,-51511,111477,160690,159121,96793,29542,46851,-159292,208367,-5961,86031,80861,98369,-137156,-77923,45482,-100561,-78687,115254,-139920,167887,-99837,-41638,57534,192039,-216738,-223010,-144011,190181,189996,215710,14363,44622,-8851,54884,-41414,35855,129792,-97529,-173370,197450,8558,-24784,-60078,-71688,26347,103856,117139,166242,-240243,-245949,117828,-89178,-118033,-208902,87905,-59400,-168975,177480,-118127,129216,191732,231567,-143584,99915,-175039,-96107,-192307,-6698,17418,-19704,-57003,122722,-53935,3209,-126735,164905,-199353,-225459,102410,-248990,-128042,-105012,62760,-29899,-8872,-33346,18769,167743,-129536,109591,178438,41254,89452,-81429,-139528,116220,-116118,-107133,15606,-167700,-201460,-6045,-173843,98477,-239945,67086,-211142,60713,-35857,-76968,96561,-174579,29215,-180481,-186099,-113197,230330,52387,241698,89460,158187,166903,-29511,-105318,1709,-205520,-163726,-22006,-85430,-57731,-184028,133949,99195,191963,-138776,75408,150278,-118442,172718,-26135,53653,-95337,-37080,6957,64193,163679,-996,33241,-117085,-10883,76278,21964,23942,-128488,-73268,-177274,-186118,-5593,-214355,89726,143117,165467,-305,-3534,166321,-116287,6799,166989,-91832,62479,125984,-164845,127174,4851,-145357,183408,124981,-143152,-170483,184622,-68650,168919,-204374,24891,-39270,12152,-76221,109797,204748,74835,159395,-128679,203806,39929,-164394,-112671,193607,52783,-96406,29850,72255,2665,-194127,-99512,90130,154392,-118538,-65645,-10267,-17893,-98023,128876,12059,-116721,107926,-81644,-55364,-44492,101358,-8924,106490,145017,-121119,214072,220611,180039,123705,122715,93257,-13849,-100540,-11895,-127597,177733,-56798,173875,47746,-211865,164261,4298,136302,-160520,156788,-27272,-47761,150806,362700,-56766,-102832,-20063,-162911,-108839,145124,54600,24047,174993,207066,-136860,189743,-172077,-57593,21834,-69918,122005,-46201,193497,-197745,-67644,-60974,7960,-25993,256377,-9252,216361,221945,207027,-161303,-68351,62089,-63856,-93340,-98847,151509,130807,16850,152626,-158317,-56016,50982,194269,-40371,112526,-204979,-55194,-193822,51260,-85398,193964,106678,225807,311119,108060,59354,189103,74243,7430,-191813,199433,189042,224734,-98365,135541,-101749,221296,-78693,-68714,81926,-35966,102438,-54907,-198168,-119210,-122487,220369,183432,309359,3190,284387,286056,83330,-28017,-67519,-105695,-199721,-160262,276599,71494,254624,222683,148073,213504,-96080,-142755,90901,141056,71045,165386,-130086,-169816,6755,32771,103062,146290,174403,11848,137044,232165,-32923,9975,-184465,51675,-232228,-49814,188107,-86106,-61263,33540,130353,224487,140363,32671,-88793,208676,173375,197411,-88149,131502,-115830,81962,131873,-21135,-50809,-10796,-112520,24400,104100,190765,-154219,42957,-40111,-76527,168715,125780,249975,76598,108939,-67644,-90011,-72712,160845,-184173,-65639,168303,204083,-137814,-63673,-132900,68185,35515,-139133,150998,88101,-7735,226335,-176205,84655,-127619,108707,-143792,123134,111881,29504,-116207,-90169,-118952,-56757,-18702,67882,-227877,82482,-177141,135484,-202053,121355,93454,-256340,-11286,156064,12862,200142,102282,-216189,79661,73985,-177636,-62986,198378,-66748,-14779,90391,-76858,-48760,-134413,120745,-10843,160944,171567,-179236,56759,-34184,-3111,-83862,71930,29401,-8533,-7826,106228,-244168,-220240,120350,76223,-79941,39858,238719,-46319,-32169,-131599,-74330,-96377,-179633,108201,-36703,122250,-171410,-16382,-88099,44303,-92001,-64880,-117389,-5069,-189826,-153540,-179273,-101937,30438,3121,58842,-36124,184288,97376,90715,206033,-154313,111010,22653,38369,-228173,-236023,-103103,27162,82540,27565,-162339,-85101,74647,-72447,140632,-59711,9376,142322,-192463,82236,-156268,-130685,203385,19191,-107137,173670,-132259,255600,-26192,-72674,9792,94765,143046,89018,-54538,95683,-186155,-177072,67391,153059,-207503,95403,-79611,-151113,130398,-36703,-109173,-96763,-16082,-50013,-100566,23272,215402,256225,224080,-111966,64551,27674,-115995,96633,-43739,-38260,-82435,93261,-42034,202007,106602,2746,191600,147394,194913,38713,-60740,-226490,101494,-122598,14054,35062,210634,93963,28156,155992,45885,86511,-142428,-142172,-66390,27176,139480,184510,126041,-175388,29151,86566,-157972,182892,120081,-114577,58724,118194,69003,151265,3667,200790,20178,123945,-15486,19466,-175350,-20236,-1428,154437,76847,-82327,-158668,-709,-164424,-143018,-140888,-142282,-58577,148842,91350,-84409,-65688,-173858,-30454,-70450,-160516,-135595,48273,3719,29315,33470,76145,-1446,173039,-24437,130701,-167973,9524,-19049,-123648,-13369,-188138,-58899,41096,126296,56898,-24420,7194,174112,-146219,161371,-30716,-199374,49013,-110388,-98168,132022,6964,5610,-57475,43924,183121,109923,-73617,-37488,-158243,-184984,57614,200667,-101558,-35630,60748,135133,-109791,34625,40022,89598,94683,-190115,-181375,175637,104636,-68477,-85869,-36442,-16307,-69707,8946,-20046,-176844,-128066,86422,161469,-71115,90388,13758,-128007,-91259,58022,129814,-44342,119712,142377,39586,-180801,181954,-48024,-62206,97610,135735,213586,75579,190354,-127174,73877,92955,17842,101624,130277,72446,-185536,-107071,146662,-162044,-123185,8267,99562,-200920,141389,-154499,116486,-100322,-175228,-159851,201748,39921,152452,-16325,-142426,197055,26050,-34514,123706,36760,62155,-4333,-15551,-592,-108206,91467,-10772,-178788,8339,-17944,190305,-184030,-37168,197123,141133,-149541,-165744,204817,-21588,140188,-95948,-28530,-175279,26453,7788,131505,-10574,-39284,-27019,2109,93477,144344,-196627,184846,-133777,-171810,-152262,-43427,-93889,164689,-93894,64121,-43090,209700,177526,-44452,170736,142735,35478,-116405,-60601,-17362,-28937,112019,187972,-149939,-62686,-106902,-169169,121542,170154,-136758,215951,-108328,-167371,75023,65144,-88262,9771,149483,55748,-105438,182963,191266,-130225,175534,209976,34668,80632,114047,-174867,20828,40328,217651,-58562,153064,162283,-64172,-117912,-59413,10401,-73862,-42139,11763,-153941,212053,-165345,-90613,150986,22405,-14909,-164679,-30866,-163384,130207,-180736,200304,-10290,44874,-41162,148430,152353,201665,49049,71375,256308,119542,114153,16524,60966,-179812,85178,60831,132984,99530,82217,173553,82239,110781,137495,-184994,117463,187706,104960,153240,124070,97643,198568,-22714,93502,-141459,-25609,264416,204166,15165,10088,170846,67874,-53279,126231,141887,118769,-181260,123696,182928,144196,-165575,-27167,-179233,72993,-205303,-119447,161039,30811,162131,-85160,-69583,-12017,-151762,199272,102536,-10011,29623,161886,50956,142585,129477,-149925,-53127,129563,157711,73707,-58220,195567,-201826,-108201,8170,11285,8160,38504,-169123,-223936,-40721,-168477,-76578,-214008,-190331,47953,101256,-141631,207635,225621,-193932,140221,-120076,-41964,22625,-42868,-34649,-68191,-49139,-89436,-177790,-181722,211038,64177,22277,-156888,-169859,35210,78889,-112358,-37530,-100274,-97750,157443,160919,-6406,45439,-187104,-240321,-72852,6642,-12443,47650,80871,-128340,-4035,-172211,-12271,-25880,-130726,180728,-51979,-198376,-176658,-140326,35211,-7411,-118148,143368,-204105,-120278,136197,-170436,-77422,1050,-124099,-88765,68424,129112,-203296,22676,-102879,197431,173273,-213784,-170301,15253,8371,83202,187582,51323,179073,-2176,25709,-170816,22046,27058,48451,-6529,-49115,-100780,-193207,89638,-95478,126930,-62344,-132582,-220774,154976,37269,-90944,6342,126461,162172,196064,-151536,-76171,-79031,31731,150047,-30085,91599,170420,177626,-72448,111151,179698,-119226,-120399,67024,122870,-142111,-162379,143475,-207225,-104563,90208,-41717,205744,-139252,201114,69282,-115315,-151285,-94577,176049,-159833,104075,133858,144309,84416,113326,203764,-31638,324905,216479,67797,-135600,149983,22591,85016,205553,-218705,159809,11795,214906,182780,-163064,160938,200487,17114,3537,-67841,-153256,128230,-123745,92907,-65335,123936,-61987,300943,72006,285510,304554,56034,255070,169505,-84298,39444,34947,-36627,145556,-126323,-174297,197449,-68132,18436,-138031,-60891,168057,-10885,-150548,-99754,143634,100143,-145409,47446,172757,206941,272076,-34187,45842,48005,-190463,-3255,103446,207137,-84939,78870,-119836,-132351,-16225,155544,193454,-115820,182571,80419,-75697,37046,-54756,-80320,-54991,194165,150089,240882,-68075,263041,245575,-109147,-7268,-214062,19330,64509,-44883,-98738,93013,223572,174770,235822,-150114,142094,85568,40288,-7384,129341,-32800,-182613,-27723,26054,-138739,5628,218217,51667,154804,135321,166330,-19746,-105160,15990,-236476,-8801,146740,68443,-114088,137959,238147,-120473,-113132,-64180,85979,110941,-117864,-188911,51516,-138490,180224,-35130,91507,147044,47816,72856,167711,-139263,-161423,203540,29521,-237978,-129484,21337,-45209,30458,-24854,-60298,122447,228776,-30173,156473,-166351,-101415,-73217,135228,-50356,66302,62268,188850,50166,101028,130233,73664,17411,-133150,47823,-63946,118554,114983,7055,-103686,50711,125330,253012,243569,230214,123445,-41569,49503,-137726,-137786,164676,-30425,-59690,162463,64032,209919,96609,35892,-169876,141353,64635,126320,182167,102218,213642,211110,-30354,183814,118565,143295,199059,129885,-17110,79819,-90442,-47303,-48226,138404,70525,-83599,15502,-96285,66668,81031,-193040,154852,59366,-45900,70786,-116645,71796,-88629,-38110,236229,1815,184854,210261,36829,27815,38884,12367,-87575,90740,78476,210473,-59327,-200087,47976,200206,-126510,-114171,-84276,118906,218371,-195765,-154606,74751,110536,-188304,-64418,57350,-152964,203110,-7937,-69347,-170991,-64226,9635,-112277,-75835,130944,143113,-140747,100478,-172804,-13232,27287,-34418,117719,-32341,-103572,131725,-17305,-211560,104011,80356,48580,-58780,39338,69728,124685,-177987,-209861,119515,208726,120626,194576,-101428,-10498,-39774,170692,-83026,121697,-8966,-132353,-146971,-77500,1405,-42751,-3324,23462,51469,-24548,-122631,-127046,-9664,123880,-8084,129881,173078,111544,117569,193839,216480,-208553,218336,96603,-140405,184151,172631,-60966,-181277,-116373,-75640,168822,118924,42090,176819,-102914,140084,-103778,147179,185970,71072,-114504,-155400,52935,-11682,-157267,-184878,156079,8632,-124644,68638,-14499,84304,-24796,-194749,-213307,34014,14901,-42656,41248,-116258,-60685,98696,47028,-86765,-84366,-202593,-58698,-56366,30989,137734,-45126,79916,25796,-44097,112621,117514,-61961,67856,-107236,-179251,-110312,-80135,-80790,-139734,68755,-163451,32053,-27440,38081,11854,-182604,121750,-206380,77110,210946,-71890,-56622,87462,96487,208715,194460,64186,11033,170134,145600,96161,-7715,99193,-8464,59682,85796,44848,-115752,-201536,-5974,-165700,-110903,137993,-35116,125722,-11425,136503,-192543,-88796,96830,58309,150573,109745,103335,3152,-209881,27166,-184417,6345,112049,-118160,72263,-91871,153072,123513,-204306,-138437,-173770,27720,26138,107165,-82439,136501,-181232,-175805,-44718,-141923,117865,198441,-179444,-143575,-23940,-135396,62760,150535,174375,-97807,154980,-38278,-150442,-96352,-31755,68236,203988,-48797,77225,-102343,20671,166432,99222,-41025,-85659,184423,166871,128398,161246,-71907,-108614,156423,170007,-46248,-44223,4303,-49204,80295,-129758,207349,72755,-65658,9807,167461,174154,109807,172458,-69985,102137,195059,191079,213043,-172470,28228,-194621,17255,-76882,205805,101854,102149,8933,-85929,-63249,-15256,21581,-208565,65785,21495,201255,-154058,-84174,-19490,185731,-129098,-150086,82996,-63033,60350,126894,-98451,-113157,131255,142227,151811,43419,-219924,-189500,-131447,-53953,52212,-12691,-4621,202357,55027,-139916,-169041,-180541,-93759,122627,-113837,-33305,59986,184126,-101489,40804,-132417,-175331,139260,-89918,186395,-129406,-43938,-32344,75583,16885,-5651,-125509,-76219,-218518,99607,-192402,-91720,131971,-133005,104700,203578,-20517,-209857,106091,-168708,108648,199881,170124,161088,103773,-33850,29260,-137433,-133164,-115763,-111727,-204307,-31380,-183750,-54370,169169,-96045,179616,29156,71268,-200474,110858,-72039,-153492,-49460,34577,172378,-48184,187986,63645,61451,100698,65765,54463,-164808,-84773,5727,125126,-18345,-93527,-142282,185581,29871,18564,188887,-110185,44182,136506,-79644,-111797,-169242,-123521,-90482,-23700,12534,-98568,-134312,-142382,149756,-192476,72060,-147717,-117518,-188289,123799,33427,-53933,-160683,-57074,171692,42642,34809,87543,85968,1008,-90242,232892,-151233,96756,32979,30382,180980,-51767,178447,-24647,4180,-95043,86517,164469,-13833,-49653,63559,-127486,-152768,176329,202803,-153438,14094,205264,157083,-86425,189300,118579,170022,-23846,-100566,80073,20247,-113949,114069,-208588,73861,-94247,124045,-66891,66178,207287,-122398,-95539,-201993,94480,-33661,219873,-189191,201783,66733,174864,193306,-200792,-120978,11441,174649,-116269,-154188,-54106,-150260,-145431,181461,5569,-193991,-32803,-149226,103240,-53108,-214997,148828,156084,-69485,192597,126259,116927,-284,-159688,146341,21893,-158885,-117128,-7227,125513,159669,-1902,-40570,154902,-124898,94134,58583,-160323,40769,28735,-21333,114522,2381,48229,-143219,-119718,-24936,-164067,107021,204201,-126480,-15251,-176662,12931,139208,-76697,-52804,54129,-153927,-157476,-171759,-79964,-106251,112921,160546,-57568,128184,121040,-205619,-1350,-25015,-201929,168286,-35467,134305,160681,-91076,-84559,169059,-91371,88712,43176,71497,35624,83090,-22697,-186030,-134169,-129216,166438,52363,73034,-164971,-55668,-856,-94510,108607,-29372,85553,-94662,17587,153333,98008,-71863,-1855,156601,77078,130646,25876,-30562,144510,166324,123075,-70920,180052,37527,-159757,-97005,-102417,-32641,159661,94044,53437,6640,-194755,-173962,-139401,130195,196672,198504,-41862,-112848,-76366,158469,-115083,156306,-207753,-192413,-31546,-211070,-70681,-20512,98577,-20650,62395,192620,165020,154142,161326,-135200,84502,38001,20173,72279,97497,-17845,-87323,-142918,57652,319,-68495,53308,-183310,-206926,179104,-146469,-87973,93828,182577,-165858,78290,-172709,192962,196834,-37562,-153540,-102581,45141,-28294,-100218,-144618,-85024,-13839,47770,188302,-54390,-69812,181551,-96438,-37713,94019,41148,-64639,-145361,-94607,-182828,-84670,-52332,146004,9086,-39445,-71739,151577,-14677,-175517,74040,30799,95481,-65656,197733,-83726,28412,-61594,1682,-18853,-82662,151066,70741,20886,128544,33437,136982,105775,-162084,-47459,78326,-60320,36069,-132440,-84492,-165043,-168202,52242,49700,147966,-136766,119244,-28515,9270,-92230,-195389,-196268,-134821,-23948,-201777,-164034,171484,61215,50250,133724,-64162,159502,-22658,120114,-165001,133996,209471,-56636,183653,-104749,-142181,-45095,2357,184683,14470,11410,-162466,-90344,-180656,-123608,-41996,-130868,73327,209636,33998,-92744,-78196,52073,-20555,-199885,-210684,202812,-21996,80397,-201868,-175219,-73789,-33850,190424,128383,117231,-86756,51351,87945,-79967,30586,163441,50476,-176598,144650,-23166,73580,109467,77906,48596,-81290,28724,-154327,-120782,10469,-96488,-63712,62903,57059,155829,-134345,-47990,-88610,-7175,166912,18433,36772,-159082,7384,24344,88733,96717,-25686,-102803,-81074,-168452,-169283,85280,-45535,203378,88849,-74802,-173195,16032,64100,170046,-139805,48633,15833,120771,-172668,-124116,-33701,-44024,-103524,-207930,-80353,19354,41796,221687,73883,-79267,-43630,-66131,132711,150334,75415,165122,-156955,-24956,-105171,148833,-197141,-10084,30153,81110,-35577,-37169,72121,-104849,-182156,-22895,9737,-164008,-155515,216931,-103668,223143,-176687,-173813,35007,-131962,151102,-184865,80677,-99039,-138674,-90919,-52854,-132911,-19792,-138483,-24866,6522,94575,-71760,88181,59345,-107332,-113099,169979,-100645,13077,129982,209559,159947,179385,153636,-103520,-143244,-59618,26990,198461,118067,-99904,-5420,-6297,-7959,-120368,127293,144043,148872,48779,-111700,158300,-52202,45130,-42755,-168760,117160,120337,-151899,59901,176419,-187069,-157630,10936,-55401,-206674,81134,156199,99320,-31394,-52663,86584,103534,-183404,-166899,-84842,-30084,-138258,-7272,79870,164071,79292,-137097,-44710,-14416,166163,83198,107236,47153,9308,10790,154275,-10594,-38615,177112,95850,105579,-119560,-173099,-173177,41679,-109104,-198042,-210114,-92026,-100803,214786,143815,-108270,-17088,58212,-84622,-47102,-196424,-28061,132380,-73618,-201750,166147,138345,-117764,24010,-54437,118084,-64755,124689,-201337,-1059,149307,65515,85909,-68265,-195360,-125149,-59001,-19243,-50231,126055,-159575,-177109,27467,-171841,173410,-208888,149728,-29555,-184722,-121623,84354,3767,199149,-215715,-59491,-176907,-125961,-92287,-64062,-121631,-33689,-24100,-120607,-159746,-81724,-176935,-179778,-40942,43359,-15305,-64297,156937,11027,-44811,171465,-185533,-13330,-62148,-129413,-19038,175180,47570,158931,-160715,-78178,127962,-129567,-61310,174806,199791,115778,77290,-14633,-29305,-35212,-209558,188039,65266,-38938,151022,76960,-197814,-212778,-160905,75584,-146603,-847,-204540,168379,74202,-96286,199859,98699,167785,190347,20332,-52067,145538,-14810,211778,32962,-107786,-136630,129575,-8729,-163163,198160,-167626,214654,95232,110054,-134582,-95100,-40081,152806,-204938,-72344,184071,-158510,25887,-58319,-37005,13112,-201251,-201924,53059,-185954,-35764,-83701,111459,34607,195717,-194581,-23756,-211993,-66770,17320,-13067,-178556,87552,-121981,-209924,-193851,161845,-138103,192421,-97519,-136847,111389,113276,156032,-74383,197683,29503,47203,65758,164206,-111589,198200,-4717,-42528,15573,-27564,-32528,7261,147117,-126836,71168,-126883,106163,199986,-96278,19355,-175246,35818,65783,-219375,-148126,-143269,-89359,-110159,-167477,72072,301,-141882,26148,-86843,-105600,175858,-34257,167829,81242,-167314,-52935,-74596,135303,206939,-148419,158113,122388,-170400,-122441,50549,187979,-17775,160689,-101913,155022,-98356,-105161,-168515,32587,-54039,89183,145068,-202133,144799,83853,144794,-161924,-112535,225807,42516,116839,-27343,115947,12254,-52153,224737,100673,-143334,-4758,-13909,97319,190406,17507,-177977,-165506,-119299,-27881,-115199,7682,-121686,106840,-196192,76561,215510,193568,251582,8725,188084,151632,139900,183907,58831,80059,-47577,-123466,189348,64446,-185108,166680,-47251,109391,5526,165537,172562,-68674,-26606,-156180,187801,27145,193105,-166036,218223,37713,129262,-90518,210825,-145628,36811,-35448,-112296,36457,122140,-75644,157513,-59959,239344,-27360,94524,202740,-68433,-17300,59841,166053,163119,209081,80854,171001,-164752,74053,103696,75467,13951,29546,193761,-46002,-67653,-177772,63983,-125332,162974,-147344,-14927,64018,234043,195408,124842,-161122,126127,-203023,91938,37488,-57417,-47990,-189590,100855,-82632,166857,-65210,-165438,-37256,162241,-194559,-193877,161846,-198581,-203761,115960,72291,-9216,-92877,-142479,249194,180743,83843,102483,56152,-143642,72777,123660,-176912,17519,-185492,132621,173293,-187555,-113900,-202570,-121227,-166601,107609,-122384,-65936,31744,20749,75195,-205831,-29620,41521,-74139,204187,-197342,83776,97739,-171693,-170768,144795,-154182,-123502,-89579,-212993,-30333,53564,2498,-139836,-189756,-26874,-2967,159980,32044,-82227,74809,138465,-36325,-149497,-55927,-1962,225208,-73420,16351,-152577,197960,-220937,-175225,200281,33017,-141545,-103932,44262,188250,-192655,-148507,-38888,9349,126904,-225887,23656,-210040,3580,-51457,147114,-43260,124825,-86550,-79011,186538,208644,140538,-29933,103879,55014,160355,105888,-171913,-171783,165662,-208002,-119168,-133565,-101853,-165665,-210384,70990,-92014,174463,-56277,-189579,-171137,65745,170500,-83368,-85298,135182,210438,-112643,399,173426,59854,64883,168545,39382,-75327,22021,-52365,-17959,95175,-62101,150532,24850,65108,187364,75570,-12515,-194151,-40223,-37716,-101546,116888,-121766,-93608,-140851,232389,17197,-127941,127605,191601,93329,-11484,94093,-79391,105670,-157360,123167,68142,-100474,-9307,136949,-214159,94293,91802,80252,209189,65340,-10294,57824,107040,-166819,108268,181335,25149,206151,4183,72923,-75609,-72911,-74740,1222,-107630,-169457,110854,25190,49688,-112173,-112344,56047,24655,-146736,151636,-51781,-49169,-84642,7214,34654,189942,86516,-46867,162836,140532,-4673,155521,-214029,114586,-93741,-34962,213565,98550,-144392,-212172,-178023,12451,8443,156148,208480,-92148,128710,-42832,169947,-130621,-193230,-89500,-78974,90420,-100698,-178706,-177213,-162300,-111580,-212088,-61186,-20019,-80036,-104804,131291,-44158,-206976,36480,-50971,-164805,46616,-61206,30850,141727,21480,55278,67610,-217225,112291,-42319,163796,134459,-47956,-67867,-151726,-30733,-83720,-17821,193062,-26644,216791,101710,111318,119688,-143711,209222,-150869,90120,-127011,-120786,101187,-169283,-105447,-59521,49643,-115716,122320,-137409,132965,78079,29698,-152938,-201956,-215226,-112538,27934,134582,-28197,-15464,-97839,-122925,-169535,-187599,-184591,48946,-57308,-177107,-7208,153517,77458,-212375,35879,92125,-199395,15678,168328,-145436,59303,105235,160920,-57250,-142638,-210259,-153202,154168,33061,64924,172052,-111704,-108249,212208,-211071,66684,133804,72342,44023,-134718,-92652,80817,219377,162846,197660,-31790,171195,140275,364,125784,-147989,-131316,-120961,144248,100509,155187,177385,58671,181292,-53277,-159139,-71735,-144558,-201573,-142967,1548,118320,-203543,-92922,195854,187237,-140838,-145447,-19895,-107159,-74268,126459,-54107,-29482,-122490,31916,-173570,-181420,165533,-57712,-7067,-210466,25200,172319,-175955,207666,61855,202366,-124452,-206686,-147070,157818,12588,-63960,93034,199684,53945,84930,66065,111747,-65645,163495,188856,159915,-7931,-170284,-145727,-73812,-143075,-99993,-95207,-15821,73054,-19042,-13986,-184254,211666,162815,212949,-199003,147146,85522,-33745,-147160,146222,-206177,-163399,52863,54829,-140668,163963,-1720,-80873,89726,154845,-88580,-125315,-169301,-45348,70604,-164090,-136919,-19509,105938,-114315,-63660,-63618,89653,-41950,-171444,154942,168527,141715,-63700,64030,-89911,142711,53261,215294,-206555,-87375,-93313,-206379,-106707,-18011,-116619,119374,-137400,-176114,-18575,-75889,-43923,138906,64658,-64615,153269,28855,137372,154900,-7489,178229,156925,42988,-152127,-48928,33980,-43165,51077,-117015,-131059,-84646,-142647,105427,142725,-126913,-106688,202849,16947,126208,-104763,-69288,194477,-180941,-12621,-132747,151463,-69352,178782,-140513,2276,-174451,-198346,196959,-170803,17069,-76057,185933,12522,150036,145826,-201497,-49822,111432,-100271,-129081,-166697,103383,13660,103726,-55408,20612,75636,41716,214061,16318,-201226,-182205,180578,158322,134477,153790,179859,60106,-33518,-187052,-42484,-180694,173446,-104556,-207810,40353,-144668,211542,168873,69083,193649,-49462,-108744,144361,-112068,3504,-50929,-98031,201260,145008,104115,258899,-102680,-18253,210068,220029,-46912,-29472,-71356,-73416,159927,-71261,-100339,182999,167686,184564,-209660,47123,97869,-58019,-26481,-138020,11533,196562,139629,-175525,226997,-64174,-111894,164968,-49649,-74112,212830,264678,238888,-9904,136503,-111274,78065,62874,-24379,-113562,62603,16280,-156979,76908,31703,-61308,143593,16256,-117242,177931,188978,21272,-143239,229930,-32389,227857,-131051,114086,201785,-117329,-10992,119812,-58689,144067,-115860,18325,-106867,13415,139134,86890,-171341,-98450,-56993,186308,153686,-129003,195003,-83723,112938,218153,26112,-93418,-28781,254946,141942,191871,47006,-7138,-20993,-185219,116986,-42623,26568,-187885,356,-173039,191073,21984,3025,81364,-180047,-90661,178622,-24180,-107274,171049,79952,132858,122860,-162729,72150,-118919,-122558,-31110,197520,106997,155179,58678,-62215,-109959,139968,108225,-187553,124524,110803,49999,143773,94008,10084,85595,1905,70670,147105,-45528,-104152,79915,-62474,207200,115803,273099,-57728,-45985,-158427,-63917,106712,-129250,41963,225621,194884,220436,31931,-66931,216214,-81464,-104192,144402,-1229,-3381,-135203,-2865,170839,-62805,182523,-48377,-127267,-181683,197548,-154451,264847,292469,-151614,-169764,87712,-116634,-136392,63664,25658,-42973,221831,-9921,218123,-173040,170963,-32818,-126425,-7788,213189,148003,-241,-179926,-184414,83237,106007,-51846,-176426,218921,-39019,269878,107627,-59824,-9996,151686,-116915,176897,-109681,39248,177942,-94062,196812,-84359,-116344,65647,127543,-133115,-185246,17077,-231745,-92006,118340,-230525,48709,-245489,-9910,-84320,108145,104123,5483,-104122,152441,-182061,37466,-46224,-218358,-43491,-136925,-100018,-156748,-159748,98375,-38784,-108321,144609,54496,108840,-213067,-176890,-197424,-73556,-90899,-157880,-78692,309551,32485,222157,92675,-8944,-206197,133630,-99781,148990,-117798,-129211,-81111,-64534,-37326,-66728,-4961,92614,67805,210116,-54479,-203215,-80475,116579,-49359,-231062,-242869,-232848,83430,118029,328620,177960,13459,-34345,-135356,146563,-70416,48500,-52105,-176979,-63476,-31692,190892,106431,137196,207371,109991,91295,20261,-118986,-100530,-130619,-200106,-79427,-89742,170106,63058,155663,347977,54459,-92605,-79975,-149944,48222,-77713,160584,-163549,-198158,-215283,111750,-111092,-205395,31202,63890,122956,-165812,23607,137936,-252005,-27327,96323,53241,-231271,141327,59182,113329,46920,-179742,-176250,-159378,-217812,38476,117824,-28892,-167883,-139374,-63552,187920,-121736,-160097,121063,-94860,-172662,125656,769,135402,-65964,-137833,-197086,-220976,198768,227059,171131,12530,184469,33027,31361,10241,-45460,-71962,-91200,-173237,-156603,224747,176601,-113977,162932,97421,-151713,181463,-67678,-183468,-192648,45492,-84220,-21950,64159,215721,-16913,105546,2147,265577,31785,177162,82926,193955,49544,161512,101169,65166,116546,17942,-39358,1368,211538,-162836,177643,-20443,-114901,73912,-80792,-118501,171368,246643,171524,208381,235056,93051,122308,46098,3966,-79055,-140343,14326,214803,72561,187065,65591,5714,-190296,148156,-122511,-71671,108090,41102,114072,-126596,-77062,209542,200765,81754,-84581,53340,283671,78827,209260,217147,-15599,-128547,-84796,77166,-163608,156064,-42289,132286,-124119,116473,54082,-172848,159676,-189592,201651,-82666,140135,99759,-103854,136090,-78008,178920,161135,-28323,48032,-66573,143105,-117699,168576,-44660,-38116,231906,240842,200994,204458,-118120,-49583,-206698,90554,-156604,-210965,116362,-36945,162504,-6723,140518,80798,190430,-174362,-127993,50135,275462,-87406,-13777,40274,244583,-25071,235421,124252,-24995,-141982,112428,-89880,-125768,-25854,121980,-180498,137659,136956,-203001,16362,41118,166210,92619,-134757,102493,-115880,-132236,98092,10279,-171014,116668,15653,183314,42805,236069,-27775,172844,175846,-193741,-52171,-99016,199181,75099,189866,-14973,112902,-199388,-77054,-172290,-137215,-70790,82347,-172951,-77547,183589,-166303,51897,-146570,25224,-138229,-47256,161675,136404,198764,-168753,-194202,-44710,20463,121593,-48892,190908,-101837,-164490,80823,149542,-172653,127446,163033,84241,174147,140614,140484,-79923,-37428,96470,33731,202792,-210477,-142117,93398,57879,120295,-134241,101069,151162,38920,-9697,-50298,93442,96674,137525,33285,201120,-48344,-161291,174505,4684,-214872,149878,-39547,16428,-121794,181037,-144672,3962,192608,200964,-152131,-45980,-112775,-82861,216999,127540,-160461,-188282,-111473,153370,-82559,-196045,186787,189926,145122,-160582,-49992,-194862,-147497,-10034,115844,-132924,-49197,124542,208468,101716,148340,198539,58657,92672,-112836,50660,-103218,-79491,43528,134638,-182398,139888,-79980,-108358,29935,129426,-138009,-153809,-21279,87021,-33840,-164767,-34701,-113920,-31308,-83011,169578,170396,-109078,-13952,-54101,-43794,-96146,-37778,-175917,149939,40935,-73134,138545,176882,214355,-120943,83415,84919,-18642,181519,-63996,177452,122178,-171196,-13491,-68406,209928,-151614,-121668,-153486,-627,174807,-73681,132575,194205,-106805,206199,-136091,-202738,-5025,215470,114292,178700,-120699,-17998,45183,90816,212399,127866,156380,-2195,140582,48919,199881,-60298,52351,-214436,99293,202002,-195115,-195944,110839,89486,-163517,-65534,202063,-38880,37260,126299,-49235,188280,-213038,187883,-1865,165788,175987,-214203,-92351,57063,-169888,-122964,-131907,-101917,-1464,-82987,55624,-132512,-209029,-131215,215448,31216,-197303,-114327,48496,-110572,160128,-210371,-55360,2551,90684,132698,186038,100528,196889,-78543,30382,-23830,-146648,-194672,-134454,110106,214480,-202004,53846,-103232,127867,170512,-42023,-47046,-75177,20729,-155764,24328,-198303,-192268,-159395,-185135,-72426,123454,-96618,-171355,172066,159355,-179764,182801,-159162,76318,-6092,175548,78507,-210148,174865,97120,157113,-122755,16025,149964,-1683,-159071,183264,-202784,-173887,-142971,164577,-7846,7611,-42056,1623,116065,-84514,-70231,188891,-55357,125784,27461,47170,174344,72619,120470,2103,8615,-65649,-94334,81429,-164015,-203037,-155560,36641,-89453,-57707,-46902,142933,-65334,-159825,23349,-94068,-124086,113307,-68029,-139487,-184123,125210,-40125,182526,-77744,-150375,-161359,72293,103442,11158,8315,-121314,-135533,76346,28760,115428,124370,-76918,-187502,-48763,80233,199117,-131237,51152,28450,37180,198690,-2063,193896,-75724,160574,-161497,216147,-16015,113024,26010,57121,59876,-34265,225129,-85422,-115663,91556,-75099,124655,141938,-112165,99432,76313,-115901,-29331,62787,63115,-92530,-103492,58871,103989,34472,-99607,-84719,126059,9915,54397,117041,-78398,-108568,-189589,-9174,207535,-167746,-12472,-166840,-73547,164453,181648,21371,173739,176937,-117823,210340,139740,12995,105762,-160480,36919,-165298,146685,174234,48143,-46969,76391,-33049,-193405,189586,55483,80869,-107858,206994,-96963,177971,1693,-206874,90780,100566,148066,-121882,-16420,-79088,-129935,-78523,172316,162990,139872,-105682,9608,-92402,149321,-132168,-209031,111169,-166302,223942,-55353,116753,-3071,-18655,-178377,163698,-135197,123174,-10183,12992,1567,209287,-105708,65526,122425,-47743,-135902,176741,99011,-115565,155765,30880,-43879,-180281,-65506,90327,-111860,-19089,-35795,21788,84057,15075,-112942,69470,39289,142868,-49556,212650,192605,57554,29076,92390,-127752,-170996,174894,13431,-58138,98545,169540,162667,-215643,20047,188,-146036,-23379,-192227,-47584,144515,-40999,122802,-183544,-212061,30916,-191824,-20325,-169066,-210409,57569,-185941,-170720,176062,6903,-59078,193812,59215,-213085,90809,31025,-20170,2658,-129033,21772,-91560,-104370,-190516,-146538,-70686,-207979,168696,94689,26355,183639,8626,-162421,-52404,-200469,-117976,-25267,118075,26357,-88966,54862,-42660,-207774,-106388,64749,-109896,37219,-45616,-85145,-201926,-155081,-150028,37259,33911,63777,143906,-171246,-92436,-93134,95369,69479,-128297,128677,-58893,1662,84567,189968,26079,54025,-29759,30633,-64941,-85365,-126744,145931,64389,205224,121276,-194654,145102,218423,81119,103214,15341,-60387,59136,-121127,21912,-175996,-68452,-72929,-105502,153227,-83797,-81551,53173,-189602,6391,117341,-8398,-101328,210362,170060,-161045,-187862,-116485,-180676,-159880,10922,-71388,200605,163990,-47099,-184307,-75651,165017,-125632,-25276,-113975,151982,182490,47049,120333,-132571,146245,145126,77599,124740,-2197,182968,-70436,-209988,64829,159403,-131128,193422,-48151,40298,53257,-93022,6821,-176032,29585,-142492,-106907,-64987,139099,189798,-49984,-131526,211553,-67706,-128693,130367,-182208,-133258,-78603,-674,126756,-160783,-112374,-171401,132572,-190700,-151887,-61116,166946,47552,-55703,-24736,166804,-156237,-136744,-214980,62964,122368,-211876,-44801,117801,18840,108480,76926,-17125,-163086,-149180,60863,204377,-146041,-178429,100376,-173537,-170598,-7763,-25379,-94569,-154063,18577,-85024,-69056,104154,122886,-213606,176274,-6017,-82977,159087,70978,-1445,-120554,-82375,214740,82739,185375,-142457,215232,85528,-209035,-194040,46811,-214124,-157643,27994,-76887,155515,192664,-31059,-144775,-200072,-90158,-55937,-194433,112554,142784,182283,-110154,211100,-28644,-135863,102842,-154362,-175478,93085,-172483,-168342,156336,-177915,145070,-67530,-106690,93477,118495,-195112,125720,178057,60216,-209523,209316,215516,-196124,-192808,-213603,-8672,126833,8091,-63074,-135113,-87464,-22759,136664,-9492,-165659,-197250,151262,-111919,39965,125277,66425,-145125,-45230,188879,201995,-38569,-156636,152927,44075,173636,26570,49223,4022,-102963,-120790,-56070,52999,147300,182007,-137275,79387,-138340,-209683,75281,196160,-180211,-203187,86612,-104275,1647,-190102,-18066,110296,-124405,-155312,172561,163376,40710,93055,196503,-68573,61085,214374,-40177,-135418,201529,-169061,-59428,-174667,-176674,-39768,38387,-193970,-106122,-130828,-61307,-95056,175765,217779,14329,142297,-129685,-34117,-60664,109115,177792,51060,178346,90219,-99668,41544,-112553,19524,-81493,200161,-87848,136777,156644,193061,-170142,-4442,-117919,161958,68821,-201922,-24960,-193459,194893,19663,-171840,-145658,117551,190605,209553,50810,-94715,35888,-210583,14156,16888,-153759,-46751,116315,151935,-61924,-40548,136647,14117,-58202,79179,-197478,-30287,52399,194603,108233,-31652,-159047,182315,-105493,36544,-87627,-84112,-13873,65804,-181608,-210783,213258,-3652,153638,-102074,-6274,132504,213815,84474,209584,-117026,-44231,19649,-77783,36539,-76642,54959,-7476,64595,-212380,-46312,-144450,-122165,96211,-78693,211013,159295,194637,137487,83486,57050,96538,45488,131456,-147926,-17863,-29226,-68547,137391,-127013,-22881,-75309,-39981,-88961,214122,-146194,-160139,214374,-113175,94806,26760,-93010,-31148,87695,24043,71401,-24360,120472,179459,-81704,-5212,118138,-151575,155780,114515,148174,202364,-70239,-10505,6853,-116857,202072,70313,-125061,-69268,131981,-66613,-89989,46284,41197,156500,-151780,148410,-97572,26331,-49716,161502,117394,-1127,180659,-56632,31324,-101584,-186071,131446,45686,-153971,-194542,147827,5492,219635,227741,164813,74848,214558,-53725,-186913,-204678,-169944,-177172,-192313,86171,-87832,-45066,-70953,103232,-60159,-190827,-194940,101592,8972,-159325,-127406,128192,148806,-10030,-163037,17885,-172034,141513,121425,-54376,-5617,-8410,23850,21188,-96041,-136426,22982,-187939,83502,-12918,-153574,168882,66078,-201528,-194440,182895,207919,-36704,-195173,-80359,-2416,127206,28180,198188,83129,22783,-243261,-92427,142802,-170831,145948,-121698,-211127,-93357,195728,-151156,152852,-65122,113554,-36139,-27235,132644,156348,-31240,149614,-79380,23980,-183041,-26384,-70779,155243,-176481,251491,-4523,-52544,-124688,-7241,-132252,-163698,40526,-79428,-100802,36042,47427,-187512,-168200,-180255,-14944,63878,90530,191374,-85538,-144979,-134294,-123960,-155617,174564,112554,41767,211703,111829,96417,260540,-122990,-55286,-274413,-77444,-116788,-197425,57389,-100222,81811,-23204,-157134,119443,-46458,-85314,118420,-182750,67158,-18204,98569,-136907,3248,-156064,75118,41432,72065,186332,177962,208030,-140114,-41467,-228648,-20230,-296733,-21571,-29903,-94405,-67155,-168069,33872,-95402,-179396,27262,-120580,-35220,-164621,44597,-113171,97073,-156113,-208338,-159065,-89263,-40357,119031,-20766,-90755,77495,-34261,59720,-272329,-158931,-224475,-64661,169621,-180324,83916,-29256,-31016,-77561,68940,-104958,62180,-176589,192181,-28198,101121,32624,57681,151862,-27913,-16365,139709,117868,234478,-126179,-133883,-73266,-157661,21082,-206180,-30206,-204640,161891,202442,16335,104553,172682,90148,-56030,1791,17707,-33601,29687,109079,-251396,-68407,-151505,-57811,196236,38585,37423,-104355,-3037,10920,-38547,-44303,-160338,-15960,-202980,-84816,-77931,-26731,202578,-124518,-169482,58026,-50015,201039,190857,-172523,-139266,40019,118174,-58229,-153592,136292,69710,359900,-13936,272808,92800,57875,4000,73369,-82525,61136,-55827,-203848,-135545,55888,-200411,48157,142995,10655,-210900,47853,-210756,136136,-51203,-63707,14866,-273294,-248643,-117098,352644,130287,315283,-95219,137752,46377,233393,126133,129895,26022,184737,148233,105913,61349,-198178,-213474,-47978,-66573,-202704,-199559,-57609,-153859,112804,-157993,145764,3738,-80387,-59447,-48306,-39889,215567,153643,-74805,74298,-25938,124206,-29493,160563,-117474,-159263,58774,144815,-59375,214515,213417,185277,157378,32620,-87916,33885,71643,108847,125227,55323,-194777,136900,159707,258539,225772,192806,219842,-84840,67418,-38851,91853,-47333,178435,-124754,175288,-7282,-118403,109375,95999,98245,207296,-29178,92524,-116087,6789,-76110,68266,116545,13981,174648,273046,198255,71739,144971,-123507,31431,-167391,-175993,97188,81065,-160981,-141156,-105600,145393,-152863,150792,-79912,-163529,13115,94281,87110,-109461,-75942,211618,-137565,-211638,-59668,86253,182675,-167550,171081,-184187,-156203,52625,212654,43926,72290,161233,-64534,98992,-74594,196309,-124299,-190180,-32514,-202693,-81624,95793,160196,-175328,-192647,192001,31405,106388,147658,-122748,242969,153015,-97462,-64968,221600,145843,-178107,20660,-68840,-118914,-224337,-94140,-45340,117413,86384,175082,115191,86179,89813,-59853,-249950,-187656,-168229,-77839,5127,136689,-118552,89241,234494,103738,51511,-73919,31580,225465,-175317,187089,45709,-121053,202671,194946,-112462,-5783,167670,-141001,-91256,13293,115842,-46665,-24061,-44995,-195354,-45873,129942,-126637,226131,214539,47513,272488,-104080,92702,-63854,125244,-219697,-25180,-150986,154793,-22076,-57788,-81844,11412,39914,119615,-10535,118595,198976,179153,164003,-92861,-123160,-214729,162228,110031,151279,-57589,-69219,-120069,-28487,-122899,104437,129696,-44774,133340,74406,-191276,112585,27720,125303,-148885,-153866,-104808,171806,9460,-157059,53286,177875,97095,155521,-143148,-166310,-122860,165030,-2629,172022,147133,149632,131065,-219318,-113467,13448,126408,93924,-126339,28544,-148144,-71212,-189714,-158055,48449,172999,188572,-60537,-195994,208284,2395,-181283,71564,35533,-150835,-209627,133679,-77634,-227729,29003,-79916,68817,77214,-77225,-156562,-7001,-97354,21348,-211570,-164450,-20591,123147,99651,112048,62935,-174145,191955,156987,92015,77276,-176353,110884,-138764,-192686,59385,-33034,188599,-153357,-85409,-95132,-110067,-140979,192942,138500,-178032,-19871,96264,106965,-175447,-117477,68039,154264,-5117,49184,-201705,-112772,129095,154378,168955,199118,-162787,53191,-165098,201088,142428,-106677,149930,132398,6045,-165928,-34318,-90367,181861,20408,205854,30924,-2724,21779,95409,6472,-34245,-41387,-170017,-86255,7961,142605,217079,124495,191624,-151545,100950,-21730,118682,4988,-25819,247,95125,-115244,210760,-33475,29804,107254,-45765,-196806,-189616,89948,50274,153468,-1920,169834,-28019,172717,-120951,-39298,-128000,202010,152770,86960,165768,-190087,70069,183984,-203704,206266,-177320,-153536,4675,123058,-23373,213468,82376,-38780,-103142,39986,146168,-197270,-23036,48080,-168506,179555,206783,30244,202267,-195728,-143585,164652,-215739,100033,139379,-203917,200595,-39504,64298,143936,-79431,-3179,-106411,29190,124764,108860,-74694,118804,-59429,-71202,-161300,51675,9402,-96881,73489,-40002,127617,-107981,17822,102975,-109524,-1928,-191033,-139316,-158905,-80778,129887,191875,-92470,-188622,8367,111809,71313,5242,167687,107563,44670,-30475,174678,-203686,52130,-168670,154195,168964,73197,162062,-156285,111265,-95531,59742,-127225,-47302,98498,-44966,-90476,-31755,198968,-110393,-48902,-161213,52755,107288,-174668,-163687,66703,-28697,178498,106523,-17250,-70740,-126592,-171887,169856,-55682,-23079,41777,-161914,-195832,60246,59122,-57388,-61695,-163866,115037,14862,-78548,134714,-122527,-165966,149188,99201,-3070,-175520,121048,-60794,-132671,51988,-208020,-86493,91706,-2771,-98731,29389,-124932,-185503,-42491,-132557,-85818,12187,39948,142948,-157061,59724,147950,-179756,-3679,170813,171122,29956,167457,149436,21290,167438,203547,137594,-66724,94851,58353,-67472,-29322,51244,-65630,61523,26424,29059,-164319,39636,-211580,-116361,-37300,-54541,-74265,99734,-124140,-103257,163646,-6074,-77488,-206005,-37979,-46194,153071,-38540,62666,88068,85321,-189750,-206231,-166730,-102871,7367,175216,-64154,156151,-4496,-159174,-52360,-30114,-118924,58023,-39223,-79862,163631,-121222,124198,-15567,-215172,-103373,172692,183264,36524,71193,100828,129696,-64410,210064,-51396,117262,213601,133683,129444,200854,-32288,-127191,-171171,-32783,-16922,-92255,-222193,33257,61463,195351,-77996,151692,-115887,-94027,-92028,166744,174631,-127520,-117699,77889,-37706,2751,220934,110462,298445,-62805,314161,227531,31944,190881,205471,-5533,-76465,-161763,-171582,134766,24618,17252,-44778,-98442,-181033,-16843,224200,-24391,164156,-164403,4898,-185893,88646,196123,-147404,67591,81183,-25892,-47876,147010,232628,-189102,-2563,-122340,-196478,-46468,-34425,-105502,92360,-150978,-83808,-167070,-64648,-169354,47955,66708,15225,-93017,140349,190260,60180,76441,91442,-76526,56308,334614,-71639,244784,134015,-118569,-85996,-26131,-60951,-88572,-162859,-150328,-119472,95611,33225,-176541,-49343,34307,-204520,24022,-78660,134791,-49367,-176257,-193453,-122715,-147003,-108358,-72254,55331,290504,-79253,143160,-97648,186829,167052,-43230,-20114,-58899,-155148,94152,-39511,-140876,67990,122134,-48361,-144150,65429,-190375,-176903,108706,43220,-130266,-74000,169287,-205416,152235,290094,128084,5454,86689,113036,183842,14881,-117371,179024,-54681,-123713,86199,94705,164815,11807,-183973,-116911,-184131,-172964,48450,-147106,-173999,-89449,-71233,-226061,-5612,-112932,-137005,283130,1272,-135685,141820,-60546,220840,90753,-183664,938,-124337,-41965,-97971,-130698,-68201,-84435,-100533,-184097,-23612,66306,169617,197357,-234079,-242502,70892,24563,-64872,-144813,13151,175801,103860,-10288,116027,57091,-28180,37012,97496,-40526,-28490,121207,82770,171360,-108248,187903,-112687,-95039,-96968,101923,-212404,-1718,1927,147720,-172980,-41099,-97191,57539,151008,-128522,-120404,192734,53171,165637,11378,67666,-22416,42062,-26569,50811,41557,150774,-142297,-197888,-68720,-80057,-30563,176396,-134765,148232,-172188,-257576,-82239,43468,-164439,-47495,-172511,72523,154652,48871,139023,-16769,122551,137150,163493,-78626,-218298,-93872,84063,-55497,146346,-168201,-77666,136225,-177786,201275,100025,39107,-24720,137135,-149007,112893,-157372,-237042,-63792,80710,-111466,-219617,-72678,200440,85994,54576,-130235,-85251,-187981,-11012,64211,128100,32795,184237,-44999,85940,176998,76849,52855,-220017,3429,-194516,88234,-71735,120557,-172317,-119802,-72203,60024,-67958,175074,-93324,241513,-8410,-226723,43837,-14857,-30403,-62955,-105102,-145483,-129133,157107,117966,-160683,29580,98793,-86211,128767,47189,-19259,-120568,-266454,-147887,-22449,57906,-154749,161467,35614,106989,229796,-43811,-71347,-168591,-164634,-10721,-64004,-195332,204175,-8273,107429,-43920,191237,151180,-135130,-22121,59824,14050,-250788,-91767,-122059,-21404,-61709,25508,183128,-153596,45115,-171661,41851,-96548,-33123,42367,-18370,164249,-22116,-46414,168220,-193625,-200460,191502,140697,74821,-36433,-81232,26512,140811,-172807,169411,-210175,143923,-27851,213372,73203,167946,29807,7070,150732,99956,-139649,-162260,139950,-132566,3114,-92691,-21309,164996,-194066,-78147,-194460,32619,-88366,211829,-210275,-53256,149675,-15479,-19721,199117,155478,-75976,231912,-119589,-113932,20875,-133396,-181762,82320,-85715,-155948,107774,84255,-5366,-5622,-26477,-106365,32242,217001,195810,128323,-68231,-40262,-141381,-145044,2807,101555,-11354,217550,35644,204556,-159038,118982,129146,156406,136097,-135695,24874,-58134,177111,-203686,130996,-101985,135799,49736,103218,-82704,-119080,-62563,-42218,-177938,26100,-26797,95308,256530,-137616,-66560,232433,76511,165347,-118337,122723,-79264,205134,-13736,-2003,-116749,183445,-214976,-154934,113838,159391,-160756,175567,205490,147872,58160,-154968,-186024,76050,-139800,57563,187250,56552,179958,56987,185784,197337,-85816,-11751,37504,91045,132742,63085,-189476,126252,-185937,95531,9603,-199745,-159643,-213470,76668,65305,21398,-152171,86608,150792,-54456,178637,185316,44784,-100191,202449,-113890,-74905,33330,-61204,162837,-166532,172231,124028,102055,119554,-147750,148524,54872,-104873,149435,-200844,25858,-176470,126992,-194261,130947,-11553,-55318,45821,-195136,-130962,137338,169243,-114684,-121058,11859,-27515,-104642,212806,-60574,-201279,-56379,-111685,91520,-209881,-155557,-75454,-131085,9555,190360,-24721,-43205,-181558,-150191,-82406,31518,129263,195890,118645,-118904,113872,-41838,119290,208193,145736,122306,82143,161512,45873,125856,-141296,-11434,51707,52081,-64779,-135502,199943,-92256,-74244,186108,164953,-103682,3087,-57773,-87207,34730,-186680,-104178,-15546,-31188,62074,-39283,115555,85856,118510,129980,108166,-34832,-125123,179331,25768,2119,4330,195739,-174840,174825,-20032,215364,163662,162889,148876,-95641,-173872,-167555,45859,-43881,-124939,68776,-135601,-162829,-196866,120497,-206613,-6133,-52909,-205514,-120676,-207360,206787,-70883,-67849,-50292,-91676,-149598,52097,33552,174669,-107803,179188,-151036,127992,66718,-211849,-196871,-96174,111194,150799,-218109,-227788,182170,-65546,-108264,-107141,-144957,52270,145205,-202595,-141448,184499,162421,73715,208087,-200621,163385,41480,154715,93673,6372,-89807,-243787,-87476,-77816,-206743,-8277,-56778,-159958,-102075,-154711,637,39693,31957,117364,-1077,-74973,79576,198208,85900,-3182,-97493,3398,-213061,-108603,-40400,-1515,-123975,-165372,-226636,-1949,-112429,83210,-3103,-211843,-177767,-211274,66814,47993,114007,-157303,131362,-102178,-49806,156577,-89610,-64296,62301,103499,-107577,-94837,-64727,-139172,-159081,88138,45108,134640,-114312,-184540,125948,-31023,-99333,-219838,-202416,137619,81777,209554,149767,263894,-105413,61312,-70830,-75724,43086,178971,39136,-209638,-39445,-5591,-5823,191555,196507,-143951,-145719,177476,-105564,135509,-20628,-162899,-212977,-180473,-45933,-77390,58976,234763,-86251,263441,28217,-47674,-125264,207314,30400,-86080,-214720,-10621,165017,-70669,-212573,-97087,-112675,16179,-122370,83035,48213,128334,-39702,-178567,-187689,189349,217119,97391,-68546,19838,252133,10301,248460,29007,29183,68602,-195572,86074,-210809,-215794,116662,-25123,119832,-178010,-116905,-51902,165641,186157,48858,-42990,-120941,237127,31719,-88910,-146483,21674,164189,197268,122332,45173,33253,-92466,48825,54635,185734,-169501,-98234,31331,147509,164751,211400,219573,-51574,97831,47521,282191,205880,122808,-22155,194688,100473,-145055,177482,-107902,-168196,219753,-188882,-75396,-10754,-107432,18528,-54488,-13565,-97362,-33776,-40468,-63018,171322,153202,-26443,211475,-127321,-5349,180216,179108,-41274,227799,-28381,169543,-24991,292847,259318,37605,-59685,-85245,-2027,160391,-186677,181497,-190464,-196227,153592,-155291,-199832,88322,31064,178784,125197,-87963,204615,208408,310037,313749,184256,103977,-105162,-25573,41664,305259,289584,215806,-141658,-21226,-80674,144943,-236044,-51242,73513,192164,-51272,178179,-88817,102353,-189741,160813,-5036,112744,135273,314897,143447,-18544,16885,45679,-30867,218503,133055,263619,47558,-34018,-47127,-34565,156048,-100520,-53041,-97306,-184429,172659,-151752,-81824,-61989,197342,-108352,195898,82653,-130443,-51205,-615,272387,135800,31653,-43665,-47387,194796,248848,-30377,-117216,82216,29724,-110914,109211,-46891,173235,-80828,182393,-86112,47022,130820,53796,146098,8433,64892,-35157,-5541,-33133,66258,-122024,211277,21758,227692,-68451,244641,220537,266149,321037,-104535,68049,125129,-136575,141575,105723,62658,-150952,202523,-61530,-70186,90134,202147,180852,124598,78365,195055,-20525,-161151,189362,-180365,-78730,269922,303879,-20111,253153,90147,-20227,90506,-91775,-84181,-119361,16069,-222750,32658,-40151,-152556,-141734,32235,-157354,136605,206048,-104319,-179515,107254,-150386,-154793,-45405,-199191,171465,1303,239397,275746,222948,91574,-119010,203569,74334,-220104,-151421,-219180,-40543,-108320,-221728,-180107,100266,-99387,77869,62655,-200249,-49220,57538,-90259,-143418,-131959,-78686,-83365,-212383,104526,-8377,177232,184221,55979,-170599,-83762,21526,-260853,-55622,24389,-190584,-43402,-77122,145494,-126977,127441,207374,-11988,-65682,42393,-201143,-16293,-144506,-267217,72295,27841,-218681,-145113,93633,128722,159730,-172061,-150800,-221185,6700,-107986,-30287,140355,-139977,11027,-73123,79694,-166393,192779,66186,-213703,164627,-176363,50641,5358,158962,40155,54569,-224337,53315,-8348,-136281,47616,-107946,156084,-173511,-174709,-133209,-126720,-223740,35948,-37775,33337,-69979,-110371,-28809,-113255,-208098,10504,2991,119681,-166807,131269,44191,47480,-38950,-104879,-151828,-35646,25025,-208721,-141103,106285,-215353,-96491,-10216,-30769,-16524,67774,196415,32529,67791,-13501,196238,195449,100972,-180123,-81209,-175704,-236791,-51769,163714,-181317,-107732,-11807,-156491,-84536,150746,-109719,246482,214639,-92539,-130616,-47898,74967,77332,-105228,80665,99197,-21497,70022,138805,138146,74623,-17191,124177,-74787,12207,109112,-164438,-207663,102062,-139599,113032,-155806,211699,38992,42813,-112986,-8930,-72633,-122678,-181987,163315,-82610,61963,16319,-179326,48102,-30393,-77508,-72080,113300,181426,183771,-185343,-114651,199860,-95462,-14285,177094,-62630,18165,176967,210859,141569,168370,119527,219528,66170,-135697,-170931,-51200,26835,-148543,-181758,188874,-151441,3856,-159875,-4649,-130435,57184,5540,-7176,125519,-107819,-59280,-98010,82454,77527,5825,-111782,222243,-192649,-184268,117582,-200195,2292,13416,68051,-100434,26466,58632,-199387,28188,85658,39119,-95584,-79553,148384,-177310,36020,-49114,4387,-121304,5978,114690,207438,-118236,-107587,-183906,27408,-122613,-171783,-38128,-46875,148358,-194069,-85954,-176948,-117260,60810,-207589,-35249,-2453,158769,50214,-133775,-158934,-203610,-41525,37454,-21592,-129269,-162085,-149080,54402,118819,95656,-10747,-67117,-109179,166052,-186133,90100,187239,56256,-15713,-125245,21252,-88133,-173771,-78321,10736,102402,48972,60781,-178604,190036,-135462,164918,-112047,-32907,-77291,16294,-95545,-102971,-58775,1270,193526,124089,-76202,-53857,-185075,34066,142511,160021,-198573,44954,-198457,174831,55772,161942,-92441,22818,-196518,-28574,131953,-179505,153577,-16330,-202643,66849,-23536,-66524,-35068,-57289,83864,58208,98963,-82822,153071,119345,180417,-179968,154467,4072,-207760,-89807,4942,146538,-178609,97738,77933,-180194,-197312,-45943,103782,206315,-147995,39011,153425,3870,38550,-63903,-33544,-60779,-62454,-200741,-142496,-126297,-27106,-162232,87049,105240,-21845,-195536,-103245,198388,-87137,-143467,85776,-108940,-95766,177872,138393,-166669,-194398,-195234,-188458,46630,155204,-91130,99822,141514,10813,5343,205569,-186568,153075,69150,-84870,128312,72088,-129381,48611,127990,190967,120864,-136851,33623,-203325,121484,-46980,172609,96401,51640,234088,139406,112661,-24448,-185908,-44701,-213434,53270,53932,-95055,209641,41720,-113705,191480,92381,156944,42464,-156938,83348,-98185,57993,173259,154025,122852,127169,189657,65067,208128,-90642,-5265,-43745,189858,34837,-116675,-14643,190874,-6826,36328,80161,130916,-77135,-3641,-63421,-82643,-147440,71462,-10060,-54521,103999,138859,-190683,-10265,-103716,166908,-57961,85047,-102300,-153663,68855,126859,6426,43412,127327,180580,147310,-57067,148299,-33255,-109068,110601,-136864,124006,110860,-186858,12588,-156100,51972,-159312,-205417,42834,46994,-102673,54121,155338,118069,64270,175169,167298,-133977,75840,-121859,-138734,-32407,34443,128897,-97294,-173707,74499,-200078,71980,-67792,5097,-108268,-127515,-58593,133535,141036,170082,-119562,-64636,172066,-151745,-42238,79824,-112992,100364,-196301,-107933,-222329,101123,42507,-81131,-41119,-101740,6724,-80834,215958,94378,141336,169376,87419,-142675,166715,-100156,-71534,-66057,17302,-134243,-187100,-30709,-12907,-6597,-124638,-227785,71762,-202938,-169043,-113470,-61401,-97454,-162689,133160,131088,78874,154580,-65117,972,-55674,-45327,-141435,-185763,18883,1103,-203372,-219332,-118583,-120367,-195215,157130,129302,183757,-79765,-73021,-83316,-30815,126508,80441,185231,160377,-206559,-50139,162101,207167,-102182,151571,57148,-113346,177227,196464,38460,179004,178927,-169859,127811,-52620,-9059,-94634,160464,-179226,172027,-60875,180051,162206,70685,-160077,92442,-43674,53128,48115,172053,-210554,-120307,-19020,-200545,-17078,-73908,176109,-223263,-42078,78865,-72901,-61221,-206790,154057,-187210,-38156,184345,162508,81688,161805,-106177,86805,-164169,194572,35444,160820,15164,4356,148698,23509,105775,-93519,-48077,-117280,165608,100738,-115073,32471,23914,-122968,-159432,169943,124027,-151759,-53632,-92681,-26699,-202259,51802,139730,119590,-38308,-14468,30599,148799,-101681,104005,2999,-205847,2800,-120956,-44379,-132358,131394,-55537,194733,93038,67890,-34298,94943,-114631,102161,-198650,30226,11015,41575,35226,-164501,103410,-50140,-33046,-18626,101370,-905,-79763,-110074,-22959,-52340,-206630,-98631,-164132,7118,-200880,-192044,-76924,206260,146593,-153236,-54861,59311,134712,-72878,103004,27725,-76565,-23112,-11337,-143424,-133454,150355,145038,-137493,6443,-70033,-104635,121875,49968,83920,177277,-120178,-29086,43330,68442,158800,-40529,-46101,-27746,79004,190863,-147604,-174742,-116699,124010,-84929,29098,-166546,-128374,124153,-63809,-80475,146920,-36931,-211222,-153772,-18718,13115,192514,-34013,-18448,174621,-21278,-82271,-7317,60351,70945,91110,-144189,205715,-20590,199766,184626,13917,61111,-72944,48882,-94542,163335,195200,-168768,-56816,26641,113422,-9659,-33086,24359,125241,166947,13903,97756,97498,-15280,138174,112695,211623,209730,-35709,-191278,114867,97530,197128,147913,60382,97213,-170218,69769,164799,84179,179858,-91348,-157363,72404,-93724,204516,174459,-154140,-30039,-103073,62406,118477,92626,220895,68344,-191011,100472,-183335,-15776,67268,-83361,136365,-146778,128809,-159235,137756,117767,-66559,202011,105094,3477,83095,-62102,190953,-191495,161625,-42481,-60356,-149264,82153,-171873,-172321,189902,43373,62959,-135667,108545,108993,-70224,-184669,-188801,-141265,-47395,64367,-140811,99406,146099,-139284,27447,16037,32583,-137388,198054,-113108,-22951,-186658,135116,147364,96421,-108117,-99342,-48469,-185472,-68546,21880,-175774,-121966,-194236,-179440,13622,69096,-191739,103770,-215832,158771,79504,-174614,68360,199141,-97664,-4113,76303,-145546,-72241,-204730,58811,-112494,-32863,-125492,-61078,27435,-106369,65356,211069,150758,80285,8595,-101433,80318,-116235,176872,-39039,133448,117458,-205006,10201,-57264,-40220,-15881,119431,71494,15710,27863,-53103,-185625,208242,-32111,96059,-9888,-51509,14742,166914,-16627,106448,61552,-59423,-4853,214018,-151247,155329,-109764,31428,-8753,-179681,112483,77642,96361,-191869,844,159154,-157000,-184223,-82813,-79089,-136883,-173723,-157650,-160379,149803,160285,-33093,-59267,-212514,-41349,119152,-159446,-64833,190421,49550,-62365,-176976,203647,-147997,213947,-146619,163352,-52245,-137009,117198,-54267,41326,-67085,53873,-114538,97508,-6871,-136674,-139460,-120490,-179397,-207597,146688,17595,159781,-93676,-215457,41043,123637,145447,-172867,152856,-66389,-19275,87851,49651,24261,-117825,-109721,-25075,42742,44631,-146755,-176909,138437,-133258,-172954,146995,-45633,9842,187630,24315,74047,93357,-87979,104832,-132810,38892,-180005,-126312,198272,-39377,-24288,-201659,161728,109910,-115959,168515,-148017,44784,129366,177651,-93769,119863,37797,-189270,-203459,68487,4044,-66099,-165566,-31820,-72546,7605,190332,102308,196559,128609,1823,-6445,-128406,-29011,68269,117786,-117117,-120069,-136933,197741,51010,56336,183856,108328,-180151,47518,-29945,-112673,-123140,-94324,20084,-104661,106130,189816,-125303,-49539,127198,-87710,-22864,132347,-155137,65278,-155275,-137954,-151612,66585,-92258,-62303,43089,-88331,24253,114196,117527,-2019,-136481,130201,211273,-157077,-214154,159738,146614,-2126,-77439,56435,-84578,-45017,179097,130946,-97553,-85876,140880,136792,215827,-27379,-112667,73948,182950,-7817,60865,-37939,-68724,70190,-63687,-70620,-70577,-138474,171686,-167655,-71867,114812,-138345,213832,66360,-34883,-134923,-79312,195337,106448,219126,-152735,-31413,210709,198184,-213653,-182648,162256,123755,-42614,79911,-208887,-126529,70492,47749,54684,-50818,-197700,24245,-24831,-89775,-14463,43734,5990,13681,-15031,-80838,131374,182058,-195670,87168,-3680,-115985,-2524,165880,56850,-215095,69509,-27547,133978,-83282,-112200,-215841,-58386,198092,-47588,36655,-174495,-212784,196898,108326,-2638,6726,112633,71655,-201001,-93012,136479,-56481,208581,-146407,148671,3028,-69668,163427,-187173,-141169,-207908,137530,21808,206941,-83,-136079,-176243,-62694,128093,42160,32294,115513,208851,209307,-68607,172871,-1915,-10474,188553,101305,-145421,-121253,12893,6736,-9522,215437,-193914,31088,-34183,150330,-60378,-93989,-123920,-169947,-161638,149684,-148718,-12198,-195443,-209497,-184770,-156329,-63645,201116,66587,-38844,165936,-25139,179871,50593,-124730,4149,213451,-165179,58137,90680,102096,-190964,-43378,22557,-84900,-197139,-191022,-53273,-144994,-184519,-156152,67532,1403,153213,-88686,-197554,74864,158188,55293,-58506,73934,4610,-151955,108866,-62254,81473,-172951,-180673,127803,208742,-185193,-137706,-68542,-31498,138457,-184804,68319,-191829,85006,151921,57309,91290,196325,44376,174408,-114472,-6281,-113559,-20341,-12759,-2716,36758,179404,118129,194254,91314,25817,-2174,-158507,-110950,90,14246,-140934,182228,-192253,-51397,-132378,46645,-143232,37644,-143501,174057,162886,157922,24910,8501,167135,140559,-65068,-67367,-63296,-67365,-138998,8589,-156160,198370,-143165,182982,148852,-37071,-1822,-145413,-97219,26247,146680,-108125,-186183,108329,184938,-131504,-126337,192979,-146991,-88947,9633,104381,-165857,-190681,-113282,-130523,68209,63988,202903,222733,44330,106338,15781,-146722,-48499,139758,-14460,84395,89458,-136763,-74156,-85472,152365,168678,41307,-78645,-16725,-71111,171350,160502,-48287,88519,-220123,-141939,33602,-55728,-140351,-92692,220319,129721,145495,-78379,106560,-133691,189717,7184,38350,60806,-26120,6286,170447,-204373,205264,-32887,47584,-127389,186052,-204518,28367,-170346,-201535,-178858,-23141,-162441,-126994,226509,91406,163135,-164242,18726,81702,6800,198737,171463,-79760,-155745,-21423,-179243,-193871,-172111,86133,-218283,107667,142827,-156091,-106364,167841,102817,-205221,-150739,-26103,-112790,-38042,73281,87251,172297,-79165,106316,43116,67496,-77060,69356,-50552,80799,-102657,-83228,36180,11988,178237,47767,-118979,167858,-11586,-152267,121780,-224749,149857,-87105,108098,43702,140738,-159906,-59189,-62942,30054,-18425,76511,-74221,16511,209197,-52322,-85828,-81776,165455,17835,87867,154609,215303,117438,-117819,-198259,113187,86242,-118257,-200750,-9583,-176479,197305,-28243,-11420,-54565,168893,102841,107439,157086,75285,140320,-196333,154400,-164998,-175773,53414,77921,167270,-2292,-148981,-71599,-12481,88195,209871,65416,-47398,-119373,54619,-63634,10939,-63376,-138698,181705,191118,-190604,-122664,-213717,-180262,-195273,147600,-136946,4089,128114,88223,-3654,187255,142690,35402,-91373,17562,99675,-160488,49450,-20026,-8049,99271,-147465,212769,127529,111219,52994,-78062,-175335,183341,186591,55603,90702,81978,-107169,172348,22059,114027,-24392,17815,-55878,4265,-78382,101714,-23769,-156953,-129734,84011,206056,-33786,1651,22116,149459,34930,-24593,180634,-25577,-156943,-16263,96879,85780,-212623,25675,48533,52166,-100223,132923,16739,-17551,-182754,2727,-199560,131569,-46808,37049,15145,131456,206846,63588,-191966,12146,20325,-119428,41083,-212980,188976,-191490,-19658,-129862,-18025,137038,-189219,156272,-120080,82956,39687,209075,-143647,22178,-74372,62212,61322,233549,-140516,-177718,97569,-212199,181159,182532,-155374,217232,-70684,-12590,105518,104280,-136547,59964,-38646,-79985,-138500,-204139,-45059,-139291,31886,-3615,-182408,64113,214111,-56488,16267,9413,-4563,111575,-202065,-219900,145116,-206012,-89061,135236,199416,3876,-132725,124331,-12777,135805,43422,-17981,201958,14001,147830,61159,-163622,53979,74216,-65220,114452,-60507,-173180,176979,-53841,202650,-51660,49345,-171278,-171900,-41121,-59898,-161484,159145,-21102,-211120,-166095,185067,-61502,188432,-22389,2414,31703,197650,123290,216109,-41769,-110942,-175029,-129486,194914,-162992,-101561,-135142,137424,-77565,109044,172054,171557,98463,15598,211477,-206497,99305,167963,117389,51004,100945,-1585,-155608,-207015,158824,89458,165520,-34663,-173581,-163597,172458,-207939,-150678,-29512,-58520,177889,-71205,-215310,-189254,-27005,-56682,63100,-111310,-80210,128000,-121741,139431,-213153,157842,-119964,-14828,-159342,82533,28196,39838,-71449,-151503,135201,113110,181408,-135472,112281,195761,-99358,-209597,-75263,153134,157032,172218,-109366,32276,-50243,88109,-192022,101845,-79779,-153626,178796,-26366,-31378,-159988,207829,182361,170481,33817,78691,-40586,-68794,-10303,57430,189324,50962,61479,-198677,-203027,-128427,-180244,-126748,96680,191157,-85339,183856,73584,122184,-89188,152440,-202201,215312,35634,-26354,153200,-174551,-189635,-39821,-62034,83177,-27684,165363,68175,202618,-178644,81569,-86900,210161,171937,39508,10414,-214353,2125,-111997,110126,-162852,-118925,146629,-185783,104831,-78938,-128358,-117685,156916,-93139,196925,187111,-18044,4283,-43425,197037,186645,-14115,149936,-51228,-37878,147953,117756,-78682,-128120,64759,33516,213714,205446,20572,83114,-72848,-33099,26460,-40912,109172,147774,-162219,132016,30623,-177061,43857,-181330,80152,122105,71402,-162243,-146469,55352,4430,-154408,92508,-151719,-52097,214449,204972,-135050,134326,-77525,-26717,-72021,-22986,134320,-45904,-65117,90575,-26718,-222543,-158500,-188865,18023,-171418,-44399,121496,88614,36503,-113279,42314,208020,178520,-159944,202730,24492,-213428,-26134,163312,-78680,59764,173741,166837,119947,-61930,148699,-97945,220066,173524,118092,152423,-7510,41734,7135,-91564,-137745,-161862,174306,139997,-110733,164866,103227,-26471,-196898,149440,48205,159597,41583,124033,147494,180504,227555,-160470,209256,200968,-162393,47950,-214949,170698,-103028,-98405,-208316,-96962,-83750,-161964,-199943,176278,18380,28019,-63152,50112,48938,203419,-106216,-70412,-142752,-17519,169472,16976,145533,-81215,-4246,-25852,203427,122282,211305,220811,91386,28008,-96091,-14952,86336,80886,-124761,4459,119489,-108251,-96573,-133115,-25154,134089,-183716,93954,-102058,202316,-184438,103734,-14280,58041,-129949,207399,51107,245252,-90492,250416,28678,-177862,172597,151245,120598,-29865,88595,-58977,-40155,-49587,-20794,19573,-200570,-92569,-170741,-138777,109544,148640,97837,200165,-68789,-114530,228728,201408,-170296,19069,150507,-33320,202055,166398,25617,185732,154521,-129804,211228,-82589,180500,108950,-124680,192180,-23790,-89033,-185456,196682,-100133,-86323,232535,-79121,-183047,-139090,23382,-49856,-35225,172151,-172079,-80257,109356,-162958,-2242,33840,190911,-108086,66280,-67124,65819,196360,-89345,215392,-122576,-161671,-141148,-79494,184424,86669,-9506,70880,71034,32184,-130027,92014,9863,66,-172193,17296,7487,113240,209144,-60585,241741,-52388,-182715,-141312,206456,-186702,107195,-211377,-75393,102501,-21382,145439,119519,63822,130887,-120428,-92621,-194661,33846,-197744,-85178,221917,-146660,70406,-33047,276316,176038,196986,118113,-70480,-6931,-129091,-171298,52762,26200,-203467,-166472,101533,-29150,189661,-87168,-4750,-164826,48926,-158910,87875,104131,200187,236161,226673,288707,209012,139512,-53813,156152,-70869,-150001,77299,-96130,-178599,-205683,79049,-2995,117376,5769,189371,-42899,124128,178272,-143699,-178306,152741,67048,18483,-99995,41215,139416,-35857,95808,110750,355512,-35693,235657,-92777,84271,-228339,-44568,-193514,-172142,179150,-71671,81320,15591,-63565,-42856,-160219,93971,-140023,-140285,-108491,-210242,109596,-80294,151886,204059,187383,81035,182595,175544,221747,217004,-95510,186205,89304,-63113,-249709,56543,-197817,93017,-129890,-29061,-25078,-160830,-62035,36076,-88748,-133733,-69921,170794,25240,-179563,-48575,5821,-108851,102437,-72690,77160,166314,82835,-178620,-49656,-13247,-18520,75125,76067,-92682,183399,-111052,-59715,199009,-148757,49902,-189747,-174807,-35776,126317,32193,-150292,77068,32613,-50899,41771,81870,204492,186499,130064,130937,-87215,34137,-160593,-159795,101172,-151922,-1300,-206393,-205555,-80279,60674,-129607,-135131,-41538,30673,-79502,-247888,-205038,41134,-130548,121106,123702,132048,-156374,153246,241861,-129413,215101,80781,55183,87331,191634,173449,40890,-8014,22509,-70908,-177913,143117,187496,-161114,88786,-36163,-161400,-201531,-145623,-140331,-162060,-290195,63268,39934,-167204,118890,182360,56314,74956,120111,84761,74231,101952,-112728,185183,157915,161718,-42396,-163737,189357,-55092,228658,-153466,207980,97307,-128421,-229383,-120724,-181794,67051,-239343,-152916,96299,44379,186507,191190,-166689,-165064,79928,-98955,-203851,-161001,-168807,-116197,-71405,196100,-69094,-131244,-169139,183612,219861,-163963,-176421,-132527,-59358,40639,-251808,25947,-126476,-71699,31749,29046,76490,110061,-43572,121888,90599,-107692,-204017,68297,-84432,123284,-22721,-32820,-64461,101040,-46352,-192932,151517,125447,102535,-198985,-24090,-178130,-132321,-193702,-169723,39909,13721,-181780,152606,180866,-76418,-9689,98686,-22543,10960,138751,136287,-88843,75285,187417,100789,-82850,-144428,-7534,-190732,57322,-76777,-209229,-130787,112054,-2086,57891,186981,194312,-171770,-60188,191288,-86968,-21621,55346,146489,541,-137700,166325,-169134,-198412,212418,145081,52420,203893,-1282,75367,147110,-160129,198814,113553,132726,-53806,-80383,92203,-74191,155492,171068,201487,180167,-161611,47462,169595,140183,33516,69288,167486,95941,62831,-52874,-202696,98597,-132566,68871,176228,162076,-163691,-92699,133152,-148632,207889,53177,116837,67239,204413,175414,103095,-102109,-137647,94346,56203,-76973,-24778,-154861,214511,-162872,172173,149199,172564,175558,199780,126192,-169222,-43167,154592,-45082,-48277,-109291,190741,11448,3172,10013,-24106,-112480,70288,240585,-77530,133668,-23551,33939,-138352,-112604,-167337,-114316,-133715,176347,77851,59127,75354,-124360,170091,-107815,-107129,-93499,128306,-159028,-195009,-55233,199865,-187380,103814,-137342,6941,-28230,-186596,215886,-130833,-189317,-58354,4464,-172283,-176946,145323,131672,-143301,54204,16834,-1731,18403,50412,51943,-142274,-167368,-76124,-16501,-134914,144561,-40740,89780,-107474,212410,173625,-10500,95100,118338,-124650,-5632,67704,119110,59138,-2449,15288,-10941,123807,-97048,72623,130920,163365,75017,90082,45293,-50084,137885,-139611,24291,-92676,-111776,135921,-105327,24695,156670,53639,-132510,-126074,-139211,95854,10469,61529,-8818,-130765,48538,-146687,-77684,-18418,-168262,128621,204126,-114472,-114913,-8831,109125,128512,103507,178740,-21103,-174879,-112313,-143841,115733,181880,202901,-190051,-22359,215579,215247,-19576,172786,117065,150130,189736,-135704,174101,46411,103345,-67434,-40367,125673,12683,123207,166502,-83889,60976,-165805,-123605,-167568,-111170,146549,-27945,-9950,-120967,-67668,-33300,65927,-21626,14031,10704,192422,-63645,67074,-132144,36691,105257,-130563,130902,-168779,165213,126197,-166960,121816,-133778,78423,-13606,-10019,231462,126126,184763,47114,194091,-26286,32799,-33287,-62457,128126,-185815,-175117,-149666,181197,159651,-185373,-142460,-166576,32572,-101626,138463,223084,73733,199318,-132617,4906,136647,-105761,1120,167087,-131671,25091,-1308,-205470,-199326,-162967,-194472,-176179,-17010,-195106,98137,62867,-188611,127181,138728,89305,-181778,-88596,-124397,224553,-68769,-100336,207470,157430,220481,238319,172481,217108,-39156,-140884,-121869,-20003,-63297,139749,164578,-14066,1006,8349,15854,-36713,-118095,61962,6427,175589,-132821,161058,116581,123555,147419,-18640,-121205,-18952,-100237,207919,-23101,-93825,240200,-132384,-26748,121293,-152456,-191524,-132546,179354,154932,-175654,74627,-4002,-95970,-383,-104250,-212675,146972,189962,-135087,155165,-15940,16641,178548,31509,303709,164932,-72614,108745,245325,90502,185879,-7545,-40879,148024,217023,205935,192110,-136031,-189350,-57341,-88545,-24688,189246,-170270,68523,-174189,192877,53597,108261,79209,-23846,-53588,-91723,252837,204145,152332,-165785,-104786,-116651,178082,-128864,79986,9102,148686,-20549,149331,-101628,63385,114282,66084,-25228,-177661,-191125,-87218,102186,-54873,-148202,112155,58626,213905,-139167,-5832,-156962,114518,191751,-241,45842,133700,210963,-112601,67803,41058,-107680,-144271,-142241,56314,208329,59358,47173,5972,144090,-1632,-169862,194460,-91255,-56804,88948,226276,-164662,-157715,83089,-160813,117259,-136477,11301,194982,-189500,234476,198144,50401,58011,-24140,-213396,-162583,-76965,56926,167212,-5728,125987,139864,54269,169447,164222,-33105,229066,-101816,-131566,-57672,-137701,-150325,-149390,166429,-79459,-179408,9322,-47270,-186115,53182,55451,-88785,206324,-116520,165875,-186321,-158785,-72754,135169,-131187,14420,134111,-73922,131069,8653,254852,175761,50411,-4071,170146,-194774,85941,124519,-136377,-180566,-182672,-65151,-1548,-22058,170034,77689,-25636,-190836,-75030,79414,-91485,14715,129130,-120968,-87946,-129159,156799,201667,-153000,-170872,-66255,106848,-109200,18862,-26467,37683,70645,58248,-20575,168423,94640,-153780,-15161,-197204,197397,-72980,13962,5873,-77488,94313,141356,91137,25130,140896,278615,-104107,-97156,10811,-43838,-175412,-168886,110755,-205488,-184243,107248,98148,202786,54505,-62594,109606,173768,-190708,198710,77822,-124026,-110258,73709,-106935,141089,-66844,-46403,246366,-104585,-44594,-25247,41018,72820,20617,-77527,-165169,-66458,174822,-39723,66341,180425,6400,-99617,-75690,147630,-49888,-17671,-129231,52116,-102769,-178874,12284,-174287,186066,115769,63930,-168542,-10559,43594,-95732,65183,107946,10576,112517,145097,239066,178520,130393,-18054,100181,-214684,94707,-10080,184691,203050,22577,-159931,-45361,25068,192591,206568,202688,144965,175044,-184637,-146416,-195991,-84253,-270248,30846,-182772,130722,82780,-49693,89748,89422,-79037,-131856,44176,-90530,-172947,203248,24410,-81235,-58677,-115950,177654,84081,202026,56152,69542,149857,-57685,-68576,-174896,-263462,-194300,115846,-95966,244473,278235,122140,134044,86323,64183,-6104,-199748,187967,-198115,-178401,28174,37965,17704,131346,-17856,-81640,187707,-150518,247926,174798,-123659,72264,-175274,34752,-120034,187653,265496,-79031,-52534,137303,-40559,140787,119743,-46283,63082,-9076,151434,127532,-45664,-58036,-155241,-53167,240504,-54859,-163311,214223,-35639,199232,209567,212182,14464,108488,-146074,102846,121093,-31838,24020,-118237,198275,-35427,-146902,-131757,26710,34565,-61671,11498,-6409,-162822,-70452,73472,146894,243994,138856,-145969,-94647,112215,243815,-37878,141646,226394,93420,-156792,46995,120631,-81120,-108340,-188779,60296,61275,61436,-9430,90298,-145966,-116006,-81465,-111726,127808,10948,-160996,188655,-156752,192259,-53976,-7584,232938,108717,-42161,7985,139840,-12689,196069,37780,23586,77436,-160729,-41272,-112387,-96846,141014,7427,-23827,-172551,21171,132689,-1615,135652,-125249,177402,84849,-88109,180137,-73447,-104761,38989,231031,157494,-138486,96772,-71024,182382,-213286,178608,180138,-89383,-147299,110480,-190604,154603,177078,150914,142147,-119507,11747,-167559,51503,-22807,-110334,142472,160054,-27245,52060,244513,20571,-171873,-90804,39506,-69053,-93947,197443,15962,112928,-29994,-21595,43588,66092,138818,-100141,-51597,32934,14601,165266,-8772,94565,-178824,74388,-85062,154931,13224,108681,197910,-76440,-54206,-122899,42353,52472,-3117,121196,-23647,126384,125030,46532,198103,-78797,177043,64626,-296,-119515,-180480,-69734,186686,154145,-133605,17595,-135954,45908,-169953,44508,-124612,-173874,-160053,176676,-175841,14956,-69440,1632,-80844,34612,-3204,-203029,106587,129191,123553,23598,207594,-80162,-135746,86683,156744,-188848,204123,-43209,-142750,136578,-172580,163151,99624,58200,12316,16918,-17949,-213179,10669,202582,105627,148541,105418,190530,-69052,-166445,168817,-115198,-34189,129576,174209,126848,-184024,-83343,118698,-211671,9997,57429,90418,-189419,-135648,-148026,215776,-51294,49433,144682,188745,-167240,-56004,-161760,118487,30303,-77972,-99198,116714,-6892,-112749,-40754,102354,-161559,89861,43725,-188593,158679,-77178,-170641,24407,44904,-33676,178732,-95965,-48644,-41290,-140770,114582,-65849,182468,148572,167258,-7375,146372,162568,-96956,-181934,-200923,26096,-201034,-25104,9425,-43157,-121255,143116,77389,-90858,140550,203008,-80329,156783,-1473,191646,-200290,-77786,169281,-175396,87701,-144601,-105456,121717,-154401,-34638,112880,133405,41078,-166666,14236,-47951,75624,-31780,-36960,26661,63765,-17591,-59064,-155369,47682,-133118,-219576,-149611,-51357,-190248,-79636,198743,116838,-58092,-62998,95616,-151005,93290,166112,30889,73595,147317,-80367,-173409,207910,-99350,2033,-85244,-9078,149120,25510,92990,44834,-97134,-119507,-194572,129945,66235,179561,-133438,-27460,-160697,-173205,188710,-38088,54161,211387,73070,78341,-150508,-53206,67155,-151784,-168363,-155574,165972,219145,-57431,5381,-65017,-53620,-72096,-117390,-197270,74627,130715,-168774,-165561,25817,-138699,170296,28778,-30684,-133963,-69442,-83502,63659,63878,-152687,169855,97274,-40805,-36786,-154575,48386,-175333,21869,106694,-177975,-98233,-18513,-86885,-172404,124170,-5003,-118509,-88084,213595,101349,37692,204691,-58454,115052,-74224,22369,148428,-8119,-146350,198813,31864,83381,137801,-27678,74172,218672,-61037,-129372,53984,141644,-106757,90241,-134041,-140130,-12986,54194,155622,136883,-17062,48508,207050,104615,-144159,-107404,-92163,80702,-108034,180326,-179987,3951,35137,177708,207442,96434,180256,173377,34727,64310,186033,-65657,-50929,58754,-105275,-20572,-33029,-77965,37051,120848,-163776,6723,-146297,-168479,153800,-138094,-74237,34794,195381,-73666,-108030,-165149,151876,50250,138253,-80212,-170105,47979,-1063,229888,298274,277295,-37634,-133491,-47735,-121758,-81835,20726,23436,-156695,109128,-215201,-128951,167574,28314,-99377,24393,-190953,76463,55057,141525,160533,-98722,179831,230036,-43701,-118090,202772,218181,186650,30448,215795,79428,159961,148811,107188,-114342,199714,153217,190859,-49977,-76150,-77671,156445,232348,-47765,-10587,-27550,-2496,23461,119123,44042,283921,204824,352072,351413,289646,283661,12981,115642,123114,163933,70337,-64447,-42724,41083,-196007,13216,-61919,151752,-158559,-11755,-10657,238403,12830,8073,149105,235629,-3290,218882,-55006,-32185,110735,245384,276311,-105520,135319,27470,21592,-215219,-34560,-62276,137180,213773,-65299,-86156,-37270,31199,52082,176138,209817,-161706,-40181,-55750,223957,161695,-17279,3004,-43354,270721,224135,170783,344571,132491,-46167,118788,-29832,-24227,-91446,-202065,5663,-137716,203285,-23823,-145224,-126262,70988,68673,-30164,47180,109635,247799,271548,-26510,165400,248628,-129243,180825,5926,260136,299953,-67101,114700,-121542,-87063,-89537,128962,-222002,69214,-85146,-165273,-178797,-15644,-167704,198407,-132018,82748,22836,30489,-168381,-170330,-120245,17485,-165172,185040,112793,182556,-82719,81441,70425,115653,242143,215690,-164983,72594,20972,91865,-152169,19119,-179878,888,45788,-208328,-53635,35005,31841,-77205,-222396,-11480,-228304,46862,-134174,-30105,3612,144083,-20441,61682,329431,65386,-128376,-61413,97052,-53182,110940,-139412,80118,-162426,-13702,-151762,-155943,-52083,-103953,130429,-119589,122904,-20799,-269010,72496,2132,102335,67102,131990,148730,130839,198774,146475,154817,142469,46668,19298,-182801,-235705,75021,-69026,-46488,-192286,94300,-155964,139319,61455,34165,128809,-189983,-107974,-318694,-272613,-165676,-190334,35093,-48967,129209,-67089,183749,194279,87398,-216146,-155431,-192429,34419,116397,-138727,-196964,107872,5302,-32095,-118294,17606,-138329,205624,95624,-58491,-183739,-47693,-37061,-3177,-222245,-231110,-58798,-2290,-31768,143314,46983,15723,-73597,-69410,34839,132321,55380,133296,67046,199655,44592,-83601,101330,137199,-171366,109417,-157864,-202310,-166293,-168041,-305008,-268590,-172954,103758,-117249,-104678,-144139,81325,96887,-6701,-189531,-52330,90255,-156927,19806,-206718,166226,201698,24767,84428,15746,-29018,-81843,181799,-148288,-219121,188626,133156,95842,-178046,-224082,65921,44846,158874,-40380,-193155,79607,175159,-133700,-214144,-173653,100225,-148741,45068,-61439,-9181,189207,-10359,166738,-23577,-81992,-147736,-96773,134167,115238,-184481,-38984,-64880,20248,78360,243108,252091,112024,-99659,-107167,176804,-80491,-238649,69039,-45300,-134628,98069,165489,-63429,78165,-174076,-155099,-40926,-94716,208412,-43488,186165,48459,132433,142887,-125191,125086,-137961,-78889,-36979,-152424,12026,205513,-19013,82994,-103513,-168134,165230,100436,-124176,14805,-44480,104725,64954,167707,-82621,-181201,158738,234506,-62247,-25960,269244,-111615,103414,149818,109549,-149321,11603,195408,91681,-165951,212024,121117,-46602,155777,-140969,187538,146225,70567,87033,-189405,130449,-117980,-106766,126557,-29356,226606,225493,24084,190000,-56974,75277,83916,108271,72778,-94077,-129824,-87668,70567,-20941,-191699,194759,-3479,47219,-104501,81342,-34367,78506,63712,66984,4413,-93191,-102101,-86087,159379,39427,-37017,-90032,224347,200875,228145,210738,199983,-165738,13269,141195,-114737,120223,87825,-61445,206477,156958,89697,87320,-180254,54393,214636,50005,-72004,129023,121185,-128337,-148928,81600,29801,106776,152850,-57998,-30478,140486,-187627,48609,-61274,-198357,-34741,126295,202972,26299,-177863,42903,135930,102065,-54346,153742,1347,87420,201895,85385,65862,30033,-193829,177458,206431,188119,128076,124890,72423,-198676,-6264,-54756,64178,-96258,-66084,1831,-76885,138883,128420,-82277,32134,-10379,60222,-71941,10437,59021,163547,112456,189092,-260,133421,213522,-185458,71821,145859,-16021,41892,-31049,-162562,66136,-42155,-90198,-133316,213880,132660,-2680,-196237,-53443,98698,-84220,72700,130506,-183200,-121968,119897,-73091,-193198,-68443,170711,102199,74706,-160604,-108735,-76235,-48695,-92768,-91614,25452,-119349,-154051,214072,-163855,109101,22911,127321,-70488,3907,-171159,-34298,162468,103659,-189212,42182,-75576,-200215,165367,60258,-78965,83813,82894,200575,-141121,153516,-106511,-118022,109739,32556,-179108,172624,-24182,95252,156653,-23026,49765,-133641,10453,-133484,-9494,642,145696,90253,-39115,16272,89324,-75566,167932,24647,128290,170150,-61126,205100,-58796,-35892,125327,-198394,16494,98802,2223,192468,-168203,165649,-101890,-88858,1982,-847,86219,-192180,154868,-153993,28759,54231,109410,-35288,203595,212107,-189044,-193223,-105338,-170433,207821,9069,123187,14861,198292,124571,135790,-201734,80909,-118945,-98079,-22117,-156911,-95428,-139413,168504,-151673,167232,124799,72358,-105952,4119,14082,81243,-180685,-126056,129479,180999,-105807,197927,-131869,-43573,-39834,183551,-111599,-9039,129137,55812,117185,-162241,-75997,88947,18151,200973,111005,-43680,56072,20132,215894,-189750,-165742,-91631,-73344,145852,-149674,-10340,201965,-157574,206544,46841,29194,-72144,-106241,-128108,-51555,-215346,-184059,197350,-39157,-145534,-26112,108229,49900,110530,6111,45662,-1999,149064,110023,-136743,-50751,33761,76543,175989,-39055,60409,203560,238138,178197,88486,-165814,13175,-89101,167367,-136052,-144318,-66424,-95237,-128059,-179434,87723,-212128,154716,36738,211958,-136094,11194,178457,126917,215637,-25926,62488,61096,221881,-124078,255897,169949,-114275,134118,-31422,-148962,201074,-80577,-58711,-177977,93340,-119957,155043,-145611,182288,62718,62676,118060,-132289,27458,169403,-83948,59756,-162274,108724,78382,-42541,-50533,20451,177662,-107601,45392,119300,-155687,-81145,-124811,-101982,-31922,-203059,-49912,-112862,152433,-186915,-47187,-96165,-2756,185462,173593,42274,120474,-61219,-108691,29882,-228863,-214579,-115287,-50302,-61432,263195,215041,125838,-101368,-74094,-88229,112595,14132,179895,111082,162554,164672,189832,-171130,-29469,169963,-201419,-169029,-130052,-36000,-182674,-30069,-182004,35363,-46219,-45077,79710,240464,-28165,25125,-19492,43565,-182678,134384,211410,216470,200491,-60150,187104,44219,-111250,97687,-83115,12476,128005,-181101,35058,-84145,-204620,-244991,-52208,-238521,-137982,-147962,-198529,-72326,95374,170674,-54612,89145,-90515,100363,11597,133382,205631,145569,10618,-662,6587,-18005,203146,161333,-61723,-182412,-222367,-205240,-84409,-52572,21448,-111345,-212744,71751,-92663,-72860,-70416,-116280,-62956,-152959,-20139,192823,164104,5473,-123907,-199197,63485,22054,-101502,17403,48319,69979,177878,-116579,155301,-79322,184695,25033,25340,-230420,31283,151972,149394,239214,149041,64245,190635,-4414,202122,-204706,12945,-34599,157929,169954,143562,-195695,182696,-78606,159166,70755,143950,-228738,-85924,-70514,-72532,-102804,96066,39839,-165372,-64510,-157802,54513,-137129,-152056,-180249,-116047,180767,32779,158261,-1741,-88024,-9795,-192665,-25671,-100347,188535,125135,23194,-19293,-67820,-196636,79934,156874,131451,63597,49166,-53394,-158344,-130190,137525,-88171,-104979,-87099,78506,59668,-126895,15765,89604,13850,98389,120065,129910,-130458,170846,30668,-151616,-101764,154556,39926,84624,-94473,-128433,-28361,176219,195473,-94212,-30166,-22058,138562,-203047,143991,134745,-115147,155065,4723,193895,-88235,101602,108061,194171,202821,40946,-163192,-2934,-166427,-29883,-77618,208409,-20090,208528,182623,225623,134797,242137,27375,37421,-152637,-78033,99467,29516,-161309,-10758,-53073,-51162,-157306,-157304,-117067,-46126,2027,-3729,172867,-11149,-17803,-51871,-188473,118416,48082,71051,56595,246333,-176202,93552,-149348,7267,10697,46975,20863,-51210,790,-37385,-174533,-131866,35525,164370,7507,106553,198303,150590,-86710,144517,2005,-164610,57681,183137,24579,185960,-167377,-37843,88421,95246,83306,-175789,145819,-53830,-48165,207388,-39281,-120877,-55157,124774,-159158,-58998,58508,-126369,86029,-189132,-167621,-95536,114125,157566,11698,-150697,218939,224024,234147,-92487,-55103,140592,98672,-17950,-30565,-49469,12045,-187537,26522,138886,-169984,122202,-1655,133914,129924,-77568,25389,-83928,191250,55008,195854,-69159,-30696,93878,178802,-187264,-56286,238422,102851,-106408,73807,157031,159646,81706,53992,108496,-158649,64589,-32755,212880,95105,-183043,-79597,54245,-192895,11172,171951,-129975,183840,-158234,-80333,92485,-149830,106355,224200,96413,196225,88009,-100301,-200321,35921,111864,-162259,121135,-187976,-193272,-172668,198572,-153184,-159167,180988,185155,-69784,-174714,-12130,-196254,82109,-126952,-53920,-172586,971,22360,-25338,-52267,220535,113325,116947,215116,72244,-6202,98348,-87727,67751,-160372,-153229,81374,-136453,-99209,-98945,-116259,136671,28138,-37922,-110696,-103337,-141916,148751,41179,-127755,-194111,-122172,-82432,214381,-167466,176532,-205098,91349,129409,30292,114310,198667,186409,7092,126416,-175968,188795,-184701,106385,-20246,136985,-156772,186003,102961,2103,207623,-45621,-179728,-91314,-124167,140057,-107040,-54211,45144,96108,-61656,49073,62799,51153,58288,139583,-215803,26221,26919,49176,-176337,-86409,77132,68604,-91146,-197693,-58752,167861,-102626,68198,108863,187626,-74596,-96676,120950,-124692,116151,127036,-207402,42384,200832,-114255,-157820,137717,125443,146765,34179,-177412,59859,-2957,-99055,-165394,89301,-10379,-86018,-154972,177413,21802,-116224,-216037,-84658,80755,79038,90269,-199433,128887,-41869,-118411,67339,-170826,-155016,-4384,170316,149068,-135937,52031,-174102,144298,-23591,60376,-88843,102609,-35012,-39264,-137851,-81187,-140219,-76120,-185595,-96301,9976,-109312,90711,-163117,37647,-175810,151913,-154201,33901,-129460,201385,109643,-124652,2213,193627,101397,194758,126113,-95173,-26987,22151,156821,-125102,-288,105938,66692,-183419,-15576,-186736,-63622,213119,-79744,-34146,-151063,-33390,107994,14903,-205740,155483,101780,153802,-71128,134218,-63604,-11845,-150319,83087,27061,46237,74426,205824,-164121,200023,-161105,-53451,25634,35958,-115251,98553,-50509,-213726,170969,4385,33492,139760,50789,-164201,-205322,-133120,-2292,-198549,81863,-49177,-120876,145139,120516,202887,-197526,1802,-106557,2932,-102587,-6925,102916,177052,-91944,-28238,-98924,-69134,-214836,202507,-44746,-517,150749,-189610,191000,215010,-37734,-201897,12631,186206,215784,129503,-178764,-204281,-112633,-198248,111187,113193,135723,-210775,-109935,-167513,-141072,-189427,-76060,-180287,-208582,207226,-6495,-111638,-161809,-122457,56719,168407,42932,134611,-169918,167534,57503,75559,-43648,214733,-186445,70764,163877,117842,-123411,-72343,187309,-8175,-152429,124999,-150989,198753,166554,-7114,-57818,190544,-188620,-162161,42463,24590,138826,182,117789,-104038,-201162,130614,-89757,118927,54857,204843,-10941,160346,181253,-55777,17476,-155032,-206846,-111276,-164225,-194315,164478,172994,-17740,-177805,-204742,189517,-33321,-47829,-107182,-74862,215605,2327,-198490,207009,-158315,-156227,-44873,-140077,-50898,-91637,-162874,154331,38376,-188303,79751,89170,-90046,25209,-45623,-10432,-134938,175419,43093,-84039,196792,32292,-136539,84237,-17933,-49369,213378,-59916,53060,91541,-1361,64461,203538,-82765,191488,-80733,67170,30380,-200354,69594,-39294,-168788,22530,-110035,-96337,-58347,-53013,-57203,199886,-193838,13379,211679,142782,122470,37280,186169,138918,-183930,202817,-173105,93256,-449,191247,194309,48290,-164980,96968,-27122,44003,-13891,-64805,-21282,-100243,-170455,68914,-11456,22887,99122,-110814,-5913,-188474,71723,31957,-1683,221281,204075,47114,181237,5165,107805,-99220,16910,-133098,111969,199212,-54841,-48577,188373,61408,-132865,88202,-69419,52122,67735,201308,-65593,75051,-65165,95310,-73400,-118373,-2028,-88090,-111862,16631,40358,-476,-11992,124144,-182588,113253,-151671,-41282,14742,-73623,-37567,58552,85496,216781,-46602,-147868,15819,-3702,-158308,-42758,67573,-207612,36233,-95571,-136771,-135843,70636,179848,-154880,-122666,-35722,-187649,-149050,178793,-114400,83830,-45560,-163834,-148399,25665,-44999,116868,-213721,180938,-31788,-83696,-126274,-192979,21335,46271,188134,130886,-76254,108723,93423,-104520,-194723,30303,-64333,-40910,120916,-141669,-127193,-56027,65087,-34966,2257,83661,-115400,98805,-48200,-130325,3653,150090,-199327,-92665,116227,-26379,169204,-66758,-158681,172030,23665,-124336,-195781,-126585,-50084,160211,166141,97258,-99743,-166593,-26370,202208,-95418,14203,-44384,-92882,63243,-176563,-82776,-157958,179196,-146071,158997,-38229,-176874,181829,6605,107840,-13382,-213102,161040,12446,-216097,-179767,14100,-189692,48277,-50700,-139195,127493,-2151,183371,-161165,-8957,-116739,17201,42031,166856,172554,-45864,-96416,138585,-38494,-149106,-104246,149950,115201,25178,-186465,181912,64823,-40416,-72151,27359,118367,118110,61024,-133270,-167294,-53509,205014,-189019,15912,-72639,-184764,115176,84950,-139274,108053,-131354,185183,50934,-167683,33934,189917,58205,-5808,-68026,123371,72871,-161555,91922,153808,87781,-138877,61335,75264,-23258,156677,78817,-174942,-87456,701,137121,133249,92980,-191646,187435,211469,177413,19313,-135278,-5808,-61464,-2826,92923,-82025,152127,157051,-54923,-54029,94251,164618,104257,96256,71330,-124422,-152413,160008,14224,30003,102811,-79059,-84720,-29503,99933,-116275,-77595,-105996,103952,180850,35054,104405,121801,-91621,-45488,-114457,131354,-118968,-204603,134506,40275,159106,-165121,57562,-47646,57231,167983,-187260,-5739,-190475,-26846,136473,-134591,34114,-58125,-101440,67553,19260,538,158224,127136,29004,-83457,99104,42696,87990,-52529,-6174,153116,-104300,-78366,192384,-152743,-41852,-29868,-195701,-150106,116917,23094,-169222,49895,85435,12587,153333,-149630,194554,-67069,-75396,-5292,-59565,-205042,-1618,-110645,-59032,-178366,-52096,196609,-55108,-87188,-181847,-21926,-59986,-102315,-73347,8951,88211,-105843,2053,-60195,66577,130096,33562,43522,-195981,-75750,-178478,98023,139930,28591,-148999,-142114,206795,197850,-211957,157246,-167052,-206393,65817,110722,-196251,101140,-85648,-109892,-8154,146916,56000,-204618,48875,-156970,58555,173712,-120899,105531,-157189,64685,84873,26737,110519,41362,-9755,-195958,-98397,193235,65794,-192371,213977,114409,-56706,-100935,135337,-196,118234,-53695,-195588,-8701,-46851,-77580,132431,7231,146801,-55396,-52729,-124006,120645,203321,-54165,219612,-86400,-55543,-49457,-181504,-59348,112123,-74132,-80561,-164849,84746,-174315,75113,132117,-26978,73386,160245,104101,161996,98378,-203251,197863,100241,-170731,-52646,206585,-147276,-62436,-183390,8015,29614,148689,7902,29787,-65290,211376,-124542,-193773,-195238,103754,-171357,-47957,117021,-113840,48904,-69762,-208685,57007,-1631,152734,-86802,126880,116466,-195272,159602,-136804,152089,-212778,174445,110876,134595,-158488,199751,184363,-116068,-37531,-140311,37908,-1393,88124,38126,-110983,-88483,-145963,129800,5551,156786,-3516,208286,-113370,-17117,157393,-141435,-114205,-11123,-54598,-158437,-193973,32360,197650,202686,-133816,-186395,-153959,30505,-125613,-106626,-93254,-141877,-21770,17229,12310,184380,100574,69415,-79400,45935,143484,-99528,127575,214972,67099,-128986,-112264,-32659,106661,99469,169171,143600,-104474,76015,153207,47388,-86605,-177579,95116,-87939,173974,34915,7863,149600,85082,102591,-63723,198379,134663,155205,-131378,192853,-132309,177573,-179591,-144324,-116567,33597,68735,-73145,-211803,-211969,118849,80713,-36160,-122446,-136783,122419,89568,39980,149633,79322,34304,-165162,211243,203440,-83800,37977,175407,56339,-68016,23064,-129875,-38803,175082,-28691,-10999,200023,75697,-185466,-46943,-30180,-164180,176736,21373,9501,62427,187437,-116535,-208788,-81580,-22994,70333,220784,-69226,29302,3370,-68725,131378,-151013,135582,-112052,-108882,-29179,-136164,6660,144210,41076,-168232,-118825,200039,177013,107364,198347,73463,50647,113509,-56420,-163832,-42665,-139828,192786,48516,78712,228324,-167888,-19007,22737,-153801,225957,42554,-86720,145404,173288,-100806,79374,-50058,-44521,-209623,-75891,195408,25639,52583,-87957,127415,22812,55295,161492,-113100,64446,-81363,80871,-141621,98462,119694,-45976,-133189,-20829,-58724,-75947,240050,-72886,91533,137960,-115187,-73557,-39964,67556,-200685,-168095,35687,76469,-150652,12626,14085,-132339,165509,135900,-126561,-118329,-122464,32466,-89469,192212,-4479,-65156,13208,6672,179901,79103,83529,-152551,-81584,178073,137471,-161318,-154460,-39411,139050,-39554,-158983,104242,164129,173072,-161183,55477,-162208,70993,-155498,-201249,71248,-117608,192664,59413,-124554,-58807,-149533,-127782,158576,-217417,69609,-216615,127996,-120037,-117282,-144415,-164523,-11413,175966,-207183,180903,150645,169195,116713,-18049,-122413,-185240,-112664,123845,129661,-62231,-81860,-172441,9968,-82177,6005,211895,-136789,-68470,69512,-14030,128710,45648,-130883,169223,74733,-200977,90763,-960,-162744,-95126,-65990,182440,-131947,90727,-78741,116363,-125359,-133233,209226,13942,-152618,63713,47317,103083,151575,41951,117868,-213185,146966,-177413,199338,147148,-106960,-39986,9020,83339,-143339,-29175,32503,-65871,77167,44156,-68082,102254,-37612,51969,-131924,-78763,8427,-207220,63021,160272,-213993,119603,19376,68395,128280,75197,105299,40301,116790,193829,140882,132297,198159,-115133,200592,-119383,-119662,-19289,-105785,22593,174756,142467,181048,126142,-66885,82635,169168,-68504,74706,-118721,-89120,-22231,87032,122692,107612,-184254,107726,151975,209506,-42481,64415,-81115,-219082,112222,-199432,6337,-214420,-10834,103751,67926,144350,-119812,-172792,95077,-144443,6629,-156425,-48944,-132600,-16328,149719,-104298,214130,12302,-146753,28812,-74734,-87987,110232,-971,82718,83147,-183334,-86135,-63809,88804,-16774,132501,109204,-99506,108552,-217753,-191203,-10364,52729,44989,-19314,148986,-118151,16429,-138404,-106799,152861,152186,-95700,153210,61254,6911,208768,-141156,122340,187517,23834,60245,-25618,-89752,43745,-61286,-171553,44834,148516,-30080,-142220,-64444,119326,162504,-105941,151406,-37993,-23429,142822,79428,-62402,44119,-1738,72450,-160859,-101560,96259,136578,15674,-181416,174887,219945,57183,-147475,11509,-110585,88175,-129199,-166413,172534,135338,90917,68820,-189314,-203919,55885,-209046,120565,196194,-25250,-12276,-158580,-3143,-163699,-4860,-114959,-19888,-136718,90875,-143380,-19377,-35671,65757,183498,36970,-70982,-120560,160279,113957,87886,139365,147030,86277,-181796,-102034,-52568,196438,133355,-162507,-157464,-109680,-196945,124298,60626,130459,225155,95653,165898,196234,145085,-135233,-19030,-1582,-130553,-125280,-63021,-63640,215455,-36346,-207161,-2121,113172,-83768,-30324,-126016,-203378,133403,170573,-146187,-72493,-149575,161928,58667,156468,157492,-73060,-29498,-81101,-104033,-195335,-100390,-7459,72841,55587,61106,66205,107588,-33941,-134277,-25079,78965,-133445,49345,-120088,44457,181909,130554,-185438,98447,103163,146306,182364,-113514,1271,4592,-131752,200205,203289,115916,79710,-171495,194867,73897,110365,4007,-199783,186096,-124593,-122086,-433,199570,81810,207842,-19805,185928,204212,147986,-5820,-15565,-47844,108366,166480,10141,-161679,1455,5801,173063,-2787,171694,102232,75034,78273,180766,-116304,-200280,113354,-212822,84498,89684,91450,-106721,5275,208956,-48682,30698,-84666,-177123,210558,-24268,-155710,-117935,7785,-159913,-131206,-112691,188726,-209009,-84897,87888,-6532,1969,112694,-12358,-18050,131446,112146,130179,-177560,-204270,-108282,118156,-1981,-82789,22847,-185822,-43287,-9229,67488,43797,168673,-29828,136424,-79481,90366,-112898,-120551,173579,58733,174692,-51355,-94185,82739,7680,126761,-150492,147543,-119147,148301,60149,53158,220445,-105385,-9299,74147,-158932,-158734,-161107,-9706,-46921,155648,-211623,192995,-193904,-100925,-210206,97630,197079,53221,-151307,33871,76759,115634,-200039,-73867,162415,207964,-109335,-11213,11334,-143743,47693,113451,152395,-93656,-184362,108724,6609,153023,189442,-97301,124902,206650,-24569,-60213,145962,185501,-12199,-210597,-125783,3570,-109043,207485,148620,15308,-77745,-100443,109189,18351,68005,27049,-44957,-182187,19750,-214973,88663,39102,175380,99248,99065,-16723,-201000,-210129,-182998,201012,-79142,146728,184954,-17596,183096,110790,-6267,-73253,-150677,-60502,-131284,5381,127206,91331,-155540,171085,72157,6671,-18415,80209,156137,148679,215829,-10337,213210,-96246,-111366,115843,15255,-174751,-111021,-167830,63902,159128,17694,-112079,-114417,-43057,34504,-186101,193889,-140471,-90580,-159421,54013,-212964,-24469,-147761,146687,19349,202713,150723,111530,-128879,-94824,162540,-160947,5594,-95798,39458,-69341,-104215,169255,187079,-4763,170019,90009,47330,-99849,-128961,-210068,163554,-12658,-167689,-48236,-36858,-44904,117765,-72566,-34731,85829,84648,-202446,86016,121247,149606,180845,208414,-213875,-67480,-193016,-132937,-100648,-85317,-41099,129938,-125630,-40786,133538,125625,-185783,150026,-48384,3584,35436,45566,73353,29900,58488,-92399,-162658,13516,-177090,-132623,-137229,-120975,38459,63345,70487,-171243,-90318,-93400,-206723,-200373,9102,177030,218388,112644,-16996,-131811,-143420,152792,-212107,14798,99679,-208151,-107344,-130036,167648,-157111,50589,-159249,-161155,171120,-214012,-50567,-147949,49234,-126542,-73878,11351,-37579,192846,233329,51628,239482,180971,-32697,40263,-26567,-144497,121061,43492,-32374,-126117,-217947,-58585,-52081,50203,-91323,-194358,70573,-97573,-13945,-666,165380,-206881,-97899,-214172,-203427,-151611,29259,88754,135742,154054,282346,249507,-81059,45675,-186710,-84170,144006,-134624,152830,184836,3480,74011,-188376,94341,-46476,70924,-214055,158679,163637,-62267,201488,124281,165886,-26202,118304,157900,19255,57816,-33261,-24433,82681,142927,-367,-12531,-70660,73542,-123153,-29298,-180155,-57949,160853,-76581,-118280,-204584,68720,-215424,126436,103088,111727,-113072,131095,5923,225784,136896,123207,-8088,-3231,39596,87949,2807,145006,-151646,-151258,171163,190047,306,-203234,29414,97760,207869,-76841,-43428,70629,150853,67363,-56193,-81178,-25325,230558,-65196,273733,59998,97716,116844,-214967,152361,-89109,39682,86302,41569,128783,24329,-52911,-202136,-186852,104381,-188612,113878,7658,189550,-70919,-122361,165580,138070,-97257,62863,-13968,273561,198724,136663,-90660,-133858,-214673,175269,116845,-101438,95996,243236,-97171,43546,-11148,110721,94128,-77461,-141353,110920,186600,191928,41724,26879,-49308,268435,287635,-142581,228813,-82739,72636,-155157,33438,-154091,80631,-10418,175364,192498,13547,233805,-16853,167397,-157827,178065,26070,-84771,175948,161707,-125470,133047,-136486,22086,151015,-89459,-99964,101575,-35469,73264,-66381,-132103,233128,-217469,2024,20729,-91141,52799,27132,-98248,123214,42095,148738,29894,-103273,-183321,119292,-73584,-5773,-123007,-86347,-49327,-165253,-3618,-32705,-179389,24898,138773,-5090,-122833,12658,-69913,85365,-31544,177945,-67288,138077,222770,6320,74250,28807,-81833,103560,96046,-134098,83701,20552,177336,-176815,-4112,-47690,-106606,-85624,-254986,10114,-16996,152692,279528,50568,185494,59066,-148547,49223,-98259,-35959,-3943,-226445,-204716,185450,-13316,67882,143073,-98117,96125,-65197,183159,164696,-79321,-144682,-151605,-12572,-83629,103909,-151012,134861,38300,227072,211180,-170243,-27333,-184938,-226646,1372,-57622,20723,184582,207258,-180085,-130352,-64534,-105135,71007,120144,211256,-92848,-155150,-160772,36154,-10203,-135048,281545,-31571,214429,-56216,139562,-147207,-187091,147736,-200775,-247922,-220086,-125467,145042,-10275,30070,-206964,-180572,-127300,202290,-103873,67625,184952,16732,-52814,-140960,-200084,30787,64408,-25979,175806,277221,50709,-101774,48830,-77116,-146709,138378,-173969,181814,-34517,-139633,182081,-77788,171608,-121816,111781,10172,77346,42813,-120489,9229,19215,172181,233756,232774,42908,294267,-619,16483,-107587,98795,134105,-132341,-79406,-106732,-222770,-123447,-44602,-174848,172206,146004,-184150,153384,-119464,55235,215712,208267,-156898,-33786,-22584,-43669,-130090,63649,239957,116173,27731,53367,-112080,-116138,-155174,-194299,163691,-180937,-146196,-57413,85675,46197,76606,6788,178268,-201599,150428,-175806,120589,68748,-5178,128776,39261,-202436,107480,218046,-97927,58030,101744,72185,-42351,-107068,136936,164121,-135736,-161626,-118233,95071,70327,-156118,72004,150746,148347,156515,78098,-56347,119787,56621,194533,-222223,-97917,114552,-11923,-137983,222706,120796,131772,-200343,-205070,56730,-16795,-127570,48477,236550,-14830,-114614,100558,70749,14597,-64533,-95634,-105004,-146736,203374,-20047,117330,-41733,2605,-71740,174842,135349,-30374,-155888,77757,-125879,126860,162485,-184573,-133560,197021,-29531,-83787,-3677,21102,171817,-163986,-136419,-5962,-26547,-96158,-97485,-121684,-203479,35124,-7924,-110878,-110557,-80429,169450,110631,-154542,-154697,139733,198616,135187,104327,-13845,125501,41582,172915,-102404,204608,130862,17186,-27056,124753,-167790,14471,-77100,142654,-139451,-93129,38620,132045,188914,-136306,180549,16187,-82052,-122202,-74403,228408,-70615,147883,145899,51310,-28938,-155478,37555,167751,114059,-110688,-123971,-14329,153680,-65984,-177467,24869,115800,-21735,-163252,-159084,17215,50916,79916,84554,-122231,-100155,-57156,154229,103763,47375,115827,-19405,185440,-130585,209169,184632,-74225,55635,-153924,-44863,151,157468,57453,-13945,101965,-195370,204618,-106511,10314,-65133,-162192,186113,14055,-36986,-186662,-205056,53786,-112436,93446,144663,139359,-68703,-211166,178911,-37786,86159,-110929,-189774,27609,194670,86466,-18395,174062,144957,-69848,-84367,193301,-110911,-127374,-65024,193685,206557,50889,16109,-190346,-49891,188795,-210460,-191238,-139806,214889,-59229,-7112,158979,-168382,-5981,3513,180724,-101355,138767,-128189,89597,45449,200461,-118325,112282,16311,205762,8836,-166475,151145,-25010,52136,167953,100375,-96104,-156718,-144761,35722,-21369,57942,-59847,36630,-138687,-63860,-82567,207487,146365,184012,-194948,-22054,30837,-146990,-56160,-74563,143982,129794,130371,73991,-11967,-80504,74097,77467,192120,-66793,-12556,-216047,21203,-97425,194635,-48603,-103230,74678,89187,-201389,12996,97387,-170116,89354,30332,-14345,154320,-198669,-43204,15463,172092,1551,-7214,161200,-165970,-7926,188084,-69717,21950,-206433,41103,112763,169861,-111175,136192,-103979,16646,19600,-113262,-160871,-126245,-80030,127678,-21015,38896,-210438,-181851,-211845,-118329,-92435,135874,117055,-191747,84498,-117329,-101824,-202542,-55772,157545,-200889,4114,-137241,65915,-124482,-171516,-10033,-157971,-46956,7304,-180986,39433,150825,126291,-88258,-35175,128347,131521,206276,-22370,-63441,-132382,-193149,68244,91608,-100875,204696,94393,85986,-11440,200858,77929,36266,-204803,-184939,-21644,108207,-190564,-57197,87909,119202,187280,166518,-200628,166760,-48589,-174478,-165921,-142147,34704,-74207,122342,150339,23813,-157088,188282,-145572,-173439,-17857,46162,-27741,28349,131302,23190,-43805,-138351,109699,-18172,13326,207679,13948,171252,211855,-132031,95701,-16732,23073,15808,-55944,-140602,-115120,-46105,159723,-51164,-119758,167645,-62208,-210575,71439,-197920,104676,38583,212057,-152236,14039,110104,-162680,122595,