0.057647385,-0.019348005,0.010635652,0.008084396,0.029939212,0.03324388,0.009479002,0.014124557,-0.0005591646,-0.019913206,-0.02200353,0.007444222,0.007394891,0.020798137,0.025734482,0.00828516,-0.016520007,0.010007015,0.02632939,0.0074490136,-0.012801421,0.022965465,-0.010614413,0.027305398,-0.004347144,0.03607415,0.0537354,0.05668194,0.008624247,0.028414141,0.028376576,-9.516331e-05,0.009954066,0.013521077,-0.0341781,0.01935014,0.050576653,0.038862757,-0.029032053,0.024332168,0.06311354,0.040333338,-0.014149424,4.2553977e-05,-0.0014042337,0.034819853,0.008548872,-0.011542721,0.017013706,-0.03084078,0.037021168,0.019978667,0.032986097,-0.005822789,0.00018269542,0.051886477,0.0017775102,-0.022815142,0.011178962,-0.004615333,-0.015067612,0.029766653,0.022275275,0.027201317,0.04729721,0.047143467,0.05354073,0.006419819,0.0011032792,0.010944006,-0.0030162288,-0.029069092,0.014684828,0.027424183,0.030225145,0.0037382613,0.015587811,-0.020437637,-0.016263677,0.02706844,0.0030113913,-0.018844994,0.054512158,-0.018142916,0.025012026,0.018008757,-0.01884663,-0.0032730207,0.0068290676,0.03303031,0.042265598,-0.026563765,0.009183625,-0.02919805,-0.026125373,0.026006069,0.013459576,0.020361079,0.01675524,0.010610884,0.008656157,0.03696964,0.04206184,0.025750196,0.027543547,0.006810937,0.0028153984,0.059961308,0.014719608,-0.012589952,-0.012161198,-0.00229139,-0.0190665,0.027862113,0.04486159,-0.015288192,0.022901187,0.04483812,0.0036027296,0.038483292,-0.02928608,-0.0172902,-0.017244827,-0.016247692,0.033893034,-0.016211899,-0.017802216,0.05097625,-0.021284565,-0.027218174,0.011053212,0.039551057,0.009672294,0.039051563,0.051672213,-0.004952664,-0.0311314,0.03855639,0.018674647,-0.0011282398,0.021309467,-0.03166566,0.0015794447,-0.031353418,0.041113354,-0.01665183,0.044901956,0.024763498,0.030943917,-0.023899619,0.014747262,0.008520721,0.00013000077,0.00659977,0.017989008,-0.0006027446,0.019044016,0.01714134,-0.023209084,-0.02641689,-0.0066438513,-0.016038453,0.0040574623,0.032030012,0.02337426,0.048518848,-0.006242704,0.04025553,0.019764178,0.041631807,0.03583678,0.0049519497,-0.02419063,0.013331862,0.016212763,-0.025223944,0.030734919,0.020686502,0.0017652157,-0.0130609255,0.031310942,-0.027184866,0.014384939,0.025310704,0.009729532,-0.014056925,0.045505863,0.045717716,0.012458916,0.011478407,-0.0037425894,0.018265314,0.019934967,-0.0018203994,-0.018943418,0.0045081014,0.01678345,-0.0010830591,0.014160314,-0.019766597,0.02962978,0.024672816,0.047054864,-0.0052380376,0.045064718,0.010355504,-0.01358568,0.03068594,0.030258188,0.0029703977,0.02637637,0.01665325,0.009034888,0.004671388,-0.010267102,0.010067956,0.05113419,-0.030152608,-0.027648868,0.02670859,0.027951386,0.05041407,0.0044839205,0.025052221,-0.0045325933,0.030778019,-0.01685084,-0.0008214288,-0.011712629,0.015415336,0.047917455,-0.005147153,-0.010922959,0.038208123,-0.0007763532,-0.018602343,-0.015054707,-0.015703281,0.053180616,0.0415315,-0.0211934,0.0065986547,-0.0138915125,-0.01674612,0.036841065,-0.0011630176,0.009253667,-0.0021054503,0.01203918,-0.0068587475,0.05107843,0.021254841,-0.009708495,0.027174113,0.016579062,-0.00050750695,-0.00962776,0.01839089,0.011542557,0.012619113,-0.013187657,0.028861875,0.0033781405,-0.029773038,0.0073269433,0.023448618,-0.03665955,0.01486748,0.021250429,0.027736383,0.021476952,-0.0025744536,0.021406747,-0.022261174,-0.016870044,0.015857164,0.010172519,-0.019278498,-0.014388452,0.037605483,-0.014714952,0.0354699,0.029199958,-0.0048441347,-0.007077298,0.009459297,0.0027768302,0.03279872,0.017318852,0.04836817,-0.0024825775,0.027447393,-0.0076825176,0.019548945,0.015963076,-0.025607307,0.008480533,0.029805625,0.033452377,-0.013431704,0.03183003,0.009870464,0.011904949,0.0131715,0.010463415,0.011334121,0.018980289,0.008444305,-0.01170467,0.010880131,0.010989141,-0.009385108,0.039807606,0.057908773,-0.012666233,0.017391684,0.0069945576,0.060595892,0.005576089,0.016047671,0.0247019,-0.021323401,0.0122365,0.041057926,-0.008455062,0.010348519,-0.014261591,0.0076270746,-0.00065191946,0.010736379,-0.034502804,0.008257877,0.019392697,-0.0059505748,0.008711619,-0.02798366,0.016970966,0.019269101,-0.031640407,0.0037432257,0.037610676,0.020027533,-0.012701652,0.038975764,0.044246554,0.013036142,0.029624337,-0.037111204,0.040367242,0.029144423,-0.020474754,0.019996727,0.024024518,0.033934668,-0.0038970695,0.015317141,-0.030635923,-0.032705706,0.016858028,-0.024801176,-0.0015183226,-0.022950148,-0.009966127,0.024828913,0.017327009,-0.012447912,0.014019049,-0.008861449,0.0019575728,0.039332353,0.027509434,0.025215695,-0.01737952,-0.009658326,0.049941853,0.03059319,-0.0235002,0.04415634,-0.01418083,0.04119021,0.00328127,-0.00031116023,0.00082300615,0.004065903,0.044361614,-0.01003186,-0.0053564142,0.0014738346,-0.017909246,-0.022530768,-0.012111346,-0.0024213092,0.028469715,0.027684478,0.03318485,0.02439436,-0.02037505,0.009703333,-0.023773614,-0.0031912592,-0.035528835,-0.0030113827,0.023061192,0.022441989,0.02315559,-0.0051012677,0.036098003,0.051086724,-0.028709536,0.028632443,-0.012682318,-0.008225517,-0.01804358,0.0064860787,-0.013233929,0.023214674,0.012218221,0.010121997,-0.034694735,-0.0011023153,-0.0017524563,-0.010277297,0.020208968,0.03153487,0.029432494,-0.011384863,0.04074408,0.011439158,0.008934774,0.04711229,0.022109013,0.0034117848,0.023629773,0.0055509144,0.033267446,-0.012475097,-0.0240948,-0.031683054,0.017234623,-0.029458843,0.011117955,0.01126744,0.012051051,-0.006927329,-0.025253648,0.04188113,0.051175617,-0.0064755664,-0.0065977196,-0.020685807,0.022919407,-0.02875832,-0.007985899,-0.011691133,0.023062708,0.035304096,0.044804275,-0.007147842,0.008551267,-0.02915569,0.0007311567,-0.010762296,0.039227333,0.019645957,-0.011843309,-0.0075454055,-0.018829638,-0.01855048,0.046519466,-0.024731006,0.01882906,0.010674919,0.011647795,-0.006904597,-0.015281472,0.030461954,-0.02113758,0.031823963,0.05608125,0.0050959047,-0.0007842794,0.01619717,0.03831998,-0.016858054,-0.027522674,0.014730214,0.01510687,-0.014539717,-0.031448722,0.02337523,0.008554255,-0.027590333,-0.0040436634,-0.0015772397,0.029743759,0.023929367,0.0054292576,-0.0241548,0.03293316,0.023524476,0.017211407,0.013394915,-0.011694569,0.03303163,0.022922803,0.05019229,-0.008646266,-0.014397654,-0.0052721975,-0.027180789,-0.015467628,0.013746868
