-0.014518528,0.01844817,0.05633419,9.777256e-05,0.031448465,0.032979075,0.041662943,0.062135223,-0.03542176,-0.038273014,0.044870164,0.016164752,0.040068645,0.027213808,0.004816161,-0.0070394687,0.025778916,0.045472026,0.036169343,-0.014436603,-0.0018802512,0.018484613,-0.0070751603,0.042845752,0.0051101814,-0.025929434,0.05456968,0.028435271,-0.003651206,0.023471396,-0.032093916,0.005504618,-0.003786105,0.019713419,-0.022950944,-0.014031794,0.042906452,-0.007871948,-0.01715612,0.012035882,-0.03392151,0.0054803207,0.03946629,-0.023505665,-0.00065052713,0.032149438,0.0016327024,0.032536358,0.011757838,-0.027694225,-0.025547888,-0.025107931,-0.007074134,-0.019988753,0.044660296,0.068799965,0.024911016,-0.017438216,-0.03043531,0.006060835,-0.019496059,0.036269724,-0.00026358265,0.041924946,0.035144344,0.008022246,-0.004118835,-0.016535105,0.008924936,0.01755934,0.050032657,-0.014288609,0.008233794,-0.016994134,0.054190908,0.010494952,0.020666353,0.041565455,0.016928013,0.005906565,-0.0272326,0.037075665,-0.022755813,0.010984384,-0.003328875,0.022616208,0.014064982,0.061071157,0.025961654,0.0032270541,0.018989563,0.016982256,0.010502106,0.028107977,0.02540448,-0.020773137,0.010076822,0.06108963,0.033612818,-0.013629085,0.04324533,-0.040029768,-0.021462016,0.03375746,-0.03617829,0.003116833,0.009711395,0.020765917,0.003645401,-0.026740674,0.061410632,-0.062885694,0.032948337,0.0557319,0.042903263,0.04123357,-0.044474512,0.014488107,0.0023659705,0.06018422,0.02420559,0.054878216,-0.0067811706,0.06011765,-0.02725865,-0.025506333,-0.038577236,-0.022762908,-0.029338982,-0.009558928,0.023416506,0.0032277028,-0.009404577,-0.021945901,0.004958277,-0.03805048,-0.0073280544,-0.0053027854,-0.02385134,-0.0006533116,-0.019887581,0.0039978805,0.04773791,0.007886528,-0.026165407,-0.037588093,0.011153025,0.007963091,0.020213887,0.046610232,0.050812233,0.052591916,0.018309603,-0.03804205,-0.03136512,0.021923967,0.012959047,-0.022493491,-0.008757251,0.0029286393,0.05300097,0.026623318,-0.008810645,0.036063742,-0.002041873,0.023960609,-0.028290397,0.06915475,0.037779346,0.03478966,-0.036605682,0.0056642033,0.06293469,-0.0027032269,0.02093032,-0.014393935,0.041776244,0.011184493,0.006617025,-0.025068108,0.035601713,0.031597927,-0.017555207,0.03440129,0.04480406,0.03930259,-0.026583903,0.04177839,0.021574516,-0.024616305,0.016998902,-0.04144083,0.040645037,-0.0018698416,0.0036889426,0.018133685,0.033528894,-0.02353878,-0.027907472,-0.027962776,0.038447212,-0.00089965365,-0.012074536,0.0016503339,-0.02205865,-0.0145625295,-0.013805133,-0.010898554,-0.02822961,-0.022808433,9.399537e-05,0.015417417,0.04412245,-0.028910276,-0.011210854,-0.017322097,-0.027795821,-0.0034123638,-0.00884485,-0.016964998,0.028784305,-0.0016674664,-0.03985015,0.009373261,0.05754156,0.003612563,0.0014406241,-0.0149328215,0.02284168,0.07064787,0.049400028,-0.006448165,0.022828715,0.0492076,0.015857268,0.010000567,-0.024953794,0.047071762,-0.029716548,-0.01958867,0.043124374,-0.035699524,0.0002873126,0.05318002,-0.031673536,0.010639693,-0.0103578195,-0.010805968,0.046736836,0.057431217,0.035783943,-0.004979118,0.02459658,0.0093448,0.02961428,-0.03593375,0.018542694,0.039117936,0.047454882,0.04465432,0.016419638,-0.010497004,0.013168495,-0.0044513284,0.020791776,0.023097586,0.037242275,-0.034293644,0.0001037086,0.0025331886,-0.018260946,-0.043523703,0.03127217,-0.020394588,-0.038265724,0.01313399,-0.024561843,0.02497366,0.010753444,0.031573337,0.055271804,0.025017535,-0.040642686,-0.0038115664,-0.017572591,-0.03582452,0.008893538,0.04234713,-0.026464952,0.038999442,0.019365352,-0.024410987,0.025549863,0.043224003,-0.029118463,-0.017359534,-0.030034823,0.058144674,0.041633267,0.046352502,-0.028111422,0.06035334,0.083129086,-0.016998542,-0.018905977,-0.029364388,0.037777983,0.0068878084,0.012523879,-0.003105688,-0.005859732,0.023745287,-0.012728911,0.040455475,0.009401902,0.036113746,-0.016457587,0.024001887,0.05538964,0.012896047,0.021449398,-0.016273824,0.04500274,-0.039267313,-0.020498296,0.03482043,-0.031743485,0.04426847,-0.02306092,0.013661985,0.032349043,-0.02059433,0.00640355,-0.023670465,-0.0035227735,0.028016442,0.008972371,-0.024845717,0.023364104,0.06824908,0.04128324,0.0106922565,-0.023056863,0.04692977,0.0007777545,0.013853531,0.007127358,0.02788417,-0.04143553,0.022798337,-0.020594558,0.03988267,0.00031587682,0.07011527,-0.024410304,0.0150575135,0.0048103444,0.07280713,-0.02714603,-0.02788302,-0.031275358,0.027131565,-0.024376472,0.038932394,0.05225333,-0.013940426,-0.021304697,0.050286505,0.033224966,-0.03659074,-0.03353569,-0.022356965,-0.0016873716,-0.024779776,-0.003579236,-0.017426942,0.038625866,-0.040939126,0.04079372,0.038834404,-0.022750821,0.05641294,-0.020288017,0.048997745,0.046639934,-0.04207595,-0.00046564493,0.0019811497,0.027558513,-0.009980749,0.01154852,0.0011989399,-0.038540103,-0.027693817,0.02863474,-0.012770703,0.0046002725,-0.019200759,0.038593125,0.026621757,0.025815567,-0.022445528,-0.0070228367,0.06543785,0.0050285915,-0.01390909,-0.03249853,0.015615075,0.01526959,-0.012014419,0.018424934,0.028371474,0.039914228,0.04038952,0.04239102,0.03362902,0.06674076,0.044874255,0.03153958,0.034295235,0.04501636,-0.017006923,-0.03495517,0.0055872467,0.014493725,-0.034136042,0.025928915,0.010535676,0.03060852,-0.017403547,0.006445113,-0.03882746,0.04201396,0.05564255,-0.0065179826,-0.037278514,0.033598084,-0.015665703,-0.029828984,-0.01032355,-0.029581385,0.021345593,0.009244951,-0.039710596,-0.029999046,-0.006711877,0.017903587,0.004744592,0.062030774,0.021142978,0.034784596,-0.021479668,0.058445346,0.040600616,-0.0037098592,0.031701718,0.058049593,-0.029588968,0.03583746,0.058099456,-0.0009267733,-0.016366918,0.058856484,-0.04645344,0.037101455,-0.0024130952,-0.02624928,-0.012098854,0.04261669,0.048021063,-0.0011259184,-0.030452458,0.02558023,0.0049182544,0.008125551,0.03481373,0.032967966,-0.025831873,-0.030946216,-0.030261576,-0.0123939635,0.035180293,-0.038506106,0.024928669,0.008839974,-0.03666673,-0.040991716,-0.009030948,0.017766884,-0.033104863,0.06681142,0.059702177,0.019494943,-0.016716802,-0.02798332,0.06545974,0.03530982,-0.022794524,-0.0067584165,0.0032331354,0.019192336,0.0065885456,-0.028681511,0.043562848,0.01046611,0.009770881,0.059193913,-0.033788588,-0.006839803,0.005898557,0.040107485,0.0035887638
