-89756,-185017,-277768,60030,-205011,-95869,-267743,-133985,-231883,283962,-129107,285237,-110594,-246578,-271760,148251,98354,196646,187363,-230537,309348,-59964,221087,-293455,35647,82072,-2706,77412,64128,-274201,-94881,-92726,-219995,84805,3752,83655,-200759,-286443,-40389,-279217,-165167,-176611,-62043,175767,231360,205770,-38787,-169577,-60020,211285,-98936,62034,-50584,-97760,-229430,82567,-175894,-131842,67317,114406,355566,-67076,-137276,-52583,-28796,-155082,215438,257168,292324,-2002,-247868,251242,-369574,227738,181250,98448,144034,-39310,275751,139535,-281872,222075,43821,102588,200859,178525,-171541,185765,298509,72895,2099,-101633,157317,79019,-84187,63406,-268667,24422,-204144,125805,-63708,102641,118135,50251,-86025,209249,-45394,91478,-75854,109411,86764,51097,-5949,-241371,59518,-102625,91688,196560,196147,-140050,88691,-118088,223572,216357,14548,-101231,-251662,135326,247553,198813,-24462,-62450,-215126,275752,184977,8599,266790,-119205,-113264,-107420,-115167,-4746,-163126,237248,-132548,163488,-125035,-236882,-225636,-180509,-190128,158349,272300,-247593,10979,120331,128489,285773,197591,347887,90261,-67958,-266763,-53077,46206,-193213,-246919,118702,196737,254149,-85359,267297,12430,-266805,294499,-188631,65826,322519,-255790,28492,-13742,-102374,2296,125394,-162020,-59784,-123999,60297,-244973,-265494,247058,95320,51961,-120431,-60384,-233075,97583,119524,72484,142233,116559,-208580,10668,86264,52500,98433,-196203,-12291,-270799,-65421,-293518,-217518,248414,-14889,136115,-89095,-61871,-168162,256105,183473,235185,181297,309843,202122,-122406,112928,181930,309962,-111216,31871,-222652,-235056,300007,95983,137088,-22415,-272531,-276013,-117130,-290504,-157322,178127,-71328,260705,-218702,-138946,170422,174151,-134709,142190,-196339,76975,241674,263566,32277,155862,78828,-30171,270221,-39700,-116430,-36630,-26202,-46162,-28633,73329,-168231,30837,-190767,-68175,128120,-124709,-24386,6428,249317,269,-153376,7992,-252557,-168701,-127278,-250226,-204564,45444,332113,45868,264718,-94785,-126406,-6372,-217855,-198504,-173644,19392,243128,-262132,-265416,261182,-235337,53031,128393,-105710,19949,224104,27264,248711,13603,62286,10353,-70290,-132939,-22625,-269038,220352,-92126,-82916,193594,-125360,30115,72435,-138692,37871,156694,113221,-118455,168044,-112845,-208454,131978,-164488,-37336,-153091,-30333,135860,5249,-271955,245295,102654,-221144,-182563,-283219,-203003,-1441,259338,31111,167145,88328,201660,196829,63739,-179463,298164,-284020,-177793,42596,-259102,-44606,117176,85066,-136644,189241,132237,99811,-258752,100763,-151416,-99461,-66554,287612,-123348,-74878,-245834,31272,137688,139396,-279802,32839,-240891,179914,59638,102002,247902,-23565,238060,-170559,-40614,-214854,112218,321755,19849,1990,168970,-84733,10344,120056,146242,-151297,-116973,-277061,50320,-183472,-92616,46292,270915,32650,-193929,196674,-103269,113251,266162,-139874,-80572,-211760,-110821,214471,-173141,-73575,-68267,76028,-152890,-22780,-86373,-132146,28015,102616,-271942,-237085,98765,-305825,200984,241478,-36960,15382,187654,-257659,-164370,-269508,-193345,-160698,-232609,223739,-165729,56216,221488,-89078,187313,244678,170236,216197,256057,280724,182685,-178274,224013,74189,120872,-41482,125435,-227718,15603,-57341,110444,104142,179611,90308,-109370,-165316,87734,13686,-73899,218365,-97265,21412,257659,-9304,169055,19568,237472,-7854,-98476,13893,-241525,-182860,-61549,-56886,-201257,-222762,93529,195260,2297,205218,-97651,-17828,257329,1122,70724,-157425,-87676,-1925,-33718,288203,24150,55619,-225889,82964,85705,-38409,-10653,240741,-244552,308443,102417,-73725,-267059,149940,206824,-127333,40766,37763,228301,-233015,-42338,155254,195821,133556,97822,-229017,-14890,-135069,179997,-183347,-20828,58302,-153145,89545,77784,107178,-98536,167457,-222377,148257,188304,74836,-249232,-128692,239151,-146510,-820,-10042,-129099,-263497,-6573,-132063,66119,140069,57606,-230565,-188801,-75671,-122651,-56421,-223690,-260637,-49006,-188022,209795,38532,-32016,-125568,207933,-198298,-158763,-104172,69873,-210591,-78077,262282,-190766,-104020,33058,218714,218470,49541,112254,-154840,-211677,58085,5389,85926,284501,-15568,-234016,-9121,-289124,212061,65335,62479,-275955,28429,130016,3415,-9372,-265975,-213964,-172543,-59642,180343,66380,226008,-167622,-228565,28671,122781,-139969,-825,219994,-42679,-145970,216550,277856,-79050,-272682,49331,-249185,270908,-9530,-269380,158088,-229450,48866,108372,200873,266616,-73337,-57175,214072,-224104,16119,-97797,-232630,-27022,-83965,197994,-110394,21850,53042,-78016,153489,194388,185459,-102309,-198597,-183819,-84846,-62166,135865,21420,-201881,-163738,-191974,-34208,147650,-209188,-140475,72445,263580,-120829,-105035,-213048,-105464,-220942,215779,-239731,80007,-216702,-39690,259733,276966,-220729,-243773,23983,-102523,-241982,258734,174470,-121610,116040,-10946,-165789,-279844,53692,-81428,108150,-278872,85383,80692,197913,-218321,204982,265839,-84602,-119525,45921,-185435,168129,-95024,-252413,-161827,-192014,86281,199171,224120,-263939,14615,-179239,-221113,230984,-19798,47810,40509,-281344,193660,116695,-159611,45925,-89949,239366,-225544,-101914,120755,-17408,-16035,-181671,-168263,124801,-219160,-192379,238636,-93119,-125726,-48887,-273224,-3694,-233129,267761,-227867,63578,258331,281344,94329,-76824,-223916,177107,30385,208795,158892,-125452,-222416,51204,188262,-199918,52408,165074,112736,-34785,19314,148730,-88255,4092,146650,86762,-228052,-199916,277396,-51267,178982,261565,266801,238651,13,-276123,102609,81345,-69084,176600,-99700,-142418,50678,134135,77613,241143,-170270,27413,-123830,47117,67766,-95253,189204,-274016,23521,-209539,-168971,-181313,9112,-218229,100248,84463,-41419,215046,71917,-273926,-27689,-1241,-241498,275351,-112503,152080,92956,-28648,249348,29322,-172082,-147102,214757,-34914,157521,-57883,-130901,-108303,174247,96512,-58548,-235096,154600,-83148,-49331,-114710,40921,-28601,279561,223010,-274844,-117747,125175,100456,-141272,176980,-139012,6871,-287805,-71294,-252263,-108299,-101777,-268805,-265814,198590,211158,28277,197293,-274710,276474,-183945,233836,-251047,84490,-155138,205870,176198,-278960,-245015,-23163,109779,-79879,-187226,282687,-95336,-206693,-168515,-240103,196900,-94257,-78772,24128,154352,-29006,-231765,-262769,-62979,-284094,177479,64956,100582,267029,-87451,-279919,-22650,-96200,-97079,264061,-215074,258357,-1984,-185386,189009,203067,73145,235921,-72671,-261980,150890,-156628,-261311,32615,23880,-271292,38493,-49932,-52818,167094,238622,-83670,-200776,-189659,-179758,171213,114282,-17267,-54928,-156332,31279,191846,243307,85004,163929,218708,104029,-258751,170462,14588,12469,-116524,-145202,73601,282082,216480,258905,-189870,-263546,146693,-211915,-19178,146333,-146005,235536,-35904,11945,16042,246760,167229,264795,-83092,13704,17488,-184523,99326,-48163,216393,137757,-211618,-217937,-182787,163045,-70763,279299,-71263,249565,-238674,35012,-131838,-114000,88280,-74354,45799,-127323,154544,131923,256688,137865,165230,54560,153284,-161481,-147620,-184080,175467,220253,194286,201105,-263629,-168301,-149839,-270101,-184776,-161757,-275246,-166535,64569,108258,62129,228567,-148646,113027,222072,-153522,68681,135164,274937,-265739,-78578,-97609,-23489,-34125,100708,-90001,22226,56005,189826,217099,-106442,-141665,-225350,203465,298076,11416,-83036,77367,-4497,47236,-128686,-212200,78602,-87188,-211468,-222203,-178005,32740,255443,-64622,-14678,-186166,-290223,-255300,-80350,103534,-166680,248636,229297,69342,-113463,365703,-281109,138298,-172975,352938,201850,243991,-58558,44783,-146873,209962,-87650,-1431,124096,-224414,241701,-205137,2185,-184329,160699,-227538,-251716,-264438,-91896,-56812,67378,-38774,-39299,-145689,-206235,211646,114192,19346,-32586,-247345,-57353,-106342,38810,202025,-262062,138535,-160279,33221,-159162,-215200,204532,-261124,35193,-232429,-84509,5645,-46841,-220592,225537,-56506,-101456,49735,-159348,-226792,-149437,-223082,-233887,42013,198966,-91911,3857,-13356,169858,270234,164420,142137,317845,-103955,47015,-31711,-89981,206877,-250186,-258296,204659,81132,159589,260726,-73891,-48376,245923,-331681,-33471,106725,177155,-152790,-259965,-338871,-242432,37472,311568,-49280,100786,40293,-77806,-22301,279728,236339,-223473,30163,247919,-8758,157506,-170034,-247090,-50328,72900,164198,-38838,-190814,-101364,119162,115871,-216532,118475,19239,-120303,-209378,-25112,202076,116373,-13587,55052,-26649,300104,-215646,-177610,-118484,181689,-234813,221064,-260187,-95272,42151,41269,232213,293308,-105373,-125787,-118191,225977,16980,-128594,71076,703,58514,241166,54781,107839,-308615,-250316,-170541,22295,164492,118431,12130,137778,-193254,21440,123186,-70700,265909,11764,79949,-51642,174402,208659,-45680,258420,201656,-17081,-178690,275219,-316979,-111349,-209400,212076,190419,-173325,84041,274782,62232,249454,-232208,-182473,156488,327173,29743,-158582,236410,85645,-234703,207248,8864,225751,140027,-81718,-285558,-255304,98061,-237260,-49865,192643,-9749,134926,-21933,-37248,-396,-87223,-36120,106248,71128,335588,193776,253266,104968,324300,168852,-233058,-182108,-202456,-73262,280416,-75725,276920,30143,-252081,-71480,-260470,299247,-137367,221204,-40497,-68962,281489,-250477,287858,216241,250615,-243279,-220758,-174610,-187161,219866,117379,227716,-185667,59365,249020,-151940,-10285,-25473,193300,64905,45062,-108373,65279,241690,97508,-205177,-86070,-193781,324787,-319868,65840,161300,-23196,284547,-205392,172699,59170,35776,-12800,183039,-71730,104785,175606,262407,166899,-147266,74010,92843,97477,41659,-105704,118442,117319,-9694,80812,-241687,128542,231825,198197,134133,279448,-63078,199176,-25120,-55948,36539,-252048,174340,-18868,97361,166982,219732,173668,11423,103481,-176059,211715,26391,-106751,-131237,-231963,-33906,298142,261005,64280,70597,-136481,210066,-172437,59633,-150533,78090,220939,-137592,-232505,68041,-81237,-222891,-266720,388417,222776,43399,-165881,-221166,19464,232957,182982,248758,-74954,67820,125259,-1606,-186924,-79743,-161159,182595,193233,74272,84266,121977,110350,-312771,278627,-100127,-153617,109456,157431,317333,224395,-185414,-16939,-217573,63275,-102292,-309789,105063,-130206,241205,-195120,-246235,-67305,240561,-236566,243343,-210440,278100,-250386,109550,195333,14764,185544,50641,163562,75943,-51011,52472,-271259,-278135,-282805,228220,196312,14302,-113341,-225281,-110227,49267,252284,286682,261216,215269,-113746,-203686,18778,-280999,197582,277606,-170508,-174825,282928,-277331,158168,48512,-48075,156912,-44678,128952,302968,112699,-121555,214325,99848,182485,-8000,-35061,82176,66370,-212892,260964,-152037,241563,-234716,-26255,-319612,94880,-157085,86211,114931,-175479,237273,5944,-90673,206640,-174049,-158924,273904,17911,244139,263561,13550,70207,149131,-110535,-125923,-95418,-299907,-321888,38220,244304,161332,161006,67781,138439,-159004,214427,-296395,93422,76122,177149,99125,230464,233750,280088,-170266,-102194,-260254,75772,54756,135520,94825,-260816,-248535,-163370,-244962,-32365,-232762,280993,46965,-166730,216016,11144,223532,-78478,-272815,104536,242373,95596,-105526,-133878,204044,-93522,114804,-30736,-79241,119564,-195198,90350,224355,49024,159,27727,-203759,47572,-213521,-43790,26605,-56982,44466,-173313,171520,123069,-257400,7731,210301,148260,25449,199670,210351,20353,38423,-40826,55366,-54042,65821,61168,-172158,-145922,-250993,-98445,171095,-59094,183936,112885,217009,-166112,164666,-169006,-231431,15776,103547,241198,43455,7918,-107282,279588,-183909,-116017,14864,124056,-202626,-5832,155551,92812,-283029,-119139,-89803,59275,86761,-238273,-91163,-22895,-260030,-105098,-53150,113289,-163830,-83512,283465,131678,173520,-171335,180194,232578,172620,174274,-284718,59475,-134953,-64123,-57992,-284135,10127,69578,137544,-41141,167056,-7696,62759,68020,-253177,205869,180874,181084,277758,26477,-62721,-213592,65321,-60823,148928,41686,-101016,224455,69234,-119677,71262,-97547,197493,-213690,172549,-31064,246246,-163348,-193455,150967,20506,-96391,95959,197341,-274439,-273580,-48134,168336,115737,258569,221597,58400,-270813,-166888,24800,-65538,-88159,-183356,243153,-194942,109508,128190,-125816,235916,104582,235868,-247140,-30160,-258875,-172796,186625,-161953,207493,17022,-194379,-285699,-195282,-123626,-74949,33802,87057,19620,109483,-25482,-199763,-94228,132323,98844,-24282,91749,21019,-159877,-245287,69119,18636,188326,-278358,78606,58129,-24226,267606,-82404,-5998,59599,238211,-153730,-183723,185031,120489,-264233,87109,-127394,-266352,150233,257043,-262368,153386,-157391,-276428,-227782,112394,165450,-111699,149441,-49515,-258270,-211005,212410,162642,177565,233886,-16871,6273,29250,278506,271943,-152866,-218698,31521,240050,-138008,-82302,253610,-185697,-230766,-195472,173385,-102592,97487,239137,245137,-227567,-138832,-234104,203028,-3959,-79016,-9738,-95720,1350,-178324,-83845,-75590,-103371,-177784,270766,210480,-185979,-226737,-10713,-160858,-12394,89552,138054,-183150,182568,210781,-20015,243466,28022,-131740,-40423,-149245,-175402,-270644,-205423,34705,-57472,79807,194925,109829,147860,-80965,61537,206649,-36011,-14898,207662,-192293,-14413,-208258,178087,-87856,-154011,-29910,137056,21017,-7139,-37071,251746,265542,197822,31761,-166632,230887,-155027,3908,40187,92889,161566,247765,265744,93937,132050,-139547,-175820,-275506,56765,-173976,-169880,-146498,88323,-99017,-66604,-17765,-81103,-285917,-22537,-98488,-3695,43862,185040,73499,-60709,-201279,-123932,96134,-79844,-197311,8949,127979,-109499,277734,100297,15811,233895,-244853,-207193,-66733,-42343,-2644,-201435,-229483,80657,147072,-113700,115575,-189223,-39297,76445,-152791,-269689,-50504,269146,-235091,-181656,100677,-246676,245905,-228405,-124759,-76914,-103812,192987,-214661,188402,130668,-119703,134127,235225,-184847,190808,-95083,-263157,139069,-282090,-136991,-277423,194698,88648,-110643,-285240,-203179,-198043,-85620,-259897,-169697,-106001,68359,-149171,-72270,-287462,-238285,-197670,-225102,248785,37167,-240919,-193370,-132696,-118826,-242174,123148,242815,60891,38724,250051,-199153,-248347,75729,-65311,201532,281228,-154824,101174,132893,27488,-89592,-145535,111361,-147126,-56247,34419,-135529,-120348,-151696,-33329,250577,-200579,183039,-232380,-221442,-115201,-830,-228785,-118124,231938,-152278,123098,195644,89694,-85956,169582,163311,-153414,162670,-24064,-202632,135237,34428,250167,-94588,255778,142785,145169,128490,121838,-280506,-131774,-2324,244149,193569,127434,-199061,-15608,-272072,-122267,-133445,-148698,-77751,-155301,-50008,-267286,-13997,177874,-274225,149797,-197543,-110843,284509,226173,279547,204684,104990,5489,-209134,-286997,-116990,-355185,69731,-107563,-128370,129313,75989,-187903,-142716,-45908,-48805,310146,301656,176044,-229152,-80745,-202794,208223,122063,-291561,-151458,-221309,-29197,35025,-27690,-279924,68054,-99588,49706,25516,-252434,274054,-43878,-222716,-185212,-249240,-138947,-207779,-105283,-142119,-44502,275709,92764,105395,265345,71570,292742,345490,-203653,-180803,98000,-166027,-195792,86877,248669,-273929,-24610,-139325,227673,31356,304397,-18947,-231289,96728,16887,-70890,111407,-266204,74485,-106617,-269778,-250929,220815,139868,-112263,-143713,256773,272891,150525,192841,255195,-214854,136832,-65593,-172714,-46189,-126459,-77743,-497,-110130,-268583,154759,212414,-307561,197950,333632,77471,214459,-52478,259711,-170879,-138195,-314056,-214083,95482,-193436,-14885,-290365,268416,156675,-132205,184663,-53055,60546,216512,-113735,-280398,13707,90490,217668,298420,-246767,-37293,-216077,90365,300137,-45723,124483,127878,-126314,45291,218751,-186509,-31860,-19153,281563,146920,92076,16843,-210470,59013,-60433,-255667,36132,-237298,27445,5179,238761,10538,178090,31769,-68346,131319,180884,-1844,-365325,72245,320515,15009,-175414,-100868,-17798,-45669,-188011,-103048,-179925,-238020,204515,-165070,-132228,-289740,-173787,110770,-17580,309805,48632,-102091,-273152,-173767,-243757,-1497,-112241,90938,96256,99801,-280114,260381,-258067,10252,-125415,-23099,186370,-223204,-246042,268499,218920,75402,261743,285700,299011,128196,87728,-241978,223118,-38806,-276700,108451,217122,177075,45697,191765,25233,-196079,14832,4957,-169745,-274767,-701,246650,-17329,-207211,-268493,336775,19463,-138502,-61963,307978,-124290,207492,263357,67830,317611,-133217,183410,-240995,-118077,-113984,-30756,339238,238538,110207,-134691,-173357,-34122,-56349,-66868,50407,39872,-137856,-172910,-213580,198734,91791,-57709,174312,9870,59617,-67782,281316,220196,-76365,-309596,79382,155244,-164189,-175440,-150354,92390,96049,46041,154526,115922,239608,278503,106170,132546,263172,-135032,38745,-121615,208152,214439,-10551,77859,152677,239809,-98758,117918,306928,-44084,125909,-40251,280331,18737,-20285,-142936,23177,-16531,-49201,126934,-35883,-69141,271869,245905,-129620,-232225,313701,40023,165653,-89560,102581,168171,-245030,-196064,210826,-227678,-222404,34544,-99196,-17723,54392,-272606,-220414,-135262,222003,272494,-236835,285934,-121774,107231,-204309,-210787,118,125554,261540,90977,-31489,131723,53297,255334,151344,-11034,-273677,-15580,14276,207074,-247194,30698,-71378,13881,22546,261457,69678,-227024,-267143,77957,-134711,177355,294693,6640,91981,-79267,304369,-219352,-320669,141979,261648,-93188,-63473,-63231,-52092,-326403,254235,285488,246877,-272343,-166949,-163627,187084,158110,314170,53837,319922,-94931,301208,247044,-18664,-45799,-106574,-182535,313986,268345,290024,-101275,-288924,-256293,-203171,242107,-6325,107350,-259367,212882,33875,-124978,-11223,-28933,111240,-178439,-23067,-204534,283729,301740,238188,-257546,4405,156060,80186,-79327,-88579,-1616,-1994,84941,223398,-55524,290376,213940,107090,235920,-4462,-259230,131761,-3541,-107073,72344,-21452,48672,-154143,123653,297780,-210102,19897,102255,247360,21848,-148813,45838,-97402,121868,208598,-134651,-3866,-216762,-80231,40360,102514,-220478,29267,-304288,145106,-184237,234117,-91491,197786,101172,-233571,-25912,-44041,52373,64328,63855,-19001,220885,-191339,140599,-237464,-189606,-99934,1971,122286,244529,142782,105641,-140725,121851,135056,-28388,122050,128333,262250,227944,-283498,203849,133103,249405,82747,80503,227105,204697,313173,-115735,313087,-48861,-263897,-106165,-112315,-66765,77033,-278725,-159461,-152513,-8753,46065,101714,56796,-5191,-85023,-67382,276052,-83442,-161561,-101040,24275,337257,56741,244096,-17531,-227042,-197322,264700,93961,281905,247717,262774,-294684,65560,57176,136322,349831,-94157,98103,-203521,405596,199321,169133,114391,-227675,-24813,-160970,170193,-67784,123033,-104040,5093,273666,244301,-156350,297315,-267025,218000,48314,-192016,178090,283549,-148636,-177260,244945,-142134,230651,-16221,256804,-31583,177853,-33285,-230212,53995,-28065,-304165,205401,181851,84557,128425,-166067,339676,-205479,210450,269729,322562,23939,260807,94213,-240263,-256882,-150333,40078,-46725,155103,-72899,162415,210587,217828,36066,-81372,214091,1606,-281685,-19348,-60027,-188863,233005,38746,-153858,-262408,-53209,-11700,221865,215840,274289,143413,-171004,-207848,243560,111119,269906,184719,-265990,-136423,112607,187398,-39923,197906,136425,155489,114198,-150663,-192117,-37356,-149539,-141554,155635,-85995,248749,-176562,56175,75303,261800,127479,-58528,54913,-141682,302353,13636,155755,-75510,160742,18750,-240547,-31862,94010,392,139438,144607,-195598,150347,237070,353940,177681,212926,-48036,307917,99617,274946,250265,70312,-114231,-283320,-211567,-84589,77705,-20907,-85504,-30648,267008,-22902,171716,-266812,-17200,-269538,-177234,229269,-256102,-118533,229202,207749,166256,159220,55401,324502,-10520,163048,-121542,266671,90672,195304,-204280,112337,-61492,-41228,-128489,-33494,-196171,182291,60230,314666,118542,-185298,208926,-290709,-106567,-171022,-207598,-177888,30845,-60246,179178,266266,257174,-285015,-172611,42519,69963,-294848,167110,-54436,-227456,62808,-259809,-211681,-154717,-196142,-105517,148243,-88938,-84635,-240625,-298262,63317,226091,-174425,-251593,165097,-229986,64741,-59944,84235,-166084,-55739,232527,58814,267128,296,-47238,146408,-12212,-35545,-309727,-14458,-269050,-110797,141239,92801,-66736,328355,-129385,11408,-15767,-30414,154226,-209143,123172,-156562,-196807,284422,21602,50114,-162302,38989,6563,-69173,76395,-67696,33907,238544,-134675,-73459,-95564,221460,144263,82844,-28417,-91818,161196,-231509,-113574,-24104,-70908,224682,267728,-21525,25537,-1984,-108479,-178431,-91044,130099,88193,-99913,115912,-128779,57883,279365,-278692,145366,-34191,-1957,114315,186901,279005,208006,-304107,87082,-194283,106694,216191,125792,96521,237558,-22616,-18590,225228,-207585,110861,-38053,-331738,-66501,-94382,111253,208183,-241130,-192839,270720,156035,-121138,-97471,-237047,-240692,179716,119692,-103483,60075,100178,232538,2203,31523,-16323,-139953,214136,229129,-134490,93415,11412,117608,-249619,186427,-66348,-228665,31062,210227,378167,144507,-185884,-161314,-42836,267916,-158162,216837,-50541,-89227,183215,-69844,-30236,194469,133983,-3703,-242103,191011,306495,-185618,-244361,4820,223646,-84207,-211605,-305045,-61798,222216,-261634,115988,180761,146433,-89199,78791,10982,295601,204129,284614,249198,-68419,-305501,153474,-170340,210373,-25692,249092,13139,286206,192257,263165,29324,-141023,113951,245759,353326,-221505,163902,181675,185518,-119745,-157322,176830,-137338,137756,318983,-19853,-95060,-43004,-204445,362306,268044,-268555,-16465,65635,25419,-15912,-99275,86425,-81013,221714,269007,287708,-271337,97395,-73746,268250,142634,92915,-9773,236327,170886,247139,-97836,-255697,-165353,-221958,83208,150310,159861,-124755,-192509,-76222,-189185,-331843,-22437,113100,-77865,334182,218931,-132447,-118203,-261074,-62997,-212639,267876,99635,115940,286886,-208664,214284,200009,-74676,-188089,90683,-252426,97686,127276,89908,148092,68650,8935,-281026,43101,62638,73044,-135150,70255,-255157,176307,167908,171960,6993,-150592,316892,-30585,-257321,22075,-343222,-10071,-11035,-216518,18347,-110144,-23648,64219,180360,349862,160685,73246,51159,-25712,-109299,102288,-289669,68845,-210974,-205134,-60719,-29592,-97385,83544,-39456,-19274,145431,141946,309752,113803,158631,-29100,170265,-27502,145983,-40044,-189138,-134071,-247424,34123,-43265,15215,279557,297778,-2345,-171175,241035,228201,277963,287245,123238,84359,167405,-133840,-181647,43840,55104,238135,184819,111875,-289467,-30257,121155,163614,52176,228163,-189364,224670,-3485,88974,257395,-184785,211106,-57639,103873,-189380,-81091,-110589,-55740,-83379,-219394,-149693,-210831,-17738,-79712,267710,61619,171741,19558,4141,-64481,-153967,314107,110051,107216,438739,119575,-310502,-275306,324605,261163,181045,192943,108929,182991,-107608,249878,-55514,243117,-116051,80458,-223888,255164,-137843,45651,-118117,164746,-9582,125668,-93548,13568,39612,312249,207051,161242,284340,202,-298030,240689,-139990,-270517,-98031,92563,280272,15003,30876,-197749,-67600,-122034,101603,-158220,145931,176451,64933,169963,172443,146115,-9003,-244076,-9858,203283,-63260,21720,357837,40448,-83813,-136393,129931,30491,12821,-6469,-66478,-203993,6368,-263130,11098,-29030,116805,-72625,-9767,205127,-24076,7556,278240,307776,-35158,-229931,-88745,-51084,55916,-62232,-143926,-100451,-169962,-229100,128209,148808,-269115,191186,-308036,140344,-62750,-172168,-240780,53429,-63129,205326,263689,-196108,5667,-123177,42418,87966,-170895,-61364,-83568,-117490,186933,280739,256265,272304,63770,299864,54383,250527,-36738,382143,-135931,187762,149478,-103419,58991,-190915,-75178,121971,183691,34399,62036,-93059,287468,-243666,-1557,-1021,-365,208204,-250169,444859,-294003,106150,-251277,158050,390437,105506,81170,-90699,75130,316418,229213,36505,-286720,-14575,-226087,133401,-128939,219539,-60152,-120246,-54827,25824,255559,-98555,360501,-120528,181058,-72079,229029,-120114,199119,277812,-127811,166749,64122,-4058,-177056,113842,124979,258158,212209,-129036,232127,162325,239033,-269054,-292791,149425,212940,92752,242751,232621,-221751,-222714,-38030,-122485,-200736,201504,71439,242614,-42218,-134494,-209013,167933,167119,34856,-109046,-243068,69823,45909,-181606,-177986,75329,222417,32350,-187274,352370,161844,19704,-181571,-263879,-182189,162958,153211,-60598,-170484,60979,-121234,252911,-183342,-693,-2240,-212589,94168,268762,271330,18953,329370,19572,9980,-263576,-164733,-250257,89804,279341,-247779,141657,250565,-195814,-127764,73770,-260260,-268151,164294,9983,-106197,-222562,281298,179296,-207425,80230,-179274,-102075,-76072,191033,-4111,-73779,109335,-128895,235456,-275608,189538,52589,-333251,179478,128617,338700,38072,46280,27974,-21389,179016,-34004,-33016,-101613,114204,-273456,40230,6025,58840,-284550,-106047,-7719,28250,369419,-92647,-5146,12526,149359,-208838,265951,137846,-31173,-195717,-154745,92733,-185205,-71425,123618,-237701,-149632,-179759,75511,-157683,-78702,-261930,-61921,-218094,217203,-129492,-77381,-77478,-134146,-41458,280284,187092,-266586,61564,-124879,-196389,267554,253745,-107495,-174953,263020,-55413,284108,-226322,-57516,250975,-136605,-12947,-190493,-225732,-4442,-180338,73820,-291708,-40158,-207770,-36127,267789,14810,292655,-271984,15799,32927,-15735,-34191,227459,178020,-126283,116937,204573,103547,177176,119668,-182862,166060,-248951,100929,291244,-12265,-250376,-213221,178076,-198193,10992,3524,-141030,-187949,184167,-253195,135855,417925,-266814,133038,-20587,-261400,148584,-33534,74346,45687,36833,113272,120472,125679,-57506,-239851,226945,47869,125225,141189,-274284,136135,15634,256296,-173714,247579,151444,-28790,191182,42923,-28295,173133,-148837,54180,126160,-52108,-164271,251065,120900,-126897,140987,249073,170446,182805,112407,136563,-74331,-219731,259299,321159,-145979,97608,75694,-7455,-202666,-187849,255628,-64781,129662,-11041,7675,68801,-176160,-183650,-189429,-148703,43035,242281,-231661,12365,248005,-47712,303831,-137751,-225888,-215870,-293360,164104,220691,83420,188623,181753,-210381,269134,-282059,178986,-238926,-288714,-45209,-188070,-256017,6359,-4510,282413,-179085,296898,150351,75244,-64691,134095,18372,32878,92330,-153364,100155,2775,226466,-199459,99468,147979,55362,-102357,-146836,24288,272966,-39171,-248668,-23434,102543,33067,-64108,-18390,-220393,-117745,75316,-282384,168216,375243,-76312,8454,218544,-192480,-68779,227862,-171948,-40660,102130,-195846,148938,233296,-25422,222095,197320,-20324,254100,221580,152061,-290427,-292264,282496,-160417,-219805,-54460,-138023,-274486,-178021,172733,177588,144004,198491,256487,9602,171877,122370,-253108,52881,143344,289144,99679,-177981,-79182,-93211,-162178,20827,263942,159457,-109872,-124805,14769,-168805,-138261,124725,-179260,-100894,-311248,294207,-125471,-88501,-234414,-140463,-82644,-52293,194077,172383,-68960,253057,-123531,246741,291011,-216775,85249,4054,253192,168809,130864,184464,133998,-125719,46859,-203064,-336315,-284361,41135,200714,203880,16814,71775,-207373,-11220,149721,145855,-176195,268285,51066,-75879,303500,139881,-119998,168140,37462,232124,-39658,-290210,309355,-91810,26229,30530,-110642,-124730,84237,53218,-73465,-6426,-183476,-68578,-284236,57795,160586,-176929,-134667,233569,209395,-227898,224722,43722,24288,277815,109119,320036,275137,62459,292166,258296,268592,-196016,170377,-240804,-140059,-150582,57742,323165,145706,-179737,305048,117558,-177611,112305,-9350,-278328,73905,47727,-136604,-176579,-66151,-181647,169475,122461,121813,-54536,72418,58013,-27970,-241756,242510,-192529,307262,11244,256578,131958,-42824,157840,-190686,-177646,-4779,-223764,-44441,-170701,45382,-5547,178927,7936,54928,-31283,55030,-231505,191573,251925,59035,-150636,-138248,-216355,95767,-32690,10976,38352,-56336,277735,-154323,-115185,-181731,-153391,226125,182975,266911,-161113,74063,-11582,-198315,341963,203923,329723,-72996,-183781,189661,218681,78868,134283,155122,240484,-171384,185581,-84916,170492,-10647,120175,252064,216517,-161579,173819,159745,-94719,-26351,5077,276957,36730,-94379,286876,145351,104204,54735,53154,201939,-226356,160615,-262071,-272773,253405,-238572,-159804,-88745,98057,-45471,34382,-151431,179872,-136914,62873,-17255,-83262,162152,230626,202980,29266,-134603,-155463,-173302,-126554,48098,92333,-108567,22052,113353,276675,-114974,150786,-84594,76273,-256825,35450,170369,-248883,-69800,268002,-231733,106214,-200614,2128,-65954,-152014,72388,-55535,216737,25063,189330,82406,-182174,83135,-161874,95205,-125295,-78206,259533,183018,7643,282889,-140265,-94242,-126962,191421,-259350,27407,-199308,33564,43517,-23518,-152552,-146542,-263413,156406,211604,-96023,215270,88563,38058,-84699,-23506,-247144,-229554,-6366,-112195,-130361,-143577,205798,-229921,-37196,199755,-192403,-43510,-125447,220678,92478,73975,-19115,-78789,-66022,192464,50833,-107624,-149144,283579,-51948,-118279,267426,10054,41143,67586,-11217,205314,343851,278338,192912,180421,157173,-159938,112746,54266,23224,-257670,222647,201803,-256546,124051,-39905,-139566,28608,44517,-26162,-114599,18162,201283,215629,137150,263616,-265207,-157792,120162,20818,175031,-241756,-274558,-66782,9381,196628,14841,-281306,45323,-21783,43165,-210923,-292029,-176509,-37425,14863,318055,271819,4319,4196,-172563,235638,43861,171806,97794,36524,-194428,-198697,91677,62766,156726,7803,-166239,-254463,123802,-241044,216670,122224,-145444,-172007,212178,61535,193322,-208642,289282,120534,-178769,-181328,-218255,-44394,268911,-237217,-90680,299214,2042,153966,-139692,-189983,-176272,-223896,15480,-88852,87346,192829,-123839,-110363,18642,-9228,305795,220742,104144,-81852,190472,-108913,258116,-127594,-199992,241708,63683,197983,-86308,-216706,-189513,-110819,250270,-151768,-110870,-248291,39336,144022,239490,266900,39636,124041,239831,87459,207392,-155511,211268,-171623,253242,291163,284883,262434,-126699,-149373,100951,215467,239479,-56202,289745,218654,-161261,51765,-71207,-136567,261736,236857,246374,-200142,235106,-204920,368911,282057,-72389,-264457,-259271,-140358,-284645,217287,79753,-259744,33861,-248464,-258970,116084,63103,46702,16572,-124010,-156443,-140595,-110374,-217996,199509,229849,13941,-192524,264002,236719,17624,76012,16913,39891,111527,-216784,9562,138298,71925,-291038,115225,-153403,245793,-191950,-53550,206783,-65293,318011,-254842,-24653,-159661,252451,-4042,-175313,216935,184303,-213700,208412,-160251,-22622,-156812,-13900,113630,59911,97634,-111496,-65755,-186979,-53558,-109888,90660,-121704,-212850,-257152,-134384,282476,152793,-58436,-204581,239306,6057,308680,-184877,-299999,286731,-169866,-69263,105777,63651,-33906,-209106,-17749,-153164,-190755,134676,127341,-32557,-101235,279585,-208585,240975,-41755,-273336,-38764,-35468,185622,269478,-144458,177418,-166929,-142878,199241,-256463,-49837,23915,202255,-248610,263693,-217448,-99909,159982,39620,-139352,-92311,281265,104258,-66152,256759,212469,156131,-130522,-260151,187175,-279214,-188221,291248,266900,-175460,46153,-83194,-188917,217388,32214,-131653,-237057,162615,269056,258867,287384,-118520,-212625,-6488,35592,171435,-106580,-79916,295139,-234222,-10209,221266,187469,-18745,269069,170898,-142672,-73327,-184887,1951,256358,-139078,185968,-167396,232344,-246595,236725,-101989,15353,-237158,-195097,181910,49875,-282776,-167358,-312102,-151406,-208794,-35624,-55050,117306,-39549,141839,-121812,248029,6865,36411,-770,278038,17656,155503,-167000,166138,84944,280175,-151578,-192169,227016,-163396,-189415,-137329,192653,149940,-4519,66917,-250526,271891,64641,211440,-1512,-234037,66609,294995,110265,-222090,10186,129,277143,35540,47026,187325,-50101,302330,82469,-272666,282026,-176719,110009,-191881,112636,-18255,70017,-75625,-161010,-18253,274985,-171495,-132275,336867,232048,126276,-93339,208216,71120,246014,304814,-64831,-165599,66743,64525,-122177,229407,212882,-150736,-39365,-244905,-166659,88426,-191480,-178351,-122833,-95856,138840,-180194,304660,60007,-164842,206758,69047,-136160,-241394,132535,-240657,15643,-62840,229639,-77223,264792,-60138,247332,17218,-153319,51763,106616,181489,187528,176709,-251521,-73685,163546,164092,-259454,114445,35733,53933,-270061,-129466,-86670,-40602,307736,215807,-181659,-286721,196219,-77175,256250,268924,-39373,-79130,112557,338222,-145937,14220,-152802,-3243,-184145,-188143,17207,-190326,179192,-63940,-70070,-206390,-278430,-38483,-206428,-257286,-116353,-167696,-179177,-13326,-46270,-143968,52123,-155204,195429,-136805,-244227,27299,57607,173197,-165335,119983,165854,-243402,-33681,277942,-8692,-123740,-219667,-65963,-130969,-30769,39328,-209894,-2790,167926,48463,-225610,290406,-166026,-270285,-95398,-138328,-37498,-139968,268450,-224624,24520,-177022,-177817,-57900,-135798,-207454,245714,-81854,-93793,-180340,-73964,23324,76343,228707,-73056,-57302,-210499,168044,-131866,18644,59565,-111689,-176088,167861,-171542,-165361,-176226,-7720,-11810,-205632,183984,-229770,-256575,201781,16416,451795,212197,-79003,95079,-294410,219991,-155854,60964,143644,-108517,9505,228593,57558,276982,-150034,-156453,-6057,-20685,-182180,89846,212576,230147,107518,-199264,-118370,230137,23051,-241653,-92762,267820,296586,-188274,334123,-388199,57262,-45569,314794,42284,289960,111595,39545,171124,45064,250000,137629,72821,18180,137194,19613,6020,-192875,-63930,181058,-264347,-109489,183748,298971,-9142,-302751,257049,-164563,-87893,-302048,128903,240947,294680,-139448,-164287,-52618,190041,225953,-243493,281534,-249352,-145410,-50992,94051,221988,15878,119984,-295162,-181543,154557,-40102,-265602,160052,-184376,231112,167144,88131,15809,56116,71555,-35064,212935,171444,259761,-87244,-119206,167182,-31936,94377,-83032,64838,-65694,-11987,-223796,100094,306323,-250375,166961,-147817,183352,-240892,195519,102249,-95328,174446,169054,-167262,-293579,-128329,205722,-268522,80222,-167407,186334,203540,116441,279884,-209080,23939,153319,-40799,41081,56635,172245,-112495,-246764,-155691,41592,-10791,-288231,-40067,175354,-278657,169813,98529,-55804,5823,-256788,304745,213379,-36410,154078,231327,172580,185119,51179,-213982,-143689,-106669,-313755,-143864,-180895,-31903,278249,147252,-226395,-52467,137254,58563,144447,297451,220029,-203680,-182639,120786,-2988,48405,156938,19237,-52640,136171,40148,48715,184549,144675,15188,44341,-40392,179191,-86089,-267068,225550,-53641,-139665,-129317,413183,-424,-206545,138212,271088,17098,137325,6027,1260,194946,-278328,39176,-166784,282829,139036,222709,-96546,269715,282369,-75841,-135140,-112089,-107960,-2032,279841,-137784,266971,119311,197625,-61851,55940,156276,280570,-245593,-136130,-226461,-206970,-85555,62780,102130,263267,-37631,313508,122050,-27208,-316471,524287,-359461,395596,319393,-227216,415980,-250373,-22567,-197123,-35376,-186615,-211809,-164955,163573,-259963,234322,199001,-248294,137924,295227,225634,-141361,-82397,-94706,-11122,-26739,-11091,250692,84810,239878,-232809,-239259,-202015,-67840,19131,278368,-137531,-178561,150716,111583,-65582,-218909,254354,132798,-176355,-74389,-17190,-42086,-7698,-238965,216412,241668,233547,-30343,203567,140093,61093,260111,-265616,165491,275203,-37128,188650,-258863,202289,-296515,145542,89933,252708,-166535,374071,-303400,143186,250846,-124324,185066,-265411,90741,-73962,158964,-131872,96453,-27420,6198,-159538,-172670,58936,58595,-77621,-251814,-213323,-186292,-227204,-148291,366342,202585,169003,-137036,255762,190345,-192154,-113520,122023,21597,237666,252405,132267,-146442,-204508,203225,-170955,-230579,-119915,-309144,-236758,188686,-12428,-310239,172297,188296,-19011,-274753,-92494,-76339,93748,-213709,415012,-147443,204675,-276393,17726,95060,15639,185407,-71223,160793,-153203,293604,257940,52625,125488,-206274,89889,-145119,329864,35278,267194,114552,-217973,278522,265120,53340,40778,308149,373228,-123760,17376,94444,226446,234599,243498,-139771,207668,-277265,-236687,-204260,-100687,112105,184344,242322,101041,-25203,149339,-126422,-149679,-53519,-201605,143417,-29627,-190731,-249361,-137700,-213563,78419,-8852,5814,-26885,18477,5009,208967,217531,-131401,-8024,-182660,-86620,-15486,66217,-132907,33414,54801,-203339,-64933,130887,262558,-72270,-116802,-187435,234100,-290178,-282821,223634,-199407,-243870,-15766,-93994,-169584,274471,64950,-107159,-21842,170985,171872,-196324,138917,-245501,309961,-51498,-77099,136094,150379,-230850,214649,-73690,1268,-263506,-232037,83634,231431,-117213,68308,32955,-25017,32906,123058,-296572,70859,189571,360365,211325,-173009,-128569,56258,-67093,-4519,173880,-175963,-187382,-262234,-156567,-190381,230994,-255785,168278,264489,145120,128311,6152,-90415,328767,-242901,58664,-127846,51197,164779,206232,278455,83569,285486,-111887,-78147,-170204,70761,-164902,-191328,328682,-171273,-182765,-77719,256139,336203,286210,-194280,-219237,223951,232983,-160163,-45239,185180,-263687,-47438,359459,31015,226369,144390,133577,181591,86951,284996,8502,195383,-158974,242923,167839,5254,-114995,-183600,219312,336067,36939,179256,-42804,182995,142280,-15840,-136751,-67102,-53344,272343,-310755,-6631,54621,119323,275162,-232303,-59811,212233,234691,161612,170057,130128,90102,-260454,-10684,161319,24087,76718,-12353,-83953,163492,-210713,212413,-182620,-63875,208704,-56829,173514,335185,214138,-191491,97802,-254634,152961,-274614,112877,-232378,69408,109730,-100647,33458,-181774,-118738,255831,152139,329169,-166261,318964,89170,98921,-13426,-276725,-244812,199966,254075,-259806,102767,-82276,86948,34578,-165484,38264,-59402,-42971,207789,96350,251895,83208,-53364,-45346,122912,7481,-240684,-253877,-17697,80130,32419,182270,-14374,10657,-162493,-47225,113753,41653,-185436,35667,-245983,-5738,14782,9745,-130951,172367,13365,-197388,145968,-150702,64379,164353,-12435,-76471,110219,42640,-285363,1362,-217635,291664,68533,145076,-63051,-208267,-79615,99881,-177456,-102689,115011,110140,184362,287462,3739,-111437,183691,-186675,51326,54555,-313538,-73343,-302581,-56869,-164188,-85,99767,154506,105359,-168260,-272392,-105710,240096,48033,121973,-251061,-78159,107557,-148469,-73798,139129,-117129,204669,-242458,-1357,322662,-265564,165797,29620,128579,-217106,-108804,-113705,-259884,-6084,92087,237717,-207850,-184524,210099,10403,57641,112477,79149,-83996,284057,-247722,148216,11082,-188053,286293,151432,-51628,-30321,-261592,290614,280066,276129,-245866,301964,358337,152699,406484,-86681,101990,-114297,-136788,-43276,-210753,-195098,-114090,106476,-281151,300206,-257985,107051,-132820,-177661,10192,-56715,134579,283710,-64707,-152833,-124149,-154790,63221,-3219,-8372,66805,-103583,79307,49594,-341632,-214268,-1937,163071,-34903,-299351,161880,-191520,194233,-263208,-287380,-261693,11009,226733,-287562,-43682,-190992,-159068,166975,-194122,230399,75396,-118452,-177660,37653,151138,239000,-37710,-69935,-105611,-88423,242550,8820,205420,202706,169750,-154377,191298,188251,-92365,108935,-129672,-153558,-161807,282588,-208016,198692,-64786,-157514,232066,59756,167390,-26193,-17559,258144,258911,49107,155071,234527,178516,-292718,-158398,-174564,-132810,62215,13957,-38437,-36279,-142170,-259884,-86487,-191977,245670,-215128,-284494,-167136,-38298,-41097,246386,-95593,188294,74748,-30196,-341,233529,292981,151030,97307,-116643,-116815,-72514,-96907,205290,160416,230536,-24782,-304524,142214,-226653,-50026,138778,134176,-76722,197835,-119597,-186820,-88147,251495,-298118,-60536,-212240,159391,222551,-109249,-246858,-3070,-78504,133700,-171827,-66553,-114610,226904,-218644,87516,-131986,-491,141941,154186,122929,37048,-141318,-33928,114922,300532,-230968,-23062,210436,-166510,223630,-32680,29466,130291,92835,227049,182791,-51835,-235743,-75924,131216,-99574,-104452,-56112,-185240,-19953,235411,-183929,-96248,221162,-98011,-186572,-192082,-284184,225151,130497,41896,-8139,-83987,154978,220519,279295,-238058,-116772,10734,-25944,10139,-285,-108969,269385,-77294,-22004,214851,-31598,-248285,-46651,25041,33256,-251392,-163275,-90991,276449,227194,-65409,-50979,-286594,132453,-52265,70277,-2652,-211007,91392,234170,80934,112299,-99085,-159030,36115,-136294,251663,75472,-248962,-160043,90271,-73774,-210954,60176,52662,-147044,-56026,88765,-61160,37367,5418,-29310,-270089,-222704,152702,12233,-79351,227500,270592,-78629,-183310,-34292,274224,191307,125172,168356,22214,-88480,-112139,248296,130872,-262903,-98596,-93672,-262707,-224269,135473,151182,108654,27271,172706,79027,-192259,38506,-187303,-296457,-112981,-682,-258556,244533,291821,-228274,-96553,60383,-198980,221907,120347,-80393,197781,17925,-228983,292599,-136579,132138,-38640,242253,41721,-134936,224954,-271146,264780,140777,-5221,-114165,-51251,-28681,245392,-209157,228321,57064,97290,-43408,284319,-184958,-170309,-145939,355328,331057,186986,-89929,-135925,169126,-9031,-11684,-289220,-200853,-106728,124418,257244,298502,22913,-228018,-190558,226419,240278,-33954,220848,327483,-193255,89692,-106698,-221825,315314,208109,133680,312905,-15898,118052,-190182,23070,-64880,264227,-35084,337013,-177718,6045,170807,-73505,215124,247467,74345,-120922,-110514,7477,123356,239716,-132703,192762,169419,199443,-216689,-81430,-9636,-257909,159454,-197174,-253090,124393,19384,33274,86330,109319,158503,-196663,56142,125210,-140270,-134315,-277592,294874,-133139,-30657,72437,236008,-224251,-170511,287726,137920,-11812,-95359,54047,-164685,12019,16549,28443,-185763,7454,138188,182640,151143,23472,247551,-174218,89287,265185,-265127,205835,-128727,-247483,-49609,-51761,113598,-144252,-186946,-72384,-173032,-98376,250641,-68872,7646,-179694,195456,-27162,295434,-56505,4099,67253,112518,142624,-7462,208126,125160,-42594,184307,265453,-5871,-157572,172683,-162204,-245034,-186354,196055,105119,286333,183213,-197032,9884,-275779,189784,248965,19645,-240932,83074,-137300,360339,13565,-17307,-148579,147867,-147290,98364,-1702,161661,-241062,202504,-73973,348048,67050,-197453,59043,94232,-132040,90585,93629,-147639,57098,-184642,-64693,-207594,237019,373566,-281099,265276,72160,27473,-61360,14342,-156316,-153341,-223862,72011,-292380,-247090,9932,-179281,-269776,-9133,-100941,92826,123645,-71003,-8290,-278908,487,101101,242317,-226711,219324,-161949,-169295,-151909,306568,223767,239505,95628,175760,204045,230420,74663,74918,83096,-218044,190723,89006,78369,-121294,244207,-242965,-285884,1023,-154201,225544,150221,95021,220662,13613,151202,84573,114492,-253315,-2148,-5943,169621,-59870,-149381,-193076,163711,-117694,-168168,153147,80168,-113106,-284696,-166059,-172090,-68065,-14483,-19865,82447,152630,-102539,-282959,-68130,-236958,260773,222864,-15344,-305254,217120,228437,240292,229381,286831,-67992,-85790,-34659,-88166,-245209,-13734,196032,3174,92443,-207872,138328,71537,-208190,-75460,-153557,-351232,85088,170031,211814,-164367,-78700,268314,-101355,-236367,28570,282910,99026,-77672,-64292,116836,38432,-429,-260546,-203179,-195906,263238,-25448,239146,163693,-88984,-226339,188758,-163237,-260584,-19104,54085,149046,-73344,-259309,-121894,-90692,2118,-192625,-225917,190876,-145264,-109755,77048,-1892,79937,259241,-163801,212594,242131,162211,-46573,199045,-259277,215635,-248477,-97683,-206570,85395,110482,237205,-141668,-93436,40604,-274152,328985,180149,36463,-1468,-183010,-155998,284522,168922,-76278,122641,-269701,249599,273029,131815,-56713,210028,85102,-138417,-20010,-101008,17749,-120061,-111829,-243190,-238689,77615,152088,88207,-217779,201690,269332,128216,82111,244761,-26580,38459,-104876,130459,-151801,-237919,-180520,113542,85934,-219908,102247,-13055,-23160,-176261,-197896,133736,115563,-196748,-186854,155978,-199634,119021,-164815,-274230,271950,-277262,84747,-283297,-192676,176439,-200113,181360,2061,150472,28982,249278,-216810,127504,190427,8212,-193381,-107133,153632,-130278,255396,5281,-223357,145591,-70594,-241752,-263516,195713,170417,186447,-56168,-125299,22598,138053,106938,149238,5215,155807,-53353,-88917,95438,45566,67204,186757,75333,246448,94428,-55503,178538,-260491,63894,-257303,216599,-14350,241166,-20641,-254071,231383,143757,69261,160081,115135,14234,12060,-83990,-138754,137544,391874,180570,219607,290541,-14627,11260,-208296,-1143,-8924,-188652,197165,45119,-26851,-279538,-281222,191248,-109035,268650,35526,179767,-94736,152099,267189,371938,-160069,-271544,-205899,77193,151617,-199451,274995,143592,234748,-10750,-40258,350377,227027,81722,-248221,-323447,-133983,322201,-135059,176869,250597,103811,50999,52583,286816,124425,-329290,-139323,257383,4636,154562,305197,-243840,30230,69743,-90464,-225740,230240,230983,-40629,-73838,75384,-7065,68088,229180,-230069,-88182,-163054,216572,107436,14899,133649,-241603,241327,-198832,280152,-180682,10584,262685,64416,-65609,231826,172511,-246752,155862,115558,-208769,-258229,-243417,-260824,19925,144300,283908,-97862,71808,-160677,-232427,-270714,-178232,-142763,78015,294711,-238534,59657,-109931,-323231,99200,30099,368533,-54474,-262086,70919,170875,-142380,-197360,-29540,161934,-284537,158438,60283,217968,-100688,-130634,-134325,-184741,49962,106217,-44435,13131,-287566,-86487,-32739,167753,275877,-32172,261265,160072,-27756,-110469,-146912,227702,158664,-106915,172916,-13458,319700,-1631,128236,-189303,21638,-271327,2048,324372,171168,67877,114469,240345,-23939,282129,112758,-40996,-103901,-213657,236226,315131,92553,141463,67324,84532,295619,-62173,13639,112391,87714,-172172,-81780,-60494,78474,-14445,251357,-136310,-267929,277597,-187776,295812,18795,-220210,186981,57837,-243308,-20372,-38014,-220846,919,-271755,-89075,205278,-114958,-128854,-153280,-142433,244680,-90463,301580,215949,80957,253455,320950,-269687,250046,109086,309610,322825,-259471,-38715,-211521,274274,-220327,241019,275116,-37275,147433,-196346,-200721,-18403,-153141,175227,20770,102412,-7064,-71119,-109218,-139019,-190682,150584,81208,-136469,-246554,64181,134077,278984,206173,-56808,179480,25331,140056,19085,-161204,376135,61731,-236017,39418,27020,83914,191876,278444,82531,159778,318600,-139,273430,146605,-146983,297601,-60574,247388,-258578,2160,-234617,92997,-167830,-131032,-72036,-276933,-81059,163447,104940,239445,-60326,-97325,24987,199893,-91145,215627,-20867,-221712,247976,16202,-206131,164335,97573,-188555,-36753,9779,285340,116804,-170038,117442,183211,147149,254528,319979,13529,-232762,224018,-227852,-264668,-267207,-143380,37686,153588,-136854,-277358,208275,39666,163333,-7138,-87062,44274,278951,103382,-142054,243134,191877,258130,256094,163385,-104365,-227836,211735,-280960,-162457,88860,-152105,-298130,293900,129042,113446,-134078,-34026,-215845,153439,115698,261890,114595,314160,-229195,124734,210591,-152897,-237303,123862,-209668,-241944,19492,248445,-254547,53403,117413,59411,-125665,253377,-72581,-57710,118381,-133629,30921,33590,-84133,249458,-73055,106926,-172739,199071,309575,-88789,67922,-203593,189287,27185,-213724,32616,-168288,265886,324797,-19611,62463,307370,75554,284593,-273051,295375,164055,130207,-196268,-208754,-283849,56902,-120738,-226884,343000,-149068,136512,-190053,-221246,-87458,206474,27422,147808,37622,-125375,4657,-190206,-55518,24817,92403,136987,250762,-8814,-130277,116057,368255,112214,241792,-81409,252182,-165422,-206388,-73909,-181493,-18815,162668,-207223,242813,-11243,-204043,-18826,231764,272745,-196607,-264191,-8251,245870,282072,96787,-254428,87580,-179363,-23326,-255870,-106053,-196591,-146337,247485,202711,67110,-261024,-263055,246432,338443,-19197,46511,-129129,282385,-177343,-179158,-160958,-240808,66569,43665,-321241,-181529,269689,144410,-73970,11354,313423,-2719,284642,-242922,155830,-22613,121472,107899,255832,175487,219887,-259873,231603,-165434,265720,-4905,-101945,13817,-259490,145781,70298,-214900,103819,-228028,-201669,182920,-80143,229606,63059,224172,150276,155112,-98590,-137050,164496,-164185,18663,-182422,-65862,227103,-204698,-100926,-270650,241900,-23409,129451,163651,64050,-271117,46760,138062,-217698,-182064,-194198,-18557,-225066,218590,-29853,-168489,99631,-177554,275710,62547,87622,94165,-155517,214155,127570,-282180,29080,1,-21784,27594,238277,186921,65858,-34852,251726,-54887,-154724,171723,-98178,-121370,82634,189321,123052,78189,-250300,-210604,-24568,99520,-111877,-59795,202069,-243882,-186640,267847,144518,19669,-114389,268552,-211263,268104,275585,252851,-65359,-79013,-265524,-150999,92449,-225921,-211703,179322,127812,134193,-204780,9745,17367,-62967,-97369,280797,-97405,118524,-56825,163421,162052,-69099,159962,-280965,162123,269364,-245523,-40662,-57193,39293,75649,-174303,-85380,-160139,-134794,142288,-163168,-87905,120984,123897,-113854,200583,-43383,-279569,37099,225295,-277156,263536,49784,-102545,-138910,-96128,-267520,52704,6459,-276369,72124,-262477,182719,-156122,-64457,-201119,-75572,63769,156728,220247,133033,-74059,-233829,-135484,270749,10203,158321,29565,205864,3799,178950,269512,184090,210720,-175654,-211514,175862,65616,-71095,-74742,-281078,-241841,-47640,-173979,-13549,-6346,-67087,-135076,186367,-202727,-86136,166719,-153331,63175,9434,80756,163490,-206184,13652,-98772,102408,-256110,302235,191916,-215979,-148292,-266921,230176,50504,224090,-178851,217103,252686,224619,-286586,48536,-132016,155150,58269,-32154,175124,66746,-47891,286686,-188220,-275309,160815,108537,-77609,-136404,214333,205892,-164741,264771,151802,204834,-37782,-69188,88324,-183860,-39320,188019,124286,-102740,162704,-256244,-4825,299685,85726,-185852,288097,77602,-251622,34735,-155491,237426,64100,-254309,88058,-258470,193910,-168689,222795,-227388,20718,-159969,-218566,-60139,287691,208750,-58906,-233135,-171497,-210246,245364,76293,-146593,-264603,-233429,272417,-167633,-262149,-269179,43349,-234386,100616,283585,-219760,177689,-102412,-156978,143729,102901,-29931,193050,72058,165996,-229648,64411,-230292,231834,-275358,218738,156056,-154686,-175651,77939,-24410,-189939,-217091,-82168,-79132,-225614,-89627,298225,-165317,-270939,-243391,-242676,69964,70818,277870,-229748,-55383,108261,-185691,245098,123771,154722,-13494,-26151,192920,252774,281146,-184870,104759,-282206,54568,-126976,255554,284856,5964,69754,111695,123470,225084,-54117,-215926,67755,-249045,87051,-168560,242724,-17632,-186844,-176675,-19925,38943,-245426,-68217,46051,48215,34581,-176203,-165189,54610,-75986,-93592,-147600,213958,-183041,212634,-5646,78339,-67323,-240887,-94086,135076,229263,-139709,163913,-192353,-238515,-189600,-16163,195042,16844,-263772,-247958,64273,-77845,28392,128573,-41294,-88743,24368,72465,236442,-226417,-62721,-189285,187681,-265816,111110,118714,-34823,-124821,84025,148481,268157,115179,140376,-221742,-141033,225102,223710,140457,127624,97492,-243886,-82659,-60430,153858,192072,251455,124671,130842,-226205,-278505,274971,-84521,112410,-143938,172510,258908,-66929,-285673,-15494,-268889,120226,-205858,-49490,-44213,44093,-13474,262732,-46816,-98925,196136,-132287,-6438,-108328,-131668,100164,-161816,55600,31828,281990,-127616,-230577,220718,230110,-147339,-59225,-267651,-237318,31058,-136453,-57683,204000,121770,-85676,-36354,62555,168472,34556,97171,-74386,-157310,-61864,192072,117018,276368,-156979,31287,126581,174518,237163,-108329,242005,274435,-73172,235185,-82335,173619,-109537,-182710,161077,61554,-159920,-174750,240343,47081,-147538,-182490,-276580,-201961,185538,-22398,-150423,212127,71500,349429,-209916,-90376,-203087,160735,-202581,204910,44394,-84267,5062,169631,-250682,272056,-187855,-274368,-50589,42449,-18143,114466,16183,-138087,333978,19405,111432,-126564,109672,163122,-245218,-76400,229979,221493,147489,225472,-47454,-143588,-134491,-16560,58559,-188571,-78072,88910,108807,20648,-46747,-173710,-178756,164457,-208616,108502,-82143,54389,-39780,-59291,-117096,-212355,-143757,205087,5897,-3691,137870,-60089,-69706,27645,308214,340628,72667,183672,-115234,-51986,-181828,180003,11790,-135680,-58749,122803,-192786,112281,-314993,163198,-180120,-122669,-180672,-184291,-99829,68694,-73378,136640,-279336,453284,340206,245294,104366,-95137,148849,137039,195666,10653,-52037,229073,-7890,320802,-129844,-105202,243063,-172745,-286422,36585,301481,171449,-267834,-103213,24427,-243237,69775,-240569,-302525,-59065,-276064,-34460,140228,281647,-250870,49488,100094,-84922,272549,208016,42405,-95660,176738,-267899,-200514,-1982,33788,116220,-241109,-189688,-192424,-270599,85974,-200811,268662,206276,-194019,249899,187900,301751,-61713,14064,-37681,228360,-57727,214683,-110274,197083,-66526,-46330,-216713,-12651,235479,-221297,169231,100047,-59374,139030,267406,-75198,21267,240911,-171451,205075,-80783,-274926,-182805,84204,-127289,-76446,-162678,-38582,134941,-58616,49712,118769,84665,-35444,82348,-146265,-207917,97793,-281866,-151581,-35043,-218190,-158627,216471,-151411,60130,-128301,97709,131015,-93398,248065,-86903,-186376,-197533,-170384,108181,307708,273904,-173521,275256,-175463,226189,264248,-56982,302217,-205916,46361,-35965,-249347,-141614,221654,362799,-95159,164652,7164,-18743,2841,381016,-120938,-24873,281448,-39225,26441,-5123,-75404,317295,31405,177850,44166,-149704,-172572,-125542,321222,243361,126986,288886,-218573,-241953,-132987,-211368,227932,125401,219469,156939,-209607,-55433,901,218847,-110519,242847,184560,240384,455,105300,191561,300036,-83507,-123199,-170004,240331,140219,-151551,284717,-246061,-62170,11034,-224199,23260,346857,-9568,172785,65506,-29956,11100,295933,-254910,-38189,-103677,308204,-93822,-208635,33601,-19610,-183469,-57405,-191956,-18430,-43935,176793,-127024,-158436,-15050,-202423,-102663,210149,167197,33040,145588,110056,4820,410487,264357,47756,-47913,-106925,121094,44017,261731,283060,80952,301182,254999,-264175,-131099,59967,361012,198400,7192,115873,75581,-108079,-137769,-65245,-132508,18988,237008,-24113,665,167860,-155281,21973,-176064,184968,-138963,182907,203828,214065,-203900,171796,217833,133532,14847,-40026,112377,-246046,96658,-200346,196280,-239509,-14452,-173201,377938,216786,114552,-225774,-182627,17899,276936,12383,159065,212199,-216600,95569,6790,48843,-245462,153828,115036,-64692,-214755,-83959,650,-259179,226173,51374,99945,23181,413298,-133673,259455,-72147,-255710,-193116,-9265,134336,48081,51525,246957,329458,149036,210572,47668,303427,47152,-15003,15686,101431,151317,317862,197098,39427,-86645,-180735,184686,73710,-127047,-18110,284666,59949,-93056,157453,273943,332300,-171781,203487,-272606,253270,242286,-288044,-93525,-64899,-142453,-97328,155851,-250505,-3871,191996,-124982,16326,-89725,-127389,-155298,33491,-24672,125768,343005,283446,-186909,4388,-141526,43993,-320216,-4365,137484,-158338,20784,158996,-118373,153140,-105882,-168920,315603,146339,368893,229323,-265497,-199148,59390,-89744,195122,235368,274764,95283,-16048,136044,11534,87605,-87477,90877,-208822,205972,-160592,33109,66160,86331,72058,272425,9151,-63863,123275,31007,-240916,-192846,133560,201323,101169,-27087,141818,239529,-175770,-19735,-85133,67362,322191,158578,177273,48859,-91301,-47915,-60269,-24600,113012,14309,113049,-95276,-98879,-181899,-151070,168916,270643,-120468,42611,-99296,-17370,-64943,-194327,-219894,175810,-4489,290152,-115475,175643,-144,34217,9155,-20923,127226,-328199,-248395,-144971,167346,-37412,20356,-229953,169456,310,-113116,189855,-7008,32379,158220,16554,295246,-7043,-80455,236739,226930,-238838,-8161,137940,192018,-10964,172129,-233659,33460,-98530,77975,34185,-124819,-271724,-93951,291361,18868,137418,-267533,130714,317327,355700,-42932,174965,154710,-36930,-174424,280169,-267557,135634,175112,260000,-216195,153488,171354,32530,-185337,338145,82549,297529,-143715,101223,252286,65488,-193857,-24244,312849,-58513,-219935,282517,214939,85435,174766,-44363,270686,130511,183309,261523,334066,-147036,97439,126941,203094,-138364,-169405,225072,129915,311526,83448,-143287,219641,230412,79659,255158,-242348,102617,59494,-212289,-181129,-228849,250711,193002,-243446,-76993,47184,-114017,189632,4704,-13143,171307,-80851,-98450,65816,-164297,18242,205480,86375,181204,-184273,-253141,-117347,154068,173501,-14866,-219650,188646,126991,-120691,78230,127947,146046,111954,-23459,-293804,-142443,-205415,93558,-69441,280869,29192,314043,-81307,315849,260105,-156144,-102586,132081,239514,29152,268449,-275868,185889,-68520,-187724,251493,-251980,-4642,-46584,357254,145134,-21488,8939,101030,-3365,150088,59243,-287884,101051,-194295,-290592,143460,-24546,171343,-49555,137022,7518,17480,-75737,-236317,-28322,261340,177768,151616,21423,62595,-104636,7226,-192890,-149400,177785,-35841,62481,139303,356556,-216412,41719,259415,-102516,-95668,9919,26928,130107,-288313,-9492,18137,158889,150248,-59342,-173911,-17893,-251504,-167853,-64611,-188470,44610,-68563,-49586,108320,345027,-115846,-127682,-36320,-94475,139861,216653,-251819,158973,45513,-301006,-230696,-99598,-206331,121397,-152407,198194,-255105,265181,-267107,109547,-8237,-90674,218337,-187340,-28597,15933,203410,184219,-52681,199741,-262145,-84562,-114539,55971,97779,-60460,94504,-133171,248759,-252694,-302630,-255497,137849,158872,72992,195567,155119,201575,-136924,181515,112554,-134080,-10096,-145893,78540,258400,248176,122272,-243361,272994,93049,-121772,-79075,29685,-7552,-38804,229583,102189,31356,-296274,-173397,130600,83743,-209949,-327329,-158706,46655,156796,198372,-218430,-163867,273404,196418,-179051,208534,28583,107613,85115,327601,-59828,88636,-118930,295,53038,72535,-277749,-143384,81309,-46649,126859,-100134,4497,-112395,159626,220400,-127813,278108,-252494,-199527,229490,54738,139332,73576,-186173,-28972,-109874,43422,-138955,177980,80549,-106313,137548,-74753,29833,-192520,-17593,-244761,-220078,101103,-195382,7419,224965,-258661,148183,325257,-298459,-14117,-291816,199665,-128138,-228224,163724,-200728,-277847,-238391,-80045,55748,53778,209216,-126499,-273400,287252,319292,38711,154000,-156981,-225921,-41042,-151099,-34524,-95750,307657,325134,87941,102579,13474,-313580,71759,-230551,226185,186472,-98236,33224,168328,-240204,213550,36281,-210231,175355,230811,22786,-181989,131478,369535,-95514,-132412,61510,98322,-113392,-9042,258856,222367,-184905,59531,-47292,-246649,133993,92513,44448,-4811,186297,-103086,-122060,-222212,-160235,280267,-17300,171568,-2920,-136715,-276269,-80732,192574,-120504,-64998,-52099,237325,12981,-81700,-48160,-160926,-261503,-19337,192365,-137628,45352,10894,95060,222269,-165622,-23797,228333,-65738,-266895,266211,190729,-37640,58990,87778,-42811,121188,344755,308084,-231206,-219272,-7762,-22559,-158010,26804,-65285,-113005,-269699,96828,82909,-49449,227655,-190783,8220,-182345,193504,-286665,259118,-48020,-269320,185924,-187223,-234896,-55912,151165,117585,-134639,296363,-83645,-173416,-200321,27685,-24100,251326,-83760,156229,177271,224123,-195755,-287575,-66874,159763,312762,-187502,-244526,288192,-249222,97413,-26369,2781,-206853,-51583,-1661,-81975,51088,-299230,-219517,-68724,-121604,187948,-302352,93175,167503,15374,244419,258435,339660,192912,175113,36516,-115737,-175675,-199194,-6547,313253,59455,111949,-207589,-227994,-310200,-13452,-48051,107246,55118,151017,-231798,-284972,283882,157530,26235,170773,237400,-39225,29110,-127565,67475,68379,150919,152244,362236,-21900,164261,-295023,285890,-115732,-124777,-199007,187759,282298,43848,104025,188,-56566,162954,-83452,186711,-87938,184497,-117097,-121533,-114284,-39373,260720,-151238,-183460,18372,-4833,-176292,278301,149402,-10307,-54400,200461,98391,50262,-155802,47008,-223177,-83568,-67274,-110694,69536,-147092,-156634,336178,260951,243391,-111036,143715,323124,-161403,16150,-62681,216430,-144690,-262497,-20875,175629,90540,-197599,202008,-152905,60738,-146117,83302,-39580,167449,-141347,188739,243883,246097,-7662,12861,268601,156804,221539,-201367,60523,312952,188725,-193130,-173621,196842,-142520,73528,-16361,230910,215839,-144086,-154285,-250931,-102662,136127,203135,-141486,-43567,-64298,241,-119558,-318226,-247996,-138034,323118,-5631,-248854,222875,-233590,101515,-83338,21517,235120,-240792,-233623,-186779,-257167,-78677,-22496,97282,135980,-30322,105804,-178793,229737,-199368,-6096,46653,174027,-307752,-275745,-129048,-152289,252131,-125918,72188,223953,-227092,-52439,-144792,68182,-42605,137391,-187800,-26836,150196,-252751,19548,235841,278200,194895,-2043,-33486,185989,-37014,-3979,65946,186474,-178771,251851,-223250,158164,57454,-244907,-218234,80863,-30985,-279049,265743,-20315,-47675,-6198,300522,157865,172431,35031,-182288,-16412,-209631,45785,-109012,-97515,65085,-144287,-80737,30687,79622,98573,188178,8522,-157891,-10552,-80417,270243,209646,296226,77789,-154048,77133,48974,-32881,255864,19725,-127043,-100809,96771,81005,-74982,-52927,238497,-63475,-40318,-124070,-86855,-239375,78694,42042,-173047,225065,242222,237887,-104729,27974,86013,136078,-9316,12277,66284,-225948,-136027,-264501,-135524,188592,-165109,129449,71797,-277332,268624,-54790,99647,225908,137019,-140619,-280461,284055,-19005,173697,147489,237159,15970,-238965,-256006,-79665,67114,-119337,-44089,-176106,-143210,42253,-226603,-42268,184531,-291169,283448,-183513,-6472,205491,-148963,204063,93484,86174,-134227,-36905,279556,-105882,289626,-98282,308581,282506,70119,-280925,-143841,58161,125402,12457,40953,80699,-11660,173733,176926,387191,69630,72981,103054,129735,120433,159347,129072,-35560,-205296,-154585,99019,-183555,116807,-230592,-83700,-59186,-192315,284818,-58350,108300,244361,353251,54831,-164500,-78470,71515,-164228,289155,220799,-230668,-257327,258645,13328,-80823,171162,36115,-52672,43766,182096,345723,-56241,-83828,-178838,-176139,98793,-175032,-93260,239702,110640,-131614,270049,-149304,85464,-175027,-249555,-140175,-256987,185801,226543,128724,278889,7318,-1638,94870,72490,-29683,-74807,259774,-135433,-224172,-173113,-147226,17441,273117,-44628,-114750,-157742,-318133,-296302,110862,-274927,-12619,-234212,-59994,-272554,96409,-1954,131121,-115136,-184245,-270496,156241,3604,-144814,220467,-169001,-80366,-81037,31475,102185,-185408,-265282,68632,-36655,312344,-93013,-180683,-71531,158209,-259560,56682,-134896,-117547,12161,-301384,-123709,-31069,100481,288488,29967,-74767,-306967,-225761,-109584,365264,-264980,-205468,248666,-162300,243705,-12541,138019,-134458,-17968,139235,320617,181340,-194631,-54590,-68496,163269,215246,112682,293596,236050,179056,-234132,300209,-163606,-9233,-85944,-225984,-157302,-23626,-233758,-36836,-83761,-249270,-162276,230481,72645,-131402,249951,256576,202205,99361,-10041,-161247,28591,-20145,-105105,47788,-131496,-306330,297315,288562,230448,53707,136115,-147751,-60348,-220490,-139799,125481,186304,-150671,77696,71245,106344,209468,-156941,117352,254929,290255,-9792,135145,44495,111776,38635,280236,268132,56358,-25219,-220352,211439,240713,-57557,175922,164563,174139,61574,225857,183222,-120298,297354,316331,-32480,-74641,70406,224116,-79699,30058,225734,316788,-167368,2443,131718,194190,104738,-176768,-127519,163992,77611,272409,-65518,-133952,298945,38004,19111,120818,70815,-260336,18491,148503,-258639,-140190,207674,14064,-218318,-88746,344625,-103071,-204827,42474,133891,-50894,207591,-15667,189368,-62638,-277028,2570,113480,162100,-29004,-132558,44208,-62011,38498,-255162,-59730,-101410,-207621,-19596,204542,-273405,-28399,-136858,-190798,-52478,-51826,233727,48533,190854,164379,-63098,204765,19071,-100633,175019,-127379,95894,-236508,-1563,-11131,-202957,-254207,-159089,-224673,-193619,-288264,-59074,210734,-171378,-83056,-191487,241113,186915,-29627,263701,-117221,-177623,-141976,35562,-202994,246848,-164478,253909,-212304,18481,77380,-15208,134029,46756,-35824,-261707,-82454,78067,143013,-251940,332566,23523,221430,-149379,-71185,-242691,6142,-183455,-140291,-27482,-1312,83267,172403,-162088,-141013,-166144,130775,264661,75671,-194401,-33322,73829,196867,241204,-239733,254078,82543,223414,164192,293847,-56627,190288,-122548,-192937,211902,-64784,-290645,-55169,46888,-178242,-22994,-287367,29594,-206828,271221,-25665,-173444,145439,103587,113396,-130323,-107594,191841,15895,-152716,-220726,-195721,148340,201197,-300013,-188319,1625,-200834,236634,100340,28050,212051,214242,-279438,-253407,-43251,-234629,-36823,247570,61961,165353,-47587,-106625,-38462,-9292,-149655,61592,30663,-11716,-126909,-117138,120216,-100,183606,63763,101649,135563,-49243,-258509,-178210,127297,-184866,58174,42681,-119363,76868,156163,272360,190524,243015,150968,-197616,-155212,172159,49022,-28691,-200380,139629,-252200,-116454,193258,209757,-5693,61662,-98664,-185232,-243563,-244220,-80647,-252757,165266,-207487,115356,-178506,196434,-38746,179476,333658,-182797,-20633,-203900,276061,212643,-254548,146409,188497,193953,258669,-122676,11643,-150110,-108728,-27448,291682,183273,100983,-56809,190791,-130363,55404,287411,-264295,-164818,192002,162016,72368,-27760,106493,105432,196327,-223095,-25141,251139,164841,2416,261188,286003,141171,173072,-161462,-270739,-151455,8299,182762,-200589,250230,44050,-159393,234115,-246081,291807,81431,334172,201229,-1806,-216385,-231581,-107611,85320,-52884,223887,-3125,342308,107388,-52934,2451,140128,-10418,-237622,215146,-120706,-183787,-247903,164563,129407,68728,16125,-8815,95351,206216,38195,-30420,45852,-240236,-91013,248820,224012,42284,-70691,175803,123190,-148281,98885,8652,11009,-58059,-150062,-136207,96886,212966,20207,265570,68121,-456,-201465,-284366,208932,49203,39232,56798,-170855,75574,-38729,-248725,214893,-245347,-99180,16371,205918,-35155,-25696,-362,-19980,-276129,86154,-97657,268655,-15292,166716,138338,252410,-221008,97298,-70,265604,-9515,-8464,209190,-250912,201303,-43576,-67827,-24898,64569,-240475,31084,-242805,-221932,282355,-164782,209230,-254884,208737,144298,-288649,-95911,29928,-161309,91378,50100,-17988,-49103,-192052,17285,182348,140307,-92577,-140510,-204553,-264754,263336,145444,258997,-64239,-43415,177027,-47727,-35640,41626,-209722,55852,-98518,-190850,88913,-28355,323142,-83723,-55729,85502,-228353,230033,1917,119368,14251,-218058,130466,-170599,-148438,98906,271434,84291,26962,-169360,293054,-774,72204,-26362,71253,-45395,-65289,-193808,-70424,44612,262519,172459,-237070,248121,728,-125376,-69217,-61079,-21716,203327,266917,-98446,213828,-106510,86224,-211802,112632,190515,-79954,65019,-102115,221993,-115112,151939,-20559,5028,201051,39720,48258,-36121,21376,300531,216780,272174,139151,-26374,-139785,216550,-11179,-26605,272388,160858,-83804,89934,-67744,133986,-169246,-132616,258013,-211648,-244311,1355,-40478,224735,-242346,276586,-154863,-193895,-84006,374699,258148,131429,178372,208913,128657,141438,-302597,24582,-7923,-64367,11283,70958,163474,204671,-120204,281180,-19166,-20713,-267296,-24569,41705,47817,300633,157009,244842,-110509,162141,242230,113556,275738,180591,-159357,-220256,236458,55451,-130376,84849,21102,-43883,90745,176854,-286420,248237,-106788,-4314,45931,77002,-189435,-61552,-126099,212933,296938,25033,-153561,-8349,-208266,-241626,59036,-258809,3186,-196212,346305,232248,-141889,29946,280960,199237,266662,-88231,-144973,103429,37390,54520,295074,107213,209375,-17148,183494,63598,299030,25429,-277818,169907,114095,65595,-463,-244797,-10545,225494,145329,183283,-139,169519,-41753,17728,-62413,-65794,83667,-76092,163634,277208,-219183,-45620,123096,140337,239845,-203448,238123,-113166,241844,161032,-41505,286969,-111807,104827,-163482,172885,-37841,-246204,-226731,-265017,-26832,-94376,-202601,56904,-188632,-274768,152673,-261179,-122040,-235324,-24453,252737,93786,-34972,-48509,-115320,-37179,158820,-98966,-181909,-190221,-106197,-79917,-15449,184108,292609,-152604,24347,119497,253837,-256632,236890,-46248,83313,15828,236293,91958,-234470,-257945,-45226,-245084,15454,240504,-168603,-259752,-152457,-296015,230565,-151526,-107859,181798,-111136,-119743,252060,345400,-108323,-220985,105622,-237120,-81073,240062,14680,228758,-147531,-181057,208650,-114341,-18448,-301618,147351,-277565,-100137,94380,254554,-158138,152912,204949,-215032,170493,-263696,178585,-244461,-204408,241938,69191,286466,143363,-163337,-275617,-220478,140639,221818,-181735,34954,-101610,-100235,-173312,234894,64517,-166575,-150079,-160964,218300,128967,-139149,252240,-232371,81582,-140845,117902,199775,170454,74767,-142422,-264970,110149,-150781,55936,231691,-271317,-83010,-103999,256867,237891,69693,-280577,-262471,155026,295066,-142762,-174649,181599,255158,-288990,-246294,-175647,100178,249837,-145549,251738,78461,116466,217553,-198737,-10944,105967,-267768,-192511,-74808,-294248,172934,-238344,37273,-56549,313430,-221307,-134442,220969,321244,-217633,37272,237469,-83125,25525,228268,-12653,47370,-102778,52024,-133888,-276289,-1303,-42746,-105958,115533,-142302,-115762,-16740,121792,-153363,13570,220297,-255396,-69042,-336909,-94334,-98378,-262354,29725,-273386,-79197,-18213,207222,-201052,233986,175939,-110047,-128806,-95422,-250511,-253403,-79210,91621,240377,-101563,43271,-275605,-4654,-268400,-27263,256514,50415,143770,246007,249934,187811,78565,-75641,270197,-202438,214915,38175,31757,-272197,-210274,91849,51012,295391,-25902,-230922,177737,-115529,-20313,-245912,-272692,-248618,-101382,267611,-243971,239917,131233,307560,-217592,300303,62557,53459,-219030,-186627,-221827,-261429,-237349,-268233,276438,125298,4270,114231,-22126,199293,47448,376735,-249955,-373,-102246,131639,242583,-74765,-211009,-123620,-213908,-158014,254111,-110455,245785,132992,-122856,-225976,215239,45723,160522,-250215,181060,-3681,-249241,-72922,68886,191227,-43811,-15733,-64899,-195051,-65476,209592,10301,-288008,-217988,-42961,221292,206541,-241964,-159367,-201159,-266966,129275,-212913,131609,-284750,32946,136982,348399,-218356,162987,184205,-154306,-49310,112028,261617,15523,86381,117489,224368,249054,228839,-84438,-203024,202977,9910,-239069,1292,178782,197018,307233,-226596,-261856,-89380,-99764,290308,119742,300901,-46080,-45009,-94299,-82978,239093,177210,-77485,-40025,21908,289529,308491,109860,276852,262489,-18859,34775,-81127,-188535,32463,82153,76176,-223153,272853,-47763,-264671,-184712,239568,83327,97309,-16267,197956,111511,182398,-246951,269356,9809,-53781,166765,-197989,161083,-114404,107129,71988,161689,336949,319826,276718,-263894,-195120,43306,-259318,-53234,354858,64041,-19663,231400,248652,149118,117340,9034,243213,-44075,-301343,-168104,49798,169749,-243040,-72299,310499,209925,220305,134151,-39412,-200292,270467,343824,287060,-86968,-224914,300524,-232923,142388,197057,-48829,306156,-32089,165284,260734,-145490,-190102,95950,-76790,16910,-203209,-238215,-212824,85982,104019,-195285,56774,300431,-241805,-309429,-259012,-87810,-57475,230148,185810,70018,-241142,156896,248428,-192255,98424,122693,-283332,301427,-239551,204793,320079,-290461,55953,-249936,-212788,-57875,160335,276086,51521,-54876,-229824,-284946,341665,156052,204951,95555,-165483,126548,-215813,-233675,53824,-237232,-17254,-193698,28729,203331,13801,93425,225917,71530,82230,336157,-222731,-52664,-98859,43784,195562,-237130,183493,-42111,-211746,-284998,-45573,-30436,-57696,32822,-277027,15320,177984,-39212,51541,229171,-100593,204710,270944,108378,-64855,-74682,25762,312863,12808,300351,218951,-258784,247159,-141513,-284848,287092,-175945,-105566,-194629,16418,144576,251152,60238,-299526,113542,-67486,136244,313510,-3481,-252804,342303,-213936,96261,91124,-29723,-190589,233185,-210274,-217571,-19061,214537,-162073,122359,-115981,-171445,-187405,-213579,-253679,308624,14104,265387,214121,285292,9444,-191686,145920,-232705,-149839,-25598,-113316,-120164,-147324,-113609,-156763,-35460,-241377,17371,119988,-13396,-2263,276005,55296,117216,-297002,-244041,195976,-154725,119612,168168,-190931,-266040,-127030,69712,-188098,-123657,248563,266693,-177004,-76840,-44254,-53327,200342,125720,173194,-208205,107637,165870,-255458,165961,127970,-143135,-176494,-191807,199993,248089,-212510,-189160,-227450,14523,219420,40481,9978,-116960,-159298,11286,-112292,93582,-336314,-286773,-239022,119218,-36416,266733,157716,25111,-132605,112395,284106,113920,-72228,310734,-228418,174578,173243,214939,-135159,-223847,-13448,-183983,-134295,72747,-239120,-193138,-21275,284623,43106,171892,105371,-8507,-248093,-212368,-8139,-263474,-60862,-148272,-203538,194314,-136646,201078,-268218,-100888,244858,-197815,182070,-22646,-161543,236592,52197,331233,-14171,-259216,48299,76675,-252763,119824,-81403,80731,-238732,-82691,67259,172006,13346,222637,-178802,-134230,43839,306366,-286114,-204900,-52796,-51147,-136215,-169830,39536,130716,-239619,241128,-280165,129071,-138413,212635,117147,-305177,-4619,262142,-156061,-10251,-135312,133040,231674,198540,238707,-307387,34529,-223872,-16428,148350,28639,-12213,278598,297976,-111660,-207277,140334,59720,81054,52049,-158856,159538,49583,125847,143583,-63808,-273973,203420,-180044,-43996,7340,139609,150196,-54158,276164,216713,229727,-132456,197749,-186923,129416,90459,20939,89666,-242821,-167729,-175139,215684,144335,-164921,141110,172507,-33669,-68488,-210078,291743,91132,-29203,156749,153030,271096,1916,118968,-216204,257484,276878,-202454,-149969,-142256,22678,-224367,-30325,253808,66339,7192,237663,184487,-290134,-248184,-60892,196629,276377,-179308,-149712,-17204,-205981,-216400,-288395,226851,-15963,211923,207058,-12410,257158,-271231,249248,-55925,81639,-229118,-251358,279270,-181254,-261724,203651,-132185,62543,251256,62448,246689,-248133,45473,84847,63577,-57090,-259336,-160590,-41992,123507,-223856,12563,-278811,74344,-38836,-282914,-235337,-263335,-77127,-287832,47641,74819,205600,-295684,-126421,-145419,254208,-290361,-54532,-247570,-282459,-175764,-240090,-11092,-9003,-18467,-120534,144442,255019,-152242,89259,179924,142302,122294,256830,45904,-151803,236595,127887,107066,190116,150686,-86048,95477,237303,-146895,60957,258601,-230311,-264699,-127510,-82069,265510,-119855,116324,90247,328366,-154892,-38354,-158098,161265,-102744,221282,283772,12401,-304491,150514,239744,-42868,283209,-174167,-28046,-44861,93924,-267888,156510,-144940,28101,55662,59749,-180690,231897,87641,206286,-278213,-156410,-47462,199233,-144337,118914,325001,157998,238567,-229176,97825,-71526,86232,169226,-249505,-117965,-68175,-157658,-360045,-137181,-90725,66499,-56752,-17143,-23944,290153,-233182,204332,161488,249848,170385,92524,-121533,-65971,-117675,-199906,-22862,223967,173782,-27766,-200310,-262478,-301418,95922,96639,171078,232026,247472,-250357,-231761,16995,223708,-17853,-73918,238716,-27764,242527,-62617,1099,135181,-244409,156233,-101233,-4384,195009,-28322,310313,-228389,-148656,-242920,190865,149169,-164240,-289107,66301,351682,103233,-131980,-166139,261555,-250345,65339,217754,-22937,-197864,174771,222714,-2471,49474,-128557,177530,67050,-191869,-202441,26516,210524,251899,-44457,280582,-81078,-224424,231522,171176,-252214,170198,69791,-79299,-214025,1572,-109644,132055,191568,-195390,45822,50608,97333,324809,250478,97460,-57886,-224391,-96036,33807,83416,200661,74289,268763,143964,74997,219508,-94926,69036,-169062,218528,174971,-248990,-98206,-97182,297610,68979,199990,-118013,317316,-94678,-101476,-154513,-103520,291326,284426,134490,-332410,-5139,-59452,-160931,-136110,122925,34177,119077,-56157,-42549,77181,211056,127926,11174,263143,-208992,4164,302008,233443,87579,173460,320882,188612,41332,139754,137040,187488,86924,-227899,214624,-8162,153441,217935,-46057,-1117,-112532,193461,300191,286732,-183227,66069,-185983,-194353,-116617,-217150,-65107,9290,214960,-20464,44398,-169020,-2385,37406,-83536,123504,-91187,291492,21755,233520,215827,131492,-188979,-200204,-262904,-155328,-265101,251594,199428,-69075,219561,52556,-65976,168986,-261983,-110627,-263046,22109,-115790,39103,25926,-2325,-137007,-233769,-26787,168439,-195373,-113917,-124693,149512,-171447,144104,-202216,-12814,11847,66573,-115660,34751,31766,-70059,-215596,1284,172997,292547,-105048,121929,179004,161939,-31357,-182374,288298,-87390,-74367,76625,-130880,-214541,77110,-224791,-2936,190007,258004,34618,-107161,-122953,18105,326265,-192735,-1126,41221,-248763,96770,-245781,-42379,150993,-284607,-201062,-265532,184276,-96258,-161648,167860,-44482,7803,-45641,174946,-33632,217676,-260701,119620,205377,46276,-10758,303886,-45128,15103,-199740,34958,-235707,218884,-118255,255246,24694,-356992,205130,215833,-224549,184374,123518,-137773,80564,-74307,-97372,-123844,-96708,-182540,-84291,222647,259120,108398,357362,46451,137761,76197,-54430,-77030,-200387,-5496,-175821,-102909,-276877,65073,-44449,221001,-161372,-203796,155909,84881,-129244,286205,98988,-239464,139288,143820,118909,-282826,-57112,-139380,-110444,-133325,274743,-22479,2447,-280178,63092,2831,245797,-131075,17999,-130267,-43531,241981,287939,-310531,61780,-168471,270556,-321669,-63889,242903,-265697,-189311,-186009,35762,235539,-99032,38178,265149,-199034,137615,156362,-93965,-21574,229241,58834,-17065,-126771,-325901,-187871,-147288,283647,125813,191324,-199605,-100500,-109988,283929,243170,-85454,85764,154357,117383,154256,-194683,10871,-266046,-89528,-272444,-14484,55857,-181832,-23976,80921,198914,-223842,-195130,207535,7392,260914,-50788,-220724,-152357,109177,241848,41487,6558,72771,182260,83541,-150696,-94556,-116220,41366,123553,-146169,-58515,-169901,186492,-39944,20449,-183818,-71516,-94350,-75974,125781,-31979,205493,8401,-6021,-182839,257775,-17010,-215229,-97079,-215338,-220097,-187168,-12886,202408,197561,31300,62756,199253,181357,90698,63499,164682,274611,-204340,-245580,18881,-31160,-78230,188591,117798,179736,49420,-92807,-172596,-245615,-24733,207041,-76876,-19753,-277089,303352,-103938,295704,127081,-185249,185005,121632,30896,259045,-155869,-231712,4955,-83177,156331,255556,-268707,-116352,-153052,262691,-188739,-47139,-104420,-150824,131298,-259472,254702,-20784,-199905,-87470,-300,184835,100917,-268280,-132128,-178306,-184078,128867,13413,-256957,-218621,-109046,137639,194908,162671,-230208,175740,-225845,-166053,-249211,252455,-18917,260187,226019,-175747,-65124,131045,-65073,61390,-168690,218713,-37781,-143948,103629,161913,228482,-36283,203192,-58428,-191837,294464,74725,-90453,-92553,36797,-154635,137309,-205351,-229933,-152201,19638,22410,9337,-69534,34427,205518,315914,226302,83364,171501,-255949,157873,276987,12409,253097,87098,-89945,-54860,-235641,-144990,-88043,-279111,131418,-174768,114959,22123,-179810,211369,223979,281533,248709,53904,180244,-104376,182554,9588,-27114,-194556,-177281,269456,269771,272157,263204,-25922,269662,-209053,96744,206935,-164120,-256851,-94729,97909,105625,-246586,106820,81948,154872,82469,247938,-150927,35822,-284717,-190590,217491,-210799,-204134,17771,-24162,80744,-202138,-158652,-172836,132490,12936,-68458,235805,-220643,-72472,-185321,69444,65953,-170159,-54173,-187759,40193,32502,-66871,-281728,298639,281078,106993,136522,19157,-240367,108964,-103383,-251536,225725,-34869,53570,74192,-130222,-242923,-79461,111955,-159148,126979,52609,197552,-213237,-124883,-132898,253460,-192440,-85780,67461,-36937,234300,127371,8814,30532,18432,163281,279821,291427,-40959,72336,79295,150600,-138420,137624,-8500,-72184,154871,-217675,-54684,-184863,-104998,78612,250490,132384,174150,-148622,-245689,124482,13717,174080,-25238,-61705,-244401,-67390,-152271,-23466,254948,-122681,-116778,-13472,-240209,74632,108931,131537,-256969,221165,-198568,-119086,120416,217390,24897,-98122,191176,251139,279012,-130076,-66729,92962,169690,-154769,-199251,-229589,-59174,-159529,144750,-151175,-200246,40735,33582,25412,96666,-170717,225950,-142811,-147323,257186,114555,57377,296140,-90064,94496,-11908,163236,96892,-250041,-135537,-141808,148605,-118604,163042,14494,-42208,-98585,261104,238918,74783,-164512,-168539,41355,-173605,-185403,228625,-157513,155810,194009,140025,-71268,103929,-124587,283569,-122728,225679,-236681,197593,119195,-114877,73236,212269,-124709,34652,-17578,188347,14334,-275604,277809,-259543,-23126,-123286,20989,125111,-218770,64419,-151763,184657,-63059,179677,-72285,-72183,171108,183420,-41057,-97340,22238,-213110,71308,207325,267805,137656,-206953,165819,-84108,-212309,-66998,-249156,270154,34242,-82289,186716,-55179,-252546,-149147,35796,-188757,-5083,-32964,-188708,55592,-257210,231245,21429,-138382,-227134,-103169,214808,227235,-207998,274817,-170890,105363,259429,183963,185934,40370,-56653,281138,160490,-32883,53778,-170069,91512,-254311,220687,255794,-87031,229677,247646,-39905,-149196,177453,53377,-107062,29053,-203678,134367,-209932,-162675,253395,25848,135330,138181,8123,85139,-176338,-129473,-124544,-158926,-71813,-241269,131542,-62175,-173426,-200961,-57505,-264535,-45381,-125488,-84400,-188055,142311,196098,269426,80505,215701,224597,-209544,-256107,-111367,71666,-250141,-233262,-147178,240914,-270577,103101,-139429,263241,36215,104264,-56522,251806,129942,-217685,-113225,242703,-113560,-22584,12512,-82141,256115,-151301,147190,108309,198883,56749,-220736,-155661,234024,267715,-156747,-72530,-94266,-106076,-193567,-16890,-93255,-283892,-199152,315901,215287,261630,39725,101253,30357,273071,76207,-221290,-229524,-180015,300326,36026,168236,239243,264998,-81113,184300,19111,-26658,206321,-156171,-174483,-42458,-121201,-100071,-74854,-215197,-60130,-68171,-125933,-275679,155456,-262550,-33846,-30009,218965,20443,13044,309127,-185497,-308822,-288810,166474,148581,-247220,139742,-49931,93164,-63657,208604,-157326,-143739,-229591,-110315,-29388,-26995,177757,83672,28806,-230897,-168226,-89667,52907,170197,-204344,209060,-88396,-105687,-238560,192668,-78658,-30925,-160466,223266,-120180,-179162,6714,58031,-229788,46364,222198,-217144,18255,20993,56598,151548,-164789,-245094,268969,340211,-155112,-32911,64739,-239546,-55591,176696,311373,156853,247013,-104430,-246750,-325315,-238782,59117,-227864,113265,348863,165321,111685,-160468,60884,-143200,-247207,-215972,-197679,248721,-214083,-63376,92405,-49374,-195400,110549,-101625,-285953,367870,214954,268737,-230463,305570,-15122,248224,285919,-140034,162604,64208,72559,-108042,65733,58726,-38307,6744,94555,237238,110237,-69311,-98161,283043,-272569,-256422,176756,34869,-152714,-267893,199260,251889,-97387,-211299,209119,-147561,-131822,-138419,63534,85086,113211,257238,-62674,208086,143924,-171268,-15533,4260,-208029,288061,-156064,32779,42410,36088,-241821,-144575,325801,257776,-132543,-189657,137136,-169722,220837,28937,70724,170952,109818,-44635,270909,-31179,-177025,250721,97895,-132427,312270,200939,213657,-142957,37902,9281,-5252,72798,173622,61795,253518,-107747,527,306953,246602,275293,202233,-205848,-157510,-42094,-29287,-19691,-118229,-100931,-5019,-179964,143067,78021,134715,109477,-112847,40153,-182065,20156,-89604,-137785,-240129,-2936,-90686,136272,-186724,-23662,-257243,-254701,-9258,131301,1899,147028,9046,36629,-83625,16378,-196252,19962,-216889,-6596,91597,-144309,-27452,286637,273401,50250,22114,64681,184733,-8843,187636,266174,167850,230465,-219757,-51749,274599,213027,-136365,-262839,-207270,43179,65793,62671,-36658,-83037,-262655,39614,-1334,-127664,118535,-48522,-150437,-176003,-56879,53326,89591,74273,-257600,-137287,-42087,53641,233404,240504,-234392,-39429,36311,7688,132368,-2221,-89307,18586,-76403,90453,310761,29323,-135300,243804,43512,101384,32669,189878,-34766,-82634,-116858,-61633,-105603,-140681,291460,-107226,-135889,-155595,51959,191935,140683,55724,-99842,81245,20656,-104190,-18089,94328,308738,-279217,-131126,-2797,263931,-19414,-12579,-32139,-236901,131518,130994,-55351,-133504,-182771,177005,3041,246230,-283337,-195835,56229,-260947,-71251,220710,-29175,-149292,70480,289334,282721,217069,201625,67947,-51437,-265855,-27618,53540,-68018,-64495,77872,192862,20179,-276569,94886,194118,-82118,-154111,-66798,-92596,-27081,-170348,207018,-33883,168983,136740,-200505,-8071,221748,-177203,113882,-125523,169578,-123694,283857,-4041,-171084,88888,49216,-157919,274610,163318,-214799,-296176,-178033,109026,-132741,100650,-106626,-120048,218525,-118351,187882,54468,7901,-164074,201873,-187328,229210,-87210,240365,-91723,128513,307014,-152547,15269,52288,22327,302053,33870,-160362,232701,-20041,257605,-78795,150226,153651,38682,-50925,186299,-94087,-290303,83015,200432,76930,274129,-108055,-89426,-150486,-177343,-150,-130005,201444,-95931,81362,-34632,265386,254994,85806,82118,108992,135587,-227436,-121106,97554,-47220,-214460,140030,44054,-300610,86929,221380,-199133,-30500,-259237,131342,177326,-243790,253268,-274962,114936,133298,274551,26672,-77203,-71727,165158,3135,27570,229501,135773,-60457,291583,336778,69928,276947,-289460,-256935,-159009,278768,154042,-110191,249182,-129588,-190947,214074,-175895,130946,-22759,-3149,178697,258160,-132835,-148897,-18217,127357,99802,-48921,-113917,290186,71393,245649,71456,-61537,270341,-32026,-125879,156703,-196209,-112485,-354331,226982,152764,-1599,-147241,-291675,238495,180529,-164757,-280082,221724,-145958,-153659,107239,214494,109799,284336,203319,298633,244686,-2047,14841,-122126,-203266,97975,39440,212796,-126785,-254017,123997,-234418,169883,173096,-202730,-24584,-125135,136227,57936,169242,-125386,-77450,177022,-313076,180184,209599,159062,-97957,-32061,258583,112801,343181,151074,82821,82052,-152278,179028,-168444,-7285,-39117,36860,-184591,-124720,43858,-266737,89690,141985,-178541,102499,218487,28186,145380,-13231,235191,226285,124109,7213,-238301,-23463,-68837,30428,-243515,-133910,75062,134668,-69242,239600,66023,201838,-60901,-253005,269972,-281713,153554,-140461,92256,-191312,-215202,88206,-268960,-122188,36016,173875,-196288,-105566,27499,26765,-93163,226064,-249719,-21574,165964,-267979,-338385,148269,13833,-227001,-182559,244422,153551,-142932,129898,112017,173320,91301,-128041,336799,-3751,-203684,27273,12218,-145212,27282,216645,31370,-171279,96591,-28774,-261407,-204239,-197942,-25874,-77111,251247,-189262,-212240,197852,283999,-258110,210522,273685,176956,152517,37430,10002,-224021,-77310,35025,94459,275687,183740,191782,45006,227776,188411,-177789,234037,182196,194497,-288133,8914,-103384,-196509,170260,-46382,30128,228340,272217,320344,60084,-200748,-248021,-174028,-292674,-120014,198727,215210,-1068,148686,-73521,110039,155023,-273434,-183642,64901,-227302,242703,51937,-64578,284117,155375,126159,-184394,-75532,151446,227260,-126208,266423,-263021,40016,203420,80884,-162294,29837,231984,228112,-13448,192036,-73754,-31854,-75313,-211178,-270310,422444,-18802,163267,5544,4751,185974,-108038,17017,-83383,94333,-147645,-138542,-152119,-80545,-31713,-255483,211422,101672,72553,-1874,-215345,-338871,-162843,74352,-200860,-113441,19590,186088,-46561,225249,-230122,46485,297421,223175,-14607,-85522,177638,149767,25694,-34544,219387,-109495,-83255,-106594,276878,174039,-218270,1360,185229,-113425,19834,-203687,135609,-198402,292425,-242327,-165219,-43885,-78280,-129975,-87941,97015,105030,23088,-8354,62398,78227,-78193,-16868,94497,68269,-284766,167505,334805,216615,-4139,207579,-180992,110955,-32678,104190,214886,-155940,506,-125910,-330664,284525,-213175,56954,196528,196168,98003,124888,-29479,47624,-173654,-202458,43917,110494,-204267,-243876,-344698,323298,271521,73628,118354,-303584,-188274,-172568,55322,-44349,-241411,146980,-65134,135547,-97173,-2625,-169248,-131247,316798,-275193,85851,208528,-129108,257151,168456,8332,-77327,-134493,-239350,102979,216231,216084,-238635,-227729,187426,45638,-51433,-1794,-231933,57874,-124586,-204747,-103332,70428,88943,93778,242951,188626,158913,55467,-199963,209847,277979,-145799,38889,-255145,-135148,-109763,17683,135901,120380,120509,-259415,-50925,-63081,161331,-5476,-277683,7906,49978,-299592,-108385,98111,-284348,103683,-249291,257341,154702,296813,179572,79214,1274,200332,86542,-38218,346718,-210914,192964,-69156,-80896,68751,-128524,163961,70961,-41611,-348192,-3024,207378,202364,152469,68675,-122573,-70261,-208142,44259,-197974,-255302,3214,6120,204143,39674,212879,230740,-4303,21018,35218,-45009,71108,198638,-120014,-188130,-259973,-218832,-185578,358137,-66061,61775,9098,134369,-162561,-22472,-181075,-113523,122110,69864,120938,-272124,202764,-79360,-155119,-179400,233172,253039,-121119,-156133,-60915,126410,123543,34029,-70444,132314,194544,194621,192574,164948,-61367,-286471,37376,-51487,102994,-273969,-129547,17201,-154820,-31052,-45311,176028,173379,126931,-16302,149565,147111,131534,186839,-236326,-203478,249068,-170702,188886,-264031,123855,91650,35958,126013,-242191,260828,259677,-224368,148671,-190978,-203249,-225337,-115818,-188821,229783,135705,275609,163070,225681,263368,-161173,125798,166541,232526,-221217,179014,-11642,270340,-276004,196215,63454,104059,-117811,98970,280754,-8006,145278,220279,-158048,-230879,222044,86361,260574,-28871,160488,-223602,-53856,59232,-262656,-20855,203047,-219281,148324,-263189,-92924,-119272,190523,97346,148949,142359,169116,176426,80005,-263961,77095,-104122,278957,11868,281872,229913,-134400,-131211,-169501,275397,93835,-223385,-108076,-258859,-65943,76594,-241584,136260,-130908,-117834,228949,160721,-24570,-167753,198905,39533,-37285,-49953,66919,-247660,-285829,-112878,172615,-52578,50840,-66450,139319,177726,49446,211697,-11073,-21324,-6949,176016,-155651,-254449,129121,113799,104319,-122690,-34390,-238964,64192,-155929,62897,-233177,-254498,-51773,-186020,-134595,168102,165886,264469,-115153,278102,85502,211471,63798,10626,66835,12957,95187,-270888,19092,39205,192482,245655,-95592,-247947,182698,-179425,107859,-3720,208607,188559,25075,-62425,286026,16418,110058,-59659,-209181,-11862,-206664,-236738,-43795,-117064,-75740,-91112,-52035,71935,-155528,-112676,168340,-180899,90431,-128311,-123142,219179,-179499,-56430,-54305,-94091,-234880,-1543,77869,-216370,266254,-226456,47210,-110938,-198594,-40801,-152751,-149874,-286983,-201094,184326,-5910,185357,258116,-128514,-228908,128010,12833,-256075,-228410,-269123,49735,98613,-177078,175344,-99606,-132422,-242358,-216705,-95975,269177,-253269,43572,-10719,-288312,-11413,-132739,90220,-230597,12795,-182710,123478,72443,147706,-5794,161821,-196898,-205910,-257581,14881,-253427,-219967,-222982,-243484,10147,-3480,-171064,-12798,216105,156169,236394,-188998,52042,-12409,-120310,-216104,-73903,216911,151690,77657,-61295,-50495,-136507,-177934,-37191,157288,-86787,66143,-121192,-201700,63488,32506,147252,216715,-136424,-259556,-136549,280241,-166767,115970,276438,71544,-269345,-183644,73653,191546,204901,-187835,-213919,255344,21386,-45853,-142737,132928,225583,49109,185264,-88967,170396,223595,-184233,98407,-212913,-40886,197254,233436,178819,-72173,-243760,-96782,-107163,-41236,-236385,218704,-97717,-273869,21124,-55865,-172213,-3896,86937,16200,38560,-127433,-225633,123411,181892,-130096,16892,92792,159598,-165730,133669,197746,-285273,-244166,-103668,175777,246634,-6038,-196914,-260664,-65883,169985,-231938,51609,-179808,-10551,-190666,-220016,-209017,-118437,112912,-125855,168252,-241325,-154707,-212706,-177853,252101,-107266,-134248,115235,-30820,-265662,99469,169417,29918,-147784,219582,-27708,170413,243435,-1498,101641,-35488,-156910,55354,-134283,86660,-45814,-242841,-58546,99019,-161228,-45138,134951,286123,209074,4100,165630,-261335,66192,-184975,171845,187153,-253653,212168,-192206,-195124,-89362,-49032,69361,46072,-249075,-89732,-267989,178946,169570,152653,-110600,26709,-249492,-11498,-257745,-75168,272997,181451,-246508,15577,164025,275533,21163,-71684,265801,209264,-127149,108335,246900,-23888,-186415,80962,-28406,-201149,-136025,-43955,-281106,-58064,168467,227747,-142520,-286765,-139265,272391,-255856,140214,-203383,152217,259299,-266240,162417,251704,-132198,-174968,30834,-50167,-186244,275609,9173,89887,78945,8102,-163951,-286237,110583,157747,-59495,-36445,-9426,-168805,-90139,-268069,145687,-176210,111938,-24609,162029,-151274,122176,-4453,-97508,54095,160262,23876,-167016,130715,215188,-57296,-218188,-172537,-219379,104985,-135783,-238636,102139,127863,-212069,-101656,3460,57542,-62128,-68002,-719,-284019,-184824,-64932,337393,9840,37225,-54356,30759,160085,106977,91429,2510,306206,257969,207801,85841,143281,284463,203944,-206293,76344,-71365,-192601,115115,83595,-180320,130138,68279,-185197,-137822,-139424,-199427,251972,308032,-26892,-119692,-65652,-207569,288467,-247299,145778,18284,16556,303714,-145997,170524,301818,237338,3974,-55793,232806,-43899,92169,41268,-222519,-171173,62897,-135147,-197043,-224398,144464,-65655,41786,-17177,-84076,34415,207843,-139815,161628,247781,40828,292980,-175,122682,-21794,32753,93025,-93331,-266060,58249,286900,7638,73470,-28350,146072,-111766,-3496,93696,149657,-169514,346393,283636,-152914,33535,-77422,-85473,184394,218260,-247184,149245,134744,-279489,-4811,-69198,91032,86674,-207268,25218,-249892,117942,173828,86230,-280545,-23352,71577,-234781,60373,-218928,116717,-232172,-172291,183094,198290,225378,-91062,-201487,51364,-218602,221210,192413,315050,-129577,281582,288644,67716,68670,-169553,-85162,-131953,-163089,-122438,14690,-240068,213874,66897,-18533,295681,140026,115063,249204,-166473,-14415,-232202,-73218,338637,288405,20257,-45944,205178,220526,133277,19419,127620,69718,188729,271789,-192619,-257598,227406,162175,13260,-106090,122012,-58193,-290190,-96997,-223708,196583,180935,-234564,187810,-174549,-139967,-168403,-255926,-140470,-61646,344559,219159,256127,83214,-262667,-31050,-69922,-5988,37338,144623,-146419,-200998,-230301,78849,259382,-78469,25018,204259,-284031,337569,67138,-132589,105773,235533,-236382,177126,-81631,87751,10559,-85750,183625,-246183,-241061,-161708,-219319,-90605,-250184,-43884,-212250,113540,-256645,122685,43462,-238015,148793,-76200,159420,-23690,10039,-44423,270231,84238,279725,298759,66025,-170923,105794,-63576,-175647,-201638,222986,153089,259616,-97393,135115,106766,-159878,222940,67417,-223445,145898,-206854,-103465,310524,72427,74452,122689,247974,137737,-103275,178444,-248013,-211148,104049,143853,-87381,-246393,-50069,-264415,-262259,16359,-41676,-218159,42352,304249,-104385,229328,-318609,-98620,-111692,-64403,-89768,-9629,157181,26038,-185550,284766,307438,-136968,112594,-52058,201516,93450,210293,-238912,-147926,226113,15903,81375,195729,-275476,-26848,88649,-112470,-200582,185486,277439,-141366,-51919,-246680,193958,-203188,71779,-125490,-99198,7835,-248996,-190846,-150640,178904,16798,-143915,-182842,-111838,-139651,250769,-178344,271806,-141361,137885,-256086,-58702,-219827,-115773,-60142,314066,254995,-151018,333033,-232285,7139,-150990,-56169,-275301,187971,-58773,-307121,-151953,180658,159792,61883,273766,239323,-177551,-134389,260598,199894,10542,-236535,210367,98712,-147572,206600,-44237,-199640,258960,219391,-56811,-119805,119461,-177421,272031,111685,280791,-256083,-91003,-169821,-66777,256691,216828,-204777,-71600,163916,19105,-75361,20798,-97372,-115818,-50614,111730,156201,244916,-86709,-56548,262782,-229940,-139455,-14515,-210797,238622,-137391,-207364,111641,118807,17739,215918,-246590,277655,109443,-42905,186080,21753,-152571,-35178,238118,-194946,-46253,-145121,170055,-237030,267762,234629,-234396,57810,64598,-45145,222175,192433,272620,171782,-212268,52190,-218186,-113868,-175708,-18915,-219400,120734,-68771,2183,138263,94714,63651,-154327,-124701,110580,-215680,84432,185717,-108298,-241818,-124593,54730,144578,62662,-130769,61371,58614,27835,49934,192129,143644,-138343,-13220,185488,23755,107968,-226643,-242834,-152256,-300828,268076,1147,-202296,78096,-2996,84229,-213418,-230201,227361,-175266,74667,-199729,-39868,19237,-110584,-151103,-113160,-15583,-5305,211700,167297,-173811,210590,92707,110967,-257581,161438,263237,-231396,240463,-154045,-98725,-163559,-221237,-84920,162239,211402,154004,115191,221525,27011,194583,38553,179440,135098,-229951,-32349,156604,-244560,63164,93282,-111095,-245941,60597,87652,-129278,-195123,-53639,-40,212756,-29394,130123,-56595,-161679,129689,11854,-57417,239132,-183437,-26959,-98561,-75773,192269,-107229,-57269,50645,-231563,133494,-5519,-30578,280334,-5572,-178349,-58064,86208,-28514,68604,63475,-265831,-175343,-173426,-9903,97551,161167,174252,102779,-172681,285181,-300553,277827,99422,288588,-34214,70432,-41268,-205863,-107098,-138101,-258561,-107742,211325,-181964,-209761,-118889,279820,29858,-99398,78000,-62348,197889,164891,-58020,94095,-19835,54172,-182456,11084,293654,38710,-93974,-207354,-87761,-122418,148141,57556,-19869,103538,-194045,249784,235418,110368,183357,161010,186034,-187307,178954,-38152,111519,103979,41365,-30830,73574,527,-10627,159731,297653,-70450,-132049,96363,13980,62517,-3902,-24413,62191,-234587,-65608,-148985,-38001,-106132,125420,8453,195939,178170,-73650,112530,6232,-25073,68576,91838,-176481,-81276,-16967,-235508,2368,305880,252522,110440,-173418,128412,233487,162666,-171910,141734,103208,38527,59080,-263063,65135,243708,194042,-173627,127967,-155988,-87479,-24538,219920,224101,-148709,-228250,-123170,-197707,-13448,-26513,172286,67472,153716,170354,240025,33731,-8592,-78458,133512,-246864,-103603,-167821,104799,6622,-33116,228757,240422,-229453,89007,106250,-325211,148973,-132607,237793,-31235,136697,-152354,336942,114438,285234,-8858,52560,333156,176361,300543,-43548,6984,85019,7381,-272105,257397,-176979,226230,203536,90402,-267887,210055,37172,198065,-36314,-170119,170281,205635,-216703,-204598,-113520,14683,316879,-148866,146394,179907,31517,70533,12975,-145477,41928,-86325,58724,-102327,8849,-241314,88705,-199179,269898,305140,286107,44019,206464,301181,-247112,-217117,265146,69445,-199716,-5612,-239407,252689,120533,-205658,-232324,262461,-205072,-205709,169783,-35648,-35252,44750,-233929,-43056,83498,-77650,167492,-14552,-195492,132066,37461,-228175,-17127,101775,-55016,226924,-32925,25554,-120310,135399,244380,151608,33734,113416,114743,-224816,-48511,-262954,17909,83867,-131935,-131582,207554,-241594,65475,-119073,-79459,-138586,-43617,-169980,186012,-70234,191443,234503,-130119,-299106,11472,24156,-229303,190385,-209990,227178,118767,-151281,-81482,99699,-84437,-222292,-215058,-195518,109190,21469,76668,117541,196101,-253730,340500,-76663,-78161,345734,218597,16296,-191449,-259776,-149170,-208835,-76696,15216,-33983,-278798,228523,-34954,195145,282261,9462,-138400,126682,223682,145801,100961,-256493,284117,-298461,-158869,-200017,-38332,-132028,191499,135833,-78236,106910,-162698,166095,-197451,-66579,-208725,229766,207453,-207676,60819,-238581,134428,-52111,-37766,100402,166471,280783,120273,-116414,92826,320175,-684,190933,-126323,241952,45936,-159098,126778,-162009,181128,99067,21855,267833,-24419,189091,-60650,-5517,269772,-235783,-106024,-134286,-222252,282079,-226368,10825,117165,-138428,-158365,-175478,-37410,-273200,-139273,44327,119331,-260033,-18862,171706,-256335,-133314,-155922,61886,246827,170363,297066,-248047,-199914,72770,308700,113253,-164545,42245,160286,132663,27095,188046,-100356,-280237,-131314,-95323,-201526,300385,-228738,-256833,-106024,-71321,155902,225565,-80605,16518,248137,-257511,55694,179505,262108,-239437,171015,-67581,87047,-136878,211499,136799,20060,-160623,7204,-33155,-226455,-66296,-122747,120539,216182,-242802,-163189,159452,-177268,-248608,165670,46207,-218169,162720,127133,-119619,342103,-36489,46551,-125256,-88632,195129,172738,-236988,-218164,113984,-198330,-193422,175617,234283,-114908,42069,196296,62764,-247816,-132968,-187291,-196971,187020,75329,-44640,-236263,-36390,14625,153125,-271924,-298149,181650,47469,-267933,95850,-257391,120593,-203229,250157,34418,269281,60055,160935,47102,-288462,193051,-273875,102379,-21515,2004,-136949,264100,-265731,160200,247653,182212,-284804,183793,185957,65267,296040,-257563,-119115,100021,157527,-213907,-111326,307414,-104155,237883,-198656,-128100,-157024,241990,-226709,-134244,123401,230636,-103070,-122122,107622,-230540,43482,214553,-102720,32012,-230720,135661,-30438,132587,-205713,-20048,-61499,61676,-8149,89304,69555,88104,-166193,-32901,-87246,182069,298611,-213850,221377,157068,-236118,-241711,274592,150322,-160433,48216,-182302,200806,-164707,73408,164518,-292046,26899,271805,-105996,190061,204425,-95265,-29213,-187105,69545,-142568,132061,-103520,57849,230228,272078,-262796,-7804,19190,-11378,12145,141969,250449,-240267,-182398,-47996,164651,52677,-62297,210420,-185499,-153367,125239,-254695,-247789,-113694,-198975,-211401,206876,-742,159049,-164259,-54944,289884,221756,258820,265004,148802,-5514,-120426,-74864,38764,-238278,-304626,128032,253902,-90805,-40535,-64625,152777,7384,-138414,-166919,255131,-194410,98207,-167997,201390,-158503,67838,-39847,-52628,112930,-170080,135581,-87711,-90698,47107,294530,-208358,-33991,-165632,219917,139964,-158266,118888,-211069,-222112,256698,-250993,147306,-281648,-151817,89347,-16162,-134384,55365,286212,-8300,-6584,44011,28470,-12209,301905,212070,-306186,102239,92709,-141560,200892,48938,310318,259371,-81672,-247470,256395,115831,96826,80213,76690,22945,-141012,-83638,300308,-62376,279374,-55913,