69266,76341,-256471,-30912,-19364,215289,-409571,-230214,51699,-243017,-127272,260329,285509,-7858,101995,216314,74484,139742,-14834,-147437,246451,70604,-260422,-310708,-90032,225164,-1140,81551,210222,77990,-235987,-228740,217284,235586,-75591,-279814,114604,80392,270998,96936,9566,-100075,-179182,-134429,180510,-219961,-164101,-297303,-1285,300637,107888,73568,6689,-273508,39573,-260111,-36247,159903,61431,82371,-257975,-78700,221885,-262427,103140,-130277,33784,160933,330446,-105838,282641,90979,22986,-238146,-271475,-72058,70959,-133627,374648,-82546,166586,-54293,79448,-267291,18916,172058,95184,369266,332478,134289,264172,-41176,-80835,-8331,-103236,7771,-194936,-128792,8648,35112,230414,-87875,-84516,62103,-30620,15987,-65739,-82929,10447,156753,-248829,-47910,13600,305511,362908,-224354,-99467,18259,84434,-436689,317436,-297793,62031,-351081,-147876,-152431,64322,139066,-2037,-77167,-294113,-71252,2079,213729,-38707,-240409,139024,-35309,142532,-99210,-216678,-39398,126091,84736,91394,-136051,-177265,-49506,143905,111103,-335407,-276144,97569,-11173,251702,543,-363519,113354,-70966,228849,355889,-4365,270264,94921,-184535,-116434,91836,-160009,-30004,82595,-171300,-33626,-214692,-63423,-200374,233233,55811,77724,-15097,38099,23261,207835,189145,-347645,-145930,188106,119898,80301,170240,-94545,199028,-114021,28711,8309,191349,68798,40601,-200972,101906,-70805,39752,-132052,-52321,100260,-156524,-174308,44223,68278,259055,31865,101384,-59631,-196909,-63948,59270,2379,274890,-203987,-115416,29458,-153890,97676,61445,87137,25488,-289821,-262028,64718,22311,-139475,-225216,-144648,1213,189491,218758,-4293,23679,-60230,-76244,-3958,116230,10536,241960,-192474,-135716,159776,-135313,287841,133724,123197,-94406,76165,128602,-181291,182294,104053,-123372,-253093,-41581,-112355,-146896,28586,-17359,-146541,37128,-82326,-152387,-17149,315517,-70266,-102409,-15342,-285264,-47507,428893,-134604,-62197,-109561,157194,-224393,145462,-157285,56289,-5805,260616,-79545,-130520,-73256,203100,-160525,-33245,31536,106399,105244,-19658,246800,-287316,-130842,-127807,-237630,-17955,-255308,-326713,-78224,-106809,259884,48256,-107402,75508,-693,-39502,29989,16469,-191628,-337707,-92060,8840,85594,-153219,53340,139729,97818,74857,-65184,-376776,209019,2512,-7263,111395,75655,-165686,229489,-241415,26153,-26106,-199511,187414,190186,-73870,-209025,11485,-173862,-58837,-135128,-91446,-36358,-37946,-70563,-52143,-108847,46586,326445,-66527,65690,204093,18929,41965,-113858,-58109,-92841,-50787,8554,408599,-114114,-47353,196489,179323,38336,103697,-38475,63893,-6126,38167,-156742,-111581,143336,-189728,11152,76536,194746,88058,80384,243898,199852,-26911,17864,-149045,-236360,-247029,341289,123571,175756,89264,32635,236506,-278980,276778,125376,-351069,-266590,-44786,163887,-146094,-163479,103570,70842,1864,-132781,-106612,149024,-116342,216241,-88487,36586,-166522,-212394,-128792,-9397,223937,45175,211810,204796,-120044,-82061,45366,-142163,48112,-42154,139358,-39185,-15326,315813,-57914,147941,-139260,-184839,-378069,-70013,123286,53951,-78958,-132473,-72867,10545,-8301,-194850,-5770,-47986,-205697,-207777,202673,52302,135577,141525,-186896,-249968,-172019,-12712,3999,-84721,54903,111916,43283,299361,-37652,63820,63022,101021,-39737,-230186,-55592,210920,325264,-254910,77151,-220540,-138440,104767,-88520,416613,-69732,-229714,331765,-3569,4740,-93209,79172,-92616,-76427,-173427,230890,-251582,51105,26170,-312995,241218,163311,-16586,183447,7384,423076,135071,409293,81544,-153041,190068,-282967,-73798,14161,-112853,-123302,-42824,13308,-4220,149968,-58731,283645,-254522,444240,271724,-100265,358274,249243,-211835,229107,96643,231492,-230403,-83762,-108726,-74646,-110928,-116837,-15307,345139,243331,-90610,-37717,91873,-36060,-120584,-47363,-608,274940,-234287,-5447,26313,91153,-1285,215178,-291749,-51263,152762,17372,120255,-80775,-306631,-79829,-9987,369914,-179230,-68388,-61323,68410,46235,-225556,-344674,7303,-174732,-126978,95599,-33658,172187,231704,-192022,181641,133385,214963,-5128,52713,-179640,-84757,80038,-11250,318220,253440,147609,8081,85594,379140,-297764,-181589,-299693,-130355,-105354,203526,-183074,-138576,192578,-218225,-199396,-66498,-275323,41169,162975,92692,-119106,-60953,-58536,162780,174341,163194,-225925,-73083,-78416,265412,96421,81806,42335,148797,-116406,-16878,275474,-273183,-54725,-147821,-136846,158283,-2737,-17758,-227035,123565,-73620,35146,293062,166356,-133994,184413,-264185,18728,54272,68356,-265506,-46703,94779,-319085,-256323,-171365,-217644,217741,-106258,266337,220959,134580,91304,57805,-195336,-177762,123935,78137,-8658,-175965,258256,-19298,-156215,106076,-17361,-346003,-66953,116857,-181098,-221248,97580,-69584,-264460,-123939,35789,-52489,-21908,271181,13097,54798,-162510,-113667,520282,-58888,180900,-118279,-141739,3135,-70853,-26912,130430,-3085,-324617,134003,213229,-5845,-265331,-72643,-212960,-81519,49529,-67266,139390,201106,-226926,-154347,-76555,-67892,-95938,-12308,-217649,22611,-77344,-78264,139256,-145084,36305,-156909,-173760,46927,63339,-397,-45047,94023,-10752,171107,-341207,81690,-133512,-71522,-140103,-140155,98471,-329211,104023,-25412,31094,-112310,-316123,346378,-63214,47882,-334204,-129524,157250,55042,-121851,157332,-16654,-69488,159298,55651,-175333,-201187,-65715,-42845,147826,-247753,-340535,-144676,-118083,124371,-31033,-58396,5544,48577,121315,-249054,-71895,26293,-101062,-69930,-211783,-234050,-5494,-347352,-152658,-53576,-260551,305971,20752,-66301,126825,2518,-336861,-25764,222580,23586,-28835,-71764,-127103,159089,15421,-105696,-261111,58608,170256,63379,-362575,-148053,-114687,20241,39201,132008,95844,-219747,-220805,266018,-26457,387732,-57160,309693,104761,11682,-146498,-116237,129300,17388,-61534,-92770,113599,78125,-154481,402501,262867,11779,-102541,69918,-45679,139630,-61852,50668,86687,-81329,207393,-155614,-21504,-84407,110003,-146432,50804,-232863,266804,-145632,-201391,-84064,-140718,-229348,-38087,-52830,-78022,342241,-190095,-165037,51453,-122633,57148,149038,59568,132136,38009,-333392,158341,-123288,-376541,-276767,150977,131311,42962,61425,43505,-21022,-285026,492579,-293378,-143946,-114603,333180,-61733,-7468,-41015,-26052,-4768,44917,23177,-182532,37205,46481,-128105,-82894,53588,320602,-236899,261740,32235,39838,-132330,190984,-14985,-93387,724,-185125,99361,-92190,-206973,306775,-81909,316,301394,-96362,44021,-269865,-76199,236126,60317,70957,-76637,345179,268350,-73910,62419,-142591,-23157,3142,216237,88535,239947,107310,-313175,-19869,-235315,-35121,9933,17453,-84392,-74815,74505,-54379,131848,37396,-19803,-26231,-328511,155242,-145667,124129,211740,-185938,-26049,-326877,-159550,63667,-169441,28777,153790,3442,-150203,156509,34325,-397817,331381,-334628,-49395,-6554,-122828,336468,385392,-66483,91326,-285111,34709,169514,-287032,-325429,221923,-86503,-118432,70032,148690,-66732,-29975,-161339,-67247,37076,148275,322407,384171,116936,89649,-9252,-60920,351111,-129087,46397,-118787,47400,-108907,25166,-200949,-36687,-360394,216353,-127479,91710,53309,61495,-233648,43128,-135917,-79805,-18036,-176277,-142532,223297,-77883,-272556,300873,-393777,566,71047,-143890,58514,201554,110879,29295,-107641,206860,-194015,128801,-74512,115949,331990,9597,1728,114658,-15483,88582,295582,144038,88520,-25475,-236344,-50341,-77662,2473,-229409,-103111,-35500,-81787,-27398,89261,-52206,172237,12235,-19712,-67882,-75956,-349791,89953,-62445,258621,60452,162772,113005,169473,59737,360616,173566,375873,153084,-113148,81685,-290302,24223,17654,292233,-80727,-281546,-29186,48367,86714,-1,383115,-68479,-281069,-194067,-101786,-140249,298435,324041,66746,16838,-128980,-98550,-162181,-39262,310505,-92288,-146836,139737,-138165,-105971,11171,-101628,14642,88236,-117057,-60024,155404,-133,-21661,19741,-207473,25246,-120590,-10019,-117970,397310,-90191,-158876,-82137,-142060,36824,102007,44418,112550,74189,-136500,15579,-142944,209867,60352,115177,345241,96319,-84270,322107,337236,-2800,-129905,-17960,-169412,84302,-52749,343274,310537,186759,-15586,-129932,-119929,-66335,5536,18622,-161287,72557,-194336,-130761,-166452,-28454,41158,168083,28255,389560,77277,92339,-169229,176749,150545,-93800,37096,5420,254334,226418,-70401,3817,107998,172310,-4527,325674,42386,364224,-120218,22316,55304,98868,79182,141070,-103558,-147632,-221615,-128088,19065,-191222,-86593,99367,101585,246478,-166048,123666,-96669,-192619,-56386,-62299,253254,274521,180041,59434,-22950,53107,87839,-108373,-42001,282841,-64312,15498,-29098,-103892,300285,-104402,-168281,32756,-29498,-224750,-99549,-89564,-88264,82891,225231,-86816,-72258,258287,-38591,48443,-70536,-87063,66892,-16743,-87585,137822,-175154,167975,203579,113741,20475,12748,202028,-143279,56707,-171285,-28836,200492,-141746,-84900,74722,251733,-77405,14315,-37565,-186724,-98504,-116017,-112342,137290,36565,-24492,-42401,206606,16776,124436,-93210,175600,-240948,29572,-16718,305330,205931,-280865,-61475,272135,137968,277987,186492,-99424,-3806,-166522,-176098,306866,-87804,9740,197070,296252,-65341,-6462,-32522,-159772,54788,-87112,-162089,9786,139628,-31612,173699,-273915,186421,54772,47818,-174851,-91263,68222,128720,276475,-58285,13792,-46412,-86683,397,-20058,-60917,-114114,-198432,179061,233430,4475,-227167,-167850,273263,-187994,196657,-144866,-72095,94712,190654,-131302,222474,172649,-92836,143679,-24817,-172543,192496,-372209,-11805,-19634,43539,-267649,-110266,45330,235432,27074,-60527,-116956,132049,-219714,-159424,-198190,-66906,8782,-339414,39511,37726,-112864,142349,-205252,-142153,246705,115434,-51064,195397,37934,5867,-61894,-44951,-65205,273845,1798,-194918,45175,80257,-87207,-194477,-35075,-100231,-35534,59334,190071,116815,-140734,172760,89007,-80801,-88442,-126699,149775,49018,-68234,-23521,-56143,10284,362647,128559,-112643,-159457,-125256,67848,366228,204135,-211527,46105,-129176,-65704,49008,111687,158965,-259600,76055,-189157,-164482,-66629,256928,-135888,306265,144202,-92003,-297395,8531,-110380,35472,35534,206408,-183731,150072,-237733,-62654,-120304,-62282,-1500,-73693,66383,-87203,-149866,-276429,-50841,-151535,195372,328137,-113989,-37107,-85006,-112621,139473,48538,71251,95824,80296,-302586,14078,-68541,126250,-34565,221486,135627,299372,216647,50204,100097,-32285,-33853,5264,-82668,-157549,-218078,-68733,245025,-203679,-274048,-52353,-135187,-138485,67955,-11309,-2349,-360630,52867,239753,-136449,427015,-110710,72238,-146716,19776,-134571,-35994,3400,-159446,-147693,-209434,-112892,80881,316837,-55725,21635,-28915,-17716,-96761,132797,-96079,-67395,-5503,87355,-23997,665,38111,136340,-47585,-35133,82587,-148831,-95684,-221502,17921,-14403,2345,13210,-53153,-122020,-69359,-83458,-302323,47406,-29652,-16135,-23108,-225597,-84714,216961,27887,128467,110998,-143069,-389485,277999,13681,140498,319993,205893,-26843,225833,50978,179249,93488,255829,6248,-14827,148319,-112064,85665,136424,96814,-16474,28688,-212375,-169521,228791,-118447,212924,-167105,-235799,-164414,-58070,-162659,33271,-59640,-19517,-101298,-79183,38173,-76754,-117705,236850,401053,44663,290262,96319,-36739,-123795,55692,-12729,241295,228420,62074,-107537,-154758,41726,87983,90276,-220630,228105,27563,148304,-144020,-34436,52731,-154158,90995,166813,-49297,-93115,-61369,-159727,-55646,111330,-83757,-90644,-102142,-178769,-133799,68883,-122073,-37844,-43472,217320,19102,214054,-85040,-239089,161054,-64285,-47816,19607,270884,-17277,83685,-50304,6004,-120983,118801,18521,287,65518,-65631,15937,-136963,-37966,27939,-158036,203551,-5744,131492,-104546,54087,109180,21242,-140170,188721,26969,200133,19816,-48639,-20553,79595,109670,-66895,30291,216454,220725,-126265,106624,199700,-235756,261584,355041,124065,-30001,129138,183987,-37640,-76709,96192,-172380,-171511,-39413,-178013,-131845,-29965,-33749,314055,-146685,87913,-65644,87165,107585,42674,-166441,363825,-3467,70952,-207457,161077,-22203,80627,-79467,311035,113355,-154718,93608,-95464,44534,330429,-48381,34927,-82087,-39544,-58812,189646,-46110,388816,-230016,-74637,44038,-215602,145730,-315558,69363,94260,174026,114064,-38474,-6327,-44953,-199722,-86192,-3942,-635,-68848,84442,113703,-53613,-61302,33213,129380,-36828,42180,-177554,101722,100639,38712,-19915,-82749,-37632,-185152,-86580,79120,-7597,-260377,226941,574,-105571,-318206,18529,91119,-153283,14735,-232054,151968,-342126,52086,-200900,-71065,271493,167154,-21980,185661,-57381,175099,-215229,71987,170164,-216087,201293,46195,4360,92846,61116,-127231,-20197,-209203,256899,184224,-177216,-11000,122475,108240,-2543,-48484,-170865,-38012,-185135,-189844,53888,-137090,-27300,-98760,86002,-104668,-44966,60347,-77385,113320,233115,50513,113416,-135051,-149152,-252159,-237141,-185485,83487,-61507,1959,49772,112432,46066,287071,19412,45635,-38891,-70643,27211,-37181,333495,30428,309499,62109,-92293,-90234,-306905,-58946,212609,199333,-47496,249730,-94209,81712,-30082,-1800,-41086,-52062,10497,-209490,-187112,66517,-39530,187662,-38888,80857,115700,243662,74950,-134501,-1575,20924,-253494,-32460,-7885,-28118,321350,226887,330706,-171223,44095,-156194,-265394,71268,-46769,-77336,-210289,-173709,-232221,274169,-85544,3555,-2854,93058,-22524,6595,-35836,-32723,263256,87462,176542,83407,-127745,265899,105288,-23046,166091,300402,-67005,218768,-47248,123811,-50440,41378,-112984,185540,15994,32572,-166405,-18392,301416,90800,-117700,-33948,-140480,102319,-144094,-70837,58709,95877,-82774,-257438,155182,236745,-236968,139001,290931,100864,-304433,-164606,-78644,262346,-174871,262386,-246434,79687,-277882,103406,-188933,-116215,-102242,96488,-160039,287572,-39902,82137,-125944,140130,60133,-233297,-67374,-167822,289283,-369132,-20944,-4686,-19669,-106821,199976,-35370,-190122,-97312,90912,245330,-84520,-57117,-141744,-286033,207139,289609,-110931,129519,393037,-28860,248645,-142319,-69790,-40972,66250,74889,-264532,-73070,23617,-81911,60965,53071,-87282,16883,114829,-184706,136214,-112253,14043,111842,20777,-66558,134105,-102131,-12795,76494,-84654,-202391,44705,308324,-69294,19118,118333,-92608,-93333,116847,-132547,-251066,-63008,-132655,-23221,76984,93678,-319924,173996,-109752,-16074,-51964,-142862,110611,-53439,-102094,92443,-145776,-236627,212860,-115726,168883,-34112,282434,24003,11408,-246531,-3031,55192,-291370,30810,322092,237694,138589,-43231,-280587,-90564,53547,-13103,-48735,-107784,-171272,183833,49070,-52088,103665,-412350,-45946,64560,-350559,-93055,-275408,155148,-64924,95710,246875,196116,-197142,-32738,-51874,-84152,37698,-204829,-229557,-55451,-380629,205106,-74592,62017,146235,37387,31380,202712,23872,-18756,25776,97610,-177052,-48922,2443,153428,-164330,-98374,-73196,-242501,174958,-256870,98296,231880,3543,131088,-29068,142882,-42587,-14805,-86537,-105807,-261961,274780,-208202,325476,11710,-83284,-113546,-149123,-21446,56711,-321063,-51222,59522,27680,269037,-7782,48044,-41862,40455,-961,211580,243334,-2598,-170043,294856,-232395,-161594,-317845,81372,60371,183730,-66660,41722,-22658,71109,-255615,229162,-192572,-81010,10556,-206802,13533,-80509,-103033,119749,-67682,-32759,7007,13154,-85866,-99867,-321339,200477,-84550,-84437,398,34461,-41665,-90183,240287,15412,-74895,-276276,267003,-27301,95500,368308,-22790,53855,-118882,280647,196229,-75057,-89033,366305,146021,-261674,-38929,32894,-147376,-179148,27392,-4658,-63344,54013,-165996,175620,347151,410,247779,23633,-192868,232742,45287,-209132,173179,-116352,60756,-110588,-103208,-74366,-63076,-69153,-36050,-61644,-102102,88985,-75821,-96361,-63275,-4810,-83717,-221600,-195165,-186354,70382,-151684,-116855,-77873,-127832,-174979,-289147,-297987,-36230,-166094,-138664,-275194,148327,132674,15803,-237667,-34072,94278,-87377,-59376,-203425,-36304,347277,-70474,56479,209831,184127,-42833,51539,-19185,49519,-638,18207,96220,-38004,-98645,-28316,329057,-151058,135950,-23921,-209034,-69945,92288,-26234,402355,189831,-191427,93389,56163,256093,250447,156256,229008,-197094,212839,-40799,360650,-59890,-343988,-166328,-73185,-139859,96757,213575,-156462,-3423,-242057,175473,-27,-75066,1959,-184170,195688,169448,91211,111977,-323752,79832,-8262,-85466,-259634,-43438,134099,-42166,288259,138665,60086,85830,-260177,91810,20765,-72981,-111507,137778,94533,-89494,147690,28443,-177985,109039,20223,49836,152110,434829,260914,175764,-42935,-156470,-318040,97188,7060,140290,-209194,380692,474943,-78734,84632,2268,110615,-80843,-16478,-195487,-96220,-95456,-109269,301585,147455,-152048,-91489,-33729,43920,-96375,-54414,-137900,-215129,14344,206926,-276101,217019,201428,125075,-135878,67783,-81370,-90268,49016,-248397,95457,122518,-204580,24616,-8146,-26806,-169413,258001,-33905,17186,-56567,15201,235171,-34406,-240933,67233,7824,136807,-98526,247222,310779,118755,-57001,32908,-146539,70777,-46343,68611,-209654,-92282,-139109,-189639,-90970,-24656,227679,89885,-93821,-100954,38244,-249393,-94122,306418,55307,-31444,-124519,-28579,45541,75706,-79087,-7577,-31842,18566,-30688,247871,-118263,139657,80580,-218573,15942,-373412,-213225,-184508,161593,320590,-210476,-275912,-19424,-208472,-171999,-110101,262935,-101329,-154216,-86630,-30719,-252789,453025,110669,276310,67146,88959,-59574,17465,188317,-115221,-290254,-77119,223405,334799,288325,-61361,9957,-67803,151853,81986,260641,-96814,86903,-71492,54381,-23226,106213,-20713,-262834,146138,-104272,-59974,-60706,-116863,349228,-359705,153501,-289185,-53839,-77539,-108035,-26617,-234610,26079,19584,1284,-47520,220221,21905,-97785,338075,353343,-206966,154755,100127,-11745,377189,-70653,111095,109820,-221608,-29897,45623,-267728,232661,36687,-189736,-69561,122499,-43891,-237978,100729,-63984,-45888,-420,90370,34276,-159197,-33787,-70250,92400,-39432,120447,-99654,57179,42042,52291,-33779,-2001,157714,133874,342695,155288,-57251,101751,-51376,24229,-85782,-77501,23163,-136875,178558,-157431,182274,86562,35464,430560,-27655,178732,26470,-6124,4370,330460,-43836,-26747,-67386,168056,12127,52871,457,-104415,84212,-23663,-92844,67017,52854,211050,-27762,253669,-134378,-66449,97877,120454,-25426,216218,-53035,-85254,160103,31080,187231,85005,127901,57901,4718,62599,78698,126008,61728,38332,209478,-94690,-139945,24713,-2969,-5132,59376,106194,-141446,-70735,-214040,-131919,-243323,141426,355900,209070,125184,-99705,-112954,38890,137911,273517,-773,-14077,-39748,-134086,-59907,314305,-23106,35898,20707,-160405,6754,146865,-50668,229954,63946,12116,-228258,42889,1619,99710,160864,110432,228654,-186533,-134335,49026,11268,-58197,190499,104193,84775,-2118,-144840,159399,-91343,122308,98556,-107493,-289742,-84910,315032,-113749,-7940,262967,-47407,28870,-9951,87910,-50481,-53189,-4906,-78101,118730,54961,-158647,50609,-36434,-120329,-79134,-51719,178721,113321,124350,-54670,-89369,-213903,5921,-90898,-186088,-80338,-6805,-9770,-200040,-286792,-1909,95585,210409,271008,-3645,283997,-153299,-169523,-54502,-215858,-97696,-101828,100663,-85045,-119943,-275024,-100911,-121869,135333,176751,-68610,-47574,13992,63157,78238,91019,105573,-249482,56621,20944,-3318,-69617,9217,-172496,-18852,-140486,210918,-4623,-80715,90972,-84217,-3181,209875,-423323,-53813,-44763,-14588,115395,167686,-161791,137312,-77720,-130553,135890,-94570,333844,-240880,187123,23483,-92628,-107106,-80966,-189217,287935,49705,22195,-83200,83454,50405,56939,43687,-55659,8986,-79207,-209716,-103207,166194,-201509,47678,92923,-81534,-130026,7229,119007,-27738,321964,83666,-148240,-7856,-154498,97310,-54786,-149283,59284,-402058,-97782,-189306,37766,254396,-322979,-89331,10331,228124,-85536,156068,-53114,-58032,19120,38382,82406,39379,103308,-92500,-12788,70182,11073,258425,255547,118880,55314,-106476,-158049,98871,301335,-75587,-101380,-111945,-13117,-24979,7611,7376,154961,154809,-57212,57095,-3822,-34304,68987,-250270,-4990,77953,38607,-42563,162749,7251,-312,-29353,-73342,-286824,153894,78110,24859,149470,365463,-108368,-50780,-68532,288688,-185586,-21343,64235,45456,9732,-8978,174010,-210695,141210,82919,-232649,-14985,-99363,98254,-127583,181228,-128609,200149,27063,-47734,30806,230738,30322,-118312,74979,-212193,-17486,-90694,-192735,299735,-77263,-12949,-30387,154129,-101850,-376090,-38614,-77158,185968,-53058,-128183,143757,178528,9173,76533,142690,87007,-119071,195424,-11103,-204668,289043,-69712,-252505,-167311,-188814,-99982,-64441,99733,-36301,-23075,115610,-319874,-10518,332579,221227,110734,-29586,-118913,-92056,-154222,-9105,93117,-81294,-159289,78874,-202931,63911,-102625,72543,97636,-19430,-43459,-200962,30506,27868,36492,-372819,-29248,219952,276413,168665,-87798,-154388,-76299,189463,-27933,37936,-32156,59395,-42822,-214304,198779,14117,175539,-91866,30341,-62433,-45690,-340669,-294726,6428,102367,-71015,268860,97163,-125472,-28551,-213428,311773,-34788,-140516,183473,-42914,-80076,143504,107785,99666,114249,94985,-89314,166563,-140465,-175299,-103609,166284,-185451,8086,-67269,99238,-22609,116890,166657,181779,53467,-115452,181702,73568,158297,18820,-82801,77672,11496,81712,-98496,-120025,232638,-92299,-138282,139193,19340,-13355,-47707,269795,-91858,58338,107936,-120304,75733,-1781,207523,-91917,41141,362890,-295055,-91319,-33614,-77063,-59396,12854,148732,34873,234479,126197,-138545,-153236,-165339,-266481,-52304,-123024,-145616,23940,171080,91624,-76000,120670,51381,117780,2913,-39732,-173642,55260,38217,-6884,142466,294460,353724,243537,-41189,-78778,33363,-101910,71368,-87160,136937,59269,336738,87258,142090,290622,-65761,-76679,-48707,-247647,-38828,337085,37837,314471,-22360,-282881,65957,208502,157712,156421,-80322,-2917,79933,-256297,61050,-347636,261886,-83470,28104,100653,41352,-64853,-96801,83677,-105573,141658,49380,-318246,66651,11104,-154906,98980,-53828,45679,-272577,72280,98986,422455,98586,128969,56824,54720,184908,282880,-265839,-112196,-244980,-262834,240775,271673,-32158,32516,163904,-434846,-94693,-194152,47255,65056,-35504,157005,23515,16855,155347,138083,280740,-23414,236660,124591,-96655,134943,89888,-87956,179229,25815,-45041,-60997,-189330,-69138,65143,116857,53499,-93313,191636,96254,-176930,201317,-143433,-77036,-136849,218737,-114936,135343,-51670,-111093,-12540,-15511,116434,30330,12554,272058,-51727,-77207,337438,17803,64166,16241,-5275,189206,-133483,471893,973,-37740,-156707,2168,132117,174592,-282224,298227,186341,-48999,-424598,-179206,-169343,176770,-112085,80756,33153,93089,19944,-347887,59490,19582,-196848,280221,-47254,-7351,74184,-50387,22179,-139747,-6660,-6440,-33341,-46380,72194,-284688,298762,-105837,214932,76228,-302218,-146169,103868,4473,257506,216974,-84443,379135,-78391,-186933,102988,-42559,12102,-57612,63258,84777,-26041,-160414,267392,333067,99375,88164,56935,-190885,-261710,184403,21026,-172909,-345865,-45315,-212653,114854,241721,-19704,201192,-64384,-61295,-167729,658,310887,-56263,-41441,-137700,68139,-20886,-45438,214040,33235,101535,2965,173877,61103,-53319,154158,-54417,-87381,102945,347224,22820,-880,-87380,237593,98232,-1012,93791,271758,-79665,-125068,-54933,-114072,196597,-41694,-190756,-164255,-17494,155269,387981,371397,-300632,219819,14890,251630,-144049,-171909,-186830,-237234,-94949,-54520,-155692,156466,-7912,150310,87900,-90661,-25393,41698,-15074,134186,161816,-34325,193108,-136885,27311,-194380,-60212,-219103,-343002,-258874,-172065,41160,-21512,15503,-16018,-148326,-397255,-24784,195595,232611,134723,122242,-17566,146323,-46312,-204388,-24988,-15825,274507,35646,245162,-189604,228279,-98672,-100101,-10189,-36446,-2291,-64635,116601,205699,66870,-64155,75135,229421,-89699,-160922,-184966,-164049,-130899,140248,-96386,267488,-46167,-153301,-21585,-109351,-2477,52375,-74588,274112,-189416,-56249,-273807,-136808,150298,236027,-67019,-284704,177007,48288,249871,-33918,-408915,-5428,-127185,-175791,91003,230217,-62294,-160350,96714,-421844,72287,-103521,-234301,1859,49164,-7769,-191942,-181634,-105424,7119,160337,170396,-273821,50802,-76159,17668,-106127,-41074,-35258,8646,-6113,-275374,292422,-430387,46446,-185442,-95533,-276785,-83182,-340641,279477,-16281,-122170,127132,-134019,237490,23862,86028,41277,-111143,-190448,42781,70129,-47961,218503,-120104,72809,61936,-243199,51279,27136,232100,-258829,-83413,62397,-142408,-60243,30917,109470,-70529,-8938,150609,300559,-257621,-246643,-28668,82420,258944,-9903,99750,2263,378649,-70824,-271,-34325,-115400,-126840,-70255,100768,240421,-214421,-87944,151684,-272755,169518,-32975,206195,50222,-73355,-136269,79664,108903,-15570,112685,-184164,-115707,-179459,-9461,101793,-46239,202337,-524287,-206201,-6082,-133053,-17040,17125,-69997,231604,77109,-21594,-76753,88927,182565,-216276,-37692,-57614,-291868,14977,-11154,343432,52776,-227884,6230,44516,-78734,-8502,-420141,-98599,-180217,118897,-13597,-98726,-95288,-252275,-88835,-6352,-219701,-51016,15126,82889,266294,-162438,19712,-101769,100327,68671,169713,-151718,-56603,126454,6336,185289,-53524,23928,-147734,236608,-174170,167239,-277719,-60607,289077,-348082,185319,-140489,-49234,-37514,77186,-101158,-194923,41406,-72709,172014,-103099,118003,-94359,-155401,217708,16936,-67203,-54497,-65702,-293603,-88445,-212157,-115247,34687,-70918,56157,-166057,-136429,146586,-192899,84639,-185087,-205690,140282,36655,-29274,96858,-77906,129834,-39521,-99093,89695,178749,123631,-4850,226206,-45251,-6143,-44771,-89447,26443,-59191,-65366,-21838,57245,-118900,24379,-58687,30985,-210141,-129156,-379729,195279,186156,148812,-173854,-267102,-114097,47418,13718,-374329,136894,222194,-57520,102014,77115,107487,-5168,-56819,42609,-262763,-113137,144651,81059,108145,-67207,-91566,71394,-71933,126683,-186351,-230852,15190,100945,66403,382005,-182485,-10096,-171986,-101515,7177,-236752,98683,-175542,391557,-31044,283485,-202163,200883,20838,-106369,170993,-39669,141586,-293587,-78174,-90617,-29554,90317,10223,-144625,-24714,-21470,-4846,-136330,-37778,65042,-232662,-238933,-48593,479270,-142377,-144989,-223410,-106608,-288903,-321496,70843,472081,-135616,-276335,25405,70709,-87644,26024,182082,-81657,330084,12583,35942,52940,-352925,-140517,-193640,-46749,-210423,20335,-31020,-8663,413683,96823,139000,215829,347330,-160609,167189,-178444,-384644,393894,4966,97952,122243,-379759,-335107,-97522,-187495,-19875,150944,4756,335842,-160223,230336,-14248,69854,45585,257298,-62981,-176032,125524,52112,-53247,284856,-40315,156430,-36684,14926,-56604,91805,-68367,-124453,-18059,-26345,284961,-323320,395945,113203,-76266,33321,46307,-53136,-21032,-129766,-128140,14958,-309587,107096,-83848,123220,-233956,362157,96268,-61840,128328,-83078,-112758,-202786,-61374,8760,34309,-236649,43800,-125554,22289,-399373,248214,491915,-11175,14885,-276636,141174,429636,264455,253870,1867,-140525,-37200,131748,193076,-93345,-279091,149410,-199501,-127933,145730,-55779,164858,-70350,-75112,6847,-219564,296289,21171,-59410,192014,-130874,-254450,-181486,190343,129093,-4722,216570,176464,-80116,195774,150725,205994,36390,72837,-89150,174606,11230,-127930,359966,7347,18459,-69677,-170236,43675,-12747,-198170,-8317,-84334,188970,-91058,-156825,-155281,-230810,309452,-216383,-21730,-170870,26547,-82,-59003,-34509,-383262,-147513,-211267,-64758,63133,-56416,195,-203329,275298,283440,29500,79229,187358,-147325,252955,-130159,-88974,-185324,11697,34908,59670,-122955,-266068,15211,-172437,-159589,-311443,41613,-69681,435325,-193589,-37972,3347,-51437,282865,-51582,367924,-35657,-72960,42523,14852,-100753,-290952,-91889,-164981,-43089,-33571,97270,4439,-64852,386694,287681,10475,279949,-236241,61713,-11698,78243,17929,159340,34755,191999,104830,423393,-1826,176092,-319951,-71409,152718,284920,61370,402729,-53464,-61778,-255241,107665,-6553,4113,131932,-71649,29620,-8462,87663,48474,160948,-30580,15154,-130622,-170476,74836,68229,233740,-179937,-4361,169501,-197066,-5314,-81056,-111759,-108420,354554,37647,35871,46471,66554,-183139,231030,141239,228706,-77887,-102319,-290846,57863,-39426,-41499,-236296,-81223,96274,-118052,396602,-119384,-125204,168092,-11176,-38125,29459,-21130,-262814,-110513,-26782,255347,-66157,81970,-109934,-101914,-40392,73102,18209,339081,35359,-150130,-108970,-37313,-119376,-56826,258959,10285,-319825,15292,-220592,45758,178076,-190711,20081,-200935,-89640,58564,-278202,331741,357224,-158927,249799,-238834,241844,-109263,-127960,310702,-228327,-47122,-113278,139011,159812,-83362,-96399,101877,-187365,391749,-55575,292488,115839,198800,-192871,68964,-285812,180190,-152635,-23741,48859,-51022,34394,-36965,-193458,-45345,-98065,-328056,-66307,-90267,21332,-116888,290023,-198622,-229128,115444,165654,36986,-73026,24012,-189118,94157,49870,-87188,-100601,198678,-92253,176451,55058,48858,-86384,-184690,-16390,-139708,235167,164818,9690,117833,-88718,-15968,-59129,105309,-62589,-58365,1418,69610,236445,35428,26900,-218210,51336,145944,-149695,278540,-22698,-130904,-130146,-144718,-24609,-71803,239873,-18885,-18562,55104,251349,157656,-33312,41842,265026,147239,-129230,-12832,309915,14753,-124203,-145698,-42706,189913,-138766,-4558,46411,105336,150996,135293,-36706,238590,115968,91789,-145398,53164,27068,25220,-141118,-5246,-128765,34045,61805,-122004,-156782,120465,-27593,65973,-192824,-8727,-213413,-104511,-47123,-80218,77800,10372,128290,-83480,-53274,-148231,176266,-277332,151839,-124576,-169039,-43353,140321,-174542,-42420,-18119,-179131,-219141,-56290,-141284,22894,-100909,-109929,-129389,-122128,78194,4211,86102,14392,-21668,-50174,75919,-205906,34301,-74288,-181882,148316,126533,5547,-187617,185176,-47101,-292559,-160439,85517,51894,173090,70601,-48128,-167589,-210736,343814,117201,23372,-56487,-106241,-35747,-52692,-84817,-54211,38422,-118859,229675,206385,89233,174607,-194578,-20716,59914,207703,-107176,-294807,65398,-120989,196628,-137364,-228278,30681,-223056,238372,-195253,176292,22536,64588,79243,178970,-95751,-51961,-113615,-111630,-14938,-212124,-177345,212745,-258,129382,-193852,143582,72870,-153510,-87766,-73707,-153405,57043,34653,-60613,107983,71412,120812,-57331,-104897,207466,179551,171480,-198094,344869,50940,66808,33349,-293382,-70644,58866,124092,-12506,327662,-34910,35016,29226,-52534,-177736,102976,-115877,18643,176306,137867,-66087,263951,-176562,61261,67581,-62072,-83940,-152769,101291,-56068,309001,215240,-255690,310278,-223784,194594,226767,-17156,-41419,-49964,118409,-177718,-101931,48760,-2000,68792,-194050,-10559,-40078,142718,252100,-108301,44658,172921,-139262,-10231,-28586,-86861,91929,-31757,-23516,-134189,-54809,-212915,-55952,-131887,-10810,-61628,185851,-87747,258676,-37782,-140473,-30167,57719,-71471,27631,187902,-46988,257366,110624,135073,-345740,-136371,87839,30198,140309,-58144,54899,-127680,-51117,35863,-100162,-1921,-151837,195825,-38822,131226,198710,35263,-32466,5911,268094,-144322,-17418,80499,19092,18292,-63105,-196770,180406,48674,-24699,89971,-103502,-90086,-180403,70026,194161,95450,22747,100748,-95063,-17717,384986,-10829,175017,75351,287378,-127759,161268,15468,-150191,-154835,-181161,-86138,32551,-39520,233198,169736,74682,114239,-55436,202787,177926,296317,106839,-20779,281753,-78344,-89061,416623,-161928,-103557,221872,-16207,28726,-193021,-34970,-145558,-47750,-175982,77244,-72224,26970,-279849,-179845,-38788,62806,24654,37010,-23048,29616,35484,-68443,193329,14366,-114797,-99326,-175169,-98033,47261,34881,19781,-114773,45776,255428,-13567,-34124,-52109,-108284,217636,-83433,-211750,236833,-106413,-94279,-74988,235489,55837,-91264,219282,-164144,-79231,-1662,134087,-4813,294163,42522,274237,28532,209041,35978,115906,-92978,-31827,-51615,15499,85076,-16961,1826,22677,189480,-52946,-111460,-191217,49252,-48374,64970,269428,-100407,-221232,-254653,-83977,219349,-27595,189089,-163347,-105541,101574,-15123,24624,90973,-10140,-35299,35884,-54101,70017,-126605,362171,-115696,-25702,-162142,-89099,125564,-97250,356250,-33694,-16916,140268,-137110,-21955,-161719,99377,-48482,71555,-250863,-101124,-12494,-92275,118393,-111490,-1708,31165,35245,109017,-236027,69478,-214326,-829,-84029,-81249,-300285,119810,-85241,215658,-84753,209379,-177329,91531,181318,59333,90251,46994,-147925,-46666,314738,-175045,-118294,70445,-120448,-15011,-31088,252717,-126021,29184,-20077,145438,232405,-89248,-127494,-80020,-162041,-40805,-69778,213591,-208690,-147877,12705,724,-31263,213115,269947,-109110,186351,-115899,-131819,101568,-267488,7174,-156655,329428,103685,-121608,-153181,-367995,-277213,-201455,-311231,-1750,-229325,31203,29343,-170764,236943,243491,-94902,32215,-85013,147210,108182,134964,-63625,97129,108869,338141,-122187,-148976,83812,27469,112278,258600,101701,81120,-228435,1135,18769,-7013,-194193,-91196,-294286,80713,-16850,70586,-5396,-255708,-11682,13676,122928,10895,51582,131980,126275,97607,55536,-92426,-161634,20137,60862,177533,15823,-53820,7954,-85350,66324,-112484,-333661,201156,-87278,-166494,-66172,-33227,88737,-185805,23247,9109,176757,198666,-76604,-141557,-207978,-119102,-272048,-34963,-52596,-18585,-45801,-44410,-139545,70088,-64593,-167662,-22274,130380,29643,1297,-123728,66622,-23367,-59851,68347,6938,15924,-149516,-93735,-98402,-253135,-218119,35415,92083,-137308,47725,-52233,-54890,-28379,-158952,-59852,384024,-349157,-128037,19420,-35969,-32528,151174,108527,193572,342493,-109364,64762,215891,-30102,190833,-202287,-17619,176199,-161083,-237080,-53644,96790,-50195,-14449,232354,310892,-170584,-27751,-42704,-225599,33135,29456,45314,-143694,-66552,31876,-48358,80973,36801,-138307,-119068,91115,32482,-8502,25017,57223,-59316,104117,-72663,-76338,82604,-195124,-191295,125823,114929,232118,2971,-20877,14565,213775,-139706,3843,-64307,11017,113384,-81998,116942,119284,51575,-201893,-91760,-21027,92707,-94412,-10375,-119635,276410,-48596,36986,174290,288444,57420,-93776,-166386,-42424,19397,-35158,-32352,47509,11637,-7116,48837,73646,-123798,178927,-334712,221361,290138,-84291,280466,16209,-189467,81650,-67323,252479,293073,-175176,136993,-276890,336328,-2081,111561,-124519,-272850,-69121,339184,-89026,-132155,-167197,-167343,-37824,-90641,178131,-7195,-69572,-188308,29474,-167351,-48456,-14217,-30348,93605,-164328,-70107,-66500,-158544,269523,19414,1716,115816,-28472,89569,359860,-89081,370153,258289,-18181,-33641,166042,-98806,-9736,156419,82375,-142097,-76434,-26056,-170195,102581,317313,106288,62705,74452,158080,-64513,-72413,-78545,-84282,-11168,226616,-156719,-66187,93948,-180140,64076,-43608,416484,-77193,-67084,-125461,-41185,2459,247364,-139206,138176,21351,15680,-110458,30552,51054,-185242,-89593,-9275,52071,-136379,86610,122892,-10215,310491,93651,-30900,56067,164072,101967,92949,204,-107443,138598,-29774,-24744,214841,-105948,41663,-138773,110391,323832,-20992,-74177,320414,138688,-128704,185470,67413,170920,188689,23821,-4513,54506,-183,50017,66371,185371,129550,-59328,-38514,234835,1670,-46163,-11630,-11661,-10889,-116815,-279309,-68094,27433,-192542,13808,-167619,-60365,59181,104290,38344,175146,18998,81986,-58902,-96909,167299,-86372,-178267,-222981,-119236,-205065,-325532,125310,75562,75474,169582,-44246,47682,71016,206637,-21382,58908,-153558,111004,-46128,49011,-312865,22798,72524,200173,-138052,-203654,39216,37436,-150280,226353,-237747,392801,64997,-122678,-75739,54403,-211990,-76332,-37432,-68402,99929,52993,-177894,-112353,-48743,177832,-4632,117892,16182,44840,-25838,-86897,118890,-114702,283449,192560,238362,150876,316297,4679,128055,186278,61510,-19067,83168,69495,77972,-82996,159331,72905,-14074,138091,-307184,219144,-116195,-75578,320741,19151,-257698,-117424,48041,335215,91646,-161088,-93721,18890,268339,40694,56926,-46328,-24283,7282,87941,2986,-24453,169867,-25258,149805,-3389,110151,-75827,87338,107281,-65748,-12036,-92519,-95177,-79491,-66029,123450,176088,135835,-16189,275856,12090,-260034,-132578,-288130,185267,-118787,-80411,6488,-105002,139042,-48951,67063,-29437,70942,-165900,199994,-78000,-32887,299361,-66393
