589, 1666, -1851, -766, -799, -1369, 2306, -997, 1462, -156, 565, -1658, 1628, -2443, -334, -2693, 1198, -2386, -1674, 454, -922, -913, -2594, 987, 1308, 234, 2882, 410, -644, -1877, 867, 1346, -1875, -1281, 835, 2455, -66, 1922, -2654, -2788, -2138, 2254, 1739, 1754, 772, -2202, -1086, 2082, 956, -684, -1049, -1403, -2059, -481, -1273, -1757, 1680, -2154, 1942, -1452, 926, 407, -1945, -2612, 1162, 2453, 981, -2623, -256, -1816, -518, -1439, -2719, -385, 1418, -2793, 381, -182, -533, 1575, -2777, -1233, -1843, -935, -634, -2869, -1325, 1612, 911, -2878, 1986, -2329, 1290, -2089, -735, 1610, -2083, 1074, 1916, -1419, 2829, 1589, 1954, 1069, -1260, -627, 612, 1222, -564, 1198, -315, 1442, -2223, 1057, -704, -1409, 369, 1043, -1226, -35, 2369, 1045, -1566, 589, 1088, 2293, -360, -1215, -1954, 633, -1482, -707, -2386, -1690, 2126, -2377, -1178, 1937, -2155, 558, 627, 1312, 194, -2850, -1776, -1372, -1060, -1845, 2520, 2053, -256, -1370, -774, -816, 809, 644, 2093, -2135, 904, 186, -1281, 810, -244, 1815, 1070, -2219, -1324, 1691, 517, 2387, 982, 2085, -1067, -1516, 1629, 1969, -2683, 482, -2893, -92, 796, -1199, -1475, 1668, 24, -2563, 244, -1074, 1868, 1979, -2192, -348, 194, 1880, -2376, -373, -1350, 1640, 901, -805, -444, 2309, 1799, 1409, -1410, 265, -616, -257, 1174, 1593, -1309, 1544, 649, 1407, 498, 138, -1144, 1263, 979, 1426, -1124, 1155, 1033, 913, 602, 768, 1648, -625, -1517, 2541, -105, -490, -2378, -1299, 1966, 1800, -813, -1209, 1808, -1208, 1235, -1765, -1420, -1107, 251, -1901, -2090, -1090, -576, 1051, -1128, 1651, 2852, -375, -2427, 1490, 55, -791, -1732, -1890, 648, 2317, 1995, -2341, 675, 794, 7, 2444, 2444, -1348, 1196, 433, -1201, 576, -1097, -441, -1700, -151, 184, 1075, -948, -2189, 1677, 1819, -1278, -133, -41, -1848, -2442, -2539, -2678, 2262, 1937, -951, -2856, -1335, 251, 261, 980, -754, 374, 2884, 61, 166, -865, -23, -846, 1532, -2659, -1976, -2039, -1024, 1048, -792, 1332, 1962, 519, 123, -2697, -112, 2210, 811, -282, -77, 2094, -498, 2492, -1463, -1211, -6, 2260, -78, 144, -654, 448, -2116, -652, 2344, -1230, -1596, -1648, 775, -175, -2502, -1083, 120, -1548, -2284, 611, 978, -2814, 1332, 83, -688, 112, 489, 28, 2274, 323, 930, 1575, -915, 1283, 2793, 2670, -2656, -313, -1346, 2172, 642, -55, 710, -1389, 2113, -2178, 1066, 2814, 2820, 2249, 2068, 270, 1698, 116, -1185, 2232, 470, -40, -1568, 639, -2805, -448, -2356, -1013, 517, 1831, 21, -1342, -1975, -686, 2196, 1119, -2889, -2611, 271, 724, -2726, -2665, 630, -2478, 1146, -161, 1731, 1559, -1541, 2843, 1341, -1073, 816, -2096, -2078, 1325, -2321, -561, -1398, -1485, 2758, 2611, -282, 1828, 1979, -113, -1741, -365, 2644, -311, -2363, -2366, -2381, -1270, -1079, -1247, -610, -2855, 1909, -2368, -1223, -242, -924, -567, -1373, -2808, 287, -2525, -328, -2668, 1440, 2240, 1240, -1043, -1714, 940, 2548, 1, 1572, -448, 1588, 2210, 1298, 2155, -1165, -2890, 1367, 132, 2391, -1853, -2209, 969, 199, 1958, 2303, 2381, 1167, 759, 240, -125, 1366, -2665, 2626, -499, -858, 2537, -156, -2261, -2377, -1327, 1915, 637, -1272, 2599, 1609, -1600, 458, 2715, -2125, 2190, 682, 201, 2337, 970, -1573, -1473, 373
215, 3369, 720, 2190, 2220, -226, 2663, 20, 121, 1482, 2776, -630, -1755, -4275, 1640, 3522, 81, 1636, -3502, 2204, 2951, 2589, 1624, 1942, 419, -3442, -213, 1198, 509, 3897, 1191, -481, -2181, 1925, -2441, -648, 1956, -2419, 1222, 1249, -2405, -606, -148, 1822, 1432, -921, 1674, -1940, 2834, -1913, -2033, -1537, -383, -272, 1451, 1798, 1073, 1394, -1950, -306, -174, 53, 2076, -249, -1897, -385, -279, -959, -2545, 885, 73, -940, -2363, -644, -2432, -1642, -1419, -3771, -1045, -653, -2629, 697, 1370, -3522, 1956, -887, 2076, 1588, 2037, -1156, -229, -3335, 47, -1729, 2884, -1394, 1094, -1407, 1696, -404, 1749, 532, -1869, -1157, 313, 2785, 653, 2858, 2134, 594, -1596, 1595, 1732, -4062, 1247, -1872, -2506, 1576, 318, -2611, -1475, 1563, 2373, -1547, -126, 1915, 1691, 1388, 1499, -1241, -329, 3350, -2709, -294, -1440, -2841, 1958, -2518, -1214, -179, -2038, 1625, 729, 2770, 1404, -2101, 430, 1650, -2781, 2821, -1149, -437, -979, 278, 1454, -57, -2850, 1667, 2319, -1575, -1949, 814, 1595, 1449, -1039, 1670, 784, 68, -1772, 1247, -2831, -964, -1271, -600, 1018, 1715, 1882, -781, 350, -290, -1033, 2594, 2195, -906, 333, -2385, -2265, 579, -524, -189, -714, 573, 977, -682, 2223, 2769, 2142, 1946, 2827, -2412, -2120, -571, 143, -3664, -1871, 3342, -130, 3533, 485, -2544, -1857, 36, -3099, -656, 18, 2583, 262, 2750, 254, -1584, 2658, 1446, -202, -69, 4624, 341, 446, 211, -1968, -1736, -1655, 2798, -1969, 1906, 2213, 2488, -1748, 2495, -1541, 930, -427, -2284, 1551, 1867, 3605, -445, -2706, 1670, -1778, -3846, 1762, -672, 273, 4547, -2578, -7, 1481, -1224, -2223, 325, -544, 2809, 682, -721, -570, 2023, 2595, -3052, -893, -1468, 1719, 1406, -1728, -1678, 2151, 3343, 2945, -979, 1489, 2585, -1529, -2034, 1757, 1478, -115, -1900, -607, -382, -3827, 421, 1418, 1908, 824, 3210, 3209, 156, -2278, 2345, 801, -1057, 1871, 2205, 166, 3490, 2854, -1575, 710, -1110, 1210, -2347, -396, -1768, 992, -1932, -214, -424, -1445, -1529, 3411, 2540, -150, -2544, 1642, -1955, -589, -452, 2829, 1885, 2699, 1599, 1089, -2290, -513, -1392, 417, 805, 2169, 1421, -1015, 184, 674, -1425, -2781, 3135, 1047, -2347, -1081, 1966, 789, 3096, -786, 247, 812, 2379, 276, 1514, -1668, 1086, -1745, -655, 2415, 1580, 3786, -414, 1421, -1351, -210, -2, -1280, 1813, -493, 351, -3083, -429, -1883, -1907, 2259, 439, 1794, -169, 1467, 1790, -2316, -1059, 2188, 992, -3232, -2256, -1933, -2728, 2310, -709, -2645, -1201, -1363, -428, -692, 1136, -294, 1693, -159, 1107, 3632, 817, -2780, 3363, -1703, 2006, 445, 4094, -79, -1159, 3185, -2665, 3653, 2621, -922, -1120, 1823, -1070, 2511, -520, 105, -330, 350, -402, -2435, 2442, 2268, -1979, -1779, 2623, -2109, 580, -3949, -1948, -2924, -1749, 1423, -1682, -2740, 1238, 2521, 2604, 665, 1109, -1523, -1745, 228, 3210, 984, -3015, -2814, 248, 1336, 2060, -824, 1102, 1907, -2220, -1328, 1901, 2774, 3332, 1021, -1762, -1256, -2300, -2974, 2167, 3812, -3249, 1789, -691, 638, 2136, -2910, -2462, 637, 1597, -563, -499, -2432, -901, -2820, 1390, -2352, -2610, -2849, 2024, -175, 1867, 1808, -983, -357, -981, -714, 125, -940, 540, 800, 559, -2047, -76, -410, 1824, -2929, -1536, 443, 703, 735, 2242
634, -2568, 4115, 1925, -1394, -1497, 1135, -1188, 2560, -1695, -3279, -1191, -2816, -3245, 2287, -923, 925, 1936, 2939, -1067, 748, -2744, 350, 3273, 3519, -1049, -2054, 3012, -1362, 1659, -2421, -3891, -1933, 2129, -2148, 609, -213, -1417, -1725, 1703, -681, -1324, -531, -2986, -1939, -2950, 303, -750, 381, 2317, 729, -340, -2059, 1224, 1459, 1622, -3369, -1880, -1131, 545, 14, -1737, -1846, 1285, 1738, -2053, -972, 2711, 1682, 826, 1945, -120, -380, 2344, -2310, -3335, 345, 486, 2947, -1648, 1481, 1292, 2824, 3532, -2225, -2075, 89, 1681, 2187, -1166, 1121, 526, 663, 2026, 553, -2265, -157, 1901, 2981, 33, -905, -2063, 2308, -3159, 1385, 1622, -672, 2181, 2174, 2415, -178, 3038, 396, -932, -1618, 20, 271, 782, 2542, -1600, -2622, -2143, -2541, -1569, -1080, -649, 873, 1513, 490, -551, 2335, -2000, -1795, 706, -887, -1547, 1910, 2049, -2096, -1982, 3500, 236, -786, -2560, -2299, -3573, -1868, -1676, -1768, 1134, 2375, 234, -305, 728, 2398, 3446, 1920, 2694, 950, -1177, -2214, -2869, -2019, -1161, 3164, 2723, -5, -3185, -1105, -1174, -1988, 3034, -2076, 2673, -2939, -1401, -3527, 951, 1551, 3123, -1866, 159, -2349, 2655, 1370, 2242, -1524, -404, -2763, 2646, -1251, 2754, -2146, -267, -854, 1886, 1691, 2436, -2843, 808, 902, -3390, 1282, -1085, 655, -1082, -1103, 1196, -1552, -1703, 890, 1284, -1873, 3686, 4071, 2622, 596, 3162, 1615, 3258, -928, -1302, -519, 656, -807, -761, 637, 115, -1297, 1491, 2403, 2482, -2423, -1335, -1339, -638, 2797, 1128, -2821, 1367, 2443, 1086, -676, 2102, 1011, -1633, -2703, -2537, -1981, 1844, -961, 1462, 890, -2399, 767, -1883, 2813, -1421, -1065, 1502, 1113, 274, -856, 1453, -2030, -347, -1724, -1935, 337, 1585, 2757, 751, -17, 3701, -2683, 2595, 2947, 900, -2103, 1155, -1474, 158, 3455, -1689, 321, -3364, 1049, 1130, -912, -2941, 1595, 888, -2968, 116, 1520, -969, 1591, -2910, 1087, 1154, 1297, 459, -1895, 2910, -2498, 3175, 834, 141, 1326, 12, 491, -1237, -2311, 2570, -2764, -885, -1649, -3803, -491, -1272, -756, -561, 1691, 198, -538, 132, -919, -2604, -1556, 49, 792, 3, -248, 2743, -1975, 461, -68, -2450, -2200, 1976, 1790, -1713, -2020, 3107, 1146, 1569, 1454, 37, 1762, 733, 2242, -1121, -200, -1374, -205, -1564, -1096, 906, -2088, -15, 69, -1532, -650, -1519, 3414, 43, -947, -1377, -2930, -2641, -1217, -2579, 2549, 1856, -1820, -133, 1914, 2171, -1421, 3572, -3010, 920, 170, 2162, -688, -2433, 339, -348, 713, 1090, 2178, -705, 1962, 2247, 2219, -145, -3355, 2240, 2530, 945, -2066, 1203, -358, -1511, 1750, 2367, 92, 2001, -489, -680, 2231, 652, -502, -2596, -2583, 192, 2237, -1490, 2132, 1441, 1352, -1933, 2425, 2974, 1093, 1625, 1040, 645, 2023, -262, 3677, -101, -1742, 120, 2828, -958, 1161, -1808, 2213, 1674, 1059, 2205, 2159, -1845, 3502, 2957, -891, -98, -765, 2325, 1030, -2148, 1690, 2015, -1933, 1186, 1562, -709, -1007, -1144, 1916, -3056, 492, -1336, 2720, -305, 833, 2694, 1745, -1264, 64, -2150, 2283, 529, -2917, 1149, -481, -3057, -1329, 523, -356, -861, 236, 1043, 4167, 2378, 1442, -343, -3557, 363, 727, 1160, -2348, -1646, 1333, -1934, 1369, -1493, -306, 492, -2212, 1218, -945, 445, -309, -1427, -1092, 683, 1888, -3450, 2328, 1922
257, 2656, 1, 2190, -2186, -41, -1735, -1329, 3035, 820, -1968, -689, -1753, 47, 1210, 1821, -1892, -1782, 1443, -354, 690, 2228, -944, -1022, 814, -1497, -1052, 3048, -126, 2631, -1157, -2432, -1422, 907, 1129, 869, -962, -2872, 456, 702, -2889, 417, -2410, 700, 430, -1221, 623, -1551, 591, -2420, 1812, 744, 1667, -1011, -1170, 1592, -698, -420, 43, 2673, -1751, 2104, -2595, -2310, -1107, 2944, -2429, -854, 127, -1810, -376, -1605, 851, 1634, -1227, -1607, -1270, 1923, 2290, -243, 2058, 2297, 1445, 1591, -161, -381, -1230, -2195, 1450, -862, 2651, -2860, -1320, 808, 1506, 1350, 2216, -2269, 2420, 2028, -1845, 850, -1864, 1222, -2941, 2819, -1929, 1528, 2737, -1153, -2016, -1284, -1829, -2286, -900, 1396, -1584, 2998, -491, -581, -309, 1140, -115, 1760, 1190, 512, -2565, -370, -124, -740, -85, -742, -3054, 2664, 2398, 110, 1847, -1580, 492, -538, 1567, -134, 2329, 1384, 1429, 887, -1507, -888, -2385, -1704, 2411, -1320, -679, -1379, -799, -656, -2030, 3154, 1840, 766, -1605, -2804, 1175, 2151, 3068, -150, 242, -339, 2929, 2128, 966, 1999, 905, -697, -2092, -1130, 1490, -1019, -670, 1105, 2588, 723, -2397, -278, 2618, -762, -2524, -954, 1589, -1230, 1625, 768, -424, -737, 392, -304, 64, 2270, -2046, 488, 182, -733, -1228, 1653, -1902, 3712, -2577, -1444, 315, 2519, -2511, -1120, -2846, -571, 1260, -2713, 2099, -474, -2351, 2256, 2145, 189, 219, 3494, 542, -2264, -244, -952, 1966, -2028, -1351, -1024, -465, 159, -688, -634, 1377, -1199, 1217, 154, -1272, -1583, 286, -1066, 3045, 2415, 295, 1740, 1100, 1642, 467, 44, 1027, 3485, -3135, -811, -1970, 2983, 2526, 992, -209, -2124, 634, 951, 2085, -483, 1279, -2897, 2979, 779, -2589, 2723, 1917, -162, 1110, 2580, 3283, -638, -425, -270, 2699, 1481, 3473, 892, 1058, 2790, -1573, 1197, -2824, -773, -409, -381, -1937, -1208, 1766, -461, 2793, 1, -991, -1451, 218, -1519, 173, 1246, 92, -649, 2398, 1976, 1641, -1193, -110, -705, 772, -523, -1563, 2969, -2431, -3108, 2607, -1779, -2393, 2917, -2232, -296, -1841, 596, -1244, -155, -1839, 2655, -97, 329, 1358, 1224, -2715, -1510, -324, -206, -2318, 1084, -1935, 1854, -1364, 110, -3024, -629, -954, -2806, 273, 2020, -371, 1090, 2425, 354, 1087, 1893, -740, 1533, -1088, 1780, 3175, -1334, -795, -1568, -1843, 3706, 1699, -2006, 2083, -1544, -1787, -1654, 1658, 2914, 805, 1462, 2796, -2291, 945, 3115, -2620, 731, 2441, -1315, -1330, 1520, -1934, 1228, 2616, 605, 1303, 2932, 532, -871, 669, 1977, -925, -2027, 1698, -735, 212, -1066, -602, -2487, -766, 3649, -375, -1018, 219, 1346, 4530, 1398, -1748, -491, 1842, 0, 1267, 2386, 868, 1133, 2151, -1082, 2270, 2324, 2743, -2110, 639, 3609, 2286, -2784, 24, 295, 1463, 3005, -64, -2640, -325, -918, -1574, 1498, -316, 3375, -1235, -744, -2061, 1518, -1317, 1742, -2155, 1737, 209, -1830, -469, 106, -981, -587, -1672, -615, 1122, 1957, -2059, 1539, -2191, -2285, 1002, 333, -1436, 3478, 2755, 471, 3361, -471, 775, 626, 2688, -2886, 1172, 1554, -184, 820, 749, -2559, 363, -2276, 3282, -2058, 3065, -459, -2781, 2028, 2085, 2131, -1238, -202, -1674, -2715, 1914, -1915, 2364, -1055, 722, -922, 638, -3185, 2847, 1699, 317, 2197, 1914, -1121, 1200, -2363
-2454, 448, 91, -943, 1647, 1275, -1803, -173, 3425, -4170, -994, -808, -736, 721, -623, -1256, 3297, 883, 5032, -756, 3094, 2624, 57, 2154, -3149, 3271, -1561, -857, -1574, -2196, 589, 2265, -882, 3579, 4117, 5041, -756, 5414, -2216, 486, -1830, -2816, -274, -627, -1368, 1089, -404, 98, 1536, -1551, -813, 1321, 1459, 232, 1990, 3971, 3103, 1768, -1093, 3355, -474, 760, -111, -602, 4048, 1975, 2951, -2694, -2722, 914, -2445, -1400, -4900, -2323, -2219, 3159, -1775, 4196, -972, 3330, 2875, 1491, -4621, 2403, -498, -791, -879, -1427, 3544, 4721, 783, 911, -1061, -1087, 2936, -1383, 2454, -5300, -220, 1423, -3749, 3296, -853, -1176, -1473, 1103, -1567, -1692, -826, 753, -775, -3803, -1186, 2438, -4868, 836, 1725, -1617, -1286, -1596, 790, -3096, 253, 2159, 25, 525, 1312, 1317, 1512, -3066, -1359, -1637, -1806, 5359, 522, 1662, 3338, -1198, 4032, 32, -2763, -978, -589, 978, 2285, -941, 2477, -2363, 2323, 108, 2868, -3923, 994, -3203, -1715, 2126, 969, -1983, 2341, 2718, -668, 1584, 928, -2425, -2015, 2700, -1524, -1711, 2762, -1861, 533, -371, 2208, 1213, 3993, 2048, -2734, -132, -561, 2741, 2207, -2660, -4061, 2443, 1708, 239, 2934, 2748, -2131, -646, 596, -1370, -2713, -1034, 3406, -1061, 1945, -2086, -2556, 2282, 1690, -1845, 1129, 4120, 2698, -3526, 4878, -3044, 1043, -200, -1377, 9, 2193, -397, 1062, 585, 2343, -3045, -2287, 1764, -18, -1380, 3326, 39, 586, 3042, -72, -18, 857, 2379, -1515, -3851, 1180, -346, -131, -3964, -5172, 2041, -2312, 4460, -87, 2309, 3784, 1448, -1469, 1302, 3233, 2110, 341, -1426, -2855, 2765, 3940, 60, 3911, 2406, 1800, -4478, 86, 859, -323, 1634, 1774, -1266, -362, 1100, -2181, -2682, -3254, -1592, -3688, 1389, -4190, 331, 898, -433, -4137, 134, -506, 4000, 3063, -599, 937, -223, 3212, 1173, -2358, 1345, 1737, 2536, -2250, 1563, -261, -4160, 562, -2799, -516, -1635, 1458, 1073, 1861, 119, 753, 1384, -3456, 2701, 356, -293, 354, -3651, -3030, -550, -421, 3186, 2037, 3463, -1133, 2523, -1002, 2614, 1461, -329, 673, -702, -1610, 407, -1378, -2294, 2691, 1849, 439, 1828, -1634, 1853, 1944, -65, -1580, 719, -2671, -1712, 235, 3413, -519, 421, 2989, 3222, -37, -1534, -1059, 705, -471, 1927, 377, 3358, 3573, -1083, 380, -3041, -2007, 1989, 2934, -2881, 1340, -1459, -3062, -1871, 654, 260, -1233, -1136, 1540, -241, -4798, 4222, 1026, -1465, 1471, -24, -2278, 1404, -3627, 2406, -1429, 2518, 2050, 1648, 1285, 1629, 1558, 2483, 4158, -1409, 1712, -2470, 1776, 2028, 3084, -596, -1071, 2014, 1812, -2661, -1445, 1663, 7139, -3308, 1164, 26, 5546, 334, 205, -965, 654, 1735, -184, -2760, 1232, -282, -2231, 1813, -1709, -506, 703, -3475, 1093, -2150, -975, 233, -3052, 3909, -2969, -2904, 1458, 2358, 3429, 589, 2527, 3706, 2594, 1377, 1656, -1398, -3949, -2362, 1021, -324, 2985, -295, 1810, 3298, 2551, 2378, -1412, -1745, 963, 861, 33, -3546, -1959, -76, 1698, -2066, 71, 3637, 1285, 1568, 2763, 1203, -754, 4739, -3122, 2775, 3236, 929, -2111, -3439, 3098, 1467, -1444, 740, -918, 1419, -2453, 2755, 270, 3366, -857, 1934, -1180, -923, 1763, 635, 1173, 16, -2300, -2476, 2527, -2771, -149, 2291, 313, 1432, -387, -1156, -1033, -1997, 3903, 1129, 3783, -1817, 2588, -2952
2312, 4209, 656, 533, 1507, -1879, -2475, -1941, -4035, 751, 2639, -992, 1828, 3869, -3224, 2975, 2810, -1345, -1026, 2026, -2234, -54, 629, -2569, 1943, -1662, -1739, 3332, -3019, 2052, -1322, 3320, 1227, -189, -1306, 2464, 2661, -379, 49, -1785, 1244, 971, -52, 5167, 2775, 815, 3202, -559, -1631, -2859, -1940, -246, 2039, -1925, -2744, -15, 3475, -1804, 1322, -3933, 912, -1885, 4268, 870, 3130, -468, 2298, -1097, -1891, 2397, 1985, -1895, 961, 1847, 1992, 4297, -1563, 3636, -413, 3644, 1088, -3058, 1179, 2606, -2207, -2068, -2311, -2382, 491, 288, 696, 1113, 1555, -2931, 2207, 676, -1370, 1068, -842, -2412, -3979, -2603, -1466, -1570, 1365, -3234, -2484, 2352, 1204, -1310, 1297, -1981, -352, 1461, 1719, 1396, 1544, -957, -211, 1785, 1966, 1352, 3953, -1686, 25, 195, 1474, -2230, 2397, -1355, -3516, -944, 2336, -2576, 4151, 3059, 628, -1979, 1527, 518, -1525, -843, 3627, 2196, -1848, 2512, -1122, 2954, 2841, 1860, -2454, 2075, 3993, 3093, 2110, -982, 2725, -1341, 1534, 5327, 2418, 2221, 1052, 1859, -3609, -1965, -856, 2502, -3049, 3302, 781, 2001, 3881, 1894, -1438, 1478, 1252, 1094, 905, 1832, 1267, 1039, 594, 2274, -1268, -65, 392, -2155, -1024, 851, -2731, 3117, 684, -8, 3724, -199, -2906, -608, -1301, 1614, -210, 1898, 2456, 4368, -1018, 1540, -1651, 2370, 1370, 3844, 3732, 1905, 5290, 1541, 1084, -1299, -2728, 1540, 2930, 3081, -2262, 2058, 1882, -438, 663, 1527, 2443, 1567, -2051, 306, 2353, 2190, 1410, 2020, 726, 529, -1154, -377, 2869, 135, -2289, 2148, 2779, -4117, -1585, 1620, -2819, -1385, 2097, 288, 3126, 2131, 1398, -748, 3345, 221, -1287, 319, 1794, 2463, 596, 712, -2754, 1187, 741, 1047, 1355, 1992, 865, 559, -85, -415, 254, 1496, 2773, -3570, 3305, 3180, 384, 1073, -1681, 1018, -1709, 787, 1414, -2142, 12, -470, 1512, 3861, 1784, 2860, -753, -1800, -373, 151, -2513, 3618, 58, 6, 4820, 294, 30, -1746, -1237, -3100, 24, 2, -3281, -787, 2580, 2310, 2650, 1475, 4207, 1871, 3592, 3681, 2370, 457, -1205, 2148, -958, 822, -413, -1795, -1138, -1761, -1459, -1070, 436, 2320, -2079, -1081, -237, 797, 677, 3320, -1755, -450, -1858, 1053, -2493, 315, 210, 299, 472, 1877, 3892, -1882, -2429, 738, -406, -540, -2237, -851, -1758, 2633, 2305, 2083, -2301, -275, -4390, 5572, -1571, -964, 3013, 1065, -1467, 2723, 3119, 2572, 5746, -2310, 519, 349, 2277, 301, -2991, 2141, 317, 781, -2886, -506, 630, 361, 422, -329, 1303, 466, 1721, 2833, 950, 1313, 2514, 3510, -1105, -1069, -2719, 2092, -240, -572, 2197, -3257, 3431, 1026, -1611, 5556, 597, -2406, 1392, 2167, -2887, 2139, -674, 206, 2262, 2375, -1707, -22, 3014, 1416, 667, 1327, -2242, -1411, 1639, -955, 2748, -38, -1995, -1051, 685, -1789, -68, 3134, 754, -787, 1154, -77, 2394, -761, 1839, -4874, -593, -2027, 1945, 1669, -2314, -3112, -192, 1636, 952, 2242, 1648, -2209, -1639, 3160, -1039, 2668, -1807, -1712, 278, 1584, 578, -1069, 2762, -3570, -1800, -194, -2042, -205, -2424, 918, 746, -632, 911, 1428, 2400, -692, -1927, 1192, 1076, -3595, -1335, 511, 578, 442, 1678, -2566, -1916, -3621, -1730, -2457, 2547, 2325, -271, -560, 753, 1991, -2204, 1943, 3172, 697, 1007, 798, -751, 852, -308, 3083, 1007, -172
-1873, 2413, 2464, -908, -876, -506, 386, -1441, 1393, 1637, 3557, 221, 1735, -2373, -2022, 2590, -406, -2811, 2309, 2621, 2939, 1643, 609, -1021, -1103, -693, 478, 1379, -2453, 274, 761, 402, 1352, 3001, 2216, -1156, -393, 1029, -549, 1015, -192, 569, -2013, -1059, 1889, -3394, 2288, -507, 988, 1522, 484, 2171, 911, 1471, -756, 2001, -2384, 251, 1411, -1576, -918, -1271, -3802, -969, 1633, 1625, 2931, -2170, 1526, -852, 506, -1365, 4463, -2434, -1167, -289, 3116, 493, 2665, 962, -2492, -2511, -1103, -90, -2304, 2148, -1211, 3976, 138, 662, 420, -641, 2063, 379, 268, -2886, -2510, 4309, 478, 556, -1342, 1134, -365, 2968, 704, -1502, -722, 2338, 2435, 2419, -146, 2347, 1700, 4560, -2784, 60, 891, 980, 86, -659, 2508, 736, 2145, 2069, 2931, -832, -895, -1924, 933, 3187, -2061, 1099, -1756, -1327, -4098, 424, -1375, -704, -2155, 1429, -2335, -2541, -563, -1556, -2646, 2099, 2149, 2909, -2867, -1807, 253, 1259, 2209, -1740, -809, 3133, -2592, -311, -670, 1699, 2366, -1682, -4133, 1376, -357, 962, 3116, -173, 863, -750, 995, 2398, -538, 1853, 660, 2257, 1704, 1057, -850, -320, -1616, 1278, 1484, 218, 616, 0, -635, 791, 1994, -1193, 2524, 379, 3411, 2059, -2464, -620, 3883, 2238, -845, 2797, 1321, -404, -2646, 1935, -2495, 577, 1415, -1339, 2770, -2247, -1559, 312, -35, -668, -758, -1558, 2189, 1961, 712, 2218, -258, 920, 3855, 2021, -2268, 1195, -1159, -2104, 1302, -2764, -1147, -2488, -780, 726, -2937, -3168, -1460, -3039, -2413, 523, 668, 522, -1061, -1695, 1949, -2108, 413, 2072, 2944, 4054, -3552, 559, -1737, -1377, -2282, 337, 123, -3369, -1811, -2511, -1281, -803, 1138, 1471, 1752, 1715, -388, 1474, 2448, -1241, 985, -1958, 835, 2406, -1338, -2285, 626, 2018, -1200, -3180, -1923, 2438, 309, 999, 1262, -310, 312, 17, 3326, -2168, -264, -2410, 1733, 2364, -3157, 3150, -1286, -2430, 490, -263, -636, -1517, 629, -2996, 1772, -1193, -449, -2644, -1738, 1659, 741, 1049, 4370, -1438, 1293, 869, -1846, 133, -1698, 2515, -577, 1823, 858, -244, 3450, -634, 4803, -771, 513, -495, -694, -2109, 3314, 2226, 291, 1276, 3526, 249, -717, -2865, -1099, -2445, 3781, 2250, -2311, -2165, -1075, -248, -1717, -287, 870, 3721, 712, 2875, -1744, 1804, -1608, 2570, -713, -2121, -2042, 4734, 645, -1629, -2260, -2569, -1236, -1730, 2682, -3065, -111, 1584, 1327, -1655, 384, 1089, 273, -3495, 914, -2266, 640, -1809, 2675, 396, 1032, -2022, 2202, 95, -379, 1351, -1667, -838, -1149, 301, -1943, -3779, 1176, -298, -980, -1866, 1230, -2653, -474, -2219, -3046, 434, 1857, 1137, 316, -3577, -2038, -2581, 1070, 2936, -2045, 3444, 1602, 107, 2671, -2782, 1135, -1209, -1283, 2733, 1434, -1942, -2575, 1807, 550, 740, -1464, 2148, 1184, 2452, 3403, 2147, 2877, -2878, -636, -533, -1342, -906, -1938, -2363, 1975, -3136, 140, 1865, 610, 2360, -1226, -184, -119, 1493, 101, 170, 1950, 3026, -489, -821, -396, 1384, -2825, -603, 356, 508, -348, -11, 3901, -4401, 1941, -4222, 2722, 2653, 1550, 3866, -1925, -792, -2098, -3209, -1410, 1757, -754, -3504, 3164, -2595, 4348, -2787, 3532, -2481, -741, -189, 2670, 574, 1089, -1038, 2785, -2338, 2441, -610, -741, -3862, -131, 287, 748, 3804, 2223, 1940, -1440, -4123, -1210, 1668
-397, -2674, 2632, 2875, 2502, -2823, 2618, -2083, 1897, -1435, 285, -742, -1474, 588, -2603, 851, -2739, 556, -850, -858, -2341, 2411, 2451, 1634, 2737, -1465, -3, -656, -2018, -1962, 73, 1681, -1203, 649, -1663, -1572, -2396, 1617, 1548, -944, 1055, 1147, -2822, -2354, -397, 376, -883, -2117, -479, 104, -1382, -1378, 63, 239, -1873, 1358, 729, 182, 1492, 1060, -459, 1349, -1373, 1595, 1871, 2846, 55, -1443, 477, -1410, -726, -1860, -1552, -128, 1563, 1576, -429, -2350, 2863, -125, 158, 2062, -1513, 1994, 2752, 1755, 2145, -2510, -1494, 2191, -756, 24, -1360, 2915, -862, 2339, -2279, 857, 248, 1147, -2300, -2240, 2100, 1303, 1140, -1516, -2534, -795, -177, 536, 2242, 2619, -488, -2538, -1213, 1884, 712, 1502, -995, 461, 851, 308, -2651, 917, -882, -616, 1522, -2310, 413, 196, 2503, 1931, -2193, 2184, 2286, -274, -164, -1142, -1514, 1428, -2161, -332, -2564, -2772, -672, -731, 2263, -1455, 1128, 1412, 1932, -2458, -1651, -1639, 1743, 989, -734, 2506, -2251, -404, 2295, -578, -2183, 2170, -2442, -498, -1763, 213, -798, 864, -1987, -562, 1461, 2791, 1015, 2259, -1885, -209, 682, 1520, 402, -2058, -240, -1623, 1031, -2182, -897, -2756, 1183, 2558, 2780, -255, -1428, -976, -909, -2539, -1146, -341, -1933, -1104, 32, 446, -2063, -1472, 1611, -596, -2208, 776, 2708, -2092, 2721, 1329, 342, -447, -862, -2794, 282, 2181, 987, 355, 2622, -313, 2424, -2452, 1916, 2775, -330, 262, -146, 686, -2088, -1913, 543, 1301, -1691, 1756, -2350, -2232, -2062, -1973, -1421, 2561, 1302, -2611, -562, 2903, 130, 2372, -1527, 1630, -383, -2084, 1637, 596, -2198, -1460, 380, 2472, -2024, 1973, 618, 2246, 410, -1005, 2817, -1608, 2209, 2547, -661, 26, 1206, -260, -2729, 1726, 1803, 2758, -2273, 1704, -233, -499, 1257, -2333, -1557, 747, -469, 60, -2734, -592, -1288, 948, -2126, -270, 797, -1149, -2903, 2003, -2167, -1358, 575, -2081, -8, 2428, -1481, -524, -2089, -1451, -2761, 2830, -1742, -578, -769, -2744, -1764, 912, 1275, -449, -2470, -2216, -2882, 1726, -2491, -997, 2977, -82, -1576, 2492, 397, -1637, 498, 751, -47, 201, 228, 2140, -914, -1348, -2163, 1448, 1861, 765, -350, -2151, -1105, -837, 746, -1443, -692, -435, 1817, 2345, -2228, -972, 9, 1064, -1981, 20, 249, -380, -2069, 1874, 1924, -2610, -571, 1288, 1882, 2487, -1301, 2280, -1450, 1984, 2643, -321, -2014, 663, 2816, 1951, 2326, -572, -1517, 1391, -1136, 2932, 573, 407, -266, 2904, 2026, -2367, -756, 927, 2219, -2042, 2851, -1222, -2479, 2628, -2539, 1391, -759, -460, -891, -1372, -676, 1906, 1224, -1672, 1854, 273, -1897, -443, -2303, -2513, 1019, -1280, -957, -411, -2415, 921, -2859, 191, 750, -1174, 1716, -2256, 549, -2325, 2639, 308, -2602, -448, -1219, -1815, 1769, -1501, 1904, 2121, 39, 1582, -2182, -980, 2456, -687, 908, -389, -1091, 616, 128, 320, 213, 915, -804, -2560, 356, -1520, 2174, -855, 1643, 2662, -2180, 1590, -2529, 541, 2265, 81, -2465, -226, 69, -1049, 2973, -2916, -571, -2177, 1177, 1131, -2499, -1983, -925, 1368, 2445, -854, 1598, 2419, -321, -526, 978, 410, 2587, -1468, 1635, -2863, 259, 690, 999, -1526, 1570, -455, -99, -59, 1137, 1988, 506, -1947, 498, 1313, 1791, 2820, 714, -1926, 917, 1980, -1895, 1557
-1814, 5499, 756, 1553, 330, 1705, 933, 1416, -2802, 3164, 643, -1982, 666, -2225, 2165, 5488, -4, -3313, -2922, 198, -1699, -2730, 346, 924, 3703, -835, -2419, -406, 2693, -607, -500, 2036, 1432, 2887, 1881, 3121, -2450, -2774, 823, 2289, 2568, 364, -420, 2848, -2306, -905, 155, -2413, 1105, -411, 2492, 632, 2981, -2291, -3016, 1795, -1432, -4319, 753, -4, 2321, -4198, -2631, -102, -2362, 3257, 733, 1107, 2214, 116, -1170, -1576, 540, 2011, 2042, 1764, 4065, 1694, 742, 1804, 1948, -2559, 2464, -2939, 1673, 497, -3836, -1890, 1337, -2554, -4686, 56, -901, -398, 139, -1536, -2269, -1416, 1395, 1936, -3572, 1577, -2528, -1261, -794, -1043, 1443, 1961, -2770, 2751, -2306, -1927, -256, 1750, -1176, -2049, -2694, -2843, 332, -1667, -1043, -1127, -451, 2012, -1081, 2685, 1339, 1730, 904, 2611, -1314, 1289, -1341, -5040, 4734, 1456, -1275, -978, 1172, 729, -60, 2333, -879, 2663, 835, 2364, -2303, 4414, 1584, 1536, -1586, -1555, 3199, 1381, -1809, -2197, 1404, 3401, 2280, 6159, -1510, -1195, 2886, -2150, 888, 1565, -256, -955, -4647, -1572, -556, 1182, -2059, -189, -4511, -3207, -1392, -1965, 696, 2077, 746, -821, -2396, -4280, -1457, 3263, -1045, -1046, -877, 1009, -1181, 279, -1606, -507, 4239, 18, 1897, -959, -1420, 2490, 1425, 3375, -522, 268, -68, 1194, -196, 2773, 2481, -1403, 2635, 3263, 3334, 792, -372, -2015, -93, 1610, -3094, 1123, 2155, 141, -1769, -237, 1767, 1815, -231, 579, -3180, 532, -296, -347, -970, -1742, -123, -855, -3238, 310, -2332, 1340, 2758, 873, 2118, -2020, 3154, 105, 1844, 3467, 2913, -1999, -2052, 544, -3705, 928, 3070, 1864, 21, 3422, 1089, 11, 505, 52, -86, -599, -1413, 581, 1672, -3563, -1830, -119, 338, -2543, 70, 717, 23, -1777, 302, -3699, 1369, 86, 882, -963, -1288, 3161, -1709, -2080, -771, 1076, -973, 2785, -1195, 1425, 255, -2733, -2392, -728, 72, -1729, 2668, -1754, 4849, 2141, 1152, 2259, 1801, -1064, -3366, -841, -3051, 3417, 1940, -403, -36, -2163, -2777, -463, 1545, -338, 8, -2710, -583, 511, -1764, -600, 273, 742, 4019, -1545, 2396, 338, -4217, -1605, -851, 1169, 785, 3025, -1703, 3558, 946, 490, 4, -5079, -941, 3961, -2126, 2735, 1294, 1847, 601, 1241, -1826, -34, 3939, -432, -3420, -1882, 1542, -1481, 668, -938, 93, -2786, 403, 2442, 1731, -468, -2263, -2591, -1150, 1805, -1829, 1151, 5208, -104, 808, 2540, 1553, 28, 3146, -3331, -1408, 2870, -1344, 365, -2465, 3756, 1466, -3026, 3007, 1679, 1428, 1889, 1659, 1132, -505, 1928, -1347, 554, 1105, -3270, 1522, 319, 4903, -3783, 2187, -1885, -496, 3852, 5446, 760, 1714, -1899, 634, -925, 819, 2396, 4109, -462, -3726, -413, 2291, -1164, 3117, -2288, 738, -230, 822, 3374, 2055, -1462, 2023, 1234, 3133, -3132, -4537, -505, 377, -3735, 1630, 1095, 1904, 1004, -1967, -3580, -302, 4466, 1493, 2478, -2874, -1850, 2056, -3550, 409, 270, 5778, -551, -1387, 2586, 683, 2221, 881, -3905, 603, 1996, -1785, -9, 1724, -1791, -1894, -233, -650, -3766, -2117, 3579, 493, 1074, -1760, -2191, -553, -203, 2570, 1135, 512, -1444, -2668, 1256, -1530, -365, -2699, 2153, -2643, 786, -2833, 1103, -599, -3321, 863, 275, -696, 1044, 2231, 2321, -896, -160, 2485, -2090, -2439, 3557, 647, 1149, 2773, 371
-923, 105, 727, 455, 1801, 990, 840, 2236, 3586, 2491, -1713, 2412, -525, -214, -3063, -1957, 870, 2392, 1893, 3478, 3156, 417, 386, -261, 2462, 3699, -991, -755, -1886, 2402, 705, -1885, 1326, -290, 2436, 112, 1037, 2530, 1130, -731, -1036, 783, 3258, -1240, 2121, -1672, -51, 1782, 1350, 3341, 790, -2209, 196, 1148, 1938, -2328, 1722, 2528, 2057, 1137, -1104, 3986, -1442, -663, -2097, -327, -2255, -3603, 1576, 179, -37, -2378, -1208, -1548, 2775, 3753, -2576, -288, 2148, -1402, -1117, -856, 156, -893, 2764, 104, 2357, -1958, 4067, -523, 3278, 1374, -1723, -170, 1445, -1082, 947, -3489, -1874, -2080, -217, -145, -1994, 2210, 288, 2886, 1559, -2189, -216, 2208, -832, -3344, 2287, -1377, -1737, 2270, 4033, 1327, -559, -455, -3412, 1499, 1720, -307, 2322, -1031, -1305, 2770, -3090, 1684, 2645, 2208, 147, -97, -1681, 1109, 987, -1652, -1986, 469, -1642, -2672, -1313, -1952, -706, -328, 579, -866, -967, 91, 2604, -2247, 1531, -333, 3121, -1614, -798, 790, -93, -1255, 2381, 3129, -2728, 120, -871, -632, 3142, 1394, 1574, -268, 2222, -1228, 362, -473, 2195, -1884, -1504, 3815, 2501, 1964, 1066, 542, -2222, -975, 209, -3079, 1893, -1980, 803, -2684, 2459, -1088, 2332, 4247, 2528, 3113, -904, 172, 416, -666, -2090, -191, -1463, 1406, 979, 791, -1272, 585, 2902, -1578, -2884, -2221, 1899, -857, 1072, -1190, 2740, 251, -3371, -2368, -2856, 1887, -1543, -1773, 1382, -2071, 2961, -900, -1934, -1058, -2230, 2123, 373, 1504, -273, 928, -2497, 703, -1279, 1763, 362, 2145, -1208, 955, -1325, -236, -698, -1836, 1504, 69, -2577, 1253, -805, -2027, -76, 1969, 4, -847, -586, 1191, -368, -332, 533, -657, 3243, 2124, 2351, 1849, -845, 3009, -1066, 971, -1689, -1552, 286, 668, 1219, -315, -336, 2876, 121, -328, -2881, 1510, 947, -1280, 2248, 1694, 2530, 1835, -1955, 2438, 759, 341, 1406, 489, 193, -3159, -553, 3918, 2473, 1020, 232, 709, -295, -199, 2385, 3187, -1016, 1945, -965, 2353, 258, 1341, -130, -304, -635, 535, -748, -1766, 1723, 1259, 3122, 1762, 1356, 2243, 2791, -3421, 849, -2382, 164, -2372, 2687, 778, -2254, 1932, 1227, 3438, 2038, 427, 394, 399, -1627, -2662, 569, 2707, -1253, -2360, 599, -2372, 2570, 2162, -3109, 413, -818, -837, 2427, 1200, -318, 1577, 660, 616, 1558, -487, 1469, -2071, 3065, -1880, -1847, -2001, 220, -1697, -1641, -1233, 91, 861, 1105, -1216, -1236, -2430, -738, -862, -603, 4752, -622, 563, -1079, -3035, -2501, 1827, -1222, 3490, 3041, -12, 1973, -2408, -837, 2723, -1472, 374, 2099, 749, -80, -702, 3137, -1230, -1069, -1184, -3007, -405, -3402, -2021, 87, 4001, 239, -2646, -2395, 2136, 1042, -2275, -38, -908, 2150, -1286, 2062, -1246, -2173, -2958, -2758, 3615, -1089, 1076, 289, -1657, 4431, 1813, 3207, 2786, 503, 2836, 312, -496, -3005, 1014, 1882, -2772, 352, 472, 821, 1232, 2925, -270, 1987, -2967, 394, -233, 1446, -572, 922, 1630, -197, 1102, -1145, 4122, 1187, 2207, -259, -1016, 2437, -1675, 637, 1854, 1989, 188, 1299, -614, 2575, -3113, 3011, 850, 1324, 1112, 2252, 3249, -783, 2292, 2567, -413, -1772, 416, 1272, 854, -2650, -44, -86, 2392, -748, -757, 1007, -1211, -443, 1961, 1822, -709, 2071, 3172, 2900, 1609, 1182, -2800, 2780, -2059
1821, 571, 1777, 1083, 2867, 2168, -276, -2759, -3894, 533, 2247, -1249, -1289, -213, 126, 4016, 17, -334, -1038, -2148, -537, 2666, -611, -279, 3379, -841, -718, 1325, -1535, 1953, 2416, -1864, -1213, -2656, -1010, -2657, 1012, -1238, -2712, -1985, -334, 3683, -2170, -1665, 1194, -2421, 1181, -3303, -644, -2075, 457, -1307, 1830, -2070, -1292, -1015, -857, -2083, -1543, 3073, -1848, -2839, 317, 2961, 2555, -1476, -908, 3021, -3060, 94, -422, 544, -366, -565, 2545, -658, 1777, -2578, -798, 2672, -590, 986, -211, 581, -2152, 1548, -1308, 129, -1451, -2275, 7, -3035, 1375, -2486, 1683, 2719, 1118, -637, 687, 3353, 222, 2456, -778, 441, -21, 1219, -1264, 3426, -1014, 420, 1831, -1901, 970, -2094, 3765, 91, -4270, 973, 317, 242, -1953, 974, -485, -1874, 2025, -231, -3045, -1354, -1056, 373, -258, -270, 829, 964, 2113, 547, 698, 2185, 2937, -237, 1997, 577, -863, -702, 247, 2036, -2507, 2652, 97, 2256, 1765, 1156, -1210, -639, 2695, -681, 733, -135, -1116, 1626, -443, -3665, 853, 2260, -2811, 2402, -1788, -3036, 967, 2553, 1374, 1385, -925, -1603, 1866, -1288, 1144, -3508, -2246, 90, 20, -1460, 847, -3800, -2588, 1398, -4143, -875, -1922, -1140, -1286, -2011, 2880, -1342, 4261, -456, 2793, -2069, 428, -2181, 2322, 929, -1916, -1980, 1934, 1582, -405, -1656, 1899, 632, -290, -301, 1762, 2156, -1647, -928, 420, 494, 2044, 1458, 3297, 1039, -1567, 2985, 2241, 1402, 2222, 1423, 476, -1839, -1704, -307, 2376, 945, -1353, 1585, 1098, 1320, 1766, 1504, 1553, 2089, -2554, -651, 848, -627, -976, 633, 2062, -1613, -779, -2695, 2119, 2876, 838, -1911, -529, -994, 2343, 2724, 2417, 1153, -1532, 1155, -3502, 2236, 3832, -2449, 822, 950, 2760, -162, 2000, -996, -1536, -2275, 700, 1826, 847, 2452, -1449, -3468, 703, 2865, 1680, 721, -3393, -278, -1223, 2118, 2080, 2518, 1977, 2887, -1773, 2312, 1671, -764, 2639, -2162, 2242, 2469, -428, -1525, 2550, -53, -3240, -1755, -1396, -1758, 1957, -3092, -463, -1721, 197, 583, -2161, -425, 900, -1585, -446, -1754, -2365, -3471, 140, 158, 1873, 1532, -1357, -490, -557, -2562, -1851, 5, -646, 582, -2168, 200, 1798, -2006, 3196, 136, 353, -1549, 892, 1446, -1664, 3082, 3262, 451, -2621, 2474, 799, 465, -3527, 2302, 157, 744, 117, 648, -1670, 2858, -1259, 666, 2432, -403, 1256, -1530, 1782, 3156, -2541, -1450, 353, -356, 854, -1978, 898, 1587, -815, 3554, -1969, 3803, 1494, 255, -795, -89, 2929, 1126, 849, -337, 2345, 1905, 1746, -71, 663, -276, 2508, 1839, -207, -1346, 916, 35, 2915, 105, -1230, 4315, -1799, 4171, 1855, 1070, 3359, 3592, -4, 467, 919, -1095, -400, 2105, -3321, 3558, 2354, 361, 721, 567, -1214, 3105, 1188, -232, 2785, -432, -1954, 1325, 2790, -1993, -3844, -2309, -301, -2386, -1549, 2370, 17, 962, 2429, 1558, -2814, 3142, -492, 3482, -337, -1443, 2236, -868, -3099, -2430, 4458, 1660, -1405, 3998, -2447, 3266, -567, 1088, 481, 1870, -1312, -2571, -1917, -1657, -3720, -801, -267, 2122, -1468, 1150, 2823, -2851, -1300, 2686, 1782, -369, 167, 1514, 2794, -3960, -2621, -2282, 849, -2906, -1707, 608, -710, -2325, 2769, -3096, 2211, -2302, 3078, -1477, -698, -1182, -2986, -1363, -2418, 320, 2186, -1468, -1281, -1085, 1538, 267, -2038, -440
-2215, 2138, 1414, -1106, -912, -3263, 1005, 2267, -561, -2261, -968, -77, -651, 1814, -89, 653, 3152, 2727, -1218, -76, -371, -1713, 452, 1444, -156, 1933, -1710, -1877, -718, 1496, 3163, 1786, -2798, -1602, 1791, -1958, -1815, 336, 2253, 1594, -965, 2435, -833, -1427, -2147, 331, -1096, 444, -787, 1672, -330, 2794, 927, 2298, 489, -3245, 274, 2106, -720, 314, 402, -2539, 1960, -2814, -4016, -2927, -3329, 2013, -2091, 1618, 595, 738, 3044, 648, 5, -1987, -656, 2452, -2148, -1593, -4174, -2081, -1579, 100, -1208, -2937, 2895, 2585, 2046, 9, 3987, -1365, -59, -2898, -1819, 1932, -1837, -16, 65, 1182, -842, 3424, -2391, 801, 968, 680, -964, 1654, -850, -3029, 690, 28, 346, -2586, 3673, 2102, 1734, 2381, -1234, -927, -2169, -38, -1560, 1034, -1280, 966, 2710, 1270, 1642, 1501, -2912, 1249, -412, -704, -1809, 3254, 133, -805, -1693, 2968, -1031, -1019, 2870, -990, 1961, -2528, 1555, 2343, 762, 2252, -1267, 2414, 906, -2356, 357, 3073, 1062, 538, -601, -1606, 428, 489, -2501, -66, 602, 3681, -2436, 2532, 2434, 908, 2524, 1710, -2358, -237, -453, -1188, 1880, 1043, -767, -2019, -983, 3048, 2681, 201, -614, -562, -1605, -1905, 2214, -1371, -1229, 2676, -2109, -1528, 1376, 3155, -582, 959, 1037, -604, -2128, 4294, 1978, -2145, -3211, -2548, -2154, -1815, 2328, 1561, 352, -975, -1676, 3087, -2021, 1060, 1579, -1471, -1490, -3250, 991, -603, 1993, 2007, 1112, -988, 1022, 2617, 2118, 863, -1336, -868, 2070, -2011, 2855, 538, 3108, 838, -851, 500, 2164, 2400, 828, -992, -1116, -2020, 1729, 1402, -94, -1922, -276, -1002, 2084, 2092, -1928, 162, -822, -1009, 2508, 2792, 1533, 364, -2898, -511, 2931, 2535, 2981, 3495, -483, -1986, 488, -1925, 1446, 46, 2561, -1492, -438, 2656, -1147, -2191, -1083, 394, -101, 446, -3484, 179, 100, 534, 2147, -2089, -533, 2467, 2210, 1271, 2492, -339, -2869, 1721, 1839, 2682, 2160, -2819, 1614, -2692, 2497, -1460, 2245, 2475, -3040, 2308, -160, 2952, -1152, -1893, 865, 1565, -695, -2283, -605, -250, -30, -2558, 3317, -39, 3519, -195, 514, -740, -695, 1675, 1245, 586, -3039, 157, -616, -2225, 2298, -200, -1535, -2192, -1781, -2338, 1612, -864, 961, 1066, -210, -342, -1448, 626, -451, 2255, -2003, -2349, 578, 2044, 3150, 1590, 2262, 1721, -1323, 2635, 2647, 1011, 515, 1104, -3138, -436, 3233, 1854, 169, -2034, 69, 915, 793, 461, 1720, 173, -94, -1215, -12, -2194, 170, -2621, 792, -3445, 738, -2047, 1331, -742, -1348, 3161, -1505, -2557, -2853, 1112, -1019, -2642, 1184, -1271, -315, -1979, -2534, 2844, 1464, -1599, -974, 157, 1109, -1860, -2096, 2525, 2569, -2364, -1491, -2426, 2511, -2225, 867, -1306, -3231, -1597, -396, -736, 1297, 886, -1668, 1921, 134, 1093, -2138, -444, -710, 1561, 1429, -1525, -374, -2391, 1423, 10, 1826, -2733, 1324, 3706, -415, -884, 1286, -911, -1665, -2893, -874, 4234, 2511, -2547, -44, 1212, 1941, 1641, -2671, -1070, -177, 2776, 290, -1466, 1492, -1665, 1975, 2569, -2866, -254, -780, -955, -834, 1546, -1017, 2454, -2699, 2955, 624, -2216, -1258, 134, 939, 2516, 1327, 1073, -813, -1306, -2248, -2242, 1229, -350, -2869, -1320, -1126, 2344, 2274, 1166, -691, 2243, 2322, 2136, 491, 1124, 2876, 1473, 420, -595, 1781, 2805, 656, 2046
-142, -2718, -617, -1612, 291, 2499, -1488, -284, 3016, 875, -2916, 655, 3080, 603, -640, -2608, 1958, 1984, -2285, 330, 2815, -673, 2364, 1054, -1158, 627, 1602, 898, 2344, -2810, -151, -1936, 1319, 1984, 531, -496, 1602, -662, 1229, -256, -297, 1590, -1882, -566, 352, -527, -2900, 2933, -812, -1631, -588, -2006, 949, -1409, 2464, 347, 1557, 2637, -1571, -1562, -2213, 1721, 1581, 210, -1947, -2158, 2652, -1348, -795, -504, 521, 436, -1192, -171, 1111, -3045, 25, 1078, -1235, 340, -3172, 105, 738, -2327, 1389, -235, -1245, 2043, 1523, -1125, 3309, 2642, -2353, 1112, 1670, 189, -3091, 2478, -1314, 725, -596, 3079, -1296, -167, 2602, 450, -727, 1552, 1607, -33, 2181, -2522, 210, -2304, -2115, 1556, 3093, -451, -356, -1497, 1597, 1058, -516, -1358, -1851, 825, 2462, -2193, 1618, 1215, 2716, -162, 1461, 1896, 1397, 2237, 793, 2847, 1390, -1295, -1124, 1662, -1104, -874, 1454, -214, 1217, -2943, 612, 479, -2343, -1017, -2298, -1364, 1630, 961, 591, 267, -3472, -2314, -2196, 2980, -80, 180, 831, 115, -2610, 1252, 153, 2466, -293, 1395, -2245, 567, 670, 2036, -1249, 325, -493, 3306, 1385, 3224, -630, -2011, 821, -1755, 730, -453, -1991, 1503, -940, 294, -3497, 1449, -3276, -1327, 1771, 571, -604, -2142, 984, 228, 1725, -264, 1018, -3118, -1451, -821, -1546, -1572, -679, -125, -1167, 732, -961, -1090, 1447, -834, -1835, 436, 1003, 2317, -414, 450, -954, 2761, 134, -811, 318, -2646, 1714, 981, -1300, 1627, -2226, 1172, -1275, -2207, 975, 1249, 863, 2616, -3005, -165, -2079, -1796, 3638, -1292, -2484, -775, 57, 736, -372, 777, -2268, -1917, -472, -1430, 1017, 48, 1462, 596, 1751, -2077, 2159, 1312, 2284, -959, 1414, 1447, 2232, 232, 1178, 2805, -2432, 175, 655, 431, -162, -1013, 1306, 2826, 1181, -719, 1548, 1477, -118, -1895, -1236, -1006, -2747, 135, 1721, -361, 582, 2485, -2132, 404, 1219, 382, 1789, -231, -2485, 1810, 2553, 1751, 4014, 1963, 521, -1372, 2147, -1174, 2591, -167, -1246, 2681, -1004, -1563, 2224, 2402, -1377, 3254, -1934, -383, 3420, 2651, 895, 1161, -512, -1017, 1739, -1433, -372, -555, -2793, -374, -1533, 1361, 1232, -369, -103, 1493, -1116, -3022, 2418, -1802, 2594, -1895, -3134, -2116, 1982, -1961, 718, -292, 1424, 2487, -2959, 506, -742, -1230, -2690, -1787, -261, 1374, 559, -2464, 2366, 2559, 1614, -1466, -2639, -56, 222, 2710, 60, -1233, 629, 755, -952, -2804, -2480, 1162, -1247, 3247, -1449, -550, -2643, -1982, -1233, 2780, -625, 343, 1023, -940, -2801, -210, -661, -27, 2483, -2772, 131, 421, -1091, 1253, -1432, -2118, 1129, -1534, 1622, -2021, 244, 505, -1290, 579, -2214, 1892, -1972, 1236, 1146, -371, 1946, -1899, -1234, 2641, 2324, 1336, 177, 777, -2508, -1488, -59, 2923, 1664, 82, 1452, 2952, 2282, -346, 473, -1975, 968, 719, 1581, -586, 1799, 2254, 271, -2040, 1868, 218, 772, 1545, 1478, -1213, -1232, 2565, 2097, -2186, -694, 1048, 1949, 2521, -994, 3191, 2063, -610, -1970, -1962, -591, -1492, -376, 3011, 794, -1478, 448, -1179, 1097, -1672, 2191, 3215, 1253, -738, 784, 470, 109, -259, -1730, -2184, 1984, -1480, 2155, 2977, -470, -1123, -13, -330, 307, 177, -1959, 1851, 3085, 2974, -1162, -69, 1844, 1441, 1711, 318, -748, -1841, -1208, -1861
-2113, -2535, 2196, -24, 888, 1817, 57, -1470, 4, -1911, -2520, 2866, 1513, 3930, -1301, -3322, -1308, -1950, 208, 2840, -1923, 460, 1945, -1467, -1717, -2024, 2238, 1762, 2114, -2898, 65, 264, 205, -4303, 2556, -2203, -364, -989, -659, -1968, -2504, 501, 222, -224, -1565, -1961, -177, -1817, 2436, 2222, 923, 1311, 1342, 326, -2088, -303, 2023, 392, 1107, -355, 479, -2505, 3535, 1577, -428, -1058, 1267, -641, -1520, -474, 1762, -2703, 2391, 2534, -2468, -1316, 241, 1568, -3478, 1986, 1656, 517, -285, 2341, -1891, -295, -1314, -98, -232, 1550, 3184, 2771, 71, -2108, -2160, -118, 1876, -1242, -664, 2728, 3821, -335, 1537, -1699, 1431, 2518, -2781, 2418, -2201, -1062, -339, 1414, 2366, 824, 2317, 2037, 2635, 1055, -3596, -2253, -117, -1139, 2321, 135, -951, 1462, -2166, -2523, -701, 1624, 1468, 1768, 2789, 547, -823, 1030, -1152, 2889, -1582, 324, 2251, 1208, -3037, 1065, 34, 1216, -1540, 15, 548, -999, -104, -1607, 691, 1899, -2179, 1053, 3258, 169, 418, -2302, 2955, 898, 2471, 2160, -1266, -3339, 1775, -1310, -799, 41, 1526, -4400, 1720, -3848, 3460, -2850, 848, 2180, 2540, -89, 2601, -2622, -739, -341, -126, 1205, 1604, 1270, -2231, -2711, 2012, 1079, -2075, 1919, -1144, 1319, -551, -53, -2971, -914, -1534, 4788, 2876, 2574, 2626, 1477, 1366, -1915, -598, 2000, 1209, -469, 1263, 1483, 1262, -2676, 1685, 276, 2237, -2288, -210, -2786, -1445, -98, 1271, 1768, 1717, 972, -453, 2655, 518, 55, 58, 2364, -722, -1103, -306, -2004, -1140, -886, 418, -1914, -2616, 3243, -328, 2532, -1946, -681, 1701, 2309, 3685, 355, 2054, 3384, -2874, 1332, 1535, 2009, 125, 3232, 457, -1899, -1945, 275, 1769, -1619, 1960, -823, 136, -608, 140, -2059, -921, 2589, 1381, 882, -2562, -1825, 611, -2826, -549, 3108, 16, 2545, -3409, 1095, 757, 1324, 2046, -715, 1554, -1517, -697, 1744, -444, 3273, 1009, 3442, -33, 993, 1584, -270, 1337, 1062, -548, 1483, -1496, -859, 1572, 45, 233, 1363, -31, -929, -1654, 3634, 2861, 2823, 2655, 2084, 1307, -1620, 497, -1621, 295, -1420, 824, 916, 2537, 245, -1908, -498, -48, 1519, 2641, 3204, 971, 681, -796, -2287, -61, 2117, -2632, -1945, 1819, 1457, 1573, 1385, -3068, -3551, -1231, -1460, -354, 1030, 504, -1120, 3006, -1420, 1040, 971, 2756, -1322, -1191, 2575, 632, 1324, 2943, -635, -2139, 3285, -125, -2161, 2073, -1690, -454, 1690, 1231, -2514, 418, 1685, -1886, 362, 2499, -2375, -1821, -2666, -1460, 2739, 2086, 62, -2452, -2389, -288, 326, 2450, 2118, 1200, -1328, 1212, -999, 1378, 91, -3002, 1623, 1347, -1972, -2107, -3342, 2732, 1950, -1692, 172, 2317, 1093, 1099, 2572, 618, -2998, 2690, -2184, -1490, 2421, -1568, -1150, -704, 2746, 494, -1426, 856, -1430, 2024, 3298, 510, 1817, 893, -2823, 414, 2668, -3657, -3288, -727, -544, 2228, -162, -979, -2312, 1264, -2407, -1659, -2235, -1576, -3090, -792, -798, 1644, 1465, 1679, -446, 1407, 2063, 2896, -2395, 3408, -2639, -2749, 1618, -289, 1147, 735, -1042, 955, -2120, -2359, -3662, 1643, 1829, 2522, -151, 1512, -1822, -952, 1560, -1767, -2231, 1764, -2106, 772, -1112, 3485, 722, -7, 788, -563, -4181, -3042, 1075, -3, 1467, 2123, -954, 192, -903, 2192, 1093, 2976, 1002, -2630, -1158, -383, -854, 776, 6
-114, 835, 1377, -7, -2332, -2197, 2599, 613, -692, -2372, 2410, 530, 1034, -2809, 1518, -330, -1577, 1923, 1371, -332, 2869, -842, 594, -496, 3689, 2132, -1687, -303, 2955, 1591, -1348, -3072, 2629, 1741, 896, 369, 4, 2671, -606, -103, -183, -1382, -180, -863, -1553, 704, 1113, -2880, -1838, -781, 1529, 2851, -283, 3374, -1879, 1047, 1512, -664, 3268, -324, -119, -1201, -2262, 1293, 126, 2312, 2203, -2218, -648, -723, -2282, -2074, 1325, 168, -2395, -175, 3174, -1493, 2800, -951, -712, -1529, 1854, -2167, -2679, -51, -978, 491, 2867, 188, 2311, -1570, 2050, 2036, 1579, -1167, -1680, 2224, -796, -2190, -422, 2799, -1613, -2344, -930, 3197, 2810, -381, -1749, 2777, 197, -1932, 2683, 3499, 2927, -1699, 1922, -2307, -400, -2577, -2936, -456, -862, -1674, -939, 3029, 852, -2283, 2243, -1574, -691, -1938, -1368, -136, 3492, -820, 3097, -3142, 3437, 186, -2137, 2879, -1624, 3135, 2500, 1506, -86, -2125, 2044, -1108, 2587, -1596, 1177, -2176, -1465, 1975, -1314, -1694, 2554, 2241, 1015, -437, 1553, -467, -508, 502, 1632, 1081, -1148, -3203, -693, 796, 1545, 3684, 810, 689, -2827, 518, -1542, 2907, -2705, 2371, 1126, -285, -1338, 369, 449, 1023, 1841, 1611, 308, 2040, -1925, 2122, -376, 2385, -2536, -2576, -2339, 600, -1139, 464, -1330, 2240, 476, -3193, -178, 1837, -609, -1020, -252, -979, -759, -3320, 2559, 1784, -887, 3298, -3111, -794, -2000, 822, 3154, 2862, 3230, -453, 1720, 1559, -892, -2106, -2380, -479, 905, -1342, 930, 796, 1983, -192, -1172, 1208, -2055, 1354, -1770, -2557, 3767, 1228, 1104, 1187, 788, 1559, 250, 1705, -3411, -1210, 1194, 2490, -422, 1130, 2256, 1717, -2446, 1423, -1617, -1289, 2131, 1138, 20, -1504, 3214, 2240, 939, 590, -388, 3182, 2194, -2495, -92, -2490, -1390, 2472, 1221, -2300, -2420, -2295, -754, -3159, -401, 1118, 51, 3863, -1515, -58, -1377, -700, -2050, -2248, 60, -3112, 678, 1574, 2967, -994, 3056, 981, -2083, -2301, -1084, 2600, -1470, 1451, 1536, -349, -635, -1641, 1407, -935, -2355, -1091, 982, -2794, -1040, 2041, 1499, -973, -639, -1585, 2538, 1919, 3026, -3474, 2412, 1735, -2356, -316, 1168, 1794, -170, 1133, -390, -2394, -1084, -3529, 2052, 3402, -2320, -1636, 230, 1630, 2942, -1480, 2868, 1479, 2860, -2160, 992, -2738, 1062, 1069, -1407, -367, -2488, -165, 667, 94, -315, -2553, -2185, -757, -3425, -1061, 3620, 1361, 1416, -1578, 2304, 4662, -3529, -1181, 1874, 355, -1498, 521, 174, 1932, 1974, 698, 2124, -1082, 2853, 1796, 2729, 2560, -1521, -2860, 1926, 86, -2280, -1882, 1862, 1683, -1895, -2711, 2114, -1500, 2400, -2637, -105, 4664, 2594, -746, 2376, -261, 2598, -1092, 4091, 1431, 1487, -1175, 698, -1430, 2415, -1992, 282, -1559, 2449, 1916, -674, 2488, -2459, 2226, -1710, -2725, 3212, 4018, 110, 807, 564, 409, -1789, 3527, -2473, -728, 912, -2928, 1904, 608, 40, 4193, -2491, 1599, 3752, -831, -110, 1223, 2842, 2547, -2664, -1369, -1019, -1316, 989, -1037, 729, 635, -2411, -815, 3168, 2759, 853, -580, -228, -1398, 889, -208, 1735, 1499, -3180, -395, 361, 2684, 2868, 2823, 900, -2671, -1965, 1090, 3377, 2254, -3683, -899, 1698, 2693, 1713, 149, 2004, -2708, 329, -848, -2021, 188, 2179, -9, -653, -387, 367, 3263, -1669, -369, 683, 2164, 2382, -115
-2161, -51, -1110, 1696, -896, -1157, -107, 330, -1901, -2876, -635, 77, 1974, 2633, 871, 2452, 3695, 3509, 760, 911, -1989, 1204, 2679, 2088, -101, 1238, 1997, 2535, 1693, -633, -125, 3275, 1759, 2211, 35, 100, 2783, 4051, -2342, 287, 1997, -1245, 2327, -793, 1180, 1376, 554, -2765, 2531, 1457, 668, -1846, -1920, -160, 1672, 3350, 86, 1711, -1096, 688, -1971, 1751, 408, -1684, 3728, 2314, -1661, 249, -2096, -1745, -2419, 1285, -638, 2172, -740, -1072, -181, 2187, -1254, -69, 190, 429, -2206, 249, 860, -95, 1505, -1471, -1117, 1991, 719, 1157, -1293, 2330, 514, -3049, 522, -2383, -459, -185, 579, -487, -794, -1179, 1156, -1110, 2239, 713, -1120, -1470, 1881, -1050, 1382, 2824, -3620, 1330, -101, 1424, -2036, 630, -2401, -2649, 497, -1745, -831, 1477, -2863, -1137, 2943, -1240, 3214, -2878, 2584, -1009, 2246, -1167, -387, 304, 2291, -1211, -1877, 31, 495, 807, -1578, 2985, 50, -2139, -1853, -1753, 274, -638, 471, 1985, 2637, -425, 551, 664, 1253, 431, -803, -608, 2400, -704, -2689, 1782, 481, -1758, -213, 846, 1142, 435, -1036, -2656, -1813, -1620, -544, 913, 1520, 522, -1082, 1670, 1496, 193, -102, -2566, 747, 983, 1089, -693, 1845, -2150, -3114, 1488, -713, 167, -1191, 1285, 75, -2086, 119, 1259, -1007, 987, -843, 969, 1591, -3087, 3065, -3149, -151, 10, 3082, -1394, 1750, -532, -253, 1091, -2307, 1749, -2377, 1436, 1227, -2007, 2019, -1609, 2104, 1064, -508, -1275, 332, -820, -1901, 2372, -2675, -3397, 1220, -150, -1304, -39, -1927, 2288, -2623, -1154, -90, -1373, 2246, 2169, -757, 2712, 2771, -1825, 979, 942, 3135, -2240, 438, -2727, -185, 1085, -2517, -2184, -1352, -2321, 2789, 772, 517, -1908, -1598, -1394, 390, 2681, -662, 2182, -202, 789, 393, -2874, -230, 1201, 661, -6, -1968, 1054, 2254, 2522, 867, -2094, -156, 2801, 2310, 1123, -480, -2886, -1683, -675, 715, -1127, 469, 328, 1659, 3916, 1216, 854, 680, 2491, 1459, 508, 1721, -2294, -237, 2109, 734, 2200, 509, 3739, 317, 2988, 2401, 2873, -1643, -1282, 856, 1653, -2460, 2188, 311, -458, 1344, 1102, 2990, -2252, -1946, -700, -558, 100, -163, -1575, -1748, 1150, -1743, -1576, -2235, -3299, -37, 3468, -1828, -1162, -1710, -2634, -283, 1162, -2346, 2796, 2332, 850, 1473, -645, -2473, -1647, -458, -946, -646, -2397, -2642, -1450, 3083, 28, -3035, 317, 1636, -2461, -126, 4319, -1930, -1853, 600, 1212, 1589, -1776, -1880, -484, 2773, -1542, -569, -2222, -3046, 234, 1161, -904, 1446, 2879, 1127, 1217, 1841, 719, 1601, 728, 2389, -1450, -1224, -979, -3856, 432, 1961, -2719, 1423, -2113, 2927, 816, 950, -65, 2078, -994, -802, -569, -574, 1210, -685, -1632, -1536, -842, 1317, 793, -1532, -1478, 2385, -3213, 187, -1557, -2813, -2260, -2486, 2293, 8, 2895, 1415, -1155, 48, 2525, -147, 1397, -1878, 844, 2986, -115, 280, -456, -225, -1828, 1018, -1083, -191, -1861, 286, -1623, -1281, -2951, 1207, -1001, 250, -16, 3343, -1049, -2783, -405, 1315, 2107, 3113, 1315, -2329, 3204, 2413, 219, 88, -1451, -281, 2452, 2822, 2589, 2456, -2543, -1825, -1411, -1499, -1522, -163, -2109, 324, 1531, 1115, 2431, 2324, 669, 1004, -1471, 1883, 1075, -769, 623, 1190, 1203, -2842, -191, -2053, -2289, 2168, -2347, 1658, 1183, 3105, -203
-3290, -3133, 532, 723, -291, 1075, -665, 2464, 2479, 1444, -3405, -3200, 419, -1599, 1695, -2349, 165, -1593, 309, 1781, 413, 516, -1488, -1944, 212, 253, 1042, -926, -1304, 1399, -1930, 2020, -409, 1332, -547, -372, -2918, 721, 1899, 2112, 3342, -780, 1730, 1974, -1042, 353, -1489, 1494, 1473, -596, 74, 1533, 2164, -670, -2096, 516, -352, -1717, -2472, 3743, -2679, 2742, -1753, 906, 978, 1680, 2382, -1482, -1805, -1408, 959, -632, 873, 317, -174, 727, -2110, -1088, 3476, 553, -804, 2459, -1636, -1065, -1855, -1433, -972, -2056, -1141, 156, -1849, -1629, -1688, -760, 1142, -3106, 1822, -246, 2543, 1247, -54, -389, -470, -1786, 2027, 1881, -1846, -2755, -297, -2529, -462, 2621, -2046, 1323, -2107, -3110, -138, -2273, 1735, 3279, 581, -1051, 1340, 715, 653, 3122, 1570, 135, -2029, -2221, 2044, -2739, 861, 2126, 2410, -2775, 3269, -2441, 2873, -916, 2153, -2413, 990, -1347, 3143, -2917, 1186, 311, 2335, 438, 1604, -1344, 2447, -2356, -1443, 3041, -2020, 381, 227, 2545, 80, 2229, 2500, 1450, -214, 605, 373, -199, -3181, -2322, 1932, 1240, 1771, -1058, -2322, -429, -212, 101, 3528, -833, -2018, 1741, -2696, 2291, 3300, 2060, -700, -1542, 1048, 3358, -2213, 72, -263, 2991, -259, -1319, 971, -1522, 1606, 2621, -543, -618, -1045, 662, 954, -1871, 1984, -1460, 337, -1615, -1577, 1716, -2229, -3130, 1302, 429, -592, -2213, -2444, -1985, -770, -1183, -297, -68, 3773, 560, 1948, -687, -1671, 2199, 1491, 2940, -575, 200, 1261, -589, -1691, -1833, -1369, 1245, 3375, 2976, 2689, 1134, 1479, 1203, 2240, -181, -3528, 837, -2753, -521, -1431, -2561, -58, 2230, -620, -258, 2324, 233, 2718, 830, 2515, 141, 1830, 2665, -86, 1748, -1730, 2139, -1278, -921, -2850, 2563, 767, -776, 1383, -621, 1600, -1179, 3021, -2132, -1046, 2481, -2233, -1752, 793, -139, -736, -134, -872, 4556, 836, 146, -1708, 1006, 1165, -2235, 926, -169, 2269, 1918, 1148, -2292, -2453, -1012, -1229, 2265, 2479, 2895, -1337, 2185, -1545, 54, -3923, 2605, -2224, -861, 1672, -1949, -1222, 2864, -169, -207, 462, 2557, 1491, -107, -267, 1266, 3904, 2887, -2889, -846, -245, 836, 2881, -2403, -3488, 2125, 2852, -278, 2106, 151, 688, -792, 2781, -1955, 1680, 1800, -1584, 2681, 660, -1466, 2388, 499, 7, 1297, -2827, -1441, 1765, -1063, 858, -200, -1000, 2285, 3292, 236, -3005, -2400, 3340, 1151, -1030, -8, 762, 948, 371, -2350, -1053, 1660, -3095, -31, 1899, 1115, -543, -1241, -596, -786, -1762, 696, 2225, -286, 515, 2241, 961, 516, 645, 2634, 906, -625, 1559, 2100, -2752, 1565, 4021, -921, 1252, 2215, 1976, 1978, 2871, -677, 1582, -2723, 2484, -1138, 803, -1693, -16, 3039, 1701, -3173, 2814, -906, 3064, 537, -2511, 973, -2639, 357, -806, -3088, -1457, 420, -2149, -749, 1656, -2022, 520, 2260, -1833, 731, 30, -1644, 1963, 44, -1485, 3494, -709, -894, 3959, 1825, 2173, 315, -2385, -760, -1657, 1670, 2574, 2672, 3297, 314, 1943, -395, 2609, -905, 3510, 947, -1520, 2889, -1146, 1511, 217, -1432, -2115, -3408, 365, 394, 842, 2955, 2913, 25, -1542, -1761, 2254, -662, -228, -2275, -487, -2078, -491, 3032, -2546, -1069, -2029, -3653, 55, 276, -3096, 102, -3072, -710, 2056, 1988, 2505, -285, 2406, 1360, -166, 3082, -1346, -935
-1537, -1039, 1068, -111, 2526, 1737, 1303, -1633, -1307, 756, 67, -1345, 159, 1453, -446, 2370, 1004, 468, -102, -880, 1767, -287, 407, 1414, 430, 478, -880, -276, -2585, -1905, 929, -827, 1962, -1154, -412, 2493, 2030, -1857, -2523, -75, -2864, -82, -1892, -2697, -1966, -709, -2819, 256, 1180, 1385, 303, -2453, -343, 155, 333, 748, 3, -83, 1242, 1081, -150, 1945, 2505, -1463, -1540, 933, 2767, 1040, 497, 325, -1680, -855, 49, 1308, -1967, 2780, 1335, 2133, -1711, 2109, 1456, -2129, 1223, 113, 277, -595, -1696, -2429, -2424, -2625, 2472, 542, -1866, 1947, 1934, -1910, 2676, 847, 2438, 564, -431, -2433, -1025, -210, -1807, -158, 76, 916, -1004, -911, -2823, 1459, 2353, -1156, -1421, 190, 1516, -1881, -1372, 850, -64, 367, 2675, -2709, -990, -1856, -1002, 41, -715, 285, 949, 1632, -409, -2576, -1168, 140, 2384, -1589, -2567, -1946, -497, -327, -1204, -778, -2422, 1075, -102, 569, 2049, -689, -2260, -921, 326, 93, 1345, -1272, 109, -1865, 2421, -1097, 2611, -2605, -2101, 1559, 816, -1741, -2462, 1888, -2338, -1833, -202, 757, -473, 2856, -1384, 1025, 1225, 2582, -236, 2418, -1546, 1674, 532, -1628, -50, 2737, -1148, 2301, 971, -2348, -2696, -2293, 443, 1596, -735, -376, -2428, 365, -781, 1010, -2327, -373, -2861, -1858, -250, -2079, 1767, 99, -113, 2000, -2603, 659, -1831, 1131, -1575, 617, 959, 228, -1839, 2783, 1200, -1655, -95, -1792, 287, 1458, 2728, -2428, -2320, -2291, 1147, 2598, 122, 136, -1693, -884, 1717, -2718, 24, 806, -450, 1333, 2472, 1788, 2192, -805, -2380, 2392, 2182, -2304, -2142, -516, -2789, -801, -493, 1920, 1070, 339, -21, 38, 1263, 247, -1792, 812, 384, 2272, -663, -2158, 127, 2573, 2599, -406, -1941, 2528, -1778, -348, -868, 1916, -1231, 1899, -2259, -1206, -56, 37, -756, -211, -1726, -2138, -1420, 314, 2796, 2430, 282, -151, -840, -1487, 1854, 1470, -1480, 979, -523, 1344, -1657, -609, -679, -829, -2608, -1230, -1760, -2118, -2683, 1791, -707, -803, 2886, 2557, -1275, 384, 2679, -2139, 559, 1739, 16, 2414, 495, -1129, 1239, 1322, -2394, -2498, -2677, -61, 2091, -674, -2711, 1454, 732, -717, -2641, -1172, -2387, -2659, -2622, -1376, -771, 1519, -1655, -485, 928, -2615, -1779, 487, 2121, -2757, -1851, -1051, -497, 886, 1721, 2432, -2411, -560, -1814, 1093, -670, -2587, -143, -1435, -271, 598, 1006, -394, -2172, 2689, 2275, 866, 2545, 2511, -1176, -2123, -2664, -2831, 637, 317, 420, -1126, -443, -1348, 1635, -42, -1050, -429, -2823, 2594, -1174, -2117, 1704, 1847, 2709, 1771, 2341, -49, 1195, -2201, -2843, 1249, -1128, -2502, 1968, -110, -2863, 1398, -1408, 961, -924, -2727, -536, 2197, 166, 261, -2226, 35, 2036, 784, 606, 1242, 1176, 1963, -876, 1401, 250, -50, 1725, 2060, -2362, 2179, 576, 1359, 1207, -724, 2259, 1617, -138, 1935, 1197, 210, 2305, 2481, -2583, -255, 1148, 1379, 1065, -311, -2352, -2633, 1406, -1592, 358, -2776, 1938, 2345, 1105, 515, 1004, -2565, 1803, -640, 713, -959, 603, 1952, 1587, -2475, 2182, -1720, -1568, -207, 2351, 986, -1880, 2896, -2227, 882, 906, -1535, -106, 457, -2151, 1320, 2041, -1726, 321, -516, 1313, -2866, 2794, -2887, 838, -450, -2813, 970, -1268, 2278, -850, -1416, 2530, 232, -1845, -2574, 2565, 1177
-834, -1858, -1272, -741, -730, 1378, -4089, 351, 4589, -3521, 1495, 147, 3503, -3336, 2922, -3914, 2602, 890, 1261, -1037, 1296, 6, 1940, 948, -1736, 5112, 686, 1995, 3249, -3507, -1210, 2227, 3315, 6720, -487, 82, 1522, -366, 3850, -1309, 2859, -3406, -1704, -2105, -1692, -1000, -603, 739, 971, 3143, -1493, 796, -2118, 2203, -1197, 4208, -3267, 1515, 1619, -579, -568, -862, -4319, -1386, -2317, 4231, 1477, -5353, 1555, -582, 2567, -2282, 1853, -1134, -809, -1860, 2926, 1140, 6170, 608, 3569, 2061, -2160, 1044, 2335, 2318, -3193, 1390, 3995, 3537, 3740, 1245, 308, 2248, 2855, -2874, 2464, 1548, 216, 2408, -4854, -414, 265, -3246, 2365, -418, 230, -1908, 915, -485, -1914, -1288, 1496, 1011, -1201, 1902, 2606, 2713, 1925, -1469, 285, -400, -2041, -1819, -1603, 2152, 3224, 335, -2021, -1418, 702, 159, 1633, 625, -2487, -176, 2374, 234, 1458, -3320, -2061, -305, -47, 1381, 490, -2679, -926, -3816, -1105, -2437, -1664, 352, 2581, 1459, -241, 820, 1013, -1671, -2694, 1744, -1246, 1754, -429, -384, 961, 2616, -2276, -828, -1139, -270, 1634, 224, 1704, 2075, 466, -686, 426, 2998, 203, 550, 629, 1222, 2915, 2403, -436, -65, 4714, 524, -2257, 1675, -293, 1146, -1188, 3753, -1542, 2310, 1898, 2894, -3028, 2921, -1157, -5271, -1500, -1618, 2543, -3370, -1353, -1162, 1581, 1227, 923, -1536, -404, 337, 2346, -257, 1466, -2694, 1893, -1264, -437, -2639, 429, 2230, -2138, -392, 841, -1398, 3649, 1938, -123, 391, 1749, 1005, -1873, -1141, -469, -3445, 2624, 971, 3194, 1148, 1360, 1434, -1962, 2162, 3846, 2182, -2120, 3887, -719, 92, 774, -2389, 1578, -1539, 166, -3597, -1371, 27, -1497, -2444, -457, -1627, 2100, -2307, -3141, -1876, 124, -680, -1985, 266, -844, 3105, 1555, -2397, -2613, -484, 1774, -226, -1435, 1354, -1922, 2615, -1622, 1930, 69, 2934, 2196, 2489, -1059, -1453, -1449, 163, -221, 2121, -1677, 1166, -493, 2384, -3632, -1617, 202, 1254, -825, 564, 1459, 3076, -875, -1418, 2445, 2974, 2747, 3577, 632, 2352, -1746, 344, -2627, 1051, 364, 1119, -982, 2251, 1667, 782, 4040, 2732, 2770, 2228, 2131, 297, 738, 1071, -1327, 2386, 2981, 2887, 354, 440, -3527, 1916, 4017, 1572, 3235, -1988, 1725, 2200, 1852, -3066, -953, 5914, 362, 3945, 4858, 1944, 1447, 52, -2589, 2824, 1222, -1134, -1776, -1615, -427, -1624, 323, -2226, 853, -2473, -1441, -2427, 2061, 2305, -3275, 1206, -2767, 686, 125, 171, -3252, -863, 41, 3652, -3142, 924, 147, -2089, -178, -550, 1395, -2702, 3287, -2090, -1262, 436, 3615, -603, -243, -84, 1993, -215, 291, 689, 3509, -1779, 3538, -726, 2059, -979, 2218, 1606, -818, 2198, -3270, -1266, 1017, -286, -1622, -888, -1412, 813, -628, -650, 827, -1534, 508, -671, -4026, 3339, -3627, -440, -705, 2557, 4438, 3080, -1727, -4741, 2628, -496, -2708, 2030, -1721, -321, 2721, -1957, 3536, 1017, 1525, -1828, -1687, 2376, -508, -1807, 806, -603, 1549, -2501, -2364, -939, 3770, -3231, 1187, 1623, 1149, -121, 201, -1617, 3603, -3620, -3026, -398, 2163, -749, -4364, 2099, 1768, -814, -1715, -769, -364, 625, 1110, -402, 3442, -1444, -2839, 1377, 2324, -2059, 1634, -1407, -1354, 3920, 1804, 787, -3348, 2743, 1151, -2127, -609, -3292, 353, -542, -1475, 1758, 2073, 486, -369, -384, 1572, -182
-2304, -263, -1685, 688, 1571, -797, 1021, 1851, 485, 427, -1676, -586, 1694, 2444, 2371, 1484, -1757, 2814, 603, -341, 812, 3273, 1176, -2237, 968, 879, -1112, -2713, 3018, -1991, 1673, 186, 276, 1738, 1401, -1773, -2160, 3476, 1558, 296, -203, 1235, 729, -2701, -3377, 1229, -712, -1103, 315, 1009, 1738, 1098, 963, 1992, -2007, -1431, 550, 151, 1436, 3402, -539, 1460, 1664, 2373, 594, -1605, 381, -2219, 1091, 2340, -2158, 2012, -369, 1842, 1981, 297, -2175, 1648, -46, 1602, 2109, -2611, 221, -1448, 2811, 609, -1225, -989, -1247, -1698, -1732, 2794, -1725, 3088, 1893, -3079, 1274, -2920, 2269, 1553, 1238, 1912, -636, 2310, 2252, 2454, 973, -1889, 2351, 422, -2081, -706, 192, -2629, -3345, 371, 718, 2391, 563, -1001, 2121, 261, 1856, -32, -302, 699, 1510, 2106, 2242, -134, -893, 59, -308, -1734, -214, -258, 2200, 2780, 1212, 1851, 830, -1213, 330, 181, -1643, -1883, -1594, -592, 636, 1162, -408, -2964, 2332, -222, -2693, 2645, 1011, -2227, 2844, 1758, 1255, 1955, -1097, -789, -2747, -1351, -1802, -1805, 328, -968, -1573, -2627, -1283, 847, 2467, -1364, -800, 404, 607, -913, -1112, -661, -1683, -672, -2502, 928, -53, 995, 1515, -1363, 2221, 1307, 525, -2272, 1889, -1903, -672, 2886, 1115, 261, 235, -1335, -796, 2151, 3124, 1475, 303, -1200, 2428, -2577, -2478, 1264, 1537, -834, -2244, -728, 2137, -2361, 1938, 2984, -1197, 1735, 2084, -2109, -2614, 2028, 324, 551, 990, 739, -2570, -3372, 1091, -1156, -2666, 1552, -49, 1060, 975, 1143, -1880, 795, -2311, 2941, -1771, 2079, 1068, 568, -3198, -282, 283, -1471, -1073, -2400, 553, -542, 2300, -2283, -2767, 1509, -1215, 295, -1808, 2068, -1087, -548, 830, 984, -1499, -1167, -1743, -1551, -2804, 1956, 240, -1503, -1001, -1730, -99, -648, -837, 1423, 335, 212, -2411, -611, -2498, -259, -1763, 1342, -602, -2643, -1193, 589, -1357, 347, -562, 1425, 1738, 1135, 1527, 2673, 169, -990, 921, -672, 217, 2172, -1515, -2158, -2162, -2033, -869, -1845, -2124, 800, -378, -389, 1467, -562, 212, 1531, 1056, -1010, -1779, -2541, 316, 1508, 920, 336, 2180, 209, -2303, -2471, 2599, -1171, 2727, -2144, 394, 537, 543, 359, 474, 1680, 629, 2093, -726, -2932, -2184, 2798, -2809, 883, 1178, 1175, 441, -2037, 392, 2422, -1558, 1248, 2134, 596, 3304, -1867, -3015, 2281, -2309, 111, -1441, -722, 2070, 2586, -2950, 129, 2642, -1755, -1877, 2092, -279, -34, -1597, -255, -2231, 570, 808, -57, -1149, -894, 977, 998, 1934, -1852, -2426, 678, -773, -736, -2255, -1841, 2112, -1133, 2366, -2154, 42, 1578, -1556, 1876, 423, -239, -2116, -1668, 431, 1872, -2426, 945, 1849, 2022, 59, 2027, -1562, 1106, -2261, 375, 1245, 2573, 226, 2681, -1132, 1123, 164, 2469, -2258, -1786, -2526, 1381, 2942, 2429, -1487, 949, 2178, -153, 1076, 25, -2018, 73, -1877, 2908, -91, -1963, 1319, 1275, 652, -1807, -1060, -1854, -1820, -363, 2934, -456, 506, -1084, 2483, 1644, -400, 834, 5, 1163, -878, 1247, 1598, 827, -175, -1879, 1378, -437, -2278, -1950, -1143, 1214, 2369, 2024, -1607, -2574, -12, -1629, 456, -2082, -2633, 1428, -182, 2342, 1291, 2263, 2634, -1517, -2500, 891, 249, -480, -3, 2604, 1271, 2490, 475, 1068, -1423, -342, 1194, 906, 614, -529, 2336, 1160
1793, -2771, -2681, 2636, 973, -2681, -670, 1420, -1487, -1018, -2512, 1903, -1133, 2307, -2601, 2656, -608, -1837, 137, -1130, -2450, 481, 766, 2587, 224, 1722, -2705, -254, -2083, 2269, -2429, -525, 835, 660, 672, -63, 1120, 672, 2076, 1771, -2035, -129, -2847, 2410, -1537, 902, -1822, -686, -1354, 1971, 48, -8, -2483, -2027, -2902, 56, -2010, -767, 1218, -595, -769, 1656, -1418, -1179, 2566, 1517, -1600, -78, -330, 58, 1434, 95, -1447, 149, -157, 2727, 1013, 2201, 199, -1817, 2078, -1993, -806, 1372, -2380, 680, -496, -1849, -796, -417, -965, -2366, 632, -2670, 1232, 2741, -888, 2681, -2521, -2913, 2614, -359, 221, 1441, 2005, 2497, 1819, 1215, 536, 850, -1274, 2659, -2870, 791, 1326, -730, 1068, 31, -1905, 941, 611, 1579, -1351, 680, -2856, 1166, -1316, 2306, -1853, -504, 832, -1298, -1481, -1532, 187, -599, -2349, -607, 2116, -2311, -577, 2028, 1189, -2847, -270, -201, -352, -1100, -189, 696, -1884, 1109, 1556, 2421, 324, -993, 50, -2288, -2904, 2718, 1565, 1594, 458, 1803, 50, -185, 1139, 2264, 1299, 350, -2430, -2618, -2482, 2670, 1262, 1699, -2312, -1180, -2823, -1016, 425, 1304, 1118, -2231, 10, -82, -664, -477, 2492, 2152, -2921, -2859, -455, 2324, -1734, -2439, -1961, 995, -1695, -594, 848, -24, -2007, -169, -644, -2098, 1260, -748, -895, -2570, -1732, -2763, -376, 1256, -2136, -1437, -291, -1122, 290, -2520, 2132, 2818, -1452, 1334, -416, 63, 1425, -857, 37, 2758, -1715, 683, 2421, 1876, -2554, 125, -642, -2917, -1545, 927, -55, -2470, 1989, 497, -837, -800, 297, -997, -457, 806, -2818, 993, -18, -1315, 1296, 282, -2321, -643, -1250, -29, -2574, 1403, 2383, -2592, -154, 2123, 100, -2186, 1555, 2000, -2169, -1192, -2871, 723, -212, 241, -1572, -2697, 1462, 573, 1344, -1771, 10, -1651, -2170, -2773, -305, 881, 1031, 882, 442, -700, -2172, -2496, -108, 2640, -434, 1144, 549, -2083, -1545, 1464, 2510, -1472, 64, 84, 499, -1346, 1150, 1052, 425, -77, -1902, 1767, -2301, -945, -2301, -2089, 1343, -1164, 1429, -573, 2254, -449, 1925, 1998, -2386, 2079, 1451, 1100, -2761, -337, -2817, 201, 2588, 1139, -2250, -689, -1519, -2794, 485, 871, 2011, 179, -1584, -19, 2795, -790, 1480, 1667, -2657, -2460, -2400, 2273, 1160, -935, -226, 1250, -2311, 1263, -1919, -1586, -1959, -2677, -417, 1866, 333, 388, 2739, 1312, 627, -428, -1346, 2507, -2176, -2826, 1741, -1724, -712, -1593, -1843, -383, -2789, 2166, -1380, -391, 1064, -2317, 235, 1512, -2064, -470, 680, -1935, -2522, 2021, -2831, 815, -300, -1883, 1486, 2283, 1333, 560, -156, 41, 79, -42, -2663, -2506, 2810, -2561, -615, 2428, -2045, 2071, 701, 1679, -980, -1630, -1029, 2132, 1941, 2020, 1951, -1619, 580, 2777, 117, -2757, -2617, 1043, -1212, 2700, -2455, 1779, -2455, 884, 1908, 1242, 854, 1383, -1280, -1858, -773, 2213, -198, 2128, 1832, -905, 1746, 142, 1411, -703, 1295, 2510, -1886, 2506, -1241, -2635, 2489, 1291, 214, -1881, -537, -2276, -1351, -330, -2502, 996, 899, 2008, 2848, -1423, -587, 2669, -1042, 399, 650, -416, -1997, 2710, 1840, 1248, -2822, 684, 351, -2302, -467, 210, 206, 266, -942, -2232, -1725, 545, 552, 1984, 800, 639, -111, -1315, -2902, -1187, 427, -1532, -668, 733, -638, -485, 2657, -1826
-2702, 2992, 224, -1738, -1201, -2955, 575, -630, 466, -530, 2381, -1003, -1717, -1477, -2550, 489, 2172, 204, 1901, -2678, 1545, -1824, 2126, 102, -624, 1710, 839, 2044, -2492, -2093, 2052, 1881, -1687, 1142, -401, -1534, -1777, -839, -1516, -367, 2386, 1350, 293, 1332, -2326, 2337, -2244, -2281, -347, -1399, 602, -588, -1626, -1824, -2028, -2336, -1947, -2224, -2709, 291, 476, 1946, 2640, 2166, -2728, 1667, 1761, -1440, -728, -2654, -1327, 1202, -1944, 948, -1679, -363, 809, 2183, -2624, -1524, -450, -168, -117, -434, 0, -2268, 1253, 95, -1031, -1576, -88, 1674, -931, 2086, 466, 2103, 896, -1294, -981, -1521, 734, -12, 624, -815, 2168, -2345, 878, 2986, -332, 1200, 2818, -931, -886, 2945, 2810, -1596, 2118, -2664, 2486, -494, -2834, -2421, 473, 2011, -1, -670, 1192, -2686, 2337, -575, -1131, 1472, -2401, -2473, 1823, -1789, -442, -2734, -878, 958, 2186, -2468, 898, -1936, -2128, -68, -2075, 1112, -305, -915, -2220, 2698, -1334, 768, -1723, 1329, -2576, 616, 158, 1327, 2440, -63, 3099, 2409, 1369, -2442, 2190, 1705, 2539, -559, -1223, 2241, 212, -1956, -426, -2193, -1494, 1512, 134, 2188, -136, 2966, -1794, -1622, -2224, -2783, 1672, -1979, 1686, -2121, 1488, -2194, 2578, -1671, -2284, 268, -2371, 936, -2070, 2003, 1685, 3009, 2749, -280, -1422, 95, 461, -1256, 2886, 1195, 13, -1781, -2045, -1502, -145, 351, 2687, 1396, -2772, -978, -269, 1044, 2570, 3003, 870, 639, 62, 2577, -1655, 1145, -819, 1996, 2577, -2041, -2095, -569, -49, -925, -443, -2278, 2632, -1264, 2614, -870, 2021, 1249, -1046, 1558, -2003, 827, 33, -1876, -2162, 2215, -196, 517, 509, 2948, 1642, 480, -1715, -1568, 434, -2086, -2332, -941, -937, -52, 2158, -2133, -1531, -2679, -204, 428, 2081, 2685, -183, -2845, -2347, -2090, -2539, -1001, 1181, -1310, 520, -2920, -1270, 1320, -1455, 902, 2259, -2629, -2604, 2619, 1756, -821, -458, 2528, -1664, -179, -1450, 699, -1896, 1406, 2460, 62, -175, -1776, 2004, 2244, 1766, 2232, -2536, -2062, 691, -2769, -1376, 2266, -357, 1024, -2389, -1964, 1049, 1707, -1296, -2052, 1836, -1368, 440, -545, 892, 2654, 2594, 1682, -2465, -1923, -778, 1963, -1781, 715, -912, 2767, 2832, -2587, -832, -24, -6, 3068, 437, 2446, 2083, -2266, -1939, -1961, -759, 2450, 147, 426, -387, -2193, -968, 2374, 2689, 624, 2697, 525, -2463, -2500, 403, 1191, 241, 523, 1258, 548, -434, -1522, -1946, -2651, -971, -2849, 988, 972, -141, 981, -823, -2598, 2445, -822, -1941, 2710, 2353, -2342, -333, -2521, -479, -673, 460, 1913, 2485, -1694, -1316, -444, -2115, 1361, 2754, 2503, -2724, 2572, 2350, 2773, -1468, -513, -2374, -1179, -37, 2204, -1160, 2062, 2351, -198, -862, 2590, 418, 1195, -2654, 611, 2470, 1998, -36, 2282, -323, 1875, 1033, -1470, -527, 2190, -2457, -1630, -10, 2871, 2016, -347, -2636, -2732, -745, 2555, -1936, 1964, -155, -253, -2446, -2326, 544, -2180, -852, -2684, -2652, -2082, -2229, -306, 739, -1171, -2823, -735, 1551, 733, 163, -1814, -715, 210, 2726, 2140, -1323, 1908, -2547, -1916, -26, 1516, 613, 1441, -2786, 1093, 1676, 556, 880, -1544, 800, -2763, 2252, -1102, -464, 2061, 2432, 2451, 1990, 2891, -19, 1792, -2210, -1110, 1201, 1089, -9, -2182, 497, -114, 2451, -486, -2254, -2332, -2172, -647
-1716, -582, 1824, -1603, 3640, -123, 202, -2268, -1470, 1538, -2335, -96, 2743, 4389, -80, 3768, 184, 3332, -1880, 3048, -1456, 2532, 2025, 903, -1970, 2368, 2320, 673, -1752, 1931, -2789, 3148, 604, -3526, -2568, 929, 1792, -420, 2339, 1509, 2552, -2299, 289, 3850, -859, -1147, 3099, 1933, 336, 780, -348, -1052, -2449, -504, 2217, -1934, 198, -452, -1313, -210, -1992, -1462, 1163, 3689, 1037, -743, 666, 1796, -2254, -368, -144, 605, 1386, -768, 2457, 2155, 2091, -577, -3932, 1238, 781, -2416, 1082, -1599, -2769, -1125, 839, -1398, 1287, 2135, 434, 513, -1374, -1010, 1850, 279, 1213, 460, 334, 888, 2906, -1236, 2818, 475, -501, -2462, 194, -2559, 798, -1044, 2241, -3034, 992, -1471, -785, 2798, -1152, 1490, -1194, 5, -2333, 6, 3016, 1686, -1773, -1047, -44, -923, -2306, 734, 2827, -391, 2988, -1496, -1892, -690, 356, 2390, 538, 9, -2695, -2777, 2624, 2329, 3043, 1455, 1541, 1860, -2095, 3111, -1350, -521, -1951, -1610, -1233, -817, 2235, -393, -2292, 412, 1710, 3283, 1378, -520, -1932, -895, -2196, 1549, 2511, 552, -48, 1473, 1931, 530, -2084, -1675, -631, 1251, -3195, 2620, 2923, 1682, -56, -350, -2776, -1772, -151, 205, -1241, 596, -1404, -594, 2709, 424, 4032, -1294, 478, 2153, 2373, 2237, -2135, 3694, -2455, 150, -1265, -2642, 28, -1536, -1810, -590, 621, 1147, 1212, 614, 20, -81, 820, -2166, 1508, -2516, -1389, -1647, -776, -2505, -1587, 2567, -1623, 2114, -2317, -2895, 176, -452, -1673, 2800, -1707, 2661, 149, -2081, -2165, 1780, -2718, 1572, 1485, -1404, 1793, 2897, -1841, -812, 3120, -2564, 3370, 465, -1071, 60, 193, -670, 1832, 1535, 2839, 2295, -2006, 84, 2110, -1601, -1126, 67, -548, -1432, 1568, 1734, -2453, 2740, 3248, 2034, -1786, 2254, 1902, -1286, 193, -2521, -2332, 3821, -780, -2177, 256, 1390, -2185, -2287, -1336, 751, -1141, 500, -2717, -1678, -1201, 2343, 2546, -496, 735, 1776, -1490, -363, 1230, -3190, -712, 1786, 1761, 1861, 643, 505, 953, 1474, -1926, 197, 166, 2547, 1429, 3832, 1571, 130, 1688, 1086, -1120, 1148, -2891, 294, -3207, 57, -1986, -2040, 1860, -2558, 2816, -930, 2661, 3009, 2111, 517, 2651, -2626, 641, 242, -1620, -519, 629, 929, -954, 2829, 1955, 193, 2479, -2160, 2020, 150, 1222, 1620, 2216, 386, 1603, -2873, 666, -291, -2118, 2546, -1398, 3074, 1166, 2915, -763, -1739, 1046, 805, -1653, 2992, -830, -1181, -1396, 1594, 2069, 1583, 2777, -2733, -1968, 3117, -592, -484, -1005, 267, -396, -646, 1928, 2213, 2691, 2940, 1085, 2862, -503, 897, -2708, 3384, 2812, 1732, -184, 1187, 2386, -475, 1243, -996, 801, -2426, 2738, -1116, 2480, 2335, 2425, -569, -2911, -1959, 1565, -2889, 771, -1778, -2447, -1293, 2317, -75, 2165, 1317, 1066, -1876, 2784, 1674, -1990, -1801, 1915, -227, 1712, 2123, -1128, -2478, 2370, -2561, 2792, 641, 196, -1703, -2362, -977, 2611, 2431, 1971, 1864, -381, 276, 849, 702, -2755, -541, -1438, -1841, 1767, -47, 2361, 1747, -1697, 1902, 1800, 1657, 51, -2053, -1098, -1418, -538, -3226, 3450, -753, -59, 2310, -1527, 2737, 1513, 2923, 3935, 994, 1515, -1662, -1282, 9, -241, 2066, -2557, -538, -2169, 224, -3399, -137, 298, -665, -128, 1877, 1201, 2243, -1723, 1146, -2181, -2822, -266, 2004, -2920, 3339, -1753, 1008
-670, 2943, -798, 1388, -2272, 1292, -294, 2126, -1143, 2416, -267, 1037, 2792, 471, -2529, 839, -1769, 757, -106, -2077, 3598, -1330, 821, 2922, 1594, -1584, -238, 2346, -1939, -2782, 985, -1290, 2676, -1111, 2283, -2674, 2530, 2575, -1930, -1677, 2895, 1244, 1076, 1763, -327, 917, 1877, -772, 20, 1657, 2567, -227, -2106, -91, 678, 1688, -415, -1717, 964, -1546, -2035, 1698, 357, -2685, -2708, 1351, 1676, -1413, 3535, -899, 2230, 1859, 848, -2488, 2009, -1265, 1444, -1249, 1241, -651, -899, 171, -382, 2765, -1341, -1237, 2111, 1779, 3425, -587, -1331, 834, -2009, 871, 941, 1072, -2428, 1642, 533, -107, 2055, -1797, -342, -1816, 1619, -1031, -158, 887, -2722, 336, 635, 433, 3133, 3576, 2485, 914, 663, -2166, -1071, -1357, 2279, 2171, 1784, -177, -3089, 2120, 2495, 973, -1774, 2610, 457, 2739, 107, -1221, 717, -275, -1423, -1748, -2701, 1381, -2422, -2165, 1246, -2747, 2135, -1554, -10, 2461, -276, -2392, -3140, 3132, -894, 1629, -1350, -253, 1733, 1732, 568, -3217, 855, -915, 1601, -913, -1440, 1967, 1587, 2278, -2345, -1157, -2075, -2591, 1406, 2222, -1630, 2081, 2980, -1122, -2225, 1600, -2349, 3118, 2936, -2381, -62, 2001, 3725, -1734, 1026, -922, -2368, -1579, -291, -53, -3678, 1817, 637, -177, -1285, 1398, -2570, 462, -2380, 3287, -1446, -2640, -1289, 1429, -49, 3194, 1556, -2453, 3440, 787, 1369, 1456, 1542, 342, 3895, -1323, -2290, -1967, 1796, -1647, -2290, -2620, -587, 2018, -942, -2596, 1158, -1853, -2524, 2301, -1755, 2395, -106, -2544, 3261, -323, -2513, -1910, 1427, -872, -2131, -2445, 1795, -943, -2252, -1022, 121, 2635, -1118, -2364, 1044, 2524, -2788, -559, -686, 349, -1629, -2885, 257, -618, -1138, -2523, 2218, 180, 902, 1076, 2366, -1836, -600, -403, -1210, 2095, 213, 425, 631, 474, -2070, 1376, -2448, 3153, -69, 2622, -1886, -1227, 2070, -2463, 1662, -1032, 1258, -1867, -281, 3463, 1027, 1690, -1543, 1259, -70, 963, 2880, 1999, -23, 2615, -781, 1127, 2159, 1193, 2169, 2029, -1365, -760, 2933, 2390, 1629, 827, 2671, 1694, -2065, -1557, 2815, 2049, 666, -2283, -1903, -678, -2403, 2191, 991, -857, 2056, -619, -285, 2836, 1169, 1446, 2963, 1161, -1489, -471, 3508, 1279, -932, -368, 2795, 86, -1455, -2615, 2482, 2873, -2994, -2993, 1745, 584, 1993, -2300, -900, 2014, 238, 2142, -1818, -2472, -3553, 478, -2673, 1544, 416, 531, 789, -804, 3103, -648, 289, 443, 2612, 2530, 2298, -3532, 363, -1661, 1821, 3732, 1549, 1424, -1556, -100, -828, -1812, 439, -1605, 250, -1186, -1894, 184, -577, -2823, 1203, 965, 1202, 2958, -1493, -2572, -386, 139, 3343, -2428, -349, -2571, -457, 2797, -1512, 1911, 1354, -576, -226, -859, 3004, -2713, -2927, 80, -2965, 1178, 1348, -2186, 489, -1468, -1796, 2709, -1639, 3989, 304, -1295, 2772, 1132, 945, 1931, 908, -2287, 1535, -627, 46, 1754, 76, 983, -1909, -986, -1252, -768, -1, 2118, 592, 2946, 1652, 855, 2194, 439, 208, -1693, 174, 2484, -1498, -1357, 70, 1208, -1810, -95, 133, -2761, -1198, -3170, -891, -328, 1385, 3377, 691, 674, 2724, -1575, 2423, -3249, 225, -225, -117, -755, -1642, 1414, 3763, -2930, -246, -703, 1363, -1118, -1555, -1498, 646, -365, 303, -782, -1583, 1754, 180, 2017, 2042, -605, 1997, -2626, 1061, 1079, -982, -1608
2874, 3337, -165, 2485, 1650, -562, -488, 2948, -1977, -1210, -780, -196, 544, 3243, -3833, 4015, 4168, -54, 140, -575, 124, -1957, -160, -1796, 2349, 1223, 2708, 873, -2697, 1620, 1163, 373, -1022, -1745, 2349, 836, -2467, -321, -839, -112, 1391, 3570, -1025, 4393, 2733, 3045, -859, -2156, 1555, 40, 2694, 2042, 168, 2688, -649, -2876, -2053, -2186, -3174, -195, -460, 1329, -827, -1858, -3770, -2985, -169, -1046, -3644, -1205, 2385, 3883, 1104, -1040, 1354, 2629, -101, 2007, -1271, 2076, -889, -252, 55, -146, -2434, 1628, 1945, -3493, 4044, 2401, -1867, -842, -2132, 321, 2846, 500, -1882, -1623, 1522, 2182, 15, -1728, -210, 222, 2626, 1880, 2015, 2881, -2234, 1127, 1927, -535, -1471, -3488, 2766, -2932, -240, -318, 2242, -2248, -2166, 1433, 2234, 620, 2543, 750, -1608, -228, -721, -480, -2941, 1310, -1138, 935, 4839, -468, -717, 283, 1772, -271, -2617, 355, 1734, 2669, -2015, 311, -1549, -907, 5081, -40, 186, 3109, -1268, -1058, 2953, -3049, -2692, -3118, 2522, 3200, 2287, -1367, 631, 542, -2449, 2150, -2082, -2415, 126, 2416, 2756, 3146, -404, 528, 1083, 2773, 243, -812, -2021, 836, -1752, -107, 1025, 1744, 2725, 2042, 1242, 876, 2262, 1305, 33, 3604, -297, 2935, 2098, 801, -3174, 1599, 83, -1243, -2834, -1261, -543, -467, 360, -1017, 1537, -1871, 622, 1966, 1441, 2210, -2022, -2556, -844, -2500, 528, -1660, -2132, -1129, -1207, -1925, -1280, -150, -1638, -701, -1299, 1433, -2600, -1311, -870, 1557, 321, 1252, 466, -222, -137, -2205, 1757, 1187, -448, 738, 2421, -606, -1591, -529, 3531, -1669, -1093, -2840, 4130, 204, -3713, -1482, 1981, -180, -420, 466, 3690, 34, 2704, 1841, -3396, 2256, -1596, -2375, -838, 1419, -2530, -1696, -2470, -1856, 3116, -2693, -492, -3329, -2110, -2613, -3370, 1523, -971, -157, -2985, 397, 1325, -2905, 2534, -310, -1493, 2880, -659, -585, 346, 1877, -2982, -1671, 660, -607, 1747, 1786, 650, -3616, 1144, -2666, -751, -3127, -3281, 649, -2015, -1374, -1132, -651, 2301, -1894, 650, -3590, 4070, -2010, 1704, -3148, 1968, -2309, -136, -1348, 1267, 2593, 1067, -611, 792, -1155, -1120, 2550, 1652, -1099, 1861, 3174, -1811, 3558, -4792, -3464, -390, -1158, -263, 4046, -896, 3262, -728, 1824, -1526, -2015, -1850, -1251, -545, -2300, -607, 937, 2356, 1114, -146, -1457, 2845, 1795, -4234, 4072, -1913, -489, -710, 1908, 2411, -694, 3700, -40, 2456, -2276, 606, 4703, -2417, 3907, 1072, -1084, 2621, -1321, -75, 1854, 848, 2035, 1705, -1226, 3184, -2205, -755, -389, 6, -1214, 330, 2793, -2046, 1843, 1233, -1567, -3031, -803, 604, -2389, 1072, 2056, -172, 3403, 2827, -1515, 2278, -172, -2240, 2576, -391, -2548, -753, 1348, -1524, 1750, -604, -851, -357, -2717, -344, 1155, 1760, 1066, -2161, 3570, -2823, -2394, 1704, 451, -3679, -374, 479, -1838, -1880, 2171, 2180, 1238, 228, -2285, 270, -2108, -1231, 3955, 3106, 2646, 2943, 2736, -175, 1483, -1275, -1417, -2842, 2332, -101, 687, -397, 2515, -230, 1607, 670, -1450, -984, -2948, -3733, -382, -3452, 1611, -309, 2596, 4124, 2033, -1376, -709, 2382, 2079, 2554, 1424, -1411, 1053, 1674, 1394, -231, 2799, -3325, -1556, -1841, 2163, -546, 2329, -1555, 3380, 1356, -1397, 2452, -3257, -313, 1287, -2048, 1248, 2441, -3077, 16, -1272, -3648, -171, 1318, 108
-1802, 1579, 2055, 2573, -1708, 455, 2860, 170, -1464, -2214, -2093, 2743, -1084, -2760, 2683, -429, 644, -1216, -363, -2443, -2570, 2020, -2683, 261, -1502, -333, 1044, -2776, -501, 670, 480, 876, -2203, 961, 1516, 2527, -2167, 2387, -2964, -1129, 2745, -2176, -1235, 374, 1596, -2364, 563, -2928, 2375, 1150, 288, 690, -2568, 1410, 532, -581, -842, 1085, -657, -1386, 200, 1265, 1410, 606, 1935, 98, -1813, -54, 658, 2103, -2603, -415, 2777, 2424, -2589, 361, -2225, 1165, -410, 1056, -2798, 2193, 45, 2319, 1481, -867, 1268, 1342, 1999, -2103, -1052, -1154, 392, 1079, 2701, 1447, -1904, 1198, 1392, 1054, -1834, -2782, -1387, -2766, 2044, -2737, -906, -276, 1899, -1501, 954, 1579, -101, 1846, -1807, 1142, -2956, -25, 1079, -737, 1750, -2491, 2862, 915, -2513, 1554, -1799, -2101, 2347, 730, 1001, -1914, 2709, 1076, -13, 2446, -661, -1015, 1585, 654, -1163, 192, -2092, -1760, -2847, -1390, -2228, 1670, 546, -1162, -2541, 544, -410, -2460, -176, 1813, -167, -895, -467, -805, 2463, 1543, 2412, -530, -1074, -2865, -1292, 1881, -122, -976, -2654, 2104, 500, 1223, -649, -1587, 1450, 2022, -2672, 1752, -699, 749, -2804, 627, -354, 522, 2599, 1481, -2312, -2797, -2000, 625, 2076, 131, -1070, -1177, 2333, -2004, 1962, 125, -2470, 2015, 2210, -853, 817, -1443, -621, 1637, -51, -395, -715, -2322, -793, 530, 2465, 1142, -214, -1972, 1033, -1240, -609, -1773, 1075, -1619, 1770, 576, 1553, -1537, 1814, 542, 761, -1652, -763, 2433, 1956, -964, -1140, -937, -41, 2098, 2383, 2450, -2458, 89, 582, -1399, 661, 2196, -393, 699, -2116, 5, -1676, -738, 1673, 1089, 16, -2827, 1533, -779, -2823, -860, -863, -2838, 1695, -551, -2262, 1789, 1168, -1022, 117, 330, 549, 617, -129, -2427, 45, 743, 69, -123, 2147, -1249, 955, -1306, -1686, 1796, -2664, 2614, -2021, -1980, -1938, -1621, 1828, -1184, -2530, -2735, 280, -455, -869, 456, 2319, -2572, -153, -96, -945, -2603, 1348, -2580, -2242, -1327, 402, 1435, -2721, -420, -2825, -1411, -886, 682, -1780, -498, 1605, 1152, -1154, -1359, -2477, 2201, -1507, 318, 1022, -2051, -1273, 461, -1883, -1681, 38, 1342, 2365, -870, 1965, 2031, 19, 1188, 2537, 1638, 592, 313, -1260, 1031, 2105, -789, -564, 1909, 2246, 1957, 2632, 1987, -406, -531, 315, 2007, -324, -2298, 2220, 1655, 1165, 2152, -2831, 988, 2392, 2801, -51, 723, 2268, 1131, 585, 1113, 1476, -2195, -2559, -2768, 468, 428, 1718, -2262, -721, -1989, 191, 1553, -386, 966, 1121, -181, 96, -1702, -939, 1819, 229, -2422, -561, 2269, -1540, 2388, -169, 401, -2342, -2667, 1788, 482, 1341, 625, -1838, -1281, 2831, 2210, -1700, 194, -2557, -2509, -802, -800, -363, -1357, 107, -2978, -111, -1648, -678, -741, 2329, -2294, -1110, 592, -976, 127, -268, 1879, -298, 1068, -1101, -1532, -521, 499, -2683, -251, 2295, 744, 2538, -2032, 388, -2174, 1989, -297, -430, -1423, 929, 2049, -2899, 1662, 1352, 2802, 2032, -1186, 1410, 1151, -225, -1600, -876, -1178, 796, -1506, 1761, -425, 1960, -2507, 2044, -2428, -1761, -1118, 2526, -941, 2437, 425, -2557, -2216, -2278, 1566, -1940, 1579, 614, 2704, -814, 738, 710, -2813, 83, 2650, -2900, -1741, -1115, 762, -2339, 1447, -2565, -1308, -612, -484, 917, -1140, -1021, 1322, 44, -370
553, -2377, -431, -2589, 2867, 127, 1588, 1890, -687, -681, 2425, 1471, -887, 1085, -845, -566, 2221, -162, 2174, -524, 2286, 2523, -1050, -1477, -2815, 2501, 1137, 2823, -2461, -1600, -1981, 1085, -1234, -2707, 558, 173, -83, -2659, 2006, 2263, -2274, 2404, -1837, -557, 164, 2280, 209, -1269, 1110, -67, 1444, 1041, -2764, -1548, 295, 1543, -807, -1634, 2300, -2160, -2434, -2408, 2727, -1607, -32, 364, 153, 845, 2181, 982, -2330, -2486, -1239, 1753, -1702, 473, 550, 2637, 131, -2486, 2670, 1249, -3428, 1096, 1773, -1663, 1532, 2359, -2484, 1375, -582, -30, -1033, 1608, 959, 1762, -897, 1525, -449, -80, 2278, 1018, -2368, -2200, -2138, 2820, -2516, 2454, -849, -921, -1086, -2165, 489, 1880, -2673, -1282, -1250, 2169, 786, -816, 2492, -1055, 954, 923, 28, 2731, -1730, 2972, 434, -2273, -1050, -831, 916, -629, -1447, -709, 2852, 1230, 390, 112, 551, 380, -665, -2026, 3490, 2765, -550, 68, -916, 497, -990, 1553, 2703, 666, 1037, -1805, 1271, 2659, -1474, -276, -690, -1668, 2873, 1528, 134, 767, -2188, -1463, -361, -1719, -967, 232, -2453, 513, -1026, 2480, 1231, 1423, 3299, -1163, 1691, 1127, -2447, 1823, -1149, 2228, -1153, 280, 2018, 941, 1090, 2428, -2097, 706, -1265, 2495, -826, 2758, -2781, -1428, -1559, -2003, -493, 2482, -1056, -1865, -1702, 3410, 1231, -2540, 1792, 737, 1308, 280, -2617, 635, -1117, -1197, 20, -2033, 520, -509, 2228, -1312, -796, 2703, 1506, -304, -278, -1237, -2016, -562, -1563, 2025, -1585, -852, 1716, -472, 1443, 1636, -2434, 112, 2207, -295, -1018, -799, -623, 2607, 2248, -1980, 757, -1150, -1485, -1509, 1526, -1426, -2795, 1921, -2710, -2594, -1204, -1951, -502, -2637, -711, 1072, 2626, 789, -1040, -2237, 1011, -1072, -1966, -2569, 1430, -86, -1486, 949, 386, -1919, 2262, -2147, -1459, -1957, -2238, -2258, 1016, -1569, 1775, 2054, 710, -338, 835, -2714, -1865, 1864, -1892, 1265, 2812, 2210, -2196, -1909, 711, 1361, 506, 1414, 63, -1084, -868, 2121, 577, 1040, -133, 712, -2464, 1659, -2791, 354, -919, -641, -1770, -941, 2139, -1230, -1862, -1785, 2420, 1279, -505, 1451, -1097, 637, -1184, -2500, 338, -2115, 1010, 2121, -1871, 484, 168, -1016, -574, -2122, 3051, -1928, 3166, -2187, 54, -953, -2621, 2915, -1941, 749, 1632, 368, -924, 3217, -1843, -348, -1217, 1978, -1071, -2338, 2916, 14, -764, -1247, 1950, -860, 1030, 2441, 2179, 1913, -1600, -1067, -2153, 1042, -2317, 2381, 204, -1845, 850, -2622, 1819, -833, 143, 2780, -2224, -368, 427, -1756, -1729, -2215, -2379, -740, 669, 1233, -2864, 272, 2479, -2749, -1793, 695, 2539, 2072, -436, 36, 1871, 179, -250, 1927, -51, 945, 1851, 2497, 2076, 2877, -1468, -1012, 1493, 273, -1137, -212, 1112, 2094, 2490, 2124, -980, 932, 1758, -129, -1109, -916, 261, -1608, 494, 1305, -1994, 789, 2263, -1182, 479, -773, 28, -482, 2491, 253, -2863, -1294, -1924, -1976, -1482, 635, 368, -1932, 2881, -1355, 869, -2788, -1415, 1768, -150, 1723, -281, 1984, 3013, -547, 704, 352, -1809, 1699, -268, 2450, -1599, 2456, -1894, -1047, 1028, -1166, 113, 247, 276, -692, -2734, -227, 3606, -1278, 1305, 2019, 484, 1359, 2250, 907, 1889, 1029, -2219, -544, -1838, -2893, -877, -2885, 2134, 2176, -1498, 2511, 1805, -717, -2124, -621, -1989, -164
2201, -1076, 1304, -3299, -57, -1082, -1399, 2055, -1652, 1252, -965, -2730, -1171, 1531, 1297, -799, 2614, 3426, -2888, 2408, 3344, -696, -1245, -295, -2798, -2542, -1302, 1178, 2817, 1724, -3627, -1256, 628, 997, -2176, -1999, 1006, 751, -3408, 840, -2060, -438, -2082, -572, -1118, -532, -1519, 2610, -374, 510, 1623, -4415, -2944, 506, -1042, -149, 206, 4409, -2955, 2515, -2388, 128, -2246, 1533, 356, 2025, -3079, 3143, 2730, -2811, -994, 2261, -1683, -2996, 482, -1843, -273, 859, 2690, 798, -2707, 2547, -1184, -990, 2262, 107, -553, -506, -105, 644, 280, -2954, -1297, -1380, -1394, 3772, -2519, -2761, -867, -1441, -241, 632, 806, -712, -2435, 3495, 1501, -591, -201, -2805, 48, 1352, 2468, -2977, 3863, -2517, 2601, -2067, 1301, 1156, -4038, 2818, -715, 805, -3705, 1392, 1978, -2536, 223, 898, 4849, -2073, 53, 451, 1478, 527, -2065, 1675, -1962, 3449, -443, 1959, -250, 2137, -881, 1464, 199, 705, -2877, -30, 2234, -750, -1352, 2126, 2817, -873, -3666, -55, 2385, 216, -1035, 2896, -556, 1058, 692, 2578, -2289, 1005, 3303, 436, 2507, 1012, 743, 1219, -1839, 1750, -2672, -2017, -3350, 874, -2168, 1864, 617, -517, 572, -4026, -1262, 673, 2485, 2353, -2191, -2171, -348, 279, 1573, 589, -2740, -365, 574, -1975, -975, -2140, 2280, 18, -561, 2445, -2697, 2243, -1135, -1848, -3586, -1923, -1721, 2931, -1983, -760, 152, 2456, -2182, 2177, -404, -986, 362, 2979, 769, -1149, 2694, 2093, -3065, 1566, -2362, -765, -2759, -1073, 11, -1955, -370, -2376, -3171, 2226, -1684, -2654, -125, -1990, 1527, -926, -899, 600, 902, -162, -353, 1601, -3087, -425, 266, -2631, -762, 2752, -361, 414, 230, 4025, 560, -2140, 1796, 2964, -1186, 4862, -196, -3020, -3477, 2164, -824, 1460, 675, 4089, 878, 3082, -857, 2012, 21, 2682, -145, 1462, -441, 1242, 2160, -843, -487, -1928, -674, 1080, -1074, -1950, -1225, -1020, 2528, -3474, 1792, -79, 1704, -1510, 250, -606, 1095, -1001, 3380, 116, 855, -1486, -2913, -2535, -345, 1010, -1129, -1317, -2543, -4087, 554, 3806, -173, -967, -678, 889, 847, 1099, 3146, -471, -3165, 1819, 2986, -746, -2341, 1790, -1567, -1491, -973, -812, 2034, 1154, 1038, 1594, 1305, -318, -3113, 2462, 2118, -2121, -1949, 1065, 1070, -1161, 474, 1453, 387, 2232, -561, -2674, -1357, -283, -1371, 1131, 2792, -1553, 393, -1670, -273, 1709, -240, -1556, 594, -1332, -4795, -382, -2216, 2298, 1728, 506, 2492, -1304, -1396, -1234, 1419, 1139, -939, 328, -2683, -202, -2087, 670, -957, 3241, 1493, -2624, -3017, -609, -1509, 4015, 2682, -2492, 2462, 2975, -2849, 2301, -2847, -316, -2822, -2749, -1159, 1698, 2923, -231, -605, -1461, -967, -2448, -9, 2080, 1602, -2064, -834, 2343, 2706, 3781, 68, -1999, -671, -427, 2629, -478, -2267, -2839, -331, -189, 1732, -3202, 1593, -392, -281, -1487, 2543, -2946, -2284, 3032, 1210, 991, 1622, -1833, 2184, -492, -539, -537, -2636, -2462, -4258, 920, 2733, -3036, -877, -492, -1122, 2030, 1896, 2008, 1884, 1332, 421, -1376, 636, 2903, -2131, -1942, 1361, -177, 2290, -1313, 1298, 1077, -1159, -1580, 2678, 2301, -332, 4287, -2123, 1798, 534, 2012, -86, -306, -1945, -666, 458, 1324, -511, -3032, -152, 124, -824, -2894, 1331, 3409, 600, -1597, -31, 2287, -3746, -1843, 2433, 736, 2297, 1108
-2006, 521, 970, -2029, 3093, 383, -1790, 713, 112, -2563, 1552, -2948, -546, 1671, -678, -2601, 3218, 1742, -194, -2886, 495, 181, 535, 1173, -1014, -1792, -2470, -1390, -3196, -2771, 2171, -882, -1775, -901, 190, 1905, 489, -1895, -143, 2126, -1759, 2621, -1398, -426, 330, 2535, -821, -1952, 2577, 127, -881, -2008, -2543, -57, -1176, -3064, -1075, 2028, -1969, 273, -1440, -1650, 377, 748, 2362, 1734, -1211, -1125, 589, 2655, -1576, 1007, 391, 2282, -761, -912, -2879, -2397, 1424, -2053, -2030, 773, 2693, -353, -2059, 1939, -1306, -774, -460, -1676, 429, 1591, -1423, 1858, 1525, -1216, -160, -2316, -577, -2282, -2739, -1540, -1439, -1980, -1231, 388, 935, 890, 570, 2447, 297, -2012, 2661, -65, 2109, -1732, -650, -1739, -2807, -199, -1717, 623, -1562, -361, 1420, -307, 2851, -1550, -1545, 2347, 2841, 437, 300, -204, -2284, -1635, 2808, -81, -1005, 1956, -234, -2021, 998, 1254, -1002, 1742, 2184, 1906, 352, -967, -948, 1481, 645, 2552, 2161, -2634, 369, 726, 669, -41, -2706, 766, -2234, 1890, -2636, -2473, 376, -2856, -183, 500, 551, -805, -458, 519, -2432, 2635, 444, 598, -2847, 1590, 204, -849, -403, -873, -1625, -1771, -690, 2980, -1338, -1309, -380, 196, 1966, -2371, -1459, 2596, -3252, -1445, -1080, -182, 11, -17, -1853, 2174, 2622, 2320, -2450, -2065, 2364, 1017, -1656, 868, 607, -661, 1958, -1993, 364, -36, -118, -34, 3011, 182, 1608, -1676, 1140, 2773, -2415, -821, -2864, 2342, -687, -60, 461, -1911, -2719, -290, 636, 974, -2969, -1172, -2659, -2980, 416, 430, 1670, -516, 1797, -474, 55, -947, 940, -981, -916, 2323, -2001, 2197, 1446, 1308, 2232, 1019, -28, 3588, -1505, 839, 367, 1869, -998, 730, -1704, -400, -379, -702, 458, 1330, -1951, 2467, -2668, 1556, -2834, 1532, -1474, -1366, -2576, -1116, 1575, -1224, 1654, 2260, -2630, 21, 2428, -1863, -82, -1716, -1333, -854, -1323, -2810, -1469, 1133, -1671, 953, -2195, -2350, 2815, -1784, 1013, -20, 1316, 2795, -1457, 1858, -1333, -3230, 200, 494, -2670, 1260, 47, 2435, -1612, -2804, -1284, -1902, -765, 56, 1231, -1362, 1532, -585, -354, 1427, -2487, 2445, 1131, -2683, -415, -2846, 1503, -2224, 2253, 547, 1308, 1604, 2921, -1765, 1500, 251, 20, 2379, -2516, -2884, -209, 711, -3035, -2055, -547, -2575, 1856, 2658, 1334, 1723, 730, 763, -634, 1333, -1047, 2852, 515, -1272, -1752, 1466, -298, 1381, 2317, 1983, -374, -2291, -1569, -48, -988, -3133, 2143, -1759, -1058, -135, 434, -2701, -2479, -2820, -1553, 2330, -768, 1118, -1261, 2700, 3, -940, -1068, -1067, 800, 1955, 2623, -1762, -2984, 1039, -68, -521, -240, 3105, -482, 1896, -671, -509, -1649, -560, -1171, -915, -1627, -2577, 2005, 206, 218, -1, 228, 462, -878, 340, -2553, 115, -2913, 2820, -2319, -109, -2009, -317, -497, 2305, 1618, -1289, -1235, 2683, 2012, -704, -1555, 2939, -2198, -187, -1642, 837, -323, 2356, -1465, -2085, -475, 2536, -539, 652, 776, -627, 1212, 1189, 2135, 1795, -2059, 947, 1257, -1961, 1602, 3354, -3164, -990, 2005, 293, 1465, -1095, 2532, -1171, 1108, 911, 1295, 1604, 1194, -1513, 1616, 554, 923, 1978, 973, 2189, 2625, 2831, 2580, -2373, 944, -1526, 1706, 2892, 1477, -1621, -925, 3389, -856, 166, -487, -2068, -2192, -1956, 1754, 597, -2010, -1378
156, 3088, -2718, 909, 1043, -1517, 1833, 2997, 1410, 2201, 1712, 910, -1472, -328, -2431, 3621, 2392, 2266, 1534, 1031, -448, -158, 830, -1209, -1233, -1717, -2549, 1269, 2297, -885, 1963, -947, 1551, -1169, -2116, -157, -521, 1692, 599, 91, 59, 689, 2633, 1959, -2107, -1977, -3136, -2668, -356, 1329, 1158, 197, -2514, -2268, 1082, 3108, -1471, 2330, -948, -2153, -582, 1707, -2602, -1610, 1962, 1734, -1948, -2034, 652, -1052, 2691, 1986, 2976, -633, 1582, 316, 2031, -669, 2902, 335, 374, -193, -1542, 1329, 364, 1896, 440, -858, -120, 620, -1666, -77, -2598, 404, -1719, -197, -806, -1460, 1617, 2287, -2379, -2082, 814, 1968, -2489, 1967, 713, 132, 630, -110, -2636, 2632, -1193, -1181, 648, -1550, 1561, -1634, 197, -1920, 2024, 2085, 3682, -1557, -1482, 624, -12, -1758, 1125, 281, 886, -2159, 2567, 1847, -1739, -477, 2070, 1394, 834, 611, -1039, -1066, 1923, -1100, 1477, -61, -1846, -880, 1234, 2495, -2342, -694, 2055, -2974, -3179, -2541, 1264, -782, 2659, 2935, -1387, -2092, -150, 562, 895, -1675, 3258, 2702, 3140, 146, -14, 2345, 1620, -1192, 3013, 1382, 1825, 2521, -1233, -2061, -294, 929, -1631, -1295, -720, -1774, 284, 2036, 2230, -816, -1058, 457, -1496, 119, 2046, 2371, 568, -868, 73, -244, 1094, 2070, 1877, -1251, 1696, 1121, -70, 1911, 2078, -336, -2335, 1781, 1702, 1082, -2323, 876, -856, 2262, 976, 1064, -2816, -901, 443, -932, 616, 1796, 445, -446, -3131, -1430, -1734, -1265, -2411, -1016, -336, -2886, -2649, -3452, -2440, -172, 645, 2382, 253, -2169, -1890, 1843, 943, -563, 2564, 2961, 134, -2778, 122, -2713, -1530, 833, -2440, 1920, -2677, -2576, -1181, -559, -2634, -251, 1386, 2506, 2527, 311, -2810, -601, -2319, -135, 1496, 2147, -2301, -2906, -1755, -2284, -1515, -1088, -101, -1015, -735, -1849, -307, 1097, -588, 2767, 2568, -215, 1263, -2435, -370, -1957, -565, -1119, -985, 2329, 31, 3138, -1653, -1965, 309, -2719, 251, 1780, 10, -483, -2018, 304, -370, -3240, 295, 1326, -20, 1049, -2711, 3238, -542, -1061, 1531, 2168, -609, 3524, -2497, -274, -1447, 22, -177, -1348, 1301, -1289, -1939, -2583, 2021, 377, -383, -2234, 2392, 2182, -1055, -2085, -163, -1837, -2770, -3196, -1569, 2902, -1499, -552, -1028, 3071, -2248, -758, 791, 1243, 1114, 1523, -613, 2264, 521, 742, -289, -707, -2772, -1426, 510, 74, -2138, -923, -50, 157, -1127, -828, -2622, -2045, -2349, 1665, -1263, 364, 279, -51, 1728, -195, -1600, 2150, -2692, 738, -49, -1810, 2532, -2187, 1637, 924, 3649, 698, 2352, 2144, -522, -3060, 2567, -2712, 1709, -2235, 1543, 568, 3156, 464, 1997, 1587, 221, 862, -2681, 2283, -2545, 2571, 89, 2455, -1553, 1702, -1049, 924, -1159, -938, 844, -1860, 1005, -1944, -131, 1597, -535, 1313, 676, 2018, 3503, -1078, -1240, 1556, 916, 2780, 1089, 2045, 2473, -2746, 2550, 1036, -1968, -1773, 943, 2106, 2971, 735, -113, 2497, -1918, 1500, 3572, -1652, -491, 242, -2620, 1337, 1306, -565, 1605, -1781, 2117, -638, 2952, 1020, -2655, 1016, -1733, -1497, -73, -503, -2328, -324, -799, -2575, 1891, 2588, 2342, -1773, -1542, -1354, 990, -2070, 2378, -834, -2322, 2708, -361, 3581, 1080, 2942, -2865, -2613, 950, 542, 2419, -3026, 3077, -2260, 1810, -642, -282, -134, 907, -3044, 2425, -2543
-2863, 2293, 3664, 1113, 1211, 2949, -1107, -225, 1806, 2602, 1374, -1375, -299, -3665, 350, -3333, -3482, -3587, 2931, 3219, 3407, 4013, 1535, 1679, 612, 218, -73, -3015, 1031, -3118, -2574, -2106, 3673, 3959, 393, -309, -895, -846, 2581, -240, 915, -2493, -350, 38, 2358, -3820, 2605, 2896, 334, 813, -374, 4194, -1191, -814, 841, 3391, -1191, 814, 230, 3209, -18, -954, -3045, 326, 408, -1354, 3132, -1391, -894, 973, 1998, -1184, -912, -1938, 1273, 1510, -473, -2668, 2214, -3490, 87, -927, 501, 629, 750, -1978, 939, 3759, -1442, -3137, 2345, -462, -2576, -1695, 2950, -2764, 1823, 2, 1122, 696, 2767, 476, -2032, -457, -552, 1956, 1168, 328, -2610, 196, -2040, 3623, 323, 3769, -2281, 464, -752, 2294, 2462, -2917, 3117, -2234, 1645, -184, 2828, 48, 429, -469, 45, 1591, -779, 1985, 297, -1157, -2007, -276, -439, 1903, 1065, -3431, 2742, -548, -641, -2908, 1039, 2216, 426, -1620, 508, -149, 575, 3671, 2352, -350, -2797, 4553, -37, 1843, 14, 2064, -2840, -2706, -2357, -367, 1389, 2048, -532, 1510, 2133, -797, 2877, 1517, 1816, -349, 1641, 1577, 1037, 66, 1082, 757, -1629, 521, 30, -2059, -718, -1730, 1086, 632, 627, -1762, 3379, -1070, -632, 2076, -459, 1528, 1348, 1187, -1895, -1770, -2580, 402, -219, -1223, 2203, 1441, -3190, -467, -2059, 2103, -3180, -757, -644, 2129, 2318, 629, -30, 1726, 20, -2529, -2957, 1207, 2562, 3058, -1875, -2597, 2164, 2964, 2302, 967, -370, 1291, 2255, -3233, -1970, -875, 2240, 1518, 2263, -2248, -626, 2175, -1270, 4363, 910, -2724, 2513, -382, -2449, 5445, -3250, -439, -443, -2498, -2752, 2984, -710, -478, 1682, -1157, 1420, -2680, 2590, -1835, 119, 181, 405, 1249, 623, 3067, 5330, -2294, -285, 585, -1444, 3174, -2673, -1961, -411, -2949, -531, 1962, 1528, 245, -21, -66, -33, 678, -24, -478, 1660, -1799, -489, 1762, -276, 3226, 1447, -1720, 108, -184, -1826, 3187, 2052, 1899, 2918, -2556, 387, 44, 990, -1168, -364, -1312, 1678, 453, 442, 2377, 1704, -3267, -74, -209, 1092, -60, 2603, 337, 3504, -830, -943, 364, -281, 288, -2802, -114, 2234, 2927, -1184, -679, 61, -2302, 3197, 1959, -2285, 1967, 412, -803, -25, -2141, -1992, 3262, -846, -2888, -1215, -447, -1020, 2239, -675, -134, 573, 1426, -2196, 179, -1263, 4111, -19, -2112, -1135, -2696, -247, 1996, 2028, -2279, 1171, -1505, -261, 276, -2123, -377, 2803, -2677, 2867, 127, -1961, 647, 1429, 18, -28, 2014, 2358, 1025, -1620, 3799, 1934, -1946, 398, 2711, -624, -2791, -2163, -2851, -1546, 114, -1257, 2813, -3879, -2093, -765, 2971, 1761, -3593, 1877, 1742, -947, -569, 1730, 1095, 1015, 3091, -1680, -1985, -37, 3117, -1169, -1012, -1395, 1240, 1763, 749, 2117, 2684, -2120, -4074, -1193, 2818, -1591, -1897, 2340, -390, -828, -2243, 1879, 2849, -1536, -503, 1063, 2520, 1859, 2769, 2231, 2614, 1690, 873, 818, 422, -1809, 835, -1406, -786, 3713, 2723, 391, -2836, 2588, -1474, 1089, -2109, -1715, -834, -1685, 3206, 432, -1378, 4323, 859, 1437, 951, 1665, -1748, -2419, -1801, 784, -768, -1056, 86, -200, -1295, 3197, -560, 1896, 1594, -793, -831, 1677, -1341, 1143, 3715, 1972, -2186, 937, 3230, -2492, -911, 2394, -3673, -2367, -990, 2530, 2583, -227, -934, 3350, -2623, -834, -557
