-2564, 7493, -176, -1794, -9664, -6205, -13423, -1801, -5924, -796, 3004, 432, 2570, -4122, -5305, -4967, -6421, 2192, -12435, -2788, -496, -2625, 5476, -5278, -4339, 1650, 1007, 12164, 5819, -1109, -14324, 4745, -2781, 12992, -12320, -9512, -1767, -8424, 3907, -5582, -4023, -1694, 2696, -12431, 2711, -3722, -1948, -4178, -2650, -445, 9642, -4860, -5817, 11234, 5682, -3897, -1429, 1676, -12590, 1219, 146, -343, -5523, 932, -6259, -497, -5053, 4036, -2159, 768, 2545, 8291, 3868, 875, 10844, 2603, 10311, -3614, -1367, -1021, 1487, -830, -1278, 8777, -1738, 11578, -1479, 2881, -7035, 915, -88, 10523, 1125, 807, 10598, 330, -15481, 3597, -1361, 1760, 13080, -520, 11591, -5795, -1322, 2369, -9248, 3901, 1637, -3507, 880, 9401, -10254, 2370, -3313, 6327, -6194, -6118, -7812, -8303, -1886, 10596, 2695, -2485, -3059, -4715, -6772, 2517, -2241, -4071, -10191, 3358, 4825, -5534, -4884, -8545, 805, -3265, -1273, -13309, 6996, 16049, -1177, -1779, 4649, -4838, -9883, -13692, 7873, 364, -3632, -2677, 4771, 3014, 12544, -2685, 14404, -2072, -7422, -2543, 5786, 7148, -6087, 15865, -2001, 675, -5547, 9932, 466, -600, 13644, -627, -420, 4985, 6928, 2490, -1454, -11007, -2770, -906, -10561, 2842, -341, -4733, 5663, -5116, -7667, -4517, 2054, -598, -10237, -3960, 2659, 2511, 3569, 3197, -5753, -8442, -6392, -1137, -576, 8666, -1382, 505, -2420, 4553, -2574, -295, -8413, 10385, -11134, 2046, 1790, 4618, 2114, 4265, -5105, -1144, 1188, -13388, -3277, -10951, -4651, -10602, 1609, -21489, 10516, -3593, 2364, 5372, 179, -3831, -3972, -5132, -4251, 13131, 430, -3595, -3834, -568, 2755, 1877, 8319, 11871, -4311, 1723, 165, -2160, -3434, 1985, 10380, -2935, -1595, -9067, -8161, -4206, -2172, 16086, -3432, 708, 9420, -4610, 2520, 566, 14359, -1825, -3749, 6119, -7704, 2960, 1874, -77, 1987, 28, 2952, -3003, -717, 2044, 1766, -531, 8601, -12527, 7473, -13582, -9118, -2943, -4341, 1934, 2408, 7862, 1012, 8160, -1366, 7996, 8832, 66, 5491, -5750, -2292, -1090, 8855, 1845, 2167, -1858, -8760, -10645, 1925, 1102, 3835, 3430, -3216, -1139, -968, -5570, -10110, 2419, -11342, -878, -2068, -4827, 1636, -10915, -3671, -7382, 2359, -2148, 306, -3851, 11395, 1135, -3278, -10998, 7577, -252, 3380, 547, -3202, -9889, 1252, 6898, 582, 6121, -3696, -823, 3999, 247, -8892, 1326, 1833, 8118, -2341, -5132, 7971, -2798, 1406, -833, -8816, -5430, -5696, 3962, 5854, -3301, -1595, 11995, -6954, -6184, 4071, -1336, -7231, 2332, -1961, 8538, -2978, -2195, -578, -1774, 6790, -755, -7221, 9926, 1389, -4107, -4001, 1089, -3711, 10706, -1504, -4549, -945, 164, 11682, -6642, -9212, 3481, 3632, -1297, -3041, -1047, 2523, 4930, 2425, 273, 398, -1112, -1242, 12957, -2142, 14160, 11962, 7806, -2152, 6190, 2136, -4305, 9720, -6310, 502, 1243, -3427, 6777, -1532, -7934, 6505, 8191, -3267, -10979, -3014, 2720, 5185, -1949, -2717, 12879, -807, -7292, -5355, -11952, 1749, 3708, -11363, -8235, -1004, 5376, 1887, 3475, 12634, -697, -427, 765, 5187, 12576, -12934, 7573, 5710, -3849, 6815, 11738, -9589, -4950, -3830, 34, 10311, -2302, 7726, 3649, -1616, -930, 1764, 172, -2403, -2046, -2436, -880, 2597, 2081, 9209, 2360, -5657, 378, 12537, 2976, 7869, 9337, 1171, 2339, -10941, -4946, -5226, -5569, -1509, 4632, 2492, 2504, -1483, -10505, 1692, 3411, 1167, -619, 5206, -1986, -6335, 2833, -2035, 9236, 758, -1803, 1920, -1137, 3422, -21323, -7016, -330, 487, -80, -977, -3154, 14839, 3077, 12556, 2398, -1837, 9800, -6549, -7481, -3967, -4506, 4486, 1191, -584, 2404, 14399, 311, -200, -41, -2606, 1082, -5641, -1061, 4250, -2257, -2636, 11156, 4291, 3404, -1706, -13320, 9517, -1590, -5534, 982, -4583, 4652, -3421, 4411, 1461, -8049, -1350, -2692, 7068, 2829, 9389, 2924, -3203, -9148, 11585, -7496, -12086, -7956, -2525, 1193, 13919, 1440, 2575, -1072, -337, 7373, -554, 6273, -4342, -339, -5013, -10767, 418, -5485, 1851, 3277, -10008, -1212, -999, 1745, -2552, 5816, 7236, 2995, 239, -12280, -3808, -4426, 2721, 2325, -7208, -1533, -2822, -12370, 609, -6601, -5423, 1012, 8832, -9515, -1702, -6611, -11765, -5711, 501, -1656, 1421, 6606, -4190, -395, 829, 573, 903, -10683, -7067, -1350, -2277, -8619, -9694, -1993, 6841, -5148, -2900, -5714, -10366, -396, -2615, 1969, -4921, -4324, 3142, -1323, -1127, -2472, 4710, -6029, 9913, -8521, -3570, 5736, -4375, 15466, -11182, 466, -5627, -3934, -2104, -11354, -4207, 5332, -1088, 1714, 10621, 5375, -2290, -2571, -7538, 1861, -10243, -8555, 12904, -1616, -4020, -8779, 7448, -316, 318, 2771, -8135, -586, -2088, 131, -1555, -1544, -829, 5574, -9467, -5239, -422, 1617, 327, -9003, 5442, -670, 1904, -2282, 390, 11572, 2621, 11391, 1157, 8866, 2656, -7125, 792, 4056, 880, -6921, 13729, 10658, -820, 13879, -2390, -5891, -1218, -12766, 1431, -3855, -1033, 8180, -527, -5718, 3982, 1598, -2200, -4063, 2338, 1065, 2383, -6583, 9479, 13353, -792, 14072, 934, 9931, 2563, 8055, -706, -260, -329, -3157, -2551, -8203, 3782, -6561, -3175, -8295, -5151, 7835, 2191, 12611, -10737, -4801, -3792, -5570, -1567, -707, 12077, -8708, 11868, -7310, -6154, -6109, -1655, 15794, 14597, 10332, 3329, -5092, -962, -418, -4461, -1187, 2126, 1023, -8071, -3326, 2390, -3510, 3293, -9416, 2027, -933, 3611, -881, -1441, 1312, -1554, 2674, 2130, -5748, -5311, 8475, -14880, 14072, 9485, -4604, -1790, -2470, 2609, -2554, -10164, -17814, 3671, -3643, -1545, 5910, -9704, 2732, -5600, 1197, -10157, -474, -2760, -2735, -6220, 6863, 2937, -1619, -10334, 1589, -7015, 167, -1114, -4085, 1290, -1556, 14773, -7945, 2096, -3203, -494, -2272, 15874, 2148, -1170, 2441, 219, 13749, -4210, 2726, -4659, 834, 121, 1820, -1404, 2249, 1540, 3626, -166, -5629, -1901, -6173, 4486, -7733, -6374, 1991, 14190, -2116, 10084, -3892, 1096, 9213, -4440, 13189, 1681, -3995, 2308, -1305, 1401, 1125, -8977, -3243, -12879, -12118, -4667, 12854, 1012, -5517, 10214, -1157, -3179, -6264, 1210, 313, 469, -2238, -4651, -261, 4956, 2946, 2608, -5536, -3399, 1963, 5710, -4647, 1296, -4815, 9577, 2363, -8974, -5754, 3586, -4078, -8978, -5914, 1476, 11734, -5666, 1093, 625, -4382, -3990, 10368, 2629, -4388, 5283, 5704, -3425, -652, 456, 2397, -8298, -2374, -805, 13891, -3452, -2238, -6248, -2201, 10179, 14348, -6849, -11233, 18578, 9438, 10273, -2036, -15855, -7523, -4013, -3815, -2839, 1486, -895, 3260, -2012, -1201, -1171, -2681, 1758, 1791, 1478, -3624, -3972, -2063, 1535, -3237, 8395, 543, -7861, -4670, -5944, 8246, 6177, -1789, 13147, 10407, 5277, 226, -1379, -2257, 1061, -8010, 2170, 5963, 905, 150, -3913, 2594, 6645, 1537, 1316, 2804, -7469, 1234, 1738, -9502, 1138, 3267, 2338, -8338, -2708, 6978, 11417, -2826, 681, -9052, -2965, -4661, -2751, -662, 1587, 10559, 8675, -758, -2306, 13510, -4439, 2008, -9886, -2550, 1114, -8768, 13905, 2342, -6321, 1717, -2235, 11160, -1454, -1391, 748, -6721, 2335, -1087, 16130, -9690, -6949, -534, -2186, 5853, -4743, -3315, 5564, -418, 3618, 12376, 10229, 422, 6542, 6874, 1369, -2339, 1283, -3187, 792, -597, -3899, 6088, 2771, -3286, 1749, 9651, 1645, 10766, 4342, -4474, -4492, -10001, 1257, 103, -3636, 849, 7472, -12326, -2392, 4957, 2677, 9653, -11164, -299, -1160, 7452, -19372, 4237, -11579, 13392, -506, -6955, 410, 1964, 785, -2409, 16032, 2022, 4121, 1860, 1478, 2194, 5186, -5549, -880, -6754, -335, 3831, 681, -255, 8843, 375, 6478, 4291, 3866, 540, 418, 736, 5311, -9392, 1457, -1513, 22539, 426, 686, -4136, 1736, 10605, 9487, -2798, 3005, 1395, 2055, -4564, 6967, -7303, 1932, -6019, 619, 16687, 1411, -4305, -3302, -4062, 1083, 12853, -8411, 2719, -508, 7801, 6903, -11265, 3933, -6828, 11218, -5249, 4755, -3853, 6063, 951, -1353, 2189, 3000, 6224, 6311, -159, 8507, -6602, 2087, 586, -4121, -3643, 1590, 4980, 2229, 5226, -6747, 3306, -5324, 9588, -8279, 9182, 2064, 6251, -3113, 5842, -1773, -9960, 10271, 1742, 14442, -3683, 7782, 1100, 2184, 15727, 3968, -3556, 10377, 118, -1557, 614, 9174, 851, -666, 3206, 562, -4273, 4442, -2323, 3897, -1410, 10790, -207, -8353, -773, 2346, 2498, -489, -3962, -365, -4144, 1014, -10813, 12129, 660, 1755, -1709, -2575, -4489, -2146, 299, 10179, -9767, 2896, -1624, 5865, -13160, -2990, 3052, -996, -7818, -7994, -6030, -8843, -2235, -145, 5160, 1981, 635, -11388, 4054, -3264, 4764, -2202, 7652, -7402, 1296, -1829, -14905, -2897, 224, 1555, 8795, -2433, -9598, -19383, 966, 1378, 5268, -2196, 3781, -83, -1022, 3889, -8408, -407, 8040, 14529, -1536, -7574, -3978, 16719, -11147, -4555, -6344, -922, 12928, 12067, -1053, -1476, 12379, -3062, 2078, 1938, 10055, -445, -1538, 1521, -10543, 8029, -1734, 18672, 3446, 565, 6058, 3908, -2973, -6312, 12382, -5, -4571, -6393, 888, -4615, 12709, 5607, 12798, 166, -1695, -7073, 3965, 1747, 577, -5797, 9996, 2003, 2082, -3618, -1285, -3442, -6398, 3352, 140, -10039, 3733, -1759, -2569, -2517, -8952, -1195, -2071, 2463, 11001, 19549, 520, 1314, -4671, -1954, 2312, 4422, 852, 13500, -6931, -14565, 2982, -5699, -6704, -2140, -1587, 2279, 2502, 6014, -2062, -4451, -3050, -6903, -8884, 4246, -1376, 9216, -2108, -1728, -1654, -2649, -8151, -5884, -167, -3434, -2457, 818, -182, -1619, -6055, -10898, 9068, 17120, 191, 1849, -6203, 4190, 9366, -10335, -3834, -5823, -4737, 1444, -8716, 991, -7287, 9107, -11981, -6422, 399, -10655, 4306, -586, -4560, 1411, 1075, -10131, -2302, 668, -6050, -1495, 2988, 5486, -3080, 1812, 1439, 2043, -2086, -7452, -13050, 6988, -1845, -9515, -6370, 3373, 13372, 2581, 10474, -699, 3960, -239, 7785, -4823, -8716, -993, -14612, 500, 7699, -1638, -4280, -3842, 2256, 2318, -7860, -42, -1506, -5730, -1240, -568, -2078, -2842, -4985, 9266, 11964, -7182, 13012, -5889, 999, 8951, -11142, 3916, 16581, -876, 1782, 1127, 8512, 219, -2495, 7856, -8350, -1364, -891, 693, 2962, -5292, 1805, -751, 856, -2565, -3967, -11220, -3569, 6756, -6004, -6184, 6671, -4531, 9208, 3250, -1325, -3710, -4399, 9346, -702, -8217, 821, -3805, -11070, 714, 5920, -6073, 1199, -6399, 1707, -1831, -1358, 1195, -9246, -5502, -899, -7398, 3634, -4379, -1799, 5175, 8415, -4757, 2092, 2278, -3751, 2500, 2033, 19028, 9639, -2878, -4003, 2507, -2999, -1351, 1519, -15281, -328, 6036, 7749, -5827, 2153, -4484, -6328, 11070, 6007, 12272, 5469, -2053, -2620, -1089, -3029, -9212, 1555, 5219, -97, 2726, -818, -6987, 5822, 5198, -147, -1915, -2152, -3481, 198, 10023, -3523, 1609, -1110, -6145, 9010, 2512, -1251, -2369, -8875, -4021, -2695, 5781, 136, -1089, -4749, 2853, 3199, 8266, 3766, 12324, -3932, 145, -3991, -1236, -10583, 2357, 1212, 1821, -5462, -10156, -4443, -10311, -8580, 1008, -16755, 5949, 867, -1086, -3566, -10455, -2958, -2210, -645, 4170, 2543, -8672, 2079, -5752, -2326, 4555, 3400, 2304, -5685, 705, -684, 9734, -1722, 4217, -3153, -5422, 6126, -9607, -1713, -1966, 2332, -1016, 3254, -1032, -1216, 11000, 1443, -7656, -5758, -2487, 8374, -12775, -1769, 10218, -12553, 2147, -6853, 7046, -125, -8274, -3609, 2743, 8040, 5798, 11444, 252, -2923, 1621, 1748, -8176, -1731, 2365, 12008, -11744, 13339, 6330, -11532, -1482, 1876, 612, -9708, 6440, -1579, 2089, 2442, 3238, 840, 9931, -2490, 2440, -9104, -8284, 5954, 1454, -152, -4943, 1491, -4541, -9078, 49, -2099, -6354, 19656, -794, -5246, 4091, 4026, -5850, 1301, -4830, 1085, 6229, -1829, 4558, 2841, 1832, 1236, -2914, -9482, -10118, -3994, 6403, 2375, -215, -5888, 6968, -1357, 6768, 1762, 1317, -2014, 3281, 1997, 3993, 5982, 10156, 880, -9117, -4784, 2404, 5770, -1218, 6032, 2233, 5880, 948, 13574, -9340, -4499, -4598, 2182, -977, -4455, 9683, -15325, 10063, -6066, -4010, -10463, 7480, 12086, -2531, -1449, -2784, 10030, -5265, -14019, 3661, 12114, -2184, -4401, 879, 5788, 1490, -1380, 1017, 1103, 2133, -5051, 18214, 2994, 6778, 2975, -6692, 3068, -2867, 2538, 1339, -4518, 13351, -982, 3759, -861, -7564, -3417, -400, 5811, 8009, -16611, 9379, 5181, 4915, -3942, 5977, -3256, -10818, 2233, 2941, -5696, -630, -7838, 5158, -12120, 18732, -5638, 12886, -1292, -10755, 19703, 1047, -6729, -9977, -5678, 4212, -5459, -432, 273, -2506, -5590, 144, -1305, -16495, 11560, 545, 5822, -305, -5110, 9611, 2472, -4452, -3382, 4042, -4776, 11500, -411, -1117, -5050, -6630, 10703, 6582, -4863, -9329, -176, 7392, -12313, 4426, 1131, -13837, 777, -6469, -260, 2532, 6264, 1355, -2244, -8957, 972, 9285, -849, -1493, 4145, -217, 580, 6377, 6754, 11190, 7791, 2052, -4690, -1809, 8568, 1974, -3870, -2479, 5552, -7685, -2888, -11079, 24305, -6086, 11386, 10855, -2596, 9057, 1847, -1964, 3849, -3967, -3624, -2737, 12403, -4941, -1866, 1706, -5354, -4282, 11926, -12832, -5683, -7996, -11705, 191, 14011, 7807, -6082, -9679, 176, 4959, -519, -3144, 17903, -1946, 11335, -1947, 4048, 3625, -2128, 7203, -2690, 17218, 972, -2817, 1219, 6783, -2495, 9559, -8661, 3393, -907, -8128, 204, -10567, 6988, 836, -4701, -10800, 4035, 942, 6625, 9075, 1877, -7807, 12690, -3103, -8125, 11277, -556, -696, 1592, 1715, -889, 2228, 5650, -3439, 2767, 2368, -1147, -3029, -2316, 2785, 2760, -2589, -5274, 10048, 2684, -4371, -6668, -11652, 6937, 9686, -6960, -1791, 18503, 518, -2453, 6218, -2502, -1014, -2911, 1219, 7688, -9787, 692, 3890, 4395, 4893, 1038, 5434, 2635, -280, 1940, -1906, -211, -1546, -3110, -6463, -5319, -8188, -12093, -4359, 10855, -6696, -7679, 8592, 3931, -2369, -1145, 2399, -805, -4831, 1420, -5572, 11426, 258, -409, 9605, -7248, -3094, -3973, 1873, -10167, -879, -1480, -3718, -4351, -6930, -3566, 9810, -8258, -5160, 4122, 6801, -660, 22005, 2367, 2229, -11365, -4389, -1186, -5305, -4210, -8372, 2135, 432, -1036, 1412, 2246, 7407, 190, -232, 1386, -6231, -361, 7774, 2646, -8817, 11474, 9783, -4065, 644, 10333, 8454, 6860, -4641, -746, 1875, 694, 19208, -11849, 9940, -8185, -3459, -3868, 6697, -2031, 6986, -2188, -2418, -3710, -1881, -1441, -6545, -6236, -8661, 2430, 2850, -133, -503, 2691, 4739, -10302, 1554, -1543, 3359, 4298, 11055, 1263, -7360, -831, -3349, -7131, 1231, 11351, -981, -163, 2962, -5008, -220, -686, 3016, 5585, -458, -3926, -1252, -10055, 1910, 8841, -3046, 2654, 8542, -752, 9625, -181, 17856, -767, 17813, -6159, 10425, 10613, 286, 522, -4632, 15872, -7109, 415, -2845, 1428, 221, -12408, -5311, -1972, -1134, 3173, -3693, -5671, 2259, 889, -8669, 2114, 5733, -5107, -2614, -3113, 9609, -1515, -5712, 3446, -1908, 10036, -21609, 5863, -2010, 5249, 3751, -18712, 2801, -9149, -2288, -4782, -2716, -6137, 13049, -2501, 1662, -7484, 13209, 945, -2667, 11969, 16615, -5316, 7032, -6516, 4857, 677, 15843, 254, 3746, 16299, -1859, -380, -14988, 15388, 2423, 9824, -4138, -3279, -2195, -7978, 4952, 1581, 4856, 11002, -6707, -13739, 14066, 11744, 2801, -6163, 14791, -5808, -247, 504, -13457, -418, -3294, 6081, -2692, 2158, -11434, -1337, -170, -98, 9562, -7033, 9595, -1591, 6491, -2524, -708, -4833, 13043, -8073, 198, -303, 3104, -3999, -14266, -1496, 5110, 460, 8343, -1113, 520, 1882, -1836, -4129, 16097, -462, 12653, 763, -1635, -7655, 511, 4685, -1908, 6542, -12418, -24, 4738, -4162, 2508, 13341, -1609, 4488, -1777, 2291, 7860, 8781, 4638, 135, -1113, -10041, -1254, -7422, 7552, -3032, 1922, -2177, 1411, -4354, 298, 1609, 701, 10474, -6274, 2525, -348, -3613, -1964, 5579, -675, -1218, -5894, -2026, 13626, -2054, 2025, 2819, -21147, 4903, -15636, -7869, -7347, -7575, 4468, 471, -9626, 4201, -7365, -4994, 1375, -10871, -6567, 7742, -4258, 2019, 121, 36, 8189, -4411, -948, -6948, -9313, 4770, 5907, -1767, 527, -7953, -1496, -712, -348, 4935, -7699, -15400, -1440, -3513, -3118, 2570, -5321, -8980, -734, 718, 597, -1915, 1282, -2254, 175, -7284, 2497, -12307, 598, 2080, -2573, 2621, -2190, 5631, -308, 2449, 1506, 20900, -5273, 968, 4982, -4635, -1827, 3466, -689, -2927, 7057, 1673, -4322, 7484, 7734, 647, -1943, 7557, -11576, -8467, 6084, 11450, -6313, -1839, 2076, 72, -2318, -781, -7828, -1154, 9971, -5859, 3718, -5635, -6479, -629, -3954, -2929, -2676, -9725, -2265, -2117, -2722, -7983, -3639, -1376, -2099, -1888, 329, -13897, 19627, -64, -215, 2029, -829, -3703, 10440, 13434, 13911, 854, -5551, 1791, 4846, -5213, 5430, -5811, -6079, 12315, -11141, 2044, 13523, 1934, -4772, 2987, -4161, 1555, -5618, -1084, 999, -7290, -274, -5798, -3453, 1706, 7956, -10032, 1419, 11011, -4932, 3179, -13841, 2429, -4025, -1661, 2131, -15843, 3647, -3476, -4572, 10710, -1394, 12946, -2479, -1693, 2847, -2722, 6429, -11238, -4558, -12893, 12341, -2567, -8791, -5119, -1791, -1228, -4818, 1877, -1940, -4252, 5993, -812, -7469, -1067, 7960, -3566, 1754, 4738, -2545, 12255, -9464, 4992, -3730, -5267, 15237, 4044, -2003, -2143, 5961, -3753, 14338, -1491, 380, 2575, 8676, -773, 1584, 6210, -1365, 3135, 16419, 9716, -5826, -10596, -2666, -3241, -2330, 2658, 4618, 1664, -16262, -9848, -396, 7594, -1241, -7067, 2123, 3259, -2736, 1433, -6358, 10744, -160, 6329, 10224, 2473, 11562, 3667, 3238, 1773, -7805, -7516, 3938, -7071, -11186, -1704, 2608, 3292, -3164, 10035, -5836, -4314, -8169, 4725, 2767, -3207, 2602, -6793, 5095, -2730, 5309, -812, 679, -10624, 1808, 300, -10458, 6616, -6032, -3845, -4260, 245, -975, -6509, -4158, -3292, 3421, 11398, -6071, 1397, -5660, -3144, 1583, -2226, -1959, 13877, -13433, 3046, -8556, -751, -5544, 236, -2074, -1676, 10129, 3777, -3356, 603, -2719, -12027, -3572, -1109, -2177, 6172, 1078, 4964, -16283, 8152, 10798, 4226, -13811, 10481, 1148, -7314, -373, 12831, -859, 5898, -3986, 1093, 3012, -1059, 74, -7190, 6363, 9191, 878, 2914, 171, -3325, 7036, -1702, 1389, 9480, -6622, -361, -904, -8961, -3593, 5106, -3274, 6195, 261, -1343, 4530, -278, 9495, -1611, 3660, -110, 1653, 1655, 13818, -3790, 1047, 4448, -5852, 11629, 518, 1089, -8152, -1205, -2955, 7454, -395, -15255, -18162, 17759, 7046, -2396, -1086, 2218, 8397, 5638, -6585, -3349, -4315, -6513, 9479, 4794, -2217, 5293, 1459, -542, 6309, -1006, 2085, -4707, -1643, -13435, -15934, 7118, 4788, 12552, 2606, 12271, -5405, 5439, 3210, -7959, -1304, -4582, 8020, -7801, 7114, -4876, -4992, 8909, -1834, -9747, -6077, 6969, 11736, -13549, 4207, -14322, 5281, -5004, 8709, -9687, -6374, -3556, -4235, -6449, -3865, 11029, 2107, 6807, -7739, 13671, -6297, -1565, 7410, 6210, 1658, -10079, -8898, -3366, -5185, -10123, 6040, 33, -6288, 1014, 3657, -8809, 2348, -5136, -6052, 9159, 20, 2697, 281, -5438, 1844, -7252, -4094, -1809, -2020, -3818, -3064, 12915, 4761, -910, -2856, 13637, 260, -6539, -11191, 6785, 11335, 23, -1503, -4980, -5380, -3947, -1525, 1901, -422, -8632, 5912, 3126, 6445, 4029, 1987, 15798, 1510, 5644, -1997, -9844, -8697, -8541, 342, -4922, -8108, 774, 3465, 15417, 4823, 1826, 1540, -11123, 2354, 18742, 11144, -6300, -2521, 3171, -5021, -9770, -2439, -3554, 7099, -4963, 3401, -11529, -1492, 174, -11504, 12895, -866, 13191, 6132, 9472, -2640, -13613, -13591, 1247, 5475, 414, 9368, 1595, -10222, -6553, 425, 3221, 10521, -5938, -8074, 8575, -5582, 8588, -1095, 9, -11033, 4654, 8099, 11145, -2188, 12280, 1081, 4927, -7568, 5413, -4481, -8890, 2706, 1073, 4170, -245, -5162, -15001, 3885, -4022, 1629, -10272, 16336, -253, -4118, -5085, -8586, 2636, 9905, -445, -5087, 123, -4013, 11895, -3541, -2280, 9850, -5903, 748, -312, -483, -7999, 5039, 1649, -9266, -17092, -4558, 18698, -6668, -1250, 8764, 15472, -2058, -100, 2423, -13453, -503, 2095, 15320, 14624, 13308, 11959, 4960, -1497, 2797, 1269, -1510, 1573, -4583, 6625, 13059, 12538, 11753, -1476, -5732, -540, -1573, 13732, 9007, 4260, 1345, 6916, -2657, -5012, -15421, -12613, -8632, -323, 5530, 1505, 6164, 15702, 5556, 11019, 8494, -1648, 13099, 2174, -5753, -4719, 11254, 2034, -480, 2925, -1309, -2240, 13029, 2889, 737, -776, -591, -1149, -3324, 1766, 681, 2584, 9205, -4991, 2412, 6243, 7996, -6680, 4799, 1788, 3015, 73, 7260, -15227, 833, -13678, 2216, -1038, 777, -4895, 2485, -2764, -13529, 9859, -3814, -4096, 11077, 8276, 1888, 9986, -6394, -373, -1077, 1998, -1429, -6520, -10911, 984, -7439, -2148, -5286, -3528, -2688, 662, -1093, -9642, -100, 8363, -124, -14035, -3830, 2387, -9953, 1726, -1298, 254, 176, -2100, -6044, -560, 1689, -932, 6563, -5744, 11767, 1869, -7501, 7881, 4032, -10064, 2249, -2070, -1189, -1126, -3673, 17239, -5567, -13816, 10725, -1385, -2076, 15976, -4294, -10714, 11000, -2154, 4073, -211, -4387, 2093, 13980, -1209, 6696, 400, 538, -6757, 28, -6979, 5970, -9426, -3324, 765, 15102, 4084, 6560, 3538, -3892, -5873, 2425, 3287, 113, -9242, -7931, 174, 11408, -1516, 5086, 11226, 1901, -2462, 5129, -17161, -1431, 8790, 1115, 4105, 288, 6851, -1869, 5713, -2037, -10690, -992, -2534, -11131, -4826, 6400, 5485, -5735, 6406, -7071, -2491, -3722, -2121, -9561, -1089, 2463, -2183, -1751, -1378, -1945, 2516, 1692, -3121, -3760, -3265, 8768, -14235, -914, 11454, -15114, 2547, -9866, -6279, -3485, -2731, -1495, 2079, -2906, -734, -281, 1, 1175, 9838, 1124, -372, 5861, 2580, 2910, 8801, -471, 5513, 2201, -2341, 7033, -625, -2144, -4627, 8830, -828, -8257, 665, 11450, 2228, -2438, 4379, -977, 7321, 1052, -5745, 754, -2544, -3272, 1237, -2422, -11884, 9925, -869, -1924, 10984, -4962, 14679, -2769, -545, -8451, -2115, -3555, -1024, -732, -6458, 5897, 5569, 2973, 12936, -481, 10069, -267, 12477, 3692, -358, -3490, -12146, 5581, -7615, 1936, 3073, 2329, 4472, -5688, -1267, -157, -7881, 8589, -8842, -4478, -1162, 644, -2659, 8000, -10449, 846, -4297, -5032, 29, 564, 17754, -13019, 2977, -7753, 5248, 8116, -6575, 1185, -5175, 524, 3744, -9898, 4139, 11826, 3264, -6611, -12677, -973, -8651, 438, 7101, 14814, 1147, 342, 3227, -7561, 1068, -8231, 1897, 8436, -1399, 6446, 10776, -1502, -2522, -9015, -4910, -1960, 2659, 1388, -1751, -937, 1717, 8792, -3311, -3209, -3236, -4634, 346, -1750, 10620, 15255, 1878, -3687, -13242, 2830, 4871, 4589, -11988, -5788, -6830, 6571, 9226, 42, 1640, -405, 10126, -2965, -5634, 4149, -2918, -3401, 8922, -442, -9162, 804, -4087, 1767, -5296, -16923, -5165, -4214, -6306, -2725, 7847, 123, 5582, -16603, 5291, -5827, 6890, -622, -388, -11805, -559, 3564, -12571, 3469, -3197, 2569, 3071, 2101, -4048, -6390, 13640, 762, 10821, 13867, -3752, 1185, -4618, -13286, 8067, -4798, -5744, -7769, -7093, 2134, -12883, 7367, -7885, 7661, -556, -2582, 7384, -8921, 3885, -4334, 13111, -4297, 1477, 517, -6965, 1749, 12152, -272, 3854, -7121, 5158, 15070, -7879, -612, 994, 945, 5393, 12474, -9569, -2374, -500, 15488, -5869, -8330, 669, 2390, 5193, -1518, -3799, -8031, -2385, -67, -5480, -9453, -18379, 5168, 12269, 1524, 6811, -10623, 7131, -8973, -1079, 5520, -3078, 8038, 1408, -9387, -4276, -1413, -1305, 5117, -3236, -4293, 1958, 8632, -2677, -5670, -1210, -12750, -9290, -12926, -4653, 2854, -8877, 8897, -2957, -924, -723, -1549, -7259, 1611, 1013, -6340, -4924, 5115, -5807, -8349, -978, -5359, 2855, -2924, -1520, -2418, -4875, 9705, -8274, 5436, 1517, -5890, 3831, -3073, -513, 14496, 12029, -7849, -2398, 1444, 279, -14455, -3843, 6500, 6453, -8828, -8403, -6616, -2541, -7262, -10173, 6531, -7272, -1930, -855, -9896, 4863, -8588, -1354, -2211, 1339, 12156, -1149, -11132, 17400, -1673, 1697, 4834, 4606, 9373, -1488, 2423, -10068, 8392, -10310, 7842, -1252, 9742, -3306, -12937, -12803, -879, 8729, 8093, -496, 1008, -11105, 1117, -3671, -2500, 19114, 1082, 10015, -201, 2599, 13026, 1121, -3826, 6570, 108, 2141, -4499, -1412, -4390, 1081, 777, -6520, -14283, 7711, -2323, -10492, -7902, -2266, 7416, 6213, 6346, -2353, 719, -10559, -2802, -5268, -3126, 3507, 757, -11708, -7089, 1950, -2250, -4581, 8894, -546, -207, -248, 2472, -3201, 8381, -9529, 4246, -5021, 8488, -4723, -6261, -3618, 1870, 851, -2440, 5952, -322, 5605, 7054, 5874, 35, 8776, -5888, 9766, -2796, 9057, 3831, -4120, -6086, 3965, 3789, -1521, -1804, 1440, 4616, 15631, 6618, 3038, -343, -5701, -7989, 4159, -6844, 5776, 3559, 2157, 8705, 2586, -2649, -2442, 2851, 4817, 2569, 1, -10688, -35, 19, -3216, -1371, -667, -5878, 66, 10138, 2976, -5724, 11579, -594, -4922, 480, -1773, 11836, 15726, -6241, -1380, 8199, 1674, 7714, 1826, -3396, -7586, 8236, 2753, 3790, -1721, 3456, 2161, -2201, 418, 2828, -5083, 18664, 2488, 211, -5926, 1472, -1241, -15200, -6753, 2881, -9132, 7538, -5376, -5358, 5007, -3840, -5440, 5712, 15783, -2363, -8508, -2329, 4090, 2594, 177, 3870, 2119, -8699, 9905, -2420, -5433, -361, -5604, 2122, -4636, -5592, 429, 4991, 6023, -828, -1738, 7736, 2014, -7278, 849, -11157, -4495, 2319, -219, -2003, -2364, -17317, -527, -5625, -2006, 10701, 10493, -12428, -139, -679, -17721, 709, -3191, -2216, -1338, 4689, 1434, 9884, -640, 1357, 5206, 4176, 6042, -10152, -10185, -182, -10322, -3826, -4805, -89, 5407, -215, 7421, -10326, -11399, 581, 709, -1773, -7460, -2831, -781, 5739, 15486, -11573, 2328, -3664, -7381, -1161, 1600, -12260, 11093, 1541, 13883, 3743, 2903, -519, -2567, 3474, 8701, 7419, 398, 1467, -14227, -2414, 1077, 6010, -1500, 4950, -5366, 5980, 7941, 1161, 4601, -5703, 1960, 1968, -4192, -3118, 5226, -5272, -3263, 8022, -3325, 13625, -9826, -476, 1859, -11207, -5175, 2733, 4560, 4746, -1233, 1439, -2050, -6523, 1083, -3670, 2449, -2904, 687, -15098, 8418, -8022, -17569, -5068, -8141, -8895, -2, -9551, 7716, 3758, -860, -5573, -2496, -1670, -12268, -10039, -4286, -2803, -4853, -2836, 1662, -3705, -130, -2433, 2455, -9217, -8836, 2093, -2161, -1649, -5018, 1579, -4738, 11665, -5237, -11850, 6799, -1722, -8471, -1887, -8331, 10879, -7446, 9594, 2432, -2866, 1260, 6567, -3685, -6464, 3826, 6343, 4657, -521, 1485, -2358, -2036, -4349, 16940, 8191, -10784, 613, 4230, 4868, 4050, 2249, -6364, -8076, -6864, 17857, 11078, -5238, 12402, 16714, 3460, -1157, -3131, -1023, 5169, 2778, 7616, -5498, -8373, 3433, 2719, -1814, 8991, 5100, -2984, 11675, 13028, 18683, -3650, 1495, 4366, -706, 945, 4311, -4346, -9894, 3571, 2745, -5775, -3873, 8671, 12669, 4791, 8172, 9180, -520, -238, 3368, 1612, 2561, 8552, 3730, 6385, -4895, -4984, 920, 2515, 3289, -9357, 12517, -2629, -7483, 1873, -708, 1239, 20366, 5806, -1109, -1672, -6012, 13181, -4428, 1661, 3546, -6212, 12436, -1231, 6278, 7227, 6925, -5842, -1203, -14533, -6305, -7666, 948, -72, 1432, 5297, -2797, 2476, 11410, -11523, 5431, -14116, 3770, -158, 7658, -3521, -708, 15215, -4831, -8890, -4270, -9102, -7206, 709, 12574, -4444, 5164, -15853, -5758, -3439, 5949, 276, 2326, 12866, -946, -9809, 588, 2881, 1485, 12553, 7827, -2367, 8582, -11038, -7594, 3290, 8916, 370, 4433, 1486, -8816, -5390, -3041, 798, -10403, 2190, 7474, -5797, -228, 7939, 13084, -3550, -5253, -7834, 897, 10754, -6742, 9135, -9857, -2382, -17349, 6649, 12885, -6711, -3246, 6044, -3309, 3594, 1596, 4099, -1400, 4733, 103, 8908, -1303, -11344, 1240, -6342, 886, 7409, -4237, -2062, 4048, -2779, -397, 168, 10175, 4073, 3758, 3536, 5756, -6928, -2070, 7544, 12322, 2495, -13366, 3106, -102, -5480, -4374, -10073, 70, 12815, 1115, -6557, 8317, 3030, -2646, -1960, 744, -5628, 5273, -536, 74, -2492, -1704, 6453, -2187, -6582, 6969, 660, 10078, -4993, -10049, 5294, 6307, 1845, 16025, 3325, 1144, 5235, -203, -1602, -2339, 4799, -4723, -6869, 5647, -2885, -14553, -12392, -11213, -644, -1368, 9882, 4840, 2640, 9069, -4646, 3800, 7525, -2021, 8120, 6031, -17334, -4030, 3485, -2313, -4096, 203, 1084, -713, 1285, 1846, 2428, -562, -3025, 5561, -3191, 2866, -7200, -4052, 2000, 1481, 7324, -6414, -14763, 10840, -5963, -400, -5647, 10294, 1525, -13004, -13565, 9183, 546, -15445, 6687, -11604, 5136, 4689, -622, 1447, -5102, -2852, -2243, 6201, -2797, 48, -1013, -3534, 4520, -3699, -1169, -3329, 7503, -493, 1753, 6348, 7441, -1182, -3393, 6057, 8378, -6149, 8663, 4369, 4832, -5191, -14822, -1034, 10316, -1871, 709, -6399, -8367, -5695, 2218, -3520, 327, 6058, 9263, 9134, 6380, 2639, 3398, 8173, -2749, -10, -6819, -4285, -3985, -17619, 3387, -14147, -4233, 3255, 7445, -2749, -5359, -649, -7707, 9284, 2386, -9098, 2688, 1479, -6721, -7429, -3827, -1907, 9894, 3750, -14413, -1460, -397, -4868, 1812, 3993, 9217, -108, 5483, -10939, -9004, 6987, 9804, 384, 3857, 2531, -804, -7086, -5437, 7842, 3763, 7371, 6539, 3392, -5141, -288, 11995, 823, 1188, 359, -5820, 8401, 11319, 5841, 11144, -5922, -1833, 2451, 9802, 6993, -3301, -9736, 5638, 3636, -10975, 9588, -9305, -2750, -7377, 1403, 1736, -2005, 9996, 7171, -1357, 1035, -5701, -2771, 5361, 7506, 10022, -3067, 3644, -4597, -5026, -6090, -3129, 130, 1115, 939, 6461, -3082, 3727, 4962, 454, 8923, 108, 6087, -2448, 2046, 4273, -3850, -362, -5253, -2816, -5995, 1471, 2632, 7931, 9973, 2593, 6818, 10461, 2241, -363, 8501, 3758, -9569, 5057, -1330, 5794, 1444, 10313, -9295, -8436, -7052, -4938, 1284, -11398, -1183, 4156, 570, 11431, -13324, -11482, -1220, 11519, 2999, 3129, -758, -7603, 2696, -9135, 7500, -5281, 3576, -718, -1042, 5706, 703, -376, 3707, 7655, -13945, 7101, -2565, 10088, 4864, 5001, -6497, 3089, -10672, -4452, -1380, 2988, -510, 7187, 7916, -8275, -3572, -6373, -7732, 3869, 1351, -6720, 9043, 15092, 8221, -545, -8940, -1800, -2984, -5784, -13240, 715, -5638, 9215, -1412, 2819, -322, -14261, -5025, -9268, -8592, 1410, -2979, -7703, 4445, 5328, -9520, -789, -15350, 2311, -9945, 5512, -2009, -2633, 1446, 816, 18498, -2497, 1244, -7731, -5889, -7534, -9809, 2865, 5136, 9693, 4008, 5948, -2791, 150, -2301, 5280, 6016, 12691, -3899, -3191, -13679, -2679, 4607, 7123, -6688, -950, 15979, -8003, 7981, -1596, 1509, 897, -2723, -2261, 2957, -11182, -14216, 842, 12864, 8360, 8951, 189, 7382, 7274, 9850, 3954, 775, 5818, -7375, -6628, -2907, 1180, -1931, 438, 2177, 2334, -9485, -9735, -11339, 10015, -6999, 2633, -187, 7061, -1685, -1818, 9883, 9793, -6261, 13644, 576, 728, 807, -1749, -2297, 5879, -5270, -12240, -3905, -6071, 1577, -10673, 12308, 12786, 7478, -3985, 5621, -9603, 2237, -12789, -1279, -3451, 11195, 2150, -5500, -3519, 3872, -3853, -9685, -13412, -1607, -3040, 6133, -1459, -16959, 5468, -1217, 1828, 4835, 1288, 4815, 1692, -741, -12023, 1476, 9123, 3539, 13007, 1176, 3348, -11469, 7946, 476, -10432, -9865, 753, -3107, -3288, 1484, -4343, -3159, -9953, -5256, -4625, 3501, -1320, -5956, -431, 737, 450, -12263, -7124, 5770, -1020, -209, 3877, 8394, 1062, -455, 5181, -12392, -9665, -9012, -7079, 10034, 7942, -3312, -12176, 2035, 4674, 4944, 559, -1769, -5368, -2160, 6757, -3804, -1473, -1731, 14612, -8089, -1581, 2248, 207, -8823, -3848, 5289, 14575, 5553, 4069, -5745, 3760, 3278, -7838, -6395, -2768, -12484, -9506, -4902, 5054, -10733, -5037, -1621, -10393, -6554, 6022, 380, -7303, 5849, 12544, 4948, -4912, -14282, 2759, -2882, -3, -14067, 6107, -2585, -939, 12022, 5161, -6961, 10045, 4649, -7636, -8868, -4833, -10654, 6614, -802, -4838, 1599, 1071, -4251, 370, 5340, 613, -1883, 4194, -1928, -1171, 1678, 11305, -1209, 8748, -10129, -8374, 376, 2656, -10475, -7199, -14391, 8721, 6578, 1294, 10723, 491, 3153, 4443, -3562, 1618, 6911, -3551, -4775, 2274, -12624, -202, 925, 3676, 3991, 4687, 9437, -1424, -1514, 4537, 1692, 2257, -199, 7815, -187, -5105, 2715, 1026, 4063, 3374, 8458, -2474, 1830, 5227, 7749, 10486, 2205, -5152, 758, -2861, 6957, 199, 6987, 3933, 6192, -7591, 10544, -10147, 2035, -2853, -5542, -2475, -1296, -49, -18287, 640, 15218, 864, 11982, 1304, 1145, -13093, 1614, 12510, 3913, 1150, -3128, 1609, -403, 1626, -10208, 11484, -1581, 3710, -2659, 1225, 7625, -3161, -372, -278, -3598, -1686, -2404, 5661, 1855, -2417, 4759, -9947, -9385, 3926, -708, -962, 5562, -11412, 659, 12721, -1312, -3554, -1968, 10922, 479, 12265, 1326, -12254, 11665, 1339, -6359, 407, 530, 11844, 6105, 9935, -14260, -7815, -10092, 1353, -9579, -319, -3440, 1321, -5189, -19663, -9166, 8972, 2821, 12585, -12621, 9901, 6508, 4673, -5273, 260, -10977, 5798, -10233, -4569, 10780, 898, 9542, 7883, 480, 2547, -12441, 382, 5200, -4741, -9329, 2743, -13773, 130, -18349, 2442, -121, -13867, -4609, 2701, -7621, 11140, 14699, 855, -15591, 1277, -1544, -3835, -21091, 841, -7593, -6058, 9069, 9554, 3264, 5162, 3815, 3916, 9326, 7594, 690, -9901, 3898, 6862, -4661, 7379, -3262, 8590, 2520, -1099, -1283, -10447, -633, -2470, 505, 13360, 6637, 1971, -3867, 7588, 784, 6049, 492, 11218, 9730, 13914, 13673, -6218, -727, -7512, 1186, 3634, 12069, 12127, 12780, -17441, -1100, -13462, 5801, 2305, 3129, 12598, 5726, 4129, 1225, 4504, 1139, -2711, 1823, -8753, 3954, -5993, -1683, 29, -4025, -3318, 4243, 8008, -2550, 4164, -13734, 14509, 5467, 8705, -13552, 10325, -4968, 4062, 2463, -4575, 1578, -1432, -3582, -5224, -2506, -1309, 1763, -8395, -5547, -4560, -4976, 3109, -82, -3980, -14450, -10067, -2769, -1105, 7852, 2299, 428, -6789, 1911, -997, -4552, 6610, 7242, -15755, 6574, -18943, -4430, 4163, -105, 1901, 3716, 3450, 11576, 9168, -2734, 234, -2144, -4987, 14649, 6939, 11333, 2838, 10716, -9724, -1108, 2115, -4722, -8899, 2475, 1443, -2766, 974, -1636, -1359, -17201, 11820, -8481, -1425, -246, 10433, -15983, 2182, 10924, 11023, -4215, 8863, 1653, -553, 59, -7240, -5388, 1618, -2780, 1678, -12199, 1725, -1486, -134, -15822, -3713, -1205, -8002, -354, 10168, 485, 2188, 6009, -1409, -14381, -2480, -2693, 67, -9450, -10260, -11511, -24, -752, 4196, 6974, 1859, 5685, -5967, 5558, 9029, 4807, -4829, 3912, 1770, -14520, 11413, -6374, -1761, 5871, 423, 6432, 14228, 6393, -1399, 7352, -2594, 4853, -10099, -260, -5378, -3986, -560, -1258, 1393, -1791, 7676, -3630, 2068, 191, -10313, 2016, 4393, 10832, 9889, -811, -4540, -6868, 6117, -2954, 6157, -1316, -1485, -2221, -13194, 348, -10592, 4862, 5992, -11328, -195, 4, 5112, -3614, -1117, 8589, -1146, 8202, -568, -11291, 997, 5051, -592, 6942, -9927, 11038, 6430, 414, -7200, 8474, 7964, 8760, 7561, -7372, -2348, -4012, 9649, 800, 11396, -6768, 4448, 412, -1993, -6081, -439, 1995, 4915, -1722, -2135, 6111, 4033, 1386, -3157, -14555, 5515, 3030, -8338, -428, -926, 7974, -1257, -4583, 7193, 8897, -3927, 2694, -12877, 12248, 5899, -3020, -8066, 3466, 5785, 7716, -1099, -3301, 9538, -8258, -2041, 1054, -2760, -2450, -3632, -9494, 6613, -3367, 10999, 4815, 8872, 15761, 3572, -6624, -14985, 227, -5105, 1144, -8094, 2386, 2375, 7439, 3022, -2377, -12582, 5857, 643, 3826, -952, -1298, -1672, -10215, -1646