-0.011081968743855268,0.02215161786272549,0.01719369484834048,-0.028122884839700067,-0.014517497434869114,0.03363012485437718,-0.006561345551866604,0.025184332413563562,-0.005539988619836979,-0.019940152263371456,0.010756885974522385,0.010106427586679963,0.021056634241552828,-0.017393506541681755,0.02628322150535234,0.028386128722215773,0.004126484222861937,0.0033876492805789333,-0.029171922195635927,0.006568150110929102,-0.002141347955428387,0.007535905116423126,-0.013878349108539061,-0.009449439820572328,0.021639312310937686,0.01034229899650286,0.023392902997520924,-0.02166036309520061,-0.028292758201356794,0.030401804224874873,-0.03266886193954512,0.02105432766893248,0.01879545558535547,0.009440532660625256,0.025947627659369834,0.02747522382164123,0.02030310858162921,-9.254328663706081e-07,0.02819763834455614,-0.002337942982046668,-0.025099151242539378,-0.007332267478349866,-0.029775744157364326,-0.01944984287060914,0.01338269951817429,0.01033300596660436,-0.017206361177465695,-0.017926546758137814,0.023641797180385497,-0.026763364004241882,0.032110492360502126,-0.035259363166971945,-0.02482540866463138,0.02223053936664424,-0.008288810732526082,-0.027602147162112192,0.02566596378246966,0.03268053980068511,0.0005743421892191348,-0.013946430103491862,0.03326255622045034,0.025227316788512772,-0.03204772686802091,0.025289789630169816,0.029766414040286487,-0.017468990969394863,-0.00249402642695109,0.015048228772053817,-0.02070117252346987,-0.021544665759401636,0.001203345582636929,0.018384960054866124,-0.02693480145369486,0.02231902117783898,0.025341311829396026,0.00708649931341099,0.0038628066853400632,0.00500406637230815,0.011921328847224785,-0.028949631266144187,-0.015373165652965613,-0.02189857247962948,-0.00754951077450602,0.010704609379411534,0.033482376191808064,-0.030201931565624077,-0.027041073957070467,0.021971493546087066,0.03323235846426614,0.0075842996251933486,-0.029777574320241106,0.006388393621389356,-0.026184788374908143,0.008866594021513168,-0.03872697360017874,-0.033925275072797426,-0.0022432234814848697,-0.009380850273051713,-0.01109134347324354,-0.027245955974941855,-0.0616968221109536,-0.05924698848970128,-0.05652200101975585,-0.007716949138156667,0.00975923073238972,-0.007104982931898715,-0.019547717574310567,0.021917718684527417,-0.017568369599639738,0.007460872874832955,0.0203490706730274,0.03388858640543259,0.020667418690771877,-0.01187015734796632,0.03349285662199377,0.00757415894604285,-0.020461480565114192,-0.02275377883392254,-0.030532740064963176,-0.010035506339487516,0.015181183146528943,-0.04699848594885323,-0.021690382461720985,-0.04008695181882137,0.016470597892213498,-0.004442315433510715,0.004653695018443409,0.0021280981532964933,0.02241705244647202,0.021657877200261175,-0.005403557310982485,-0.052752423968628545,-0.011436116674310581,0.010798237846256402,-0.0041336703029976945,0.0004312369993205153,0.019312514045791037,0.011993452454851354,0.018306565304760433,-0.004761027119074542,-0.0014475547336542738,0.01554852438465441,-0.015358543855038561,-0.029284341212164,0.0018169502128311018,-0.04156767709785107,-0.02184643364581566,-0.010921837309686037,-0.06562009720774419,-0.02011503927700228,-0.061900534634296726,-0.02045585757201544,0.0007987246407263291,0.014463623164439419,0.11068088139923583,0.06197508402410627,0.0640534062134997,0.1037252437090301,0.04441173508572153,0.011406020499415585,-0.026558985789468508,0.010921700995926011,-0.005738026232289366,-0.03456371828891948,-0.014935720014758219,0.005138790646216716,-0.02152285590359707,-0.01800117294134217,-0.020035344936591426,0.030443082773277997,-0.008255023354188498,-0.014979299676777663,-0.0010978078782433898,0.013486535778113137,0.0017627204293246637,-0.007287558405279338,-0.01655368275070574,-0.08198846426015138,-0.012796602169511073,0.027508029252450425,-0.004338411948912983,0.04050415924866356,0.04469186989156728,0.10804157664679734,0.13122336322975822,0.1279991825228999,0.08048166421604694,0.05992652483121474,0.053347283225403504,0.02988654032498945,-0.03115279265178876,-0.06000682214646816,-0.002584822331939532,-0.029933318646366534,0.014914800641248687,-0.02129279931256719,-0.015154756901862073,-0.026372239566627296,0.01826609738675475,0.02374764894729923,0.0025267320717649584,-0.02560794933420242,-0.024526887518195907,-0.013277607501998023,-0.05865022984215817,-0.0101246393534733,-0.037383657357852366,-0.0013834488571611474,0.05997032001697138,0.06402924362488972,0.023645498640318865,0.11116010133340642,0.12466098598206043,0.1388023139145885,0.11585089895776363,0.09939751636435284,0.08399708306842617,0.053441681772161985,0.025214114890597963,-0.028124653192356047,-0.05157715191019843,-0.052431542313029864,0.007037804248615057,-0.01775889267316815,0.03160675581126368,-0.003496751402292025,0.03237296737213253,0.010650771470169535,-0.04726863240832562,-0.04763359219029195,-0.0019686352525189895,-0.027831031384659838,-0.03417384806555393,-0.02415325509754025,-0.0335894836956912,-0.0006772575430176454,0.003382993676381147,0.038356923421317295,0.07968789564036949,0.03753092419044729,0.12654540103546114,0.13821126887648466,0.1485264424651259,0.0874757119012516,0.059239432489300824,0.038422576568627465,0.07689407916061318,-0.0061659616492783734,-0.052041879128240515,-0.005168510740977107,0.02410063979801498,0.013719381204320768,-0.03124547861975219,-0.021891166470175326,-0.028009294003449425,-0.015414516045102055,-0.008152972234492963,-0.05233990831724189,-0.03077443297853232,-0.005447727032244395,-0.03050715130989866,-0.012883018080856507,0.04061284846926238,0.05544303273791545,0.05984336714912076,0.03525125768352968,0.042570658668335065,0.050074154004781955,0.0036171039291800133,0.042776505371642064,0.09980788312679757,0.07127884666113249,0.12127526374417544,0.05150480171687468,0.09955038054997427,0.050745304617256855,-0.029721747525429422,-0.017678761254314224,-0.015521362016011364,-0.028766567849090364,-0.02930124776410553,-0.03271329458600512,-0.03558114935526758,-0.0322784599043965,0.0076550729549804035,-0.046749799900662053,-0.022557918033230675,-0.045566746263357404,-0.020347493330681955,-0.027977198377430436,0.03449162368415466,0.05333900608664136,0.061366506535538955,0.05229032261851978,-0.014324885227833128,-0.06677401796641498,-0.046927550149778334,-0.004008405273864122,0.06773172887690235,0.06299794029381768,0.0881560302054199,0.08260381634156076,0.13097102032251137,0.10465344850229895,0.005044997755310101,-0.007867617215076367,-0.0044192558478697375,-0.024331508648629565,-0.01717547208090776,0.022182892717613492,-0.007275065944062368,0.0029993529663674195,0.011844428975696781,-0.05282865298830788,0.011328567865552468,0.01579277459918651,-0.009716017255078016,-0.0050830390200449025,0.05471434212762471,0.060945732229822865,0.06075299367837842,-0.02350732774813712,-0.11220179088542627,-0.13559898404972562,-0.1780539907288678,-0.11183876221681675,-0.022136008506499254,0.055696717681147104,0.09583123857104833,0.10710520245916784,0.12787886239796933,0.11807882169063318,0.06249888875794338,-0.02679773994154767,-0.013109456930342243,0.01073924457177265,-0.0237479823296128,-0.007391384924670335,0.0083493859517111,-0.009363713452133183,-0.018136007439953056,0.022980922359730097,0.06055682022968526,0.059994628984641175,0.020097878569330353,0.0229576234882534,0.07089190985351022,0.04859630186373547,-0.005175658544928413,-0.07640426602084259,-0.2084949605630186,-0.227226508040977,-0.25974670186559573,-0.19876757950653107,-0.0809927872615748,0.029007357900463267,0.06809009818957382,0.13731505603568384,0.17812149418048642,0.163842835154933,0.03118401659672943,-0.007736251381116458,-0.01863455570537986,0.01687883030835974,-0.018075656017951785,-0.019763166191503565,-0.030954243595912073,-0.03499502486028523,0.010777014127969085,0.05411980775087038,0.07147842884349237,0.04876991250606538,0.08080614628910052,0.07504191243377038,0.10822379149174952,0.04026170173153666,-0.06888693681178884,-0.16096015273881817,-0.23807740802451258,-0.2979518952189712,-0.27280674244482384,-0.1985037516644911,-0.13238126388294824,-0.01653476507282493,0.06185662071172019,0.12489240484676309,0.1482505816278087,0.14212841938501122,0.04832519303806627,0.016182762605624845,0.022860331265450246,-0.02741206118009267,-0.015810275026687554,0.010350690936813036,-0.03452767229077803,0.012008381463103677,-0.024689480809928638,0.05229419811897582,0.049060999444336215,0.0744991589815786,0.05939512584743633,0.08613065283223775,0.07508506568278002,-0.008111716405058627,-0.128964037448327,-0.22700710850832234,-0.30851780199206785,-0.29235491490404364,-0.2737318944999545,-0.22746568460482036,-0.08810208188321011,-0.01890189487812263,0.04726075986571585,0.1110258218710152,0.1380686512488588,0.15998412380100605,0.03564150806599555,0.002552822679922397,-0.03294036607707929,0.016290763918990862,-0.019114340960686548,-0.02471598507765683,-0.007736006893106452,0.0008083165995663381,0.026339374648897653,0.034266041117463786,0.0927146524590964,0.12347466456982605,0.13705676235853975,0.13928283776655306,0.10250674295474904,-0.03185602177244792,-0.21008301225254686,-0.2925072733670934,-0.2923610862071666,-0.2989031490779511,-0.2872544344166707,-0.13872019888412612,-0.07269965263560993,0.032682129505239514,0.06857956526014175,0.04991262671014831,0.08145069526679431,0.11480478184316814,0.04150895301875421,-0.006510208348512462,0.012994121593016675,0.03426292499757852,-0.0066069795044984315,0.025650846860149127,0.021872147951636098,-0.0143178507838571,0.006274210568932655,0.06495436673077981,0.14145797642213315,0.12353086411533641,0.14496307834403008,0.14862272784926794,0.03408273479881332,-0.07288982844320208,-0.16134443042877764,-0.2622963469934738,-0.27162244617264975,-0.2916262204271489,-0.16924963689913858,-0.08919090660875618,-0.030651333479112232,0.01621347468588465,0.06211463791378452,0.05655127277136217,0.10970222550371432,0.04827585907294627,0.04772135682110623,0.019903958975676598,0.02073855996510091,0.0244129042329745,0.006302353566119134,-0.03505973343082213,0.025618115434346302,-0.034026910047764355,-0.013937956843221643,0.05638704092021527,0.14116620852593478,0.10357499474069533,0.1639856343464323,0.1324449217742776,0.0389724136466612,-0.05232928894042024,-0.18254389422983353,-0.21225389846474416,-0.22221125374656023,-0.18157494104172855,-0.13991773821438877,-0.0002861279534916226,0.006575903488095515,0.0483130760608406,0.06665444473901017,0.023079419498604658,0.06693046919799495,0.01709671183959417,0.008603287738402724,-0.022590893591238566,0.006654960175072267,0.020872192351032513,0.03358468385139281,-0.016996182066301123,-0.027860295645775142,-0.0163315103205251,-0.030608326865851184,0.09481896107065427,0.12747865221976085,0.09117071360274254,0.1282417528691646,0.16037412198657502,0.05873935356364905,-0.026869326012378736,-0.11865576416221679,-0.18121459307575327,-0.1554564433580912,-0.1099226596647549,-0.05735056400124814,0.022684709069043844,0.04319009026241313,0.03131287784057716,0.02824181292950248,0.009800882304076086,0.013129998707836646,0.04813970110753397,-0.01994493188432499,0.02395829038200948,-0.009967336610997619,-0.018636833888448633,-0.004624056146868468,0.02516030836655739,0.014634271894878254,0.01108421761524521,-0.03721060008551765,0.021742011671646754,0.07401207077250006,0.1287604645922037,0.10786171315705266,0.14336602704916263,0.09548430334342581,0.022928770452273036,-0.02568767697338205,-0.10718068533851446,-0.08664061042285139,-0.03008000249576795,0.022877273955929617,0.0023927308484282105,0.007112711284484246,0.004270140066293793,-0.018469839664276635,0.01696878202947988,0.021071571677341604,0.017511871805363028,-0.015761130854258405,0.010000909380808023,-0.02490010563596152,-0.031747032493458664,-0.013661350061282305,-0.022956968234046162,-0.0009253138338742203,-0.01500082075442146,0.023543907742341007,0.0030654175642993507,0.061676839179043125,0.07927478636236236,0.13430484087975286,0.10136116741913247,0.12628686717790036,0.09578926973473334,0.051780473825407965,0.008271041424236788,-0.026125180408373853,0.011899603049013604,0.021081515716769254,0.043150720280996264,-0.000660275681617155,0.018886858406743045,0.01976649071020683,2.7137422810946774e-05,0.0062995660294636446,-0.034612513241044876,-0.01772675600115264,0.009393997121541646,-0.0103303401386932,-0.014203373369719594,-0.0328673913911203,-0.028728139317286575,-0.01259663156917212,-0.035761622459919644,0.02096728759052921,-0.007909615803144464,0.055049103166807445,0.032453471222257724,0.08348557758882516,0.11163688741044946,0.15377652710261128,0.1209091874616031,0.05250093506801626,0.012316297090403466,0.05247723809547534,0.03501189317199782,0.021223025478605287,0.009311076698357434,-0.028668519560351147,-0.05476751068184479,-0.04470546957313761,0.012508706082706784,-0.0315441486057148,-0.03438815298795643,-0.029575642984753094,-0.028393037968467462,-0.012703101163076375,-0.023170552488190128,-0.002765757791498521,-0.03506426660220707,0.02020125007467027,-0.0373299973221915,0.01469261734576191,0.005968557493684869,0.04033156790945373,0.032376153625259266,0.0794471978211197,0.08309568848050215,0.14219829195825767,0.15505141671500514,0.14187009926765323,0.1318263168201731,0.07421733297370388,0.04529440724518741,0.03329896069202137,-0.00019168324197497502,-0.006428905266953049,-0.007931625590502617,-0.05195702692972224,-0.04916406679447678,0.013632697310073992,0.02774580549022103,-0.005592897194843846,0.014198216827973273,-0.007858763550118901,-0.033029476991140956,0.005011151867306123,0.004830725179934848,0.014449565498649114,0.007254117095748117,-0.013988484270694334,0.02604238839776161,0.005957420476570672,0.01714323740847301,0.01005381888326354,0.02270931458231943,0.06649660267028752,0.11857802892334678,0.12294418302849924,0.09497851961726861,0.09165338137233325,-0.00030821808846216107,-0.014192428488864385,-0.01152618445829585,-0.07691391421295073,-0.05387588296889616,-0.0013283163769249242,-0.055628525260393386,-0.02686110183001913,-0.015420082559744957,-0.02109641655825324,-0.010128677134060744,0.02370177912034809,0.011722753412064373,0.0016572079512234667,0.018618239686705593,-0.03389052399143633,-0.01480589748501453,0.03259988059817499,0.016040778788222354,-0.005745451548758797,0.0037753585810988465,-0.01867332875717728,-0.01219559432668739,-0.04547441929056113,-0.027184182007625613,-0.03078362293255894,-0.027224242873914735,-0.03538461012789708,-0.02133110555547911,-0.03517179826561146,-0.04220461003076407,-0.00395202928907793,-0.03719140101396136,-0.050363174997192624,-0.02463342141046687,0.014119396840410962,-0.0022650886407858573,-0.032911221800907636,0.02832023221399318,0.004173723534058127,0.031078658405236635,0.028586075951455577,0.010046341506344432,0.022218975062831974,-0.008600117734583987,0.02801630263853883,-0.012662714241484166,-0.03265111978187117,0.013192990410783314,-0.01722077067700265,-0.057048886565858915,-0.06219620016238562,-0.07169787006532106,-0.039821516842804286,-0.06234081402574341,-0.05035024482647817,-0.047831309702265706,-0.006844214900363347,-0.06306224416094204,-0.024829655539163786,0.011434574767339147,-0.038639217656274365,0.014093783343746273,0.03071815292571077,0.032639383105073715,-0.012429230787470139,-0.027914882022370267,-0.007373366509664445,0.027307151671230767,0.011031296528573336,-0.011835157550227285,0.026179474109211072,-0.0004031696291285556,-0.004214872156381503,-0.006064235011657184,0.0045781463384919835,-0.008058234121974501,-0.010062671217602829,0.02317321453826022,-0.03671481819639755,-0.03563820480538035,-0.03455380492594149,-0.02034851614398694,-0.04557250133338391,-0.028595889982869913,-0.0376514366707439,0.012227704181552827,-0.019611052665217583,0.0031399888042849336,0.002023138510689318,0.03298665731578793,0.009139850842481997,-0.023041167950387235,0.01839319558022086,0.010631618962077687,-0.02854235255473918,0.014426799230723875,0.029396705746437424,-0.03427278785309001,0.018547889543988463,-0.01941170521105304,0.0034417863298065385,0.0198093075491044,0.027353399489107106,0.03227097390496135,0.0024788057868689694,0.021011962855521205,0.004571837140640937,0.0011755776962683458,0.03133206329748848,-0.02195349088611601,0.03094390073364344,0.02083848708898029,0.01656211341506825,-0.003072592988031814,0.008216871691562261,-0.003507159601896849,0.01530692805922509,-0.03492819187511181,0.03128622791935813,-0.02085055753695217,-0.034355342149024054,-0.02065535384787669,0.004461136682777097,-0.023022778936242872
0.02740662979023466,0.023842812269346297,0.03383209779293783,-0.03281332302053059,0.03085017602486135,-0.018689892498909868,-0.03014113753647687,0.0004167113591837682,-0.027751631267232735,-0.012184835656828057,-0.03276814499014681,-0.017445153290589717,0.02950867487538404,0.002068220072344926,-0.035013391648192595,0.013379663680027631,0.020677391656795534,-0.015867832585087543,0.03530379776710775,-0.015789180622596256,-0.01735841393974472,0.017982360597425962,0.010427811151856219,-0.01793841985531806,0.0031591880935197504,-0.02364349513360893,-0.028537992259391614,-0.01698422432314635,-0.020401331413807573,0.013648228137414793,-0.014624172847756689,0.026743971713721115,-0.0016854827639591974,0.03139865890186334,0.035584199553787894,-0.029388276709074995,-0.0009076447443931836,0.001961363135290855,-0.008541953040400284,0.020766196376978196,0.026141569637657885,0.0044923637396843364,-0.026994047862842836,-0.015522449947319666,0.028619574187038945,-0.005676300441716514,-0.022179886507242667,0.018475925912892446,0.023794588881372546,0.030578215242437076,0.028955453334665624,0.012009302017455994,0.03338432664841288,-0.02135669017281386,0.018851189163790652,0.018210855474035288,-0.033893870766563465,-0.024269843793798936,0.00516066732689027,-0.009533379987946643,-0.02642469097483314,0.01567450426546446,0.010818267022913225,-0.015496998783395444,0.01273346875941836,-0.03694519576263245,-0.006196194674781269,0.013905855298224933,0.02541534539509356,-0.01315204841911495,-0.011681799282668126,-0.025205061114460157,-0.03610011567368842,0.021219455353425197,-0.004475280073848293,-0.0152341736429867,-0.010031920452338921,-0.013348542105221246,-0.016589016347539527,-0.015122342808006723,-0.007089738890336822,0.018970058569463388,0.027280406727632076,-0.008321393655002705,-0.007863579563802514,-0.0007643163050614393,-0.03082435139789488,0.001234811039880412,0.0012776964041088972,0.03320791084194647,0.02281275974151769,0.004198492943142449,-0.011459483914117915,-0.04471382249444461,-0.04132369607791672,-0.01736168473436479,-0.011048200212364384,-0.02457758595455141,-0.025212927517213855,-0.015789099743091763,-0.028455364769019015,0.005004223031160015,-0.04506093741551653,-0.04951156804768114,0.012267113900223312,0.024973531263198345,0.009981079944229785,-0.001420254270973346,-0.03226434850058952,0.007841946950396982,-0.030743455611252146,-0.018884832232631914,-0.028973548453453322,-0.020864909744679565,0.008191549698843491,0.006118990088883511,-0.024120034550945416,-0.001268014734033804,0.02766082780774555,0.003053267969765498,0.014610038060638587,-0.031120289321634218,-0.02385778574915478,0.0037271248972624077,0.0019058182740328044,0.01524887141690087,0.051829869321963457,0.03371250024640177,0.02128006427056135,0.02305638253859097,0.02029921918424479,0.056355644540133074,0.06123167736906504,0.008695523793302516,0.009272442338045486,0.008652126759311514,-0.006535271124667883,-0.03387430082730343,-0.0213316170729011,-0.023073928932922646,0.021041719434504152,0.008378305386878566,0.008193789152303125,-0.020718486291303653,0.03164143978086141,0.022966800904889003,-0.016388857584839975,-0.02886439314513534,-0.03595759597030082,-0.0852988180257563,-0.09177313394504383,-0.010045435765278563,-0.00039114315586852647,0.06645588097304496,0.029416900403451445,-0.0027858390186590587,-0.004606122366758107,0.0009368682081225027,0.002129022230967731,0.03150103880289172,0.06305569327014429,0.08670788978954312,0.05207384618075916,0.032084770253209924,0.021918906921740634,-0.006293024492074926,-0.0356616088448354,0.0163625825757442,0.004554344363311718,0.008586538765310212,-0.03517400976015522,-0.029687312548851322,-0.0076943677088807585,-0.03223775704968737,-0.037515193634714054,-0.007527314753730643,-0.08304019569654396,-0.08149925846440823,-0.108729075635714,-0.10342620004171187,-0.04221936012246104,0.00019621201652158892,0.010946236380789443,-0.030158187631720863,-0.06571522443257566,-0.09125744292170943,0.015842589656679902,0.029395053102530357,0.08235924289745142,0.0024750956420750477,0.012909222085790581,0.0023457311188818733,-0.007089424848420896,-0.023654170856150507,0.026771373141587403,0.029239074089376697,-0.030604739596328236,0.020263535752781753,-0.00422878089098594,0.0007715798619624183,-0.014342099041611671,-0.03503690005438075,-0.05366117676315865,-0.027111452678024242,-0.06688256245138992,-0.13099989285123054,-0.10133244847893577,-0.16008698691494466,-0.10618424952281653,-0.005912594215222652,-0.041946965870884076,-0.09008732565863864,-0.08950819830093588,-0.04825455558164901,-0.04280878856499619,0.0007649442867981878,0.0076050766627696635,-0.03463464955469864,-0.030270293391123748,-0.007907474864328967,-0.039250968951170806,0.0015712522068032737,-0.026036585391877858,0.004967670289625883,-0.03440318366614568,0.033151721239278086,0.024203176707303244,0.019719620948484253,-0.028379129798268385,-0.019945835857260227,-0.05449417424322404,-0.05621188422663488,-0.06191839411539745,-0.11240427124050424,-0.1756246152292538,-0.11874819749668326,-0.06939369685381623,-0.04325297128474259,0.038160018163806694,-0.009079406627426623,-0.005327367656369972,-0.031864894998979834,-0.017497542786773877,-0.007894560074707678,-0.07719156932213653,-0.04880911556632254,-0.07933862325529799,-0.0655438949085649,-0.03973251504694769,-0.01474734503977742,-0.026128574019929535,-0.03574249578680778,-0.016845353818771894,-0.012766093017498883,0.021929902559894278,-0.006267596682979892,0.012991801259997103,-0.04916877354152537,-0.011774500115317207,-0.08872205785541223,-0.10317358966993943,-0.11236961383882685,-0.1262000312324932,-0.17166630041819794,-0.05683750185635614,0.024500109292160312,0.15187530625061196,0.12188491578511926,0.09410506219335492,-0.018229310880027397,-0.014414607440596557,-0.06410951345315839,-0.11610770316414158,-0.13194820620096578,-0.0689071288822575,-0.03403236253574565,-0.07035822706639644,-0.01592393168233271,0.026147917390524567,-0.024939518478784384,0.02867534704072397,-0.00709091823525668,-0.02054529147864446,0.028042530286669514,-0.015381450811626264,0.009724999511925762,-0.04144511951526433,-0.04499376709476457,-0.05398900299323312,-0.10508192635256168,-0.1316791150688264,-0.15984955419317265,-0.07161452636116655,0.06246423429129397,0.19977542988691935,0.2972462688204369,0.1089927672098437,0.0075248752921022385,-0.09043333231642274,-0.08365161204764009,-0.11806788535935342,-0.08112416115185973,-0.08113277670894287,-0.07046438225198812,-0.04371957337031857,-0.017857564107443203,0.03104759326952702,-0.026456778109816108,0.03303761998875011,-0.0212523922830687,-0.00024355463645894942,-0.007542570624666962,-0.0013287478628707205,-0.02708626101847035,-0.048550802445785905,-0.01848512017254234,-0.0660384843172371,-0.13300574669044501,-0.13505727672421833,-0.15160934184630454,-0.14225248063768953,0.09943352584682609,0.3042391558316368,0.35062269262534423,0.09618739666226217,-0.06626479232266307,-0.08941581555032914,-0.13853704414233814,-0.1067794829459863,-0.05335743603051432,-0.02630906841886917,-0.022646662211940772,0.014309728930192184,-0.003527144337188166,-0.02178729947910499,-0.026082377426183235,-0.016191121142377227,0.011072198890071869,0.004262600800822018,0.01437703675760938,-0.010988821320025056,-0.03330523301612801,-0.044540127528435086,-0.04898232743781841,-0.040596002827870126,-0.08635029992668254,-0.15032186418172547,-0.2065282572503816,-0.15156297240973304,0.14594328563221787,0.4259760523668054,0.3036147610414034,0.0598213180492681,-0.12419892799501843,-0.1355624872034233,-0.13423694184559867,-0.061598073715780646,-0.007639897421751562,-0.019144392464614104,0.004042875177391728,-0.035129020070941215,-0.025350162796449013,0.03469147674208638,-0.03008742614355517,-0.006190284881462079,0.0033507624005135062,-0.01786207981911185,0.023413365137799444,-0.019007756697568302,-0.021889396891727135,-0.012136687014538312,-0.07441377263152255,-0.09618696459573405,-0.12046761297048397,-0.1580159620582363,-0.25179294672717223,-0.12010159853237232,0.20868973566212987,0.3987997432937433,0.29354175449703734,-0.03853107031579752,-0.12284470586825183,-0.16262713052701736,-0.08152916898334245,-0.09519630578033529,-0.010111102462452322,0.005308861981224919,-0.02923999902227639,0.002241217007007561,-0.03571078179379414,-0.017055709118737092,-0.003639681456576243,-0.028635223858100103,0.012077570550384399,-0.029287927737440503,-0.010842457821564684,-0.02718507642874999,0.018114631075305008,0.0013710354286265982,-0.062032020612274856,-0.060997752523581604,-0.13396936079936553,-0.2053108531848892,-0.20911231249575202,-0.11182326277521902,0.20505903538190506,0.3968759645653863,0.19375420568192078,-0.07641702097421864,-0.17842349536340607,-0.1369882788436066,-0.1005602621642382,-0.034556006434170956,-0.030778285900413052,-0.022046039276724782,-0.026208323009535336,-0.04178429211692642,0.006267863595665214,-0.03181196606057413,-0.018309844676276,-0.031482228443052464,0.009978924160927135,-0.033210999096917944,0.017142494647537868,-0.014002552942163167,0.015508098609386001,0.0014664449848650605,-0.017074592292027534,-0.0663937078384588,-0.1157390524764733,-0.17639118260942274,-0.19693054672330487,0.01692024754722236,0.26552399409456795,0.37975923618532154,0.13521783053244008,-0.1340386032293931,-0.24636204697147565,-0.15286184533675415,-0.13179011567507312,-0.07225299054462925,-0.03341973532615416,-0.042819772333901954,-0.04702697831381387,-0.011238225382081716,-0.00458366570026043,-0.025784978691505603,0.031030773152621753,0.034985745569431036,0.007312783456602023,0.018872467730581342,0.02256740201960377,-0.02774832430419932,-0.05198371228328462,-0.053677699830044216,-0.09427740496222134,-0.08901927869106399,-0.14855719179708926,-0.11624223432585554,-0.0620103013886227,0.06763543484297783,0.2986125587922094,0.3121093373239402,0.050744030985175,-0.15402951495654105,-0.1776848494302973,-0.132868262889213,-0.11726608897721798,-0.09574825365239979,-0.037726956929216376,-0.03708304713566103,-0.057360595405216194,0.0069112267457947085,0.029822341977402755,0.011244966711799906,0.011925016555824113,-0.017590799775558733,-0.026856863330252365,-0.028639146203855454,-0.020361731455725486,0.013360884022638322,-0.06196922489665606,-0.02158326454664288,-0.10815211056977424,-0.06879625582237256,-0.0876656798996261,-0.03829895178280683,0.029565625905119238,0.09938074377819654,0.2547280973503974,0.22279770184477074,-0.027647260245955246,-0.13921054055395438,-0.18892382458070622,-0.12188283204396735,-0.07517516505137004,-0.07201714687086803,-0.04297175313470543,-0.05534070317276753,-0.04452960646794946,0.009909250413323597,-0.008873845491785777,0.024571834297318407,-0.00882618020196648,0.00405730718628446,0.009931406768416322,-0.011268585656017295,-0.006643826175982828,-0.02170910506397092,-0.024328614100371664,-0.09901665648787875,-0.10043905554118086,-0.08942709569106196,-0.0666004339151362,0.0195078609961248,0.07243261927615406,0.11785732578571069,0.1889655667616996,0.12691064121171294,0.0016891965375564065,-0.09137830209478655,-0.13933781643050916,-0.15910055669750223,-0.07786180591909841,-0.06476445838714551,-0.05013262967793169,-0.06532675777716404,-0.039449501023012604,-0.0002197890441225305,-0.005825324123712914,-0.008626924321007083,-0.026133579285279016,-0.029375145722596283,0.028706143831562187,-0.021965620344524178,-0.015505558000071496,0.016091977837963775,-0.03669856837711304,-0.08732075860476557,-0.057001594523479054,-0.08249886693858212,-0.019600861228082946,0.010829680298419563,0.06863184312377041,0.08761857888097786,0.12290950242605135,0.07449094865584932,-0.0027636695425378283,-0.05341856521909562,-0.13685133101211133,-0.0787111953217836,-0.05961048066371701,-0.06351120058007041,-0.06736597370592276,-0.02323763483110074,-0.03391374350430404,0.015356122575580023,-0.012633029184605444,-0.020718434937773266,0.024600623985997275,-0.032179481787999065,0.02863604807563648,-0.027281251014291213,-0.03709644059927584,-0.019112320175713893,-0.069326949201743,-0.032683664856582494,-0.04511306208699809,-0.04586865332405052,0.0107455535182223,0.035480741915616086,0.02922686202137671,0.002557434907288549,0.001221683993904985,0.04349111472455256,-0.02943961461480742,-0.020746456723074798,-0.04390731589143923,-0.06642111927727254,-0.05955048297539149,-0.04191053829083509,-0.011150618165662768,-0.01116440266869998,0.014729261869217908,0.004478477561161261,0.024067728183022295,-0.031105116342329084,0.028444071145700967,-0.009155804798474054,-0.035110260881038705,0.021734511043455824,-0.026777468942441162,-0.034392851079434954,0.006620847248213869,-0.01863148447702538,0.0005031362695600232,0.020360053183862456,-0.010455506408793733,0.04322467585988491,-0.004648741969257141,-0.050992948769118016,-0.03632035118293448,-0.012217539502953269,0.027336421527524656,-0.02552954099921301,-0.004493916584510984,-0.026287332359125056,-0.03365389982332088,-0.021050194389289168,-0.030129876469402975,-0.050832671925691235,0.005319509101420694,-0.028540248480622997,-0.018788358740943204,0.02057634117166522,0.007806227691716843,-0.002963882503631895,-0.009247021345794911,-0.009704646903769978,0.013738538916996647,-0.026403133290816335,0.045476696540539076,0.02630510676439194,0.023236273204861355,0.061427815182168374,0.06012245987539443,0.01440392628773563,-0.07107992101171487,-0.09064993215980674,-0.10586930984109252,0.0018040380171778624,0.07175298638370815,0.06564798150139649,-0.01831740174187032,-0.014010272983213667,-0.03664764369091391,-0.01857660792526032,-0.019217494168236853,0.009141129179924403,0.012170732151453414,-0.00470227838344616,0.0042532117198572274,0.03235453694521331,-0.017041214182288027,-0.004646606694805131,-0.021441032297846097,-0.03218783398418398,0.030894211867145548,0.03274368391494656,0.04573371344986666,0.03265200532039998,0.0754231377643247,0.07467133590733363,0.0486754800067972,-0.061882431781660786,-0.10183660549237639,-0.09375314423495729,-0.061008683656021426,-0.025591254421531033,0.07406091338101016,0.05222011968572265,0.011796088746971061,-0.016860176892250306,0.0006300697974151421,-0.04741019052630307,0.012181536718267234,0.011131266681003166,-0.02679932942507309,0.0051199198541021515,0.006007658291776093,0.027895513898306714,-0.021077288427734462,-9.045665246794541e-05,-0.007675524851583856,0.03299020169589171,-0.03573237787353727,0.012802317280918232,-0.015287196245818029,0.007524481781497773,0.007612986569369315,-0.028821274303508313,-0.06107607279537326,-0.07896823955230443,-0.124354515451224,-0.07277399792291461,-0.06474281535228878,-0.06433142580583401,-0.04665091498413188,-0.008695256966988436,-0.04815964680589177,0.00956600577012625,-0.034982240455672324,0.02629350643584605,-0.01723580213491858,-0.03748570322368745,-0.00713518119101246,0.03501470610543983,0.03165102336907456,-0.032655440365396284,0.005942602673403431,-0.023625039097439016,-0.012160018859635753,0.03328766704020989,0.02314721425892917,-0.007064659381996119,-0.01597218308310469,-0.009610938832809019,-0.042834519429088676,-0.010740774923613914,-0.020056732819883925,-0.045856298560326164,-0.06770074943408902,-0.03988438258099298,-0.018966471123161827,-0.014012893408242872,-0.047496098145296095,-0.015732365187805616,0.0010587251009960498,0.025216373939288415,0.017870274738548297,0.03142169024194968,-0.021577649902636362,0.028740543858733227,0.00042734436556130895,-0.019919270893941084,0.019766665976141365,-0.019274606537386565,0.030153152189451072,-0.009995084788521425,0.005931726646530252,-0.00800851623162133,-4.1335385746109144e-05,-0.018952625585864035,-0.023701631436382358,0.010327742121019915,-0.016405224002942392,0.012525249822017527,0.00936823562132029,-0.024951213652530804,-0.03839614434855791,0.0022078599073607134,-0.041835485488650834,0.014748600919002217,-0.0033423689758087325,-0.009862694003391017,0.01735807992824579,0.023987265066564588,-0.012694253662800834,0.028407545469924588,0.03333287750224434,0.0011317299919206252,-0.03150268130080496,-0.027488458637008686,-0.012789136380024418,0.009636774981987973,0.025728540031511704,0.02774215653243853,0.02451018078270938,-0.019671680439546653,0.02342289449913855,-0.01128084920783557,-0.007191654076348083,-0.02567402567507991,0.022580357204054963,-0.005294730231431376,-0.03003467211447047,0.012181817617632634,-0.03361947150844677,-0.03583556263359787,0.008114341966910556,-0.009251410144612138,0.002755653036233922,-0.02222903333058124,-0.029954610846626706,0.008242943307191237,-0.03265912565422753,0.021161266129474172,-0.007863455013726994,-0.002423273652408106,-0.019465509391905247,-0.01119570819599867,-0.004530717144376465,-0.032043205825480606,0.01064628530472385
0.0018979792259383652,-0.02941921260729531,0.027431620270991098,-0.0003838452294618322,-0.029334466981556465,-0.021488643014081907,0.010815091652316651,0.00524847027634557,0.005380608846898108,-0.01067531138053717,-0.005181630529507986,0.03469302953861132,-0.025784310495843246,0.002542018364977266,-0.0080712488097201,-0.028734177477836804,0.01703090141339633,0.0005287724013438339,0.012190765893442122,0.01174526749037572,-0.03089406203818807,0.005081446795412582,-0.01536728618711106,-0.014083737666015901,0.006116461369171322,-0.004865699169745282,0.00012798907993712336,-0.016354995864932203,-0.015029187903667219,-0.013621376309097162,-0.006098466108349592,-0.01281093832987305,0.01624943812177572,0.00042305068521773727,-0.014537245431709629,-0.024859440362514352,0.028519151673883403,0.018819358229767907,0.026891737308855645,-0.03242563534316935,-0.025491325613761752,-0.014793399551937241,-0.01979219638383444,0.024994139409963794,0.017666328905344558,-0.016126652762417922,0.013328664967959638,-0.013547053351657762,0.03475617654430553,-0.004632629565298421,0.006670508907615584,-0.03464184216110244,0.02690632538471863,0.00390752720227594,-0.010177519090315255,-0.0017873678210530034,0.024677637280376252,-0.010419546959385604,-0.022054688310013337,-0.023010389286472827,0.010736206120840957,-0.021819234147202722,0.02583193346429203,0.0098857181237108,-0.02958589973908671,0.024331106328920316,-0.004498899259462703,0.030951153169724608,0.027568398472293906,-0.025440374213329973,-0.025287153526310894,0.023516169996117265,-0.016063397157299316,-0.01034001251294218,-0.043278754092491316,0.00037686657711281083,-0.016510850841334194,0.016259713953466554,-0.020187726832698396,-0.007810312533005726,-0.0036904908823275754,0.03216687483179124,0.03457724217659092,0.010788210082420042,-0.022536466098757795,-0.02456533322821053,-0.028053335168256057,0.015277864286894227,-0.0204504276512386,0.013803062523445054,0.005957801147793343,0.027007969984440633,0.04154199988701531,0.055358573133650134,0.03008805553236457,0.024571840056788134,0.08007221011504123,0.05729887362766262,0.028502532459866427,0.03645212155422494,0.00760361771409698,0.002468524875252098,-0.024245905305555877,-0.04229914071582899,-0.01568812082580409,0.008341924039534824,0.01266370412621588,-0.039390535207201975,0.004043891270120687,-0.012474220746977002,-0.032979567518128514,-0.011629894566609138,0.03166873328055593,-0.024303312870499836,-0.03210170162400206,0.03078213499205392,0.022714895245748202,0.0014097300472863047,-0.013748619101994274,0.04935660065615907,0.023799732756675244,0.11556560271528658,0.10215442944894941,0.17859041166370138,0.15491682053537031,0.15956210558082662,0.14266578142359979,0.14355979505863187,0.16457373195555386,0.06477379301873251,0.07191859615692964,0.026854687660510607,-0.0014487180276810741,-0.01159064387806958,-0.038502455221032135,-0.021398791362328945,-0.035267102230675695,-0.03019582927902087,-0.00934471560542548,0.017313811665559446,0.022459524121975317,0.005847466837468515,-0.0011905308279159903,-0.014567015680956108,-0.002727510683704639,0.02907878798826112,0.051077104713069615,0.0772404221605889,0.11248669351474037,0.17375080283740219,0.16139083706809532,0.17949751542120052,0.18928771593775248,0.19423258473635555,0.21543940600782066,0.18067143211568687,0.14627190789891908,0.10739921062089565,0.054391904138720755,-0.008283396691068893,-0.05370209155044119,-0.010913079178371877,-0.00929207188142808,-0.052444337777715754,-0.025931970393573187,0.0029900920844467497,-0.016736128781844148,0.027213172998267008,0.03064034853084857,0.018717481820186337,-0.018536594014043874,-0.003554948434587998,-0.008468634348800479,0.019938117950465118,0.046606373381845194,0.06028658331681252,0.10601105754863945,0.1457642640308987,0.11608549512889739,0.13348292809130877,0.09962335231849814,0.12413729818445682,0.09482007907674166,0.08819061032851427,0.08782357541185903,0.05164015773923129,0.056030877055439535,5.480095924894674e-06,-0.024383221143040583,-0.03653269595290403,-0.013821829688195784,-0.012637775357138295,-0.029261612760275293,-0.00020521053215704523,-0.01791252264717288,0.016349113338352532,0.029366066835398084,-0.011022422575769786,0.00018875010957644295,0.0007909141169942628,0.02174757665679885,0.0027214442363589202,0.0741710844572402,0.11154592970284295,0.07261332932952014,0.0602959050698351,0.07374780263535922,0.056319299559436264,0.07289186520129733,0.04676313862736167,0.06819431062910766,0.027534337455707967,-0.0030898095726966286,-0.015240635506953384,0.022627372769473263,-0.002273026661784798,0.005448811550189487,-0.00230370953984469,-0.06311617708347451,-0.055968151122321994,-0.05275354192165821,-0.03484484018396042,0.02819107628052998,-0.01584467301511278,-0.03566792178676227,0.03322226413207446,-0.03508139006768653,-0.029544806017035078,-0.03144737610721099,0.04696269151796391,0.06611439880886075,0.02344917132851327,0.015796124707091713,-0.0035470085296045073,0.020161858524869247,0.04039416842505847,0.00552582169830768,-0.0012088566284473602,0.027449008311050842,0.01535845457466706,0.02894475148384596,0.013602390719267563,-0.046465163365815576,-0.011533648166273147,0.013606910797801361,-0.030465614919133525,-0.0558484299143392,-0.03954317506195125,-0.04231489779047577,-0.01589830243933291,-0.026761447566996784,0.016339881024295566,0.009556884111383345,0.03479127183508681,-0.027591055747061218,-0.027482611843647725,0.0333103786341198,0.056899587888479874,0.02927321440017751,0.016088270376612274,-0.008500983530094944,-0.04901227719473316,-0.004445811750728193,-0.018191501140739138,-0.05847402808528009,-0.04406183619168286,-0.04556938617324594,-0.024519354722497284,0.02399286092260904,0.03882363685241715,0.012745981802433914,0.01824462542509712,-0.04881701638240428,-0.01753002934462129,-0.05979332894008411,-0.07241043445313611,-0.017106395639506153,-0.021859174103618317,-0.037344097812525144,0.00553073411822148,-0.00034251257015978397,-0.008084147269456065,-0.018929263732444846,-0.017945068672809008,-0.018490019671332965,0.019579485047293683,-0.027302471766454995,-0.10358586551015624,-0.09867127456306289,-0.09721036354799628,-0.09960074009075753,-0.11247959633154823,-0.1696970480181506,-0.15466055850509744,-0.11631795763273285,-0.0780482690126873,-0.0016962307090141225,0.03657770265491346,0.0018968534417209335,-0.00785708712978866,-0.040689890704719206,-0.022764605935419974,-0.03279347795814318,-0.055496043705534834,-0.057417114854100955,-0.003226234793204839,-0.013011346667047572,-0.00614482593258898,0.01751926585519454,-0.007313838529725436,-0.03330594861583767,0.015287253402004292,0.0007541068563473779,-0.006037125556487593,-0.11395600177859166,-0.15767075749055587,-0.2003193212348464,-0.21351533159689054,-0.22880679405327806,-0.259163794085549,-0.2581967284466271,-0.19539143860229433,-0.17684793447525865,-0.0830278430656847,-0.05750766314515848,-0.03729695428944511,-0.03574340124852146,0.026860087086650677,-0.017562621671007014,-0.03532025828347714,-0.08054722927074784,-0.05763019225111079,-0.010295217466061036,-0.02545209404280084,0.00852988012472436,0.02252699192091319,-0.02713370799463668,0.01072211000500057,0.008092918534133445,-0.03341309546278224,-0.04907233234518527,-0.0530876584648168,-0.09685365754358989,-0.19146549214882871,-0.23662778592997405,-0.23830332413304078,-0.2372634480184763,-0.23629859477308923,-0.25977043605240896,-0.21887189516173824,-0.17162369684145073,-0.13336132529310057,-0.09741620888877056,-0.08427707747037201,-0.04782636450593605,0.03738751430920627,0.014748340329308645,-0.05495744226061096,-0.08236705273906675,-0.041567475874445925,-0.02169132765205046,-0.016330567112565808,0.0020203856545406586,-0.013730472323303653,0.011697567791662629,-0.03053051534752048,-0.018909204771979275,0.00401017938649033,-0.026079600472764003,-0.044883704884543504,-0.12847622771004805,-0.2006145030674176,-0.1622735931142052,-0.1566758564257426,-0.1664841856841017,-0.1740129550622715,-0.17119871892621033,-0.11953332626470221,-0.12062727154788093,-0.12144840433490167,-0.09908012422557057,-0.06378005284280866,-0.037225801892248576,-0.0439515175038836,-0.05380862058830365,-0.06445383371965745,-0.09129603978621256,-0.04016517312686987,-0.004878098773720716,-0.016122233816231755,0.006388233352210417,-0.02799503325463271,0.032356225161882184,0.02530617853643783,0.0005509766998181443,0.020843725000308646,0.014047362998325354,-0.09287100683880187,-0.0770991221077892,-0.10594824566317528,-0.09547494389022342,-0.12338152135561262,-0.05750541250675033,-0.013834343805339882,-0.017426321880189596,0.004686103299983171,-0.04335691711715713,-0.05301522300427812,-0.04370236491688571,-0.06730003007138666,-0.007139830669290087,-0.015933834536725103,-0.07709218646027323,-0.05571840114225711,-0.04683314841606623,-0.016282618649466618,-0.030776854151404912,-0.0049375649251692955,-0.009740740320741374,-0.03181684785969736,-0.031655596784779555,-0.0180056113734788,0.025854781080264958,0.013360300071327628,0.030378654692324925,-0.01072137863685479,-0.07191956626147938,-0.011788253422874323,-0.008057469159821898,-0.010228508196078432,0.034877979426565425,0.08728197548808167,0.06119521476820146,0.0820244425810061,0.018449264959344222,0.016000906846240563,0.008382693208975457,-0.038312046435867775,-0.007887027195765998,-0.028301814482206634,-0.05921978420851005,-0.07035449953522543,-0.07407906211907793,-0.007312390651579441,0.029603991525864917,0.05359315890703134,0.04352677654689321,0.03166686218055831,-0.007441375596052663,0.018217375472284674,-0.005533054385638677,-0.028127432790030084,0.011577956263988371,-0.008946426585285558,0.049009108817929734,0.03642594456313463,0.06291327327194579,0.05120828203273295,0.07757780046580369,0.13892168999038382,0.14636705665028257,0.12449559226738506,0.07667326071224072,0.08168849756175928,0.060917506223365475,0.006544987347632884,0.02082206970641502,0.010664238992287882,-0.0007999643876678166,0.004502815163726114,0.017722132456175155,0.004556706992776731,0.08109431808647981,0.029176896578687512,-0.011761247849594338,0.028613532940280195,-0.01938751951646443,0.019039933124459042,-0.03140797743142695,0.02016314037883423,0.05647126096138164,0.10613813202241601,0.0694920050130455,0.10487773722118585,0.07326673671972012,0.10567292456302277,0.09429001321071598,0.1336938982082056,0.1824909082419003,0.13059956213690627,0.0989307251782335,0.09515452756528278,0.048904558879183,0.03290694240876953,0.03913713581537382,-0.02725090482503045,0.02100466367811979,0.05682213001486903,0.06044322332927709,0.08193023800542579,0.10403402456016607,0.05805050195001911,0.038239266154064123,0.029371092954282762,0.006368430671099816,0.008517913434021872,0.02534146266396616,-0.020218155582698887,0.05418855335134317,0.1204214423861727,0.15289590437713327,0.09908165978698144,0.11551490997787799,0.10635368912390979,0.13609374211421624,0.1562150631208156,0.16723357780548367,0.17843754598929837,0.11693968033773369,0.0730538888812919,0.06773070947232626,0.07210290828903027,0.055232913172824666,0.041175584580308525,0.047268441804804946,0.068579941857357,0.1466276750628546,0.15939402193107033,0.07975238272392748,0.08668158979010064,-0.0008361941449586756,0.032426803519233834,0.020047166482053,-0.01835779828140989,-0.008833608199014239,0.04513666000440699,0.09919752469259302,0.11923645425334999,0.16692142671464985,0.17744362965476407,0.11631951923119616,0.16328447434987597,0.15138034875430606,0.18072769072877679,0.16991031022193814,0.12836921808975973,0.04403182260410296,0.059006887405064344,0.057205561873135434,0.027533011935626066,0.03920802155164532,0.10533141081895948,0.09713636929927481,0.13332441434822723,0.18075256663122136,0.15501249057728372,0.1054424930380194,0.07643281126039737,-0.01987407035234716,-0.026406679837737458,-0.03226740120203584,0.01429923018978063,0.028702997853679163,0.013958872084564778,0.06000524171892804,0.07606616412240401,0.15004524252617918,0.11965831592819492,0.16297048234505881,0.1717981203608634,0.14129436609572782,0.11723145625282844,0.07789081897893514,0.021496848171801905,-0.020215463194110883,0.008463173686974771,0.033729248696803264,0.007825519348813297,0.06994221468190993,0.10799131313891044,0.10034321548264144,0.14317136768247754,0.13698763794521046,0.15649409658963973,0.09479410323904905,0.02948273234110855,0.0024193941598571623,0.013853973205099918,0.028197563273026787,-0.031637439158724225,0.03329192044708072,0.0006088400325704618,0.03243959159117402,0.0814176871738969,0.09515048966537268,0.09948286530384587,0.11305436807939949,0.11363918347145735,0.11103112235231577,0.04121170983267526,0.002713950030044713,-0.026170393281781293,-0.021103167597561326,-0.01609557286580095,0.018160050924279983,0.02792589343251756,0.07163786129332009,0.15057791758114045,0.10795696908102932,0.10457048200917538,0.1039360695923833,0.10146380070554949,0.06066209392810249,0.01754422121144462,0.007258666763378342,0.018226861680502342,0.02727821459178874,-0.01384764523059039,-0.002415086492368619,0.005191155378119339,0.011983506341998159,0.053636797637280006,0.028813097316356773,0.053363742110803046,0.07790358886226745,0.04141742630317217,0.022895447438518735,0.005460931298064535,-0.04617928393865541,-0.04114905725600054,-0.09130646174189537,-0.06882082978918942,-0.05795933890111832,-0.0008832113906518103,0.08782147081267384,0.11392546770615197,0.1140566966099186,0.10364812329636539,0.04086078686879404,0.02458881414511875,0.0028415249689745952,-0.011005314783801188,0.03412768350864969,-0.00790127286238574,0.021691363447152025,0.026590692738372022,-0.004939167417437851,-0.011235651838168301,-0.03670350229490273,0.007609321190670249,0.013454392591196553,-0.008953486866592064,-0.009871133142729471,-0.06821253399310148,-0.08613640115129785,-0.06951687818890408,-0.0650116260248349,-0.1149253910584826,-0.10222230203987331,-0.09933874100046351,-0.09004633065783788,-0.011776002048566037,-0.03162716517370663,0.02343972926480875,0.05523852422034673,0.03289894000676469,0.01718508138431601,-0.017134576186914958,0.03977415498853903,-0.031108367159081683,-0.0006491550354087971,0.014524961416452391,-0.027541906057764312,-0.018047232510197044,-0.022190877007636126,-0.01546795628223697,-0.025397592619244375,0.01568092159026616,-0.006327285928280669,-0.04155842328069041,-0.028845119998742542,-0.08711094360862287,-0.08436057744936816,-0.12210195559061877,-0.08342644036056109,-0.08287574452608519,-0.06909999521666348,-0.05247828264177734,-0.047657520835912355,-0.04043469966706123,0.005836214905820431,-0.04564798924295348,-0.028688361598011147,0.0007091649680628706,-0.0028472204167827126,-0.031419477396211315,0.03437300734476401,0.011985053305546793,-0.002654104694465946,-0.03236979596344597,-0.013650589312227124,-0.014825799141357192,0.005504800626819776,0.018435255667769417,-0.014828661259009841,-0.005220618377210649,0.022579082853691024,-0.04299822408868452,-0.03115406952843378,-0.05139980611930042,-0.06346223772392234,-0.01589583872810421,-0.012349078252448575,-0.04023434544097073,-0.025532424035812195,0.004817042236758235,-0.042742150574395864,-0.051233018299086296,-0.01777851977805376,0.006666089294186364,0.019603729485256516,-0.012352448636200379,-0.009417910654503467,-0.03765496374666165,-0.0018694378638560434,-0.0195172837158551,0.019771597317810852,0.009235148598215415,-0.011474549695916412,0.030861630170727048,-0.019049175746242906,0.009213798096767367,-0.0058707522924667625,0.005657017409243679,-0.036871119800703185,-0.011935924457783182,0.007218719760079107,-0.03944478880195075,0.018504943287161495,0.02730201388417479,-0.03213415892842898,-0.024931120711711465,-0.009711334431323389,-0.019262718948665304,0.012218293719378078,-0.028843890997184422,0.0027761893335358175,-0.024213758044809287,-0.0018564048875364854,-0.0339746575931776,0.012527646169409367,0.00021906753559122787,0.006890507493833446,-0.011395774219825489,-0.01768009527420771,-0.027610104231635766,0.02233429182302271,0.018783615979629725,0.02273502691279564,0.002195954968137816,-0.003143035300966085,-0.020503260585416783,0.008495772683316636,0.018574752238165126,-0.02177268789628483,0.030188881145098115,-0.0028857732249709784,-0.029958922155917247,-3.872160997097444e-05,0.01883789007676606,-0.03490814763828623,-0.027161225592366972,0.030424135636490254,-0.011521183631501824,-0.010710627467269945,-0.003443140189114339,-0.025817186811692122,0.033394176430944535,0.017421305244691036,0.0031478035278421144,0.02886496993916469,-0.000421398916723397,-0.004368996916148488,0.021438040806123493
0.02351308645599505,-0.002190474416923573,0.014524664063477497,-0.023354146184652994,-0.02301394560340031,-0.004471432312370928,-0.034833744055664376,0.016347039862496762,0.0008505503288640129,-0.008379284436536944,-0.001776970624106311,0.02608729310185532,0.01826364553423236,-0.016954531874769162,-0.006687340903641227,0.011643018609514777,-0.0076018198506163405,0.023199304605973865,0.003537932760252422,0.03357554257797103,-0.025595124789861746,-0.020443203652164166,-0.012909276864795196,0.01797884365794701,-0.024900426564116663,0.013152573469795306,-0.013949520485785578,0.033751248287164415,-0.024897087857253697,0.023603595613297078,-0.02683993051179476,-0.009099930138471426,0.03425387815765221,-0.030985817967068632,-0.014806588870818376,0.014535491598220051,-0.02670372747159589,-0.0309775612078174,0.03554954452850737,0.023507598509777017,0.03291692582437871,0.007077314757685145,0.0012833476008145372,-0.032573174369224925,0.007265855643116161,-0.015390476859711451,-0.00305713261786541,-0.014572370710254136,-0.02769938255890464,0.002180922433836581,0.035368664421455046,0.009680597444052166,0.011521952957522903,-0.002905113536471929,-0.011907719104347608,0.018289573998362688,-0.02452805759695646,-0.008162429127477356,-0.013623101962183705,0.017019665542378097,-0.019451197826308587,-0.034100393806156044,0.028668627647518378,0.012172252191889296,-0.026741601283291252,-0.0066047960347973365,0.014602839834262195,-0.02009328494173526,-0.0219138617289052,0.0045951454462748,0.018572937130150315,-0.015535003206114345,0.02488254774862274,-0.022918200913523847,0.010069394066486723,0.013999341331264304,0.018133655199784778,0.0013086293315586024,0.021003355723379646,-0.032326687315928054,-0.034455837999847215,-0.0222460774854285,-0.008832612549584704,0.008644228570363637,-0.032902988917758086,-0.028483798466003026,-0.024923698252180614,-0.03052635292533139,-0.009602252493604142,-0.0073793326524790774,-0.03296893926805427,0.03409091775806619,-0.025210626609150074,-0.011857990127308001,-0.02791241923769992,-0.01730265077948601,0.011676698411991706,0.020214882925498605,0.034962991991769665,0.03402621721567673,-0.010694252296644845,0.026674762508365077,0.026772068973503853,0.02065629399349353,-0.02680405399788715,-0.000875016205642329,0.004688797754868413,0.03312522098699895,0.024513681429236205,0.0016436755033324355,0.017391839023517534,0.03093755946597281,-0.02902416303971288,-0.03303318922637439,0.0041159508788077845,0.0001358726595820446,-0.018753275784818498,-0.005910031575269105,0.03138515852746717,0.05553836364652284,0.07053646185658022,0.025364535953860342,0.05915449192655767,0.09438728512015042,0.08919736612295528,0.05011668706448736,0.0466064300118208,0.03403498711736492,0.036783382693529404,-0.04115562393505416,-0.03141714685052009,-0.0030132933868833836,-0.019333197471742333,-0.04215034518712783,-0.05765230240685525,-0.042382186545978466,-0.028833525502286548,0.030489746186846665,-0.00673177053121323,0.019163344881471506,0.024241860443559825,-0.03534466373174022,-0.021766891528437582,-0.031151039153451732,0.010856058122004282,0.01377483638948425,0.06967247525968615,0.07594085390636335,0.05898481535795629,0.13446747419461252,0.1466034030739772,0.1077135267401036,0.1335238361445566,0.11332938210857522,0.07985714407215343,0.030148308392730614,0.043215984683536976,0.012164692057352954,-0.0001771312534894963,-0.042176926870529666,-0.05006807074933356,-0.042580674717801685,-0.024674393965280757,-0.07114689878978248,-0.04505749397654639,0.017046883832096595,0.034487340147378344,0.0013187402549051715,-0.0015147100144719142,0.018134586021370143,-0.028775682159559814,0.022827803191268963,0.018093798585243424,0.02692908434732911,0.06467906650029116,0.12277718282091289,0.1096475886748048,0.13688179314356763,0.13992219522732594,0.10325299318429747,0.10443062409070622,0.09786669349999212,0.10624978164245895,0.11472445350482635,0.10468162751678586,0.04698079095907064,0.012714006705649955,-0.0059031368883351665,0.023856005715342167,-0.0046530283065571885,-0.05636861286846338,-0.06126363618193891,0.00341886686773356,-0.014701997397486835,-0.027147551812826437,0.007325485895857843,0.023798891864012798,0.01216961789566719,-0.020775616302582955,0.03707564296357013,0.059101022504996194,0.10416451496548451,0.1175672378865044,0.08265901492938409,0.11261094495647984,0.11131402877020666,0.049898423097168375,0.05020426626447064,0.05630701172811912,0.0781910025785309,0.08842337185597436,0.09336703497719488,0.08875910804451627,0.05791481756149809,0.04816318953170823,0.04711587215883373,0.022825870113964346,-0.0005319923893258216,-0.039146183029613195,-0.024906296961926755,-0.006427926911272545,0.008239235572269375,-0.026306831848998284,0.027007627548417495,-0.01869380930997057,-0.012091671882152648,0.010251603934382434,0.017618686852090903,0.02269827987071767,0.08476073732600165,0.07711932447174824,0.06288385670597933,-0.018393514351628636,-0.037485351268474604,-0.056440403282687464,-0.03732267739363086,-0.06526194960942147,0.0080226389011703,0.014329571368210683,0.11129463327888235,0.11236706861039214,0.10448804874950332,0.04101204986087464,0.06900274672074395,0.09578025332066444,0.04816624938835178,-0.009526432302472071,-0.06311378870620483,-0.057798501129219346,0.010282819385343521,-0.018204688097276295,0.03126097596817418,0.001950336479642594,-0.01550814018948102,0.030401351099633288,0.027705876135282047,0.04443585509835144,0.014742729894303457,0.0016426798042668601,-0.05863983539775316,-0.07606944405431858,-0.15061769001954584,-0.14997595391256258,-0.16518246491391225,-0.1271946115106766,-0.07701638909340124,0.01020388154775729,0.10137849890307835,0.11311084652139967,0.07117132880774686,0.09189497075981934,0.06846443306046754,0.0634779658865812,0.023017890712422,0.012263384281218991,-0.07448273909311219,0.0041938257772055525,-0.015927270930367617,-0.023845822434100106,-0.01551548006058803,0.027880615472685753,-0.03573027810101451,0.008408388892712719,0.0211413120188129,0.028831247404264494,0.014718811671512589,-0.007811764148598697,-0.0958119549564592,-0.16402198961469897,-0.20299828164693243,-0.23231142157123816,-0.25182296040764457,-0.15789744737018177,-0.030348750140243064,0.08454393724488776,0.12778444577503087,0.18593492442194998,0.1072735562286041,0.10220230743937907,0.07488541465927585,0.06479146690806248,-0.02955758777999896,-0.06471017051543723,-0.018732096640464296,-0.03093117268004228,-0.010449790225708935,0.0026218787494992216,0.02305972839438618,0.022997342390984544,-0.018635542449941218,0.012813085802736292,0.025136684998599407,-0.013459480126165229,-0.03348945137514487,-0.07342689405171089,-0.12315056733577776,-0.19109760977933885,-0.25992654573598434,-0.25903637479358665,-0.17328803374047702,-0.08636373103500053,0.10021804715733576,0.15224006674332533,0.15379970293048423,0.11695504810932665,0.1216966054323428,0.0821958066796057,0.04447653395572572,-0.020626251475709696,-0.021844957834397973,-0.07178125500478193,-0.04640306260526957,-0.00616056599499685,-0.026322490311947288,0.003975443034647588,0.004351949920730103,0.016409764966007524,-0.015224816333197971,-0.0015346350837035234,0.016180512477299652,-0.004146630115300223,-0.056760516149518,-0.05965879142185189,-0.14167008887127996,-0.1579670662952107,-0.14359622798329758,-0.0952514874192632,-0.059843572456375005,0.07393633301464646,0.12143021437929773,0.1663781779382137,0.17951833498397002,0.12091587263106511,0.09248655211522647,0.04311590707666112,-0.030716028300387322,-0.05429211230123719,-0.04830464317191872,-0.07943438367975203,-0.008381206069234426,0.017461022363894282,0.009265324929605908,0.01000094045699562,-0.013197146189928864,0.02693338311143393,0.016126890258244007,0.03353609863518201,-0.012230139705286377,-0.00676381421533234,-0.029631467844208528,-0.10083571749248248,-0.1125082917692055,-0.16403807867118386,-0.12857582215707927,-0.07554732309793802,0.03278528925431914,0.09135191630334497,0.15027230025782168,0.14594148877160584,0.08918540039733754,0.05606730007007281,0.06215638963071354,0.02982733059459313,-0.0363323171745289,-0.023052971470957626,-0.027790257904624235,-0.0750876791463395,0.002023872268772298,-0.027142995843895002,0.010397380718221364,-0.023386726114458918,0.018913981389992465,-0.020142341706434894,0.0075215025178019205,-0.01920885664532175,0.02435099018555175,0.015171404675491187,-0.04639527775498509,-0.04951676557117138,-0.1123687281818221,-0.10567034580727198,-0.11838822504266217,-0.033983799836343656,0.030698347617679325,0.09952993519606108,0.056293206778309034,0.03027870470370397,0.0024897718761308927,0.02903525489364462,0.04832337719711571,0.06510191237059336,0.04974212010022299,-0.01211538958002369,0.015248785853144011,-0.03377820597607185,-0.045633047652736826,-0.024874431440541942,-0.002757324479498005,-0.02846115276050065,-0.017850831295058645,-0.035520627801200313,0.009401986699767545,0.009163002418495927,0.03914249015180818,-0.027386970914328478,-0.031344094441782155,-0.0375895732579507,-0.08954021989715867,-0.08957260567956399,-0.1384178576779407,-0.08926829534399143,-0.009071303818503688,0.0320429061374613,-0.0040737667107843024,-0.017584000442357927,-0.0382592983220837,-0.010952789748025557,0.03710167368482334,0.03802349917785377,0.06581521846083895,0.08085576454634928,0.04960126680860538,0.012905393197636937,-0.004328292060686346,0.0013125671417968626,0.011395631844039467,0.025030790499430033,-0.0056687354986997285,-0.0026494334514652407,0.0003122262342742797,0.0209161908166454,0.003869321184877146,0.01564008395757645,0.015460146633350871,-0.051428064424035885,-0.0815695904290043,-0.1282484945269093,-0.14194994152160173,-0.14726215846910337,-0.09891044559235895,-0.11997461274814805,-0.1155648064133156,-0.07961826168769362,-0.12236662205509756,-0.021347890587479493,0.05573090701858996,0.11604555080959919,0.07690323561617056,0.11128984026028686,0.07724357854670526,0.02246747261379759,-0.03772353094371064,-0.02857467910180276,0.009879282025585634,0.01418993987977782,0.003449215457343271,-0.017350515011346147,0.010299198827776742,0.03873786791201592,-0.006506365883446789,0.040116499041226716,0.0465669833540206,0.012455370070803351,-0.09078693708020612,-0.12111245029228689,-0.20340011637595298,-0.20893124726728549,-0.23533677961108065,-0.17995919371946775,-0.22345533767253598,-0.20371430410193492,-0.09547990965355299,-0.003976244452989995,0.03719845823606014,0.10411435082037467,0.1131853224878949,0.1132400696459179,0.05167415159941902,0.034992495827331674,0.029840928591206472,-0.012793129896088919,0.026890910966659413,-0.011514837216168713,0.021595972110061305,0.0182397506542211,0.0338159285019462,0.014377224029279973,0.0172399858862572,0.1007700036039053,0.08873829558386033,-0.0019148577843178286,-0.07371385567946642,-0.08857999367666934,-0.1740648472681695,-0.17482882300993885,-0.18512772686147655,-0.21175579768226102,-0.19796259923202392,-0.19596953988980778,-0.08001184687437636,0.01116218987892582,0.05927673397306796,0.13542681650874525,0.10146606984866985,0.07097497466613663,0.09647890387145533,0.06478743352436736,0.00456563360453044,-0.023291777839525532,-0.005593904826806745,0.029827562149545392,-0.018873115798852928,0.006683512713155528,-0.012524976018695975,0.019785138452708163,0.08426367298153481,0.06561242208475693,0.06453225122865414,0.08735581742383956,-0.002488925433618999,-0.03253193312365633,-0.13573723149321276,-0.15459600773591672,-0.1816814802726281,-0.13254915090519834,-0.1440186116883963,-0.09962152838046046,0.006752087470757866,0.053294980562132575,0.13736188124774862,0.1350691715473294,0.11272627247330838,0.1011079693447275,0.051265674181492527,-0.006091114803583669,-0.016703790404248565,0.00910391332830849,0.026391024327075366,0.016719381053981852,0.009740614953521411,0.0055099863000937655,0.004267010264219468,0.039588912478168634,0.026147849488499374,0.08731721323189383,0.13787178087831126,0.08675710464596935,0.08406085803536373,0.005378592490891008,-0.03535285408050907,-0.04945078040140841,-0.09354229807406879,-0.07963030844651363,-0.06519139162529324,-0.012595663452645546,0.023957440139594315,0.08072311746058444,0.09290781892524667,0.12910203207812965,0.10372491271638555,0.05961269474880191,0.03988422107065035,-0.014206782319088352,-0.05766877967472224,-0.053538400354885544,0.002266324824491437,-0.013426685513236053,-0.00015933490108507013,-0.026592478392878503,-0.0032827501420235102,0.03485086939422683,0.07680901324210578,0.11107296888025339,0.1058472452016816,0.13401042989828585,0.09738632739884318,0.08328516999482823,0.02554163915612389,-0.002808997361114931,-0.015356970146743509,-0.013846068687960369,0.012768972152389474,-0.014353412349481443,0.07688796100429006,0.060172911256371524,0.08257638634064048,0.0796236778465431,0.08273831105218317,0.05767426236510484,0.017105675253876903,-0.009472629714188895,-0.0007358571218698831,-0.03770897341230506,-0.02112767186462039,-0.0218956887712156,0.03243045422408337,0.022602415011308306,-0.0032097402434579344,0.025140005488538678,0.05661162880993282,0.08278106908123767,0.07533994127691883,0.12845346336604874,0.10981992702596671,0.07329638239932842,0.11738956927971372,0.05342304738155774,0.08390112472434061,0.0037966418384978652,0.047577967201102765,0.03544974200165014,0.04879814310530036,0.05145941558059303,0.033881102237009825,0.032640617890720015,0.03302670462483268,-0.004098464405754373,-0.03924084151093739,0.0012530951609143637,-0.024316098373692953,0.015345115645125829,-0.0008974517766334792,0.025932085047610774,0.020651211346431973,0.02779403213651234,0.01989900248321952,0.017495610839519903,0.014340166775867516,0.013493488657979408,0.08776368009538221,0.11586016968276655,0.09795600101733211,0.08206027153523039,0.07809454016083638,0.11620373318460815,0.060555920692734536,0.0584968220495873,0.05044666758771074,0.027322933586318213,-0.0043116660561632325,0.009759547952228857,0.008862600819491582,0.01614701754576116,-0.019689705076582496,-0.04342689348586222,-0.0547934143352451,-0.002616160202225907,-0.03915095992469007,0.014272766203913507,0.033112916109888604,0.02694627271217587,-0.029292713050669,0.010922897651078725,-0.017852360238401466,0.018263694695849316,0.016438852018723502,0.018447462721122174,0.021271671105675034,0.037454099548477476,0.09369807658045227,0.10107454769703333,0.12761978244734126,0.11437614698511701,0.088073081223205,0.05607502782932079,0.057427784911426916,0.07455958820505308,0.04380751583626696,-0.01491974570370448,-0.02813599156942592,-0.04650576550332395,-0.029596338063073588,-0.01850077079641621,-0.021352207332181114,-0.008140904130133977,-0.006035996777417327,-0.0352559695735096,-0.009069704125826602,-0.022017308492425353,0.00396661698799146,0.012956111562829307,-0.026429443609519772,-0.02473544690553857,-0.02064205068201883,0.013717460423893404,-0.01419890658330706,-0.006038391175688614,0.04104155600485007,0.022072248023988276,0.05449921279110013,0.02420748062579238,0.04667905542716563,0.07515236161719013,0.004265695173521035,-0.002315774664612648,-0.0047046414243510255,-0.016961725016433365,-0.022582414368652437,-0.03656236642599316,-0.014501608437352027,-0.03020529491035547,-0.018662637198684513,-0.007617130263886917,-0.0002523701539719739,-0.0032439853928146866,0.005917016185899665,-0.00543643354783087,0.02474524191050588,-0.021957847215397164,-0.027724502412320787,0.015867054395442528,0.0034368985476738168,-0.025633502551815616,-0.018154237963705876,0.011792765516801513,-0.021023366646276787,0.0030233670131467115,0.021357495303652742,0.011213925749440346,-0.033897922049256866,-0.017281008249708383,-0.029896885742285065,-0.028606408648116262,-0.04276876164547869,-0.009237291059376327,-0.006971220446068154,-0.02034774456103677,0.02671669243072693,-0.026744735418680426,-0.023846136030009474,-0.011690100996496477,0.018518354584975933,-0.007193676260482524,0.0031404892967516495,0.013489792633756943,0.006517484552085728,-0.010877188193515597,-0.012254884142974192,0.0029707539772179576,0.012133307783773837,0.024453476205701055,-0.026612711732963278,-0.0238785179079426,0.020802576334783787,0.006372043563234014,0.033384838064088984,0.033576870922742266,0.02911297319906967,0.03264563578637113,-0.03643233697235833,-0.02918568797271499,-0.011191251361653179,0.0035096283302615034,-0.006000472380567606,-0.006554497712607177,0.011442088048434518,-0.03348187632439768,0.02867156122468463,-0.014276525426233365,-0.009257537030560484,0.005334340955876942,-0.027024581170986637,0.019273699855917766,0.032134811633347415
0.028138494230175535,0.014985814165755396,-0.02284032387990749,-0.006714889978385041,-0.020038294828247528,0.013067706748614738,0.0305605606693617,-0.0010866163708111124,0.01603754093139541,-0.010963284063456868,-0.0236706377281784,-0.01520866957428968,0.0320847894687361,-0.024358203240504212,0.03075250833397626,-0.022796100833412332,-0.0325743774413574,0.0345273590486369,0.008663156623932815,-0.022001048351758097,0.027696525637199064,0.013636614518785568,-0.02350548757368574,0.014853123042264531,-0.027728848142509976,0.03336712934802191,-0.013979907285131756,-0.03233472421500034,-0.022439663939959408,-0.035473958995886325,-0.023054404060836513,-0.0345348898360375,-0.0054110006904148035,-0.03264614736407883,-0.01924974763941907,-0.021133865614080434,-0.023413295176807628,-0.0036062039136350726,-0.005948231431646622,-0.037669190064779895,0.025304468941034816,0.01353934045773761,-0.02476436268550673,0.0027805624510214622,-0.01761577204380453,-0.0317143255769466,0.031037843273114152,-0.004353257381960596,0.031436427865847286,-0.0318688842480142,0.01057535087187467,-0.03128165751169302,-0.01202487297062728,0.006925238331444181,0.031047868265882524,0.022676740204978386,-0.019577090470798666,-0.008500277354885193,0.006954826393716507,-0.0030520564387159443,-0.013747334748417635,0.01955222839541259,0.007790280560324642,0.023623177648236744,-0.028013080994738444,-0.005056221582920057,0.022993006482930817,-0.04173147265668779,-0.053768476014535035,0.0035687042548823845,-0.04611468127703018,-0.04839824007351417,0.004539203163710977,-0.04122701708233244,0.007817655490699616,-0.01857894964102957,-0.003938188994033911,-0.01338271746236393,0.01372541189642759,0.027320430967095393,-0.01944574014903887,0.010357200025745559,0.03144233711654754,0.012451183116918792,0.02279549180202949,0.01556050062031154,0.02315700655781072,0.01734223332145127,0.005959023903122629,0.004124959802705974,0.003733387961083398,0.001183480022324345,0.009496602917837303,-0.05042206965292562,-0.006872395067028553,-0.058920162486130405,-0.03410923888799866,-0.039200853231370195,-0.042331540659993984,-0.07216249694140303,-0.045340883261630875,-0.027913481864758234,-0.03208679238739886,-0.001558403060250151,-0.0013893835038863982,0.030156230947676832,-0.023311395306311468,0.031622432360586,-0.0028352544828698684,-0.00394462287216283,-0.03499548506409364,0.011861826770741513,-0.007021631660314617,0.03385199206557072,0.015302924364032139,0.017675631335655757,-0.03227991217256315,0.01922294788896142,-0.0023474238740350288,0.0006346368477681933,-0.017772872672387058,-0.058027389848764335,-0.03420382677496775,-0.026596473573690247,-0.06623215588755657,-0.04550483064303742,-0.10064516119373673,-0.053752682855027045,-0.060378060336067255,-0.06831582840952344,-0.0324643712278273,-0.027628481253230044,-0.003675046738324788,0.016510216977879376,-0.018680839179619105,0.044138147914508825,0.024895291699145634,-0.010270136877282374,0.019949762839636148,0.017831596303277745,-0.00031014461143455803,-0.018931232724833626,0.02271143027286888,0.026586743539345006,-0.010156192785771425,0.018804196815575516,0.04053439745299558,0.011969959838225257,-0.00865193237599512,0.007100210773012131,-0.04027688386007571,-0.08004623702513683,-0.07864992334601269,-0.08217124572059392,-0.0625396966133074,-0.10431963263458101,-0.06632207378043635,-0.053040068156083565,0.031972378966463266,0.0342560086466863,0.044120833574756185,0.07389006188735647,0.07310377479644854,0.08334636348567478,0.05436978398791739,-0.028001136083397965,-0.01811364837019316,-0.0027227877670666836,0.006490034704666905,-0.0171345695833354,-0.01425833101275246,-0.011578456286945588,-0.0045723806070050365,-0.0022730340395414415,-0.01779638751035888,0.03583405289459087,-0.021431531578892642,0.021697734714944926,-0.040323736659718994,-0.06991732350654613,-0.13306930305545886,-0.15277249968688314,-0.18410600484745918,-0.17607427684549634,-0.17694458785615105,-0.07240313974421689,-0.023641401716307027,0.02073034678870985,0.03634871292501635,0.08914447776415142,0.06092137051020497,0.10268382940724488,0.019163571803948252,0.013464015447008624,0.02990473520485113,-0.010608836867029025,0.0006981648371369681,-0.0038020478690337957,0.00035591518830737647,-0.0011882452515589326,0.02773928460681961,-0.020738133408428314,0.03097367666598701,0.00481627543600557,-0.018621032886846307,-0.043416871587880435,-0.04865082002588534,-0.10190117859957154,-0.15825947861036424,-0.23297703299873906,-0.311702148438272,-0.30096247174262486,-0.22166929937586258,-0.1665629697351418,-0.07099257367645316,-0.012963376951101979,-0.016165701256811646,0.04062404150858821,0.0489768574486482,0.04310095306680494,-0.005990297618437751,0.015750552049100173,-0.03355961080611387,0.004201837370294207,-0.02884869970348531,-0.0006476068373316397,-0.036768493338241746,0.011714615282123145,0.018209086845719598,0.013228047703642208,-0.004575527454483447,0.004995959782321113,-0.003888401559271432,-0.04914116641406714,-0.08496726869615509,-0.09553709931025926,-0.13515190555167367,-0.21711277226284212,-0.2774021917423981,-0.3449472453686087,-0.20848328269034988,-0.1073980104399906,-0.04980156349946337,-0.011014094357105824,0.024765797278360285,0.03275800194601661,0.0355259607720736,0.01567912890454942,-0.031829054963243224,-0.04705199523424531,0.010375426681377128,-0.02022282312711568,-0.03035401399573451,-0.002920744394384363,0.01764042175144866,0.012125639841846362,-0.010565649163277652,-0.032573416105794714,-0.04289416677937003,-0.00933625523775752,-0.03312070124514895,-0.036832332002458563,-0.05942174082374603,-0.05721943366244449,-0.044753111764291024,-0.11516881693428511,-0.251465450105802,-0.20802755373121326,-0.08242588449825979,-0.00935835633718763,-0.009311057198482008,-0.037197075157850853,-0.02435891459582095,0.018683905865080737,-0.03326033470310418,-0.04208173211855557,-0.04384075312121585,-0.023174984921712875,-0.03621846200219132,0.004958940416591652,-0.02129039012890274,0.019963615997421264,0.009301235979034156,-0.014736779418659978,0.010804951758064351,-0.03934481659079738,-0.029119635964696248,-0.03902674480082742,0.0051656640849398194,0.0009398016409008089,0.06501663867625539,0.07622884825022846,0.01465711256370305,-0.09824977434410861,-0.20242448097176682,-0.11465498716506191,-0.00626069088154122,0.08038580355044993,0.029343383493150122,-0.017391067241398918,-0.04332073447820742,-0.01607265458511208,-0.0075505963479431506,-0.019737738756256066,-0.04915489830791992,0.019031544269892214,0.021478625391203827,-0.0007584835422294545,0.01562696973690527,0.0008692412873786126,0.012033497031014735,0.02553675542862291,-0.03472541429372677,-0.020259944044042723,-0.023073233631427416,-0.014979844690934765,0.02804436985926066,0.07271999393303746,0.1261539585083039,0.11142965054018816,0.021732746987256444,-0.07999958739033954,-0.198576406786063,-0.06783012692589697,0.07026017731193578,0.1441116793694857,0.09671135880061137,0.024080862287680995,-0.04371501416500339,-0.07420953691903723,-0.059989757905472105,-0.06484388838084212,-0.039767238624197086,0.010003535051892967,-0.02405920386626859,0.010041394931463483,-0.03288101569523072,-0.01937264925174773,-0.007030065678400723,-0.01513069434631747,-0.024352287628065444,-0.02506596706464137,0.009821948170944372,0.05403301510885399,0.13918032305619557,0.14474965258991102,0.21383486363894033,0.17826637676124163,0.041279267726420196,-0.05465048227271459,-0.10089355868756286,-0.048409261070937126,0.14637934538196176,0.12224444666611788,0.06404115179085935,0.009406459239512785,-0.05999311442870223,-0.028927904705655885,-0.06267151107519002,-0.051408245081232734,0.004940614545865995,-0.027770189702040142,0.02212028252354426,-0.0024506889560023657,0.005069007610992059,-0.003267723877793671,-0.027359352240274144,-0.029063810980326378,2.5318279346686317e-05,-0.009115392361651299,0.08281295981088527,0.16071718671143245,0.2072383973492742,0.2323138276250585,0.26735207337486844,0.17698977543008024,0.048203321593173,-0.06279992019014428,-0.10004821224796034,0.020991000842365486,0.1458576548214026,0.16785446662645737,0.10366186617144227,0.04016872381337407,0.031341418251428194,0.026950433405511606,-0.041792300322846865,0.024968004073221667,-0.03858702464506547,0.0038986313674641677,-0.01822316633152317,-0.03583616293088669,0.010394665096077865,-0.01791678140137504,0.007046439832468641,-0.025982633719209055,0.04173464489287434,0.06547353712109531,0.14827588196682923,0.1893590217333196,0.23078297149645322,0.2111844647965275,0.2516461255624903,0.18810867638329345,0.0895350100995577,-0.009302159481657623,-0.01551289350307144,0.07032344593741927,0.19461480472501672,0.23709767148021066,0.16803566743466591,0.08571696993729366,0.10011755040833709,0.041004234010381446,0.010581552653957788,-0.011995111556913825,0.01607428466696596,-0.01835258571027631,0.030131593411084207,0.005134934135286729,0.02454984005554951,0.010153742081072151,0.014439960040741695,-0.0027263869579252542,0.0010151864165671594,0.09568054635788248,0.15130019649169202,0.22208433358080648,0.22535633305517566,0.23882865278480406,0.1857228684105825,0.16252379155582597,0.11396392539781308,0.02817007453659224,0.10792420880720954,0.17813918827636632,0.22230060167569998,0.2552453093483729,0.18871454013524977,0.12989696603995632,0.06941862909331326,0.010726321216409427,0.012529743730833315,-0.028580644662158733,-0.01809556795317844,0.00824193736120978,0.0028487161974324574,-0.02286304198742045,-0.0055698066016917624,-0.03182822862933956,-0.033219835818945366,0.029146378433223177,-0.00604503129086422,0.016882802272208904,0.13115724292929382,0.17207482313004635,0.16172807533100556,0.14078225136470768,0.1345653600874292,0.08365652473017025,0.11438456129378008,0.08379936440701044,0.1754640156008565,0.2247289537356132,0.2671838228312865,0.20475636246060203,0.1407157372850518,0.06087541780153703,0.03355985697486818,0.01580477215085967,-9.605873716253932e-05,-0.03917894031805976,-0.02285866023711212,-0.007373448213494427,-0.02067604929179798,0.0272435431782112,0.014472614838926192,0.014538081058436274,-0.030095190667420103,-0.018725580664933485,-0.0399053017841144,0.010630083528359832,0.020069335010966645,0.06418613213431841,0.07917220674672443,0.0548192706597235,0.045044629398871175,0.06320785216359041,0.039302000870963326,0.11619419628966628,0.17448487831324133,0.22321470127000625,0.20175061257469626,0.07956064816803905,0.06315100797912979,-0.00046729924807108897,-0.026320539108131855,-0.058068610805195875,-0.024434940523787693,-0.04726303670546911,-0.014889456194883126,-0.010479437040446817,-0.015690070948161154,0.002765866300704768,0.016618727202477458,-0.027629183350073777,-0.010189144613647705,-0.015157721583682318,-0.017326641309758056,-0.04903137835772372,-0.045220121020250297,-0.018079164184884266,-0.03150443543175587,-0.07521436326676809,-0.07972169316221472,-0.05379864325633086,-0.04204554555692324,0.052713988738762874,0.1228101158959636,0.09509642071275388,0.05881226351382531,-0.029731498573894986,-0.07196725966551253,-0.06833996168861421,-0.09087399898007383,-0.08236512489682767,-0.07869926472694769,-0.052396768054601646,-0.00317306388973098,0.006511656117415983,-0.02389189018951678,0.02100757799244043,0.021813505527739353,-0.019509140606790595,0.01611374041347577,-0.02832175479342128,-0.035197078389149615,-0.023076607710306656,-0.09872138115561208,-0.10364528028724834,-0.10769910541175204,-0.1331221846607961,-0.1924219518984095,-0.12971529391968906,-0.09315940124369121,-0.06343994680222761,0.0181019959552717,0.009404217187206786,-0.02754984087858071,-0.029997351434825292,-0.06281861626979031,-0.1113149942351201,-0.06350873258901385,-0.05758670232764017,-0.03015944625151999,0.002243798278252641,-0.017009703586551246,-0.019550104295987063,-0.029824054436424285,-0.020777467484040666,-0.003678132826929295,0.023820614189439936,-0.026470973261104695,0.017334973216603818,-0.01521862832106354,-0.08073563980783759,-0.10346654500376752,-0.11111804639179575,-0.16824178635883089,-0.17587191992573858,-0.19133910078756183,-0.20824076248529635,-0.0943714419976257,-0.08082271422006036,-0.0696118640770891,-0.06223341770936917,-0.02240986443033412,-0.03271868956392187,-0.03108096495914856,-0.056115720828166245,-0.07754754439932085,-0.01714080729823348,-0.038448834610459545,-0.030948622852842462,-0.007203351994253065,-0.003740782346670678,0.0036247417227889493,0.00398735597278004,-0.002503099181386454,0.005309611158490997,-0.024901566724183123,0.020282189510081462,-0.05131466412885602,-0.03756379142338482,-0.07459874701266617,-0.13619627578964633,-0.17893807198544637,-0.16556007766674882,-0.1428468606602124,-0.14300443105972635,-0.08842992690976065,-0.07463371267905036,-0.07465273547700885,-0.02830801066394875,-0.03729532119298189,-0.026971818543614183,-0.005222766828244269,-0.030402295021987127,0.005384951647729723,-0.004488444677346569,-0.04769032288770787,0.0033889110656968903,0.00209534831677868,0.031904945776660025,0.0144347274901398,0.010539539941733116,0.010604058482822238,0.0037743888104855615,-0.005628157221797983,-0.014495679371753532,-0.03943221359253045,-0.022686886189714678,-0.026752574822072016,-0.10802776485552142,-0.13667078446014375,-0.12466697179878035,-0.12315246838738245,-0.11458184534447038,-0.07740377145978668,-0.10347723867961617,-0.03744332671859514,0.004489481518787233,0.003897268485246709,0.022751728480039226,0.06055536441880661,0.024062600406796898,-0.0009440682694883683,-0.0022916748710775326,-0.011451616352555961,-0.007318125119074923,0.00682342954612526,0.0237295906477688,-0.008165244309177963,-0.00933191752196968,-0.03186858469948574,-0.005350776992878534,-0.008547782231868657,-0.019757947572702213,-0.00922769176128218,-0.026325544553206338,-0.041745037830025984,-0.046287598544372616,-0.029385688375472466,-0.06433079548463333,-0.06432094229933506,-0.08041247546520039,-0.05916262543895637,-0.04582136803740254,-0.05738326145161981,0.006184005830930902,0.040815777210220554,0.052242681224850235,0.08480378117882137,0.03084289349671784,0.03953929154987452,0.03146388684573023,0.004224137846087303,-0.03347163296212029,0.029746779523733894,0.029873683115184832,-0.012349685600690616,-0.00505611246378973,-0.0046425229025722214,-0.03168013888357008,-0.006390512157251622,-0.0024222357096807742,-0.018798301613069245,0.002781674364432128,0.0020749873647061268,-0.024558613115983594,-0.008032374607320985,-0.06102564424601451,-0.03833281225558406,-0.03344944977284594,-0.03879399536549699,-0.02592237125596927,-0.01833480329881243,-0.016172417028225645,0.01063533367503259,-0.03902307632388541,0.0023836609390943614,0.03141220004717088,0.009987233221101675,-0.015158827978489714,-0.016256958315296322,-0.02399609413138949,-0.02684143736817271,0.019849606512707924,-0.0077358230160992384,-0.00011818136064025073,0.008681645995334648,-0.034130818767640084,0.013872677137713809,-0.0006671438310199361,-0.03520301964052341,-0.011787460201684162,-0.025093187338005772,-0.05138717408772687,-0.05567920668773196,-0.022817987196024108,-0.07068025551547627,-0.061193105892433555,-0.09792637636472337,-0.10672095420893703,-0.06852037994632389,-0.09746550992820432,-0.062468257581651185,-0.08313062323801874,-0.05234052857718986,-0.05313973139015712,-0.00494163266632698,-0.008239450216592595,-0.0289850202567099,-0.021840961533348226,0.016376168290693112,0.03175116660648194,0.026421988430064974,0.013374153464020908,-0.023903736287324964,0.0003710053123710136,0.03171808311698252,-0.013988896238758708,-0.02302988960639251,-0.0010907076250934317,0.007947877376894594,-0.03880016428693453,-0.03984104304902265,-0.022677288323911853,-0.004074762976098812,-0.02869023089622387,-0.015381238033096035,-0.028635869413714602,-0.02781045122755709,-0.011565423032263367,-0.06012688822343974,-0.021792510843561944,-0.004113165130288694,0.0020494596122628715,-0.02258476032868064,-0.03728967001867088,-0.021421132895299105,0.00865080544722271,0.03546494927696308,0.005007881320992782,-0.011785601769165202,0.029803546511619892,0.0042643124856682835,0.020450339308299172,-0.027567711301602307,-0.0032429285567701555,0.017773325560324543,0.029872792993249842,-0.027380705113664073,0.01379307784185198,0.016858669500363226,-0.022217735595570755,0.020268565438322467,0.009108842039260231,0.01565582796792896,-0.0008942116701181863,-0.022397289256327252,0.0254012086479759,0.028575804324944904,-0.02478389223201805,-0.019342411463793882,-0.023070662317159485,-0.01184690658396158,-0.006774453372572151,0.0343509641818475,0.028646534466379762,-0.02891587561762485,0.020922027390569396,0.015209485970336865,0.02539121808631072
0.0020182554785889623,0.029103876530674627,0.008260078657924663,0.01778389600808514,-0.03406409891552618,0.009582144844022382,0.021730944579028116,-0.011551892420036989,-0.01055676601731554,0.007715771247293065,0.029674384730159025,0.028546413668305584,0.0050824466022595105,0.006536023061340554,-0.025368909650480487,0.0021344024990660538,-0.02486004510708628,-0.031783807446520596,0.032881880666332165,0.028713398886867532,-0.017727177280625752,0.0072411350483504045,-0.033948980566964375,0.03327345831354546,0.023561976348101372,-0.027204178590367355,-0.01927367391981028,0.027021896182437964,0.026234008151743916,0.012509037776912557,0.02415393332565465,0.028856186288058788,0.02544849655891846,0.02368319970292616,-0.024909743808613657,-0.010163205227225585,-0.013634208191826433,-0.015318728229714607,0.007739456191960809,0.010566325747118084,-0.01880807993599872,-0.00808950373752367,0.022659236162356527,-0.03412145349133549,0.002050034350720112,0.027299683950751687,-0.018534329098988667,-0.020286111759607012,-0.034963869981753465,-0.013425135845597656,-0.00461349839975558,-0.0004529351122450237,0.014814497254677404,-0.0005996673139390277,0.0038992660217271797,0.0028623427033763194,0.008930087261124897,0.0019920142594020973,0.0031488216206103535,-0.002009173676394473,0.005915970127761951,0.01998922843106932,0.028678695221529323,-0.004440288962459255,-0.016778255269090273,-0.03332305594198633,0.012393566883587897,-0.020624047622756186,-0.014587526463660173,-0.017996626831602486,-0.005720121187434568,-0.038283869755541426,-0.015556995511855581,-0.005803372835728441,0.0005020569824172116,0.003527895870651535,0.01312410193477334,-0.027917610906380244,0.016873333987970418,-0.0009350887000038108,0.01238267035009235,-0.01731115910574225,0.008649903218290416,0.0179748228947214,-0.027342996570963052,0.004502763472913142,-0.03510115671704525,0.020744038888245702,0.0308652631252458,-0.031751954613716084,0.013718713589664535,0.0034372283020108903,0.01953355171616426,0.008055019344447663,-0.042362080662043056,-0.019265751281435452,0.007737162363909475,-0.050670519410111886,-0.004766851336301848,-0.03456145493383107,0.011039574062776433,-0.0312623329316238,0.011269749652303535,-0.0036856288969155456,-0.033423525785681224,0.0034643349982843023,0.024604055889189607,0.021467563641270112,-0.015418819593483705,0.005820082525898082,0.015908523187878606,0.013950037004364613,0.017446504964987897,-0.01607262399326897,-0.009739678564551765,-0.00024403821670314485,-0.023083765014709372,-0.03338847950999023,0.0031674199120507096,-0.01793943704912237,-0.0004534022195980796,0.0021426873523199288,-0.0010925264792723316,-0.033378696416530504,-0.021477631828503534,-0.09311910282101739,-0.039141951714817644,-0.03874209984846343,-0.015347427156609729,0.0010913796963925504,0.0272595481051689,-0.020558681783819695,0.0360453149628531,-0.0005852279566604366,0.07167147411923766,0.021322059183391612,0.04922435418444062,-0.01841423394574646,0.008707259699775892,0.013918825504405137,-0.024030938124953626,0.016859319044230055,-0.007589715785739206,-0.023286423672428953,-0.04163706019333271,0.013423046768763167,-0.04816418836696454,-0.03882576790771174,-0.04237358202109968,-0.01853871429960682,-0.0011398012214239818,-0.030354347117335454,-0.0016772953512404353,-0.0034088849277272145,-0.0290745762000886,-0.06737362317890357,0.005659589794747531,0.03935625778827866,0.05421603082856434,0.02083554847122292,0.08714777197014874,0.13252583085337571,0.0894906891112293,0.08087825433382496,0.06602101438990503,0.02280145565123102,-0.0031795673919650393,-0.03305665662663603,0.005026357604736607,-0.008349212476307611,-0.0331623921789452,0.01472746523082479,0.010824283185562191,-0.0300072951734729,-0.011078476918856309,-0.019170732398952554,0.017195273143452816,-0.015554189941231306,0.030066429307994788,0.029344523624450575,0.0070103798727566,0.045035278902648836,-0.017187791110952214,-0.010291262745402248,-0.015837698745258286,0.03754002885424461,0.06252643942377584,0.06026857632247806,0.13097934189402086,0.12545226409448693,0.18381887014777532,0.1440731456355245,0.14073398957538197,0.0806798024095341,0.05215685538404252,0.021756357066434133,0.004443131456950797,-0.013576728248955224,0.023175546407319742,-0.022852212151521018,-0.0010938809376356945,-0.00911792049833525,-0.050920134631114194,-0.021702022802717606,0.01425585850441625,0.02774665510403733,0.11347085658787585,0.11051802606642476,0.06611264038985751,0.02541510169300595,-0.016411772007403957,-0.061779708671062736,-0.016689941845230507,-0.019277097702534638,0.015611553976058241,0.08332755126677097,0.08849324744582159,0.1282290678394024,0.16249875457190494,0.22599273113896431,0.20728071031096626,0.11768139067400762,0.04583233246508139,0.0038994021156262063,0.004125345509131845,0.03368614205881568,-0.017990106217069528,0.02369004805881946,-0.02843710813049868,-0.04895841444125136,-0.057838042239883654,-0.008855896185039005,0.03970952033410732,0.04968848976167515,0.09379210132777671,0.08060114405190552,0.017218257668753303,-0.0054573133504984585,-0.040059796857817416,-0.0437910649707237,-0.05132698480076315,-0.05169565588062516,-0.0010488117371463246,0.040505973156329075,0.07587274490962705,0.09479987659496301,0.15636039527332993,0.21980946304246282,0.22655138520327278,0.16630769282670912,0.028158553171106073,-0.03000132470378969,-0.0016566853094954473,0.02828651364747927,0.004523621103913176,-0.007840148353983082,-0.04544930476217264,0.0018636723383972647,-0.02822919768963263,0.04504403599334123,0.047857116807326176,0.04821556834099986,0.1231398737898609,0.11975194514078558,0.103360610568599,0.023773310109672808,-0.020447449459004768,-0.04003054846486569,-0.10099833496526263,-0.07706079229146978,-0.06374945697856922,-0.061488198207706284,0.0028818182428716975,0.04002649807145485,0.10828770776340552,0.15841653345837653,0.1894173598450552,0.13457682277895758,0.022299828483555308,-0.022309195210439725,0.005759676379842347,0.031081951483014916,0.0254329380469866,-0.001543622623817755,-0.01691188440951253,-0.027992116869174088,-0.015087305145666067,0.020517484027000137,0.09339752958542037,0.09202695803552509,0.11768936261198056,0.14195943345684622,0.16856247940531563,0.06981451539785766,0.02614016544268902,-0.04575582576239065,-0.09426277899113711,-0.16097436593466358,-0.15795969797983883,-0.1524922273722272,-0.10991354464978599,-0.08709880224668831,0.01016039588299391,0.05124099638440162,0.0930957773303616,0.04662213981076851,0.014362673658721953,0.025599617212119247,-0.011287550713457778,-0.020713395237645593,0.007352596384545688,-0.007450279636584223,-0.036594340025131754,-0.0008390870271181228,0.0066679263799804146,0.06354902396208134,0.08701636155167258,0.14528634065843768,0.18671658616555856,0.20322733925699407,0.19288062414498844,0.16946160917864933,0.047885997824285986,-0.05268121695943111,-0.11308519952014368,-0.20110390994402275,-0.19850414938416444,-0.21687828588915767,-0.23614793754731447,-0.13495402186746197,-0.11455881362179841,-0.030232347655073436,0.0173952075595382,0.051848722538173,-0.024366236514106916,0.009117326118586287,-0.0086688169403103,0.01621662202375102,-0.007030040330076802,-0.022293675960118272,-0.031994175500880524,-0.020602510751851037,0.01983140464358179,0.08607615411167747,0.11296121274697281,0.15311687701517324,0.23317123107850932,0.2916368911437743,0.23311526374191846,0.15708721789636743,0.05841965662829042,-0.08500796950094161,-0.12620161533960528,-0.17091840727485832,-0.1774920457902939,-0.1893201060259374,-0.1820314814873442,-0.17482929361590888,-0.14472747215517834,-0.11781131126356285,-0.03683618619563996,0.028540069984495837,-0.010211346711248827,0.03383147083134282,-0.010065239575941185,-0.028344360046044705,0.0170202996998768,0.02996001778358811,0.00707410436072176,0.008817800380397763,0.013656103399636344,0.08590260390844358,0.08152991783098823,0.17622563824795126,0.24345705110434265,0.2556177950502968,0.1947837208365135,0.12328116791948776,0.008574219213953148,-0.07740211150536654,-0.13860646417742783,-0.11471517210770785,-0.0786963881109946,-0.08546274521692605,-0.11820425616077695,-0.12102631093435251,-0.11359702437800447,-0.0583239657259615,-0.06843185840751079,-0.039498533837419865,0.005293885328186086,-0.015963543268969222,0.03357628602649119,0.023908107861631202,0.00903003466041548,-0.009957080093306231,-0.022982917576837982,-0.044351012823977735,-0.009014823558678655,-0.028501753420181464,0.046190888778013986,0.1211639629758551,0.16782550477363242,0.1802047172066401,0.1250151519928168,0.06479628105747112,-0.026914073091240637,-0.14026145760630418,-0.11736640522692743,-0.13501313800810094,-0.02354030317803046,-0.051859544251436386,-0.036950432751968486,-0.0744285916046593,-0.059409138932807665,-0.028124141528715237,-0.027537867868074006,-0.004913370107288472,0.01355990791993062,-0.011852087233395855,0.033132581464114755,-0.03407055093174556,-0.013740542174819764,0.01853776831581558,0.017978886901852748,-0.003611640575743919,-0.08031805687937875,-0.051631992497687185,-0.005665783701404563,0.015235843722411213,0.05043012178283224,0.06459686331373422,-0.007289311220794016,-0.026027641505680318,-0.12461575224086834,-0.12747971806531588,-0.13162576468061252,-0.07660381311942095,-0.04467953458233233,0.03019364592580384,-0.015645435212487353,-0.013705876143161025,-0.06258157206617317,-0.04149894616725474,-0.03719747878556261,-0.011740468450456436,0.013126423344781,-0.015066970029756793,-0.018036952799696693,-0.029184872287370565,0.015697643009846107,0.033552022552434585,0.019331149920832645,-0.01691588606258999,-0.08566265499592648,-0.13570011605409588,-0.14811237937877422,-0.11637986853203819,-0.13330649680913614,-0.05702075581203441,-0.06387895440811872,-0.10408317089723745,-0.1104023435781615,-0.09165114694439776,-0.115938845846597,-0.048775020016902926,-0.021332361768368533,0.01613300012188408,0.009120155136124408,0.01447974788480322,-0.030852102900487288,-0.020361622332501175,-0.018152593551086647,-0.003381030784597722,-0.0014164754820108379,-0.016266992128069754,0.02754891064575037,-0.029296907304865994,-0.012307249347429265,-0.02047460328137362,0.01578782954908551,0.01760857654485027,0.02824328794036901,-0.0873696859590456,-0.11090450946323747,-0.14360212867713792,-0.16891277061931204,-0.15407694536800903,-0.15229061043238984,-0.1565650082575813,-0.09057434867494618,-0.05748275656447212,-0.05702150003319996,-0.035421832892822684,0.04817814911010716,0.015932917212617827,0.0025423178114880257,0.017072275212744233,0.028339776084043016,-0.0056053109344943374,-0.011843902716309654,0.019351626358956354,0.023607875268161754,-0.010719945466518426,-0.012879738184785685,-0.010211498027072687,0.0007096724489070491,-0.03565502869733092,-0.00831602903455067,0.04528934105700979,0.06821410695670219,0.02758228805192563,-0.03452132124034653,-0.12295483993578162,-0.14753200143804956,-0.11976333679012639,-0.14058335600453586,-0.10884702112092394,-0.04226421110723631,-0.055149839988893626,-0.005527166655833059,0.049965844532756494,0.0047407314203802365,0.05745210646579685,0.033158377380551565,0.0029559448959347195,0.01431130626624638,0.05433298821443096,0.0006598704464211592,0.01930255744771985,-0.013275217116041137,-0.03488015275757207,-0.012304311448956773,0.015424069179004267,-0.01849875366116318,-0.03481591375069805,-0.007274099634820361,0.05253235395404034,0.11076685347193023,0.12879396725292563,0.059634324525994216,0.023757385474236812,-0.06949557683595518,-0.021997464912900444,-0.025551858883403993,-0.005381705690982997,0.02118723714034072,-0.019168975965041125,0.02172170375635413,-0.008120122777290437,0.05330833811088851,0.05817692014143224,0.020124739408891888,0.03750232616583034,0.005367177313059252,0.047474763067219365,0.03561453800428699,-0.01704355642349938,-0.01211447385041617,0.010537195380468925,0.01733186711216818,0.011189600541426861,0.017444846170682933,-0.031133779860743078,0.007950212534895784,-0.010331915848554377,0.10647506274555256,0.12156273811376313,0.13087230742198022,0.09340130323026725,0.10327905194839555,0.0658371068198018,0.0396702882832907,0.005584724547215051,-0.03162348098052465,-0.02780965047912319,0.028603064278140754,0.046363830467473784,0.05303700581537529,0.02382244560996104,0.05547448996079604,0.004498337875933958,0.022639908310980145,0.02985111782615223,-0.015639643435078596,-0.025798492178677652,-0.018728991365939848,-0.021376299238852346,-0.027403231422576047,-0.007401795277792487,0.00044860373129367004,-0.006856414217656781,-0.04512265067231027,0.023843321421024598,0.02176025219034503,0.1371095140467738,0.16790628305655772,0.15456707173070158,0.10838238363141316,0.06608252553400766,0.021172069922375872,0.014213278728291154,-0.02759514963044462,-0.0010732501590512244,0.050023017794928265,0.043304276526113746,0.0978738984631903,0.08014113673440967,0.059816419538393756,0.0653157973985836,0.04525236345483766,0.021408740821891467,0.03461360151645961,-0.003762739476655887,-0.03460137988015031,-0.015887187535399624,0.035694033511459326,0.03195776621326958,0.022254174342840907,0.0013924566042221613,0.009755022287648876,0.0029732077448809406,0.0009098511856171188,0.05291967368553064,0.06417895536681281,0.08932308942979833,0.1267515793477139,0.1088157324935431,0.06027052651001629,0.039218053389930306,0.0784331418595292,0.058101724311160785,0.09314010148577609,0.07547662222873898,0.052260250698500814,0.07079663537073491,0.06295772119490442,-0.00224286375694196,-0.015322978362328724,-0.016053328744297067,0.02376645080003504,-0.03360690213185994,-0.034057697560955925,-0.00011097339011605887,0.030018581874453863,0.02130218310060645,0.026630491908859938,0.0018706839790305315,0.004147580447079329,0.026678632228354694,-0.029493103546276215,0.007364724725614043,0.01323417654152222,0.0679269063879915,0.050712898537509286,0.09715278757127206,0.10851648589583264,0.11667290875504946,0.11623649972457836,0.11001225530042948,0.04174442124870301,0.032637373286387196,-0.002269830334743088,0.03609477558441939,0.04088378312140516,0.043300957691437894,0.03089862730494605,-0.003203492646780823,-0.0004969185421257264,-0.030476855694390525,-0.03218131718923325,0.019358803711371466,-0.02922249337427215,0.016936446114798814,-0.02556473825181709,0.00529814144138557,-0.009837935591421383,-0.006210780847279316,-0.037951714704736614,-0.014874285599468165,0.013462484340041691,0.00575225932378139,0.050547627642772236,0.06903697696671271,0.07054371568563662,0.08987650505598972,0.053542140438432605,-0.000560057855619201,0.007351047449500149,0.0173123441630653,0.038517305666961876,-0.032104907713966055,0.0030737974890092386,0.01595481195349348,0.028474887672568238,0.0029226200091435404,0.019780162442917415,-0.00905340399284536,0.014695200745111098,-0.000935283465737069,0.0106826176085028,0.004807543538589357,-0.005904312759413535,0.00943069696359608,0.02833483520723301,0.00694992305169708,-0.002302388399450173,-0.005787290163192219,-0.03042655390385887,-0.018477183971952187,-0.025379470312141373,0.029939880327745392,0.011748850806326176,0.03232433926447989,-0.01911718234495482,0.0026662380230459267,-0.03275233574243055,-0.03480022825284051,-0.014632958810756993,-0.02446504710709575,-0.010903070970373385,-0.0311315580754758,0.021674312642014845,-0.022511354976227856,0.006415813712250125,0.0003642286834468925,-0.0012606767310342016,-0.017556153520392755,0.010881155798995202,-0.023956148251668728,0.0221588193917438,-0.027695787387854203,-0.009719704644477078,0.03332253785859697,0.023917719637136535,0.004076223077778402,0.016954011779024836,-0.002670242806096253,-0.008462157927300222,-0.02004243561210981,-0.033900313700772844,-0.03645546470801506,-0.035786900883356225,-0.024217987652905344,-0.01432104345519402,-0.014263107660080734,0.00362556812265294,-0.03847658889823773,-0.024410827153175524,0.026293011631441536,-0.02529771126841708,0.012174327753311233,-0.02942447984274613,0.012714832298856954,0.023738374692633853,-0.034654798917191774,-0.02598236911051652,-0.021794531095630534,-0.013518178903071474,-0.02957714513450705,0.018387515587470822,-0.00039077763072394787,-0.017303320694901335,0.020778004341456074,-0.0003653223227137883,0.022531440529510956,-0.028047221633936446,-0.024708786079220717,0.03418109567478577,0.007579676619240518,0.02278630572839444,0.023755967184034898,0.0050839125723302825,-0.01084070891300811,-0.033847470220169845,-0.027171795416257614,0.005032500628157271,-0.01378377905874062,0.026862465982188593,-0.029791374865820557,0.03473054725245731,-0.006722956489600457,-0.015318734245700951,-0.009006204306632213
