442,842,-193,921,453,364,-141,-836,889,-2177,-2193,1035,1947,-366,1916,-696,548,1961,557,-670,1593,2123,358,-1211,-315,1376,98,-1482,824,-1621,369,-1933,1705,905,891,-227,-1893,-1972,301,789,-1563,-469,1888,-2051,-1996,-108,-318,-791,-1067,981,-2081,-1110,77,1291,877,-1762,430,-649,-1060,-2338,-1902,-338,681,-1456,-1440,1575,1915,-510,-804,2456,-359,-1441,1668,-1174,-86,-1655,877,-1500,2078,-218,-648,783,-385,-1161,1404,2060,1609,1176,-1689,-488,-2233,2033,-1606,-676,-2418,505,1345,-631,84,534,826,1782,1619,1706,1898,2481,968,-2205,-1096,1127,309,1131,-1558,-874,-2082,1142,1411,-1415,1177,2026,459,1706,252,-957,-1486,1899,593,2208,212,379,864,-1173,2862,1007,-1068,-2180,-227,1550,656,794,-1452,-1220,2153,1446,380,541,-1926,-1580,-1067,-2138,-2129,2111,-643,3538,2584,1373,-1402,-130,2584,-436,-1095,-552,-1455,799,-2065,-1958,-1018,-2253,-2014,-1242,474,-1223,-72,1622,121,-2117,602,-913,2110,-260,488,4044,2635,2337,316,1104,-73,-74,-1392,1728,1902,-2341,1588,-2064,1746,2141,713,1692,1313,-1186,-1790,-2579,-460,-2484,109,1992,462,2675,391,609,-388,50,954,-1336,1776,-1464,827,-199,-1620,670,-958,549,-136,-631,2016,777,-1633,-41,-606,-1077,1844,-1826,-1452,2350,-128,995,3700,-605,2683,-1759,-2536,-1971,500,-831,1162,-2435,584,-2266,-1611,-803,483,270,-770,-1181,-1533,-1660,197,-1909,2100,1044,-33,600,378,4395,3347,65,266,-3195,-4566,-2247,-1636,-4056,-3164,-1668,-2388,-687,1037,-1849,-907,1000,261,-371,-483,-299,1201,27,619,1179,-1023,1984,2785,3391,-1718,1064,-2104,131,-3165,-2383,-119,-97,520,-2451,666,-118,2065,-2,-335,1305,1152,787,-222,-1423,605,-999,2610,1899,1337,909,-505,-831,568,-170,111,239,95,1651,2615,-485,-1059,-528,-2785,1226,-543,1958,-1271,2315,-2251,-709,76,1384,-843,-760,1552,-1615,75,2729,540,-1232,-1838,-2522,672,1752,-977,788,-633,2779,-1015,-913,1348,-215,1128,-793,2172,-1802,172,1382,1190,1569,-697,-695,934,3213,2891,-761,1569,-1006,-951,685,298,1192,954,401,-456,869,2320,190,-393,-810,1466,-485,-961,2208,159,-2180,1393,470,-876,-480,1383,660,193,2968,-1320,-2461,-1815,-461,1278,-797,-419,128,2687,-1745,1914,2609,893,-2395,206,27,1417,1865,-1747,-1992,-2321,-294,-282,482,1112,-360,352,-2073,-915,111,-3218,-164,-2161,-965,-880,-525,1487,1251,1329,-1063,-2549,1655,-1892,1211,-1385,664,2239,-1336,1724,2156,-314,-1013,-2759,883,1848,1674,1238,-477,-1179,-2014,-2677,-1525,-66,2330,1920,-2173,2267,-1796,-2065,-2677,-496,-378,893,606,799,1106,-905,-962,-382,1742,-2303,1720,-1146,-166,-1567,-1380,-294,-2274,1589,-99,-2064,-858,-365,2073,-1168,1527,-2893,1753,195,192,138,-123,979,-1049,1855,-1183,-1638,-2264,307,1328,946,1069,-1125,301,-4185,-1096,1848,309,2038,457,172,1633,464,-565,-2882,-2347,1166,-420,169,-621,2285,-1032,-486,846,-270,-2226,-2036,1849,-861,-1018,1112,340,-7,-1288,-1476,1402,1456,1435,-744,1991,1102,-2060,278,-657,2454,2066,-1203,-1797,1864,894,289,-2062,-1962,1852,-551,14,-1093,-665,-1873,208,-743,-1647,-206,-332,618,3331,-1497,476,541,1057,-1381,1322,-1966,1732,698,2157,1149,-50,-634,1524,107,2052,1389,1179,-1779,-416,-1550,-2528,272,-36,-1149,1893,1347,2616,432,1564,-709,955,697,-1042,1841,2384,-1044,-1218,-689,-2009,-1821,373,-2409,1303,-1197,-2919,-1891,-1325,4,1102,-908,382,1274,2984,-1446,-1202,1425,-443,-498,1120,-1221,97,2097,-78,2300,2237,1962,162,-2100,2075,357,-819,-1190,-330,-2690,-514,-2149,-2698,-3042,-3286,205,1436,1262,669,1415,-677,-355,-810,602,-63,1323,-945,-1679,-707,-48,1017,773,137,859,-970,1433,-1018,-2151,1723,1616,-2869,-102,-1909,449,-1275,-1,57,1505,57,-1027,-1047,-698,-779,1404,1592,-1588,1306,-705,-2316,254,1118,383,2029,1637,318,-1508,-719,-127,1272,-900,-892,1102,1104,-304,2403,897,1038,1324,2326,-438,204,-902,742,-1816,-1366,2168,-1312,-707,1780,1783,-1833,-2272,126,1661,-1844,-23,1122,384,2716,-595,-311,-1229,233,-738,770,2481,659,158,409,-1830,-2275,1268,1885,-916,-1713,-880,2280,1899,-1417,377,358,2016,213,-1346,-1524,200,792,-2057,-1412,1430,1627,-2139,-1213,-1161,-39,-1383,-242,-745,-1517,-230,-834,-866,-2230,2331,1415,-2339,-1236,636,1377,588,-1184,996,-1021,-947,-2035,1687,576,2210,-1905,-1776,-968,860,1734,-721,-1836,1144,453,1281,1185,-1873,1506,-456,-607,-2298,1282,996,-1299,-1269,-2312,1764,1014,-1946,-1603,1009,1161,-2302,440,1413,-1238,153,-602,-2211,354,-187,-2322,-924,-1480,-708,1309,1453,-2215,-1359,-2123,1664,1421,1338,402,1170,-21,-1960,-2560,-97,-1297,1358,-78,-646,1311,-406,1099,713,-209,-151,-1223,1856,-305,-1500,-2030,-903,-1142,1661,-798,-1568,-670,-1997,-1579,-682,-2373,198,-2297,-1139,-17,-1415,-1322,-418,725,1270,662,802,-1252,1271,-1032,708,-1288,-2023,195,1931,-2002,-1271,182,-144,-1125,2079,351,237,777,-2187,-2782,-386,-1676,1218,-579,737,-1118,-408,445,-1419,1713,648,-94,1252,-23,-1688,2302,-1180,1726,-412,-325,1241,311,-2591,-1477,-1550,1835,1157,-1318,-201,-2438,-2604,-2064,-2220,184,-1857,-2119,-160,-2526,-2172,2047,-1532,-426,-148,34,1431,1521,105,1674,-307,582,-1900,765,-1439,1350,3348,2848,1433,282,-339,184,1695,1634,383,-2411,1195,1085,-308,1163,183,-993,1293,-1782,-1163,897,175,258,-1601,-139,-1658,1443,-218,1753,-871,-966,376,229,-1325,-181,-179,1015,329,-899,620,80,-519,1803,-2177,-866,-960,1129,-1157,130,1197,-1170,-1149,-430,-555,2663,1833,-1946,-2168,2010,1151,-326,1621,267,-1705,1798,-395,-360,2270,-2151,-374,631,1577,-1299,-134,1643,-1900,-603,-2089,-640,2227,-114,424,-250,-72,-491,1453,-1604,723,59,-2341,1720,-1413,-83,-988,-491,2468,694,2036,-153,-902,-2183,1434,-1152,214,680,490,-1398,-1380,1921,-169,-1777,-237,663,-2536,-4293,-1949,-72,-1046,-1019,307,-518,2355,2391,-524,1407,-1407,-1507,-919,738,229,-1087,-2311,-2026,-356,-1922,2593,-640,-1195,-872,1250,-1397,-1616,-1565,-829,-518,1437,2046,2684,-759,2746,1808,-545,-11,-1980,124,-1772,999,-2111,-1487,-1297,827,1452,461,-970,1447,-1831,-955,356,-2310,-2771,1725,1440,4070,2361,1591,3098,203,1666,114,2692,345,-1953,732,2130,822,-1147,930,173,-2152,-1403,1405,1458,1600,-2269,-2191,-992,-825,412,2828,1115,3580,2646,2774,2049,3416,537,113,1898,-439,-2287,-2678,-1451,2105,1106,2257,1234,-565,-787,-486,1465,-667,2031,3244,341,3206,1546,4813,2842,3180,1769,-1242,614,-211,-1336,337,-1131,161,-1544,-193,1227,1684,1825,-1948,-1654,-700,-181,-331,-1339,-348,-890,-1328,141,1895,2284,4319,2463,-370,2267,2241,463,-1770,-3072,15,-53,-2062,-692,-2045,-1462,285,-314,-52,-1905,-2225,-2493,586,-3505,-2405,-768,-1820,1681,2710,726,2663,-280,676,-1349,1245,-730,-474,-844,-1308,-91,1119,-1262,-2086,1751,-712,-974,-1927,-1486,-1953,-1623,-2704,-2176,-2285,-3690,-1618,-4354,-2458,-1814,2700,478,1645,-1948,-1955,778,-1152,-382,-2284,992,-2579,-1073,1167,1840,-961,-1577,-1461,-489,1047,-2758,-1377,-3818,-3512,-5726,-6882,-2618,-1407,-4387,-2662,925,-1260,-2184,-863,-1273,-361,-1802,-1873,-1272,-3664,817,1340,-863,-2241,294,1828,225,1065,-366,-1674,-1852,-2722,-856,-3363,-4158,-5348,-2699,-4204,-2121,1559,-63,177,-177,-1932,-1662,-2664,-2498,-961,82,-537,1003,-721,575,647,1876,-249,130,895,-1499,1255,-2538,384,449,-3769,-3012,-2073,-1139,-1690,541,877,2197,1697,217,-2795,-246,-2945,-2488,-2260,1661,2333,-1365,1638,-186,1382,-399,-218,1709,2738,2450,2806,711,1815,1269,-974,120,974,-817,-1190,-1077,-1043,-3384,390,-2870,-3021,-1339,-572,1850,537,-1267,-905,2028,-45,342,2665,1507,2822,613,813,1362,212,2024,-1387,1164,796,-2822,57,-942,35,-51,-3375,-2006,-162,-580,-284,-917,-186,2159,2266,2277,1464,-895,3114,431,1630,2801,1766,-473,-1320,-535,-1646,-2179,-3622,-155,681,-3602,-428,-2612,-238,980,973,1606,-1809,-2142,309,2077,-1049,-475,2354,-620,2578,-702,918,-1195,2408,-787,-1959,162,-919,-1236,705,-2245,-1019,57,-1469,178,2286,368,-1523,-1900,755,-1929,-1624,-588,-1361,-2121,1878,704,-253,-1096,2057,-684,1917,-80,2241,-493,1900,1885,1895,-2149,1297,1981,1012,1654,2775,373,204,-1681,-1274,283,1060,-669,787,-1951,434,-591,-2219,798,2568,2157,322,943,-179,995,1931,560,1318,1822,-507,-448,859,1270,1566,-2257,-604,1509,2018,-1744,-1674,1872,-2212,1833,1580,-602,2245,508,-576,529,811,833,1946,-1687,-135,2286,-1755,697,2087,354,-1293,152,-1661,1065,1148,1110,-74,-2014,650,-1803,-284,-1082,-1002,308,1588,1817,-1488,2266,-1938,525,-1616,580,-1873,797,1631,1789,1566,2008,732,926,169,-1311,-469,1591,-381,-1759,1803,1054,456,1078,1785,1326,2128,-1620,1451,1286,1609,1574,-1823,1003,-322,1786,200,-1104,-151,1322,-1724,1407,-2148,-1629,-288,2251,34,-2235,1639,790,-2172,-1790,699,-1470,2339,-239,-1628,638,1036,-1222,1175,-1495,130,-486,-1787,-274,-2074,-2172,1443,-477,-146,2306,1428,1606,2253,-713,1968,-827,-891,-981,-1421,626,-291,-2101,-1053,1713,-2236,-735,-243,-539,-1269,135,-1785,2161,-143,333,2256,2129,45,1288,-620,-435,-1692,-1077,-2063,-859,-83,-1733,2017,1729,1438,1589,-64,-2016,157,-182,1964,229,1099,158,-1250,731,922,-1459,-266,2297,977,1362,-616,1526,1574,1355,1147,1634,-1563,928,-1838,-377,-1753,-1549,-1447,923,810,472,-730,1659,-419,1188,563,860,577,2780,20,2434,-2276,608,-676,1886,2434,-834,168,-2311,-1558,1366,1275,-1147,-172,357,-773,717,1263,-498,2514,-586,1678,2849,1709,-870,2007,1656,-1489,300,-2026,1250,346,2493,1678,250,1202,2231,-1448,-1740,-1389,1349,-763,-2858,-1217,199,-482,-1477,2157,286,-943,-1879,2157,1862,2776,589,1451,1632,2069,744,-921,1480,-142,-2182,1803,-496,-1354,-489,-558,-627,305,-926,1136,-2742,-1323,-599,573,-426,199,-2096,325,-1804,643,2927,1298,-748,2845,-536,2395,1789,777,1787,1884,-1056,2230,-2105,-2051,-1359,770,478,777,-1779,1126,-825,1996,769,60,487,224,-2707,1569,11,459,888,2319,1391,-643,2316,-654,1196,1394,-402,-773,1346,-2349,1184,-1592,-1849,549,872,-1775,2054,-2196,544,42,242,-2539,-1852,717,912,2877,-1445,721,1183,2041,-882,-598,1700,-1409,352,1306,302,292,1318,887,-937,1248,2072,-1782,1538,623,922,747,-2202,-2424,372,-2168,1774,-2340,-624,95,-1628,699,-1586,-1496,-653,-200,2277,1153,-715,-1214,908,1288,188,2316,2231,593,1788,1992,1611,1041,-1109,881,-624,-3080,-824,-77,380,-1408,1475,160,-176,-995,1964,1634,773,1142,-1570,-2378,491,-1493,1616,2716,2308,1728,2210,2937,1314,-1053,-1475,723,760,-1205,1484,1390,-37,-1290,-2150,-1655,800,126,690,1650,-375,1536,452,-1103,2071,2540,1251,-407,2276,-679,859,2399,109,1446,-404,-1460,-970,1672,1811,1310,1720,1456,1672,-2456,1970,-2560,-2320,220,1864,1653,986,1042,834,600,1015,1295,51,2538,2273,296,342,1231,-150,-1775,-3374,267,1914,2992,-1538,1908,-1072,-527,-2032,-903,1373,-647,-405,-1293,-1602,-251,-929,969,1555,2639,-399,-1128,959,1352,2147,1086,-2866,-929,-499,3351,-365,-701,22,1891,994,741,486,-1204,1710,2070,-1630,-472,-648,-1691,-1390,110,-699,1969,592,1409,-2511,-2593,-2653,-2659,460,-1385,501,3612,1881,1075,-1281,999,528,-1987,-666,472,926,1142,308,-1722,1113,1270,1451,2836,-52,2799,-1060,-2341,788,-2095,62,-334,1017,-2018,1353,850,2766,2102,2281,56,308,-992,896,863,2115,-2114,-1547,1120,1542,-2269,139,808,2710,1230,1354,2004,-1636,2078,-533,1006,518,681,1349,-801,-163,-513,1877,1274,-966,-2153,150,1058,1995,-1990,2297,1649,-925,-1332,1505,-1223,-531,2372,-807,-1189,767,1460,-1288,1614,380,919,-2561,-211,-1711,-1738,1026,-1118,1080,-1903,-1893,700,737,192,-2149,-2246,-1587,240,-479,108,-1025,341,1372,-377,-1959,-697,1028,2023,336,-1522,-111,1585,-1802,1136,814,375,-1987,-2591,-1232,-2165,1043,455,2054,769,-1522,591,-2554,-773,-1577,8,936,605,1613,2637,2419,-530,1721,1529,-361,-860,1175,-2214,508,-2615,-1813,-787,698,849,643,1188,1832,746,-1428,-966,-189,-2493,-2598,-1085,2130,186,2587,-277,2342,1786,243,2771,-433,1,492,-2318,2136,-1476,-1812,-1156,-2389,844,-968,837,-1102,-106,86,89,-1524,-28,1961,293,-1318,1458,321,1816,-1142,810,-46,184,1166,-2493,-1542,-1721,2312,-459,2511,1338,34,1105,1053,-223,246,844,-1465,-43,304,-513,-970,-230,-1158,659,894,946,-1898,-109,1185,-319,1511,2368,-551,1876,-1056,802,-2179,2244,-1683,-1126,688,1976,-1787,-1649,-719,1453,280,-52,-423,-1532,-71,1703,-253,1270,-1759,2287,-672,42,-989,-1149,1878,1092,-38,1043,-1522,-1735,-324,-239,1791,1565,1701,338,569,-1960,-1349,2230,1769,-1119,46,-1186,674,-534,-1290,-1352,-402,-719,1280,789,-1750,521,-2071,415,1794,-301,-354,675,1064,75,981,521,1515,1708,1354,-1707,-1400,1750,-465,300,1020,-2325,-965,-1962,-1428,-754,-1970,-1698,2235,-1993,-1195,-737,1394,-528,214,780,-2075,-1334,-2091,968,-1608,502,-1227,-1016,798,990,-2085,-1879,-2199,1671,2038,-179,-916,-1745,-2142,-1177,-357,-748,1561,-539,-743,93,-203,-1871,1834,-1432,879,-156,415,-1934,248,238,461,-631,1005,-2270,-915,705,-922,2252,-494,1997,1158,1193,1483,-1577,147,1542,-1158,-224,1548,-1651,-2205,1788,964,767,-215,-1795,17,500,1998,-2027,-2414,-2163,922,-389,1824,466,373,919,-2099,-236,-228,-205,2189,1120,692,687,-464,-1187,2286,-1776,401,-415,2156,-597,407,-101,-36,-1929,2045,1572,1414,-2361,-2173,1459,1412,-583,278,1333,939,-1289,1112,-1194,2214,-1040,244,-2135,-1724,-540,-1355,-1342,1121,-943,755,-1558,1453,1429,1836,1314,-1073,-3490,-444,762,-2510,-410,-1341,-1858,1679,0,2724,-4,1509,-165,625,-1728,851,-2009,-483,1059,89,944,468,-1976,26,1069,15,1423,1366,-1051,-947,-2812,-1086,-1943,-1829,-1308,1347,1738,-61,725,-417,727,1571,-2449,-2062,-2012,-902,-1071,961,460,2446,2418,167,1420,68,1483,1320,-1383,1959,-18,1747,1276,-2155,-1403,-2029,2072,2746,2708,1108,-855,769,2201,-310,1448,-1758,-575,675,916,-1150,329,1025,-293,1043,1897,3340,2219,1436,-499,665,-501,-2052,-2674,1027,2281,1673,2174,2150,838,233,-2027,773,799,-1722,1200,-1054,2068,41,556,1190,220,206,748,1682,851,2972,879,-310,-1552,-3905,-2027,1543,1241,1641,3600,2377,-2152,-2210,960,-36,-435,-1383,-695,-858,-1877,318,-871,-1717,-1812,465,225,-591,-1083,1306,-1766,-3252,-1259,-3267,751,1718,4231,341,2626,1328,-2506,206,-1375,-300,-662,495,2044,-545,1129,1192,-1060,-1488,223,1485,-122,-1129,-3011,-3288,374,-3537,-2751,743,-1270,745,-402,3067,1950,1743,640,374,-273,-1654,-1333,257,-1509,1924,721,1720,-1218,-1719,-1000,-1492,-2543,-2454,292,931,-2719,-1976,284,-1706,866,255,-1323,732,116,597,-2977,-1670,1389,-307,2015,-1406,575,937,1344,-1742,1230,-1619,-234,-2314,-3381,-1471,-825,150,-21,1521,-2645,-2343,-718,-1138,668,795,-1365,-2349,-3116,124,-694,1631,-1750,283,-1865,309,-212,-1321,642,-2029,-2406,-1966,-2122,-1164,1183,770,2362,-793,-160,1935,-1925,910,-42,-1652,1086,1246,757,-878,-925,-1572,-1611,-1496,-1282,-789,1701,-656,1288,-1426,1399,2363,10,1242,-1753,-1695,1135,-756,-2100,-2489,-664,148,1912,2277,575,-2386,-2382,-1376,-2092,113,1603,-511,1664,-1738,-1926,-1093,1808,-920,-582,-775,-1482,1020,1140,2379,908,1489,540,-150,-579,-741,-545,-740,90,609,-1820,313,1816,2062,241,-184,867,-1800,2499,1773,2738,1956,-1091,469,1909,96,1895,-677,-1878,-553,-1344,996,420,1782,3981,2543,2353,-659,-496,349,-602,538,-1607,-1329,1473,327,2422,1664,-760,-1672,2273,398,-1003,1586,1112,1588,-567,1008,-1225,2205,2429,2893,212,323,1877,1512,-1704,-904,1236,-332,-530,1940,331,1956,2439,1096,2659,680,2171,688,2382,-952,2639,-2866,-3200,-1155,1400,870,-174,131,-585,-777,-765,-2632,-2846,-1781,2302,-1100,2096,1921,2110,-480,-946,-357,862,2139,-305,2005,2730,967,-579,-2178,-319,-1492,785,2048,691,2044,-210,2038,-2110,694,-45,-1202,-984,-589,1649,359,2208,1608,2022,-1669,959,-441,2250,-1427,1481,-2123,-2471,38,982,348,-1410,2704,2651,2113,574,1800,1646,-2322,-1604,-1292,-24,-850,1203,1728,543,1479,-118,-428,514,1193,216,1521,-2117,79,-2580,-2268,-2240,1627,259,1829,405,746,3175,2073,-1646,1994,832,-1577,-354,260,-97,1580,-1305,-1691,-1337,19,1434,652,909,-416,-2539,-2706,-1304,-685,-670,2108,1180,1107,1464,-427,768,159,-57,-216,-1484,1594,1082,1958,1881,480,1829,980,30,-1438,-139,1588,539,-1064,-1750,-1377,-2963,-1854,1161,1947,1120,1893,-192,-436,-2370,1065,109,-1189,1658,443,-457,598,759,306,-1686,-1162,-1963,1319,604,501,2120,2131,-1678,-437,-1201,-2177,1975,-691,16,1812,-1770,-1581,-1579,-2364,-100,-1291,1979,-2131,770,1377,-494,-1410,-1985,-1004,1279,-2208,-2255,-814,1871,-691,-1605,-143,1391,909,-2124,-740,2154,-1073,-719,-1273,1560,-492,-833,-1867,-709,-285,-2276,2296,803,93,-1482,-2009,-1171,-1004,1936,-1303,2113,-1459,1336,-441,2303,-2066,1679,173,1417,1299,-754,-1781,-923,-1046,704,1906,-399,1471,2050,-216,-534,-2183,-1893,546,1962,1198,393,-649,2319,1039,-1363,655,1393,-1536,1740,399,1731,1934,-387,1274,1178,-1124,-969,2053,1197,166,1817,1310,367,-1851,555,2213,-64,-2093,395,1069,1842,-2044,1318,-1342,-2156,-1930,-1749,-1400,2044,755,586,621,-1770,-1179,-1868,1148,-2118,512,-811,-2009,-2075,2227,-1184,-470,-1686,81,-1476,683,2004,-1650,-1152,-2117,-1908,201,2256,-572,-696,798,-318,341,2262,-538,-109,2029,-934,-1978,435,728,-1682,-1348,1070,711,1108,747,-292,1589,-108,138,-2335,1081,-1039,-818,999,2463,500,950,-11,-137,-1477,1,-182,-1597,210,1966,-1645,993,-793,1153,1226,-757,-1741,1051,-1270,1257,-789,606,-257,-624,-556,-1783,702,218,2941,3099,795,3424,2128,-911,2881,-213,2346,-180,-1409,2201,-2171,2337,-1810,702,2,334,-1204,1189,-2124,-757,-2774,-1397,430,-2121,2244,1363,-1081,993,2157,3258,3024,770,71,-143,2616,249,-2154,-15,1906,554,1702,1090,780,1377,1461,-2393,1649,-2278,1593,-326,810,1371,2039,-259,1458,-1906,2050,1939,1275,3177,2466,-504,2341,-1842,-2151,-611,-700,-874,-699,1796,1147,-609,97,1572,-147,-82,-374,3001,2435,1957,1400,3115,1892,2861,1742,1899,1901,-85,1225,311,1969,586,-237,-1753,1381,-1424,-1827,-2251,-695,-683,-1636,439,368,-153,-106,1436,2982,2454,2699,2286,5320,4312,-519,1461,2740,1177,-872,-1108,887,-2070,-1992,-1077,1939,495,611,1522,-1019,-1755,-1628,2298,-1475,1084,-197,2600,4142,3664,2882,1359,1576,-933,147,3002,2107,-951,-243,-1354,1249,-271,1739,662,-991,-787,1651,-2322,-1715,-1625,-1781,-1047,2340,-626,1033,3820,1633,2154,-1964,-3231,-4291,-1951,-82,-120,-770,1339,-1991,376,832,-837,595,-762,206,383,493,669,1855,186,1445,-1066,1806,41,1414,1656,737,-544,-4126,-6379,-5256,410,71,996,61,-1624,-142,-884,2117,-849,-1128,1181,1805,-177,794,583,506,625,-872,-718,2075,2619,-507,-1015,-1678,-2949,-4033,-3620,-5070,-2856,-2095,289,-1322,-1589,-1052,-1532,232,677,-1089,621,-635,-70,-1121,1094,492,-966,544,2902,-901,1722,930,276,-2795,-4960,-5782,-3861,-1125,-3231,-2125,-1597,-2676,-4083,-2993,896,-161,1555,90,-482,1683,1723,1403,-1238,-1567,1981,-517,-170,1134,1233,-2567,-3270,-2558,-4388,-2225,-1997,-548,-3442,-3986,-2169,-4201,-2094,-395,277,1324,-1455,1373,-280,-1859,1758,1328,766,1806,-2041,1057,2862,1599,-1274,-2608,-1433,-1902,-2124,-2426,-710,-851,1161,-1967,-2545,-1864,-3071,866,608,2620,2879,1396,-720,1455,337,1900,-1630,107,569,1373,-705,1640,1083,-2940,501,-2821,-3035,-1149,-3434,-2259,-2445,440,-2307,-4081,646,454,52,1945,-304,-685,-1498,-1495,2250,709,364,-814,-87,1943,-777,-77,1320,95,-297,-2488,-818,-4694,-2227,544,-3553,-2320,-2914,-1084,837,975,-2315,73,-2147,-916,649,1619,1098,1832,-211,938,599,137,338,-1403,-2081,-77,-1184,-3339,-4850,-5489,-3297,-1194,474,270,-663,-1051,-503,1633,1667,187,-1011,747,958,-1397,1969,-1567,1143,-1626,1403,-1295,566,72,-514,-1963,982,-1138,-4051,-3901,-4154,-1178,-564,-2140,365,-2695,2529,2714,2485,361,2050,-2192,1189,-2009,-913,-1341,1450,-1740,2354,-1139,1912,-2299,2506,1003,-50,764,1763,-838,2187,-1419,1051,372,326,1475,1673,-669,-902,-182,771,4,-665,-697,-1415,-946,1664,2325,158,-1095,765,2180,2158,1923,271,4869,3291,294,3023,4306,169,1483,2206,-1154,2785,207,139,465,135,-835,1678,77,492,-1084,-1148,1085,-1116,246,-418,1092,1645,3867,3785,1432,2713,683,1735,1099,686,3665,3060,877,192,328,1061,-429,637,-237,1201,1953,2146,2071,1084,1649,-976,1807,1978,705,-1525,114,810,-77,1068,552,3165,3371,2873,3012,205,2928,-383,742,1403,175,648,-1829,-501,755,-1226,-773,812,-1950,-300,-2023,-281,-865,85,2205,1350,1755,-817,479,324,473,958,2075,2088,1261,379,489,-870,-67,-500,-2201,-657,492,-1790,38,1519,-454,1822,-558,570,313,-1720,-1843,1301,-401,-2157,-399,75,-2055,-651,-207,-178,1526,935,-2096,5,-825,1415,940,-1200,-1477,1396,433,470,538,839,-2376,-295,1470,-72,1348,1722,700,288,1440,401,2072,-201,954,-1471,200,1976,-814,-923,202,-317,1637,916,499,-951,275,-735,1943,-2309,-1787,307,2325,1264,-2170,-1847,1533,-141,-699,-196,1839,-392,-2019,-1282,-1191,1124,2014,-748,1663,-1276,-196,-1254,-987,-371,1617,1310,61,-589,72,-1661,-321,-1506,-725,103,-1408,684,-2327,-1732,-949,1742,-1087,460,-1041,1316,-1321,2144,-49,1158,-1185,756,-1178,544,894,-822,-509,-1590,42,565,-1041,-1759,-693,-821,-2185,-2207,901,-1024,-1258,331,992,2107,-984,1481,-840,-739,219,-1446,-1217,338,-266,204,1200,2077,-651,2123,445,-856,738,1692,1500,158,-658,-1147,1304,-717,315,-315,92,400,-2125,-639,2140,-1252,-1051,1617,1087,659,1232,425,-548,1139,-1187,1780,-1018,-255,-1481,2168,-1660,2395,1416,-1576,-552,732,1087,245,2487,-1344,157,674,-274,583,-1153,996,-1785,1752,-195,1623,1320,-222,772,2004,-392,-827,1146,1490,-1114,-1189,-1649,1044,-1490,459,-1930,1838,-2257,2184,-1362,1213,-2000,2317,2416,2289,-275,-1055,-2051,-13,-666,-862,-1429,-356,1443,519,-2002,2079,624,-2369,1386,-181,1408,1779,2210,-1349,-2232,-502,297,-1022,-1601,1722,589,-750,1813,-2181,-2340,-1929,-1761,-1184,-1925,1205,272,-866,-1542,309,168,-1077,-1598,-922,1865,3423,963,-1723,-1161,-3070,-933,-3188,-2556,1448,-681,-219,493,-1646,-1053,-963,837,1163,-1268,1152,-965,989,262,714,243,-1977,218,2019,3250,588,3504,177,-2220,-897,-2682,1403,-925,-2018,-1944,-755,1464,515,168,-189,1547,2200,48,-1494,161,-1691,-1385,-2538,-2680,-1239,914,-1593,2462,2449,1317,-2375,-3621,-1185,-1427,-1669,-1281,-346,-744,-821,-1354,-5,383,1033,-2098,-576,19,-2166,1163,474,309,-2768,-2067,-1374,-1193,-255,2483,5056,2148,-2077,-2452,-2410,-2195,-1501,-1965,-936,50,-729,269,533,2281,1165,1712,1736,1549,1619,-2054,1528,-2032,-2182,-2478,-2215,2238,-62,4562,999,-2,-3390,-2295,-1798,-1094,-196,-1385,846,-1103,-118,-2534,627,-1375,538,-766,1830,-1723,-2765,-2659,-2886,549,-2231,-1248,-115,1249,2948,3598,-1098,-2435,-505,715,117,431,1875,1704,-3037,200,1190,-2469,-2012,-1571,-2313,-1519,-969,701,-1640,-2139,243,451,1981,-818,3291,3066,3346,-745,-454,-2078,-235,-1179,-1818,-1602,-1392,-1690,-1122,-2088,1407,-815,825,-181,-1618,-1631,-1590,-1284,1333,-1828,-407,-1738,-139,1342,2247,-682,2597,-1552,816,-2771,-1107,1530,-1938,-1380,236,1366,-2207,-566,-793,-2417,-2319,-1861,742,599,1783,-845,-1998,962,1474,-382,2376,2356,-142,2033,-2093,237,-2940,1426,-2184,-861,-8,-1238,-827,146,2572,2514,713,279,-805,-2128,-293,595,-2012,-917,606,226,-2057,-1524,-723,1556,-1089,1876,-463,-2628,-2703,-894,-48,-1024,1889,951,-1187,320,1333,2804,1823,142,46,-1924,1574,-43,-1043,-2054,-2129,820,-614,2345,1621,964,-1079,-692,816,449,1698,210,948,-443,2144,3557,1044,1756,364,2679,1630,-424,395,-420,1932,1657,937,260,-396,-2015,-1628,1237,-80,-1287,382,-1040,-1130,90,729,547,-1221,2286,1202,-1449,1942,169,2752,-228,2089,2170,1884,533,-2119,1114,-1634,-332,1124,880,-146,192,-675,2373,-1999,1397,257,1053,-1045,7,1161,2038,938,-1365,1549,1275,2430,-1310,214,-1184,-587,1538,2017,-520,-868,1230,-1513,695,-489,1578,-629,2288,2219,1853,1782,1186,2609,-8,-40,-1524,-924,-1331,915,-1483,849,67,2044,-1933,354,2260,-1173,1074,-617,1050,1268,-1994,-405,534,1698,74,1757,-1413,-1410,1388,-992,680,-242,1975,2675,2467,305,373,1393,-2010,-1911,1218,405,1638,943,-2262,-1940,1180,-1633,1886,902,394,223,-2272,-2093,-135,-1058,-619,1043,-841,917,-1680,-795,-1364,2025,-1727,-1252,-362,-1515,-2036,2074,1421,-1801,-1180,1975,1040,1776,-982,866,194,-1439,1014,297,1188,-50,452,-625,-460,1968,-101,1683,1664,-585,-1140,2131,-337,-2054,-282,1323,1550,-1850,-467,-1842,-164,-1196,502,837,-2687,-2,2821,-32,35,-1040,1237,1593,-1372,-1832,328,1684,-251,1049,1062,776,-456,-2350,-1147,-161,-1870,127,1269,-2292,-1596,-549,-112,-401,-2248,-1234,1050,1130,-240,-1842,572,-1321,-1108,-1656,-172,-2270,-731,23,-1582,905,-289,1157,-1315,2246,-1156,531,-2003,-833,-476,1219,-685,928,2007,1116,-1149,-59,-185,-1,-1244,-1513,-1741,-2324,-2510,-1952,1623,-1328,1631,-1274,-2111,-1509,-476,2260,-832,1184,-176,-1240,-1865,1135,860,43,1983,-1083,158,1547,-2017,99,-183,-1875,1561,-1197,-3,-2341,98,-457,-2325,2068,-2177,-314,2292,-895,1558,-1845,51,-226,-850,-1626,757,-2291,68,837,-140,1954,1598,922,826,139,854,-116,1241,-1002,668,2017,-680,2145,-1188,487,1276,1686,-1692,-176,365,65,-968,-1477,-383,-1924,1047,-1550,-1120,-1387,-18,332,-2261,2253,856,-1064,-1214,1233,1711,1307,-1395,-601,32,988,988,-2137,337,783,1296,-721,867,-1114,-2007,1949,-1668,-1921,-441,-1634,1462,-594,-1356,-257,2018,-689,1108,-1225,2262,340,2212,-578,2180,1438,1747,2036,518,-599,-1700,-2166,233,-2027,-2204,2322,762,-988,-629,2034,878,-119,-418,-636,-1237,-971,-1614,298,2009,-285,809,651,887,-1769,1266,-2064,-2097,618,2113,643,-1751,352,41,-930,227,-1972,219,-463,-200,344,786,789,-1374,-875,-378,-1447,956,1970,408,-74,2350,-1010,1938,-1418,-1523,460,-1878,1586,803,-788,1593,1871,1800,-1716,-2580,-2551,-2289,-1221,2368,-1160,1905,-2783,112,2273,-1332,-1493,596,-287,-472,1789,84,-1300,1272,842,-100,-1651,866,-954,47,-259,870,-148,1491,1180,4224,3995,32,1370,-443,434,-365,-291,-1895,-1730,1573,-2079,1255,941,-1040,-1615,1723,-1535,-1382,621,273,-1226,-735,131,-2569,-1482,-1763,1971,-710,2109,-613,697,-1110,1642,-450,-2420,-1825,489,1626,753,-1023,-450,284,2209,24,2007,18,1192,-58,-1086,-2485,292,-956,1907,1297,3587,1750,-1926,-2095,803,507,416,-736,577,-2443,271,-786,1105,-53,-38,-1528,1129,811,758,-2090,806,279,232,-2230,-109,-151,833,1600,2190,917,89,-2181,-3600,-1546,-536,-1362,-933,290,-1547,-3143,1171,1041,104,-1181,-1810,1461,945,1345,-1844,-2638,-2717,-1108,208,1356,-834,717,1842,696,-2715,-1724,-4687,-181,-1396,1476,1221,-1496,-247,-1565,-1356,-861,-880,42,-211,73,-367,-2147,-172,-144,-1411,1674,1679,-531,703,2221,1470,-462,-1461,-3032,-3547,-976,-1145,-1887,711,1593,-3028,-639,129,988,1285,-2280,276,921,383,-2106,-1757,-1625,1807,913,-1314,-1208,3254,1935,2920,1791,170,-1466,282,-2321,-514,1383,594,-1047,951,-178,538,-772,-489,1549,1972,2063,-526,1199,-1523,-540,-113,549,-390,2810,2653,2630,1696,-1275,1496,-1780,-1736,380,1053,1438,-3233,1165,-276,147,-996,3374,577,144,-1357,-1453,-2051,-2209,-516,276,-1961,213,2387,-497,246,-1620,1746,-1117,1071,790,-2232,1200,-2025,1134,512,-160,2354,3036,1273,2521,2210,1626,-1304,-196,236,416,-409,-1233,679,-1011,1131,1542,1983,875,-1101,4134,1070,-1517,-922,-1994,1725,683,664,71,687,878,-270,-1743,-772,1278,-697,641,-180,286,-286,-1095,387,-2029,-311,-860,348,1514,1939,138,-1345,-1515,766,1332,2013,2239,2132,1563,-1555,-1875,-2045,-228,211,-1477,1170,-395,-149,-725,-758,-1523,235,-2962,-2100,1174,2752,-1725,-221,2818,443,659,-874,2064,1175,1722,-1993,676,-1758,-622,-530,-1345,-1740,629,-1338,-124,301,1220,-2110,369,734,250,-1152,-2936,2299,2296,1794,1896,545,1042,-1483,598,2317,1946,-2067,151,-1991,-3029,-3093,-3082,1342,-2009,-381,1579,2163,-1930,-1944,-727,-32,-2816,-768,-625,2124,1436,1843,1326,3551,11,-153,-1545,-309,-1968,-491,-1102,-1278,-1067,-2891,-188,-1891,2066,-776,1873,-449,-1000,139,-2801,-697,-2393,-2526,-1108,-2516,-115,2265,2743,3543,686,496,-1806,-2324,291,-3000,333,1913,1345,1029,1604,-228,909,949,1530,1465,-2070,1161,-2549,533,503,262,-870,-1039,-2919,-60,1125,2267,2872,2267,-1433,-1386,-2938,339,1207,-1729,614,863,-790,342,193,-181,-1609,-2104,-1023,-9,-1708,-320,1224,-2236,-1046,-1109,1380,-1736,1702,2036,-82,1113,-1456,-344,-1332,1133,-2503,-2328,1634,-2252,-502,-930,-1708,-249,2196,-1720,-2154,1138,-231,1468,-1817,-2844,-2216,-1746,1424,-500,2610,-1642,-584,1874,2734,2973,-2212,-3007,576,-1612,-842,2298,1702,-1024,1626,-723,1439,2195,-2109,941,-1775,331,-1627,-1900,-1965,827,-588,-1888,-1907,-96,1841,995,1616,1900,-625,776,-135,-180,2356,613,2310,2131,2145,-231,1298,-951,1422,1088,1772,-1576,-2395,-546,-2560,1044,-1382,-2298,1038,415,-2287,-1155,-1238,1534,506,945,888,-1172,-1913,-176,2071,-606,-1516,-515,-2005,-319,-833,806,-1340,-1923,-2413,-1192,-102,-3292,659,-929,1511,-796,-554,-329,284,-601,-1354,-1061,293,1098,537,1591,-50,5,43,619,2044,-522,-1423,-485,341,1743,1315,-2041,-774,-1400,506,-284,59,1892,87,-2293,-2579,71,-1922,-451,1621,1616,327,-616,795,-1274,-124,-811,-1474,1217,-1183,2269,1768,86,1638,101,673,1623,-870,-1095,-1009,651,187,-1698,1145,1936,459,874,-1397,2148,935,-556,-521,1870,1723,-371,-87,-482,1563,1194,-1850,1977,-1020,-930,1583,-68,-1721,-68,779,241,2030,-2249,-1846,-509,768,-1177,-792,2016,-244,2142,-429,332,-473,1137,-2261,-687,1586,1078,-1779,-859,628,2013,-1239,-790,-42,-207,1928,-622,-2126,131,-1834,1324,-127,1458,1751,2102,330,-990,513,1105,2000,788,-590,980,81,-1671,-1042,847,-2326,689,-603,1467,-25,62,1436,1355,252,-1551,550,2083,-1737,1525,-746,-872,808,-5,944,-1744,257,393,1894,1916,972,-1130,1245,-440,-723,-590,-490,-22,739,11,-1279,-1115,-836,1743,2200,2254,821,-833,-87,601,-1250,-877,167,-558,-555,395,2333,-1679,-1676,975,-1354,-1197,-970,-2219,1800,324,-1480,-1926,928,2160,499,1074,2687,-386,2271,418,-1743,-170,1657,-1182,1380,1440,376,-212,2211,1239,250,-220,-1117,-1838,-1106,-810,-1013,-1273,-710,-1491,1624,-1241,-325,2681,1650,-873,1276,-431,-44,-1333,-3137,-740,1543,26,478,85,741,1894,-1010,-1042,-940,-153,-982,-1251,516,1406,-394,-2214,-1916,-1022,3179,2278,1644,2769,2088,553,951,390,2008,-2522,-1894,-363,350,-247,1486,-363,-77,222,-1155,1925,752,-1130,666,-2319,1288,835,2104,-163,-1314,-922,1606,1340,455,1946,2709,2465,1142,-2505,1213,-1218,409,-158,-447,-233,1269,-2305,-463,-1004,210,-1310,-2147,-41,245,388,-1727,-1032,-3158,-1963,555,557,2354,276,3876,589,1890,-399,898,-2735,-888,-1401,120,820,1474,-1208,-1107,-1264,2102,-763,-873,-183,2105,-227,-1494,-2384,-1550,-790,792,50,2141,-700,1323,3130,1159,-880,1214,-1149,225,-2673,750,893,1361,-992,1511,1613,945,2344,-1425,1815,-1751,-3291,-265,-3571,-257,-588,-122,770,786,1507,1007,1994,-870,2817,1653,-985,-2924,1513,-1664,-2065,1429,-1207,2231,837,2007,-1971,-442,1319,1040,-2084,-1314,-2708,-849,-1632,-3189,-395,1886,1212,557,-443,3608,203,-335,111,-445,-2387,-1188,-725,-1536,2317,-1110,-766,-623,1243,-2091,-939,1111,-664,-914,-1664,783,-877,1268,-1765,-54,-2177,2261,3414,3253,4539,2801,1325,-2089,-614,-1560,2100,-2078,897,-221,1959,-210,718,-325,388,1308,233,-2761,-1757,994,-146,1084,-601,-1056,-1284,431,1873,614,3384,225,258,-667,-1985,-2146,-52,1667,-803,775,1488,1269,-1936,2229,1579,210,-2589,35,1774,-1971,-1600,451,447,-1071,1339,757,1221,2165,2810,42,-443,1760,2045,2050,-386,2120,-1465,-686,1721,2729,-985,90,-50,-823,-1496,-1509,-1291,1085,418,-232,1823,480,-567,950,-139,2767,1797,210,386,1095,-1980,851,-1667,-1879,-2190,591,2723,-18,258,-1772,1733,1009,1340,449,1060,-1928,-2949,-2196,621,2128,1736,-1104,2365,-2064,-1304,844,1608,-442,-102,1109,106,662,-1612,-1680,1764,1596,446,-2062,930,-1715,-1252,970,372,-1785,-266,173,1478,1265,2659,484,-279,-549,1152,-766,1263,-1725,2329,682,-1314,2055,1434,-640,-1563,-2647,-1348,-1526,-1216,-1842,1897,208,-851,-2962,-130,635,-402,-862,2173,556,331,1497,1656,-2756,-2534,-1825,369,989,-1206,1714,-134,1689,-1397,-2354,-2095,2678,934,24,-1256,649,-136,1512,-1262,396,2362,-116,-1109,2053,-893,1201,-3287,-2764,-2687,-1685,-1431,513,-530,1461,-545,-519,1617,1442,-148,1391,-1916,-2058,1257,277,1830,-357,241,-1023,-1321,-1774,767,1150,-2511,-2285,-1824,-2134,1078,-2015,-2250,655,2161,-688,373,923,1677,-1318,437,389,-401,-108,1085,-1510,676,1969,-419,-278,-1641,17,-1687,-401,-1901,-2624,689,1018,-2176,2242,-463,-254,1017,-59,1511,-361,-1425,-1787,-1070,366,-580,921,118,-778,-866,-873,1533,-1570,-3040,356,-3113,-2379,-1879,526,855,1215,-457,-1360,-154,916,1932,1496,-2103,-1194,-1216,1640,2178,-412,-1092,1490,-1234,2242,197,1582,1416,838,-1447,-3292,-1387,-3664,585,-402,710,-710,1615,-420,274,-348,-362,-2203,-168,241,-1784,-1330,1525,-939,-1441,-1481,-669,833,-1117,1541,-2184,660,504,-2695,-1593,-2487,-1207,1163,107,195,-1747,-175,1871,2113,1476,-2073,-1612,908,-260,720,-1114,1454,773,1805,98,-1208,2032,-501,-1644,-1046,-2382,-1491,1846,-1278,-1392,1873,403,751,1942,252,1621,1215,-727,-2077,1263,903,-7,1413,1105,-207,-612,-392,2683,-1648,-2044,-1844,2080,1488,1027,60,210,-1100,2099,-1416,1611,1727,-106,2029,1204,730,2258,-1997,2306,-1950,1372,2136,-461,-251,-412,-663,817,-252,-1526,-1132,660,-1314,2318,-491,-1279,501,-785,1603,-2026,1203,472,-918,596,2201,-489,1879,1722,-1701,1736,-714,-392,64,1020,1575,-2124,1363,593,1986,-1234,-869,-1211,-271,-2053,1747,-275,734,630,1273,-2110,-594,-558,1010,-1515,1912,-337,567,-460,-1407,1130,2066,-1535,-251,300,1863,1697,2314,1501,-900,-1433,-1121,-484,910,-460,429,195,-2081,-1851,291,-357,857,2006,-265,-1771,725,-38,953,960,-1736,1438,57,-1299,-439,1091,271,1221,-249,-1745,-1427,672,-1490,1702,2169,-1852,-1797,-1949,661,2152,202,2190,-200,103,-280,-2194,1147,1701,-1740,1178,1019,-30,-1727,-1295,-1923,-2362,-1534,-484,-2550,-1,605,-1043,-2543,-1693,-1113,640,-1943,-1317,1750,-891,1761,-1214,1422,2333,-1086,2045,-1133,2049,1246,103,520,-1364,-2424,-2723,-2802,716,-949,-979,174,2327,-1340,611,1641,-2236,1093,-716,-2225,-1884,1545,600,969,904,722,2223,-981,864,1096,560,695,576,-1284,-334,-2932,982,-278,-1718,1709,-1429,1883,-1553,-1621,1010,-1406,81,-2009,-216,2004,-106,1268,1186,2073,1091,-141,407,-452,-722,-2148,-2455,-409,278,-3552,-510,-1272,-211,941,382,-1260,634,-5,-2631,-863,-1851,1676,-495,2215,-1197,1211,369,-1363,-318,954,-2287,-927,-1615,-215,-1483,363,-1010,162,-1372,-1414,-606,-1175,-770,930,-1421,-1961,-1786,974,696,-1732,1436,-1667,1974,-1496,-895,1103,320,2452,1638,-1133,1564,-607,-422,-1388,1578,-2865,-572,-1529,1064,-311,-111,1411,268,1024,-3045,-1947,681,2266,1181,70,1878,-1798,-402,-686,1675,538,-633,-138,-1082,-771,132,2237,-210,-2110,790,1488,-512,-3072,1802,568,-2328,-761,353,-1119,-1501,-2298,1727,2314,2152,-1277,-1991,1896,-436,47,3489,2804,565,3617,461,-22,-2195,102,893,-136,1587,1111,-350,786,-1292,-1705,-711,1126,492,710,1635,477,189,-582,-1033,2631,1242,2822,1223,2682,3368,-1107,-2712,688,120,-916,-1797,-286,-2827,874,-437,173,1181,-1499,2340,1930,-1101,990,1470,-526,-1903,-253,1138,1229,733,1846,133,-236,-2368,-2727,-1567,-573,-1099,-370,-1265,-299,-482,398,824,-1315,97,-1008,-741,2190,759,384,1058,-1359,-551,-269,-1048,1825,-2692,-497,-2896,603,-1745,-1410,-1033,-975,333,846,821,-149,2120,-1809,1520,-2289,554,1779,1485,833,1665,-2101,453,2114,-1319,-2397,-1645,478,-1060,-1267,-3393,-4837,-3535,-2311,-2095,390,-100,-3156,154,1234,446,-604,-2748,55,-991,1134,299,457,-1530,386,1683,-1236,-1555,-1660,384,-3296,-555,-1468,-5032,-5305,-4893,1016,1234,4320,2476,-478,-1089,-2155,559,-35,-3085,-1004,-3165,1735,-1570,1163,1589,-518,464,-396,-2343,-2258,-2826,-3208,-968,-1553,-5204,-4280,-1870,3402,4055,3349,2255,1321,1055,-842,-2205,-1100,-1860,194,-1233,262,1613,-533,2305,-234,332,-1642,-1996,-628,568,-634,-971,-2122,-2158,-2322,-575,3006,3399,3728,-115,-893,-1097,1278,96,643,-1012,280,-1844,-1879,-1312,16,1507,328,1972,-738,-1861,-803,-1631,207,-925,-4778,-3436,-1093,3773,3795,5190,1391,450,423,-1542,647,2693,-2167,-77,-2773,-1384,2198,346,-215,-272,-2146,1864,-1194,-2117,1696,-2767,-1471,-4206,-1069,682,-710,1841,1911,4012,2477,1758,1629,780,3121,755,1596,4,-3460,-161,2279,546,-86,-1246,500,-928,-1887,-1940,818,1808,-2590,-502,454,-620,-721,2333,2843,5448,2393,3847,160,1301,-1388,-1481,1479,-479,-785,1375,1811,1201,20,-1967,107,1324,599,-2019,-756,749,-1662,1793,-2015,-1458,57,2220,2396,180,-718,703,545,1666,1570,2138,-418,2045,667,-181,-1722,-1975,-659,172,-440,871,343,-1453,-2111,476,1987,-1764,-2006,1669,868,1721,1030,-1405,2489,2588,140,-116,447,1709,1947,-1336,1223,-1895,1898,1953,-789,1493,2186,676,-336,615,2089,-2338,1147,1799,-2244,-234,1278,2123,115,2942,2363,1744,2865,3202,2373,1251,4025,1022,2503,2145,229,-1957,-907,128,1990,-307,1798,-1376,1332,1273,-2684,-1527,-2437,-262,-2298,-1581,674,1469,1248,-182,915,804,25,2374,-366,1758,-2226,2004,1109,-1756,1829,-1015,-715,128,-917,-1312,1598,-2548,-74,925,-2286,-2834,24,-2793,-214,-1133,-244,-1508,629,610,1550,-1875,-2212,-1245,198,-758,-1722,456,2037,2032,70,-1611,-1905,798,-1704,1439,-1100,920,1492,322,-1814,889,-1845,-1229,-2527,-1707,747,668,-695,-1948,1597,-1324,-1823,-1170,2165,1025,1650,234,-1394,-1952,2019,-1118,-237,1751,102,-1020,-28,-2236,2083,-348,-2034,715,1722,-1224,396,-211,-1109,1463,-1515,-1585,-1864,1145,1652,1019,1337,-1264,97,-2076,1561,-1503,-1143,1438,2230,1526,-1292,1783,-1137,-219,-1892,-1726,-1239,646,-1067,281,458,-109,-342,1624,1651,762,-911,1812,-1941,-1031,-224,1118,1687,-2046,-182,-1583,-1945,2164,1598,1980,581,2153,-1519,1697,-2336,-1210,-844,-1316,1034,-426,-1231,856,-1874,-2144,985,1635,1609,1771,-2169,-995,14,-1374,-2168,2265,808,1073,734,-1925,1878,541,-870,634,-142,-846,-2018,-399,1227,1634,1591,1318,2172,-71,1152,-960,490,310,-1228,-489,-1484,1059,1789,-1439,1790,-2295,1417,-2409,85,-2897,-1722,-2329,-1753,-668,360,-1628,-1927,-421,-2,515,1458,1517,-182,-1920,-729,856,-1706,-1129,1502,1403,1978,-936,1936,-331,819,-964,-1667,-2244,606,-2941,-3280,-77,-3523,-1097,-2636,-1037,753,-1343,1147,-1675,1419,-1027,703,843,1400,2179,1184,1422,1280,-2281,1456,1517,1576,-633,-1992,-1335,-1295,96,1329,-2331,333,-2216,1071,-2073,112,-1475,-622,-770,-856,2348,1375,-1379,2305,345,455,-1358,1015,-1723,-1451,-1979,-1880,362,-785,-911,1150,1181,-960,-1606,-731,-1996,1270,-972,-645,1169,885,-862,855,-1494,-407,-1013,-2084,-1836,1437,1017,1387,-2189,-1876,-2455,-2427,-2912,539,1683,1249,-484,1226,177,2347,1398,-632,-131,-81,-947,1550,-150,-1039,-100,415,1130,1238,-729,988,-2253,-1645,1999,-1034,2113,-1574,1164,2672,-1821,1605,-446,1745,3298,-54,-585,2987,1587,1542,1727,-835,501,-970,-471,-741,2129,967,1100,1729,1260,-935,1402,-495,-1499,-552,-757,449,1604,939,1613,-1051,1311,2120,59,3289,3953,3337,937,-767,-2351,-1571,1134,-1634,1615,725,216,2256,1911,-1042,1823,278,-1601,-1132,1730,1257,2385,1400,-1476,-3023,-2973,323,1975,-299,-723,3156,541,-170,-2705,-754,-2419,1939,-1588,-9,650,-684,726,-1171,-1261,1906,-1020,2934,2128,2178,502,3045,-2029,-1852,-2326,-138,3281,249,2613,1894,1806,-540,-308,116,-1636,-724,529,-1392,-1190,814,1741,-1760,532,285,1026,1350,55,835,1340,-383,-128,-133,-555,2322,1167,26,-1045,-492,2582,1701,-1518,268,-384,-2341,-1191,-2267,2048,378,-1942,1006,409,911,724,2761,3342,2708,3117,-852,-2710,-2290,-1914,-1392,-1455,813,1461,466,1974,-1853,-864,-20,157,-2105,253,-1885,774,-1186,-454,-37,2954,2716,236,2170,3049,2278,-967,-163,-1387,-2745,-539,-3946,-1417,731,-273,-1067,1410,-2304,-2112,-1598,-2303,-2639,1546,294,630,2112,-574,-1817,-1446,952,303,3084,3092,3436,1876,-761,-3197,-2188,-1017,-2049,-790,-389,83,-560,-552,-698,1706,1058,-538,-3297,280,1036,-1725,-7,1441,-54,185,1311,50,275,3619,2268,48,-69,-1229,-125,-3794,-2508,162,2031,2507,2036,-1640,-1684,-2151,-772,-2178,364,-240,-1010,-564,-377,1815,-2020,790,-1591,695,2203,2940,2502,2260,3254,-1126,2570,530,801,-51,815,2362,-2560,135,-1058,-2664,-3123,277,-903,255,-1463,-390,-841,34,-2536,-2408,-643,-1224,841,1546,-506,1453,-1255,-1942,-647,-885,-1228,2388,-317,-251,1697,1755,213,891,-3892,-3584,-1490,-1906,1489,-820,-953,254,-2308,122,492,-1291,-895,-2139,844,-2276,-1357,-1556,1468,-882,-1650,-2698,725,-1386,-940,1149,-1284,-572,-986,-2427,-801,611,498,-253,1647,1301,-1400,1182,-1533,-1936,585,-3605,-1425,-2166,-4089,197,1024,1164,-1858,-1701,-1705,1034,-2051,-1117,-3049,-1396,-1902,815,1477,-1544,-1937,-897,990,-843,137,910,-256,122,-973,-1742,96,-3822,-3870,540,-240,-3470,-210,-449,783,464,-592,500,-2718,-107,-1926,2084,2138,1458,2256,-1558,-967,611,1994,91,-2890,-2161,-947,-3167,223,1108,120,-1441,-715,-1475,-1425,-2383,1166,1039,-1556,1463,-13,-1881,1647,762,334,357,-988,-39,-2005,-1622,739,436,62,-3166,209,1427,-1990,1606,1495,1166,-102,1156,-1481,-1535,-2093,-1510,919,-808,-160,1656,-1172,2185,2207,-311,-1078,852,-1317,-2272,942,762,1356,-998,-2735,-825,-1535,1396,1626,2350,-2381,1609,1129,65,-985,1213,151,302,2090,2323,2128,2180,-1303,-98,2126,954,2043,1500,-2212,92,1221,-2051,2051,-1053,-689,2423,616,-120,992,992,1148,1302,2314,-159,2637,-186,1492,-1475,154,1122,-1447,472,88,1109,384,-992,336,-1428,-1119,726,214,-185,1085,1205,66,-728,743,2018,-75,1817,198,2711,1514,1626,85,1292,-695,-1445,2083,683,-867,-726,1627,-1009,-936,-2289,-102,-1295,412,1788,-14,294,-2184,-120,2318,88,981,-427,711,2223,-665,2060,-868,-2209,-925,-2270,-1403,-695,-1705,829,1941,-1981,2043,2135,-1770,194,907,2294,2295,-1071,2015,1726,477,-472,-1325,1530,1018,-176,888,-1256,-2124,654,-957,1045,-1163,2265,456,2058,-1501,-719,1650,1589,448,-331,843,-1505,-2017,-2121,2274,1175,423,-2306,-1674,178,-308,-2117,1890,-1888,1135,136,-1854,-771,-1916,1525,1446,646,-939,-442,-1299,704,951,-1626,-1955,-1722,1889,2384,321,-1385,445,-370,-662,2930,185,2714,251,360,978,2553,1402,57,-1389,464,1240,-1294,-13,-647,338,1668,1678,-540,2351,-1697,-1997,1393,1253,30,-694,3475,1968,2511,2693,936,873,1599,2005,2731,2469,-2012,1415,847,1939,-1256,1582,1103,1698,-869,667,-1355,238,1599,1788,-2194,-1323,1850,1516,1049,215,-1187,2670,40,-1074,-1335,2095,1290,80,-2020,-2149,-1838,-2280,-1307,1415,-530,2050,-57,-419,-545,2063,-2251,733,-2104,456,-1316,72,-2040,-1216,-1443,1393,1108,2583,-1444,-692,770,-1910,509,160,-20,-1488,123,729,1733,2238,-624,1371,843,-646,-1335,-1796,76,1139,778,717,23,2130,-1826,-1745,-880,-1457,211,-585,1183,-2645,-1276,-624,-179,535,417,-1423,14,-1308,-1418,289,-340,-2066,249,-130,-898,709,-722,-1924,-786,1879,1746,1,-649,-1877,-198,97,-3003,1072,228,-2059,-798,-1244,-878,-1452,828,-589,1687,-1059,-1169,-771,957,-409,-1957,1351,-270,1494,-85,-925,-2530,-3418,-1090,-3243,-1773,-2072,-4158,-2761,594,-2523,-1109,1765,2010,-1329,-92,248,1670,-206,-1909,2120,2091,-2335,1164,879,2597,2650,1125,-2673,-2503,-2915,-2027,-2328,-4679,-763,-4664,-2382,1583,-110,-226,2262,118,428,-938,-2063,-2269,-1336,-2154,305,-952,-885,793,375,290,-314,2224,564,-3844,-1593,-2391,-2689,-3400,-2105,-248,-3114,-1277,99,1770,-1570,274,-1040,-2041,2126,-1529,652,-1366,-950,2207,232,-202,2466,2351,2661,1429,-2509,-1926,2219,-1182,1656,-78,-410,471,2150,-2086,1400,2128,649,-231,-819,794,2181,-1967,1537,2220,-652,-1075,1764,-146,516,1730,2345,-572,-1245,560,687,751,2011,-454,2179,2348,-1422,-771,-2516,-456,603,113,-1520,-1162,563,-1018,221,-1493,1765,-71,1643,1230,1162,-836,-2230,-2206,-43,24,2249,-882,1252,1244,-1895,-435,2487,-1008,-2746,1430,-725,346,-1125,-376,-1383,1403,-949,-509,996,2728,800,2073,668,-2366,780,-1156,0,-1048,342,1199,1534,3288,2575,2816,-817,-539,844,545,294,-1585,-1459,113,504,1087,1268,-524,-1786,-1431,437,1881,-1924,-631,83,-76,174,-1285,-157,1616,2142,1957,2139,506,1389,1010,-1426,-747,-233,148,-1905,2039,1964,-1950,416,-94,18,-2056,738,1576,1822,925,-3261,-386,-3193,-1448,-4199,-1006,-283,3161,1273,2121,726,-2326,-412,986,-1886,-705,-417,-1060,-1601,-1778,1544,-2582,-1576,353,-1778,2167,-378,1827,-588,398,-1595,-4200,861,264,1874,2130,-1200,152,-1900,1278,-1246,-2540,-1498,-1859,-512,2111,-1280,-839,-981,-709,-470,1280,-68,-1203,-139,-353,-1132,1191,-677,1360,-882,-1257,-1172,742,-965,-896,807,804,-559,-2038,672,1487,-704,94,-1908,-1058,282,1190,-690,1934,1278,3215,3372,1210,-460,-1292,-26,-1475,1428,-506,-50,1802,401,71,663,974,186,-1700,-1790,2051,721,-1538,1432,837,-1942,-1860,666,-856,1063,-959,1287,2854,1462,-609,1625,2847,2780,2618,61,527,-2218,-670,-2242,-1194,1345,199,-239,-228,1427,87,-2364,663,1048,-2861,-34,-683,1994,-1161,1410,1000,2487,797,678,2611,2008,1871,-1098,651,-2438,1621,-1626,2028,-13,-52,1680,-1738,-1803,1683,-500,1843,-835,-1733,-1161,-3395,-1427,806,-2222,-579,3181,732,2597,2836,-575,-802,152,-2567,128,-2122,-1775,1321,-111,-1712,1335,874,35,149,1925,1053,-2480,-1561,-3028,76,484,-3375,-987,1044,501,-914,2002,628,862,-1339,-828,-1056,-398,641,-1559,-318,-2323,-2214,-1304,2246,-1116,473,2206,689,1586,-953,1776,-1823,-255,-41,-1253,-787,909,622,1056,-2265,1265,-1748,64,168,793,1266,-1521,-554,-152,-1714,-867,1502,-1681,1947,-2268,-129,2164,-626,-2192,-1383,-1486,1487,-2263,262,-140,1941,-517,-535,1316,-86,-2239,-2386,1773,-2323,-1140,-119,-901,1089,1990,1518,-203,-2204,1925,-1462,-1073,-1923,287,-19,-884,-718,932,0,-1096,1445,-97,-1197,734,1022,913,-452,103,-660,466,2155,1164,-1810,1082,-1872,-223,-808,1104,468,-1859,-825,-981,-1722,-1697,963,414,2167,1746,1454,1202,695,-1306,1563,-1817,164,-427,688,-939,138,2049,-64,-1467,2065,1291,-1962,-616,-2338,-1265,-289,-1639,1354,2329,-2300,1014,867,-966,-168,2136,-519,-278,603,291,-1421,-831,784,1670,428,2035,-295,509,-2246,-1535,1833,796,-773,489,-254,-712,546,-909,-1305,-1403,-1148,-247,-2015,836,1990,-72,-72,-766,-204,-1280,2125,-1964,-1430,1474,1992,2163,-1539,1310,-2092,-1188,-557,668,599,254,1039,1417,1097,-1820,238,-2019,2068,-217,-471,1354,-872,541,2352,-1964,2316,-1128,-1414,-948,-1409,-1431,1583,1551,-1350,-329,-1285,2128,-644,-1449,-1031,1206,280,-1982,1245,-856,-1636,1756,-2290,1032,-1207,404,722,-649,1949,2060,729,-1790,1570,510,-316,-438,2247,345,-2178,1150,-1601,-209,-1883,-639,-678,-2022,-1320,1772,-1184,-317,-2048,1279,2452,-356,1234,-192,-867,299,874,-1534,265,-157,1831,-1863,1589,-204,-1022,1561,-895,1101,492,587,-2214,-678,-3195,-2078,1204,423,-2238,-737,2058,1028,1247,2544,-619,1720,526,-916,1691,566,1214,1412,2193,-2243,-1261,-137,-1581,-366,-407,381,-1429,257,-3537,-2468,-1668,-2015,-787,953,1951,3367,684,1516,-852,881,553,1819,-1865,-2224,842,1921,1152,790,-456,356,-1950,46,-1044,-2087,-1939,-4038,-3708,176,-1220,656,1055,3128,246,649,-253,1909,-1280,1338,2424,1101,305,784,-1936,1554,-498,819,-308,-1895,-108,-1830,-997,236,-958,-1055,-1609,-610,-1162,-288,3451,3223,148,1999,-1585,1149,2246,-148,-364,-2084,-1636,1225,228,-770,588,-1093,564,-1616,-2491,-1116,-2673,534,-2293,-1187,1020,560,2620,825,1744,325,193,545,341,-1350,-957,-955,1839,-807,-349,-911,-1793,934,-785,-2083,556,-843,-2279,-2692,-429,-496,632,1124,1777,308,2344,-590,-739,-1392,-1875,-1462,-2840,-2201,-680,-1866,-404,-962,1999,2194,2317,-1869,-1282,-139,-385,251,1447,-1892,-543,14,-1125,1944,1336,-762,-458,-12,1355,-1442,-1177,1553,-1783,1236,7,-2489,249,-1585,-30,68,562,406,-977,-1907,976,1346,557,-135,-60,780,-458,-2141,-3243,549,3119,3369,999,692,1498,1896,-1151,1622,-557,-1100,-385,-2093,1982,1938,-308,-1490,205,-198,-1491,-491,1444,-137,236,276,-553,1301,-2246,2003,617,40,33,219,108,110,701,-1406,-1820,792,-220,1183,766,294,-1775,621,-48,2125,-1028,-1295,-1532,-2517,-708,-503,1548,-1365,-1287,-1479,-867,-897,964,-633,-1306,2081,-1292,2037,1278,1615,-2126,-1384,-1171,-1845,-500,930,862,-1223,-1121,1242,-2078,-1328,1131,1226,-382,-1306,759,-1411,-1776,-715,2051,-2123,770,-1162,528,-1863,-2370,899,242,-2226,1076,-2327,-94,1518,-399,-323,-1688,-1541,1731,1427,-1108,1002,-2660,1517,-2040,-1040,1025,-1683,145,1683,2486,-537,695,-2860,246,-1345,1826,-1597,356,-647,2127,-903,-1962,-1458,2057,1911,-1132,1402,-2406,894,744,-1975,-1026,-1424,-2023,1542,618,-1114,-1185,2111,-1813,-2990,1152,-1317,-1897,1723,367,1240,938,2255,-1435,1085,-1713,1852,-1146,-488,447,-1954,-2069,335,-888,2052,1391,1790,2283,3023,2307,-1038,-971,-765,-1098,-2106,-2478,-1459,-1202,2243,-1323,884,-2222,1824,-1420,-385,1032,1809,-1523,-373,-743,2492,660,-22,2409,1099,-1467,2303,2050,-761,-1994,-1546,-1893,-1894,-396,1231,1954,495,-1776,-2245,273,1465,-1794,1876,-649,1508,1089,2006,2099,-502,1154,2513,-1269,2291,-498,371,-41,-1334,-522,-2358,-2687,-143,64,1694,1727,-169,-1178,2082,2126,-1602,1182,1406,605,1827,210,2928,972,-803,891,2052,1116,179,1549,-105,224,961,-2660,-2328,8,-175,-1163,-1494,-1160,-2195,-130,2035,960,-964,-813,-1237,-802,-616,-246,2414,2099,2023,-1042,2626,-185,-614,-1632,552,28,-3062,-2148,-2121,-2248,-1760,1714,701,2251,985,-857,-907,730,-1768,-1469,813,1071,-2121,-2396,1567,2112,-859,1585,785,-2784,-2844,-966,-2719,-1404,778,-2235,1590,-1888,224,1631,418,2319,-976,1808,-1141,446,647,773,-560,-837,-170,-1480,-1862,-862,-34,-679,531,-79,-2188,-1825,-1845,-1308,1278,1283,-437,1017,1969,-18,842,1784,653,357,-259,1167,-318,-1876,-611,-1241,2073,952,1197,-161,-1132,-16,159,-1782,785,1911,-1987,1211,-1645,-789,-2250,866,1515,2032,-1016,253,-558,-1852,1733,-16,-1619,1809,-865,-1503,1084,688,-1179,364,2541,2574,2435,1537,-2008,831,-669,-6,-406,-1080,-1777,9,2260,108,-1660,-303,1290,-1684,-1991,2011,-572,-1838,-2240,-1762,-532,-1898,1909,-1280,-1823,-799,1631,1407,96,-146,1255,1744,-2147,1853,-359,591,-757,-55,1331,1691,-267,701,1419,-63,-1151,-14,900,-66,1754,-1796,-280,-2253,-1791,1399,-1033,-598,1722,-111,-812,-819,-901,-614,927,-477,-1009,-844,-8,1234,-2201,-898,1137,-2093,60,-1097,-1502,1407,-141,-1939,-1471,-475,-1267,870,-644,-1305,493,-1964,683,-910,755,-1438,1484,-1005,-542,1191,-2137,1275,-390,1676,803,-2041,379,-1110,1413,1072,-135,1647,771,-2331,-1206,2097,539,2562,2267,-1638,1712,1579,62,-399,1175,2031,-1182,1649,-451,-264,-2078,862,1496,-2228,1335,481,1532,-2197,96,-1688,-1886,-983,150,2442,2794,4147,161,2554,2638,859,273,329,-1994,-1492,849,1513,-1719,2306,991,-1604,2135,1335,-1891,950,-2160,2263,2078,1357,2515,3490,4109,3592,4180,4691,5004,2996,3167,2506,-198,-1378,-581,-360,-2070,-2548,1437,205,-91,65,-1907,1424,1923,889,-15,-883,2516,2825,2064,3233,-192,-802,2148,1041,-1030,2028,2837,3028,520,-621,2461,-269,-2711,351,-1834,519,680,-276,92,1264,1093,882,-154,2085,1062,1923,-495,314,728,-1247,319,987,-1975,54,2796,393,753,1516,400,24,-59,1098,-1172,1880,-803,-623,1347,-713,1580,-268,2456,1993,-1432,390,-1476,-106,1840,-2072,-656,1332,-1875,779,-28,3687,2241,161,2047,-818,301,-1204,18,-1642,1482,1446,-1680,-2030,2128,-882,1151,-1516,-2561,387,-2293,-1537,-4064,-1499,-676,-2073,412,2076,3309,1391,167,-31,2782,3259,1896,621,-704,1565,-1866,-1723,-1451,1226,-1703,-637,1109,-2572,-3441,-3989,-2817,-2813,-4766,-3726,-1328,-2280,950,-967,592,1913,1512,2042,-529,2861,-1318,-2309,732,2090,-615,-2183,-401,666,17,212,-1883,-1373,-2412,-2080,-3758,-3869,-1379,-3708,-3471,-2457,-1469,-487,2852,856,-775,2107,1648,3802,-1573,-934,-817,499,-1402,-1029,921,-192,1802,-2164,-2419,-1772,-3567,-3721,-1406,253,-1827,-1103,-2007,-2007,-670,-1483,-2027,125,1208,2760,-567,2737,-161,471,2222,1145,1637,-1521,1115,2319,-1352,-2839,-2766,-2735,1168,1897,841,-103,-118,3025,2415,2751,1895,-2218,-1295,867,117,1653,2763,1916,1271,883,-769,1640,-102,-1324,-425,892,2045,-2636,-2104,-28,803,266,1058,403,1640,-355,-355,-195,28,-1174,-3527,-1167,-469,154,-810,117,-9,855,227,594,-1300,-1639,2075,1962,-501,334,-274,142,3114,-56,1979,1992,-1910,-1641,1607,36,-783,985,441,-653,-759,-1767,-1941,1438,-778,1535,1553,-575,-2223,-1308,562,370,-932,3056,2293,967,-903,1231,-320,-489,976,-723,1634,162,1337,-842,317,1674,-352,147,1007,-2248,-1897,70,-1167,-1958,1596,-753,807,277,2187,1370,3262,-1026,599,-1787,1677,1657,239,-1519,-1698,-1586,-1734,2078,-1738,716,-851,-867,-866,-796,722,-2180,1301,-408,1693,1318,1706,2096,2484,2637,1572,-1017,-73,-784,-1384,-1518,-1258,212,895,1335,1431,727,-65,500,-1500,-2163,813,-1033,-2592,1532,141,633,1986,-1784,-370,-1522,-180,1399,2493,-1718,1622,1122,-986,-1837,-1440,-2084,-1192,-1685,205,1137,-1508,299,541,-1125,826,-2044,-2414,-2338,-1909,1991,197,-623,2137,-1061,-907,-369,-166,-1639,87,-446,-2063,698,-316,2206,39,1768,1700,2990,2136,-1494,-1991,505,801,-2898,213,-682,-823,1377,947,-1944,2171,742,-515,1189,1152,-717,-2632,902,2268,190,1011,-999,240,1951,-1110,1371,-621,-307,-515,-2231,-1643,-2586,-210,-1266,932,1927,-1409,-766,406,-1256,863,-780,-152,314,-1139,-729,-1742,-2645,-1854,-617,1690,975,-1257,1250,1763,2435,-509,130,302,669,-2108,1679,-810,912,1077,503,-1932,521,2087,-702,2428,1419,1310,-409,-719,604,-231,-297,-524,1346,2091,956,1669,1256,1684,2047,-2780,-488,2323,2230,1667,304,2101,-2317,-533,-2216,1061,2379,438,-1194,2290,-131,888,1640,815,1806,1601,1068,-232,-2053,-1824,-524,-1083,1021,-2094,2190,1592,-859,-1646,-1223,264,-1533,2144,501,-472,500,303,1020,2065,1532,629,1757,845,-428,-376,-444,1059,-1865,137,241,-738,1992,-766,-493,2097,-1834,1534,566,-1489,903,936,-1735,529,-1274,852,678,1823,-835,1813,3084,2821,363,-1245,-1028,943,623,-2253,2243,-1870,-829,-2360,-1564,-365,882,75,1681,-24,1118,1769,-449,-615,2100,-13,1813,-717,-2159,181,-1752,-1074,882,725,2183,2087,-1080,-1266,1411,-846,1859,-609,-61,2214,-1448,693,-1471,-1013,-2241,-1916,-391,2022,-1649,-201,2066,1606,2208,1920,-1896,-196,-47,1197,-1954,2322,1018,-598,-1591,563,1865,868,280,1192,1692,-1264,-1304,-696,334,384,1217,2288,-196,-907,-2163,537,-326,-69,-432,-926,-500,-1814,1773,1138,1143,-2132,-370,1048,-1970,-2307,-1790,-2274,-1991,507,-2093,-381,-1955,-281,885,-930,-1904,-204,-1711,1621,-497,1955,-1978,93,-1659,177,1376,-1481,223,173,663,410,-2188,-148,-1077,1050,-352,-1464,271,1642,88,187,384,1342,-1070,341,-1180,951,1283,-1706,1065,-2366,1781,322,578,-1009,586,-812,-1569,1701,-1027,-1653,-2087,-6,-1290,-125,2053,1758,-462,-1792,457,-198,-1586,712,-1507,943,-1167,1789,909,1414,-1827,-814,1372,-2142,-1089,-1061,-1835,-2140,-55,356,221,-671,-403,1419,-300,1139,739,-1641,1343,1510,-391,996,1554,1299,-1478,-843,524,739,-333,-2849,-789,-2072,-1000,-1339,1370,-1155,-3132,-552,-1446,75,-2122,-1399,231,-1642,-99,-2325,-991,-251,-403,1593,-758,1059,-146,-3042,-648,-2671,-1828,-2090,-486,-3765,-3322,-191,-419,-543,-1212,-3498,391,-1466,-309,-2457,2054,-2154,27,388,-1017,-369,-887,-2066,288,260,-1767,-1053,-2977,212,-1714,-1416,-3209,-2370,-6170,-3875,-4579,-1163,-2403,-1279,-3616,-3605,-2383,767,-1147,1180,-87,144,-397,2217,-2198,1036,-173,-1441,-1808,659,-3152,-3665,-3966,-2322,-5180,-5105,-2537,-4842,-20,-2247,885,1116,1082,368,617,1296,1022,-179,-453,-898,1218,-426,256,-358,2327,-437,194,691,-1959,-93,-80,-350,-1326,-1766,1326,-274,-244,-1716,-98,-242,-548,2691,611,961,1298,-1107,-931,-1009,-1099,-610,-1314,3050,243,-1032,-587,476,2358,1115,463,3387,4296,3006,3250,4165,1629,1658,-543,1512,1988,-423,1929,1180,1198,1267,-75,1818,1894,2280,2540,514,3162,1389,2886,2655,5025,4916,3199,3530,5968,4063,5518,3798,3417,3593,3605,2523,2723,850,1617,3536,-394,385,-187,-1805,-974,1705,2419,2987,1180,2178,3209,253,4527,4326,5526,2771,3212,2063,2597,621,2262,3539,2852,2712,3114,3512,3108,741,-27,-1015,1823,1785,-915,2483,2079,-311,-1132,1331,997,-692,2609,211,720,1327,3605,1792,1142,165,7,-2211,564,54,1646,295,-1000,-64,1344,-667,1369,-1286,2489,-238,-1517,190,-1382,-454,1454,550,0,1017,-1735,-2494,-1418,-4467,-299,-1475,-2788,-1209,-590,-915,1926,-1087,2044,612,-1243,-905,-2296,402,-1967,-483,1102,-1212,-1379,987,-860,-1918,1796,-260,-2367,-578,80,394,-3182,-2437,-1361,-2223,-1214,-721,1726,3659,2958,2522,-857,-1182,1332,2339,-29,956,-634,2429,-311,-1660,-596,-83,-359,2641,-251,-2745,-939,-487,-833,-3138,1507,-606,-312,440,2966,3266,-283,-1703,-1393,2104,1215,1423,-924,2028,757,-1170,-1011,-399,-664,673,1047,-223,-1070,-1927,-1159,-724,-3271,-1549,948,-1278,-1909,-212,709,2258,-347,-226,1624,-2019,935,-1925,-831,1763,-493,606,1505,1938,-1731,-922,2482,-1572,-32,-404,2385,-1489,-3238,779,819,2174,400,-2477,2454,2794,-2034,571,-2150,-2165,1196,972,826,1585,726,2070,2237,-227,1224,1304,252,-1352,440,816,835,-1335,-67,104,-985,-862,-1954,-2490,1261,629,-2142,-1724,1193,-770,-1056,1739,-877,-575,-2432,-2566,116,1166,-1972,-1934,-2165,-132,113,-2650,607,-748,-585,788,-1233,1106,-1543,-1051,1186,251,-2116,-597,210,1872,1157,910,2105,-1631,1535,-2109,1534,-2807,-2367,-2723,-64,-3961,-51,-810,-4080,-2370,-2794,1347,-440,-1649,184,629,185,608,953,3,1935,-473,-1724,646,249,2041,369,-2519,-1546,-1623,433,-822,-3335,-2915,-3923,-3358,-296,-1100,-2956,-480,-77,9,192,-2042,1694,2067,-2394,2173,1513,337,-1459,304,269,1664,-408,-1975,-519,-2637,-2326,-2391,-1799,-808,-1376,233,-1218,668,-1189,-150,2130,-2152,-1934,422,1103,393,-1439,-1225,-263,1356,432,2,65,-399,281,-372,-143,-856,1310,-810,200,-2120,-2074,1221,-745,2533,1767,2529,-1054,-1920,-1866,-558,-2064,-823,-1079,952,293,2087,948,2122,2027,1837,-575,-2172,1737,1735,-955,877,1688,1445,2055,1294,399,772,451,-698,1151,-716,244,-131,-1128,-1268,1313,1409,291,138,-1073,90,-1191,2072,179,-2035,-2140,-799,320,-2240,-1144,974,1870,-315,-1271,1488,-1480,762,-58,2366,-1367,-394,498,1077,154,999,481,-1673,2237,1770,1284,1900,-1725,-1771,-1098,2154,2561,1515,-1926,1309,2354,838,988,2628,-13,2731,-574,-636,-1124,2373,-678,-338,-1454,1058,-69,513,-2245,-1793,-557,833,1078,387,2272,-1258,-764,1946,1577,1022,1351,2319,1783,588,1943,-2149,1919,-1799,-1536,-2072,-674,-2127,959,-1300,-1520,992,711,331,1217,949,2326,1722,2004,-2140,-1367,-218,-1630,-520,-1925,561,-2240,953,485,-69,-323,373,-1139,1965,-678,-1878,1754,-1344,2193,-983,-1461,-1105,2178,1923,568,-2123,-2008,-89,-2111,374,2017,-1283,-188,1743,-484,-1735,192,1943,410,-867,-1737,-2329,1186,-464,-105,163,-194,-528,-1168,1940,-2012,1858,-175,1461,1070,-1156,982,1306,1692,-666,637,-1511,-2440,-124,1241,-566,1230,2019,1891,2084,728,-294,-858,-286,-1886,-328,1343,-1857,108,-68,-1741,-97,-165,-1255,1243,-780,-1693,378,-838,-173,1141,-152,1208,1246,600,-2747,856,2315,-6,-1836,1909,306,163,-217,-178,1422,188,1715,1636,2053,-269,429,723,1822,-1411,1001,667,1246,2219,-830,-823,2009,-2756,-2484,1963,405,-37,-1136,-1319,2343,716,-971,-123,-462,466,1280,-1846,-938,-2488,744,313,-1096,2695,2745,829,446,-2264,-2040,-2205,-366,1592,2028,2211,2340,2265,2890,-537,1598,2015,-533,1116,-281,-1606,-1381,-549,-1460,-3065,1415,-29,-1187,1235,2750,1127,-1612,-3792,-2392,-6192,-4856,755,-409,-9,1368,2667,-258,1566,452,-657,-285,-1598,1076,1930,-2589,-862,26,337,484,1393,632,3446,2884,671,305,-2586,-6511,-4914,-2737,2061,-1116,-3626,1144,271,-388,1477,410,1364,153,-707,1075,1291,-2017,-511,-1180,-2076,-2586,-1496,2832,957,2881,1367,-2063,-1624,-2598,-2526,-1023,-5,229,1738,1444,1642,812,923,-1294,-1141,2163,1451,-2362,321,-16,1198,-1204,-1397,661,-150,-204,473,2028,252,-1878,-5181,-5179,913,1201,2614,1638,354,-1814,-492,1505,1400,-2377,1547,804,-118,-952,2062,-2423,-2495,421,-8,534,-1206,3633,1009,3998,1864,-506,-4441,-1119,-3738,168,2511,2798,1782,-2354,873,2184,-2109,-2507,1215,1296,2087,1219,1856,258,-2027,637,-857,-3,15,2643,1946,354,3693,-492,-2256,-3585,-331,-1177,2063,444,-3286,-152,-444,-169,1884,-232,1796,-252,-2300,639,-610,1736,-2681,-413,-3450,-2696,-2224,-1664,-1784,3688,2122,3175,27,-3057,-108,808,-1446,671,-2802,2252,2247,-1624,377,1879,1667,-2291,-1294,-2316,1867,-2134,468,-604,-1591,819,-226,526,2575,2390,2718,1614,-118,-2367,-1531,-1260,146,-69,700,-1815,432,2562,2102,-474,-1346,-1085,609,-2014,545,-1182,608,-2465,-2634,-1318,-1810,-270,801,2964,4222,2236,1544,293,411,732,-1408,684,1348,1592,1180,1041,-1410,1327,566,227,245,89,1124,119,-2612,-1402,1531,-488,-744,218,1182,1360,3744,-179,1583,-1063,-1328,1968,2384,1764,237,-2992,89,-1657,1560,-1429,-220,1117,-968,-1820,216,-367,-349,-858,280,-373,691,417,3087,4451,661,-784,-272,-1355,-1728,60,1213,-130,-2959,-195,533,-794,-1219,1671,1088,-1162,-2002,-1449,1111,1043,-1671,-978,2218,1120,2092,393,3449,3228,-343,-2137,-222,-1383,-1468,390,368,-455,1384,-424,-52,-556,-1700,2105,-322,2178,-829,867,1210,-804,482,1417,1291,206,2389,4117,96,2752,1800,1603,560,300,-2358,-3813,-2443,-2378,-1426,-1054,-1765,-1694,-1303,785,41,1689,-1527,452,-1570,-2323,-1354,-9,1628,-1571,-161,3574,-203,-1170,-542,-2441,634,-1738,-3987,-1439,-3392,-2980,-127,-1070,-385,1017,572,-1605,-237,677,-2041,474,-131,-635,-2265,-2644,-2356,369,2080,12,1272,1332,-1405,-3227,-1013,-1850,-880,799,-538,-508,1847,-1119,-549,2023,-1604,474,-221,-1023,1588,1480,-1805,-2288,1867,-301,612,413,1685,1445,3846,2160,-1462,-1937,1109,965,138,106,-845,-429,2808,340,1155,-1753,-998,1586,812,-1223,1051,1075,-860,-20,-2456,-2531,-1516,-878,-1926,-1311,4407,2093,2063,704,-486,-1498,1476,-389,-2112,2767,2086,-680,1881,2508,28,-894,523,1092,2006,-754,-38,1579,-982,-1463,-2500,-2316,-2434,-961,2957,713,2602,3359,2129,2331,891,-734,-179,-1600,-1102,-2120,-1321,2162,-2299,-1526,163,-835,1098,1489,2221,-1087,69,-2077,-3468,-927,-2651,-2760,-973,165,786,1223,1142,40,1842,-39,155,433,-873,-2829,-2270,-1613,2003,-1327,38,-671,26,-40,-1137,-484,1158,-832,-580,-1672,-2559,-1226,-3110,-1954,-2645,-264,-2766,-843,-1545,-2314,1295,-1672,-3021,-1140,-659,1495,-2111,-728,-889,-1688,-1000,-17,1846,1932,-176,1254,-1825,-469,-533,-52,-625,-2032,386,-2407,15,-2057,3,-517,-209,-2480,715,-2515,-876,81,-1312,32,-1114,1984,537,180,615,251,-337,-1933,-180,-1501,94,-742,-1947,917,-253,1837,-2502,-27,1042,2226,1826,1451,1036,1114,-1384,1975,-1744,-828,2127,-332,367,1477,1833,1263,1724,-1363,1851,2286,1640,-728,-1380,1246,1937,-2165,460,-2053,-890,1814,-60,668,617,-478,-45,-125,1534,-924,-955,2024,1822,-227,977,1823,-281,1757,-347,1612,1678,-1705,1518,-2088,-646,2293,2177,1213,-1801,1124,1767,1512,994,1910,959,1151,1900,1953,-1554,968,-883,-1631,-53,512,-135,694,723,969,-244,1097,-1266,-1990,833,377,-1983,234,-1247,410,117,-979,-143,1776,-900,-528,-2059,431,-1644,1104,-1300,1805,-1277,-2086,896,1127,-627,-1560,1703,-2462,-966,-1749,345,-997,-2877,-2658,-1013,-2579,-2668,-129,-1947,392,-912,-1458,-621,-2184,-205,832,-1445,-398,2205,814,-577,-108,-1406,-1788,1149,1709,-1722,-1538,-845,-1413,-990,-1199,-1442,1041,-332,476,892,359,87,343,1599,2033,1664,347,1962,-1474,-1906,242,252,999,483,273,-2907,221,-236,-3682,-1312,-2308,-3302,-1525,-2981,-233,-1725,-2067,-1874,325,1354,1497,1274,1891,2039,1762,-1203,2198,-1311,-1874,-2142,-2104,-1773,1520,-2916,464,-376,-1182,-2807,1272,1655,-809,-2067,-31,703,-3785,-1285,597,1613,1279,-517,416,1342,-1161,-595,-590,-2059,556,-1506,741,-161,-1562,-372,-1914,-104,-774,1427,2389,2767,57,1172,3223,-436,-2000,-2098,-17,-1357,-2707,-1877,778,2270,-1391,-86,-38,1771,-1695,-1143,-2456,-431,104,-1558,-2239,-1856,2384,-1829,1022,-1669,72,1780,-1730,-1474,-2698,-1662,-1456,871,-15,1608,262,1259,1063,1354,-2090,-854,654,-349,100,1299,-572,519,593,-516,-664,-93,3134,-30,900,-1056,351,-1489,-1682,-529,-2791,-1148,-1240,697,-1505,-895,-1346,2034,167,211,2147,-1682,-1092,-2155,-2771,-1056,-183,1635,-971,1628,1687,1711,3359,2628,-300,1221,-2533,-2347,-2553,2138,-99,1525,1650,850,1059,880,1094,-80,2253,539,1507,-3726,488,2483,-985,-215,2031,-803,3034,982,2208,3351,1412,-21,-651,622,-1080,-1059,1347,-686,-757,385,-247,1701,165,1106,1808,-1668,-1063,-1302,-580,2023,556,82,1758,1830,3420,2628,4504,246,783,-1446,-785,-2338,-1923,-1133,-289,1498,1660,-2222,-1346,-861,1344,-39,1747,1049,-1565,796,-1359,-735,1552,2064,331,-736,195,2973,1947,534,452,-1123,514,-1630,-959,880,-1807,-289,-97,-1143,-2118,1538,977,-1223,-2005,-1284,1007,-633,750,1139,2863,38,933,252,2836,3368,1872,3459,2614,-1506,-1120,-1664,-1710,-444,-2391,-2135,-1745,-956,-1105,607,1437,-1935,1715,-802,-1481,-269,-2859,382,137,3574,-46,3086,-33,827,2061,2290,1019,-2247,-2188,-2866,-2194,619,623,-191,858,1582,-1208,735,422,-1575,1492,-1376,1094,-3147,-2120,-684,179,368,2,1364,-432,670,-502,2159,-1161,-2602,-3679,-684,-1197,-2859,-592,-2552,-163,846,-1594,-177,-2021,-193,-934,-748,-1366,-1709,-712,-3167,-2337,-227,-1703,-1856,800,1351,2963,1205,-2775,-1760,-4464,-3490,-2432,1044,-1879,-2067,1016,-2291,-1624,1613,458,900,1855,-2283,-2365,-460,-1587,-451,-3350,-2116,-2155,437,915,332,-235,-4278,-5201,-3736,-4658,-2268,-1113,-2666,-2570,-823,1625,2165,-1721,-418,-827,673,1178,-963,-1592,-934,-973,-4132,-2595,159,881,2279,1942,832,-1885,-2649,-3923,-3072,-2436,-3061,-2252,-807,899,-497,1873,2151,2221,-685,-760,242,896,-193,411,-591,-2047,-2985,-1512,-1156,-2158,241,-1540,-1998,-2486,-3067,-574,-1623,-4196,-2925,-1570,1312,-1219,1699,-270,1872,-1352,-391,-1722,946,787,1288,-577,-1105,-3571,-3022,-993,-894,713,-2469,-2598,-839,-1965,-3209,-4575,-602,-2071,-2125,-801,1182,-21,1319,2177,2230,-1489,-1164,-1070,1544,-61,-2657,1137,-906,-2197,838,376,298,-1110,-3524,-3847,450,-3238,-583,-1498,-1005,-2842,-338,-2777,-1707,-594,-1134,-604,-1417,-1297,-239,-2255,2099,-102,-1387,-1306,856,-1850,1902,2751,-1822,-317,-46,-474,-2919,313,384,1296,-117,847,-3047,-1727,-1063,-865,-1890,-2089,-1335,-434,817,-1889,-2318,328,-619,-453,-1870,34,1889,2186,-1888,-578,-2947,-3310,-1191,-785,-694,-205,-1610,-808,-1358,-330,2246,1163,-2204,1601,-532,2249,-962,350,466,-2184,2565,425,2517,335,-352,-1222,-1905,-407,430,-1536,867,2139,1159,-97,-214,-191,-1656,66,2417,-1496,-2198,220,-1104,-1792,1672,-1644,620,1475,-722,1025,295,1024,1597,1179,2809,-459,2553,-859,1021,2529,2518,757,-1459,798,1252,-1244,1936,-1542,-1351,-1988,1242,1175,2071,34,-1479,1584,1792,1304,-2252,979,-11,485,172,1048,1581,225,-1524,33,17,1603,596,2107,-119,-1293,-2179,1468,2259,-2332,1352,667,1259,1860,-767,-2319,2071,630,-1441,-1555,-1200,-2315,-1750,2086,617,2035,-1836,612,-2272,1807,-706,1946,1973,-2277,-963,-530,1420,-1875,-950,2039,-2302,1600,-1410,755,1150,-1286,-2235,1869,-1921,-922,617,2057,1675,-940,766,914,1387,670,-1154,-1421,374,-1922,2286,1600,-164,-1596,-68,-353,-288,-1427,771,-2126,-1932,1618,-1009,-1107,-1801,-2125,-652,1916,2289,860,1893,-938,123,-179,1232,1100,-2105,-1677,2019,1139,-490,-963,1538,-1269,-399,715,356,-1005,1374,1612,-1690,158,-1560,1646,772,3074,2138,3569,512,1040,-1064,-1135,-1362,-1908,-349,-1456,-2303,1804,-934,1901,-464,2306,-148,-1873,-736,1620,1906,141,1618,-205,868,3210,1860,351,1251,-126,2139,720,-1113,512,770,-2335,-941,-2850,-2341,-797,635,1280,-461,1437,-77,-1482,-1081,1886,-2,-1531,2359,1554,3450,-590,2146,2433,216,3566,2926,2719,697,-1152,-948,-3037,-178,-3010,-811,-338,728,962,563,1995,-1131,1814,667,692,2584,8,3081,2665,3010,1233,1302,175,2245,4847,1791,1505,718,3805,1177,572,-630,722,-557,-4445,-3082,-248,-1981,-530,-1180,2335,-2161,1160,907,1464,733,152,3179,4342,4117,1774,1531,3211,3070,4027,3879,2568,3884,-414,-334,-1920,-2379,-1728,-2139,-1779,-916,-1837,-510,1004,526,2408,-1073,-942,-2009,-622,3314,-698,-1577,18,-2499,-3017,5992,6916,6230,3624,-123,2825,1396,-2230,-970,-2987,-2926,-1044,-2426,554,1070,-2309,1029,676,2507,-1878,-1211,64,-2060,1332,-1202,-1832,59,-472,509,2174,3962,2267,-362,582,1404,-570,-3465,494,132,-1948,-1738,648,1616,-496,533,1201,-732,-182,-968,-2733,-2784,-954,-5018,-3692,-2000,-5094,-3247,-1182,-454,552,1008,1598,-1772,543,928,-2264,-1292,-157,752,1780,1027,-2294,-2107,1557,-1139,-1092,-3453,-1113,-224,-4482,130,-3337,-2760,-5147,-5988,-3958,-3689,462,1110,151,265,1557,-2796,-2108,-764,-2602,-155,-1004,-1975,-2062,-1951,-1352,-408,-1167,84,-1654,-1288,-3461,-1303,-2707,-2034,-4137,-4171,-546,82,1339,1703,1754,1656,-1354,-1897,-1777,-42,-2520,-1536,-469,630,589,1466,-1962,646,-3680,-2409,492,-181,1118,-477,1042,-3054,-3024,794,-1404,1232,84,780,20,-141,-1408,-2897,-103,1479,-133,-926,1409,2024,2089,-1476,319,-2446,-3050,-3018,872,-2770,888,-114,-582,-1955,805,125,-1666,-250,-1412,1722,1403,1252,-570,-1535,405,-1692,1824,2168,-1433,1290,-1397,2214,-2445,111,-1408,1320,-1398,271,1221,1718,1962,-2290,-1677,-853,-2477,1483,-513,-551,-1422,-1114,-510,-1807,-1876,963,-896,580,1861,-1230,-2305,-860,-1624,-531,1995,1931,-848,-833,-401,712,571,-1991,-3024,-3069,566,-818,-502,2033,-2028,-2347,18,-2472,945,-1730,2244,-82,1171,-452,1896,-2262,-685,1271,2060,-1705,-1438,774,1878,-1287,-1681,-1179,-4040,-3795,-480,812,-946,854,537,-976,-3183,-2166,1567,858,1474,1984,-422,866,2165,1314,614,476,-31,-2053,-1868,651,-143,-754,-563,-1984,-1054,-2050,-1912,-1202,358,646,-115,-189,-1855,-397,133,2878,1815,2217,-1468,-727,842,-1928,-1926,-684,-2376,-1706,-1671,-471,-842,1216,1040,2373,1596,1623,1728,511,-1452,-1087,-794,235,-1317,-1181,-1042,1110,833,-753,1505,-2332,-2039,1567,2070,305,-1500,-354,-2730,-1428,-558,-186,1327,3694,1629,2582,2601,-776,1213,461,-2407,-2023,-1164,1465,-1341,-314,-425,-2280,25,-1845,-314,-376,1764,956,1079,-489,-2430,-1136,556,3073,2576,3538,-141,1595,278,3210,791,714,-1142,-1161,-2333,-411,-167,-393,-810,-1831,1936,908,1656,-821,-342,1299,519,-1925,-2943,-674,2999,-163,199,1665,2808,1166,1988,3156,-1637,-3341,-1141,1146,845,77,113,-482,2107,-1306,-234,-562,262,-1472,455,-1202,-1629,2835,-686,691,1204,351,2229,382,-2060,-1595,-592,-1622,-173,-217,-2111,-588,973,121,-1845,841,1703,-2044,-739,2144,2300,1531,1437,-883,-264,-941,1750,748,-769,-313,798,804,538,-843,-479,2009,89,-1667,60,-2026,-1803,1837,-262,1680,-916,-268,-521,-1174,2188,2286,-897,1947,1096,304,-1517,858,474,1492,1930,1737,2219,-299,2382,-1059,1922,-166,1141,743,-2015,-980,-327,-1430,-1497,1219,2137,934,-1751,2034,501,-1864,-136,-944,117,1800,-1261,-1281,-224,1034,-463,-1075,3055,2069,2858,804,-1993,753,-2268,23,-1663,2173,1861,-1038,1585,107,-2233,-2028,218,2211,1460,-58,-2188,-2119,-781,-1656,-750,627,-395,-250,-424,-1329,-350,1752,-445,816,-34,-1678,569,261,1076,659,412,-1315,612,1216,2044,-2272,2340,-1966,2195,1442,2165,752,-793,-567,-1536,-2021,-729,-466,-1379,-1828,-95,-1815,1589,-1356,393,849,441,-1753,-47,-1890,-1208,-1916,1918,812,2156,1249,1626,-2226,2191,-2121,1281,-1060,-1759,1553,-765,342,1199,-1609,462,1821,1955,1624,-1968,-920,-262,-198,454,1437,12,364,1166,37,-763,-2126,-2214,-1910,-656,355,-2282,1301,1811,-903,632,-821,715,-2109,59,-1918,-281,-715,1296,-1230,1861,1455,213,348,1311,1043,-53,-1682,-576,-532,38,-1,2251,2713,-222,1793,3295,2040,1345,1040,1446,-875,-1026,-1686,1340,1454,-178,1776,1585,-2158,-2242,-1521,-375,1832,1136,-452,1432,-1946,-612,-1247,1178,1296,1597,3143,1161,4595,2145,2066,2345,-406,-198,-1527,-2984,-2266,-1955,-2750,-2426,-2157,-1827,-2108,-644,1968,-2328,760,2147,-1825,726,1994,623,-1141,3316,3610,784,818,3543,4762,3607,4774,1711,1828,-2076,-238,-3681,-3427,384,2287,155,-82,-2056,-1085,-725,1062,-1048,-1609,-354,-921,315,-1398,65,2281,1607,2160,3024,2055,3862,5616,1445,-313,2482,-866,-2405,404,410,-158,-622,-1146,1956,803,1921,1618,1507,-1827,-3219,-1468,-1457,-825,941,-752,579,-776,-1542,3197,260,3416,951,1560,662,1500,484,-2245,-2579,285,-357,1806,-959,-919,-2202,1726,1403,681,-413,-815,311,-878,-158,-1776,-2763,1761,493,-910,3562,2060,1279,1297,2863,-603,2990,-1154,1388,-2201,2268,-266,7,252,-1213,-1959,1755,-1389,35,57,-1176,-3217,-4149,-3848,-1959,-2410,-700,-1051,730,-329,4134,3808,2292,4052,3316,762,757,-1616,-1492,1712,-1236,-498,-1392,-1023,-1967,-1311,-2173,-3523,-478,-3311,-1378,-115,-2899,-2599,-1625,-596,-1800,1454,1335,3480,915,4374,4056,488,-2201,-210,2141,583,-1980,1721,673,-707,-1932,-2878,-129,-869,-4792,-339,-1487,-1763,-2701,384,-2165,-5694,-3626,153,803,2811,2408,2586,390,1373,-1196,-2247,177,1451,-251,-158,-555,1589,-921,-2580,-1405,-2954,-2447,-1059,-755,-2491,-1463,-3153,-4905,-4092,369,-641,3488,1706,1417,3347,-823,476,549,-1839,-1710,-1156,-1054,-1223,1252,248,-2329,-3426,-1466,230,3075,2258,-482,2208,586,735,-617,-582,-2289,2197,-977,-109,728,2142,1137,1719,-1052,2170,1493,433,1934,561,-378,-2159,-2150,254,810,1690,835,-1420,1227,-871,-396,3484,2015,-1102,-2641,-865,-1908,438,713,69,1469,684,-993,60,-1107,143,237,718,605,-325,-448,1944,-1415,-1462,-100,-1457,-1302,1872,1913,2454,132,1235,-14,-1254,-98,254,1447,-2612,-733,-1322,-1766,1694,1774,1150,-757,-1882,591,771,605,-1391,400,-1005,4084,600,1655,-1717,-703,-531,600,1747,-2109,-747,-2518,-3239,1293,-529,1424,1093,519,342,-790,-2088,809,-63,1863,3437,761,2350,68,2681,3371,-809,-1426,-2181,-1757,-1617,-1856,53,1087,-3774,-1146,217,-1310,-1017,-1709,-1405,2916,834,-2048,-1048,1689,-1781,1519,1467,485,1489,959,3194,-1418,1479,-2434,-677,-3308,551,719,1536,1527,-2296,-1160,-1938,-1914,2215,-159,-797,-259,260,-1043,-386,-777,-2070,1053,3060,2914,-100,1604,920,2228,-45,-3501,624,-335,-563,1308,-1613,624,1944,-137,490,-1957,519,-285,-729,-1272,-956,-142,-1593,1278,-210,802,1179,-720,2286,-116,67,1552,-2067,-2221,-604,742,-2779,1749,-1292,-2285,37,-486,-1124,-423,1927,469,1830,-22,-1671,-1959,-2331,2010,-1016,1577,961,2705,1351,1750,-485,-1341,1799,-1219,808,620,-1683,-688,-1839,596,-294,-183,763,-514,1847,-678,2285,-1827,1756,-1419,1881,-2211,2360,1750,1885,2819,2037,3821,1183,2179,79,2976,-815,-2070,1517,554,-83,970,1550,-1207,-3668,-405,1287,2157,250,-637,-1901,1901,1395,-419,-395,-827,752,-2494,-312,-126,-522,4013,2076,1558,928,2321,437,-707,-33,-130,501,31,-1843,-1958,-1531,-1921,-1832,669,-1112,-984,2222,-262,-2102,982,-2139,-1331,-1543,-1998,-438,1873,1106,995,1360,-865,-1048,2079,2396,163,-563,74,687,-695,104,-170,1036,1797,-2099,593,-2186,-738,2303,-1302,-2336,2073,132,-1687,299,-1884,-1500,-92,2152,1839,2264,2135,-1918,-1451,-870,-321,1176,-109,-2239,-1517,621,-110,681,1043,-746,-1741,-1327,-897,-2295,-801,-261,-36,1344,211,700,-1728,-1047,-1031,-1139,1839,1737,586,-766,922,1259,-2142,476,1944,359,1343,-456,635,212,-1704,-655,232,585,418,-45,1820,317,-396,-1038,-15,-1197,-796,584,-2005,2039,956,2039,1558,-295,-1310,1580,1982,1953,-718,-90,-2241,326,221,-1334,-1661,-1280,-2033,1884,-629,1544,1385,-1838,-473,-677,-1863,910,1622,43,169,-1594,1039,1308,-1153,200,1044,-511,2023,812,1099,-2048,1793,74,-2139,-322,245,1191,-1074,-2182,-1104,1971,-169,1910,1081,-373,-1180,-1985,-609,2302,679,307,2324,-228,-1188,1857,-740,1846,214,2112,-174,-2283,14,671,-995,-286,249,283,1211,-835,-851,2934,-1410,1065,-215,3143,2039,2032,80,1273,-130,-363,-170,-412,449,-1632,36,-671,414,1436,-2041,-21,-203,-748,-1792,2831,-721,3510,2252,1702,3898,-35,-1000,-199,-719,1626,1856,677,-286,-182,527,301,659,-1634,1748,1388,-2311,-1678,-2323,1981,-1320,290,1689,1381,584,1472,-502,-735,2215,2400,-280,1368,651,-2882,-109,-1975,-341,-713,-328,850,1421,2056,879,2109,2261,1166,1055,235,255,1324,2441,1153,-731,2168,-587,1851,438,443,641,-500,-123,-39,-549,-3181,-1823,-1828,-2246,983,1147,1095,2127,624,2270,-417,-971,2398,-279,-1252,-1027,554,1668,579,1637,794,-163,-1583,961,-2551,-3188,-593,-1769,-1150,-1983,541,-3538,-2353,1146,-506,1860,2178,-1271,-988,-109,352,-1138,-1718,2733,-107,-658,2559,-588,273,564,-777,-1435,-1987,-1,-3528,-2130,-3320,-775,-2301,-3051,-3009,-2161,-2112,-1397,26,874,-483,-444,2917,65,1327,608,1690,2396,3360,-538,1704,-1632,-2247,-77,-1538,331,-472,22,-77,-1037,-3192,-566,372,90,2109,-1049,757,-1531,25,-396,455,1512,-647,-857,-1708,-625,-912,506,841,-689,804,-1935,-2184,-2347,-2619,-1635,-645,-327,448,-2529,-3742,-701,-28,1996,-89,373,286,499,1354,-157,-2006,1906,2863,222,1754,-850,-3813,-4016,-108,-2350,-1614,-265,-2999,-1563,522,-1962,24,-2263,-243,-271,-634,-2210,1851,1748,-1108,-776,-390,-329,886,-1716,-1211,-2326,-4237,-1541,-5020,-1558,-285,-1885,-111,-4559,-2562,1150,991,-271,1276,-642,1237,2116,1520,2125,-616,297,636,346,1229,435,-1795,-1951,-3614,-1388,-3372,-5241,-3696,-438,-635,207,538,-1426,-245,-1752,-723,2504,3028,1408,691,-57,940,-1652,1483,-363,-2185,2028,-2349,-3132,-4686,-3269,-1955,-3669,-350,-741,798,2436,-47,-1360,-2539,1150,44,401,2862,2271,279,2884,2075,3150,-434,-1494,1622,2167,298,589,-2583,-4755,-710,-4033,-1897,-1515,-1129,738,3481,2940,2352,1574,877,-2200,-209,306,-545,203,3142,1912,-968,1724,1576,1574,987,-118,308,724,-628,-1150,559,-1916,122,-1170,-1394,60,3309,4084,4380,2267,2622,-570,1243,-614,-1802,-164,448,1989,1228,3110,111,2137,-283,-175,-1091,1454,-1411,-858,-1133,395,-114,246,1677,79,2778,3019,6101,2335,2033,1625,-936,1041,1877,-1497,1680,1759,3889,3292,1952,-327,760,-248,-1471,1169,1426,-2417,2205,-693,-2083,-1983,-90,1638,2405,2352,175,2122,1465,628,-177,1756,-1236,-925,1074,2374,1020,4030,-441,-319,2227,432,743,754,2136,-1570,1237,3098,1472,-1645,-88,1299,838,2954,1922,2272,2285,2376,2702,13,-884,410,579,-655,28,164,-2114,-1753,-2198,-45,697,1344,1311,1844,347,173,297,-2456,1494,-295,3395,3767,1377,1041,1849,371,2021,-638,-1378,-1232,331,972,348,2600,-1276,-1457,2038,2039,1376,2837,2860,-14,2580,1391,1059,-1358,1245,3609,3071,389,3036,1101,2405,-1249,2950,-1447,2336,1233,1888,2571,-109,793,2018,-381,-626,-1295,517,-331,138,18,1018,2777,334,-1538,1782,-1737,2800,605,-415,701,-484,-46,2126,2024,-1287,853,848,929,-596,1294,246,-1070,-1208,-477,-833,1209,-1530,3163,-786,114,-1049,156,223,-170,-2908,-3118,-2869,-3327,369,-3069,1193,-320,418,-1806,2093,-41,854,1706,888,-2317,-1010,-1697,2036,-1469,2365,1448,1107,-155,578,-2456,-1733,-1604,-795,2044,-2023,241,-992,-1377,119,1104,356,888,984,1761,-225,2160,-2230,-1191,-181,2084,296,293,-1274,3,-529,-642,-3378,538,537,1026,1808,-1719,2306,830,740,653,-845,-506,-1669,1121,-2629,757,-1478,-1714,982,1542,-1307,1972,-2109,-1110,388,178,-2431,1003,-70,-447,-1358,-287,-852,-1239,1175,1253,-1825,826,-2747,-2442,-2015,-2016,-2656,-379,1000,-698,283,-1460,75,-2275,-760,-1138,-12,1336,-2075,-1756,-1421,-601,-1393,1601,-1095,1093,-2666,165,996,58,-1218,879,265,-1777,-930,-842,1641,487,-1384,1343,331,1883,18,791,-486,1803,1474,474,-746,-1701,1826,-644,704,1409,-980,-15,2198,621,-29,-256,-1440,721,-605,-267,-144,-1946,1561,2127,-1254,-482,1210,-2242,1692,-236,572,233,-2076,558,1265,-1315,942,-949,899,-988,1410,1879,1294,-1998,787,-1431,-878,1980,-490,1044,1,1935,377,-2297,-139,-1139,982,1204,1979,2108,-1378,1017,1630,-1514,-1754,-872,2057,308,23,-1813,-1556,173,-1064,1661,-837,-304,-1693,765,2117,364,-1792,453,-1460,1315,-549,-1179,-1800,-1502,-267,-1290,45,-739,-2237,383,-1585,-880,579,-493,1378,1173,-990,954,1800,1317,1759,1405,1013,-206,-729,261,238,-77,-523,2154,-788,-1423,-2248,-1495,773,-1193,-2035,-1102,-256,-2546,-2738,-3342,-1386,-1711,-1821,1538,-62,295,814,1181,-2278,1941,-606,639,-359,-1781,-1362,-2058,-1913,-21,-2567,-2375,-2512,962,-509,-2805,-1662,-528,1714,-491,-815,-1896,956,608,649,100,1607,1373,2322,-612,-255,234,600,-286,1085,48,-1876,-1258,-2505,-379,-2787,66,-1025,408,-910,744,74,102,2247,-450,1941,720,-1065,1462,860,2291,-1483,-1866,-656,-877,-891,1111,-2646,502,-2814,-1975,-18,-1186,737,664,-2164,730,444,1286,1546,-560,84,3708,3200,-958,224,-1094,-924,2611,-1197,-2207,1404,-147,790,517,724,794,-1354,-1312,-2153,-2748,-541,1289,1228,1829,-553,2163,1320,3276,2588,-56,2398,-186,3044,-407,287,1883,847,-1956,1024,-485,461,-947,-689,-482,-2846,-637,1274,951,2175,1859,2392,619,529,1500,2386,-103,1890,2169,1924,-1052,661,2286,-47,3158,-1551,-1889,-706,-2269,-2150,1010,-932,1115,-1921,-2001,1952,1877,1597,1653,-438,1724,-211,-924,-1944,-1943,-4142,-1391,-148,-2879,959,3351,1730,2015,2725,1846,-2165,1651,1975,-23,-2619,-70,-442,-1452,1305,2122,4616,2682,1082,822,-1002,112,-365,-2223,613,-1133,229,-1891,2019,1145,2083,-120,-1345,-255,2340,-1994,-1745,1246,1819,-1387,-1068,-728,3373,1243,2926,1386,1888,4363,738,-1421,-185,-201,-529,-676,645,-2486,2044,593,1630,2931,-325,1558,1904,-581,-1275,-175,2518,428,789,1640,828,2501,240,578,1985,-765,4017,-1210,-477,916,1180,1694,-1860,-608,938,2961,2034,243,859,6,1169,393,-585,-1693,1340,-1822,-2207,2146,-480,-832,-1478,1084,-1987,-631,1463,2065,-1839,-1948,-2464,1588,-1080,11,-1778,-339,863,-628,545,1323,677,-764,632,-1529,-1802,-905,-1975,-3231,771,1799,-165,-946,-2326,-289,3244,1266,249,1061,-712,-639,-1472,537,-809,367,-430,527,169,1902,1677,971,-1107,-201,-2441,-3663,-1955,-1469,-2820,-914,-1936,-2060,-111,1747,354,-737,-1543,-1232,-1376,-2847,-2042,-1415,-2214,-3337,-97,1370,2158,-1727,-1450,-286,-562,1875,-2232,-2018,-347,-412,-485,-3181,97,-1171,-1749,-218,1405,1832,-2192,215,-3557,-1251,-3764,-776,-3351,-2155,-2829,-1179,1245,1698,-503,2265,-2401,-826,-2340,-399,1547,493,176,-255,-68,2144,2326,864,490,-75,1444,-676,-1696,-3070,-974,743,-1186,-767,-1396,163,876,-1976,-330,-1103,113,-532,1733,-195,-196,-1503,44,-2094,2768,-591,957,-752,430,1425,-3519,613,-2616,481,840,-1511,-2329,659,548,-2187,-2018,-239,-521,-643,-1246,540,842,-1979,694,-179,457,661,-725,-680,2211,802,1789,199,-1828,-1511,233,-1787,-2243,-301,-2852,-34,1672,-1837,-600,819,-1179,-197,2238,-1577,-853,-2268,-1377,-399,-1004,425,-869,638,344,869,-2070,-1889,-104,-810,159,324,-1720,729,342,-2393,1823,545,1632,-2079,1370,2003,-1872,-2294,350,1136,839,2464,1065,-9,652,-2853,336,612,1194,1244,-114,1421,-2455,-136,-2616,-553,416,-671,2070,713,367,1935,-1404,-2005,1198,1960,-1984,1682,-472,-1440,2123,-448,761,-1579,-2910,-39,239,-238,1329,534,1653,687,-1397,-614,-332,-117,-1054,-2066,116,-2273,1014,187,740,-1491,-1645,-980,707,-1915,-1467,453,708,536,-1900,-2148,768,2032,524,1199,1116,-2306,1644,2025,-1792,593,-1689,629,282,1456,-669,-535,-464,377,-767,1230,-1921,-131,-1421,-1001,1286,201,96,2220,1137,-1627,-1414,1061,1437,1065,1263,307,2234,55,379,584,961,985,69,358,-1057,-476,-1847,1184,-2382,969,-1117,-1269,-1535,1070,-1250,1411,360,2405,3837,745,1766,-1294,356,-613,1418,-36,1941,1053,1465,1831,-1829,294,1763,-1101,-1730,-1318,-1632,2392,585,-307,234,-1218,586,1512,1652,-566,2767,274,-1418,-1475,-795,1788,2329,279,-1779,1064,1304,1556,359,-1373,1974,327,202,-1997,-1183,-881,1961,-987,634,693,1169,1030,-2157,-1742,-413,1194,-1795,181,-1922,-674,1634,-591,-1697,-750,497,1372,304,2067,-1941,-1745,1911,2206,820,-672,-714,913,-2133,886,148,-529,226,1154,1517,-1372,208,436,-1324,-892,-1190,663,-1086,1235,-1223,68,551,-2107,-1809,-199,-2078,1315,179,408,736,2109,-2365,1921,853,-1524,-863,1087,-1280,1659,-418,1588,2240,-845,-175,257,-1560,-1562,-2193,1293,-2327,-1502,334,1411,-1259,1804,1075,255,1675,-238,428,-670,552,141,-1451,-612,-1597,-865,1763,-1237,464,387,-242,-1843,-2186,-1783,-1830,-298,-1273,550,-2294,-1974,-317,833,1454,1718,-1539,1600,-163,-1719,-133,2045,1356,2600,-1607,2226,-640,683,653,59,-28,1667,2160,832,970,-761,777,-201,696,875,117,-2142,73,-985,-989,1801,-144,-2267,2431,-72,1868,1220,3572,2019,12,-408,2225,2122,1091,-1422,1424,693,2187,-1916,163,1463,678,-43,-1931,-1910,-974,-2363,194,658,213,-2868,641,-1894,-249,664,2661,3210,2704,890,930,2033,-1951,-939,-1438,-494,-524,-2331,-205,1879,775,-2040,-1161,-175,-2139,-2381,-535,-2165,-2252,-2337,-1314,-806,-1771,-357,1181,-656,-243,956,1105,-1267,433,449,-1863,685,-2213,1421,-1703,902,-1640,-908,103,-2295,1719,655,631,1184,-2705,1269,-1703,-1373,-4134,-1412,-3128,172,2272,-218,-73,1660,-273,148,516,-129,1132,2107,1954,1992,-1169,1013,1658,-38,-2473,1912,-11,1105,1828,-1254,1045,1015,-3466,-3843,-2504,3012,3038,2987,1383,1370,-921,1745,1684,-396,-2221,1519,-1430,-1842,-8,-996,-2505,232,1419,-2452,-513,225,-1557,-732,-658,-2078,-4919,-2424,-8,4091,2341,3016,570,557,-292,1650,-1093,-805,1715,890,-383,86,-1773,1612,-2308,-266,-1446,-921,276,-712,941,-2016,894,-1690,-3803,-600,90,2305,2657,2250,-53,1711,-2196,-1851,-1869,-517,-2079,2000,1366,358,-1633,951,-1253,2123,886,273,1837,-67,-2479,291,118,-1712,937,647,-876,-170,2415,533,-127,952,684,2034,52,-1879,1174,2124,932,843,132,983,1341,1810,-969,-1977,-1707,-2310,-1240,-2351,195,-2202,-1905,2248,1260,931,-1110,1317,2147,1952,1638,2681,686,1628,-497,144,188,-2237,-1700,-2380,-4,2198,673,-331,1057,1076,-139,214,-2167,-32,1939,-576,-749,2625,-396,2979,3185,2345,237,-1030,-382,761,-523,883,-1227,-1402,-1148,1344,-718,-798,-1721,-1414,-1257,-2085,-1154,0,1971,2704,2948,405,-488,1643,1734,-1280,-690,-2144,-330,241,-787,-1852,1126,853,-2258,187,-1101,1334,1698,332,539,1594,997,1531,-832,2067,2791,3808,1351,-331,555,-1882,-1315,-8,-446,-1179,-1921,-1665,-757,-1091,2323,431,1179,1469,-312,-859,278,987,-297,353,1884,308,2234,1683,3229,2583,3110,3850,1369,361,678,-2771,-2760,-2601,-2172,1266,1369,188,1438,46,1104,1055,1013,-73,731,-1141,-424,2479,-68,1815,1346,-1517,2575,3153,88,-77,1924,930,-974,-2488,-2124,-2623,-1502,1073,-1992,1347,1017,1286,1224,1653,30,1397,2182,1189,2288,1898,2514,2048,752,1038,-161,2445,-1604,-626,386,798,-2547,-511,-2166,-2116,-1931,-1058,1588,-1043,1803,376,1821,-420,1487,136,1696,1939,26,108,538,-1556,572,-2479,-3953,-1065,-2478,-1080,1998,-1588,2736,2433,-976,47,-268,845,1157,-795,-261,-2323,265,-912,-2213,-1239,-1708,-76,-68,3716,2145,-1791,-1747,-149,-2544,-699,-1399,-1350,-1743,2293,2369,-1443,712,940,2209,-1619,-2540,-286,-633,-260,1519,-1777,-1903,-411,-1041,2840,1949,2266,1843,873,-2020,-685,-2729,-2491,1695,-617,136,-1842,-1475,1753,1942,907,-1388,1240,956,1154,-1455,1708,1242,1791,4,1933,-643,-115,-124,3173,238,-330,-2012,725,653,2280,-1914,-1432,-359,-1642,2952,-1027,90,843,1490,-739,-1790,-1739,-867,1505,-481,-735,-1392,1710,-2174,-1072,-1973,-468,-1694,481,2632,1464,794,4084,1587,3641,1170,-911,1659,3290,735,-1520,2423,-8,-1195,1289,251,-330,217,1350,-195,1683,-450,963,-243,321,584,634,297,1641,-2124,2861,302,-583,1889,595,2314,-651,1887,1688,-2087,1105,768,1067,382,1690,-595,394,1541,-1495,1657,-2680,-275,1949,-1401,-1106,-2644,813,968,-1020,92,749,2191,1480,-1146,230,663,-651,1883,-913,-1446,1204,1199,381,-1968,1818,-430,-2274,-505,1669,590,-71,1795,-1143,-1550,1350,443,-2216,-2308,166,-1895,-1711,691,-301,1282,1377,-205,-567,-545,1841,1289,-1631,-683,-2127,-352,-1172,789,1190,546,733,1129,514,-1694,-841,-551,-1177,743,371,-363,2000,1446,-1706,-2090,1599,1444,-1704,-92,958,-111,865,37,-1759,-2328,1515,-200,1199,1488,2093,1046,948,-460,891,1040,1643,-489,139,-2242,-782,1763,-38,1294,-1583,1146,832,-1351,-297,-2334,-43,-502,-2320,-1045,-1655,296,-1788,-1065,1209,-1546,-616,-384,709,-349,1202,597,-893,-1399,464,-151,-659,-1179,578,-1930,1110,-681,2242,-21,1310,1874,-1643,-2330,1133,-1790,1488,-1643,414,-1726,-618,2655,1018,-399,2298,2792,2039,1168,2877,-397,1128,2289,174,2131,521,-183,402,1715,1862,985,357,1136,1352,-950,951,-2288,1552,-1394,2641,-595,1236,1101,1666,-1153,-1842,913,-300,12,778,-149,-464,-177,2093,-1693,-2144,-1954,656,895,-953,816,2150,-1897,-754,-2326,-344,1831,1331,1559,-730,949,-2013,502,16,1039,3207,2101,104,1587,1603,860,1969,577,-1297,-327,-422,-1136,1567,185,-2111,-1613,-1617,-214,1672,1654,-305,1423,-1487,-708,-779,660,-739,-508,-512,1780,225,1181,2372,1510,-1623,897,1863,1792,1109,-1765,-1648,2170,-1591,-1411,-540,-353,-1286,-1772,140,545,-1935,-3030,-3468,-1276,1034,1460,-1432,2503,-609,-1011,-1575,736,1694,2468,2122,-2280,1491,1289,-139,1189,-757,438,-329,-1003,-978,-1753,-582,-756,201,749,-427,-656,1525,-342,1700,-1590,2875,118,1596,2166,1014,1113,-993,999,-751,355,-2296,1519,1609,612,-1817,-2874,379,-1564,1225,806,-2387,-2121,-2174,-2706,1001,-358,416,-3213,633,-174,-447,-1517,-37,-326,-435,348,-1460,-33,-37,374,178,-32,-733,-915,-2560,-656,1975,-1785,1164,29,-477,248,-2903,-4064,-383,-1457,-1034,-2655,-2163,-4225,-2684,112,177,-1340,-756,471,-1824,-327,-1590,-904,-828,1634,1681,-1664,156,2450,-1273,-3143,538,-551,-596,-3820,-2837,-2435,-2480,206,-1416,-1062,-2339,1711,-6,-1323,187,-678,-1288,-386,-1310,567,-1712,910,1741,-820,310,650,-75,-877,-2151,-2808,-1538,-2474,-3068,-1111,-1706,-2329,1585,541,1708,-1850,1230,1853,724,509,1121,2241,-1916,-1579,-2301,-935,-1160,3125,2782,625,3981,64,-893,545,-337,1760,1791,-270,-1560,-1241,2120,-2109,1321,-1232,-204,-440,-1118,-358,-1512,-788,-36,-1320,1004,-1158,-625,3040,2525,2416,981,1221,2424,4279,880,-837,1799,-1604,221,-1495,-2324,-340,-833,-207,1167,853,-1391,1876,-1628,806,1975,-1329,1525,-1331,-261,54,3056,489,1474,2042,701,3838,1830,1981,-1699,-1932,429,-2728,788,-1262,862,2061,-552,1028,2011,533,-2006,618,-305,-743,-1532,-1334,1787,-699,2241,2220,2302,1020,2070,3252,712,-1335,-1717,-1273,-3460,-3372,-2199,-1140,267,-141,1446,2042,-75,2272,-564,98,1474,846,-613,345,-1495,-1508,-35,2689,1651,3073,2904,2084,1763,-314,-1816,43,-278,-1226,-900,1441,-2281,-1725,511,557,-1518,-1355,711,1854,1487,-881,46,671,669,-1229,815,2906,1719,-521,2472,941,-470,455,-3107,-1207,-2611,-1069,473,1183,1179,-1566,-1463,891,-573,-1161,-231,-1794,-431,1561,-376,724,-897,-583,2204,1802,-1364,-1372,1735,-806,1352,-2470,-115,-1858,294,898,1503,1128,2076,222,1128,-417,1629,273,271,1201,573,-2823,1367,-389,-786,-624,-1339,1568,-917,2117,1179,-73,-498,496,1757,-348,-1311,1533,2278,-605,1419,1616,1221,-268,1968,634,-2241,-1746,1380,-480,362,-2788,-1662,-1381,112,3289,649,631,2111,2741,-895,709,1998,1736,458,2487,-620,2278,244,1521,688,-1139,-5,-1359,-409,263,-1664,203,-2145,-578,2389,1275,1453,1048,-514,2015,1060,1149,1472,62,14,-587,-156,-1386,-1309,708,-1584,-1187,927,1560,574,-2164,614,-481,-1348,91,-1948,-2679,-1679,-1892,2835,753,-1269,-1544,1075,-576,27,-1696,1453,-1030,477,1912,2214,-885,1116,-952,1363,-2036,2153,-2323,1746,217,-997,-1696,34,1561,-214,1007,-2529,-2807,-3263,-1942,-2066,633,-854,1479,674,-1568,-786,881,180,1247,600,-180,-1120,1266,-977,690,1926,-615,656,-2451,-1569,-266,-2663,-2500,-17,1144,-133,1061,-2711,-2907,960,2032,-2053,-1786,2334,483,-1029,1293,624,1578,-1023,1977,1275,1270,-248,-2028,-856,-2392,2045,304,541,-1356,613,1624,807,-1059,-2262,251,-2704,316,-1149,1047,-969,-444,-546,-1929,1697,-841,-918,-224,-1806,309,-787,-2001,-905,-2306,1984,1551,-2070,-1441,252,1727,-1047,-1553,-1964,-88,-177,1523,-2090,-1055,-1829,11,1592,1283,2327,-438,452,-1169,-1528,-1669,-1005,-1222,-750,-693,255,2136,-1626,-635,-1840,365,2332,1847,-649,2070,1588,-924,1581,-1519,-1793,-590,807,866,-764,-1145,292,-1267,1159,44,62,1575,29,1003,1863,-382,615,848,-2266,1027,-1808,-1866,-2110,-1482,2096,-759,575,-506,1572,-1018,1888,1819,-1651,-1261,83,-571,-226,-1555,20,-2228,-766,-425,1834,1307,-1457,-736,1252,291,-175,-319,-1237,219,990,-89,-1863,165,330,2355,1007,-2218,-633,1569,-1864,2037,700,-297,1598,-2071,1146,-1304,1102,-570,1929,-383,143,874,2310,922,1402,-1216,1030,2559,-1257,1237,765,-1680,449,-1022,-1356,-807,2179,206,-972,-1976,-1190,476,2164,296,-434,-2119,-2118,2663,-1400,2245,-468,3259,423,-202,2533,-223,-1220,-394,28,-786,-497,-869,-1552,1909,-2005,-1173,1695,1921,-122,-781,-1540,-2304,1493,-937,1575,1153,1840,-182,891,3569,2632,2505,1666,1178,-760,1900,1376,955,-789,1548,-569,987,774,-2172,-46,-1265,-678,992,-1690,-2133,801,1338,1893,1855,2160,-1895,-1357,2736,1641,469,-209,-986,-156,1961,-1820,-1073,823,-1059,-1834,-603,-1300,256,-2144,-1549,1615,-428,-1450,274,29,-2373,22,-3551,-1196,-657,-2054,-1340,-509,-675,458,-274,-2603,-3531,-3872,440,-2551,512,640,1246,2066,-941,319,-1689,-2305,-677,-317,141,-2832,-1553,-1516,-936,-2749,-1352,-572,-1779,-1793,774,-3851,428,-2982,-2924,-1510,-189,-2018,-736,-254,-2712,81,604,1739,374,2296,-1986,950,2210,-2381,1206,-2196,-649,1446,-407,-1121,-429,2202,-1526,712,330,-2422,-3848,154,-330,-664,144,805,853,-2553,-1098,1580,-561,1309,1213,-1204,857,-771,778,-2237,-1446,938,2451,2782,2341,-666,-2274,-1594,1065,-1220,-288,1014,-266,-243,-1927,-3446,185,-2041,1995,-560,302,-1981,1271,2043,148,310,2896,1199,-1861,-679,-1670,-1708,5,-1414,212,-3038,-1687,-1164,2499,402,-575,-1345,-2589,-832,1330,-2357,1590,2228,756,1097,-736,1886,-2444,539,2220,2524,182,-1342,-2625,-832,-2956,-1223,-2118,-4196,94,624,710,584,-13,1574,511,-154,-1437,-1810,1040,-1205,-220,-1133,1691,874,-2237,-1797,-1329,-1788,1976,1562,-1577,-2100,-2525,-3260,-989,-1822,-661,-488,-1860,1502,98,-1642,-1113,362,-68,-153,-1211,1345,-982,-134,1562,-1135,29,752,1807,1465,1941,2980,1790,1559,-1030,-1284,-2345,-2071,-1758,-2783,-187,-1656,-1289,-457,1498,2016,1069,-1721,2421,-588,-1643,2203,124,1342,426,1887,669,1188,353,554,-12,1762,-1068,2518,1118,767,1605,781,-304,-2710,-759,1799,2745,-168,-1069,2604,-1950,868,-1429,1283,1480,878,-958,-1293,2646,2853,2288,233,1049,1344,1143,855,954,-1293,-736,2554,1365,-2089,-343,532,-582,-963,2127,-138,2265,-345,-952,-1026,-1248,2585,729,-1078,521,298,1429,2571,2426,1711,2343,2552,2575,1601,806,677,1853,1435,371,1407,2054,688,706,974,-351,135,189,-1984,270,1259,817,2100,2766,1770,-495,177,692,2093,-1426,3562,2152,3122,835,-1798,925,-168,1116,868,2216,-741,1202,3085,572,-790,1158,1002,1998,-737,-1961,647,2039,2997,-233,-154,2272,-817,4157,1117,2960,1323,4017,1278,1300,-761,-1644,2123,638,1926,-248,391,-1894,2032,406,-31,223,-472,40,1593,2059,1472,-2744,-816,-937,3752,-343,468,1569,2249,1571,-263,-830,-902,2885,2089,4129,3700,3074,1301,1809,1168,-1580,1807,1233,-770,2000,-1453,679,-48,1998,2213,1922,-444,2567,2372,405,-553,-939,-51,342,2390,834,2351,189,1502,-610,1408,-783,-1372,1118,-522,1746,1250,2867,-516,-2052,591,-556,2748,1885,2719,-262,-665,-985,-1453,430,1672,-1479,88,736,2113,157,2842,-922,1166,-214,428,453,1600,864,1340,-892,977,-1983,156,-1706,-62,788,-835,1945,304,-3260,1945,-443,-2627,2107,-1228,2345,1244,2617,-84,-45,130,-769,-830,499,-2163,-1194,-819,-1167,523,-3548,-1887,937,-1759,477,-94,383,-44,-2996,-1049,-1171,648,2285,465,-713,454,2982,-1457,-749,219,-1661,-1113,-2306,-669,-2142,1664,1027,2,-3222,-1661,-3721,-3840,-3000,-2079,664,590,1297,-1698,361,-1969,-660,-1039,-1662,-2443,872,-429,-880,-340,-684,2277,645,2129,2008,-2237,-1877,1219,-21,-2778,-43,33,-2949,-1464,-1611,-2746,-287,-1043,149,-2615,-434,-2074,1525,-1201,-903,-1007,1967,1284,1388,-2011,256,-53,52,127,-1926,-627,1905,-2271,-1777,-195,-16,-1480,-993,-2017,1437,1638,-491,1833,922,503,-2386,152,-2221,1097,1829,517,571,-1678,618,-838,-1513,-2196,1656,212,-571,478,746,2137,-1364,-1592,-257,-2226,-1322,-572,-1632,-1739,-2313,-2094,-1580,1623,758,1643,-1514,1410,-1806,1309,315,-425,-2009,-1148,-1849,-1980,-1047,2307,-85,442,524,993,84,-293,-447,-1641,1833,-448,-1554,-488,288,-802,-2160,-2228,-2012,694,1227,1790,455,-2267,-307,-2265,812,-694,-2005,171,-2191,-1894,-975,1347,-1202,-1660,-1034,-1250,-351,-621,1046,-786,-1458,-102,-2265,-1930,-528,-1805,-274,1872,-444,2087,-1678,1828,323,-1306,2192,-1331,1857,1314,-1938,-871,-1946,1108,1064,-40,2446,-1378,-1657,-1134,825,1532,-2009,-1102,-1398,1902,714,1519,792,1214,-252,-2102,-1175,-1633,-1695,987,127,2481,-320,2497,1633,1149,-1731,724,-303,-1962,-2032,240,1372,1106,-763,-37,-578,2235,1246,-2097,-340,-2201,1919,2240,1841,-926,1227,-985,-879,-1167,-1096,1779,-648,825,413,709,1033,1488,2007,-1973,1783,797,603,2072,563,1887,1136,241,744,1467,-557,952,1266,855,-1579,264,1475,-1890,-2065,1635,-422,-1470,-1675,-2997,-678,1656,-1027,1966,3248,-613,-1150,-128,705,-1121,1125,-1056,-2014,1993,2172,-191,757,1577,-2168,-2299,-2211,-2315,-2025,1029,693,-3281,-454,935,-546,-225,1661,109,2597,459,-984,-1906,2454,1474,-1750,1887,-506,934,-482,2027,-1976,-1035,-2497,-2813,-3264,-938,-1335,-2310,-2178,1254,-616,-913,1169,-706,-396,1134,-2286,-949,976,-1223,-559,-1479,455,-2129,-1016,-2272,1144,176,-751,-2406,-944,-131,-2611,-3148,943,984,-717,175,2030,2698,1978,-989,-701,1819,-82,1521,1212,-1115,-775,2352,1755,-166,2225,-627,678,-395,-2028,-786,-1523,529,469,-2875,-1995,605,-1579,-1404,428,1144,-1140,-959,-444,680,1834,-440,66,-595,1431,606,150,-958,1655,1091,1610,-1593,-2026,1345,-1592,115,558,695,-236,-1719,-1169,-2974,-2277,-1309,-2842,-785,1475,-2630,-2338,-2328,-2982,767,-2041,2185,1525,-1800,224,-1214,-1854,-838,-1184,940,792,1879,2893,655,-1091,-416,-2862,-2760,296,-3707,-2189,-2806,-2414,267,-1904,-1932,-237,-1175,-1729,1522,-653,400,-2129,-1690,1157,-2357,1904,-1787,-733,1949,1523,985,1614,758,819,-204,1322,-1284,-1843,300,-615,2247,1458,1819,-2571,567,-1530,-398,-1198,1810,1840,788,-1300,-2273,1938,-637,-175,1428,1630,1963,2296,709,1340,2548,-816,2532,-600,-764,-981,565,-1794,-917,1466,-251,721,1812,621,-186,1727,-1567,-1907,-525,-52,-802,1359,2470,3091,-775,2078,3822,4142,2139,1160,1896,688,1365,-1069,-1638,244,-511,-2388,631,2163,-889,-24,-445,519,817,1144,-1002,-1134,-1483,311,-308,-140,2230,291,2367,3052,-35,-771,541,1379,-190,2614,-1428,-277,-848,-1393,1029,2624,-834,389,-1023,-1927,-430,-937,228,-1887,301,2913,-1623,1542,2223,1740,2064,1072,-951,-612,1031,878,-1364,666,352,1274,-896,172,-1357,2319,-932,-1919,1027,2006,2190,-627,2197,568,-210,3059,1438,1851,549,2298,882,811,-2333,2020,1948,2197,795,-233,-1850,-2075,-809,-204,-1890,-2300,187,-1244,-2135,-709,-421,616,1443,2183,1675,2204,149,-1141,2599,1370,578,1078,643,169,-1646,1098,-2769,-1873,541,2294,-831,-1164,2711,1428,1929,362,612,-1694,1215,-32,-1028,87,2748,901,1493,1824,2049,-218,1690,1321,-1021,1582,-856,157,1609,-642,-1101,940,-239,1639,507,-1033,1377,400,2320,-1191,-618,-2225,-1198,2441,-1778,-1493,-858,158,1999,1153,-1959,-2998,589,1901,478,-550,2048,1656,-734,3500,1961,1588,2287,2521,167,1696,-1224,684,1576,1511,-165,-1908,1164,2327,-1542,39,1924,662,-2384,-1815,-2102,958,-268,-1283,-571,-525,2490,2021,2003,1125,702,-1037,1305,-646,-1201,-1240,-1005,103,-1843,2057,-1443,-908,2098,2103,1498,1755,266,-1111,1202,-1337,412,-828,-600,2136,2691,3101,-996,-1485,2556,-1879,1617,1992,-216,-1531,-1002,-352,653,829,-2891,-2211,-3665,575,-2537,-155,580,-707,-2083,-3337,-1899,-1887,-1617,293,-1652,-251,1135,177,1900,-1931,-846,-811,358,-2035,2026,-1708,-1508,402,-1542,-761,-1925,740,-552,-1888,-2049,-1566,657,638,202,1543,399,-1177,2029,2236,1588,198,2338,295,1511,-1795,601,-1752,-312,1474,-808,-612,277,1494,-1710,29,1463,942,-1870,148,-1789,1293,1146,-1900,267,579,804,-42,303,-1333,1423,806,-1538,195,2234,-1433,486,-1562,-728,53,957,-2209,113,-2432,-1569,995,1271,-615,1813,2098,2078,-489,-331,1398,2071,-1952,-558,-436,1213,679,345,805,2146,1017,-380,-1072,-2229,182,645,1996,-2163,497,-1152,-1644,2031,-249,-681,837,-1538,-184,-310,99,1939,392,-668,-2444,-2301,-1025,1187,597,1386,1918,1845,-1578,982,1231,861,-1310,-3,-1990,1678,-1340,661,1444,1685,152,-390,1947,-223,-903,1753,-2113,1922,452,-2052,156,1865,2045,970,-1596,-1496,141,-2115,-1121,360,1306,-2148,-1551,376,-1160,-1804,-1623,-1824,911,-792,-1012,-487,-219,1971,1815,-1275,-263,-382,1671,-1172,-2210,51,2137,-495,-2264,-2058,-2308,434,-749,311,887,-1449,859,1966,458,-2089,-382,-2081,1246,-853,-3,-945,1580,1890,-1185,-641,1112,-272,102,1924,840,-2313,1781,-1116,2095,-1995,-425,1546,705,-1317,-1864,-1596,-3125,-656,-235,-1545,1106,-1694,-97,1662,1247,1090,-1742,430,-1970,-2153,1305,943,1535,-393,-65,-278,-1449,343,1086,846,-1269,737,-2833,-838,-305,-2100,-870,64,-1978,1656,-1293,471,1976,-1766,1221,-724,-7,-594,-2023,-2171,-803,301,631,-228,-885,-56,1290,-538,-290,-971,824,1791,2748,-1334,-1815,-1647,-1848,-2582,-2156,-1798,-1628,531,-1082,-406,2562,615,-1112,-1862,1195,1004,-866,-1619,-2126,-188,1035,-887,2007,-1615,-269,-154,1281,-451,352,1336,-1955,-2063,1290,1927,-452,-205,2054,1386,2230,390,-942,798,-2326,1507,-1099,-2277,-169,-764,744,-38,-1755,1982,694,1689,-1552,-713,-874,1565,-202,286,1474,1500,23,-199,343,213,3253,502,2161,-667,-641,1219,261,-1229,970,-1654,2774,16,1409,346,1188,-2315,-1894,1982,-701,1123,-3026,501,-2068,-827,-1290,2300,558,608,2645,46,-305,-1585,-1537,2041,-1795,690,955,1335,2582,2159,3269,2358,-943,-1732,-2239,310,1544,175,-1323,-507,-816,940,3609,3179,1167,1064,2786,51,-110,1936,275,35,168,95,1025,-1430,405,2253,1086,982,2358,56,-2914,-332,-3259,989,-1605,-2531,1071,-1278,1267,-1439,1094,1706,-27,1378,-1753,-230,2213,-488,2170,-2230,-483,1149,1583,-182,-382,4371,2927,-349,-1363,-4880,-3133,1481,-385,-1773,1321,-264,-1085,469,1913,-382,1149,-1014,337,1122,1030,571,-1165,-2264,300,-490,2278,2910,1379,1543,2158,2776,923,-1262,-2186,-100,1704,-971,2520,641,2410,286,1421,2342,-1595,-1470,1250,-600,1185,-1616,705,-2273,388,-787,-948,1380,1130,2053,2268,2717,2218,-1868,1504,-751,-1009,2447,-186,3197,2171,2509,2816,-1386,-2229,1626,-6,-1371,-2265,359,-503,2173,2267,-1300,-1635,2586,1992,-223,1300,2629,2574,-1788,1549,2446,230,3038,1221,886,300,2531,2129,-1480,369,-2616,1983,1459,-1529,-2224,-600,-317,-1271,-3,81,983,-1257,2499,804,3679,4027,3664,-516,1069,902,1312,-45,2346,-1650,922,-703,1129,-2706,1003,-36,-654,1615,538,2166,-738,-2193,-1086,-2155,-2812,1539,-612,-532,1209,2723,1958,582,-1367,65,2499,-93,11,-2091,724,-1735,373,-2813,904,-1756,-117,2205,-2021,-1268,-250,747,-2782,-268,-1056,-36,-2830,-1786,396,2294,94,3064,-563,711,-1365,-3047,-1240,-3585,-2933,10,-503,-623,-1992,139,-629,1618,733,-1321,886,-412,-665,-1411,-1751,-1906,-4194,-3260,-2887,-1298,875,511,-1962,-3943,-5221,-2651,-889,-3065,-3434,-2755,509,-2433,485,454,-1360,-2211,1038,1353,-1552,820,-2171,-3075,-2895,-5086,-797,-1873,-1172,-2907,-1249,1618,-2631,-3322,-1663,-1158,-2347,-1989,593,-499,797,1283,1238,733,-487,221,377,-1230,-2386,-3162,-1392,-3490,-2526,-384,-2149,-2042,-1888,-985,1975,-596,243,-2358,1295,-2386,284,417,1177,-1885,-46,-126,-1755,-1065,1355,660,773,236,-2608,-3004,96,1903,734,999,-278,-97,-152,3132,1512,2460,-753,-1824,-1898,-1738,586,-1201,-1180,1005,-3,-1963,398,-2307,514,1254,1894,-212,-1968,-770,-2464,-2058,2313,2652,1602,3096,666,2151,102,-2019,-964,-3179,-1385,-349,-655,-942,1678,-2185,-781,856,-2215,2098,-2298,-1252,-352,751,1040,1364,-1587,-1811,444,2466,-162,1296,492,1697,2673,-528,443,-331,-2359,1462,1822,165,-605,-1037,-738,2016,-383,-1932,-1177,1968,918,-1436,1849,530,445,459,2620,2293,995,128,3503,216,552,1199,156,-2028,-2739,-1999,1180,130,876,1137,1381,1203,2070,-888,791,-2144,-261,-1882,-156,2359,2000,1422,264,-219,-1249,2026,2005,-1665,2210,1199,725,-1013,-1485,1170,-2007,-318,-826,1710,-903,-208,-810,-1060,1600,-296,1769,-703,-847,-529,-555,1933,799,-1261,-1658,-1248,-1490,-2096,1063,2314,-1421,218,-143,1249,-1512,1730,522,1732,-760,-616,2226,2061,-126,-1140,75,-867,801,-1052,2159,969,-1002,-795,-1397,-277,1255,808,-2227,-1111,496,-108,-1453,-313,2293,598,-2271,-254,2196,-1019,-324,1656,1120,1995,794,2298,-2139,-1935,586,741,-1660,1042,-689,-1141,1329,71,321,-988,1221,899,-2214,-1757,-439,1436,653,2173,-440,2264,934,-754,-92,1936,1792,1026,533,-1255,-2307,1923,1017,-163,100,2131,-1338,-2258,241,878,352,-290,-1183,-2167,-1350,-121,631,-249,-1423,1217,1104,983,1759,-2286,-1865,797,1392,1609,2135,-351,1042,285,1271,744,597,831,857,-1276,718,-1794,872,2068,-1377,1755,-524,2138,1514,-2155,-1642,2220,-2233,-1628,-596,-2301,910,1970,-501,-366,559,1201,2339,2560,2160,2319,3483,2726,2691,-58,2392,-1737,1583,-1427,-2275,-1266,-811,-1178,-2020,1181,-343,-504,947,1483,-645,-1859,-90,378,-1583,2604,953,2426,2944,1325,-773,-1022,-520,2670,1343,-425,781,-1689,-1969,803,-2879,-190,-1221,-805,-2238,-2252,1954,-1596,638,-1939,306,744,1014,2705,2218,2530,1244,1165,1845,1779,2590,-1118,-1014,852,-806,618,-1475,-203,467,-2883,-1409,1365,-884,324,-1429,746,-1616,586,81,3428,-919,1556,606,2717,1270,3818,3821,914,1579,747,-333,-464,1525,-1074,188,795,-989,-3144,-1278,1425,977,-139,1494,-460,-1988,2618,-1086,964,-356,1890,