435,-359,2551,222,1329,-670,954,-434,-3878,2604,-911,-1544,-1716,2579,1344,2178,-785,-1710,-1834,-210,-2955,3285,1890,2784,1979,67,-971,1527,1022,2758,-2124,3718,1161,-1668,1449,-1466,2770,1200,25,512,1900,974,-1770,5091,2693,-464,-1534,-1717,4058,-117,1011,5801,1127,-834,-1299,-1503,110,-1545,-403,989,3380,3019,3818,3264,7707,-338,-2119,3265,-4716,689,2138,3121,388,-1140,-893,1421,43,-1794,-4364,3097,2756,436,3291,974,101,-1345,2467,-1516,-2066,1900,-587,-614,-2364,-1415,-178,1302,1429,-42,3032,1969,-1123,336,-1068,-196,470,-663,2276,4493,-811,-1395,-1344,4432,331,4048,3516,1278,-3270,3881,1391,-426,-762,1397,1320,491,3233,-825,2495,751,305,-1057,1449,2731,2680,1428,1666,-2354,-1284,793,1344,-2638,-811,735,2518,-623,1382,674,3596,1149,4208,-27,-1713,197,2247,4152,4698,301,225,2779,1796,2964,438,1737,4239,1884,-1502,-1215,957,-146,1066,1542,-736,-2184,70,-344,3799,-1720,725,-516,2527,-635,-613,102,-1693,-583,-930,881,-3634,1056,431,1547,917,908,3166,-977,4858,-1248,364,-1371,203,998,1259,-1686,-1838,6608,2127,471,3067,2565,-879,2882,4402,-1495,-323,1354,2349,-1724,796,-2458,4642,737,-1860,-2608,1113,280,4403,2000,-785,2304,904,-439,1872,1907,3098,1715,2556,3524,3537,2550,-1579,1677,675,2880,1574,-930,-778,-1053,-1591,2044,5884,2655,4002,1675,3462,-738,-341,2301,1362,282,-3306,690,-28,1591,-861,1347,1282,1939,-1197,-237,-2925,966,-2009,786,-1184,-4027,-708,1611,3828,257,-1107,-2804,2732,-2750,3416,1387,-375,2050,-607,1702,1647,2393,1686,2587,1136,-597,905,-1218,2431,-2589,-2006,1405,5883,3471,1897,64,-1899,2500,-182,-819,2145,1642,879,-1919,-1634,1028,3007,3049,2433,1542,1319,741,-1493,-405,2191,-822,-1352,-548,-3343,-737,-1372,877,-1076,-1260,2279,-2181,1256,2859,369,3477,-1285,1137,1128,3017,-1043,-1334,-346,1347,842,5465,1005,1687,1365,1953,1196,2494,2570,-760,3340,370,-732,-330,-1011,2345,1527,7118,1066,-4155,3042,1246,-2428,2188,3263,800,1052,-2795,860,1370,1887,1062,-1308,3340,4436,-1588,2791,-633,1373,-537,1581,-2069,2391,-146,-843,2348,-2780,-66,1814,4140,1755,600,-2296,8,-1898,-1904,3191,2035,1164,819,-25,3518,5435,4134,1603,844,-1108,-1179,-51,-2216,-1849,-893,-3511,-2487,2791,721,-645,1906,-2931,-70,1381,460,1227,-3180,2167,799,102,-1378,-1695,-593,-3191,1770,-810,-605,661,4764,998,-2461,-1135,-2513,1379,4044,-3641,2186,2566,-2906,1919,-653,4970,630,-2522,2812,119,5113,-372,-10,1677,-1583,-627,-2049,-1443,2978,-101,1531,-1213,1520,-111,2858,3604,-268,3617,-1729,1474,1551,-1745,1908,1650,-1337,975,4062,2107,-2007,3447,-1707,-1321,-714,-325,1840,-1078,671,-1174,-2318,-1286,1560,907,357,1737,-4141,853,-1906,355,1900,3005,4602,868,-309