-981,-7,-2429,-1667,3968,5251,3967,3444,2562,-778,5845,2243,55,3369,3819,2154,512,-2838,-1168,-590,-1971,-462,1625,2614,-1176,-3118,-1049,1577,-160,1652,3637,336,2511,-256,2664,1266,271,1734,-910,1414,-555,4998,605,5584,-3048,-651,-819,-689,3985,1150,3994,2761,1609,4745,-1594,-1173,-886,3801,5205,-1675,-614,355,2965,-2602,4970,-1772,4155,123,2157,2539,-2895,2798,-86,2202,822,2531,-22,-1166,2600,2846,4093,1595,-1839,2330,-859,3943,-2208,-1634,-3158,-1153,1419,-180,-517,-3132,3187,5269,2688,3428,-309,1880,-1219,1772,1122,632,1057,1241,3171,-963,-993,-1699,-2490,-912,1351,-35,-1305,104,3927,106,2505,686,4306,4081,4203,2376,-1205,4359,1247,-1530,1800,3754,-1254,211,716,1731,2289,-16,467,-968,-685,5588,4447,1397,3279,240,3273,-1001,2371,2719,-557,2794,2884,-1500,1704,-669,1266,325,-171,555,4564,-1453,3597,5020,-531,-2834,32,1070,1828,-3145,1877,73,-457,-782,2003,705,-1195,-1294,580,-932,-1198,1460,3029,-1572,1363,2443,-536,2868,-94,3526,1432,2663,5030,3317,-877,3560,-1802,403,511,4242,1240,857,2427,1089,-1863,3095,932,1675,-1104,2239,3776,3354,3404,-1635,-777,4808,-709,3246,4032,-2726,2976,4297,-2360,414,-2610,3126,2706,7625,-381,-413,-14,2646,287,5236,2215,5235,2310,-948,2109,621,2276,-1785,949,2834,-617,-1662,-678,2821,3544,3740,2737,3172,1681,611,838,4038,4335,1673,2174,2377,-1418,-1560,1200,-2666,1441,-729,3913,1059,4080,2851,2098,1127,-959,-434,2997,638,891,3813,-2942,2231,2157,3521,2631,2499,-451,694,1859,-321,-1898,3068,-796,2090,3102,302,2957,-1523,3834,-504,-433,1285,78,2055,2843,1001,-728,-2786,-1135,4879,-1827,-2601,717,3299,2859,-1871,2253,1227,827,1307,2004,459,-2925,305,1386,2494,1434,1547,2026,-2890,-2482,2872,-1304,-745,4969,-2699,2071,3210,-1526,-1541,2322,1686,-581,260,983,500,3528,398,-476,-2741,685,-917,2203,2816,5770,2934,3302,4923,-2513,285,1721,666,90,3305,-35,4618,4102,2200,2100,-96,1293,2284,2139,-574,4332,-1463,-2106,1045,-970,-2539,1682,293,2884,2150,-1852,834,-1275,1033,4802,-946,-1367,1644,3571,2656,-1221,-1335,3496,-1642,4830,1251,2975,-862,337,-3081,-1592,2608,1736,666,-1747,56,383,2979,-2993,2310,-859,-454,675,-1044,-55,5774,2505,-1406,1544,3557,3763,1230,1412,-480,1714,529,2671,2437,-2726,216,857,-626,-2486,-1181,3041,24,-1267,861,1924,981,-230,140,698,754,2968,-2803,-1956,2572,589,2461,3829,1878,67,4353,3649,-1277,453,1756,3992,1380,1956,1092,-1835,3630,1657,1928,-2162,1261,1566,-1454,614,348,-450,3011,-1425,1009,5174,633,-600,-1428,1611,2965,-1261,-1391,1336,-1130,615,3600,676,4603,1464,664,2739,1088,3133,-1340,-1952,2702,-725,2992,3528,-2119,569,2081,868,-2182,2668,-2456,-813,2518,-194,4960