0.006641991382737248
-0.0054750768470033595
0.0389179708775413
0.003384883189006909
0.020277236177300022
-0.01021698994691731
0.014554531517317632
-0.006622836598193923
-0.0591744618592756
0.03973610201245392
-0.013900934311725802
-0.023564712587301768
-0.026179411331554662
0.03935705265939995
0.020512929454987328
0.03323389246721384
-0.01198518617412486
-0.026092827722186032
-0.027983977998551894
-0.0031991583497417465
-0.045083252733453746
0.05012591660077153
0.028846518527051227
0.042477215064920096
0.030193624925614213
0.0010252453750713472
-0.014819229591489798
0.02329708052315192
0.015587712554468388
0.042089758231816876
-0.032402131722392896
0.05672658607756341
0.017714574035312586
-0.02545845003872837
0.022103102367447013
-0.022372842831536472
0.042265883111064904
0.018308383068573915
0.00037627367447452375
0.0078121582477181485
0.0289895033272675
0.014864202754923506
-0.027001284280964526
0.07768867411124013
0.04109060421667874
-0.007075063497929877
-0.023404299643594886
-0.02619689422232888
0.06191347072905444
-0.0017869250759109015
0.015423545183665599
0.08851659334861149
0.017191287207947686
-0.012724111385443606
-0.01981531721425862
-0.022938681985500788
0.001684133050677508
-0.02357384685802634
-0.006155366808107602
0.015095098883536759
0.051574018604729606
0.04607066473315812
0.05826534942429551
0.04979997128637583
0.11759869312380607
-0.005153170395545565
-0.03233034484230622
0.04981396177545996
-0.07195436963514072
0.010515105551175278
0.0326175180102719
0.047626186569726385
0.005914764081702609
-0.01738812979901307
-0.013626268648429413
0.021684216922921818
0.0006606214512626553
-0.027370801257964088
-0.06658266942980975
0.04725471759769797
0.042058428179625296
0.0066561076661564135
0.050218347180941564
0.014859251924618556
0.001544549363214266
-0.020522164697683892
0.0376360429306682
-0.02312495725305581
-0.03151955733855559
0.028985291448312443
-0.008963030599352526
-0.009371229345235875
-0.0360789182045161
-0.02158555158885958
-0.002708957688820791
0.019862055801432438
0.02179726279898062
-0.0006352230098030232
0.046260959634367244
0.030047783527471218
-0.017128559944457722
0.005133774896115216
-0.016294418624541247
-0.002984333610652873
0.0071732463059669726
-0.010115233093125139
0.03473625520586141
0.06855260724475151
-0.012379105866782295
-0.02129262225008703
-0.020509408107411337
0.06763396434471541
0.005046994525064929
0.06176564592379045
0.05365612442957879
0.019503978617115503
-0.04990102069181458
0.05921670199681572
0.02122822233488801
-0.006496029515392556
-0.011625747812775958
0.02131468287156827
0.020144022264800634
0.007499443158523382
0.049330939857054605
-0.012587800147728524
0.038063766474482376
0.011465861156888047
0.004649570916635177
-0.01612561118405319
0.022114982145376088
0.041670476040351005
0.040896026327482536
0.021794160579728345
0.02541856206709994
-0.035921251483769276
-0.019588377438192292
0.012095238485746854
0.020505407623391
-0.04024987548505665
-0.012369697503307544
0.011219542487502026
0.03842728700812545
-0.00951026347869666
0.021095063404123655
0.010287551020773028
0.05487421847816184
0.01753436559779413
0.06420540887396955
-0.0004089176066249672
-0.02614317607605833
0.0030127869052677327
0.03428375008323101
0.06335350091262706
0.07168033515863126
0.004590566506238412
0.0034389593967968173
0.042396963130232196
0.027402427094875646
0.0452278176372775
0.006685066879022119
0.02650299638953791
0.06468487682311369
0.028743131013529443
-0.022920138079803965
-0.018540101243852924
0.014599472885142026
-0.0022259201018643413
0.01626291651015592
0.023532390774021195
-0.011231747808570336
-0.03332108363891782
0.0010616206329857494
-0.0052467611767975245
0.05796525158945637
-0.026239562150445428
0.01106385002404222
-0.007875088895025811
0.03855159781607993
-0.009682531313310526
-0.009354354263372396
0.0015490795148773505
-0.025835472757774456
-0.008897928900041931
-0.014193314888556496
0.013445020140819592
-0.055456119391868355
0.01610606641487603
0.006578055620225996
0.023612689334598595
0.013998176685565763
0.013849638381352121
0.04831650940752143
-0.014907527758344986
0.0741218125736561
-0.01903949892017908
0.0055558238449455385
-0.02091909970435512
0.003098473245533364
0.015223775998466322
0.019217364979187187
-0.025725931950696425
-0.028049193817563996
0.10083110054537715
0.03245335016559736
0.007186409135185527
0.04680261722497131
0.03913367550707011
-0.013409013410619697
0.0439784591191419
0.06717132176842067
-0.02281611582910992
-0.004936065770599689
0.020655216826203655
0.03584337882328954
-0.026301892424152772
0.012150471800209062
-0.037505528265484325
0.07083585245414965
0.01124838989567393
-0.028386003656781327
-0.039798955709269265
0.016982331563569493
0.004270460146919999
0.06718083143486878
0.03052109542553908
-0.011973293876361668
0.035157064944354215
0.01379538510046953
-0.006691614014857195
0.028557665140973323
0.029095197008233604
0.04727650588849595
0.026163849389129405
0.03900783870689025
0.05377563868456822
0.053966053239979155
0.038903092853716174
-0.024095671439807023
0.02558736339515275
0.010298141432282278
0.043948535859643374
0.02401274360666902
-0.014191069850700011
-0.01186626815706703
-0.016073444308812263
-0.02427854204087838
0.0311924300727369
0.08977746612352107
0.040506389221165576
0.06107071250660259
0.025553641281849563
0.05283320527305034
-0.011263268022003068
-0.0051996877673600944
0.03511735159505107
0.020775680033918494
0.004300838578139096
-0.05044558887051168
0.010525811044657465
-0.00043304605946360616
0.024275765491373474
-0.013136612785054418
0.02056107261575727
0.019562877567739178
0.02958658003023276
-0.018263223595462837
-0.003619145227794235
-0.04462586775406538
0.014744666179807046
-0.03065376006765302
0.011993162637448615
-0.018073226124132685
-0.06144182697673025
-0.010804312389615451
0.024587773707099348
0.05841324385963422
0.003922690593148066
-0.016896302357464116
-0.04279272787271749
0.041694476257257265
-0.04196689343151468
0.05212300212295865
0.021166658385797937
-0.005719443962535398
0.031278735774830466
-0.009265822631160334
0.025966528765040787
0.025130532750723904
0.03651927166951114
0.02572637472317891
0.03948199144360474
0.01733922345504223
-0.009106006499997129
0.013802430954791245
-0.01858988409862018
0.03709131119670434
-0.039504773097484576
-0.030602574229664115
0.021443975156050975
0.08976859819399977
0.05296226032815801
0.028950948168318082
0.000983652342844202
-0.028982061774869748
0.038142206768239005
-0.0027770538415656364
-0.012492659627643286
0.03273184256850792
0.02505911752835636
0.013413790413706486
-0.029288089036556508
-0.024935845405735346
0.015679295668675444
0.04588181987602925
0.046518088102239036
0.03711722187505153
0.023527523453006332
0.020126626578509187
0.011304284806336702
-0.02278587191774016
-0.006173469181906992
0.03343056460202603
-0.012538847257330087
-0.02062507455013682
-0.00836399415996035
-0.051013356419276165
-0.011239301653479153
-0.020941170567314066
0.013380645897292941
-0.016414513633731944
-0.019221795518228574
0.034776650085077944
-0.033277699866708
0.01915864046384899
0.043619563469487005
0.005629790540254584
0.05306203548829702
-0.019612920275360622
0.01734357664217513
0.01720560200219112
0.04603941671987189
-0.015908190775618912
-0.02035663408222523
-0.005279858628569261
0.020546214721189688
0.012848137974444356
0.08339517064440502
0.015336417563366723
0.025738311950122227
0.02082468165399897
0.0297948277965314
0.01824919114741138
0.038062275433139565
0.03921014864827641
-0.01160190429759116
0.050957069891242775
0.005642288362736856
-0.011175625189864867
-0.005033593144870111
-0.015421228575698883
0.03577620463850605
0.023304029958866893
0.10860982088674519
0.016270549658554047
-0.06339925502836505
0.046416090147943644
0.01901809018843679
-0.037041937118231685
0.03338563377927762
0.049796789818147794
0.012210617609173096
0.01605422885353734
-0.04265272752620202
0.013120880957019167
0.020903699114911464
0.028798209385972915
0.016210087770379435
-0.01996216319652194
0.05096854152180437
0.06768585531334434
-0.02423463439124011
0.04259068090383798
-0.009663358412373728
0.02094698062087338
-0.008199536135029765
0.02412925707541124
-0.03156626478870798
0.03648581653469513
-0.002224351653861151
-0.012861268993863893
0.03582932396858212
-0.042419571028238005
-0.001012478611970604
0.027687044642999856
0.06317577902576041
0.02677374914109467
0.009156335766036694
-0.03502916372680271
0.00012410115766148437
-0.028956054731341205
-0.029059717359510125
0.04868483837282856
0.031055067902820383
0.017759815865534826
0.0124984760230569
-0.0003739274666986477
0.05368104754150696
0.08292417380225828
0.06308689683922226
0.024463917192766006
0.012876637321295582
-0.0169127936995552
-0.017990989265929902
-0.0007815302283265924
-0.03381134884871107
-0.028221030612754643
-0.013619076323669443
-0.053575076706109344
-0.037945457329745386
0.04258660273817512
0.010996372373984502
-0.009839083850135308
0.02907946141968469
-0.044720582412299106
-0.0010648666877542217
0.02107921464036203
0.007012176264686854
0.01871565371295438
-0.04853016839850887
0.03306147398127078
0.012191176439157856
0.0015493504482060726
-0.021034078998667362
-0.02586856641816059
-0.00904819421206211
-0.04868594638392523
0.027011739166138776
-0.012359683149621927
-0.009238911601274723
0.010086457345645469
0.07268734144170151
0.015223975237102996
-0.037555871343823224
-0.01732258447436521
-0.03833869684664707
0.02104387473542923
0.061707553847374315
-0.055553767248320424
0.0333584973856858
0.039159525348000795
-0.04434128233535275
0.029278794497223395
-0.009965283342285653
0.0758431469703035
0.009605550423535614
-0.03847581284750517
0.04290078600711515
0.0018228268520595105
0.07802199804482488
-0.005683102249457017
-0.00015873117368677016
0.02559485935784607
-0.024151815782344356
-0.009564885994578266
-0.031260290973547815
-0.022016324072074486
0.045445035608160045
-0.0015395553450319765
0.02336368586466308
-0.018514346591556277
0.02319489174689772
-0.0016902446241793925
0.04361251668585934
0.05498680369182078
-0.004086529882662222
0.0551974683383771
-0.026377610063609554
0.022497479084177523
0.0236611512929741
-0.026628512049848747
0.029106405567884547
0.02517169868091844
-0.020404239666259583
0.014874141184614284
0.06197729133640559
0.032142970988762475
-0.03061684278848826
0.05259889984864984
-0.026041186694890587
-0.020154570859350903
-0.010897584256118798
-0.004959216727700319
0.028075594660813857
-0.016453431885913666
0.010242853473639842
-0.017908373679898767
-0.03537100731685904
-0.019628964568429694
0.02380529858682058
0.013837994927015618
0.005447598437503217
0.026502269441701736
-0.0631806639282699
0.013019692937670673
-0.029083010204252396
0.005422956847654503
0.028997871813994738
0.045847202362703066
0.07022426719848755
0.013238462035311772
-0.004722389219966949
