-0.01496217980358355
-0.00010752975171194088
-0.03706427173226343
-0.025434544048611004
0.06054984459467829
0.08012066409324853
0.06053830296753933
0.05254981735782518
0.039097287438404245
-0.011875490959469976
0.08918982817200204
0.034222903469876394
0.0008424878143735825
0.051400626807018325
0.05827149089328126
0.03287276325692542
0.007807400322835277
-0.043298117522656845
-0.017815379356084196
-0.009004852092192461
-0.030067569011202572
-0.007056687156330906
0.024799850517754338
0.03988445318909423
-0.01794367783784361
-0.04757052870736477
-0.01599977653833758
0.024057406839634553
-0.0024413699744390512
0.025209967170910067
0.05550226784493418
0.0051218871637543776
0.038308186539257216
-0.003903538286000811
0.04064227659737303
0.019311038230358714
0.004131070074953562
0.02645765052406511
-0.013886395894553365
0.021580134551790725
-0.008473686069750644
0.0762616966010535
0.00922676962766277
0.08520537005860954
-0.04650418994040561
-0.009928390687672725
-0.012492584859331558
-0.010520883291853855
0.060812379173152575
0.01754435093932523
0.06094753800252632
0.042128364996010616
0.02455212138620289
0.07240019685966242
-0.02431561741305473
-0.017900362766886238
-0.01351792145602796
0.05799817331527591
0.07942762421611303
-0.025552041613756085
-0.009361558533864328
0.005422247779317557
0.0452387662208716
-0.039695860317763024
0.07584291294312477
-0.02703364282655243
0.0633973882518144
0.0018766753677441341
0.03291209298662542
0.03874000066640762
-0.044179816220430206
0.04269102410997995
-0.001310018695534778
0.03359612999934379
0.012540576142760038
0.038619781186196835
-0.0003322973519847717
-0.017784189745653805
0.039672522531173246
0.043419004283441025
0.06244749122788629
0.02434059223007197
-0.028059134557491514
0.03554759172310404
-0.013111227300911492
0.06017217792949778
-0.0336985574139303
-0.02492711884015432
-0.04819130653824691
-0.01759994329099515
0.021648681123519534
-0.002747136353427661
-0.007893693458351668
-0.04779714992158316
0.048632788135504916
0.08039445682937577
0.0410084286323882
0.052313143237263895
-0.004716977886960739
0.02869401181893784
-0.018601561511507804
0.027042673324477656
0.01712579824839808
0.009645141430985117
0.0161347048055003
0.018942077761651462
0.04838993776775083
-0.014701462845582117
-0.015149528604209761
-0.025929165437411097
-0.03799104818685757
-0.01391519140517321
0.02061858710514674
-0.0005404193143561073
-0.019917370004735997
0.0015878919862578366
0.05992275837945928
0.001620542770666934
0.03822505836101062
0.010473568821591178
0.06570992538645944
0.06226644897586644
0.06412663391730339
0.036261456323460214
-0.01838475618022286
0.06651609281704737
0.019021430178245875
-0.023346480831594563
0.027463599744002164
0.05728374738373817
-0.019131503613929624
0.0032253852421701887
0.01093099541902747
0.026413627241866428
0.03493055818130575
-0.00024107791773043434
0.007130557919569076
-0.014777595510932415
-0.010451431848198656
0.08526402128923533
0.06786108739895787
0.021316589352286548
0.05003848857761764
0.00365932013747981
0.04993913125790761
-0.01526652419171654
0.0361795417391821
0.041491180481074696
-0.008499410804380108
0.04263729773231202
0.044005177944996796
-0.02288456578460888
0.02599797719834534
-0.010203218012211433
0.01932402871574596
0.004964948257866119
-0.0026027089061255405
0.008468366038570867
0.06963752013358893
-0.022167605379472766
0.0548856651211549
0.07659472720174512
-0.008098262515616048
-0.043239538124882876
0.0004946381875113523
0.016324375940929
0.027886760361878902
-0.047985339086927384
0.02864271665577769
0.0011154429471871444
-0.006976893318719846
-0.01192616902206157
0.030556027149933194
0.010764463307383678
-0.01824071438539089
-0.019750396411197153
0.008854350500275733
-0.014224625178447843
-0.018282771752912746
0.022275393433843604
0.046225721005157615
-0.023992312526314775
0.020803391672140705
0.037274222808126214
-0.008174360983250133
0.04375671501916308
-0.0014335188787764472
0.05380176095077186
0.021852668981551412
0.04063986242491586
0.07675834723802313
0.050613832257318844
-0.013384425058696822
0.054327821922484816
-0.02750170156603368
0.006156399458591966
0.007794395852839173
0.06473503989863272
0.018924308253135937
0.013078492719545328
0.037030296669228614
0.01661437629273912
-0.028422517950136946
0.04723283968488725
0.014217460202107712
0.02555612311448967
-0.01684009222684969
0.034161810339785124
0.05761248405524472
0.05117419535908921
0.051944194233884994
-0.024943402817960245
-0.011857652963126538
0.07336596232678645
-0.010814557491006732
0.04952626483730515
0.06151734305352304
-0.04158783391389715
0.04540608377887314
0.06557234990171601
-0.03600787481309177
0.006310135933517948
-0.03983293348896643
0.04770152510831381
0.04128559302024857
0.11635301618199635
-0.005819250820139338
-0.006304461962196661
-0.00020746856496205098
0.040372086454284375
0.00437918825057638
0.07989034025800036
0.03380441472849505
0.0798756678807076
0.035251088971672874
-0.0144702889126614
0.03218617712378033
0.009473676512415213
0.03472429651662659
-0.027230192535303985
0.014483673471472528
0.04324566011832176
-0.009407971530786544
-0.025352891357259096
-0.010346584735697231
0.04304055734863496
0.05407477223090406
0.057072424053311345
0.04175787715506062
0.04840406957567262
0.02564825603247303
0.009319739384099716
0.01278284229984293
0.06161271453739273
0.06614816805272751
0.02553248027619371
0.033176370545124914
0.03627675926477787
-0.02163440130074555
-0.0237972574098923
0.018317817746010236
-0.04067317459384336
0.021992447034056933
-0.01112635893780142
0.05971135827757428
0.01616225948264
0.06226044328983115
0.04350136006650917
0.03201869196056446
0.01719573331620104
-0.014632185559941042
-0.006618001502859857
0.045729864825449155
0.009739075616938845
0.013597497002815989
0.05818523757145349
-0.04489120567131034
0.034037448397917336
0.03291346022549852
0.053728787683912455
0.040148689577624054
0.038130046861879936
-0.0068750354910337205
0.010587329551985554
0.02836393454296107
-0.0049053484532941794
-0.0289541934081489
0.0468080791456161
-0.012149550707019613
0.03188332915232914
0.04733747941882183
0.004613467021473021
0.04512023795752626
-0.023237801386909233
0.058509261976830526
-0.007684306695584216
-0.00661048843807695
0.01960340099140891
0.0011857719822014618
0.031352116212896707
0.04337850263209369
0.015270177874036334
-0.011104394648793717
-0.04251613921889624
-0.01731285911576102
0.07444337150043032
-0.027875374547128483
-0.03969530614126291
0.010944636389944425
0.050336883504047386
0.043625635164125556
-0.028555121381574563
0.03437064792182595
0.01871900566375429
0.012625303582971275
0.019942195101851065
0.030571094690639955
0.007005726372925877
-0.04463864963284517
0.0046523551641675966
0.02115589512124131
0.03806249998282639
0.02187708978403358
0.02361153596520348
0.030916540051614975
-0.04410514562694762
-0.03787164968383551
0.04382136894827713
-0.019900227529678988
-0.01137339183904968
0.0758256977827516
-0.04117991799002795
0.031601794324914945
0.048973426706292456
-0.02328812588276798
-0.02351626631591136
0.03543435097251128
0.025724139281240163
-0.008864096992842617
0.003963504203183135
0.014997217251326538
0.007626465092578887
0.053838490983104094
0.006077875638385249
-0.007258112148756623
-0.04183082814600967
0.010444782822748784
-0.013996390163305358
0.03361701225068672
0.04296523792369214
0.08804910755916903
0.04477599531193529
0.050382740711021015
0.07512251881645433
-0.03834473840494502
0.004345120266210749
0.02625922882157267
0.010156380975801666
0.0013689243699751556
0.05042924862828861
-0.0005275163958943831
0.07045774431650272
0.06258732053096178
0.03356790529945052
0.03205075810380821
-0.0014674386633347228
0.019737216402964722
0.03485802062171896
0.03263549969934841
-0.008752793221543887
0.06610485491368538
-0.022322397665854646
-0.032132939965697736
0.01595153901625301
-0.014801822839922948
-0.038740017580276995
0.02567158073826665
0.004464235964667645
0.043999213883531216
0.03281132325175411
-0.02826456117233151
0.012722315110577453
-0.019455927391783447
0.015767471428575423
0.07327427472071714
-0.014433154028314767
-0.020854422202821247
0.02508822783072293
0.05448566169485856
0.040527452767906647
-0.01863249763813756
-0.020363522959624753
0.05335174013597895
-0.025057446621225377
0.0736950555293553
0.01909043100802534
0.045388237023439845
-0.013150959530301069
0.0051466085113887365
-0.04701516052343172
-0.024289290181892187
0.039801562074677645
0.02649001779115627
0.010155215562580953
-0.02666157985499121
0.0008503718703965734
0.005847545385438117
0.04545818241063094
-0.045672981815182055
0.03524154133299592
-0.013114927792925654
-0.006928488776491254
0.010301212785101207
-0.015926648206371272
-0.0008327096735696125
0.08810245927739123
0.03822916028277673
-0.021454279133274107
0.023565638298386402
0.054277190819487536
0.05741886605121124
0.018765828698887464
0.02154278628734022
-0.007327735820624959
0.02615395086984214
0.008064589152347071
0.04076032167357661
0.03718827018831748
-0.041595620638576844
0.003297193876286357
0.013081129279717366
-0.009547787981175395
-0.0379308033220062
-0.018024270725679532
0.04639725783961153
0.00036169069438300375
-0.019337045281360203
0.013132882069846752
0.029361138191999765
0.01496859833305858
-0.003504711727120976
0.002141491019301808
0.010646407620691115
0.01150511603899177
0.045290613311108584
-0.04277400376586144
-0.029840318690854812
0.039240135144542394
0.008983099206564
0.037551896847177045
0.05841948033259535
0.028661417548764195
0.001024740610182925
0.06641665762699188
0.0556810908598997
-0.019490980608248238
0.00690657506372242
0.026791496120186768
0.06091292442728508
0.021055718633260605
0.029844240068349275
0.016660726912672796
-0.02800327945100651
0.05539301114043352
0.02528436037177483
0.029422414104348725
-0.03298631176531817
0.019244835183984545
0.02389624394140558
-0.022183834807921365
0.009371869921986829
0.00530977638508727
-0.006859695039230914
0.04593880390565636
-0.02174426550567335
0.015401054828488197
0.07894650757079691
0.009654700043290396
-0.009158494998102501
-0.021796081525424043
0.02458649321307164
0.0452473401706973
-0.01924183034381981
-0.021229868098948734
0.02038243252713934
-0.01724765770254267
0.009383244632120435
0.05493748051372431
0.010315724388996993
0.07023684912959588
0.022341169839275355
0.010129292521946606
0.04178811814077565
0.016601924327867883
0.04780117935661846
-0.020444708630515587
-0.029790341930492716
0.04123389627801107
-0.011056647399994195
0.04565447484270988
0.05382640117779167
-0.03233578731003322
0.00868860535450368
0.03174718335990819
0.013243836717693634
-0.03329035324616441
0.04070552903764055
-0.03747665021873815
-0.012398948810159098
0.03841438316008257
-0.0029534399602000523
0.07567865127256326
