-0.03912905429823243,0.11433687597537921,-0.0026800838552961904,-0.027367010484176748,-0.14745863040706883,-0.0946860779432,-0.20481803929623815,-0.027475703302234096,-0.09039874493837853,-0.01213932191257754,0.045831927675174106,0.006586294340635687,0.03921610938406156,-0.0629006729844411,-0.08095267122730852,-0.075783613641182,-0.09797048769637999,0.033447976486750006,-0.18973924808264728,-0.042541424947972535,-0.007563211055084511,-0.04004786393568742,0.08355895122690521,-0.08054250949762719,-0.06621162660562872,0.025174555121444675,0.01536079688670733,0.18560648153065243,0.0887928157883971,-0.016915705930447375,-0.21857404533348798,0.07240160615568968,-0.04243472999130336,0.19823957317755098,-0.18798827181874336,-0.14514030848382947,-0.026960724200572706,-0.12853779625349743,0.05962135462471155,-0.08517793655464365,-0.0613903610438275,-0.025851481295091915,0.0411416545587623,-0.1896862872225007,0.04137382599882106,-0.05678801491859679,-0.02971802949409054,-0.0637564059031703,-0.04043891932648215,-0.006785347251395934,0.14712654759593896,-0.07415481392435928,-0.0887611978994869,0.1714132478418774,0.08670195968792112,-0.05946608536574727,-0.02181174957156742,0.025578656189884034,-0.19210833650232026,0.01859358701460556,0.0022319791746355858,-0.005241296956606427,-0.08426851918109111,0.014215892906082021,-0.09550108392064993,-0.007587378362768205,-0.077096815150946,0.06157989849423021,-0.032941453623111044,0.01171518306557845,0.03883024566115967,0.12650478556707362,0.0590261339130714,0.01335648442753595,0.16546451990778346,0.03971528199961596,0.15732868421850657,-0.05514165055317216,-0.02085933791704275,-0.015582846810602067,0.02269218338976392,-0.01266367412359691,-0.019495289014165435,0.13392621839647578,-0.026526650137647434,0.1766617052740073,-0.02257074184444923,0.043957497202315246,-0.10733874011866608,0.013955956826670243,-0.0013386212157883988,0.1605642995765025,0.017166441800065498,0.012308004819443193,0.16171718371459584,0.005035018833046118,-0.23622309823161766,0.05487991624639376,-0.020762113126641772,0.026857344961607372,0.19959025475603884,-0.007930561985049094,0.17686837103075093,-0.0884320092712179,-0.02017063909846003,0.03615414015247671,-0.14111972005010678,0.059524361464439485,0.024974261824898522,-0.053518386020006664,0.013423251921103007,0.14345254984045555,-0.15646180367521162,0.036168290455742755,-0.05055492991639458,0.09653514346688773,-0.09451201518789348,-0.0933557503678828,-0.11920664767965196,-0.12669767660220163,-0.02878284531370063,0.16167744763289643,0.041126758933581996,-0.037910919345646533,-0.04667783080644083,-0.07195194031500307,-0.1033254115782575,0.038403079372662546,-0.03419042822603719,-0.06212586747398615,-0.1555051036112908,0.05123747430041068,0.07361934730231784,-0.08443467417262986,-0.07452870030225846,-0.13038103861892292,0.01228541901328271,-0.04982062151538421,-0.019417519026499203,-0.2030830861346226,0.10675106011162457,0.24488338500378878,-0.017964137512064594,-0.027142424183976426,0.07093233107701266,-0.07381699271310076,-0.15080943317233567,-0.2089245107449365,0.12012565965378089,0.0055557556910309485,-0.05541623821450644,-0.040851031957277656,0.07280371621243771,0.045988551263476625,0.19140203430342875,-0.04097653434961082,0.21979059390176184,-0.03161414336072155,-0.11324990063482022,-0.03881012113431289,0.08829334586443809,0.10907120825335478,-0.09287526519641674,0.24208764257848722,-0.030536816975235498,0.010297142332732878,-0.08464490458849958,0.15155614317298746,0.0071062168555890036,-0.009159599894934499,0.20818455334753458,-0.009566000858263066,-0.006402135559660965,0.0760678274015279,0.10570750238241036,0.03798794584960941,-0.022191994136858188,-0.16795351484436466,-0.04226426497254459,-0.013819819635515629,-0.16114386988285115,0.04337183938479398,-0.00520978678262776,-0.07222422296078597,0.08640419884219609,-0.07806109526505758,-0.11698932511726357,-0.06892691099964711,0.03133891068778137,-0.009122175741978553,-0.15620315152298384,-0.06042791856218716,0.04058043838938552,0.03831422321128042,0.05446493043665453,0.04877525311801058,-0.08777808873219763,-0.12880969299960732,-0.09753990574776246,-0.017350151620566072,-0.008781884856822512,0.13222952058406665,-0.021087604503199422,0.0076993507520594796,-0.03692509423176578,0.06946836930558872,-0.039278357407125084,-0.004508893200286906,-0.12837097032339367,0.15846862134001544,-0.16988825327102358,0.03122131064820639,0.027318956512661932,0.07045836176594372,0.03226402797647548,0.06507941373061164,-0.0778998631830986,-0.017451383146199113,0.01813340445987,-0.2042855642762852,-0.05000675024197958,-0.16709289244826417,-0.07096587648137191,-0.16177791250571907,0.024546058531613728,-0.32789170179493504,0.160454694335886,-0.05482288585651513,0.036069667012413036,0.08196433959513727,0.0027369527882796538,-0.05845269073256862,-0.06060955813900934,-0.07831128125058327,-0.06486558108482089,0.20036684198446916,0.006566753705936609,-0.054851616627749435,-0.05849968821478176,-0.00866637373221882,0.04203362312194543,0.028638570743007213,0.1269363021457182,0.18113905538385877,-0.06578637895785473,0.02629761966260214,0.0025144996320413983,-0.03296456556011015,-0.05239602424821489,0.030289291523644363,0.15839258003826098,-0.04478678418269603,-0.02433995384722913,-0.13834682324479927,-0.12452291389521908,-0.06418439743813528,-0.033149196443122995,0.2454507225296842,-0.05236132109789804,0.010799031045012,0.1437382308435266,-0.07034701551329894,0.038448307974123165,0.008637044987605973,0.21910193803635772,-0.02784859285547925,-0.057204131576520184,0.09337356828678313,-0.1175502593428639,0.04516919051912898,0.028594736670290877,-0.0011706547992523678,0.030313223797885192,0.00042874193951717565,0.045048401593680905,-0.045827034861904606,-0.01093413251817509,0.03118339843674679,0.026951529217604783,-0.008103784649442582,0.13123550089076955,-0.1911486775867979,0.11402690173884275,-0.2072400446425903,-0.13913599317340108,-0.04491044241604293,-0.0662409919293426,0.029503142780934653,0.03674684955462083,0.11996599689119992,0.01543763552332164,0.12451017031788068,-0.020846255559388526,0.12200616967592945,0.13475954292790912,0.0010102781526832663,0.08378869152588937,-0.08774042893154883,-0.03497079745155701,-0.016634257330889527,0.13511731896858942,0.028151269913642675,0.033065134430442754,-0.02835128694417385,-0.133671785147589,-0.16243176380526356,0.029372794550737213,0.016815785252339312,0.05851765560647542,0.052337515729233425,-0.049069066093831035,-0.017385352117657748,-0.014769539236098129,-0.0849850667353622,-0.15426710032189844,0.03691545377267547,-0.17307063329078498,-0.013396436639629425,-0.03155574653814087,-0.07364956126846173,0.024959083217884582,-0.16655106959651367,-0.05601434980386836,-0.11264399400693333,0.03600202440448629,-0.03277400278181228,0.004662497835734461,-0.05875860241575178,0.17386975220489495,0.01732188502544818,-0.050016278405036,-0.16781462204384948,0.11560927166741676,-0.0038439050243140975,0.051571325283577434,0.008352401360437956,-0.04885635408178662,-0.15088685106003508,0.019109422553426007,0.10525758111988348,0.0088806715792645,0.0934010115592134,-0.05640252222412282,-0.012561865728502417,0.06101761169543551,0.003773730631216362,-0.13568498208121826,0.020240776624724576,0.02796512469125738,0.123867147055856,-0.035717641945689584,-0.07830863865069318,0.12162519828242035,-0.04268687896805334,0.02144949734208128,-0.012703878589075714,-0.1345278329415441,-0.08284769480073856,-0.08691358222206527,0.06045405923321233,0.08932677785870571,-0.05036539421941901,-0.02434045021155046,0.18303122584054088,-0.10611651114183744,-0.09436781386975646,0.062112120263796464,-0.02038191303747227,-0.11033629955198943,0.03558459639462573,-0.029919472795338305,0.13027875087032686,-0.0454332851200344,-0.03349583307313261,-0.008815108800285057,-0.027068200498333563,0.10361092802035833,-0.011524674711403705,-0.11017990526479172,0.15146008154813193,0.021200810741644302,-0.0626628544113048,-0.06104889974536526,0.016612412662381504,-0.05662028616497094,0.16336122489128949,-0.022947105332858393,-0.06941632236561861,-0.014421273599636124,0.0025009399695775395,0.1782526293813153,-0.10135443647771215,-0.14056308903431128,0.05311291687377964,0.05541470262523043,-0.019794649049440984,-0.046394929533523165,-0.015979768268700047,0.03849047439325132,0.07521854613866738,0.03700591810928765,0.004163730657490764,0.00607899086608691,-0.016971703297338783,-0.018956039241081354,0.19770764926470732,-0.032679073199884785,0.21606084617210186,0.18252170247791136,0.11911481722834798,-0.032836317807862614,0.09445291254400329,0.03259217434989212,-0.06568773931889699,0.14830865633860785,-0.09628862759086314,0.00766486851253537,0.01897192457416504,-0.052292535757383844,0.10340584661214247,-0.02336996666202942,-0.12105814981244975,0.09926026967458365,0.1249874814792835,-0.04985804240992264,-0.1675257476329084,-0.04599239555256325,0.041499917907844006,0.07911303269469404,-0.02974395914404213,-0.04145441131065626,0.19651572470018136,-0.01231789526808006,-0.11125979035714958,-0.08171319481373242,-0.1823758317761081,0.026691088489340244,0.056573422697512844,-0.17338628320256602,-0.1256561984403584,-0.015325362186681785,0.08203118311347203,0.028790777007054128,0.05302082278426964,0.19278123840329514,-0.010628712501440181,-0.0065223280570301505,0.01166783214649755,0.0791464599500443,0.19189009872930257,-0.19735368422158192,0.11555561541694409,0.08713058042934309,-0.05872411918843557,0.10399621153527074,0.1791114057280754,-0.14631070430958154,-0.0755315773213054,-0.0584382911575442,0.0005195533860674863,0.157335428080655,-0.03512458262082893,0.11788962364376857,0.05567479766215043,-0.02465408489791767,-0.014186698992608531,0.026918138465157438,0.00262479883026117,-0.03667086314484683,-0.0312199545913156,-0.03717015029956014,-0.01342425382164742,0.03961995952414802,0.03175305007886096,0.14052522744938103,0.0360037599143587,-0.08631642470641812,0.005760860465125641,0.19130011381778217,0.045415671760365366,0.12006469780845504,0.1424707796366565,0.017862044242397387,0.03568742150940348,-0.16694962888682122,-0.07547345160270065,-0.07974795941254158,-0.08496965120833536,-0.023026301332187592,0.07068058971943729,0.03802427714325845,0.03820504894365192,-0.022632614071714154,-0.1603005366946291,0.025821620936378045,0.052053323584992275,0.017802040244745618,-0.009443240162310788,0.07943823442131606,-0.03030576659768388,-0.09666750693085015,0.04322617798174415,-0.031050384290957505,0.14092800847419135,0.011564104661234306,-0.027510032638468972,0.02929211912603377,-0.01735299752296939,0.05222271326242195,-0.3253625704489453,-0.10705648209587139,-0.005028958446254374
0.007428851954506901,-0.0012133179575974486,-0.014902027535760337,-0.04812059424034643,0.22642863306134142,0.04694783663701327,0.1915882710320227,0.0365978316289363,-0.028026776936842503,0.14953032173060224,-0.09993413664936919,-0.11415326891787718,-0.060535235361051674,-0.06876170158291511,0.0684482254763947,0.018173919145207534,-0.008908496731690722,0.03668288450959277,0.21971653532841087,0.0047447400656542935,-0.0030473908346282845,-0.0006187096290676906,-0.03976971275202358,0.016504104155152802,-0.08608227007480079,-0.016182958350244383,0.06485640097912194,-0.034445091353026674,-0.04022404710026392,0.17022509805155028,0.0654820925795955,0.05193976122272053,-0.026034245531078436,-0.20325205098088142,0.14521757699389834,-0.024267318333641215,-0.08444895174848048,0.014985083783414472,-0.06993513237597641,0.07098359905803378,-0.052198730716081915,0.06730273974319619,0.0222903690169368,-0.1228106267804614,-0.020602343252284532,-0.041081536001613204,0.10784248449538258,0.043163945258310216,0.1432599118207731,0.04461768538932073,-0.04888033734314476,-0.139581732210769,0.17677921402546973,-0.11438324986459701,-0.18441060801254958,-0.12140615259870981,-0.038527252127520034,0.018209588461858085,0.21238223504913062,0.021976107032729966,0.03928472761291453,-0.016361641319315404,-0.00513660615032262,0.11250495600086173,-0.00846057800613697,0.09571238542909671,-0.06626048882379541,-0.005171884800897201,-0.07649265420486939,-0.16428609175314932,0.006382924581564882,-0.0836909509460234,0.028248187203061246,0.04999874824553177,-0.15270871755374166,-0.01849352840364227,-0.01524737452653273,0.026624483468083326,-0.038941473763542116,0.08874719374025626,0.11041992059462778,0.04569494879305422,0.003650857825346596,-0.1873731640143722,-0.058107378275887384,-0.06752863411948577,0.04152349028146918,0.035469495474734325,-0.10998623974077622,-0.023389563236655832,-0.04306629049219039,-0.1887490515401452,0.009290412405818496,-0.10072802511838419,-0.08274800774917211,0.015439066945378692,0.13476766261349113,-0.14518218674775524,-0.02596883612709223,-0.10088193647725854,-0.17951942509925564,-0.08714556207472776,0.007645909732805741,-0.025266596227929518,0.021679118145768953,0.1007927925841968,-0.06394131011577406,-0.006032888370996438,0.012646475185299837,0.008748564850133532,0.013784721875162421,-0.16301427114424338,-0.10783063485369421,-0.020603330098669537,-0.03474070099727591,-0.13151025072443406,-0.14792495508964493,-0.03041734781348921,0.10438444322878043,-0.07855027996607236,-0.044250132594160656,-0.0871959364920074,-0.15816981368597888,-0.006044782158918939,-0.03989579841452027,0.030038866447112546,-0.07509413870754872,-0.0659801347927918,0.047937128927141026,-0.020190750989458363,-0.01720209079089273,-0.03772445000385235,0.07186874106959293,-0.09199485023393325,0.15125777259657217,-0.13001596109321187,-0.05447478901619248,0.08752302468823983,-0.06676110067322703,0.23599630079880085,-0.17062852972654818,0.007117252887737377,-0.08585517681202677,-0.06002947276954126,-0.03211137909973462,-0.17325362978334974,-0.06418996625074505,0.08136738731746468,-0.016604307902845093,0.026146624018551272,0.1620561232004789,0.0820220513271259,-0.03493706640727856,-0.03923286661151235,-0.11502590157630595,0.028398197051391242,-0.15629345282503615,-0.13053966806296696,0.19690517131238186,-0.024654191334267765,-0.06134423642593422,-0.1339493925516517,0.11365479383525183,-0.004827631907541111,0.0048534737764264054,0.04228294265324837,-0.12412955956917303,-0.008945935640287079,-0.03185738968431013,0.001998660291626541,-0.023720281146394826,-0.02355199012267146,-0.012656049457887245,0.0850507785557268,-0.14445044911379712,-0.07993842331913026,-0.006443365690690079,0.02468006402989785,0.004996037779198648,-0.13737471288240596,0.08303936296397506,-0.010224758086631239,0.029052715012520467,-0.034824755503468266,0.00595514186993416,0.1765752068932166,0.03998671965890887,0.17380774724934497,0.017657527179318407,0.13528520588672657,0.04052717403266298,-0.10871693025395258,0.012087670340406982,0.06188327579568821,0.013430024748092887,-0.10561233880980901,0.20948356521401693,0.1626315410230235,-0.012507136210009302,0.21178431740231085,-0.036474614926963696,-0.0898879310413361,-0.018580924719810803,-0.19479005157106835,0.021839707600534063,-0.05882929357585173,-0.015755855758728485,0.12482154623891079,-0.00804600478609193,-0.08725726143745732,0.060755915006411275,0.024381878978629912,-0.03356762418579488,-0.06199830779934638,0.035672942727126386,0.0162542225171391,0.03636190674589582,-0.10044723798400536,0.14464215133098343,0.20375024178133044,-0.012081167056289062,0.21472017998281154,0.014254348330968579,0.15153565165374477,0.03911127572702912,0.12290859234831744,-0.010774921565920064,-0.003973084425127714,-0.0050199993231948795,-0.048167293852012454,-0.038925041414545475,-0.12517507447727189,0.05770943283465034,-0.10011886574069616,-0.04844291020462933,-0.12657559881718541,-0.07859205204233949,0.11955159059960249,0.03343890622069045,0.19243205933931934,-0.1638392532115985,-0.07326452408728518,-0.057863134492649224,-0.08499525264095079,-0.023909714654536417,-0.010792473013841192,0.1842857107377088,-0.13286847320632966,0.18108587642298976,-0.11154068080073137,-0.09390131581341546,-0.09321449795375696,-0.025246713506245674,0.2410016153531027,0.22273854553795172,0.1576528287761774,0.050797776002941206,-0.07769545489713882,-0.014685959496844246,-0.006381760849407833,-0.06806958660305032,-0.018109109716444974,0.03244008713327003,0.015603838403571595,-0.12314922828314098,-0.050755325391846406,0.03646535781477237,-0.05355945829236973,0.050242204073072436,-0.14368269777894843,0.030925715078705233,-0.014236893949495864,0.05509651696071797,-0.013442603240301693,-0.021995271548783262,0.020012906923837923,-0.023718822497711917,0.04080755630365467,0.03250857085679443,-0.08771008097906208,-0.08103192279458364,0.12932521911493788,-0.22705794987594802,0.21472910141490975,0.14473715795118305,-0.07025648791958963,-0.027320339659425805,-0.03768721746986351,0.03980769236452169,-0.03896852060254377,-0.15508814573655352,-0.27181481063598667,0.056016189842638564,-0.05558643167602633,-0.023568347321883367,0.09017544573994593,-0.14807716056404677,0.04168761951435148,-0.08545489519982465,0.018268124342659557,-0.15498502121771038,-0.007234473681351149,-0.04211061239717107,-0.04173975615035904,-0.09490318166377022,0.1047147802918835,0.0448157811975273,-0.024705718815846336,-0.15769184082253795,0.024245974614517666,-0.10703895323107282,0.0025461161799706276,-0.017000180750289216,-0.06233682547848346,0.019683927854263344,-0.023744105702177224,0.22542350793384258,-0.12122752379403202,0.03198865739361256,-0.0488676396180674,-0.007543292813741191,-0.03466271890366478,0.24221077540792973,0.032771073519601686,-0.017852038854903246,0.037249918611708774,0.003339585944395804,0.20979330472723504,-0.06424690605310335,0.04160002403599595,-0.07109644760579549,0.012724098337675105,0.0018490781224355035,0.027775202141226887,-0.02142462241133702,0.034320123159227695,0.02349125833007468,0.05532646758068164,-0.002534286466287261,-0.08589927386663257,-0.029012191699801678,-0.09419023678250246,0.06844576858757373,-0.11799289115840794,-0.09725481060217085,0.030376981385625966,0.2165218804715193,-0.03229359986101146,0.15387372349329018,-0.059380347910248564,0.016729720895753714,0.14057895571849852,-0.06774827708267755,0.201242116358074,0.025650088557876857,-0.06095926442096962,0.0352188931877325,-0.019911037319699842,0.021374941484682233,0.017165115729283757,-0.1369837353238227,-0.04948645578595546,-0.1965174927873593,-0.1848989074058688,-0.07120550615691736,0.19613520770928,0.015445639072465121,-0.0841777435839628,0.1558529173605426,-0.017652722676070775,-0.04850772932736392,-0.0955801900365211,0.01845929655825381,0.0047764147146084224,0.007159016593042139,-0.03414726659553635,-0.07096114712710903,-0.00397927929456825,0.07562727800274853,0.04494479055462855,0.03979928790268615,-0.08447827471330233,-0.051862859377341156,0.029958697084582916,0.08712755717573506,-0.07090878200088646,0.0197814687391722,-0.07346586852451194,0.1461406188309719,0.036050669320662004,-0.13693092944623844,-0.08779871006486595,0.05471100474720198,-0.06222244597922918,-0.13699356743096555,-0.09023751346037037,0.022525737564855326,0.17904839109654133,-0.08646119496867734,0.01668273816269606,0.009535776068995942,-0.06686951995358238,-0.06088995463462527,0.15819671105542268,0.040108658473775094,-0.06695907674444505,0.08060942019800554,0.08703780936124869,-0.052257616076736894,-0.009951063109030824,0.0069542179830539876,0.036581700446568687,-0.12661771416867823,-0.036218657267485244,-0.012289608793600934,0.21196495756489875,-0.05266790542522103,-0.0341524911241721,-0.0953416496503714,-0.03357869569933429,0.15531641042194236,0.21892592362682212,-0.10450343888048776,-0.17140390309155942,0.2834798087809654,0.1440156407646276,0.15674665717207417,-0.03107420501739426,-0.24192133645256775,-0.11478784442656403,-0.061226559371982195,-0.05820986770391682,-0.0433209624453943,0.0226785176394378,-0.013657071314277163,0.04973915091136725,-0.030703876208478788,-0.018319198519308567,-0.017864835283118732,-0.040908718207284145,0.02682012794005039,0.027325148732413124,0.022555057651804003,-0.055301097595107186,-0.06060929224511989,-0.0314821090881078,0.02341555070567823,-0.04939877101222856,0.12810032898613172,0.008286194680106228,-0.1199458992118581,-0.07125621504466584,-0.09070132325068353,0.12582706495976426,0.09425662836032828,-0.027291895073366077,0.20060426341441515,0.15880022104813724,0.08052400642124237,0.0034482567538226196,-0.021035185465373547,-0.03443859955445668,0.01618313397107569,-0.12221855870222491,0.03311103221083392,0.09098218627842954,0.013811458769065412,0.0022857711925570617,-0.05971068856466263,0.039576488985046634,0.10139918096802981,0.02345367871885409,0.020073225874962502,0.04278166197033382,-0.1139696172560754,0.018825609385373334,0.02651223564132043,-0.14498831749461863,0.017358301669657815,0.04985476518545312,0.03567379953575693,-0.12723330832223012,-0.04132701100485625,0.10647155558706166,0.1742055907614041,-0.04312512473435105,0.010396232629632676,-0.13812744470339514,-0.045249154197069,-0.0711232863694575,-0.04197987664093526,-0.010107197667596527,0.024220097514423004,0.16111475602659384,0.13237190247225286,-0.011561431479114611,-0.035186213268247675,0.20614888678455442,-0.06773925007399273,0.03064406497864639,-0.1508430219054524,-0.03891614531340754,0.01699428999909723,-0.1337958773728287,0.21217036329190825,0.03574265857797155,-0.09644683979384437,0.026192996959818766,-0.0341085826869708,0.17028548934980467,-0.022190823869472746,-0.021223435664797
0.011416571251901639,-0.10254988864697122,0.03563060194724777,-0.016579972653420837,0.24611708242133354,-0.14785012037525486,-0.10603311560117228,-0.008145882682223582,-0.03335094347811287,0.08930268922869392,-0.07237281679925187,-0.050587929452707736,0.08489997471210772,-0.006371660725572108,0.0552014447606845,0.18884864626706707,0.15608381468641516,0.006445222445430397,0.09981817921061088,0.10488590005327021,0.020892633527367206,-0.035687063084264635,0.019582902472559026,-0.048636665377427654,0.01208123007654175,-0.009116556758589127,-0.05949977645816758,0.09289638092393222,0.042283724313630686,-0.05013831606963323,0.02669318149365646,0.14725650871915816,0.025096347507333805,0.16428037909054904,0.06625833002815221,-0.06827533085628837,-0.06854029675106225,-0.15260935854941132,0.019179599937101468,0.0015718045562634116,-0.05548797424488015,0.012954544809838838,0.11400925561157833,-0.18808171901831308,-0.03650023227097068,0.07563215100330488,0.040848105816041265,0.14728619256660316,-0.17034207002147383,-0.004558499968572722,-0.01770361930376652,0.11371319195719067,-0.29558978051076773,0.06465520697339518,-0.1766861580451065,0.204344609877718,-0.007727372334457252,-0.10612939722499204,0.006263428997272603,0.029966008650638594,0.011979385239646123,-0.036756113345468466,0.2446283156126202,0.030846425053384467,0.0628810589524275,0.028376637172785033,0.022545463453813745,0.03347541571859342,0.07912837762549395,-0.08466458574603333,-0.013430495538714922,-0.10306419128967612,-0.0051192491510175025,0.05845647704680688,0.01039494847372598,-0.003889452941933346,0.13493885611206788,0.005716731696722387,0.09884274770730127,0.0654817635478863,0.05899517308532329,0.008245532299232656,0.006385156477539805,0.011224820374975911,0.08103521833129317,-0.1433090383967232,0.02222688569247056,-0.023087645487418193,0.3439146758825365,0.006496643844807339,0.010474687438572562,-0.06310344975969678,0.026493056725604636,0.16181944581107327,0.1447633392603812,-0.04268760426942831,0.04585850576084493,0.021287285415974147,0.03136343093080816,-0.0696392273053808,0.10630483261795835,-0.11144223462885425,0.029478853998849544,-0.0918367184180873,0.009448542987559453,0.2546279885206312,0.02152456949009247,-0.06568752731693667,-0.05038023817310808,-0.06197751829813412,0.01652517579259935,0.19612523354449485,-0.1283480759958906,0.04149549637306323,-0.007754920744652304,0.11904098226747756,0.10533802867183732,-0.17189250348035762,0.06001456673239791,-0.10419344858910899,0.1711795724516278,-0.08009979348699793,0.07255577969122787,-0.058794299296849824,0.0925109172430099,0.014504161007757168,-0.020637547661748943,0.033396435465336737,0.04577728188300225,0.09497827720265113,0.09630235927985929,-0.00243222237271924,0.12980705274292165,-0.10074077975317275,0.031839125659000704,0.00893429776051745,-0.06288359979403224,-0.055584538085143805,0.024260261374531196,0.07599611153009812,0.0340077803878749,0.07974058757850809,-0.10295490554020015,0.05044424174515934,-0.08124193044152518,0.1463085960574393,-0.12632752381025147,0.14010359672290243,0.031494979757525875,0.09538272367335623,-0.04750699279783095,0.08913698421225137,-0.027049844194051303,-0.15197762777616716,0.15672528790682755,0.02658679901317056,0.22036145198502324,-0.056191674752098915,0.11873852191787825,0.01678984259628169,0.03331881500866119,0.23997579071190542,0.06055236461975534,-0.054254904211268766,0.1583380769252833,0.0017962601430567722,-0.023760991286945664,0.00936980014249212,0.13997673703664745,0.01299216061725157,-0.010159641311404226,0.04892582865889564,0.008569350362700326,-0.06520826483059874,0.06777558552462304,-0.03544295542800962,0.05946342358127412,-0.021511366864481917,0.1646447070185993,-0.0031577586929764467,-0.1274620727643175,-0.011797617026211328,0.0358004490508415,0.03811683077904758,-0.007457733215632731,-0.060460920212258996,-0.005574847088303219,-0.06322931151343766,0.015470464963692587,-0.16498949529645363,0.18507617932163523,0.010078310662187272,0.02678444454704425,-0.026079540348850672,-0.03928779086091916,-0.0684913326136339,-0.032744600379105905,0.004558244853818253,0.15532489109710854,-0.14903431172918483,0.04419056973170805,-0.024774984936720017,0.08949113142714009,-0.20080832218365932,-0.04562144213595813,0.046574581385851556,-0.015201780214170344,-0.11929112823693998,-0.1219785194599877,-0.09200874722736198,-0.13492718119597516,-0.03410341174072338,-0.002205187330704423,0.0787409043279999,0.030232709246602228,0.009694507987296062,-0.1737646063330053,0.06185570941983668,-0.04980424556566635,0.072695535602247,-0.03360000255800069,0.11675670330466734,-0.1129433055673488,0.019777847285134063,-0.027910245956271968,-0.22742903309519547,-0.04419893105998233,0.003422334700344706,0.02373091229544473,0.134195826367525,-0.03712807793590617,-0.14645558785880292,-0.2957653143328446,0.01474438973518815,0.02103173338820027,0.08038271114883885,-0.033505953134346976,0.057697699197444434,-0.0012726262564313148,-0.015588722853947306,0.059338325725174466,-0.12829839845070598,-0.0062114571372759286,0.12268476365219023,0.2216897514404479,-0.023435414626294587,-0.11557516838355338,-0.060697665270441625,0.25511740941394634,-0.1700948333668982,-0.06950346293090318,-0.09679561105302348,-0.01406451205113641,0.19726032995298615,0.1841351215108411,-0.016072673793572814,-0.022525069322350256,0.18888333153693357,-0.04671530842038138,0.03171280570717629,0.029572031095742343,0.15343064014381327,-0.006795562424762892,-0.02346848244386118,0.02321384313619433,-0.16087879712796946,0.12251451570878821,-0.026463595285303395,0.28491198244416477,0.05257907550141046,0.008625927523756405,0.09244494129450519,0.05962626484516019,-0.04535879309573213,-0.09631593607385006,0.18893459758694928,-6.959333925411075e-05,-0.06974077502043788,-0.09754252418344489,0.013544552034046396,-0.07042173732984006,0.1939292567367723,0.0855574107581146,0.19527598029437207,0.0025354114367890936,-0.025867629145163395,-0.1079312027664265,0.06050691593809369,0.026664014979697063,0.008811781768552908,-0.08845588434620391,0.1525263730751184,0.03056406930272639,0.03177545286107972,-0.05520156017129839,-0.01959999168300156,-0.05252130988251078,-0.09762453944362995,0.05114665196691661,0.002141200431265237,-0.15318427942616858,0.05696527190688854,-0.026835378739584165,-0.039203484019316934,-0.0384082334710412,-0.1365949766269873,-0.01823966102640333,-0.03160237083158233,0.03758736866046648,0.16785825821748646,0.29829486315285986,0.007930848885737097,0.02005683274329962,-0.07126804792811658,-0.029818633647987158,0.035280184470366543,0.06748031806035423,0.01300635585131205,0.2059876308175854,-0.10576078167163913,-0.22225127422065127,0.045500025063262034,-0.08696733747480989,-0.1023001675494955,-0.03266079353563447,-0.024214452253724986,0.03478144801773537,0.03817916731695106,0.09177206777050358,-0.03147063014061034,-0.06791123011547502,-0.046544677219993766,-0.1053328326031586,-0.13555912293500186,0.06478658192844708,-0.020995175221856954,0.1406241186969644,-0.032170322959018276,-0.0263709021674299,-0.02524373884029006,-0.04042772678537121,-0.12437315436522606,-0.08978721263338953,-0.002542436617404622,-0.05239230010254547,-0.03749066469091106,0.012481821413739689,-0.0027746318039411034,-0.024707911806416436,-0.0923844627290116,-0.1662911213918234,0.13837179247507406,0.26122680370063567,0.0029212389732791166,0.02820834751225102,-0.09465784712692138,0.06393097142127158,0.1429143475625233,-0.1576997952491237,-0.058495929509935735,-0.08885921436403399,-0.07227965370622025,0.022041220760095997,-0.1330014121320004,0.015128676555264784,-0.11118486580448109,0.1389570677878624,-0.18281968488026695,-0.0979928666494762,0.006090061703144963,-0.16258019780435198,0.06570712563142769,-0.008944990673429182,-0.06957973414121929,0.02153591208534237,0.01640686923419501,-0.15458096731460377,-0.0351199983294308,0.0101929420049964,-0.09231863715618276,-0.022818229841373276,0.04559366000622816,0.08371456457917846,-0.04700111895498355,0.027653292307912778,0.021951732847189476,0.031173897177860458,-0.031837366985872084,-0.11370751027517417,-0.1991321252191431,0.10662969643673485,-0.028151887095754922,-0.1451818812705429,-0.09720517416065498,0.0514642758432268,0.2040401651104711,0.039375370626547,0.15981410243236768,-0.010672958853199912,0.06042030757828238,-0.0036472103607189943,0.11879028964614162,-0.07358639083347426,-0.13299654202025565,-0.015154687927487179,-0.22295635843711703,0.00763385058533046,0.11747657781619673,-0.024990402172157183,-0.06530189838741253,-0.05862583689675175,0.034431003376625385,0.035372816971563144,-0.11993821146925318,-0.0006401390609539807,-0.022973835868096447,-0.08743907028286478,-0.01892040667335647,-0.008664389337441484,-0.0317105125153114,-0.04336667741058819,-0.07606989656747959,0.141389420007591,0.18254852726379306,-0.10958201906507599,0.19854878291132286,-0.08986262707884249,0.015240645097599816,0.13658304653279227,-0.17001173937467953,0.05975721646933374,0.2530011998736286,-0.013366120450279174,0.027188744859726374,0.01718908040068154,0.12988514623927153,0.0033431623698188897,-0.03806339295629849,0.11987172701138316,-0.1274174971022768,-0.020814285982524758,-0.013600564962213763,0.010574035299648244,0.04518931339784442,-0.08074470273409806,0.027535732084117002,-0.011462153310264444,0.013064330448910273,-0.03914566905873491,-0.06053180325389642,-0.17120102229144704,-0.0544573256024985,0.10308155878063961,-0.09161428614688043,-0.09436156365616372,0.10179569221940452,-0.06913535956929646,0.14049544134914424,0.04959611531640052,-0.02021374821150194,-0.056617676197638675,-0.0671197741314843,0.1426118072846012,-0.010709054074384978,-0.12538362736170514,0.01253193773506135,-0.05805711200949693,-0.16891786161012795,0.01090190559278399,0.09032860211719458,-0.09267079846665281,0.01829070520927652,-0.09764383695413086,0.026051755342342064,-0.027943471238483498,-0.02071858923706774,0.01824156156706379,-0.14108373459786927,-0.083949273631714,-0.013717902426794928,-0.11288588604510987,0.05544582751564587,-0.06681151985675934,-0.027449151736314462,0.07897038571880538,0.12840683043702797,-0.0725873902825159,0.0319259186785802,0.03476048251441545,-0.057234957517189364,0.03814473599835159,0.031026639888149434,0.29033966453367943,0.14707564067096865,-0.04391863725842371,-0.06107638471163122,0.038249357582531285,-0.04576302092455013,-0.02060812486112966,0.02317946397600788,-0.23316528011146795,-0.0050092101826636,0.09210883707743676,0.11824743545574665,-0.0889124850285251,0.03284481854688259,-0.06841759034695928,-0.09656065160284091,0.16891957537232097,0.09166433606850666,0.18725308735731808,0.08345590444720319
-0.031325861884820505,-0.03997970777696649,-0.016624037186871242,-0.046225446800360365,-0.14056001334859455,0.023728414707858053,0.07963250720953217,-0.0014782133978065266,0.04159681123119112,-0.012483260599916115,-0.10661597585349067,0.08883420446816158,0.07931737086583378,-0.002242158621174562,-0.029226338242002502,-0.032840211978801825,-0.053109937041705024,0.0030167656224969037,0.15294510880732368,-0.053756386534555035,0.024551856299219653,-0.016940699826339337,-0.09376491453482137,0.13748673272675702,0.038335874681319375,-0.01908472284165407,-0.03615379929742728,-0.13541558055294337,-0.061356954628784766,-0.04112153433716447,0.08820667085039936,0.00207739335875275,-0.016612618890655788,-0.07246066692773644,0.04353939405278959,0.04881828203370091,0.1261289879479183,0.05746352427755473,0.18805547555218463,-0.06000177673158884,0.0022097271326240214,-0.060891943242833875,-0.018860283106573904,-0.16148733661344813,0.03596356269681004,0.01849567338498079,0.02778032815457714,-0.0833486586391713,-0.1549757963025227,-0.06779931392959006,-0.15733466659844975,-0.1309180536602066,0.015383973075273557,-0.2556657334282576,0.0907719618345564,0.013222452717942304,-0.016572859922296363,-0.05441024958103769,-0.1595281619089599,-0.0451346293051747,-0.03371946689852997,-0.009841801503223793,0.06362319198464417,0.03879824175938556,-0.13231785485774775,0.031722062680248055,-0.08777464069150077,-0.03549122656645313,0.069506191273389,0.05188089518933445,0.03514957034216312,-0.08674641402142139,0.010759819114681782,-0.010436887389740518,0.14852720285950824,-0.02627325491416849,0.06434774904618881,-0.04810780536157904,-0.08273497270246209,0.09346880768868075,-0.14658598363337594,-0.026131196100773472,-0.029995278461027553,0.03557977628663932,-0.015500149822956001,0.049658562252351164,-0.015751273929109497,-0.01856214861163734,0.1678491409782634,0.022023403017263014,-0.11682662572057334,-0.08786733083500373,-0.037946264344787844,0.12777286125561213,-0.19492859871741816,-0.026997760644041743,0.1559106536454992,-0.19154034108139084,0.03276244039990097,-0.10456930215751646,0.10751040765460715,-0.0019010780544618004,-0.12625149136693192,-0.0550651910006267,0.041860176602427114,0.12268017370109,0.08846723053558592,0.17462148898269458,0.0038472857801245645,-0.0445991202518035,0.02473397451971854,0.026672531206061372,-0.12476141982617275,-0.026407446627158947,0.03608573143557864,0.18323080891370214,-0.17919527793083098,0.203530261543832,0.09658358249460662,-0.1759661442183011,-0.022613361600772597,0.028627456847059845,0.0093439002808369,-0.14813956049275645,0.09827047088955941,-0.0241000849531384,0.03187504959454713,0.037265367819789806,0.04940366725010478,0.012819951131023145,0.15154128870394679,-0.037995754674485946,0.03723272307310279,-0.13891338987942764,-0.1264051307883992,0.09085820061741669,0.02218070443387922,-0.0023157887844184257,-0.0754250145784984,0.02274883312200819,-0.06928695520822083,-0.13851201947884623,0.0007499521015709432,-0.03203579790097638,-0.0969603199024094,0.29992902934308396,-0.012117191110650929,-0.08004143469214707,0.06242061136123636,0.06143025453633611,-0.0892698908633823,0.01984424787510766,-0.0736942243715844,0.016551233781384636,0.09504548121015177,-0.02790275558239194,0.06955586200897132,0.043353143195386856,0.02795942905363193,0.018863233823289628,-0.04445815905489392,-0.14468138861236862,-0.1543847524520043,-0.06094314346732868,0.09770574644769763,0.036236095280942585,-0.003281792698392819,-0.0898434570761109,0.10632929792133701,-0.020711265177378545,0.10327622845907596,0.02688029655456684,0.020095394245840656,-0.030736021092036058,0.050065971788093515,0.030468701055262084,0.06093128605601246,0.09127493949085726,0.15496574041665917,0.013426445549614174,-0.13911744143667804,-0.07300157336473412,0.036677430907070825,0.08804357590455085,-0.018583926802294336,0.09204665603385376,0.034078439019905885,0.08972518246871722,0.014471918239287649,0.20711866488217692,-0.14250996216125775,-0.06865126914019151,-0.0701591276567538,0.03329509851280045,-0.014908775870366806,-0.06797639666429595,0.14774553686671038,-0.23384794016059704,0.1535473469992005,-0.09255921266494653,-0.06119094969517519,-0.1596496102202279,0.11413326628418585,0.1844149193256373,-0.03861779584449785,-0.022105270778231902,-0.04248562713233656,0.153038322879156,-0.08034176873765925,-0.21391105564612234,0.0558683995759075,0.1848459764381364,-0.03333050919610969,-0.06714784065850846,0.013418999797779966,0.08832344848526906,0.022729492174981547,-0.02106121332209033,0.015521571540445095,0.016825119701823696,0.03254662664315422,-0.07707100575428315,0.27791751281159716,0.04568721140393257,0.10341954619923957,0.04538906608688129,-0.10210953352042754,0.046808789862871195,-0.04374588519824212,0.03872649795390755,0.02043569510913382,-0.06893344826300545,0.20371278570403512,-0.014981351027627793,0.0573537081233024,-0.01314277565439555,-0.11541119050058689,-0.05214424901708659,-0.0061047960286920964,0.08867083201118572,0.12220780462659674,-0.2534681079399816,0.14311724421848981,0.07905953965088845,0.07499795773940475,-0.06014893945679596,0.09120714863301746,-0.04967924658688672,-0.16507322916641154,0.03406829686376359,0.04487027633335872,-0.08691962446304806,-0.009610881545486064,-0.11960536362801971,0.0787063568683857,-0.18493612234355644,0.28582627724459997,-0.08602814900240989,0.19662279240867295,-0.019714876172650903,-0.1641075199069267,0.300638107190913,0.01596904878345733,-0.10268038023894052,-0.15224103610212295,-0.08664561751099345,0.0642701773870691,-0.08330055093725466,-0.006598219882632468,0.004162255998844374,-0.03824468408905078,-0.08530310235783763,0.0021926773477571157,-0.019912378159646357,-0.2516888097979594,0.17638634240471412,0.008320016560966181,0.08883551363508423,-0.004651521254008228,-0.07797665191598951,0.1466505309623642,0.03771760333478999,-0.0679277399594601,-0.05160256674756539,0.06167704823552891,-0.07287679994828415,0.1754769917098962,-0.006268640138109393,-0.01704920890191218,-0.07705649232730456,-0.10116456141435827,0.16330951883916056,0.10043451204633738,-0.0742057772185113,-0.142354791883491,-0.002679068941817723,0.11279369928846472,-0.1878744920249445,0.06754283285287155,0.01725334672738813,-0.21114211489801105,0.011859921589425351,-0.09871122798843605,-0.003960184937900382,0.03863579616377268,0.09557375594641918,0.020680220534232803,-0.03424034497882401,-0.13667646364977035,0.014829217332599742,0.14167578946410325,-0.012947675486699143,-0.022782058293390695,0.06324505821385405,-0.0033051327673958913,0.00885392323514972,0.09730822396962666,0.10306166810473712,0.17075230771589972,0.11887920400892608,0.03130781613512047,-0.07156204084021253,-0.027605056637933216,0.130742415087497,0.030124806860298642,-0.05904831237332036,-0.03783190900780743,0.08472419058611527,-0.11727121283095814,-0.0440678534868411,-0.1690592562630511,0.3708626495543231,-0.09286342872402116,0.17373317979860048,0.16563173175294446,-0.03960730473118639,0.138202306526848,0.028185722432066084,-0.02997165999697545,0.05872888121071934,-0.06053299326368468,-0.055293807686357416,-0.0417677834155592,0.18925368972855036,-0.07539274461380299,-0.028477012394436754,0.02603445158540426,-0.08169154261632063,-0.06533422993287007,0.18197578756608718,-0.19579742222203045,-0.08671193138180128,-0.1220092178885809,-0.17860770846934707,0.0029196184548515797,0.21378604315588656,0.11912254479662693,-0.09280113555946655,-0.1476835568543911,0.00269183902129384,0.07566911923274462,-0.007914816251550803,-0.04796693748079118,0.27317973915855814,-0.02969429358904867,0.17295367898879685,-0.029702922637180263,0.061759982469466936,0.055312289997534826,-0.03247567028585724,0.10991119597742295,-0.0410442466059608,0.2627333049187141,0.01482722124186096,-0.042985887068260856,0.018594909176044293,0.10350635201433019,-0.038076945719718196,0.14586328584166228,-0.13215730521731298,0.051772357305270376,-0.013839398550637688,-0.12401817973011431,0.003118610937210645,-0.16124552933489333,0.10662178779533528,0.012762496899625055,-0.07173085261008158,-0.16478959772547208,0.06156339792459079,0.014371897957541496,0.10109401245872164,0.13846851517766268,0.02863920462019765,-0.11913030092601044,0.19363239016614295,-0.04734148508681966,-0.12397285860021641,0.17207250393155835,-0.008477017105239022,-0.010621892945958054,0.02428900662226179,0.02617555324691544,-0.01356421470035826,0.033999850438270925,0.08620745346357858,-0.05248022128163736,0.04222000695967111,0.03612761617006498,-0.017500975722237105,-0.046224511417957324,-0.03533770492996663,0.042496700157152865,0.042116835873362124,-0.03950238975686591,-0.08047122988907747,0.15332191976964812,0.04095874516847955,-0.06668917324311256,-0.10174466945721236,-0.17780250133855438,0.10585535908808576,0.147792448276903,-0.10619728460797023,-0.027329973170213233,0.28233660799524096,0.007904910131479734,-0.03742409914586315,0.09488620754439989,-0.038173439742617304,-0.015476664133853221,-0.04442510552165447,0.018607377581893375,0.1173161721611554,-0.1493436409432279,0.010559723224227251,0.05935710979669092,0.06706967442193977,0.07466839865109041,0.015840835683458534,0.08290890526877594,0.04021336328445072,-0.004273559185004183,0.02959665166757507,-0.029079273599044473,-0.003226052289802655,-0.023583337921326074,-0.04745635633734222,-0.09861416132887205,-0.08115688214518796,-0.12493869473668799,-0.18453173834583056,-0.06651210840529058,0.1656368721228904,-0.10216878313570579,-0.11717768805932473,0.13110761219164768,0.0599778236922197,-0.03615194939463653,-0.01746514889686902,0.03660061430050808,-0.01228482726926934,-0.07371909891099472,0.02166727122756875,-0.0850216174927487,0.1743417158377424,0.00393745480517932,-0.006241711174336519,0.1465594496782425,-0.11059303082525634,-0.047215049534368454,-0.06062899013740051,0.028578086792804623,-0.15512929288517416,-0.013406918864686835,-0.0225774093992316,-0.056726676609469825,-0.06639330110347716,-0.10574872265190019,-0.054420308984533206,0.1496912107439485,-0.12600034937774243,-0.07873418332985713,0.06289149818672149,0.10378028372133911,-0.010077410661737129,0.335775195491829,0.036119348279985745,0.03401878431376464,-0.17341400539551852,-0.06697087615123096,-0.018098364594259498,-0.080944620826677,-0.06424270655486834,-0.12775269822036306,0.03258253995601893,0.006584756335399783,-0.015801359018783507,0.021546372533669058,0.03426550996428262,0.11302703011626984,0.002897049681343085,-0.003546960707017616,0.021141331587521024,-0.09507975934822223,-0.005515709075060221,0.11861539018811242,0.040381255561985005,-0.13454276467614196,0.17508142353244216,0.14926984473319288,-0.06202778809071145
0.00983342176891277,0.15767176053152407,0.1289980134961035,0.10467484048250533,-0.0708204613339643,-0.01138955193920094,0.028615098975620923,0.010589636730394163,0.2930951522100875,-0.18079540109929426,0.15167764622952717,-0.12489089399598532,-0.05277940513581623,-0.05902656183781496,0.10218616541698461,-0.030990192999460448,0.10659725765701912,-0.03339166601925198,-0.036903264777945255,-0.056609874937663014,-0.028707709110118083,-0.021991374540748405,-0.09987086882920203,-0.0951571253890953,-0.13215733107728794,0.037079696776396116,0.043489746471429704,-0.00202667429149933,-0.0076771313978764395,0.04106591688541002,0.07231610415280408,-0.15719101540458352,0.02371258712142832,-0.02353702453772768,0.051252731863550505,0.06558393990484783,0.16867872723763103,0.01926674928297483,-0.11231125365686483,-0.012682971575849477,-0.05109752193634701,-0.10880524481948274,0.018785285675035714,0.1732027513932954,-0.014968706815412399,-0.0024854965376947054,0.04520341257899385,-0.07641393831450663,-0.003360091079393224,-0.010474889542050253,0.04602055505512419,0.08521753964767921,-0.0069827095145567255,-0.05990075241585168,-0.01910043607497846,-0.1534225039161565,0.029147547156726322,0.13490809504774193,-0.04648559279050324,0.04049364964839931,0.13034577111075696,-0.011479840498833606,0.14685999505900968,-0.002760406275209435,0.27246555138894196,-0.011704911558185,0.2718108271796357,-0.09397750230865698,0.15907921187882113,0.16193898181980182,0.004362481669407582,0.007960272661053251,-0.07067421569612607,0.24218767946668093,-0.10848040136612218,0.00632697308481805,-0.043406113500331744,0.021788727629728333,0.0033653805564877338,-0.18932721790861365,-0.08103828381430703,-0.03009033078058901,-0.01731108189441275,0.048410192843842584,-0.05634548262749155,-0.08652814990668523,0.03446363423070986,0.01356768143621507,-0.1322847943217575,0.032260664099312907,0.08748298866454512,-0.07792844887788657,-0.039891092870056585,-0.047494615195051285,0.14662676722606116,-0.023113378618343505,-0.08715500563992898,0.05257576169885423,-0.02911156058465323,0.15314309004451326,-0.3297241667828571,0.08945991696179544,-0.030675202762404073,0.08009292722886115,0.05724136457507222,-0.2855299558991346,0.04274165312445483,-0.1396092196418665,-0.03490769947217331,-0.07296976908635402,-0.04144607921819429,-0.09364306245009782,0.1991178807685633,-0.038155817531542485,0.025364427467578582,-0.11420055265401069,0.20155057319786263,0.014418110098405273,-0.040701261688865266,0.1826358088331666,0.25353233475498815,-0.08110877629553584,0.10729729352295182,-0.09942895189044405,0.07411271309740611,0.010330603448410322,0.24174501810418467,0.0038784398070006005,0.05715294200353278,0.2486997103153959,-0.028358660203287183,-0.005801258823807064,-0.2286964947349947,0.23480842938268567,0.03696685845878487,0.14990882612368023,-0.06313669838574214,-0.05003726068386604,-0.03349724268849956,-0.12173086900572869,0.07556539358166593,0.024117003803240587,0.07409647051440585,0.16787776064650153,-0.10233463383324654,-0.20964724703079132,0.21463377435281825,0.17919414946369452,0.04274551629525386,-0.09404075142987064,0.22569123844131433,-0.08861767361985638,-0.003763538836436855,0.007697284739746402,-0.2053426712858824,-0.006377551349758588,-0.050266396023851655,0.0927902254049736,-0.04107538204238637,0.03293259931145781,-0.17446457887820405,-0.020408045023119957,-0.0025970616515438747,-0.0014905307013071748,0.14590195928520483,-0.1073182960046048,0.14640134795231888,-0.024284239544150266,0.09904311617217638,-0.03851134067157763,-0.010802895324818712,-0.07374794002226608,0.19901543491282184,-0.12318768261052086,0.0030199166977320146,-0.004621518827544321,0.04736286844205545,-0.061017457353136,-0.21768336545170583,-0.02283060373314438,0.07797765144979389,0.007016689189675573,0.12730657942957804,-0.016979871034068304,0.007931372956776664,0.02871813235517451,-0.028014319335674005,-0.0630066713900902,0.2456224575985353,-0.007042543909682058,0.19306640507911407,0.0116414151569904,-0.02494826433536829,-0.11680698525829926,0.0078007061840788105,0.0714882109791166,-0.02911147977677526,0.09982784586078321,-0.18948983129745908,-0.0003725622540386387,0.07229729854284252,-0.06350059048278284,0.03827561165371805,0.2035728879917625,-0.024550930979227687,0.06847939592868581,-0.02710930658137881,0.034950779172148456,0.11993602913315742,0.1339812256419315,0.07077101645313097,0.0020650713076592617,-0.016979506921387732,-0.15321936538832945,-0.0191320859817349,-0.11325147196371908,0.11523665473103391,-0.04626142823833063,0.02932574330915837,-0.03322114109113205,0.021535348374636512,-0.06643130307055242,0.00454539060925884,0.024546407413608713,0.010692337011332346,0.1598243218349439,-0.09573871395717638,0.03852623635584711,-0.005307263585731235,-0.05512549821519867,-0.029967286865013987,0.08512685913965547,-0.010300475188223373,-0.01858930830798101,-0.08993194878528527,-0.03091382282062302,0.20791999592466992,-0.03133842544780766,0.03090155764817391,0.04301899638389099,-0.3226710984459184,0.07481687949863441,-0.23859127721144924,-0.1200660609708606,-0.11210933813729146,-0.1155856136235075,0.06816972010328826,0.007180964013151626,-0.14687768480069754,0.06410587469550738,-0.11237497599930936,-0.07619508504985802,0.02097461821977681,-0.1658772260565215,-0.10020262536692254,0.11813436696955452,-0.06497843018460978,0.030807942888728738,0.001844470774383146,0.0005497493842561023,0.12494953630386128,-0.06731402974908739,-0.014468424392465437,-0.10602488656481607,-0.142108041131538,0.07278816458097113,0.09013663593229776,-0.026959811234951156,0.008038933067355359,-0.12135564105821749,-0.02282620324789739,-0.010867748510686778,-0.005317426923971268,0.0753021970368085,-0.11747046316004182,-0.23498526508813744,-0.021972993764770146,-0.053601744586427524,-0.047570650336260956,0.03921541220868319,-0.08119441268282439,-0.13702167920854058,-0.011197626776370534,0.010959656273306875,0.009104875506174663,-0.029215634280614328,0.019559924080039762,-0.03439666596583823,0.00267548976851905,-0.11114887558687034,0.03809760650485104,-0.1877946498251345,0.009125020118003624,0.031741401098422814,-0.039257254753932186,0.03999541169962604,-0.033409222879709544,0.08592317984058709,-0.00470343814218658,0.037364215597874555,0.02298061814843137,0.31890458534464444,-0.08045306520886715,0.014768012971405217,0.07601643308844029,-0.07072755925547233,-0.027876266771606626,0.05288562690990145,-0.010510276961991711,-0.04465790969134791,0.1076797071531893,0.025525440739891096,-0.06595088378716162,0.11419595124112017,0.11801857588001269,0.00987237498724871,-0.029650662159151027,0.11530950749812872,-0.17663846876925443,-0.12918995097156713,0.09283771744152604,0.17471236561356396,-0.09633486133584651,-0.028059739753328723,0.03167281575370513,0.0011048020460270465,-0.03536624945675458,-0.011910236437200211,-0.11944642757239704,-0.01760173024607752,0.1521465912804906,-0.08940434402224849,0.05673259866218577,-0.0859847642267425,-0.0988557932694069,-0.00960208770500672,-0.06032770591314283,-0.04469159883388625,-0.04083681183585944,-0.14839184885668613,-0.03455953470074371,-0.03230023290358998,-0.041531506464259786,-0.12180947055833558,-0.05552841119177613,-0.020993091726411048,-0.03203399546630308,-0.02880227771582212,0.005021316275693094,-0.21204712966713846,0.29948550067657254,-0.0009746645132062461,-0.003278461377745046,0.030956134187549635,-0.012643850543239648,-0.056496864785034746,0.15930758966159828,0.20499403259122187,0.2122605314756076,0.013035603162890014,-0.08470275682214551,0.027330681047132332,0.07393908430984784,-0.07955077970807486,0.0828606096250762,-0.08867202189990758,-0.09276272616956742,0.18790712971267365,-0.1699944895132355,0.031185070443609037,0.20633736930741958,0.02951369161657723,-0.07282224303526988,0.04558197085431446,-0.06349244356000142,0.02373478661641273,-0.08572640139172946,-0.016540746415502416,0.015238319374103844,-0.11122939802419038,-0.004175298680214877,-0.0884747469959088,-0.05269371938137636,0.02602967878499079,0.12140057635867618,-0.153075007934792,0.02164840540685657,0.16801268788231455,-0.0752603472722557,0.048510709522638126,-0.21119952787867274,0.0370592886108108,-0.061409989132738686,-0.025352461832142573,0.032522417892630176,-0.24174063156595374,0.055645854908051115,-0.05304266767487296,-0.06976797677222821,0.163425287723383,-0.021271475655362332,0.19753600839217794,-0.03782074446081232,-0.02583515196076655,0.04344443809904032,-0.04154200685515375,0.09810562307270049,-0.171481822191137,-0.06955420662248356,-0.19673841429459907,0.18830853262028938,-0.03917365160056272,-0.13414511394055237,-0.07810760328036333,-0.02732306903880385,-0.01874103598137266,-0.07351183930604258,0.02864290816012257,-0.029594710353210478,-0.06488591147021025,0.09144908983078594,-0.01238334266407191,-0.1139658188700447,-0.016277127265415484,0.1214660306916193,-0.05440654005395623,0.02676855879924092,0.07230291375942804,-0.03882920841436229,0.18700071727029952,-0.14441604767958033,0.07617185410741371,-0.0569191094774395,-0.08036619632791155,0.23249109478463473,0.06170447161741632,-0.030561696529262147,-0.03270674814681141,0.09095767674400629,-0.05725946781330746,0.21877609698165998,-0.02275595094473254,0.005802557611561321,0.03929773032847682,0.1323837411617485,-0.011796549933085414,0.024172837284778884,0.09476020107824347,-0.020829594933628886,0.04783882695514161,0.2505281093545359,0.14824721911901048,-0.08889185745237876,-0.16168670131729604,-0.04068500748760805,-0.04945174052189605,-0.03555628705266463,0.040560659362320006,0.0704664916090433,0.025392957579368505,-0.24814523140195657,-0.15026955603504896,-0.006039493403796369,0.11588055294773641,-0.01893560128753671,-0.10784075373842178,0.03239266587413649,0.04972627089433003,-0.041749560439860674,0.021862271283309906,-0.09701397364571264,0.16393781936244517,-0.0024367761908987255,0.09656982649706614,0.15601252204910507,0.03773048179343103,0.1764234564358491,0.055955293888295246,0.04940383655034058,0.02704935025024842,-0.11909792187227626,-0.11469055925568147,0.060083046094231964,-0.10789405010771516,-0.17068733597694752,-0.025994297969398967,0.03980120442965828,0.05022631537992182,-0.048286305731836725,0.15312829998063718,-0.0890427537615727,-0.06582325961369317,-0.12465517555707627,0.07209721369751405,0.042221027910848516,-0.04892957237326026,0.03970185471875194,-0.10364781864931144,0.07774855817131507,-0.04165274279865069,0.08100959280189204,-0.012387830105831433,0.010366335437812808,-0.1621135172014055,0.027582213660903132,0.004582369109175125,-0.15958357323427075,0.10095510803429099,-0.0920484219436343,-0.05866910116904551,-0.06499544339214959,0.0037393053093086933
-0.014884310578048536,-0.09931579635959013,-0.0634463104106691,-0.05022675889688979,0.05219768050377789,0.17391373782255326,-0.09262944581439991,0.02131457412903878,-0.08637027515075335,-0.04797675544715672,0.024155294245431048,-0.03396382346027724,-0.02988695258826727,0.21173916682849922,-0.20497772572640222,0.04648137830856038,-0.13054660942315752,-0.011457507644797076,-0.08459684852854125,0.0036044532925477574,-0.03165006441623904,-0.0255690389596236,0.15456035655531833,0.057638273525001116,-0.05121040249380754,0.009207553621589619,-0.041487600602855605,-0.18352448412369227,-0.05450145809953608,-0.01692307731894414,-0.0332114659220032,0.0941738800398814,0.016447072745354147,0.07574263438688775,-0.24846644490186734,0.12439281735181072,0.16476948038843817,0.06447698587741343,-0.210737719102336,0.15992482702495656,0.01751629043272502,-0.11160684583920151,-0.005689373873510238,0.19578937867365348,-0.013109995708810322,0.08998924870458438,-0.06082097206870058,0.01667808528220793,0.04595568432675268,-0.016160780649741736,0.0011271872568862683,-0.10971784263544195,0.09709295265772434,0.1402480095188251,0.013397548061775927,0.044458394599605114,0.002616121171622477,-0.05073441021504393,0.10735477597068839,-0.025971601758780976,0.021188542480783085,0.1446498903893797,-0.10104840208996096,-0.0055152416543373045,-0.013797155277489497,-0.13673312432272056,-0.05483238040292633,0.0779169390350225,-0.04995587435815703,0.09452412028009921,0.003980467670851598,-0.020495853415646116,0.06911896430398733,-0.004242582999492266,0.14488649624635427,-0.024583058773098423,0.05585071835232123,-0.0016843517882801323,0.025226076805567835,0.025248899587044297,0.2108511531100836,-0.05783036361956194,0.015981460193287635,0.06787176090040803,-0.08929105046655603,0.17744453180351055,0.007901728622586866,0.016610937315035466,-0.1243851112547636,-0.018387294218401937,-0.045084381646038,0.11373513094820016,-0.006021636685293197,-0.23276520146859125,-0.2771237224920853,0.2709858291390541,0.1075164437818026,-0.03656185798302744,-0.016578135360500856,0.033846433612229714,0.1281292135726075,0.08603085810204357,-0.10047487572746916,-0.05110808658276949,-0.0658365591111121,-0.09937507690478094,0.14463718407683326,0.07315109191341876,-0.03382421856856199,0.08077000934199544,0.022256984245267755,-0.008269162437467127,0.09626065046976268,-0.015347410168375288,0.031811597483441915,-0.07181720479694709,-0.02506323618982094,-0.20499861539489805,-0.24313097783051854,0.10861551161981887,0.07306253145827488,0.1915332876639544,0.03976487319522887,0.18724421181473785,-0.08248104092867567,0.0829974745024009,0.04898499296439181,-0.12144123700200007,-0.019890252758244926,-0.06991875202108985,0.12236889881522546,-0.11903826832114874,0.10855174563744917,-0.07440655279975934,-0.0761731141181247,0.13593563299929776,-0.027984406330983407,-0.14872532191385324,-0.09273508873827468,0.10634353141539649,0.17907598788292595,-0.20673653757030044,0.06418811947159152,-0.21853726771887072,0.08058344159905738,-0.07636048077747566,0.13289619546433173,-0.14780535031444797,-0.0972613611454565,-0.05425377001441784,-0.06462434245437434,-0.0984071199992551,-0.058979946812319245,0.168283822535569,0.03215767079122289,0.1038590729211334,-0.11808131538104973,0.20859875355713964,-0.09607779387081455,-0.023872662068548368,0.11306365618041736,0.0947520476171225,0.025293875651589262,-0.15379579427340243,-0.1357701535464551,-0.05136312208424978,-0.07912121014132392,-0.15446144354607647,0.0921667082410065,0.0005059366496367149,-0.09595119716722714,0.015476870906324608,0.05580277618073619,-0.13441219065318125,0.035821389155079056,-0.07836405929291254,-0.09235129530690342,0.13974805728132578,0.0003037182627737579,0.041145348132251534,0.004283652520850971,-0.08298029313642777,0.02814173789030697,-0.11065510745884825,-0.062474053271664484,-0.027596110915474453,-0.03081652010728477,-0.05825435328954442,-0.0467479354708641,0.19707071554274921,0.0726518983726513,-0.013888526204153774,-0.04357731803490721,0.20807691841797124,0.003961271181905644,-0.09978076937223812,-0.17075464299989893,0.10353169292526146,0.17295902478012443,0.0003439141974919483,-0.022929138412258628,-0.0759946220546729,-0.08208589199229206,-0.060227369002725205,-0.023270410198663057,0.029006347158621076,-0.006432202603021536,-0.13171127671147603,0.09020609099340028,0.04769499105276194,0.09834371953747222,0.06148195924004188,0.030318045915161733,0.241056888892201,0.023037984757001407,0.08611355055912549,-0.030468021701994988,-0.15020037175084736,-0.13270955552264058,-0.13032792913754865,0.005218278606654991,-0.0750962760143934,-0.12371249327306626,0.011813906083041581,0.05287016060804632,0.2352395396511317,0.07358725025620429,0.02785621982527268,0.02349187633998243,-0.16971845043202427,0.035918409196471296,0.2859782541406177,0.17003690430365612,-0.09613297456261793,-0.03847339072361696,0.04839247841202815,-0.076607445988496,-0.14908242401127925,-0.037222892132511905,-0.05422235004220474,0.10832946205509271,-0.07572948280859608,0.05189363674229935,-0.1759232068042337,-0.022766966062814562,0.002656231958338914,-0.175538525600462,0.1967600487559937,-0.013216709378133634,0.20128037524734857,0.09357366491471905,0.14453196433974916,-0.04028559710621976,-0.207715216963062,-0.20737869051900717,0.01902054052648322,0.0835482960415146,0.006315572632288978,0.14294304773811725,0.024343649881612243,-0.15597319378422397,-0.09998443864077042,0.006483219297741731,0.04915199028244622,0.16053419363957483,-0.09060374943345824,-0.12320269731974066,0.13084816860421278,-0.08517978918941065,0.13104492454686723,-0.016707395806811312,0.0001328958331308011,-0.1683574660682797,0.07101935182174046,0.12357425218697177,0.170053513971398,-0.03338868200361684,0.18737128030806377,0.01649066210718442,0.07517822115473835,-0.11548551735237637,0.08259582732465204,-0.06836877417633201,-0.13565784904456524,0.04129468860474365,0.016374123814173653,0.06362842647075642,-0.003745832418473449,-0.07875895963542072,-0.22889302810487144,0.059281056515539145,-0.061374684544288655,0.024850333150516584,-0.1567391588522943,0.24926198548513998,-0.0038579515708341604,-0.0628345449825547,-0.07759636240541136,-0.131013683177126,0.040227829386724104,0.1511426413034676,-0.0067924997090377855,-0.07762612304085349,0.0018705379300261993,-0.06122964100193499,0.18150789188324376,-0.05403478050649039,-0.03478912494040242,0.15029205412927582,-0.0900733799518253,0.011418217250395293,-0.004767407536060726,-0.00736587447040859,-0.12206075946978605,0.07689446484174396,0.025156701363035078,-0.14139114807382008,-0.26080267615098873,-0.06954988203977475,0.28531465325998073,-0.10175142784904437,-0.019075564092194755,0.13373192953465055,0.23608317452439845,-0.031405100258922805,-0.001522204291607017,0.03696666346209005,-0.20527267128026877,-0.00767471531681657,0.031973872715815976,0.23376158995732005,0.22314976474654433,0.20306343795093593,0.1824754234771781,0.07568438690342984,-0.022836002920888096,0.042682575929417994,0.019356965470453156,-0.023037478075809633,0.024004990018522646,-0.0699325919857741,0.10108910879638075,0.199261022433161,0.19130868490463074,0.1793401059196513,-0.022526340627178922,-0.08746974292015974,-0.008233118226874067,-0.02399645157629932,0.20953989036462187,0.13743368035248243,0.06499900837252119,0.020526226285163623,0.10552636651205613,-0.040542999691010446,-0.07647753831017266,-0.23530822601884854,-0.19245451234589644,-0.131719479563775,-0.00492488434479152,0.08438125268341734,0.022968274781701117,0.09406188603634777,0.23959130789595096,0.08478366437343063,0.1681424508633591,0.12960229132535706,-0.025147777958473845,0.19986738484624386,0.03317647131660727,-0.08778151105101936,-0.0719993466081245,0.17171702809925046,0.031035288954209365,-0.007329343149299119,0.04462859132147882,-0.019970997796194594,-0.034181972191797784,0.1988083694479421,0.04408958424432314,0.011251181367036118,-0.011843612137076626,-0.009012172880584103,-0.01753125858904421,-0.05071628638738374,0.02694100586368011,0.010387381125830259,0.039424331673158286,0.1404589750598731,-0.07615920193107824,0.03680900047505589,0.09526036073682807,0.12201476691306293,-0.10192922759605687,0.07322404631711467,0.027280383638622323,0.04600392233688352,0.00111731079214607,0.11078151994066289,-0.232347493488264,0.012716401324585413,-0.20870844051791332,0.033814171735209356,-0.01583428847407651,0.011855843224729268,-0.07469434785569073,0.03792203376581862,-0.042170195656665785,-0.20643135730982065,0.15043020452584815,-0.05820351387645475,-0.06250540685457287,0.16902001849054538,0.12628046544713795,0.028812709905758026,0.1523669085314104,-0.09756255202607514,-0.005693911323837058,-0.01643635557691929,0.03048713673525038,-0.021809410120247574,-0.09948627178134864,-0.16648627405116243,0.015010596673624024,-0.11351550961680695,-0.03277587843533286,-0.0806608864325041,-0.05383068399879562,-0.0410137775065644,0.010100500100071963,-0.01667186579384413,-0.1471177844565408,-0.0015250009888988832,0.12761270179613954,-0.001898591508277563,-0.21415484720790595,-0.05844878248533692,0.0364298093267075,-0.15187279166795437,0.026337873571071035,-0.01981334460630403,0.003879228304771166,0.0026826026904607073,-0.03203675115672863,-0.09221896696092052,-0.008542036917490793,0.025773462958428577,-0.014223851708449227,0.1001382224997899,-0.08764909096058011,0.1795575262416848,0.028523115719880657,-0.11445321536004227,0.120260496535655,0.061528621939083164,-0.15355856709381252,0.034322240510224165,-0.0315864847140331,-0.01814405219053867,-0.01718667418031692,-0.05604983690303424,0.2630417608927827,-0.08495264585732706,-0.21082114638902993,0.1636437072575163,-0.021130557094824358,-0.03167598089508308,0.24377017232142445,-0.06551696910573493,-0.1634831832384854,0.1678537625782308,-0.03286622177230087,0.062144743032331175,-0.0032214287515576327,-0.06693388354880885,0.03194100217128338,0.21331967989139775,-0.018444704481651277,0.10217500456798459,0.006102260316890793,0.00821211364314091,-0.10310545503943412,0.00042974986704337183,-0.10648609780427777,0.09108940070856579,-0.14383562351572107,-0.05072109915861325,0.011665974870288118,0.23043390015885112,0.06231092577515058,0.10010394106924232,0.053991774707082926,-0.05938578520548568,-0.08962204436416642,0.03699556771341609,0.05016080191856452,0.0017317199121259991,-0.1410280405864051,-0.1210150627974223,0.0026485587850543484,0.1740727851288208,-0.023136769068874147,0.0776082332470556,0.17129159614280393,0.029006258281957277,-0.03757356202297659,0.07826692479714747,-0.2618523251348967,-0.021835643807434763,0.13412147412906425,0.017009444355301814,0.06264116093560063
0.0043960208973607764,0.10453374923902287,-0.028517522460703486,0.08718001701586127,-0.031079243313641654,-0.16311219618597753,-0.015134978975919174,-0.038665656550697515,-0.16984585433538635,-0.07363769787233185,0.09766193089342141,0.0836885229375924,-0.08750816674199288,0.09775292991254193,-0.10789814856916685,-0.03801521548251676,-0.05679981700641484,-0.03236645722246064,-0.14588750537377726,-0.016623965004481572,0.03758179492537416,-0.03331314611918141,-0.026719623159986244,-0.02102515716156883,-0.02967402623679198,0.038393459570328976,0.025824009814006427,-0.04762734732978844,-0.05736798428309276,-0.04982365510052627,0.13379192920257627,-0.21721645942847975,-0.013948008982708539,0.17477300069082408,-0.230614819924433,0.03886930608298759,-0.15054873556245524,-0.09581160011784536,-0.05318150536810536,-0.041668244420603046,-0.02280720424324611,0.031718410371560306,-0.04434051750380429,-0.011197459348097202,-0.004288932286481218,1.1624233038525044e-05,0.01793050397092394,0.1501177936174751,0.01714641208586606,-0.005675840694329314,0.08942470365340555,0.03936312758141503,0.04441001622368221,0.1342951815901531,-0.00718638716865988,0.08412269821410438,0.03358009078106073,-0.035719345559165415,0.10732080747176441,-0.009531226355143732,-0.0327105577153137,-0.0706042314975388,0.13473594895960606,-0.012628488063877178,-0.1259991273558599,0.010148640651664613,0.1747111516864779,0.0339991490030637,-0.0372039266169533,0.06681832873763742,-0.014915055320427074,0.11171279631221598,0.016047654835201257,-0.08765650715458465,0.011502570215086867,-0.03882218980638016,-0.04993324241887694,0.01887592722323144,-0.03695586269085407,-0.18133832068940742,0.15144280034884855,-0.013265115109974808,-0.029357722527612363,0.16760922256389424,-0.07571820380864443,0.22397965892960112,-0.042254948835139056,-0.008319557000938763,-0.12895689003661778,-0.032267155457201845,-0.05424165118933342,-0.015624141565609432,-0.011169109883548113,-0.09853553919594406,0.08997771001016922,0.08498287423679024,0.04535987787946508,0.19739351744308992,-0.007337798295150687,0.15364250524541542,-0.004072172150507663,0.19037860855892952,0.05633345585858003,-0.005470262401967758,-0.05325742323366771,-0.1853306644824156,0.08516440947445886,-0.1161893463820542,0.02953354947329834,0.04689136011323295,0.035534239585065006,0.06823820245534631,-0.08678479041379382,-0.0193291493975356,-0.0024021394469701386,-0.12024810437562754,0.13105729516502465,-0.13491711519922547,-0.0683331147982258,-0.01772843730898455,0.009828235300567952,-0.04058008406112995,0.12207529310892536,-0.15944348016904616,0.012911973882702753,-0.0655705387047328,-0.07678865571772554,0.0004454288103536305,0.008606748502164653,0.2709053923441183,-0.19864857368217245,0.04542227339339927,-0.11830788733788432,0.08008360542154948,0.12384562664160671,-0.10032499600316343,0.018088274028953126,-0.07896445121921442,0.007992188531340245,0.05712371235338318,-0.15102773039246176,0.06316240015760828,0.18044656272211756,0.049809938633092694,-0.10088321884240664,-0.1934427721095803,-0.014854176202869631,-0.13200607696822111,0.006689152300934242,0.10835538790534925,0.2260386392584622,0.017500129698266344,0.005216413093890751,0.04923779574817852,-0.11536538484814504,0.01629199230728626,-0.12560067155304752,0.028940974898361435,0.12872779695141676,-0.021344381964766908,0.09835871945940139,0.16443138707962085,-0.022919360417776723,-0.03848275314279973,-0.13756300353399603,-0.07491458702033144,-0.029909781679060308,0.040573994452751824,0.021177359428743135,-0.026723770162413653,-0.014295973585907848,0.02619192551779111,0.13415025063433975,-0.050521951410188795,-0.04896670025974049,-0.04937892983637543,-0.07070270569319093,0.005275131728076059,-0.026704311367545384,0.16205437120669985,0.23276620377441765,0.02865059117375491,-0.05626189786540205,-0.20205385796324304,0.04318191978814243,0.07432502094877615,0.07002016221203523,-0.18292558628305308,-0.0883139199653605,-0.1042102696180332,0.10027132626760489,0.1407722593993371,0.0006397692273072441,0.02501824995812544,-0.0061827010946814,0.15451330910747377,-0.0452485112609095,-0.08596236537969022,0.06330826477195038,-0.044523885892413906,-0.051900710033269924,0.13614302920139215,-0.006739309593662386,-0.1398006844099889,0.012274195394511517,-0.0623625901585158,0.026966093150501733,-0.08080439064246049,-0.2582292064836026,-0.07880811923172007,-0.06430544442195901,-0.09621860405436897,-0.041583889417986415,0.11973235522277942,0.0018784440963159608,0.08517486027312814,-0.25334450619116045,0.08073486179644716,-0.08890877319199818,0.10513622163965688,-0.009491365932175934,-0.005921873503098488,-0.18012887463893432,-0.008529726758881128,0.05437506973918145,-0.19182108279099974,0.05293220985713796,-0.04878381627044624,0.039198872423010386,0.04685260818311217,0.032051285861035506,-0.061775050147083066,-0.09749828669338453,0.20812878819737865,0.011631507897192498,0.165110484901063,0.2115935071276462,-0.05724414678253903,0.01808136845434074,-0.07047016061064194,-0.20272996628154094,0.12309279701159503,-0.07321037054845381,-0.08765267244838436,-0.11854267748870616,-0.10822767245441439,0.03256033684377749,-0.1965819631913921,0.11241652641633988,-0.12031399184918933,0.11690051806657113,-0.008490727182979958,-0.03940409121122338,0.11266820283179553,-0.13612716441159417,0.059273703859893355,-0.06613106141476004,0.20006299477683445,-0.0655729962535539,0.02253916119968063,0.007888481685379357,-0.10627486075510807,0.026692194024914996,0.18541941222090214,-0.0041579696820647554,0.058804163885252315,-0.1086616315027188,0.07870080229268217,0.22994262948192123,-0.12022666075553742,-0.009331293936044179,0.01517350191573336,0.01441708847978462,0.08228615569125108,0.19034184442170768,-0.14600784165884276,-0.03623128364793884,-0.007631908778670129,0.23632907176379767,-0.08956130369018503,-0.127100926059145,0.010202256166370296,0.036467861650352165,0.079244667575847,-0.023156405019585043,-0.05796639108111357,-0.1225478484224442,-0.036392036209192624,-0.0010176651995552706,-0.08362104071664908,-0.14424521147489533,-0.2804431537824976,0.07886313457025133,0.18721467748215295,0.023246968171462105,0.10392168287273093,-0.1620981790157065,0.10880575959335002,-0.13691178762418998,-0.01646101141408033,0.08423393526407477,-0.04697278064328227,0.12264751329625233,0.021479263308119133,-0.14322848642242011,-0.06525154545507308,-0.021554402846535786,-0.01990512285576499,0.07807737924566317,-0.04937553397604254,-0.06550290426798566,0.029875735465054645,0.13171332598264002,-0.040846237966140966,-0.08652264447313009,-0.01846587045492914,-0.19454198091647992,-0.14174746327514862,-0.19723664616883307,-0.07100118887047223,0.04355504511824939,-0.1354499420687517,0.13575270512846152,-0.045114747466679386,-0.014097744327814396,-0.011027576262392836,-0.0236426643484844,-0.11075760552801338,0.024581387925680147,0.015464385085297475,-0.09674306547875505,-0.07513500288958141,0.0780530826713601,-0.08861369721928293,-0.12740174919440778,-0.014923363256150363,-0.0817727341015381,0.043563947391642294,-0.04461806596563613,-0.02319422433446355,-0.036894057752726146,-0.0743942213494353,0.14808266247470694,-0.12625179496833533,0.08294088992789267,0.023147660791346992,-0.08987281440696374,0.05845864218169663,-0.04688333550959735,-0.007833572169684978,0.221194914859904,0.18355102839134202,-0.11976541399399607,-0.03658511275407699,0.022032206743861634,0.004254128253372123,-0.22055854584176612,-0.058643685792499595,0.09918047276232297,0.09846728713586184,-0.1346996636054163,-0.12821470305548957,-0.10095278842186117,-0.038765027675810436,-0.11080808794414815,-0.15522358167512257,0.09966101783280824,-0.11095947496179596,-0.029450596191279033,-0.013052007609763482,-0.1510077762665335,0.07419724235965657,-0.13103583958700132,-0.020657307415993677,-0.03374418831926201,0.020425622420190474,0.18548584765597273,-0.017535710754258704,-0.16986470455745925,0.26550405373642205,-0.02552762619396553,0.02589060971739424,0.07375382662320247,0.0702787390255736,0.14301314279489644,-0.02270610215008015,0.03696794920275298,-0.15362823364376813,0.1280475509268849,-0.1573239767420956,0.11966473818922797,-0.019110519533679118,0.1486483260614284,-0.050444837512575134,-0.1974098730258537,-0.19535978043892313,-0.013418187113110111,0.1331934211988433,0.12348211183018852,-0.007570047170041045,0.015384727101707331,-0.1694500602785127,0.017049685041323672,-0.05601307226220884,-0.03815116938942388,0.2916494503439696,0.016508959408647148,0.15281475628577043,-0.003063288991375501,0.03966233608857439,0.19875719113290563,0.017107506263591424,-0.058373546262342466,0.10024505110940315,0.0016429085991903302,0.03267158860046554,-0.06864811522309686,-0.02153874449597204,-0.06699022629925604,0.016494296270160514,0.011855538165267403,-0.09949014345810742,-0.21793801310053457,0.11765321846138496,-0.03544944322402773,-0.16009334886603296,-0.12057624466276746,-0.034569894271974815,0.11315405049703711,0.09480487223241524,0.0968357430506516,-0.035897349721408255,0.010964794334436529,-0.1611221455161298,-0.04276234234618499,-0.08038610972629853,-0.047698361772282934,0.05351679559562955,0.011548419262672145,-0.1786426288563478,-0.10816619864895914,0.029755340080181276,-0.0343388294412502,-0.0699025410881558,0.13571033890737186,-0.008336119473550481,-0.0031622554481375697,-0.0037786157606866694,0.03771655058990863,-0.048841034609649864,0.12787911016680184,-0.14539734476474556,0.0647847467734815,-0.07661728091897406,0.12951593685139312,-0.07207311625360828,-0.09553796690745148,-0.055207046332011095,0.028528145181769448,0.012983028763097641,-0.037224981312511826,0.09082741702869085,-0.004910805687657651,0.08552286748475699,0.10763125391072494,0.08963330726825251,0.0005386167303826208,0.13390659442885017,-0.08984464501554885,0.14901310083938588,-0.04266933953790145,0.13819746851411704,0.05846265449166852,-0.06286562436503103,-0.09286775858720107,0.060495935542777844,0.05781385880887462,-0.023205240529196057,-0.027533384223835094,0.021967616877392484,0.0704386000464946,0.2385157903019496,0.10097880701344615,0.04635930294160092,-0.005232998473093434,-0.08699714091843141,-0.12190977281563489,0.06345387056343535,-0.1044287208624688,0.08813969171005694,0.05430676453815392,0.032907423361812474,0.13283416179139318,0.039457978055266525,-0.04042049140655705,-0.03725463496660241,0.04349538034009731,0.07349623196893983,0.03919848118056845,1.3174338944159041e-05,-0.16309068742499816,-0.000533125531083182,0.0002895518161167846,-0.04907418246546292,-0.020917165420539965,-0.010177126209320052,-0.08969251739391533,0.0010135266254466405,0.15469434863275444,0.0454056436275497,-0.0873366517386736,0.1766834390255169
-0.009068792015152306,-0.07509908010357516,0.007326566724712691,-0.027054261325164836,0.18060304450997816,0.2399659623940583,-0.09522891942113534,-0.02105122057332906,0.12511241970295317,0.02554037051225457,0.1177092036187532,0.02786556919181958,-0.05182365290777159,-0.11574793582357368,0.1256674822346069,0.04201162322998592,0.05783769558357164,-0.02625729788563053,0.05273290593173159,0.032978021867973516,-0.03358146957098119,0.0063739149670907075,0.0431582229384952,-0.0775530543807961,0.28478994344116965,0.037959032209733325,0.0032234048780167193,-0.09042518247107449,0.02245704891489567,-0.01894081581701591,-0.23193748035305242,-0.10303894447435567,0.043959977366521505,-0.13934364594801874,0.1150199789325808,-0.08203130122128119,-0.0817601602629538,0.07640357604984202,-0.0585876206594831,-0.083010221042085,0.08716326744972618,0.2408239959605255,-0.03605887396560518,-0.1298214886263203,-0.035536509126043066,0.06240479825173246,0.039575508940300055,0.002706357578062821,0.05905861779583583,0.03232617271023649,-0.1327303282474182,0.15113712826882833,-0.03692288162412201,-0.08289341437076483,-0.005503601593420072,-0.08551349880075111,0.032376937022882586,-0.07073666799483593,-0.08532551865260694,0.0065393064072075185,0.07615724688229271,0.09189712127168997,-0.01264026853662557,-0.026515358254998633,0.11803638671059193,0.030724342805377725,-0.1110483589562551,0.012961615469765543,-0.17024589981170268,-0.06858168422868684,0.035378759976880995,-0.0033423808254732013,-0.030565943402480287,-0.0360648559639567,-0.2642383036015512,-0.00803809003565505,-0.08582815661732116,-0.030604567319824506,0.1632910184135835,0.16010544976295346,-0.18963048122855444,-0.0021247385910631383,-0.010360753461523823,-0.2704042260764927,0.010817466579218176,-0.04869029661007102,-0.03381888057212351,-0.020410928874458684,0.07154423458143463,0.021874324697053648,0.15081082629679585,-0.00977177918298075,0.020699222658824866,0.07943554110695399,0.0637139136825094,0.09219804191829066,-0.15491249790200726,-0.15541362865655803,-0.002777612001209459,-0.15749765567406718,-0.05838515455137167,-0.0733212553194824,-0.001361352819715549,0.08250914745719604,-0.003276900402925938,0.11323135572488632,-0.15755810943845747,-0.1739396503799681,0.008868557749972203,0.010821627625326973,-0.027048248633091316,-0.113834459929901,-0.043194683859702994,-0.011922909369357722,0.08757703255079904,0.23630437444842506,-0.1765856278820104,0.03552623730696838,-0.05590969594279234,-0.11263041861356643,-0.017710075675507815,0.024418172292265953,-0.18707452059192278,0.16926121451583592,0.023513781800469348,0.2118361568349126,0.057116316292651334,0.04430185449708283,-0.00791629751946462,-0.03916385924588108,0.05301126042030939,0.13277171857079567,0.11321218857271267,0.006067008244229515,0.022377661976028758,-0.21708053514803022,-0.0368396840857719,0.016427927200595226,0.0917010663003144,-0.022881642784216238,0.07553140776615559,-0.08187922310849924,0.09124342342829346,0.12116983014370498,0.017722216169876903,0.07019836643333022,-0.08702338042196592,0.02991394155397763,0.03003377669325995,-0.06396774852532866,-0.04758151487603173,0.07974281965478665,-0.08045054293329716,-0.0497869605295412,0.12240620131977144,-0.050742510354132776,0.20789910284376487,-0.14992965994381444,-0.007267640584781959,0.028359153365075322,-0.1710014673528278,-0.07896972969002901,0.041705332415536985,0.06957959131275225,0.07241446076116358,-0.01880692532577936,0.021952508447466677,-0.03127568059150518,-0.099540111541057,0.016521443891150015,-0.05600698077401052,0.03737349357696127,-0.04431188546547137,0.010479904000433908,-0.2303701582751134,0.12844458853315177,-0.12240061009354301,-0.2680786712143735,-0.07732576401687274,-0.12422382011104058,-0.13572848556565567,-2.35109854342995e-05,-0.14574314674006694,0.1177412301464044,0.05734493680807387,-0.01312157583654293,-0.08504412145707002,-0.03808477880462998,-0.025489274433253873,-0.1871961366343275,-0.15317556421700917,-0.06539426063888575,-0.0427718993584389,-0.07405368100701885,-0.04327745842692649,0.02536398361886214,-0.056528615483505344,-0.001988851315626489,-0.03711900775325547,0.03745575499896786,-0.14064729341152046,-0.13482750142844835,0.031941305683478714,-0.03297673079671568,-0.025155602359548255,-0.07656691851127576,0.024095136914157246,-0.07229959399892777,0.1779963492688054,-0.07990358611343892,-0.18081565082362588,0.10375066482983224,-0.026269821063317888,-0.12925182719248107,-0.02879166719090283,-0.12712262392543308,0.16600561633601796,-0.11362025493106662,0.14639935377216995,0.037111805015819295,-0.043728133531645896,0.01921869129695736,0.10020696372902659,-0.05623160720705175,-0.09863629129819576,0.05837874822058347,0.0967934061507497,0.07106437974454174,-0.007954013205383102,0.022653198413830303,-0.035979645950787946,-0.031070417790341594,-0.06635457770402581,0.25848705511815545,0.12498007449150243,-0.16454964749238427,0.009351687969527277,0.06453759586918893,0.07428484252828171,0.06180214739536833,0.03432374354178953,-0.09710169940246616,-0.12323646254390495,-0.10474297398576503,0.27248224301987267,0.169040260101491,-0.07992873660458347,0.1892428734373017,0.2550343793649569,0.052794055766873564,-0.017657479387698797,-0.04777106868090425,-0.015611571971141549,0.07887978159081704,0.04238550818841423,0.11621106423036445,-0.08389271647188237,-0.12776306704833448,0.052384954480644175,0.04148738212472879,-0.02768140235287613,0.137198975245295,0.07781289013962729,-0.045528143642619284,0.1781433829061676,0.19879839774702773,0.2850741372226624,-0.05569721027781524,0.022811676762777656,0.06662291791965226,-0.010771862663557775,0.014418744653425708,0.06578022737896069,-0.06631851443705393,-0.15096463925607895,0.05449598893598732,0.04188648281013258,-0.08811192553591202,-0.05910082528867978,0.1323036141992289,0.19331572509105863,0.0731099070608752,0.12469303102367234,0.14008212117448424,-0.007940691798051904,-0.0036296745962360066,0.051387757581282126,0.024595470619071143,0.039079769643550664,0.13049441537910364,0.05692170266309426,0.09743126676201724,-0.0746931628159019,-0.07605233107985424,0.014042419550637716,0.038382249199740814,0.050186821632144156,-0.1427779971014108,0.1909928494313776,-0.04011822917652561,-0.1141871747600824,0.0285781637280821,-0.010807003949746513,0.018907959126763865,0.3107556373260999,0.0885889520021674,-0.016924061410919695,-0.02550683172660109,-0.09173692471710533,0.20112155082642902,-0.06757132273860199,0.02534334408096214,0.05410572530366898,-0.0947864262768423,0.18976401759595798,-0.018779303611157636,0.09579792026225699,0.1102728283954372,0.10566968398657113,-0.08913559004888731,-0.01835492977279987,-0.22175021066236447,-0.0962066590386757,-0.11697640534215734,0.014458958360695485,-0.0011027399420346065,0.021847269017109608,0.08082302516257157,-0.04267210523914669,0.037786135358329136,0.1741005312783834,-0.17582210005841828,0.08287116194784702,-0.2153856065900891,0.05752674503034298,-0.002404932146011156,0.11685455497757953,-0.0537319427151423,-0.010801979814293726,0.23215848153793334,-0.07371793337456997,-0.13565143837952195,-0.0651603438253888,-0.1388808778721944,-0.1099536869645974,0.010821151907988734,0.19186276504011912,-0.06781612182410482,0.07879661471549207,-0.2418960508687248,-0.08786209000021704,-0.05248112532826595,0.09076986723648746,0.0042180052003618265,0.03549045502982945,0.1963213459779369,-0.014441415430548398,-0.14967697296597848,0.008974012888941197,0.04395616776159036,0.02265331360829335,0.19153658653895236,0.11943001339363753,-0.03612470469490179,0.1309479327614793,-0.1684294947055016,-0.11587167156330153,0.05019733858595823,0.13604130906985154,0.005645367581848627,0.06764184951937068,0.022676133420011516,-0.13452743584165147,-0.08225114042083526,-0.04640701868267275,0.012173572552643756,-0.15874143353740022,0.03342322510994666,0.11404846903760398,-0.08846163137448476,-0.0034848456023403346,0.1211455866935068,0.1996410373766115,-0.054165243954964866,-0.08016013869768997,-0.11953024083178616,0.013689153611594007,0.16409288179767526,-0.10287468617242812,0.1393893881498398,-0.15039908489252182,-0.03635048516882733,-0.26473014674045453,0.10145947266734519,0.19660980219814583,-0.10240118664421978,-0.04953042252739698,0.0922170598364117,-0.05049670419087196,0.05484274321341221,0.024356112691126235,0.06255041675442374,-0.021367815475427182,0.07222513356802149,0.0015650817330639575,0.1359252510708458,-0.01988936096492477,-0.1730935256232796,0.018924872538502918,-0.09676800154918323,0.013514953583762531,0.11305305210260223,-0.06465228472304126,-0.03147004731737398,0.06176646012570118,-0.04240120505038301,-0.006055499588107387,0.0025686206322072364,0.15525396653224124,0.06214586871344572,0.057350084897251595,0.053955756245150296,0.0878234510320492,-0.10571759263960656,-0.031583901157992825,0.11510864127565276,0.1880117193100542,0.03807429683203023,-0.20394153306255702,0.04739417729515367,-0.0015581715273934452,-0.0836202253005573,-0.06674031327585271,-0.15370502116669124,0.001063428115317961,0.19554773281004156,0.017018239171011036,-0.10005039450731022,0.12690648093311788,0.0462320815071897,-0.040372683869175405,-0.029914746208585183,0.01135603432146398,-0.0858751441185783,0.0804573165803405,-0.00818621298990794,0.00113189985303813,-0.03803105131669905,-0.025998957342876106,0.09846242153799571,-0.033365007004402036,-0.10042578037874425,0.10633603965481098,0.010077313637278597,0.15378460980124886,-0.07618816972271361,-0.1533352370527225,0.080773801085446,0.09623345247240153,0.028150327892220987,0.2445164329179213,0.050737305576827846,0.017451983141702297,0.07987954677804247,-0.0030944776240482887,-0.024439395277594898,-0.035691096353716284,0.07322628367201865,-0.07206659329275035,-0.1048122504044488,0.0861728304514629,-0.04402875625424628,-0.22206478760636217,-0.18908263031709885,-0.17109232496570392,-0.009830861617164158,-0.020875125026382065,0.15078403152850267,0.07385992681125507,0.040277688521289594,0.13838253546595797,-0.07089008403926593,0.05798001254218911,0.1148181669170101,-0.03084347523800519,0.12390157893995489,0.09202074121698789,-0.2645000493410492,-0.06148668079466363,0.05317685803702246,-0.0352894868141977,-0.06250073822622726,0.003100268792720786,0.016539918828212246,-0.010876149405301584,0.019615072413015702,0.028169749570713724,0.03704816846564759,-0.00858251967968059,-0.04616344194405822,0.08484859811623847,-0.04868395510039372,0.04372515445048962,-0.10985595873740572,-0.06182684226185775,0.03052502749008367,0.022600911049422516,0.1117509668432639,-0.09786880358594895,-0.2252583377948903,0.16540506061606677,-0.09099277851661135
-0.006105477280586697,-0.08616394026037186,0.15706877095713562,0.02326865712228491,-0.1984244114681618,-0.20698791089341223,0.14011672524866056,0.008326229572269282,-0.23567493789281035,0.10203050842115878,-0.1770609052677621,0.07836370291187819,0.07154555907885848,-0.009486267438814679,0.022073924823205845,-0.07784421342806594,-0.04351726516367866,-0.034227742044301734,0.09462027655860095,-0.042680980366994,0.0007262507685346647,-0.015461583120582122,-0.05392470881032487,0.06897518913796895,-0.05644006712459903,-0.017830130577658913,-0.05079998342840699,0.11448726281446102,-0.0075291555559866274,0.02674207919623229,0.09686174191953315,0.11353905301547416,-0.01803168161179632,-0.051771578098834106,0.09242762519954416,0.12783925854734984,-0.09382738301159886,0.13218183029779196,0.06666380579248411,0.07373528333242486,-0.07920459141158741,-0.22617125144766126,-0.01578134827583802,0.1574124023083498,-0.02854755397467144,0.010816506068182595,-0.09764666812081478,-0.1276764022220634,-0.0868969456431943,0.03384665542007534,-0.05371534827860397,0.004990298957090896,0.09244057898445474,0.1413466789907818,0.13937105631499694,0.09735462982874689,0.04026306737439096,0.05184750995824496,0.12470504132756309,-0.041947255482599276,-0.00014967843598569157,-0.10404432092335947,-0.06538571884740205,-0.06080189631279683,-0.26885094515168384,0.051685681676301935,-0.21586813773011274,-0.06459298398929307,0.04966235540794901,0.11360388875339937,-0.041941375623263895,-0.0817648683600939,-0.009906443238390317,-0.11759812420918653,0.14166568041812694,0.03640831969418598,-0.13881761079812013,0.041010555376517335,0.022563463102081148,-0.1025526275199905,-0.11335785847139174,-0.058402698011382786,-0.029095039285902343,0.15096804527454843,0.057213009656065794,-0.2199293481753604,-0.022275944825429977,-0.006056447594840446,-0.07427227416415724,0.027642398367125356,0.06092553847490874,0.14064164351185915,-0.001651873935698534,0.08366939419397526,-0.16691445933742247,-0.13739255894333818,0.10660648220799511,0.14959659951132448,0.005853441036719833,0.058852923557316666,0.03861837474538804,-0.012261910045423664,-0.10811959411562858,-0.08296348836042555,0.11966386110100403,0.05742071071573671,0.11246963838986775,0.0997712367282303,0.051762078302401614,-0.07844617024066004,-0.0043966628223473065,0.18302687758809774,0.012552675391176889,0.018120659963737004,0.005479381248084515,-0.08880082086422388,0.1281879135700761,0.1727192815330561,0.08913325448638695,0.17004811427653305,-0.09035772336795099,-0.02796545983419619,0.037404504469228946,0.14956756213255165,0.10670108880883376,-0.05036437267127394,-0.14855685735283466,0.08602936415156444,0.0554854035162648,-0.16747190756225572,0.14630677640611758,-0.1419858622737544,-0.04196460994975176,-0.11256292001041697,0.021407114670902807,0.02648901613743023,-0.030589999693395376,0.1525215862908282,0.10941492839084978,-0.020710371140288827,0.01579554186584833,-0.0869836385658499,-0.042289163973990754,0.081800408416752,0.11453917381903518,0.15292678506934132,-0.04680421164128364,0.055609974381153664,-0.0701424173302729,-0.0766879976782149,-0.09292002215256716,-0.047739514652296894,0.001977698603810798,0.017016259040825096,0.014322660194391755,0.09858856760185913,-0.04702999380419583,0.05687070009655646,0.07570703774523112,0.006931769463399654,0.13615252716545495,0.0016444434690552506,0.09287711266421572,-0.037352882501993825,0.031225210946098206,0.06520836579790827,-0.058746544692643385,-0.005526094535591186,-0.08015344294006814,-0.042972068333494824,-0.09148180950556538,0.022448589768620946,0.040165457677602316,0.12101071954288303,0.1521708001836066,0.03956008759338025,0.10403310914471749,0.15962658789571338,0.03418976974071463,-0.005532092236853732,0.12971004158341282,0.05734883002305727,-0.1460059086421493,0.0771687897549404,-0.02030100841986972,0.08841078574731417,0.022030618553854377,0.1573570976992464,-0.14183728437253684,-0.12873045799171054,-0.10760020391258086,-0.0753446239363751,0.01959317617740237,-0.1739148428482855,-0.01805071221403024,0.06341017565321339,0.008698190172906007,0.1744245704145787,-0.2033075135799755,-0.17519503286646887,-0.018621933758481504,0.17576000458621185,0.04576549293926614,0.04774728627567477,-0.011570759885251847,-0.11601278230629128,0.04113130292345427,-0.13939142810270538,0.11444696380773262,-0.08057722952717773,0.054572090159480606,-0.01096233039877378,-0.015895157497286105,0.08706571629139818,0.010734115020987724,-0.005737330519618071,0.056563721649273174,0.11679995561917056,-0.21278857896463127,0.1083592802737545,-0.03914349103219467,0.15392579081108332,0.07421381443676263,0.07631630616122423,-0.09913767788972253,0.047132496588667215,-0.16283949483945653,-0.06793915358543794,-0.02106101630794221,0.04559538470087979,-0.007776043033267864,0.1096586269400985,0.12078699387538047,-0.1262659113726501,-0.05449983203270796,-0.09723663587415389,-0.11798744682990583,0.059035079239571436,0.020618891758928705,-0.10254518388355544,0.13797948536713522,0.2302915895674657,0.12544868203762122,-0.00831823055955813,-0.13641824423952173,-0.027462229902171544,-0.04553506277471604,-0.08825043021302768,-0.20203115452580558,0.010917135903846043,-0.08603629150102252,0.14061049565619188,-0.02154846398684447,0.04301107541119171,-0.004920560084121987,-0.21760180974548954,-0.07667871886499585,-0.14141474054073735,-0.13110823200227725,0.02151093890277581,-0.04545001530631014,-0.11753675434503362,0.06782795253775001,0.08130141246236693,-0.14525656135643294,-0.012037685034265718,-0.23422963248236045,0.03526571372478251,-0.15174921083948434,0.08410599725330005,-0.030647457793127945,-0.040174342556447515,0.02206378709597883,0.012452227289936614,0.28225568276524515,-0.03810204981426814,0.018982452305593936,-0.1179662334213989,-0.08985701544404863,-0.11496724108436573,-0.14967245489799044,0.04372199277306875,0.07837410562907272,0.14789889709702553,0.061153623133252115,0.09076087144874495,-0.04258910588711066,0.0022859695129809703,-0.03511693297995072,0.08057219184596331,0.09179830893556452,0.19365412057759168,-0.05949518625409763,-0.04869167199298241,-0.20873251335535395,-0.04088223384187427,0.07030088143069349,0.10869293676739371,-0.10204669143134844,-0.014492843569739101,0.24382511593081907,-0.12211791264133531,0.12178496179526338,-0.024348696595038664,0.02302014267350917,0.013687296956640395,-0.04155381490238688,-0.0345039515490716,0.04512448801127273,-0.1706264320756091,-0.21691799365437575,0.012849393318980079,0.19628951728626354,0.12756999230115224,0.136585624689169,0.0028823384479941647,0.11263779559726525,0.11099114268647967,0.15030086092196027,0.06033399328464991,0.011819479584159541,0.08877778487501536,-0.11253407702628983,-0.10113528833779815,-0.04436450466473569,0.01801280344452498,-0.029465257592915052,0.006682751883402453,0.03321639161049931,0.03561810187403541,-0.1447337240721489,-0.14855069406244525,-0.17302519019063764,0.1528181389527889,-0.10678975104273103,0.04017684489318875,-0.0028542566150670376,0.1077429231344736,-0.025709787151211444,-0.02773569224675908,0.15080964273183492,0.149428723926838,-0.09553607456872262,0.2081980982401267,0.008788741821929742,0.011111076579009239,0.012314044984196448,-0.026681741885606264,-0.035051432647766105,0.08970941304476457,-0.08040995945795987,-0.18677467185592894,-0.05958143034833055,-0.09264087786095841,0.02406511682961491,-0.16285735974182108,0.18779839507616758,0.19510307363401738,0.11409925278527923,-0.06080600151497106,0.08577251614379201,-0.14652406321440972,0.0341346056559474,-0.19514832170028526,-0.019514432396869688,-0.05265997961404892,0.17082164122285878,0.03280988526844039,-0.08391888772340006,-0.05370029968121574,0.05907948914781985,-0.05879509923870582,-0.14778282856880978,-0.20465377269097496,-0.02452714950908389,-0.04638937060708033,0.09358548792106225,-0.022259378952410855,-0.2587720273833807,0.08342754047450479,-0.018574368828455826,0.027894073301912986,0.07378109281941744,0.01966009326469979,0.07346740011634917,0.025821718823001563,-0.011309256441196482,-0.1834541085173975,0.02252130244527049,0.1392059790561851,0.05399968447658368,0.19847629943577694,0.017940378372954223,0.05107914539565878,-0.1750054288910418,0.12124468293632985,0.0072673816233653835,-0.1591779581857422,-0.15052862055212776,0.011491119161379008,-0.047413205997961956,-0.05016835049316665,0.022646591494846786,-0.06626870643633634,-0.04820334675769083,-0.15186930081496053,-0.08020369826223006,-0.07056950017163167,0.05342207741591027,-0.02013991773170975,-0.09087728275053325,-0.006573473322403743,0.011252089392757788,0.006861693461408623,-0.18712151796095414,-0.10870487380675159,0.08804823591350677,-0.015567956743113164,-0.0031914207495377543,0.059155132638882134,0.1280831029328139,0.016200215570870206,-0.006935828503854914,0.07905923325586568,-0.18908528600900262,-0.14747892287604142,-0.1375157474748677,-0.10802286785143927,0.1531058343137501,0.12117969951442477,-0.05053929704374195,-0.18578412171387598,0.031057909904676516,0.07131939001394728,0.07543257906333403,0.008523700580492751,-0.02698658939035074,-0.08190384254031882,-0.03296409604562172,0.10310807694806759,-0.05803881764473906,-0.022483237404208753,-0.026414618693711603,0.22296374933355978,-0.12342358562725715,-0.02412492212367157,0.034304853200399714,0.003152052407194212,-0.13462808804777548,-0.05870886691622431,0.08070078950965424,0.22239027510032663,0.08473907984239917,0.0620855627389456,-0.08765924409037026,0.057380577637675664,0.05001573790796571,-0.11959078916657785,-0.09758641192588458,-0.04223009759034224,-0.19049311884444284,-0.1450437616236125,-0.07479274821193256,0.07712043858680644,-0.1637673907558923,-0.07686517449594911,-0.024739693241922923,-0.15858293524421008,-0.10001041960250844,0.09188555207165996,0.005804272396573964,-0.11143554421433184,0.0892436442670949,0.19141225302944953,0.07550583721618058,-0.07494450783369788,-0.21793108599854252,0.04209677109482775,-0.04397501826557659,-3.857545011781428e-05,-0.21463974729397078,0.09318967069052872,-0.03943825111843516,-0.014332739465558237,0.18344711023499083,0.0787534206283654,-0.10622063451673809,0.15327229907172393,0.07094306450642787,-0.11652350884487235,-0.13531121808090196,-0.07375030727328798,-0.16256764513098912,0.10091811731638112,-0.012241336880720034,-0.073822980285499,0.024405238327836132,0.016334570236169323,-0.06486683331946069,0.005652938600518088,0.08147760335538191,0.00935384906417804,-0.028735210481818714,0.06400008385207501,-0.029421197250735893,-0.01786708345282964,0.02561004118636881,0.17249609847825706,-0.018452263850982552,0.1334770572718168,-0.15456134737125823,-0.1277719518598224
